{"BatchSize":16,"SerializedLayers":[{"Type":"L2Penalty","UnderlyingSerializedLayer":{"Bias":[-0.0046979597751728181,-1.4317068297399922,-0.0020611493905621568,0.0068401214783929114,-0.0077464368018964856,0.35236117986659254,-0.0012220187156121054,0.0034912004613164181,-0.94221867925516989,-0.90417362120402645,-0.00080366261962556073,0.0081519804679371678,-0.0095961598001266888,-0.35944228007400847,0.0044265004010628035,0.010667164403553425,-0.0047750538206764994,-5.3569190055655644,-1.731131434088578,-0.0011313298829929591,-0.00038544352391636604,0.000171671262141676,0.087105070367538909,-0.00070007699893295306,-0.022216314020603256,-0.0067786418262665207,-1.063113460097733,1.9703941388632213,-0.018646631970969357,-4.4717682802009291],"Weights":[[-0.578548718712573,-0.4326587036202485,-0.19167216366845802,-1.1441721764519952,-0.20975476154276798,-0.3101262074040439,-0.44551725168749323,-0.32794425456807175,0.18076322064748271,0.2382819218072714,-0.61219186212539756,-0.21919623782586778,0.11130311279056053,1.4356945339840839,-0.16273686141120219,0.17612555721986256,-0.19854412497869786,1.1473094392489778,2.3831199221234178,0.31257558836110039,-0.31110478298381716,-0.15994055699638166,0.33244259367685569,-0.33253410341618322,-0.67882785957423841,-1.0229643509093986,0.40295638295477854,-0.33347888937791703,0.36794729286271188,0.21305123662354991],[0.48101437106698164,-0.91064887188730526,0.38292024818847048,0.21743237082402322,-0.6882167431691173,-0.4239805726623419,-0.0743610036496328,-0.36513842585463169,0.52119093454931409,-0.016216227322258751,-0.67185908637652692,-0.44350506093348779,0.16688786724476515,0.29343005235633746,-0.01121095633585713,0.058130207759452233,0.43007094177560429,-3.0836099193205313,1.44240399006002,0.070769073568122565,0.662310108471453,0.1587311766192854,3.5991911026707948,-0.34424223169048968,0.31826860836843396,0.37467590181379906,-1.9258787340063133,0.978632266681454,0.071703446648122712,1.1229366872372106],[-0.70960384449957714,-0.64316947729528651,-0.68379249497329231,-1.3132581722836805,0.10560597859062772,-0.25307078849406717,0.11524992170967871,-0.19780487951736223,-0.11662856231184285,-0.92984515853539984,-0.42094480607260243,-0.038594341501906791,-0.62182406902996235,-1.3304030647510299,0.078817660322731284,-0.2058374910906835,-0.758053775307289,-0.6917295455647251,-2.0397513024169647,-0.37342834053121021,-0.18200741671294948,-0.12843415497695068,-0.353223170693251,-0.2253679454097694,-1.0527723929633088,-0.99434771794630117,-0.65498210229467091,0.56597157097331008,-0.51667325199368219,-0.21424035540171585],[0.43439193862078723,2.7500526956349183,0.41553765370681517,0.3959942326030792,0.51353962495643179,-1.5006100733613432,-0.0071863411350039088,-0.13352695478872076,4.495593426820979,0.82157630528507586,-0.14747300875480282,-0.063383014227773385,-0.07159024116715848,1.6880011043904846,-0.58609918352531865,-0.048727312479939826,0.65241261768763492,15.402248050939429,2.8514049250592053,-0.13722457958833462,0.013622892530693371,-0.085316574279466692,4.2151748181143081,0.47359775735307752,-0.51234948445828388,-0.3547970072769992,1.6790672046826336,-0.80703515801606573,0.18570807714960902,16.035368971648083],[-0.52481362023461453,16.005552693079764,-0.17722546652131374,0.30534888321684694,0.67944516784601294,-5.8563079315848912,0.024848776520637349,-0.12833352072832915,8.3962121618546561,7.4265467651308645,0.24284071035474106,-0.4335236554994783,0.36057059260815377,0.062247706705351291,0.24726232221531128,0.25434985649711966,-0.199374010357599,12.365245638290476,4.0248148545897147,0.1540281125076072,-0.14893799260083526,-0.40876952177628878,-1.9110241023904278,-0.0055875077914160935,0.52594831057736513,-0.19747375033296255,7.9312202033847239,-3.7234473820345668,-0.26816605011129924,32.829105233148809],[0.53206508365226479,0.26617884659786406,0.1311576796305646,-0.69369947784916841,-0.23702233443099158,-0.32464198286581558,0.294862870420148,-0.50693027780875988,0.0112533454118965,-0.0072340143718643531,-0.20760459882309912,-0.11248310784421076,0.53417367902214419,0.24331698871446775,-0.53617465046960588,-0.13361505912081995,0.21011825249223914,0.38208496590925267,-0.094336195697261427,-0.030620178856440194,0.42650989813609946,-0.32458423900483813,0.34521926414111354,-0.22129460238462928,0.33471051998517481,-0.19170666951037113,0.012574113987087434,0.030928745774873385,0.31453388844794405,-0.33151218224870377],[0.510633843692119,3.8875422928555357,0.11452903269032412,0.214447699845294,-0.25224532276229861,-1.7171511266590238,-0.66544535991354392,-0.42852648141972982,6.17891489023207,1.25636648827537,0.13825495712174254,-0.00027967404173095023,0.051528067809266366,1.7514664753222955,0.1384112954536543,0.1825172006103471,-0.17302918847579349,19.868241294919589,4.2306218983195922,-0.20952550096613928,-0.13198033173994539,-0.15993362269863753,5.9616114839022059,0.31884823038437665,0.8296206774935625,0.32982754561026922,2.0828833267031031,0.781544584513934,0.39490733864360339,20.927176078321587]],"ActivatorType":"LeakyReLU","GradientAdjustmentParameters":{"Type":"Momentum","LearningRate":0.001,"Momentum":0.1},"Type":"Standard"},"PenaltyCoefficient":0.5},{"Type":"L2Penalty","UnderlyingSerializedLayer":{"Bias":[-0.50677068668506875,-0.0028998101620384691,-2.16836368141151,-0.0083273126408338824,4.8618387209063127E-05,0.0565928013768306,0.35054578591309316,-1.9070288515736549,-0.0012087007913244273,0.00046549479319074827,0.19788237580561774,-0.46640880160475368,-0.45536500252993961,-0.059131079215058537,-0.0070355023931098241,-0.0015795971928432538,0.0049670595116233758,0.048358232318764037,0.73691111599322379,-0.12679006135288329,0.5635010607409342,-0.44019587087506307,-0.83038431878390184,-0.00036365932998565876,-0.00295282046192093,-0.11929660378013335,-0.0020557288932789917,-0.24631870074880813,-0.93935554791282483,-0.0756197544138756],"Weights":[[-0.37714709975311778,0.02174747631291668,0.22609728900981424,-0.71900797224176349,-0.17389145382616039,-0.024470288852483681,0.0037616775728168358,0.0073949666422656723,-0.0763424775943195,-0.22188130187902178,-0.31684955282851107,-0.18625018999683748,-0.23658580860551454,0.034523504386680982,-0.083822382204743959,-0.027883013939115835,-0.18750857228148501,-0.13536737898297946,-0.26406472094290057,0.032417780416877783,-0.1663393658624199,-0.43072276403109505,-0.30402146594012858,-0.062517072004379226,-0.47300919751330478,0.12677141426754576,0.15832267219827451,-0.33989040916214913,0.10900639196254028,0.0352033836174117],[0.158456197414536,0.050980620203496266,1.2671500938642835,-0.84469848631965672,-0.099118181290508214,-0.060125812006804273,0.80940687820756418,0.95884846894139564,-0.54913548799528589,-0.084637561133605835,-1.409257988587995,0.33420836086331135,0.074844564447562018,0.11096806494882054,-0.36049675883668475,-0.16102987650009826,-0.24456265911858985,-0.6636854767182262,-1.6469493671618751,-0.14855297171975629,1.2683483254981325,1.4136529353386593,1.2039383750422077,-0.43996542557447477,-0.089338515870253973,-0.0096440912020600133,-0.38055697834583574,-0.03383558934545567,0.40866253546835629,0.21294737212891143],[-0.19464932100111329,-0.10598103130161832,0.082894268303308358,-0.023054915231471039,0.1008788331644227,-0.36665048196076305,0.018103902391266063,0.16243976203598681,0.23591066425803367,0.15592559201578049,-0.14479548194729924,0.12471832917767974,-0.11704807462456202,-0.18192336601331,-0.25356259749289584,-0.043057497112522915,-0.018577078959139407,0.38197392980849082,-0.078804378773110556,0.073511798589272273,-0.11632818866535333,-0.72018824009729931,-0.024828526400604494,-0.25626802114855518,-0.053312826088532619,-0.36698876713688322,0.11401572685192044,0.10110241446084163,0.10438730994555408,0.21470676508574671],[-0.1854984640328316,-0.20119825918360765,-0.087996415494376451,-0.47185776967348458,-0.019370112519405954,-0.34449172736737893,0.030235261639046086,-0.17927246157201471,-0.066517775308548355,-0.13837395525284704,-0.083681890849915189,0.41763151034734103,0.14659914342698721,0.130033496373179,-0.4135330361003664,0.13731723099770729,-0.13952811841421745,0.089570454495655968,-0.37590170611331092,0.11075702223266516,0.20383336668778351,-0.96257325812662431,-0.69999625610449256,-0.412620940254034,-0.30979206457527564,0.01954156785853035,-0.080111625390118457,-0.061771403591170553,-0.10145066998623964,0.22143890687626885],[0.18223899293739537,0.10315392551209589,0.18613184339703834,-0.079643848776829951,-0.26854113124057416,0.1046537577813613,0.039080402656825462,0.10091364830359194,-0.12145439736109159,-0.22471249988401923,0.17153287589784741,0.16131690572263674,0.20977877862213565,-0.21509903042288756,-0.19746423353174106,-0.10649916799778315,-0.24532389800447768,-0.33026480089251731,0.10370137125860986,0.025857470975874344,-0.00366041859760213,0.0045476569427582826,0.15225589491785341,0.055847726276763758,0.088766788944493108,0.16616512751990858,0.028901445706407118,-0.0664561711443198,-0.068270610065654727,-0.022147824320607488],[-0.13052694666155468,-0.010793458262409716,-0.32589110023082107,-0.63988775388672892,0.18842499652536549,-0.22031289818897554,0.17634638075789788,-0.90488580415134645,-0.2165240434111772,-0.021331603245597238,0.029963585711765123,-0.47715020039959993,-0.56254830992464511,-0.098537928880480311,-0.44509552368083571,-0.1394370047856173,-0.46798176115137957,0.089578235402952178,0.75340660820026806,0.018816866658238843,-0.34324865378196312,-0.98301218767460585,-0.77753148154441842,-0.1339119185173841,-0.08106315862604567,-0.13191535258079809,-0.16292860102209983,-0.3748034764230917,-0.42552825776410308,-0.024270118641466627],[0.015078378285622831,-0.37349846875338233,0.24912966409824025,-0.265249970389799,0.17112413907118912,-0.08755038550061614,0.02518936897087555,-0.13504131693733723,-0.1688877614697592,-0.50676886637161478,0.18720603515938317,0.31504513440204918,-0.087637504908237393,0.078936668501736668,-0.085291739291133414,0.047144565512375232,0.30640783757169876,0.04287723140302506,0.2221771716556594,-0.011053078486840316,0.073255532477971078,-0.2810070342600331,-0.15519025702304209,-0.0909473194753274,-0.0941041922496797,-0.50237136077064981,-0.12669649029027619,0.31325685240195478,-0.18048920378747488,0.26188124367377613],[0.075315959054235562,0.16251014996049135,0.020830467518414157,-0.30036627157610973,0.0349971715895012,-0.085853793913194254,0.22008816886401381,-0.056357522365430908,-0.098962785963203764,0.14673404464652509,-0.053371545603961693,-0.086925429541078333,-0.2225622270517377,-0.23790218502458316,-0.0383907345730082,-0.12749823479166939,-0.026009736518852179,-0.024430479366699152,0.029072013666954603,-0.028629972213306962,-0.18522921666239345,-0.42769862878563558,-0.027523243193728168,0.14030465893007482,-0.43133119334603004,-0.35574083211061008,0.069784111465544349,0.36565629125240989,-0.181894363870706,0.13479323460390233],[0.1945682648094178,-0.17840155150193249,-0.02703293943471477,-0.21379967095257052,0.094180548459170191,0.10120086575204935,0.24108685601490806,0.21602549913561006,-0.29806332482866843,-0.11450291857105387,-0.45127103814480191,-0.33481235920672814,-0.1358657031569285,-0.14888001860204828,-0.12809559250739608,0.0705193502747816,-0.29183554620133878,-0.4021153302429944,-0.50470581263386538,0.11352120198581579,0.29627613318846341,0.2988543269218325,0.12491349468747628,-0.11502671363521966,-0.38649427546649079,0.037078120107182116,0.00044038647222676325,-0.15827845607546087,0.1017997841648777,0.0027996652929229517],[-0.12567495160058873,-0.028026277163462773,0.69439615396870213,-0.2813886350570346,0.10272487650201061,-0.20663630948417108,0.12534979467055651,0.65895892639895859,-0.21757781688242173,-0.10699356785745021,-0.70105004691525086,0.19716458890238639,0.20011125831215704,0.092684159083992759,-0.16956267726081364,0.020518529685262837,-0.11765709649050173,-0.21246081769454375,-0.72152096519086184,-0.12785837982875359,0.31704582265976544,0.039944847021295547,0.502798502618529,-0.19251370670934889,-0.094180887854396489,0.16284287712343379,0.20691350420467392,-0.20675180259149298,0.38699875482332147,0.078155700518939983],[0.12674894529620143,0.34496435559551797,0.2615507785225521,-0.2110428766482291,-0.064772941963817124,-0.32291411692624483,0.16168750944131263,-0.22460271614320054,-0.26424269079341062,-0.16375990077912497,0.007165793405866718,-0.11508336355336366,-0.04299044876883653,-0.002671586593320876,-0.062922159409646433,-0.0767537772429944,0.062776056805769892,-0.18434304730207454,-0.27626465498074104,0.19206809271041775,-0.086837287437178071,-0.3331987077774986,-0.30459182229993614,0.34953415661075238,0.32778934261259712,-0.10352355909433617,0.36530652963252164,-0.032301658142323268,0.099060400576101548,0.24145467295247991],[-0.099961388794133035,0.032565257635915119,-0.21901540043482998,-1.551843534256582,-0.054183874674861833,0.12954377448915691,-0.38323776469720777,-0.022437409031092769,-1.1796061781606446,-0.4747737660623727,-0.27835191864668651,-0.36577618586987382,-0.022811345463316368,-0.12420635300994735,-0.592093511820509,-0.095352815769564628,-0.762627913894293,0.22312199932249183,0.099706143648356171,0.112010238557936,0.26241258114714627,-0.33534365288244466,-0.08326768589096134,-0.42093818547174627,0.11576874922048573,-0.15203792804614544,-0.016417653289318487,0.1071542334563194,-0.29595168530591248,0.55062034856599362],[0.092576973490790582,-0.0574338330783121,0.38516040356205744,-0.24920225150557812,0.24460106373984544,0.10608718911403811,0.013407948094672455,0.061338794654151915,-0.10780407819437635,0.26519604465087676,-0.063102401466611238,0.15685616996397267,-0.14130735202786307,-0.067397636753992518,0.028271936029617167,-0.22276546230177319,0.00761688402503056,0.14859874752055086,0.081598838354904682,-0.00020939406936550402,-0.28072882846186276,-0.4236112720837108,0.16054677272577619,-0.034293648922207785,-0.0385938455157817,0.21460628779296057,-0.20055652059763773,-0.26933145958660726,-0.003442500449593767,0.13047320365956316],[0.24375142534390668,-0.015077625372261235,0.20752057174702476,-1.3637713725546286,0.01429772246240139,-0.12504806782799804,-0.34262970432862178,-0.12870505180951317,-0.35793509908357107,0.00971071703463315,0.56616221713676429,0.13612013973547718,0.15788666935232298,-0.3447482666074293,-0.32283691629987354,-0.10183580064678104,-0.5351861984253492,-0.016903301234506261,0.069329239684610675,-0.18835378306217848,-0.79958368260531387,0.017424368881589741,0.674463306652161,-0.13016221454001081,-0.1675369425028381,-0.11890407012962184,-0.42134266383219993,-0.28475664005226642,-0.066368600414391923,0.16750065365559327],[-0.11702148947558919,0.14398115955791743,0.022616154923299079,-0.060799384242498589,-0.081000176259190815,0.048368362619198566,-0.077567305349733384,-0.074245438148634491,-0.085312146604442723,-0.2074765575326871,0.057565660876559288,0.058998323484285069,-0.497319561536531,0.17800656032537202,0.011298246498261525,0.0033677886996776943,-0.025681961211458097,-0.40388612668668855,0.22701274302625196,0.25227442938195588,0.12705387960831169,0.42253476633327114,0.051751647803102867,-0.076644733112609248,-0.356011466319776,-0.23197804486982226,-0.070753252089794438,-0.1074787056702522,0.13277968974896987,-0.015687819407461615],[-0.17266450331053151,0.31901754755684147,0.16210347892400198,-0.26247711134366541,0.15819140225893938,0.17612963113134716,0.0096752052023467,-0.04767649115280706,-0.03705989680123125,-0.011789475442897377,-0.071765596984630753,-0.045325117190116726,-0.338749092399914,0.11391646261010627,0.14906125965085976,-0.13608851328565125,0.0025395197495948697,0.12865167043576453,0.40595145995796456,-0.11678123798219291,0.39465814163850754,0.046631328748193049,-0.0017414047764256321,0.30021664710930795,-0.07073516680920304,-0.15213004480669073,0.17117521900853114,0.19140834956570479,-0.16676529502469373,-0.22361478487024827],[0.056379404420085148,0.077359152457407751,-0.055921598031637,-0.52886154439698863,0.34221177111207651,-0.12553577576521086,-0.068969350546816216,0.010678620495279399,-0.38636007257364863,0.11929503999976918,0.035726772859372258,-0.061962520149478284,0.088548214861391986,0.26216731504633045,-0.13311299372742885,0.1267214654552975,-0.3606971421825147,-0.019002478700402458,-0.14239958437696937,0.52940713467118,-0.0021095545755188761,-0.25495758078350667,-0.16975442300296159,-0.390946574481436,-0.1317818739000072,-0.11120117581452074,0.0822362707577566,-0.019611083529135039,0.06683465451341325,-0.12213672157313056],[-0.651434009606144,0.00071201769393205365,1.5310221321330937,-0.1977161441797429,-0.41831146939493974,0.036026607241218332,-0.32688999621382059,1.5088673436318834,-0.38939402711728544,-0.33177086921360416,0.80300924998049994,0.36685063427811093,0.43971415422340954,0.040558451610290432,-0.20466451699702368,0.057809963620889381,-0.46982799020644622,0.44745176931744729,1.7608485212551379,-0.77183686810522623,-0.38280608255341003,0.7184985293785523,0.28945641187292553,0.0059796854963443226,-0.23576012293192877,-0.0081994423095544718,0.035393790443357248,0.61193424265267315,1.0370459404476153,-0.13939488426646665],[1.0093640146854639,-0.43509730271575314,0.72534109293807714,-0.074153497736813859,0.040632832525925623,-0.30031994338638923,-0.21125029720610952,-0.29072918693770627,-0.21028949829233057,0.1609610718257265,-0.080970328648787115,0.67335749901698372,0.59379333674286672,0.11140722073192109,-0.27273205883314333,-0.16464264300558498,-0.065116075500691858,-0.0475994913677573,-0.55709343148050861,0.37447397792786091,-0.54781427034774322,-1.0217442531151724,-0.015358953892573855,-0.19128386513738177,-0.039745272350213773,0.26949976731140618,-0.12374934108615285,-0.10274799860796274,0.2587583220492996,0.32373774394186283],[-0.12627478196955513,-0.092951584143175489,-0.13341657300748336,-1.1061333096812356,-0.025201645553623087,-0.12255553535582374,0.15134732024976036,0.18741315448971954,-0.65652186331222917,-0.023908300226268987,-0.073859232442862716,-0.20569502309474011,-0.11435812757619884,-0.050790292743176729,-0.505611380466494,-0.110616070560485,-0.10330335152230388,-0.0248590001970163,-0.034855886175668913,0.2006737651109497,-0.39444153188794639,-0.076634230418549887,-0.17111169393490958,0.079657148096052538,0.11922074205308279,-0.11818435342949202,-0.37559316102078039,-0.13125788676714348,-0.23326535978491184,0.41043300072555733],[0.14062433517860842,-0.13308538867873396,0.091764771040586557,-0.34333339507835403,-0.057687400546925109,-0.069759524009932516,0.095465091169049332,0.11417934828470054,-0.3397399947161352,-0.030562449672907919,0.14749677024173158,-0.083878242007300166,-0.14482939782316648,-0.11866341001542917,-0.12065088914948992,-0.084770245943930539,0.036896581029053313,-0.14567405080795406,0.11831987777407714,0.043344350794193541,-0.017446215098691455,-0.12051641229742632,-0.1988036457978597,0.045379836488864421,0.10894621698373698,0.096966338428016483,0.0062390304990239788,-0.30298439040812758,-0.25285023938895634,-0.0094038422018420473],[0.033843437644244537,-0.16971901150242857,0.29855426519923378,0.03871653839467238,0.044319326061245522,0.08976911123918549,0.090160826277643144,-0.02009512941190662,0.4997172967839858,0.0804531195801062,0.21678893664390142,-0.1054905985449725,0.237975731078629,0.095251012492063344,0.06553174188805766,-0.17738856085303442,-0.29767071358906472,0.40821001009204855,0.3175246848146081,0.16775077772223762,0.13019468239745821,-0.24091879105593017,-0.2580382351792993,-0.00991373722615876,-0.022193439536580168,0.14459859559897983,0.11213398131902015,-0.020468743724553484,-0.15694164300605967,-0.19742066961336513],[1.954810034236588,0.078152323169176308,-0.29624393161690121,-0.7350260544730145,0.07836521677192447,0.16741329252638698,-1.3770053719041808,-1.1045170498707158,-0.819976402303259,-0.26248825219652683,0.46642571896588886,-0.30596789611792846,-0.12416175650814673,-0.3294052595991071,-0.68951921497372359,-0.29709094331884328,-0.51775747563252283,0.895191310244153,0.46327270485706584,-0.13677158601127884,-0.95519691542258034,0.22090490949002797,0.906644728392863,0.0449320951045287,-0.19833253210027291,-0.19120337363393133,-0.18190994523941503,-0.57474127378805839,0.65281671771683236,0.0058863670507513979],[0.037834031942411639,0.0093375501920827143,0.24885871201368359,0.17133976493750305,-0.26777344933982028,-0.285834686803789,0.000991808366519425,0.15339026770657657,0.22785456528995265,-0.13125256956563794,-0.11794593997655078,-0.034069508594449606,-0.24861749614598205,0.10543599965762389,-0.17221779407599239,-0.10213508860880557,0.22764335832405441,0.029886332424240984,0.018841346829512967,-0.39702486658124264,0.18131814371552382,-0.38084845170614257,-0.22989322435148835,-0.022104678773144228,-0.030712468041951824,-0.21309294162036069,-0.13151566208313828,-0.10765674616658423,0.0101432661482857,0.10514487111992532],[0.22964990964857926,0.092728014841099063,0.47952788506605265,-0.47160211507505467,0.058703206121301171,-0.021788946598346119,0.052427810174677951,-0.059712123292875688,-0.24055793656120461,0.27887507646386323,0.076604576508051,-0.038245941319893464,0.12603377029324198,-0.26087619859210026,-0.13220984975494002,-0.22215407616227889,0.18590835160142966,-0.18265001500869482,-0.60449879952130425,0.40559703815141762,0.32925717051448877,-0.50915717337182287,-0.11936425347014221,0.1525300568010339,0.25940028666993059,0.17623046453089369,-0.0714343640150166,0.071389083274280937,0.49745170455331877,0.378165787203243],[-0.18477311591775694,-0.10284027888957464,0.039049438471635112,-1.1541700905011587,-0.299020759511194,-0.029274927853979595,0.24006766910738403,-0.051386299674309556,-0.26215056347633647,-0.092228878164996864,-0.34616467031785975,0.24091894221802329,0.40962656445013262,-0.31927841380933608,-0.71269046932917912,0.14827957655745261,0.019125375370665318,-0.13795856240066845,-0.14810875643625354,0.10214186643661254,-0.19246986738226068,-0.78564123333662994,-0.49340693072954656,-0.093768843627866014,-0.14513917536192231,0.076251889775096615,0.050843098349701368,-0.41460714439235252,0.28992745385613689,0.19193120185307569],[-0.0073063829513024519,-0.23276818985502129,1.064932684200085,-0.37962131133307914,0.009653911525371265,0.07075067995025533,0.084751195920056,0.59073711325941325,-0.76895380611070863,-0.015615176743576214,-0.35132306483423015,0.20546165020233559,0.083510566970875486,0.045949318692740694,-0.41056323038320819,-0.10550732832435847,-0.1530704835289412,-0.385675391819059,-0.34056107769765842,-0.014073693937899253,0.38460351262278636,0.81949433496701551,0.57446700087134317,-0.01076403608440289,-0.033694389337618647,0.11077889564836323,0.15647324478452684,-0.0070493802525284218,0.073862067739939724,0.018847959114175233],[-0.016386354370099377,-0.070855270436564255,-0.56462332675941485,-0.28879560436338336,-0.21379182719478393,-0.47226036237471619,-0.97989221460323428,-0.48328333749070007,-0.24916861474275334,-0.0076635926733105049,-0.031620736843433292,-0.37507958079680115,-0.51755340168970432,-0.12517426933384132,-0.59139659497474928,-0.27506506770014039,-0.48336312208715787,0.1563584990649575,0.34727494925827979,-0.66638731403252571,-1.0572922077377114,0.84719441424044872,-0.014525510505283954,-0.16806762513195164,-0.16050302343980269,-0.70491816992531742,-0.16522545070906619,-0.026434473907966431,-0.6597724184865057,-0.20473256457735173],[0.13353366357310934,-0.065130394750355355,0.17643072215421757,0.24004753865139511,-0.24941780222572191,-0.31055787620393127,-0.13371635654965963,0.50627240923287031,-0.14495602891691453,-0.37410121834357457,0.30149917087842609,0.22308370337457736,0.13208534122674545,-0.45830856684935728,-0.015374755588197184,0.079537057229155342,-0.035025286685691992,0.225865120314816,0.10150038018609002,0.3098877017074454,-0.11569429438071824,0.053950263559063169,0.10378926063249332,0.34012175488870711,0.1557990746352084,-0.19452705783324098,-0.14216720609888978,-0.18587476194882918,0.379562961893459,-0.026342694512276197],[0.45449850959305332,-0.24831235465359577,0.26570676063379689,-0.30810311587241024,-0.22815737489792773,0.16491487792876872,1.331895948181214,0.81787004425925081,-0.45366268340282295,-0.12605892827374476,-1.9425879427172048,-0.46047553819850845,-0.60954873127707421,-0.031971840380664904,-0.32799074315098753,-0.451771642171887,-0.19613193944442445,-1.2238321858891497,-2.296677895948918,0.584452398758045,1.7632373190521076,0.53448553024783041,0.71077281389501068,-0.18132889324262788,-0.13112453627489409,-0.20582821613961605,0.023473583948267797,0.20796030942974306,0.25567328666492467,-0.24760273507737324]],"ActivatorType":"LeakyReLU","GradientAdjustmentParameters":{"Type":"Momentum","LearningRate":0.001,"Momentum":0.1},"Type":"Standard"},"PenaltyCoefficient":0.5},{"Type":"L2Penalty","UnderlyingSerializedLayer":{"Bias":[-0.44831846431402483,-0.44763684665148523,-0.49381798868204752,-0.010831152190628728,0.0089850330797053828,-0.00058801162869724763,-0.46505187115286595,-0.33348455284045431,-0.044588733178393375,-0.06611122456795665,-0.38599899347612576,-0.0016406241383129865,0.040836680913823885,-0.0588875262278476,-0.0055560806763844438,0.0021430130602219859,-0.16087333436162965,0.003860331080207086,-0.0016860591642609444,0.20505088876457062,0.17758524083226637,-0.0067036180694280516,-0.35545463962299378,-0.0080004386911571111,-0.14834595512052332,-0.12284851216537002,-0.13963433535252362,0.047373896206038671,-0.0060956189093000265,-0.28005317293082882],"Weights":[[0.579284344713886,-0.067529310942952475,-0.10676958628998834,-0.088304881403412458,0.23923871255737808,-0.08683523128361717,0.32092811211622296,0.23867287344758395,0.25681713762699909,0.09600945899349278,0.18020265703520663,-0.0918251377017548,-0.22044962609342955,0.10684549369874215,-0.16328281717454102,-0.0088523844316143411,0.25202684629209032,-0.076890606286423233,0.021373264540845593,0.3577029744483608,-0.24108398948906915,-0.13284563082017845,0.32294366271837044,0.159173912580922,-0.53853316552094432,0.013585933607514361,0.27752845115805547,0.12629560420402369,-0.0048011900884386621,0.68360006223506053],[0.034957929438366286,0.20304408911225302,0.322967670443674,-0.059292998872177337,-0.030969534138076054,0.016710708488878623,0.39062255399519158,-0.2471758993279303,-0.19143848532037169,0.22182998065229256,-0.060418946534753319,0.041342620954764063,0.068661605018161861,-0.10382973806796821,0.025612649396786976,-0.24350185150752984,0.073879118168725874,0.17299630772804708,0.047195461819741567,0.015485555910197769,0.23738045084541179,-0.22914312479549395,0.001094796898768031,0.020008220739484057,0.0072348119728859028,-0.081693268773668073,0.17506764505973993,-0.10724584948124553,-0.15267232474525677,-0.1792340959032184],[0.32774804780228844,0.31021439746081431,0.86610918820957339,0.14214672289773939,0.098451885327755964,-0.1129167801030594,0.73221551231659632,0.066989633154677222,0.0060700770568833549,-0.25360250902999359,0.551745849972738,-0.20346772064146607,-0.67256486688044881,0.16035883784109004,-0.040435803104701809,-0.19059299615668288,0.1219462664057834,-0.16207228117816411,-0.0837824998861294,-0.23187170085170394,-0.93851031162947662,-0.33738450245364621,0.5185569994047744,-0.32414422183495495,0.41069695193105993,0.4010494515605999,-0.003554748936740165,-0.62337398185873183,0.251631064377435,0.64949606335248788],[-0.528338117822066,-0.84509225869643223,0.038210947140284557,0.040282999882161427,-0.248052161669452,-0.3348485555745892,0.54768586662470031,-0.1564598407791816,-0.32033472111201561,0.656467779752112,-0.66519509817462552,-0.13101617653365993,-0.2747001835136349,-0.072105844338985342,-0.5472644361419079,0.19933945318764237,0.31924542095128161,-0.29388750417634324,-0.089886183164662209,-0.92272352348018227,-0.38364467598908869,-0.10759270649488821,-0.36089012021801004,0.0033434471475749386,-0.064587421146041823,-0.56087573402483182,-1.0676080863690365,-1.2707119867670191,0.26809354198804575,-0.210973030198546],[0.080612357480034091,0.31676269350016267,-0.06170686544781924,-0.15510812396515525,0.15613332407968045,0.039396253645769534,-0.075371508418990971,-0.18399892278231786,-0.208732692031346,-0.51185910032306714,-0.0289175993077112,0.075774781416408338,-0.11034199486423774,-0.35572218279796869,-0.076434696192635043,-0.15607816007907249,0.033748965921524141,0.25851891207414796,-0.21393633808729934,-0.01377813678921096,0.12552748496081381,-0.28118130742420572,-0.29321318264359997,0.06226395455933996,0.33737665843966363,-0.022786820040411566,0.11398577874371151,-0.089482825527232079,-0.37850640620793907,0.1570755722280763],[0.097081097141722833,0.12259608821785528,0.0075598597571670889,0.099510086256639291,-0.31525544752581264,-0.011489254686583274,-0.057368540977870718,0.25260503108121551,0.013417961742151879,0.10007871719853363,0.094475858923592726,0.048501259903427033,-0.091602689732951811,0.3216896721906542,-0.1323641789407452,0.38090254864048168,-0.045978332763760954,-0.19101005113829933,-0.038943911955969308,-0.06628245953568862,0.21151606318175004,-0.017504711778018735,0.32521443916939319,-0.039399565489600517,0.35423928314313607,0.14606781562532964,-0.04377719823874282,0.0188002345041525,-0.16934229063005171,0.03859405460841573],[-0.28786988033681826,-0.27148439157435872,-0.43734464719764515,-0.13530320268083729,-0.13680089259853479,-0.12324437238407805,-0.43185949371431914,-0.50851360040289184,0.055919210958832066,-0.040692749852141427,-0.50138647074295539,-0.33121800589193895,-0.021606336467457774,0.079976441758299252,0.012701937399181851,-0.073761080138079027,-0.36980821259200103,0.14806582043989056,-0.3083538971449139,0.03188389556219335,0.204074063792682,0.23577149556658217,-0.40338205761565482,-0.0023727568518835738,-0.14118279023031674,-0.14194073377881536,-0.32222469608039755,-0.0051173158851859609,-0.12294358652245015,-0.21738428150765696],[-0.015091133785282925,0.61822448549369224,0.34985547700278025,-0.32149049062646984,-0.17264233162536813,-0.085845593237731138,0.552062740349796,0.5593877519238406,-0.10556348524963387,0.090783048211244791,0.30124052386637007,-0.044960437040042156,0.094900532495329717,0.031566654463362556,-0.14808622769659066,0.24813386235037868,0.4818722644604701,-0.18164770178702053,0.02869480135500636,-0.0013016393895375587,-0.15213300815952244,-0.18578928538257794,0.33819440325709793,-0.16037748872328717,0.14491170972143527,-0.038846855936038274,0.31317678856305364,0.10115874378121394,-0.37390530502546326,0.14759048216129719],[-0.17932008893557147,-0.80537343194500166,-0.13404265243743646,-0.24623046109632096,0.031538543792939806,-0.15974358871342159,-0.10413882011362022,-0.011014316669504779,-0.14037732551593929,0.12547038398741386,-0.44721489363035249,-0.10073047771065624,0.048286311739474862,-0.09268877099733594,-0.78587895843350564,-0.20326045717462696,0.39127523990275348,-0.0776561257509209,-0.025667868244105704,-0.80491600389352458,-0.13688500748177368,-0.13083471829592183,-0.22992566707126652,-0.10350720694917898,0.063796558336298437,-0.71717622968440875,-0.45622749130335671,-0.88560550534402827,0.12907171091942285,-0.1639154081923839],[0.012437896491056772,-0.32229850166232832,0.03864423098045397,0.015010304218192615,0.20605135851416107,-0.25608852207330124,-0.13955468089603043,-0.064392060671972035,0.007498048851669826,0.36930500029005758,0.24212154596427138,0.33906343573972947,0.032827205425927167,0.011379298078724065,-0.11979459719902254,0.18866942452378682,0.30774787696939881,0.081275808691089579,0.14049276001508174,0.20896575938736134,-0.054440324283052031,0.0065173112145198936,-0.072856271739970849,0.24137202007924608,0.056626010773638373,0.19035920790271457,-0.050144681414044677,0.07691706233679671,0.2143045491984,-0.076149805235017215],[-0.97972965859720118,-0.51940258450404941,-0.085978039133654122,-0.00095497671486463869,-0.0363226957552877,-0.14542251258206854,-0.422785088642513,-0.62008144819847266,0.028240501929514612,-0.21379856379510737,-0.735024822197134,-0.24598265275898715,0.25893493628378544,-0.30249317315681418,-0.13288007361084811,-0.10781135162013671,-0.26866354474443244,0.073988562703573887,-0.13337593091259503,0.39100975393116488,0.048531771458149256,0.13119517776721884,-0.59298233914541332,0.11644413485247505,-0.48456378694139979,-0.22753770066500165,-0.11305387350327979,-0.030069961623041288,-0.054965339931292,-0.34807929227268425],[0.011994037615534482,-0.0065394612225675884,0.13513186711654709,-0.0511739308176385,0.36823517592949706,-0.34331802025089531,0.14926225418301817,0.1636141088983282,0.12050398126289141,0.038266030532491495,0.13995921892729699,0.30268660704149986,0.14627348565791815,-0.29933999733431033,-0.31053881109858361,-0.23026608049626551,0.17023259256773463,-0.11117235586198526,-0.15923915311851702,-0.055758635389875494,0.18721279026032997,-0.023627509069446183,0.21022153579286385,0.18308788322956324,0.11342105404405424,-0.13258567515924866,0.10709969114183669,-0.14046037038960141,0.048903235835682152,-0.050749240133572342],[-9.5600557713862322E-05,0.0826591430523431,0.048999318882782285,-0.10274101382058742,-0.016092141634198087,-0.17917793403177282,-0.12682080947849503,0.28541408991013,0.32994363130079629,0.20447726997379129,0.28912769349844,0.023130786577950278,-0.058261730315795519,-0.09020387027081074,0.16297814248174439,-0.04152654560757861,0.150461085088947,-0.049565649650279313,-0.15654515582184328,0.26103040356599733,0.072403703972277217,-0.38317595449625935,0.23599718066672806,0.050884639792999162,-0.043828836297488454,-0.051622855865265951,-0.14873390789977942,-0.24758798899673751,-0.056841592487292834,0.019637624695959231],[0.051922959182835994,0.076741652196275961,0.07454576971717064,-0.20739002733710152,0.22617874532019097,0.001237027823572742,-0.29635930732375981,0.24223072106533053,0.1540730565223081,0.10575203860653931,0.077802405568390659,0.06254094586346802,0.20944088990365259,0.0042358368585374614,0.20387647963256456,0.029303616346288849,-0.11312855106033981,-0.41062590737562044,-0.15818155751352686,0.051003532404016914,0.27422594417185142,0.030228776825854255,4.6023016828020107E-05,0.26769270100136255,-0.08008437204271486,-0.019944952746811694,-0.091661512064591347,-0.26044196938021114,-0.053398920631008054,-0.17471580449495455],[-0.1118785526187807,0.28106205984488958,-0.037823880293556891,-0.1815271386793596,-0.13072446716227804,-0.031384914142260321,0.21726212127263272,0.29922447471922403,-0.10513778630367142,-0.28080789760068048,-0.37615702940894213,-0.18722949168966913,0.19484876101499482,-0.17163400331078016,0.025212246154062631,-0.11134010453588157,0.037801526066442832,0.34890277232785372,-0.03880889161270136,-0.2461577077564816,-0.17674360448023913,-0.061363627562357657,-0.0601953680503496,-0.25036612510264727,-0.25792741846874667,-0.00040310971561354473,-0.15892742158154216,-0.30290389085152841,0.25261675686346763,-0.17029389606197054],[-0.27687020397170653,0.11634848908600769,0.0020673358840623611,-0.12483264973468294,0.054783015958177153,0.21355208787290744,0.1047878212238275,0.15032181067058539,0.050096356925428395,-0.14154826053684219,-0.12824301555670192,-0.1096420234223987,-0.21960826851836507,-0.063900112146143592,-0.15062968493435061,0.19671472443975396,0.31691092942675791,-0.034703269194610482,0.0034156886434982257,-0.19090990232661326,-0.21064273444879528,-0.031158733093307737,0.20389785360174817,-0.21546264531059292,-0.25383266981953523,-0.37697034660887585,0.070770145369492166,-0.21380360374314342,-0.34875480335223435,0.089171507367530559],[-0.46042249452430861,-1.0478172714963554,-0.070076032828501916,-0.11094587082792329,-0.0015230917696172313,0.10764683500149286,0.072808687179520534,-0.5515090638829645,-0.26023545176699897,0.4386224400080031,-0.29013943495411515,-0.16076633058708489,0.13748788264954778,-0.025550143680779989,-0.51538230616116976,-0.22330729356617521,0.095101744193268709,0.0065495401937075972,0.087218364946847787,-0.76547431220423823,-0.27827683757618532,0.14848448606645048,-0.35243498775167381,0.0038330731885605112,-0.10391394521481677,-0.50240945099634315,-0.63922006131407261,-1.0373059886298703,0.099539277862689818,-0.22246117152991998],[-0.36622924096651005,-0.32568620663308145,-0.1226937205393808,-0.029837165520722443,0.3507714024561987,0.26403762160182465,-0.11963900035820554,-0.59050952003650381,0.046369630832804834,-0.027859651741259775,-0.16292794741898192,0.20124611150952057,-0.26937984257868991,-0.065263347055263335,0.0029127808041602143,-0.16097880902078049,0.12394440903263289,-0.011075550722234285,-0.15052689817759782,-0.28772530437114446,-0.0070157890669344811,0.15854018922289567,-0.41705537858529995,0.012028924566863622,0.35955534282791857,-0.12827393331451395,-0.41025029286418818,-0.19001244193767938,-0.15527531558053662,-0.089278828945337563],[-0.96193151805013255,-0.4099975128252013,-0.41736953882215488,0.10446449430535902,-0.1496974253517992,-0.27295917308776146,-0.23455175404073739,-0.12892730471337044,-0.1899464141651262,-0.23702099574296123,-0.84385823672307236,-0.11489170886711261,0.072517654170335025,-0.23640524389497952,-0.25513742232692693,-0.20558868143991868,-0.4567672953260441,-0.069577136767085462,0.10138659367171889,0.368449758434644,0.21697763887750443,-0.094804416170647721,0.037117421139896106,-0.14881687810315641,0.095323760701383653,-0.040166630442663123,-0.26586913467390616,-0.41221564149681134,-0.17216920269427061,-0.24308688331752981],[-0.099593557243331063,-0.43826161974876265,-0.24632402236521694,-0.24405234444685162,-0.10687756313808863,-0.15062005928760863,-0.36676439674788991,-0.72808243636181358,0.015953340983757218,-0.11057081304829011,0.26805489704796048,0.30437323790562937,-0.15992096394542724,0.10888633430184579,-0.0804120409235065,0.086788061152054785,0.23101733608288097,0.17327358818212976,0.0043307568466419812,-0.22887818537121277,-0.19090417771509136,0.20427448279310115,-0.4115011933754128,-0.055298338520516709,-0.1224343140282282,-0.1477760763373287,-0.29150556372438358,-0.38956463696552662,-0.062335955501761374,-0.24874850303069507],[-0.25004278453752443,-0.61105680699226939,-0.76865487133901822,-0.033181838665553208,0.10305520959648575,-0.0014183671912576341,-0.65070992932816574,-0.12870045748995027,0.172220196454988,0.0015789736942400609,-0.44408133188075893,0.031997612421840009,0.44873439457178671,-0.0716015453693771,-0.080422920708458565,0.065259733004260981,-0.40690109592155033,-0.10521595993179907,-0.40260450900314959,0.1751659146802893,0.23574699447542977,-0.17767593783692529,-0.31699762686154209,0.19959365514868455,0.13636189561904419,-0.15491688757675093,0.20726758228481843,0.40041084246946196,-0.391852057282301,-0.82094106409403],[0.017591262372619074,-0.077736969724057289,-0.24107434727685537,-0.1314746989544793,-0.069655083644683952,0.0085216394739183778,-0.29126722805922278,0.75952802345575254,-0.19577200214608284,0.17081690784643322,-0.39149578672317248,-0.067538738100616169,0.023674321149641395,-0.022904105979609408,-0.27172240015035992,-0.24099401173178783,-0.58845745668519966,-0.15124635621432958,-0.0658726226467185,0.28325419680723413,0.6920213056953185,-0.081060908323787692,0.872140685411237,-0.29032978308012114,0.23667436506040573,0.71796096255787456,0.38954868595396186,0.72917193317939621,0.073096207083580486,-0.59745996164396564],[0.363323591431324,0.18260244870032555,-0.30194648453493556,-0.20611581334593912,-0.18472890221977889,-0.09565330898317663,0.06338357528115332,0.51090087975145249,-0.42415655160217319,-0.27933773248165489,0.24821151456190946,-0.16907782379747774,-0.067593496376174178,-0.29876712717913889,0.036626310053524694,-0.0034957386136247634,-0.023626614651818527,0.00664963102041235,-0.024203717688392832,0.2999747047454292,-0.59930144971028254,-0.0037855493563841041,0.50938687598800281,-0.069708958721875325,0.11677250466821347,0.17480822766059426,-0.021267022933568691,-0.010104465501281468,0.004753361528243359,0.40983295901577016],[-0.092103678884055865,-0.14446396458242447,0.13558188621903367,-0.019762392935927652,-0.32540065028467263,-0.10088168145414736,-0.354974785647962,0.30535749951584584,0.026106154089895785,0.00088797261884943806,-0.052781892897093667,0.11162907898941055,0.068814835660853779,0.036063190271852258,0.037100392358432183,0.1012684930756589,-0.13195039727308963,0.14751275791452995,-0.010532620808904561,0.010381179823267289,0.19518703267187268,0.05577648033595145,0.10166712958960299,-0.099699751194163688,-0.26672074153779651,-0.063254875979076655,0.0978775900245446,-0.0017062790132779751,-0.037985044508984378,-0.049282212180017035],[0.19676458524165158,0.069136794853180764,0.10825302065511686,0.22134527750511066,0.038809817678522679,0.061748178740268611,0.33264702926265222,0.34654858810518824,-0.15378614142096256,-0.0029155567492911063,-0.22187165715123211,-0.056695146998032263,0.031311129376157931,0.33297396417399394,-0.32005127004326145,-0.33606098324564787,-0.022971150049176013,-0.078621952886995181,-0.4447969677743947,0.066334423902332129,0.0025437834108914962,-0.095454052943275969,-0.18737569568366735,0.1473115947574393,-0.008611585922802114,-0.0037454835791253015,-0.1003804403447003,-0.22461529057912272,-0.10125676717260003,-0.047854880647396909],[0.16278632394479423,-0.068884483737441132,0.17472966740619592,0.0054146790216501187,0.025553859600242944,0.0496837841882532,-0.13157875972219238,0.1136781058048929,0.0965610815567885,0.24402046618287435,0.4504509911346688,0.057924604826184452,-0.31336178416194777,0.26694306690422359,0.11058062274007668,0.064754748011820157,0.046781545527521805,0.00065023662440567278,-0.28131685951728042,-0.30408576788391312,0.0312807782192308,-0.18470324566752386,-0.1391916768220556,-0.30432146190292741,0.02548732796468272,-0.2062098642142696,-0.28924763960455896,0.024957231668500158,0.10664873265791479,0.078411185715947782],[-0.012098041758654943,-0.044748614786105576,-0.098674511163695966,0.21658124984108729,-0.030261956832736588,-0.13769610622667414,-0.090900609171551877,0.18870223024281133,-0.031492122139916222,-0.10611932593290675,-0.2512616573833914,-0.098764963191628113,0.13390763906804296,0.29369500961799172,-0.13284068112121708,0.056155733024260628,-0.038296553669433873,0.080069548908638641,-0.51650373357491042,-0.3777096113768792,-0.08551350542791053,-0.19220673005088662,0.2005414034710955,-0.28936375882312787,-0.041862208941506704,-0.061082965846645611,0.097274656389851027,-0.15431644870246714,0.14432076257989265,0.14170718427863643],[-0.17837536709294824,0.09154830212750506,-0.095896019417397949,0.28312280249177274,0.0012627528729279758,0.10184670956117438,-0.17252886473124052,0.14388857654844925,-0.20547278352115572,-0.33838501102525032,0.098934967738767865,0.21460950559261316,0.079599584118633132,0.082790358622848781,0.16089846463585297,-0.10521995261594939,0.022423688792064002,0.11545173936283218,-0.25333825214281397,0.0019954070894121333,0.02534415004273877,0.1318333477637485,0.18090287290447121,-0.0012120028485835192,-0.10070526039151123,0.14313236689527153,0.53522156929055809,0.23715099079688751,0.19287715817527984,-0.12039327813390738],[0.702154473889841,-0.13228586138251175,0.11196623982667525,0.023892297768393432,-0.42295338374057023,0.3096880778879737,0.35295197508982029,0.25074909407755835,-0.034138150958598346,-0.25125516085389682,0.37738837231606021,0.27187587457075518,-0.030448087218304488,-0.096463165775353091,-0.20303116924923254,-0.047821443307491718,-0.31078860645812828,0.49168874750414648,-0.22929052265851502,0.42962867110432656,-0.05660288508911341,-0.0078844926538746835,0.179496550399709,-0.021388424777607343,0.16793000402944647,-0.0040040646468703592,0.26181923235494603,-0.12672853616629412,0.15184814527825175,0.26283462894596465],[-0.014660515228743129,0.23051288840593209,-0.29525434386167448,-0.28117554201414785,0.10776661736294613,0.16413984554348338,0.19026616474073432,0.081771123729242043,0.26563672526018384,0.23671711441722332,0.015900669052258655,0.06977392925085206,-0.11142306524690319,-0.0054743732243616389,0.11310120484530865,-0.40867343361213848,-0.18027121659337772,0.0090547244623757749,-0.23582832305571161,-0.050632576457413037,0.10429329515813866,-0.00204310386393133,0.15512137643788931,0.10908081584192135,0.23525644717048258,-0.208943710922245,-0.14880393527842592,-0.14995517100409581,-0.15464343225466587,0.057238769617380725]],"ActivatorType":"LeakyReLU","GradientAdjustmentParameters":{"Type":"Momentum","LearningRate":0.001,"Momentum":0.1},"Type":"Standard"},"PenaltyCoefficient":0.5},{"Type":"L2Penalty","UnderlyingSerializedLayer":{"Bias":[0.070712085494315263,0.010488543240463492,0.039796373938756333,0.0037743333572061977,0.00799403775712911,0.063036871673892214,0.010178982972239863,-0.011348051134242629,0.0825856719448128,0.016310000379082621,0.060964989889208877,0.01182400862253458,0.0037834037068034906,0.060125464582628463,0.02405583621498019,0.13392794300390748,0.012981111682363569,-0.0039975672175747538,0.025089737578806282,0.21909698763576657,-0.013596273990159721,0.00056926613199264481,0.00808265524531663,0.0061523696215171975,-0.012589434292780278,0.10660699337299703,0.086325025041246853,0.031326168951418654,0.0067931577412195425,0.12377682949279331],"Weights":[[-0.301184841774117,0.127938316849057,-0.24891518561259454,-0.081327329903232673,-0.044207431216919856,-0.22342738144020138,-0.15692282048242209,0.19490097619007066,-0.0074097340785841117,-0.10480052541872507,-0.19252379120688171,-0.24693376928212693,0.026414694164192253,-0.25259480732329032,-0.075914098919557554,-0.12114664262845745,-0.10550664304421474,-0.028041796934675525,-0.014267773888236914,-0.10041931576199782,0.099750552692020877,-0.0996718478403949,-0.16802522889710542,-0.23311659276199889,0.1056096499473756,-0.076174765178960838,-0.11751686351899952,-0.11695735946077326,-0.14783294282494311,-0.1442242356529847],[-0.17134503095004608,0.17794652677812467,-0.18237735930268093,0.087752626603375544,-0.12011397984102827,-0.29318838351406523,0.11047071464070485,0.14022408153420279,-0.69945818095442525,-0.38736443100784584,0.042358574316258349,0.050711036877024912,-0.085773240472444848,0.09500044074351871,0.14253651830449085,0.035494869359922014,0.15232774701058305,-0.13974466978392638,-0.042469011612335732,0.26643727181054938,-0.069349714685076988,-0.06375524497207638,-0.15786922306729811,0.092631823569510122,-0.2905184187512439,0.0585227843315543,0.11893791202545043,0.26805695960355092,-0.026383434892834411,-0.27061113308151891],[0.33251661418584477,-0.18016993722269886,0.057311913208294527,0.12693276959652777,-0.26507306482087378,-0.1620596030289774,0.26802309967510035,0.025729621497010278,-0.52785764333081109,0.0849022089399732,-0.07060004784389616,0.051989722223772315,0.051270156762115937,-0.2029185397864719,0.060028596863951574,-0.18995559408216509,-0.29424526038669535,-0.069836359956901059,0.17805862326451113,-0.31386061592714082,-0.23751568037927298,0.20058980227509052,-0.01502206741788995,-0.34972314696518947,0.15290355555876312,0.061748322228793964,-0.059293909998029852,0.085074559091439489,-0.32186064130823605,-0.47060028065034221],[0.10846567578399348,-0.13816719682812226,-0.085597810285590478,0.19385010854569268,0.31946525380930457,0.096986200778557949,0.0031876990807471546,0.0014137189488614731,0.027253621018400485,-0.013132890150188941,-0.14308573632884067,-0.13189269752270358,0.076809469778628681,0.098700126854174175,0.10486713651109071,0.13851469558308235,0.0587673059026468,-0.036807823378805775,-0.1534131613464936,-0.033655278856875727,0.084569648312776483,-0.010256262429343124,0.062769191774084784,0.18238680691200349,0.37354123333749656,0.11441021420503178,0.019777968951864667,0.37019424468726664,0.27185205225055364,0.22173838793443951],[-0.090793315483382153,0.085066943815117368,-0.099801379751340111,-0.0119922289520282,0.014681870797229145,0.13146320012003451,-0.034612010449502448,0.0055078001406825786,-0.1564271871708573,0.089633069107156182,-0.12162066059623496,-0.11880988004268776,0.25461870709869083,0.065795952300876259,0.060416549898312161,-0.071511622595525362,0.1382349289738008,-0.28654441424385574,-0.21488516607184813,-0.003954105686511479,-0.3888484762510368,-0.032574414293352061,-0.19673534221817476,-0.38360047424997407,-0.35850684064832883,0.029769758219914413,0.275875932591919,-0.23554332276970244,-0.34478891470266632,0.0097452010651322973],[-0.014331280958055408,-0.24702060563165795,-0.2831282739207136,0.41978106849282182,0.056557492069447012,0.20862365481261863,-0.0605878574056269,0.1555937290969682,-0.097248395510595623,-0.098357674133989131,0.33297135713349574,-0.0948930572540957,-0.05366415556173678,-0.18059689297059792,-0.21660199591353135,-0.16063663440901141,-0.20543090396919789,0.060251714989616817,-0.12281110147847726,0.24263822699292784,0.18794010408849407,0.010181512251272852,-0.33919105176129721,0.093188907073838187,-0.18020447030228126,-0.051734149771085591,0.2614340074034347,-0.017130551771095497,-0.038965834381061562,-0.061738571268965453],[-0.14817433327950333,-0.011443921592400479,0.078779566624676042,-0.26956312896496037,-0.17487467148559452,-0.25198851632867392,-0.11676399579230762,-0.21989204105243312,-0.2249027749464915,-0.33845675669047459,0.22310175290825351,0.13148789132643249,-0.16931277571708181,0.16996640399934282,-0.15456190749024437,-0.12136209141211339,-0.30573614585209558,0.19475176207268288,0.15526790753911857,0.26489258544602134,-0.16380739168542691,0.0051703159167359614,-0.1599502058252619,0.19701804000492212,-0.069814736550234721,-0.42293912061673772,-0.063091497541422167,-0.21997724075476807,0.29808029234263717,-0.38248487103768247],[-0.21036151730034575,-0.26987151272741594,0.0097936232762794919,0.056709187731481432,-0.33433676651473776,-0.35559524614747617,-0.17796173829295908,-0.24714931803686541,0.33075326709062175,-0.061697460851602708,-0.552486822674087,-0.60884430333290618,0.038170485534644832,-0.31965159127659348,0.12479288736191666,-0.53589429992494464,-0.26582143629770716,-0.16547926318653919,0.082442530792557783,-0.35279688298273421,-0.298163002099802,-0.11614695106154739,0.22411249125669022,-0.20550255610441007,-0.012891813459204801,-0.24584013124311924,0.0816320153586973,-0.15020872511482072,-0.011513549503248033,-0.38396286758614234],[0.17977385979933083,-0.20022569502523058,-0.020551672457250682,0.22662649847265945,-0.32079730009009622,0.26127342923461144,-0.093167712978627193,0.030976219372047288,-0.40490386982039511,-0.0051993563664839348,0.071622267251515118,-0.23197470871719955,0.079006420174188824,-0.060576534243323536,0.11383850606201462,-0.12797782620983858,-0.10805821472526914,0.1442039631523564,0.0760549517814946,0.28227203664145695,0.31310522358143467,-0.42954443640988932,-0.21370529626378068,-0.17655479794425844,-0.059707527304854235,0.053221786862590215,0.059848902909249456,0.18790238429231645,-0.227375677346685,0.034588677215634418],[0.16988769238679191,-0.24705061192420513,-0.071281768681498908,-0.31872833060509265,0.24703732481765969,0.040268171223685041,0.011216828074164626,-0.071247457279399823,-0.18945811050354475,0.031651569712356782,-0.093016126904323509,0.081004296489003244,0.084370766800047056,0.023542486985015831,0.16532524583632957,0.22997950409933676,0.17491628518047447,-0.20088307104770634,0.034029631790335232,-0.31925187688399287,0.38328566246353507,0.14831218058142012,-0.11984660115944458,0.40600218710849573,0.08367710773547353,0.10078660471587642,-0.10776565792171558,-0.039993540227758313,-0.13335118127712531,-0.13838449690368207],[-0.20531569031399663,-0.403320490969967,-0.20798344390219306,0.27278680758776075,0.40502771881799821,-0.36053861130087239,-0.2097976417243472,0.073626542046792587,-0.36397011477276514,0.015248194908035176,0.012755592055365216,0.2201173681019365,0.050569326941106,0.03058141933936866,0.14805719329793976,-0.36205290075311936,0.077481358814473919,-0.15921676982662639,0.10589438336606662,-0.1670519355020931,0.018746515179916073,0.059933715366593344,-0.13019815356310416,-0.1663748585140292,0.20858799254407495,-0.13327242898596267,0.14310590067191065,-0.065102368057156,-0.094565097474893126,-0.2051187789815771],[-0.14978016780531228,0.12010794820540068,-0.32216928882968654,0.30204164083419582,-0.098871237627416578,-0.15695549387035235,0.096981259456546565,0.26825689976934808,-0.16622502686848528,0.16790794957671357,-0.1962539146912046,-0.21566234186656016,0.27295391347941628,-0.18131874069837467,0.12342998750372405,0.095518787299144287,-0.11170659203597633,-0.0064690071235527615,-0.095778658902391428,-0.18737907456978087,-0.07037223227760088,-0.11470807633990696,-0.051175671225477441,0.091520861223437527,-0.0887229435413819,-0.11196530910494597,-0.03822725613259452,-0.21068387518926227,0.041562288802284159,-0.10784936875664977],[-0.19129078631495458,0.093606075002000008,-0.33892773123788245,0.036795733661905167,-0.095842524169599014,-0.027803609710850014,-0.21609200247220622,-0.1996330659682517,-0.16162137391928963,-0.09992790443466025,-0.19522593685357681,-0.2588577142768369,-0.13567693877100356,-0.12495865530461116,0.30673915677404306,-0.064197554240115265,-0.048836980102873476,-0.046591641483243594,0.15277279678379624,-0.41451295744451078,-0.18531974449436395,-0.16956060445309043,0.075706058169675308,0.03601033157815587,0.31368110776271557,-0.088772819496336725,-0.068875072855696232,-0.19033941956814754,-0.1616645852302499,-0.38935064776449779],[0.0012594197918308157,-0.10058309521651897,-0.10985981041010103,0.10421140025770692,0.094663662849106212,-0.060537541306501887,0.017516723302846853,-0.00051290097968656814,0.0910666923575949,0.0064281888437388137,-0.030899493753388945,-0.050967638944232306,-0.1124819358039567,-0.10802890337178861,0.048882602572230344,-0.23317570990997649,0.12278900689415702,0.17084099489600133,0.28411473735772269,-0.082024425059161007,0.11435787928684717,-0.38541984408624974,-0.066135975503263111,0.2582595408769206,0.10437036545070227,-0.087840128493473141,0.034702062304305427,-0.29733982360964167,-0.087493680135036653,0.027686457406287626],[0.071825514785519379,0.21145186950399442,-0.01283401861404521,0.033091745871837906,-0.23693003128063342,0.1701517043766542,0.084163658864402191,-0.15372738652651916,-0.29001728230718643,0.11407873394467426,-0.107852553750725,0.30426128145023873,0.15841343754635376,0.004569663243129545,-0.3646912299654595,0.044724495894414511,0.23236214121057475,-0.0049092403023761411,-0.26225671352943797,0.0901118842339526,-0.17346760604090739,0.072037954275335964,0.047265896808518053,-0.051463533045078821,0.0133653747560411,-0.20892101152002754,-0.027634772345104159,-0.1773444788871463,-0.070679288089671111,0.014775465170782735],[0.15619025437922016,0.11897305959863856,0.064687221804697145,0.0064755299693320173,-0.16228609393326007,-0.055630113918496087,-0.37643134304045339,-0.10945142535493804,0.050921094417423769,-0.13743558277284568,-0.021890792101001408,-0.012169504724370983,-0.11789706613001857,0.090570428279923842,-0.17985016484376626,-0.0087663310505572811,0.044315294843034363,0.098299013189605239,0.28658944404429371,-0.0869135512716818,-0.0077333981804422443,-0.0392528056603657,-0.20694760413330918,0.10012149294920369,-0.0253379241952663,-0.0019980340944022973,0.14917355303302488,0.27757873855726667,-0.33423809151905531,0.05234601815565379],[-0.13380819323457563,0.13480227507161244,0.029607984945296994,-0.37975486399495662,-0.39660371847295472,-0.024922846306158635,-0.35737272163437162,-0.61432437186017408,-0.3478336253940531,-0.22477291364745108,-0.13117924337535561,-0.17295448469881278,0.06427298317022509,0.1965122811362191,0.0048160162800878767,-0.21834686902441522,-0.23069987382146112,-0.30634202856048537,-0.33337943964787847,-0.070064701268767945,0.16495674042677966,-0.22962767708716469,-0.12537621653738329,-0.25181321678121804,0.13933839421283889,-0.16252082401456178,-0.27554535830766952,-0.35851195468739766,0.060647652280024909,-0.2193596751601001],[-0.16800610667509913,0.3827857443121398,-0.13096458384351595,0.008066928471210235,0.035179073653578093,-0.094987814905045653,-0.18017887532838392,0.13515639701018525,-0.15131814033990157,-0.10130180537334348,0.019140763718428336,0.0709292100359839,-0.18431069187983734,0.12860317182951905,-0.094712769909786373,-0.09187779387811984,-0.19477175109571338,-0.046626642679382158,0.0326331618031572,0.3997464885208849,-0.10507510663257012,-0.012640893417569877,0.23948751727292669,0.021194311553373917,0.320156160854281,-0.058503639073101021,0.17134789465709707,-0.021196277505028029,0.23680767190834426,-0.087642469074675614],[-0.10226691206132439,-0.12968657493505317,-0.0023348563612743032,0.32025954811183721,-0.2599725528357052,-0.040718505802598559,0.022205303851243016,0.020316276147900051,0.14409414673287105,0.10721122914127879,-0.031256733376971817,0.32468275863481655,-0.20048486690340869,0.055273999759246135,0.4350538488875148,0.2876850442079284,-0.287861604580052,0.39364347821131157,-0.03560457761478035,0.10993431753178769,0.12629397287605504,0.1159911934835109,-0.12066392346577684,-0.31447078132596712,0.15935330443156726,-0.12125124110040696,-0.025888559814410378,-0.3812470718703872,-0.20053667894117561,0.20054329427466019],[-0.010167773784821171,-0.088189918953312116,-0.51323492204223053,-0.011340035428600041,-0.060409225000331183,-0.044291902277346543,0.027932804165387654,-0.35606967483318136,-0.8740703348864225,0.075627915774329452,0.1961894583606226,-0.031728464014878194,-0.062700842748053973,-0.13324334804684665,-0.023571041120556094,0.11122349031228475,0.20899499679056929,-0.18979291797698714,-0.044660676782328809,0.30262885255888577,0.25929770363710314,-0.1637347880410425,-0.0066899498283439105,-0.084074490694393877,0.10957779612473338,0.2451808996544235,-0.09697428031162246,0.095138283202566357,-0.099648354253032451,-0.46778830119752451],[-0.37482512976782734,0.074936985437061884,-0.24083447079738082,-0.1080664001357363,-0.15371462023316029,-0.14548370640970221,-0.29587759762359389,-0.087742195816715884,-0.030980763840527427,0.023649409762444114,-0.42102503932484875,-0.11238970915814051,-0.28067996938801215,-0.27952567975931536,-0.060884645468031233,-0.16105460096579008,-0.038122405358511392,-0.20171241189721897,0.0622237487825738,-0.016197584430223615,-0.031152639169735711,0.11907917927588198,0.033082741286855975,-0.24652292740682288,0.23143632814511916,-0.25258533407493267,-0.290534789154017,0.079485182643624877,0.063079358542361574,-0.19565766890408448],[-0.10078422800325104,-0.11340551689471952,-0.026797055337384149,0.10292167044753274,0.050617417507253321,-0.39217958535991587,-0.47056415064304125,-0.196420875435314,-0.069827717037715634,-0.21903696835385153,0.049242494462182512,0.14392361127564649,-0.15051922348414179,0.33244438370213358,-0.13747056408821545,0.34646324148546825,0.1081168983615457,-0.048383150779140911,0.061893754260093567,-0.22565962567337367,-0.1280419441799448,0.06432954257739007,0.22514912070427798,-0.099834202494167246,-0.17915667474143823,-0.071628027657025223,-0.20952336469564042,0.055807406626202677,0.17614498749877033,0.023306196653735393],[-0.1780303034136653,0.139437061837721,0.11977629049905776,-0.052079158815414563,-0.0648043403107818,-0.463610092484637,-0.023256431459903755,-0.078204410579047978,0.068483728910798125,0.033799993281084705,-0.737968187591263,-0.44858598136327843,-0.18086220132027994,-0.32266895925090949,-0.13532899781236918,-0.73333034360623728,-0.34253941864275972,0.0439804504967076,-0.25757410699808042,0.052518869637236565,-0.0696183778145799,0.091718277254996011,-0.12439206120536536,-0.25231659859840039,-0.12818302781278745,-0.51732863783691541,0.023337804141281813,0.060402249766391719,-0.091041957983543892,-0.12745928858427275],[0.16432332986445669,0.1870819010632018,0.023274789433783159,0.074908040343642526,-0.14110645794725327,-0.11264263538357051,-0.049019024088284881,0.16608317960668076,0.0052667137374070713,0.19004939018180855,0.21978993776128777,0.20645177496525122,-0.43925953199194678,0.12288852362223302,0.027533146600353071,0.043197787006727363,0.1937114989965914,-0.2125774862804154,-0.49039707290977791,-0.15333747143032922,-0.067657385221207164,-0.22035066312033658,-0.20819034644461817,-0.044632134010720977,0.1499615770474633,-0.14004023310608454,0.0737437516693262,-0.14130085610859797,0.034682436623592,-0.10604108327928812],[-0.219002345234749,0.301656577953476,-0.30441831327756014,-0.31430148309750766,0.305173419368244,-0.20725321885889167,-0.288263636033346,0.11980428934286126,0.32649264136465994,0.044807439688281374,-0.32364657946267184,0.0049979927017026471,-0.17222607627126968,-0.10712316589120591,-0.15353129910027369,0.024612655952043098,-0.13945473786497173,0.16727933010588111,-0.22874686956319745,0.029894531337821127,-0.095039414095339739,-0.016921093258712473,-0.18465023913560019,0.36126943967084663,0.0436926476356791,-0.36095695219792334,0.022403771870728052,-0.18363635580799312,-0.33287995558227174,-0.097273478769176039],[-0.17394305246821609,-0.20735820169837951,0.031391892803847833,0.12515108356238971,0.095089895776852715,-0.26217276616089774,0.066796158004606851,0.013750654892097541,0.00885296566099109,-0.19194966262353053,-0.177480989569056,-0.26822131795882936,0.40305988998619213,-0.12931239150531279,0.11769693771184865,-0.22343990507551795,-0.1833292102758842,-0.062591834567955848,0.014686198697651134,0.10350564185982096,-0.10428626413266531,-0.12335754739706607,-0.26672879670352773,0.081817404179738734,-0.19064113835938715,-0.22346092248424887,-0.06043615173863915,-0.19209940637127806,0.0290443936873118,-0.40769462338184731],[-0.17381884037645634,0.0059369464591040606,-0.696317179041811,-0.063390638903239982,0.0086261669754605814,0.190222536992409,-0.27244877999106226,-0.096827945791729181,-1.4363906118301371,0.0762107102419781,0.36495868891131911,0.73567609514832477,-0.048139075394918317,0.025141492174771032,-0.16259619448090379,-0.017627879616914754,0.24013541382820131,-0.011042145186764505,-0.17505608867047323,-0.50770719676367926,0.038510966682517765,-0.11357668635693961,0.15923356536499728,0.20300904607245032,-0.066849206944793488,-0.15578174711135129,-0.38612844515478811,-0.13574281941789174,0.054407446392500058,-0.52902810381110665],[0.2513632621803264,0.079311390775238175,-0.4713269945536136,-0.20241754007801663,0.1170573882318815,-0.074770367916115466,-0.060054072619674971,-0.13050326112573374,-0.93433377618916291,-0.0093183646226784982,0.17506301189093973,0.26531662033857734,-0.11565288863341787,-0.066388612110653847,-0.089097525069222944,0.028073691747483306,-0.037161633575884777,-0.006728901353306416,0.26115131169396788,0.12779431597203161,0.060408756608994037,0.087834965468728862,-0.31167930729768789,-0.32080913587060894,-0.31380403435038695,0.020999649996295597,-0.096675602692794807,-0.11629567098839595,-0.11121171259453479,-0.35525994314033765],[-0.0048006822412569412,-0.25188462027211256,0.21339908544096842,0.36750865252591952,-0.30169036105371833,-0.036230312790008309,0.063916412158694841,-0.16527066266593568,-0.21706289883491067,0.19780007725066046,0.043612349125739379,-0.23647742609578348,0.053668162052887,0.099898527690021055,-0.24549980126957827,-0.14005208357067159,-0.036235125284393939,0.09900420891656439,0.31830966227921592,0.015907437522104651,-0.40846525252808341,-0.065670769058959119,-0.17490150643931537,0.14956841786137906,0.18304552570718916,0.074906485835958186,0.016890729889497195,-0.0020697340950117968,-0.0094434941549473243,-0.097185733591917872],[-0.26387975849795081,-0.27975105922155796,0.067464364197140358,-0.26186950975318424,0.073351968388940536,-0.071587435223451457,0.1050473490705223,-0.21090334087699583,-0.034775702086183635,-0.049541747051161239,0.24284441800108791,-0.07889799199796127,-0.023284584010763939,-0.17116542613171337,0.14735472229180907,-0.38762502914689173,-0.058950802259620745,0.012048275772676415,-0.13135766472881791,-0.17529636839933183,0.041265414249901128,0.08905725270350319,0.064639986151474,0.12683534429914442,-0.26433738077026636,-0.42667332290962484,0.0068865290774733122,-0.0603677628369008,0.065248242204726886,-0.082752825166813634]],"ActivatorType":"LeakyReLU","GradientAdjustmentParameters":{"Type":"Momentum","LearningRate":0.001,"Momentum":0.1},"Type":"Standard"},"PenaltyCoefficient":0.5},{"Type":"L2Penalty","UnderlyingSerializedLayer":{"Bias":[-7.6174525433780085],"Weights":[[-0.46487389979926341],[-0.12102590788321678],[-0.41680963753828948],[-0.10964980487924543],[-0.15348298349905873],[-0.72160041005332021],[-0.2458844676290714],[-0.27694399756886984],[-0.67954937215961431],[-0.15824315096689223],[-0.62637355399970163],[-0.42774439847026419],[-0.06705121191188558],[-0.48372202850581114],[-0.051295767975882492],[-0.87600811684571189],[-0.3857265960645419],[-0.12037950110450971],[-0.10364312071427838],[0.079643211901625877],[-0.061952449644417],[-0.0927392315918344],[-0.17360095457633581],[-0.22182572329819353],[-0.15498235544768071],[-0.67884206860977159],[-0.12709588595525043],[-0.19622112388632002],[-0.12911967332394103],[-0.92216798175379355]],"ActivatorType":"LeakyReLU","GradientAdjustmentParameters":{"Type":"Momentum","LearningRate":0.001,"Momentum":0.1},"Type":"Standard"},"PenaltyCoefficient":0.5}]}