{"BatchSize":16,"SerializedLayers":[{"Type":"L2Penalty","UnderlyingSerializedLayer":{"Bias":[-0.0052694343488703414,-1.4636700310557018,-0.0039956298226900364,0.011176363759442398,-0.009889846209801427,0.36598463031142586,-0.000593044444509321,0.0041630088747916724,-1.1379499794846655,-0.91536920052695281,-0.0016090950253587798,0.011693107777691225,-0.013462274428473245,-0.489001943862595,0.00506790996132358,0.012099769252885549,-0.0051818709235354945,-7.6461413174881789,-2.206598418314174,-0.00026129509754156037,0.00037352430320903673,0.00028285343131678075,-0.45640736094809359,-0.0015802877985157384,-0.027919914093962432,-0.0058412495950200842,-1.0819018431830885,2.3323751884532529,-0.0255390410354922,-5.3896591878437681],"Weights":[[-0.71429170956956833,-0.43219470191228759,-0.3680308992228396,-1.4245989074654515,-0.2029827685546981,-0.54847585439901325,-0.50830361771298538,-0.40653929467583433,0.47947410649759931,0.23378700422449325,-0.721432876198187,-0.27238905954763459,-0.0054507390232842144,1.5239030390274493,-0.13876839808569869,0.17317926853960994,-0.27716809414575416,0.97233221790298063,2.3340770905423449,0.2959882938896633,-0.35619821482234887,-0.25065429762479696,0.17224819734195254,-0.43395839264885977,-0.84767133519331661,-1.251652438784616,0.401684492383464,-0.32720056616419574,0.35336294388898237,0.25836738703539397],[0.47512490156042553,-0.96805771272489283,0.37487954786797828,0.20619277744391007,-0.687119699988338,-0.43263190967384307,-0.077072569676686145,-0.36825177359572109,0.43218975723539338,-0.017287041149197085,-0.67547459129863818,-0.44581909890468191,0.1621702330841526,0.39543375277486392,-0.012636286411907151,0.052241595413214069,0.42757307930586408,-2.7918062527383682,1.4854875942344057,0.070090087677792,0.66111125585157049,0.15456972972893868,3.6545533301690845,-0.34877170980064837,0.312285953772596,0.36554680737975526,-1.9435206336894928,0.70007988496580931,0.070912575217031038,0.86180408605157666],[-0.89109401524109055,-0.59423263790310088,-0.91242399082275372,-1.6726568912098749,0.10265913107496065,-0.55320304620489991,0.035324051343553507,-0.29870398541263954,-0.27462236774813903,-0.95487099231591244,-0.56670670195554185,-0.10103920604576866,-0.78010918070169433,-1.4328819756966247,0.066357381774882956,-0.20131386270545279,-0.86097144687443994,-0.52320614650716946,-1.9661529120804304,-0.39329553191764982,-0.24337651845779934,-0.24361851871628534,-0.19820071876934281,-0.36182114544248511,-1.2821050389844355,-1.3000164582146552,-0.65268008053578408,0.48896183554688422,-0.54304266491190467,-0.24425975860912319],[0.41856408169738635,2.8260734831934915,0.3991227036409421,0.35363744078074705,0.51954742707249746,-1.5603967434322643,-0.016917564145938938,-0.14486841982145823,5.8347474881292412,0.84667763292608134,-0.15937075281941426,-0.0774018049428027,-0.0763086888823629,1.8883313815074629,-0.57798127983885739,-0.051725286553554732,0.6430927517616164,21.110059439535604,3.4172230055188928,-0.14324198241128344,0.0063535112555751158,-0.096391718491765088,6.5284811623229677,0.46487234835969393,-0.51815557192559369,-0.3840976635426942,1.722161583974847,-0.20184706521381565,0.19913516053011204,20.081522634324173],[-0.52274048438281917,15.984446642552118,-0.17834633712063439,0.31039612340981321,0.6789600478817519,-5.8499450304241911,0.025079941949622053,-0.12726671316557572,8.6320498600463846,7.4256939242944977,0.24485861851148033,-0.4324956331253148,0.35783050333285332,-0.056012361755160368,0.24732016106145047,0.25436419036941965,-0.19867559948488597,10.106450699165317,3.9716729751021163,0.15497706999634753,-0.14810819152898663,-0.41005417958444573,-3.4940158966846848,-0.00546902055891637,0.52628959339401293,-0.1937888434632809,7.9171397091039255,-4.3610278648175145,-0.27378460423635015,34.088871027867775],[0.53189121938945783,0.26599449652369661,0.130936009006159,-0.69394078507425538,-0.23704154076850842,-0.32470486500666385,0.29479893049949157,-0.50700920927638926,0.016934752455286535,-0.0074145053702772013,-0.20774736299491917,-0.11248569247377319,0.53398936460510371,0.24072422312298017,-0.53605871480743139,-0.13357453293081206,0.21001874005821564,0.35552428536150421,-0.10755164491398477,-0.030641956086655871,0.4264719197951542,-0.32467637287793233,0.34494434636493526,-0.22141092715008434,0.33444681636088031,-0.19195136964297868,0.012334190930558518,0.049799794534609608,0.31441482229020074,-0.32644999425220717],[0.4875356119496585,3.9908448122806308,0.090558508446706446,0.1549179474672375,-0.24450161125025621,-1.7988225966704794,-0.67914042333995628,-0.44460296260041271,8.0292010238161389,1.2883801266863315,0.12077020729296316,-0.019200511299407103,0.043410100486875096,1.9675788486815076,0.15025480268682956,0.17898568800278611,-0.18638956767438827,27.452631686230493,4.8696416571539256,-0.21766127535479005,-0.14224829369710793,-0.17551713574819608,9.00862284033957,0.30579117345185658,0.81922239816216125,0.28763171383547648,2.1415383658981506,1.849167700863114,0.41235225744286419,26.388787109434759]],"ActivatorType":"LeakyReLU","GradientAdjustmentParameters":{"Type":"Momentum","LearningRate":0.001,"Momentum":0.1},"Type":"Standard"},"PenaltyCoefficient":0.5},{"Type":"L2Penalty","UnderlyingSerializedLayer":{"Bias":[-0.749618575620226,-0.0034615407242089692,-2.8577067628553845,-0.0054430826931493254,0.00015038725759894983,0.0595582249846272,0.48029279726008334,-2.4441537215742781,0.0018036766785792557,0.00042874539986466483,0.16324347252021088,-0.49439181782045638,-0.48306100359093135,-0.058659137503552942,-0.0067069890488314944,-0.0017379068834878445,0.008646082026249207,-0.020981415967681046,0.94998808100629784,-0.20945752558988798,0.820838260813436,-0.4844741673260623,-1.1359175086881033,0.00017147844476530304,-0.0034230499280569976,-0.11979760194797895,-0.0018720656387891455,-0.347033186720917,-1.3291049529359971,-0.075378095009956153],"Weights":[[-0.36427898421661081,0.021740779062282285,0.29432549253023887,-0.71508967725664441,-0.17356605611437684,-0.014580676309032934,0.0088906580815804135,0.013489353894421489,-0.073677582706840772,-0.22182991517947795,-0.28257336662185117,-0.18470245332368562,-0.23448425389343339,0.034194227339081819,-0.0834368968989791,-0.027275538425715538,-0.18384769219812824,-0.0670831944548887,-0.30745991160402519,0.035810347813794607,-0.17035704019248596,-0.729010427375761,-0.34571475888474468,-0.062928315585331629,-0.47308849114434809,0.12747218086914769,0.15834538606359971,-0.406966341637294,0.14582331951804747,0.034432292488339865],[0.18448002755743409,0.051008943751381326,1.3486503961605827,-0.84309887840358522,-0.099005259457058112,-0.057590503938198576,0.84467120491348013,1.0062154940654422,-0.54812978384639288,-0.084575104428806225,-1.4288732648837377,0.33956973625323889,0.081689929127317026,0.11079349363197252,-0.36033535406473916,-0.16074480207557818,-0.24315002803997121,-0.6902036919180814,-1.7138633610347862,-0.14140114165577319,1.2894632768938108,1.3220380754666852,1.2187254330305912,-0.44016373116075219,-0.089347046748482664,-0.0093410514137242228,-0.38056460928976832,-0.052484209830903433,0.45911312442865188,0.21247275475777822],[-0.1863382074754088,-0.10598407577905766,0.13436462389077716,-0.019910043563480449,0.1011381157929223,-0.35949669040661125,0.024252806690308524,0.1642738495665137,0.23804004639429732,0.15597112552936807,-0.1193999946572171,0.12597963049137709,-0.11532663677027961,-0.18218518717641113,-0.253252357862933,-0.04257392852431037,-0.015644332555575305,0.43290265866169636,-0.11105027494398388,0.07696681660528977,-0.11784916137725397,-0.9593119833886391,-0.060555827121861812,-0.25659662135477451,-0.053377463141773142,-0.366435385312208,0.11402861583578462,0.04636965518338966,0.13178645154681129,0.21411744394338511],[-0.17714461994737993,-0.20121876114647255,0.026666587614718806,-0.46390467217340425,-0.018714673630419648,-0.32740478171322923,0.05001424215442811,-0.18938646450551791,-0.06108159902807813,-0.13827662374956504,-0.019616778444023937,0.4203007008972382,0.15047714406049761,0.12939629459208835,-0.41275044983612336,0.1385237292898798,-0.13206573780925915,0.22011511922114752,-0.45630775652118855,0.11924555291681115,0.20493430532948509,-1.570059080613317,-0.80020974699291081,-0.41342493140699271,-0.30996504845243272,0.0209233596570732,-0.0800672286644259,-0.199077566528841,-0.045610530215352114,0.21992891542851561],[0.17959384718736687,0.10315206024493472,0.18829962861995342,-0.079408390730068112,-0.26852127128085979,0.10495293005280823,0.041590484631571986,0.099487883094389135,-0.12128096695787707,-0.22471321497944513,0.17252537489900283,0.16144714398745053,0.21003517417326606,-0.21511171184029507,-0.19744027897590322,-0.10646491179476078,-0.24509401786109172,-0.32646560287545545,0.099592213987509878,0.025813826485002304,-0.0019630186319028972,-0.012875556856917707,0.148311421132504,0.055831160933970392,0.088760737290220229,0.1662031342644999,0.02890647818854088,-0.069484883163445227,-0.0683541105983064,-0.022217101392284083],[-0.1464265409914858,-0.010816994246806894,-0.31360140937528708,-0.6366308734403503,0.18870081024424559,-0.21433368338355596,0.17549833638217507,-0.93893847787342233,-0.21424628743312355,-0.02131296289262135,0.06747628723275316,-0.47826167165940137,-0.563590342650793,-0.0987624658721543,-0.44477456785356223,-0.13897121492952835,-0.46487561027919944,0.162870191596803,0.74493233295866579,0.020307672609850832,-0.34761253691141464,-1.2452194490364712,-0.84015381857930693,-0.13420871617889787,-0.081149364773619823,-0.1313778198516021,-0.16290315625976135,-0.43472255401677456,-0.4276666953147184,-0.02481249935174288],[0.006564618823632495,-0.37351133917447704,0.25143431169296454,-0.26407738213083026,0.17122118891914839,-0.086362280553794274,0.030805307919674743,-0.15036032180436931,-0.16805333845653508,-0.50676578276857709,0.19721134173143065,0.31492352454763117,-0.087610515151654,0.078861970048243649,-0.085177647422639391,0.047309764531497829,0.30753688096133625,0.063823088379600143,0.21406656575263344,-0.0093667501670305544,0.076767892287550377,-0.37468472900081645,-0.17914225344662352,-0.091044713603822353,-0.094137498059849833,-0.50218186472210224,-0.126685331508319,0.29241961001907096,-0.18432548047226194,0.26165112780120536],[0.069274080484622733,0.16250051527148662,0.037818876273506316,-0.29840177903770787,0.035158936089462765,-0.082630772009059134,0.22682291713814984,-0.0692379672320681,-0.09760133692348591,0.14675196974190524,-0.037635125472381355,-0.086670813939354718,-0.22202089931805419,-0.23804463138688792,-0.03819728430939083,-0.12721139782735944,-0.02414805657963915,0.0084546557053166525,0.013838307021134816,-0.026397449273125682,-0.18264872211861541,-0.58011015719732362,-0.059612509733421019,0.14012079484447823,-0.43137951456452689,-0.35541441097655324,0.0697968876167223,0.33124584558591869,-0.17705354939041237,0.13443607100036184],[0.14269407321983063,-0.17773494933962811,-0.031941557236494979,-0.23582448273697593,0.09225187301942725,0.064423371744692023,0.2002152739780233,0.18819580199397987,-0.31570883547695444,-0.11429528575074573,-0.54221077527803885,-0.31555554201654051,-0.11991849048679922,-0.14863943895987661,-0.13018650984317837,0.068035510922936318,-0.31444744005629477,-0.60892712888353007,-0.23672127900757897,0.068502384464432353,0.24103050049332678,0.36711315613947149,0.064476187442994132,-0.11442641767444839,-0.3853667670195805,0.034445041409640692,-0.0018553332304526056,-0.19127327795983642,0.077540629729186877,0.012173559000162161],[-0.11917663142645833,-0.028011645737840516,0.73978948537093869,-0.27927977951548649,0.10288344726319232,-0.20453502500646428,0.14931515637272672,0.66737314024815364,-0.21620043041475326,-0.10693959440446997,-0.70360148095642394,0.19990672129363535,0.20367749427889262,0.092500795475243633,-0.16935358694963296,0.020840993094992932,-0.11572518231322995,-0.2117832535759184,-0.75635431641564521,-0.12071260068936884,0.330660337813792,-0.10813343421049228,0.4837464903994862,-0.19274235662081454,-0.09421969507822063,0.16319208713061212,0.2069037391991565,-0.2419078845328588,0.41201256120992624,0.077805795262426716],[0.12519854853503645,0.34495312618176704,0.30501517744974743,-0.20765831544488977,-0.064492898347118979,-0.31597670902265229,0.1713157104957504,-0.23328149589708938,-0.26191206429106889,-0.16372360786369486,0.034478839303381165,-0.1141471822066078,-0.041490328443718805,-0.0029322277167926161,-0.062588033991005335,-0.0762456772617768,0.065965936584820486,-0.1272817466679434,-0.309319418618305,0.19525854509034962,-0.084922779213404687,-0.5918632613239353,-0.3505886187808247,0.34920276348923884,0.3277129027562356,-0.10294301458813131,0.36532964048674682,-0.090024210816353534,0.11832676369358505,0.24080105623679363],[-0.099914903831695129,0.032562152315410119,-0.20642231516899456,-1.550964879720236,-0.054109079813564567,0.13169444339825878,-0.38234627212149175,-0.02313725596753919,-1.1789963615588082,-0.47476634945155577,-0.26966788594312124,-0.36559686543601511,-0.0224888358565473,-0.12427390407537579,-0.59200618465621324,-0.0952185796269751,-0.761798072786922,0.2412070397186365,0.090786849048935414,0.11227571163155305,0.26144815990015058,-0.40282096137852275,-0.0943495064395452,-0.42102384795757858,0.11574966003394813,-0.15188289247875661,-0.016408979007880353,0.092638235271637739,-0.29010965662896621,0.55043198457529563],[0.094191793973299728,-0.057434544123948841,0.4149307512737837,-0.24700044619061229,0.24477941944167911,0.11014980449157737,0.020836345992363683,0.056886051132830823,-0.1063191464494872,0.26523121577490433,-0.048227968254865736,0.15767907700215861,-0.1401417579010103,-0.067574933932065692,0.028489759832175495,-0.2224353564402263,0.0096703665541745584,0.17902282341725806,0.062637146433388607,0.0029714710710967724,-0.27885538539825794,-0.59038294546208492,0.13141861866965562,-0.034519408562034691,-0.038641851100662969,0.21497836917743304,-0.20055235833575852,-0.30851581040876963,0.011476733490821229,0.13010791176298425],[0.2946259508465533,-0.015189284632739645,0.18440833963128969,-1.3635387547610645,0.014221494511660136,-0.1648804642724141,-0.25303777262574467,-0.23737706123242691,-0.35755857619056186,0.00991894609843265,0.66965148683926645,0.18617248051861485,0.20193950299975627,-0.34480138444668185,-0.32268856903615334,-0.10155556309085642,-0.53504193223790353,0.0012036362712492122,-0.096808944608303665,-0.23568064922141865,-0.73290558776524772,-0.054593523436358045,0.685192396841011,-0.13015827298721308,-0.16751711520406568,-0.11875450419394312,-0.42117423505637352,-0.32116301944557885,-0.041596621950238263,0.17087648425060026],[-0.12275881824706464,0.14397620545796136,0.01806246331402183,-0.060503709163485381,-0.080976917600139545,0.047891870258733371,-0.0747303783445983,-0.082813276877420572,-0.085095283557846763,-0.20747878049458485,0.059364948422731892,0.058821307714815051,-0.49746388033470079,0.17799417938606427,0.011326904161282177,0.0034040877538244565,-0.025390050327817687,-0.39972954775050129,0.2264772678108409,0.25317945602981079,0.12950082062316851,0.39769036816812608,0.04221576835513275,-0.076663192401231026,-0.35602190053281918,-0.2319371991945044,-0.070750380682773062,-0.11330489677836164,0.12787552920090084,-0.015732261836902333],[-0.17066301598451691,0.319021433245504,0.16763184613509949,-0.2622821290156272,0.15820601725688169,0.17648999420398268,0.010839386324193815,-0.045354080036743315,-0.036941588051909925,-0.011781610897123141,-0.071786347058753211,-0.045071965112057348,-0.33844683446519319,0.11389634004503049,0.14908108192747444,-0.13605789824249059,0.0027116171644308924,0.12867804113599535,0.40390636834332194,-0.11607306666783485,0.39488291534939285,0.033453225959992075,-0.0026163196906439931,0.30019086823009683,-0.070737650993418111,-0.15209743010722945,0.17117224767772912,0.18787426588202522,-0.16282891558693255,-0.22362921487146653],[0.063245058449086691,0.07735589193557485,-0.0065157460971372377,-0.52572461227851086,0.34246837911475414,-0.11840227121518901,-0.062605098573810872,0.010205713507406565,-0.384237144726472,0.11933991123784112,0.060457648570035431,-0.06076109373881846,0.090182082696237578,0.26190685806974168,-0.13280448342336174,0.12719986589629134,-0.35776854607884323,0.030514360300859661,-0.17301616837856335,0.53279291133387408,-0.0032930112548093071,-0.49405800163126928,-0.20700675036893695,-0.39127488933146104,-0.13184748574975347,-0.11065427630396427,0.082248534225810216,-0.074512187653784562,0.09283245008986514,-0.12269451675381729],[-0.61951272174087835,0.0019919699685468522,1.5500381114706761,-0.2314514523899244,-0.42059391373221661,0.041921779375934914,-0.68103301533959426,1.48654361745483,-0.41569048045029244,-0.3319226555387132,1.2254428504923938,0.38900448456049208,0.44436403539959929,0.041136079402712369,-0.20736159577163932,0.054745109675604524,-0.50506844146327534,0.91548040100854189,2.109022321231691,-0.81518606224915569,-0.84315556370376443,0.56419211554143789,0.21470093189930931,0.0068241744228515738,-0.23343965759645241,-0.011721537931392656,0.033042168256738239,0.62986047353370289,1.1439251637152719,-0.12419984349739022],[1.1441761440842964,-0.4344959823027334,0.87549158438530861,-0.081298169736874343,0.039600741565931276,-0.26691505707559837,-0.24225158635354568,-0.38019637968832021,-0.21761294586752233,0.16094713371038347,-0.1621206118953579,0.68335686741150958,0.60816032691892,0.11139632141496601,-0.27343405886288741,-0.16600114462902041,-0.073458147722884851,0.00082589050387949241,-0.509044225614721,0.13524181122145429,-0.501966704766056,-0.97190300911112748,-0.0095366397844273455,-0.19147583286189754,-0.038699526890745649,0.26798957258997524,-0.12416857455276642,-0.053996085027486651,0.3303595345555666,0.34297163564095484],[-0.12793892664633474,-0.092948992522313922,-0.12852153336427247,-1.1055108981687294,-0.025154225163105209,-0.12195955103328258,0.15491682051441766,0.18273436872273155,-0.65611398453709258,-0.023893946087712177,-0.071780293109701493,-0.20548632477404302,-0.11406304273111231,-0.05083893879791964,-0.50554948569036307,-0.11052863883034295,-0.10272748731010722,-0.020435399729096398,-0.036587860608784488,0.20209084756751777,-0.3925866854065499,-0.12346621653015953,-0.18192175319801041,0.079592519840754772,0.11920594640947761,-0.11809030076072026,-0.37559743208512159,-0.14331877912251465,-0.23107808629799898,0.41038204474657269],[0.14105674759853146,-0.13309346354493176,0.10936939358448536,-0.34183676585360123,-0.057564484941251909,-0.066861004125627982,0.099198935887438638,0.1081020591166955,-0.33871051494419885,-0.030547093893653371,0.16034656815409734,-0.0835519995695109,-0.14434875737443237,-0.11878118463302384,-0.1205054692147839,-0.084546065686181046,0.038307289308229284,-0.1206063418573326,0.10438848944124698,0.045396581883900375,-0.016836341304451084,-0.23706604534753475,-0.22001380787759625,0.045231504778095268,0.10891137639551278,0.0972252399328632,0.0062474556841305793,-0.32966475626828412,-0.24544330910593804,-0.0096832586172442957],[0.033303300104144111,-0.16972412786974608,0.31166909162995104,0.039878389748394284,0.044415960369438449,0.0919517674569593,0.092625317529684864,-0.024864166436728782,0.5005169895657342,0.080465236178114907,0.22714615852349909,-0.1052936650364048,0.23830681897652209,0.095161601015619213,0.06564587774073645,-0.17721452789146236,-0.29657620554623637,0.42888041455368847,0.30770372510505783,0.16913801351885346,0.13022859796369046,-0.331339696630178,-0.274896058892861,-0.010027195468879584,-0.022220335420528235,0.14479859917038196,0.11214062046431919,-0.041062699921644949,-0.15158741218270405,-0.19764157623693465],[2.0629297089981242,0.078380397644493241,-0.41297503435334371,-0.74873216672057485,0.077019393846019107,0.12458555271631594,-1.5665965424170958,-0.89011844137827223,-0.83086373427024607,-0.26244061556607379,0.81488995867739022,-0.28068284125045839,-0.1648775338500163,-0.32962500398752864,-0.6906720091221874,-0.29795559196381272,-0.53231511596778536,0.9599050175477486,0.44574274860433982,-0.1090347956407287,-1.1094425017052845,0.23126499765024156,0.90017863717768976,0.045174394069882842,-0.19748751563732678,-0.19220821105664618,-0.18220469989769714,-0.61288801117753333,0.68138137971942947,0.01479827563189548],[0.045039045726864436,0.0093361914592438953,0.28352383633577033,0.17307108763002546,-0.26762755613574057,-0.28108466291514894,0.0029109129764660858,0.16070352201565588,0.22903471025819777,-0.13123012593694225,-0.10247980047258629,-0.033221083967722422,-0.24744858392819583,0.10528922228931888,-0.17204599297920883,-0.1018613392346898,0.22925882626420535,0.061769612884671594,-0.0033751671609390946,-0.39606251811060839,0.17888578404354524,-0.51119979790796621,-0.24542410197044787,-0.022286701092225903,-0.030745223771293285,-0.21277690040777778,-0.13150279962428466,-0.13610661747326333,0.029400143213179335,0.1047664802024524],[0.23503407666789866,0.092714450881022537,0.5590064005598967,-0.46596457568196092,0.059166204238076142,-0.0099101835926761316,0.067519621463134158,-0.068225688565963866,-0.23671044080911993,0.27894698007033686,0.12078725155792047,-0.036372849228373076,0.12875905449243147,-0.26132751558381723,-0.13165500956973711,-0.22130187272048021,0.19119571428755772,-0.092844492694072953,-0.66011893202981575,0.41202531340704529,0.33113581256562052,-0.93869186501208779,-0.19128332660494471,0.15195947969112431,0.25927678193162634,0.17720429898028262,-0.071405671760287129,-0.026351433172172402,0.53626732063601446,0.37712178744082936],[-0.18127243609767388,-0.10286171148749043,0.12729997024041012,-1.1475908297227406,-0.29847786772528562,-0.01553180247847015,0.25627278917679169,-0.065685123176978125,-0.25764089842828342,-0.092152843289492942,-0.29183716292782497,0.24278961502735938,0.41243445963611797,-0.31979854546874442,-0.712043839367745,0.14927219003015638,0.025310183664190151,-0.027976148653108626,-0.21185969469375518,0.10930966200776041,-0.19108251062699733,-1.2902635977202404,-0.58020483263970857,-0.094426702256973125,-0.14528573782316639,0.077390035980308622,0.050881465724965366,-0.52876783358369972,0.33111055525112193,0.19068770369476429],[0.012567989432090651,-0.23273759642150804,1.1164963193652975,-0.37920682630224,0.0096784857192544586,0.073679436529446085,0.09702020041927166,0.63041370365159821,-0.76875602736406257,-0.015573122570236905,-0.36613826086694234,0.20856305968804062,0.0874413136651747,0.045874707960969117,-0.41051798134493628,-0.10541177798563801,-0.15275919482264416,-0.40681775964974204,-0.371112518320234,-0.014949053820370296,0.39050839911789742,0.808011059065332,0.59585210539528266,-0.010846736388492857,-0.03368168596799527,0.11087100795197667,0.15646046257708979,-0.00820972807233536,0.10959239878007146,0.01870811883610508],[0.032069521320605414,-0.069701685262617344,-0.33753840307675065,-0.33226906322703126,-0.21748991931567782,-0.623316863391475,-1.0040431431891981,-0.54431036798076071,-0.2818116238192474,-0.011310655697408361,-0.2250877120607766,-0.29833411717353947,-0.46047163670435193,-0.12400286567306272,-0.595545937874397,-0.27983427125769861,-0.52700824377094424,0.21653279367827433,0.29818884708611648,-0.84889064390092306,-1.1388498455065406,0.68691724856050418,-0.033932817209633828,-0.16634267382448062,-0.15721349211308483,-0.70980513708294479,-0.16608269597742986,-0.028901420713965575,-0.59017191828270477,-0.19124234845672458],[0.14174191041320997,-0.065121309562841817,0.19718007629267678,0.24074068205850682,-0.2493621468478919,-0.30811563455065782,-0.13448815984174206,0.51572069952401,-0.14451970294333325,-0.37407984663678479,0.30603756834180112,0.22369372952189898,0.13280054770434824,-0.4583805832867725,-0.015304824548983,0.079650420777760841,-0.034404486800456525,0.23450928076085184,0.094338122839405417,0.31035145035092981,-0.11863257356663742,0.00437716858934063,0.10157754453913279,0.34003186377210837,0.15579041498013932,-0.19440000148386019,-0.14217096133235949,-0.19806888348718743,0.39401280950761641,-0.026434173073496454],[0.29535833695450475,-0.24790406502314816,0.16645488040499107,-0.35221242507428241,-0.23157344360764876,0.15007128658040331,1.3807098968442679,0.88777489738500681,-0.48609124682422683,-0.12527404664025788,-1.7988011242911142,-0.45300853148412595,-0.57682542623013711,-0.031420813172037286,-0.33220966914749034,-0.45606711080955159,-0.23971125249776812,-1.3211174107157309,-2.08990653886925,0.5478964407489102,1.7304034318675103,0.53310565976998436,0.66728455489605354,-0.17932852010852526,-0.12939024587690925,-0.20963939792576061,0.017518980339583261,0.27460168098144788,0.092478702994639311,-0.24264291907329894]],"ActivatorType":"LeakyReLU","GradientAdjustmentParameters":{"Type":"Momentum","LearningRate":0.001,"Momentum":0.1},"Type":"Standard"},"PenaltyCoefficient":0.5},{"Type":"L2Penalty","UnderlyingSerializedLayer":{"Bias":[-0.52152777271861339,-0.54586865983543331,-0.64044419532937913,-0.010680475315067115,0.0158456697219083,0.0025789525286322779,-0.58964508908860536,-0.427037717057827,-0.043712586009151684,-0.076348075825090636,-0.51686111045457139,-0.0018919307811720771,0.074628577958597966,-0.059049843350518008,-0.0055299123945031425,0.0020885359552231474,-0.18623252951423674,0.005439563824469946,-0.0015678528860827833,0.17277315040298927,0.26862241295460793,-0.0067944748805634468,-0.44455387255109841,-0.0081875250630181126,-0.20688967347516876,-0.17164171632648351,-0.20548840833694473,0.032091230070455286,-0.015103413082473136,-0.36619061844751477],"Weights":[[0.536587810234272,-0.075247883125848208,-0.06626584273000323,-0.092148754656671841,0.22768228390909964,-0.10993227872700903,0.46641614904845163,0.21010998283266674,0.29634823285940654,0.12877706056975569,0.21867499083707997,-0.088438825595516149,-0.34206335375812219,0.10690093628033295,-0.16240745617399943,-0.011182356688368728,0.11100255609452256,-0.069676142282662987,0.019853866189568269,0.38184812047112565,-0.47875548376281807,-0.13303716968362384,0.3418988025833597,0.15886538173226902,-0.59604619910963452,0.059978126951762918,0.21200798443469737,0.12773050562360358,-0.012715742235625816,0.65453859261030756],[0.032304384127774081,0.20120866752939506,0.32151956470714715,-0.059252886170089336,-0.030687644733217612,0.016645495203878528,0.38758049604329148,-0.2525384490793316,-0.19159814557304622,0.22179585796150619,-0.06225607666792949,0.041307103477872656,0.068203670244114625,-0.10382068992066412,0.02560477622091107,-0.24348848666393352,0.074405676509678775,0.17284353880068959,0.047210972096876712,0.011572045478610028,0.23612277141102644,-0.22913988748295783,-0.0059970271289541159,0.0200110794106095,0.00452665439461292,-0.086084597811610333,0.17261667602815681,-0.10948770205706807,-0.15300165104917471,-0.18081358035909462],[0.34178511055703065,0.28903368876030633,1.0147195828306683,0.13798763704418671,0.060017576561421412,-0.1234134476504951,0.89689286595405737,-0.0007830233763212902,0.047891856306903513,-0.25740740003749474,0.60666084405772913,-0.19990578636872056,-0.83846072183006559,0.15376954501118881,-0.0396144455055027,-0.19184839390249903,0.10103474448736703,-0.18033272998971181,-0.085322866994141253,-0.12328637612195866,-1.0569072029133195,-0.33777533336957644,0.50913931396753953,-0.32422545239336392,0.56294029963334491,0.43948921500146526,-0.066140324170762752,-0.78037189028997433,0.26485458749476742,0.74088070916937387],[-0.5335914787081425,-0.84880979486087382,0.035304936615146713,0.04034386410130842,-0.24803158452085897,-0.33460087202443783,0.54157881162095234,-0.16397304017504841,-0.32059807008142249,0.656050369940397,-0.67006890295640764,-0.13108005678470744,-0.27309927518397914,-0.072101450813454315,-0.54727295175508983,0.19935865436304973,0.31849205499508759,-0.29402730745473221,-0.089857257148182074,-0.92607118243733511,-0.381169460523643,-0.10759760300138319,-0.36871488137785907,0.0033515166349987117,-0.066410635136321144,-0.56553261621953876,-1.0721304751320293,-1.2731573676248333,0.26740516824044469,-0.2150627497142944],[0.076123538131137217,0.31353883535004473,-0.063814406798106738,-0.15505041351257773,0.15621361869424633,0.039235856490633415,-0.0792856386342512,-0.19263783009342086,-0.20880418333979534,-0.51180627541954771,-0.031454841305769782,0.0757176469826927,-0.11108711794195068,-0.35571311514113818,-0.076443144295960747,-0.15606545002320629,0.033849416465781351,0.258561467817795,-0.213911223747742,-0.018762590193953228,0.12322443401080717,-0.28118191701616013,-0.30328209517350552,0.062257938069385704,0.33368081411301187,-0.02877767430822923,0.10924279970301579,-0.093505410645042072,-0.37906436848764274,0.154786788065804],[0.10266118974528093,0.11765354848752244,-0.0016752034713214414,0.099483617426189622,-0.31532829454379696,-0.011900680203195435,-0.048638891164484957,0.25264336403395171,0.01119509532602157,0.099893070822717853,0.11139215431798931,0.048537610980133865,-0.10835880794721353,0.32174381386062983,-0.13240316585839221,0.38054272127007116,-0.045818880645533196,-0.19054536082097809,-0.038934263630792422,-0.059646892363522046,0.19688059658505228,-0.017533452423110815,0.331216432955789,-0.038199351747598871,0.36114027029264145,0.148041307076497,-0.039092752560872,0.026632370506140746,-0.17211053766035359,0.046360770606191967],[-0.27207613249664103,-0.39750341269085959,-0.52296372327017759,-0.13578573883769687,-0.13774776566957592,-0.12334917877143013,-0.40698214680227,-0.46925925701241877,0.037674211987009217,-0.029705734867254596,-0.45105530008245642,-0.33069999598603783,-0.061771125989917033,0.080240243669224609,0.012856485929112951,-0.076035971464388757,-0.37772645185368148,0.17291630410571282,-0.3086016476939179,0.046540618974932307,0.21880880990475032,0.23580538343831514,-0.355070540168136,0.0033562943198622484,-0.0740484862710149,-0.11006806030778334,-0.31525609096350948,0.027558030739825216,-0.1347076387584423,-0.062952956289717019],[-0.031118952115837598,0.72845082978894959,0.42605409255103022,-0.32630322539104928,-0.17016599280101494,-0.1197175346743613,0.52059806701358213,0.55682905071129851,-0.11091434060015797,0.1051794833084026,0.40415121491438533,-0.039971095144526382,0.049132223824739731,0.025069315399578313,-0.147432314614213,0.24555955439871802,0.60755886010848337,-0.17363726879025504,0.026508115282219417,0.05343708057358023,-0.197254810425267,-0.18564505392305677,0.31306200441423482,-0.15631940295317887,0.21964896765447889,-0.035114815149253575,0.33370689450090879,0.12070147868595962,-0.36744528818680405,0.22379267905792913],[-0.18782884700302832,-0.81183234395293258,-0.13840791888404483,-0.24611591437147387,0.031637766174854122,-0.15968389912515046,-0.11308792820875864,-0.027301930112155721,-0.14065368793291017,0.12538809605450763,-0.45319496370366619,-0.10084215389464504,0.048282576395496914,-0.092679161462848436,-0.78589724307046771,-0.20322788461557359,0.39143810750894303,-0.0776898810024178,-0.025618464005984106,-0.81449376707124443,-0.1393142084088565,-0.13083468686018468,-0.2492217057012775,-0.10351281532534001,0.057498668300153814,-0.72880031135546874,-0.46490012998101815,-0.8932595690546038,0.12787598848312298,-0.1687816661369993],[0.0095171543160296867,-0.32491175916996917,0.037167817184933956,0.01504907965736132,0.20604415372221335,-0.25598825903203476,-0.14236775908136656,-0.070230548788995942,0.0074680517901093745,0.36931719191829609,0.2400572543965164,0.3390239932004549,0.032780273815278538,0.011384029994033075,-0.11980003927432935,0.18867931361120593,0.30755914550095975,0.081341229769437348,0.14051022161560756,0.20578435402021805,-0.055520494625011907,0.0065160941249981915,-0.079482444347815956,0.24136254765222839,0.054444553624603112,0.1864234010919206,-0.053450427576074308,0.073904878254037271,0.21387148265962885,-0.077663686037158008],[-1.0340825201404447,-0.58107628192591976,-0.14131398390264557,-0.0011744915718073842,-0.033575539190992931,-0.14592818300241126,-0.4969163465712616,-0.64343258417214733,0.04006196675969035,-0.21774053597503368,-0.82401077494380259,-0.24592768021021591,0.27955931817772878,-0.30249574390511053,-0.13278424416383991,-0.10779327957158925,-0.26898145694891212,0.06802280172972075,-0.13340242533053803,0.36857062123628032,0.13107577873763743,0.13115510352916435,-0.62539195596786246,0.11641915232437915,-0.4893757405114,-0.24317063982885351,-0.13881009005040174,0.0091906153642501015,-0.073873682821667425,-0.43968619524616531],[0.0013991472176928537,-0.039497292814757369,0.10235384285340743,-0.051255591175293637,0.36728451520110456,-0.34355745845281932,0.15691014821272767,0.10013274887786385,0.13153192419226059,0.038017489290895608,0.09258079552656602,0.30247293331267988,0.14461808888729716,-0.29953965711626596,-0.31045982106105485,-0.23032793770430163,0.16505272981949948,-0.11204446682476799,-0.15912405126626422,-0.044632882157215663,0.18179062990246406,-0.023836411102183968,0.1779734290078126,0.18290318157170141,0.1040170436599199,-0.14180242375784652,0.055593377326982538,-0.15655242475891676,0.040470194409953156,-0.082668860751688958],[-0.018615413930160897,0.043044378822350793,0.00890234683234204,-0.1027514825913929,-0.017603336294434207,-0.17965499758370182,-0.13671321504167333,0.2044812640382486,0.3415139897795243,0.20421189018866812,0.23063441622635919,0.022874867835032033,-0.060145734337685004,-0.090373884327025727,0.16303840921557972,-0.041565371463675192,0.14903515391864913,-0.05147566198609918,-0.15641745153816031,0.25485662023008782,0.065382534626383756,-0.38335073926730018,0.17558092071567297,0.050734826043111414,-0.061234567483664293,-0.077994260677263325,-0.20467819280805449,-0.26007960648406442,-0.0682635365808974,-0.02064660150529956],[0.050319189953361446,0.0758097615285146,0.074028217624462656,-0.20737050348900077,0.22600279653594277,0.0012108557953410106,-0.29785766045271439,0.23944591945777824,0.154031583128335,0.10573844070604395,0.076805523543231127,0.062520961407247055,0.20962955661035693,0.0042309856045678511,0.20387369546951559,0.029308786532536126,-0.1132600178431759,-0.41062465355302213,-0.15817267585137287,0.049655525534933492,0.27384071329231935,0.030227712821798428,-0.0030497054790222925,0.26769583860977386,-0.080720962473239163,-0.021753491133853862,-0.093229409473273239,-0.26192001260353781,-0.0536355925029357,-0.17557376075895945],[-0.12001697497237129,0.27582909188202875,-0.042019118630723259,-0.18142400448862867,-0.13079302478189978,-0.031607352619684913,0.20877692725819697,0.28498418277603232,-0.10540114288746802,-0.28093386644052526,-0.38136548552733934,-0.18732997258901918,0.19504795734867458,-0.17163068864119488,0.025196048729244039,-0.11131436140477634,0.038316356731520167,0.34893899480066914,-0.038764571672513251,-0.25435079168593316,-0.17839134429973208,-0.061364057305929955,-0.076957158818505747,-0.25036265329817164,-0.26334637091930019,-0.010449970130869997,-0.16652197683263958,-0.3091067699529273,0.25160057889474668,-0.17514770172805325],[-0.28190907668983434,0.11337668242319871,1.1410534308561305E-06,-0.12476907857595761,0.0547843211913411,0.21327798717645813,0.10041043609496245,0.14079568058936059,0.049997993411928732,-0.1416008650576524,-0.13128041325203177,-0.10970452800689549,-0.22026019328826704,-0.063900823098483134,-0.15063976123560421,0.19673444040298435,0.31714728302934037,-0.034852773177439768,0.0034432928053279516,-0.19641403252881484,-0.21294865957580775,-0.031158939848308052,0.19260464635305874,-0.21546827719071668,-0.25752189573901341,-0.38371225061997766,0.065721741706910683,-0.21842412313260073,-0.34940305401558674,0.086480955646282762],[-0.46919332169187672,-1.0539401233524643,-0.074279587093160918,-0.11082821886760837,-0.0015996950034709323,0.10742838109905781,0.064011037328043377,-0.56827276298906,-0.26052573861013645,0.43871397489207,-0.29523748780626186,-0.16087969596579518,0.13693206348316631,-0.025542776628092827,-0.51540084420665833,-0.22328073288537925,0.095538969920058517,0.0066656807667582535,0.087268239670278275,-0.77547744214514935,-0.28210647238662567,0.14848527860689664,-0.37242659304095022,0.0038414451702788164,-0.11061922429297021,-0.51441374338720558,-0.64807928392521086,-1.0451291001419045,0.098354263181200746,-0.22706088756981394],[-0.41993948500957534,-0.36129978684704389,-0.13503204930263477,-0.030254229279928997,0.371570643598463,0.25958960502583006,-0.16618874510913903,-0.63977357467609164,0.048914361114137855,-0.047592002664501719,-0.25062062452686079,0.20142832151445461,-0.276995837363222,-0.065237253091614364,0.0030531671731929516,-0.1610057130178848,0.12626484075896058,-0.040443506134208919,-0.15060419773966272,-0.32334723168865065,0.034839289040321124,0.15847867047581998,-0.47655954075435691,0.013172114525655605,0.38259060038494841,-0.15873946010698223,-0.4601561208913153,-0.25765551279682347,-0.16088368481031604,-0.14585475028677256],[-1.0114320398890619,-0.35006419160359542,-0.3591365086170607,0.10220118024035897,-0.11541585629720912,-0.27541835626474842,-0.14844412321165584,-0.099299162007266378,-0.16790651197243123,-0.24049045425171733,-0.922126845148441,-0.11322058880797857,0.15435398952689028,-0.23592926257626154,-0.25467938865644035,-0.2058462348010181,-0.64164001161958573,-0.07947949812134654,0.10068548878909694,0.39896097872118397,0.33138289561798767,-0.094994903940264455,0.083496334036041245,-0.14933470200781981,0.11920098712744186,0.0048495963425505195,-0.28979085389049691,-0.3722576600384146,-0.19495645349221785,-0.3356461400217669],[-0.089501949567598243,-0.52636536251775323,-0.28069977516639411,-0.24415812949242208,-0.099905805954834032,-0.1510271267855775,-0.38856615718131071,-0.7056768791354775,0.0080044215596299737,-0.10862841964945764,0.291734312875081,0.30448709675850844,-0.14924890110442024,0.10896633882203585,-0.080393123445056086,0.0858809395365547,0.24706406575060103,0.20201509926769587,0.0042795181227334835,-0.21683740827742321,-0.19366099722580477,0.20427414684038328,-0.38320275978134938,-0.052867261382313034,-0.12094150480953975,-0.13016183007720195,-0.28115295092501419,-0.3729616910046728,-0.060772118686066766,-0.24343444907708339],[-0.23068433958412135,-0.65976640185310431,-0.93426077317879652,-0.034244351668987115,0.1075350615083457,-0.0034278877886584481,-0.692204983051527,-0.096310280233886977,0.14196478633486157,0.0367890323903965,-0.33695077687988095,0.03311096343826618,0.43124225294049368,-0.071222095428886592,-0.080148303525689565,0.06179400244660356,-0.46800725449218178,-0.064785582188561147,-0.4031108307838544,0.18143896830025841,0.25012397079251142,-0.1776372802185707,-0.27037642910452647,0.21135200221140921,0.20148693723147332,-0.12137258541155806,0.19892205322193118,0.48062292078883379,-0.41805979375097513,-0.729525138498987],[0.035517789368534218,-0.10929506173524324,-0.34643503158171834,-0.14063585726733166,-0.026438235142317384,0.0833858422884648,-0.35655440557117252,0.79593368348212989,-0.20293747097995257,0.18621068637363911,-0.5589190255975035,-0.058504352749917964,0.12953790921114253,-0.025709781002957649,-0.27038755036861184,-0.24407535572719244,-0.70463294458432291,-0.18021536913637148,-0.069766014066647231,0.35331879858974585,0.84513913582664335,-0.080943783078545661,0.92627833264762482,-0.28652898944601957,0.263453782510304,0.76088047908023038,0.38618711644209053,0.85943589976448564,0.0739864825157909,-0.67778734266430651],[0.3543932769396595,0.24534845201865257,-0.33558451411486462,-0.21141370785038097,-0.20503054435205173,-0.10955759691035862,0.072959910514790852,0.53490832082995232,-0.40850281004777372,-0.25167960009994894,0.28303396556832916,-0.1637700292052017,-0.10619331646646296,-0.30090667246239983,0.037514467032200766,-0.0062949217001820167,-0.034214963882459412,0.018147015979461004,-0.026553002828553905,0.32885990367071327,-0.67161841998516258,-0.0036687634064355721,0.53129102127999839,-0.067453921046753448,0.10599653981346552,0.20881087839322093,-0.017213694304640457,0.048554883350979426,0.020983041908843859,0.36514908722860961],[-0.094336887815740733,-0.14583159037392987,0.13436591014435628,-0.019733209823520722,-0.32529064090576287,-0.10096926657121907,-0.35741766102996914,0.30153669990446225,0.026015081783690747,0.0007911420802047184,-0.054407526068744029,0.11160152083332244,0.068727270919378969,0.036067341502243014,0.037095357395975352,0.10127756395840361,-0.13173680905658519,0.14741078768354393,-0.010520486168530539,0.0079615371583820968,0.19487197816395868,0.055777172233093385,0.096962579562048831,-0.099698227025118352,-0.26837786547165515,-0.066111654108774717,0.095951856874417138,-0.0031496255746869877,-0.038235622911790869,-0.050815309122916826],[0.19265410828325849,0.065920408858912247,0.10609117389723899,0.22140273774534239,0.038846918671320924,0.061757669675426591,0.32817244661608824,0.33854547433661936,-0.15391969261420924,-0.0029113985058497167,-0.22467390821197542,-0.056750001977400037,0.031169691491361541,0.33298029312538585,-0.32006065975818626,-0.33604612746679241,-0.02277535379179452,-0.078614188987473535,-0.44477286878445327,0.061386583300841367,0.0010103489874905254,-0.095453039597648975,-0.1970790908149852,0.14731145624906494,-0.011883536948840654,-0.0096059903190392724,-0.10453412147189539,-0.22839148352109825,-0.10182085597873944,-0.050190192588923918],[0.15646996722267084,-0.072002721933036445,0.17249602155280777,0.005490827444729,0.025118405165284838,0.04903164244959593,-0.13652275451249746,0.10225912792423683,0.096532532838759816,0.24410641241803169,0.44777808224944426,0.057848668191324192,-0.31439035043883562,0.26693365380401191,0.11056990123103952,0.0647699911570567,0.047210727667893491,0.00072750775300996825,-0.2812835899111939,-0.31031518933918406,0.027523661880236795,-0.18470487440716635,-0.15239989962445058,-0.30432104932600818,0.021309263105233789,-0.21394639591047354,-0.29547134009059467,0.019239347693948545,0.1059021421994477,0.075370334967154548],[-0.013679934314442125,-0.0454292367804573,-0.099274436181927578,0.21660082071630846,-0.030331754945426344,-0.13780867182225579,-0.092467331336333669,0.18584831040447589,-0.031608472573199348,-0.10608530935476848,-0.25192065231598004,-0.098783005053517059,0.13382322474896458,0.29369253211337265,-0.13284408300148146,0.056158771439653546,-0.038149663560358787,0.080076996443454229,-0.51649578836055066,-0.37944956087928761,-0.086232327842758374,-0.19220616445912186,0.19705552790708636,-0.28935085552010037,-0.042912899677106979,-0.063190824978369975,0.095842691902305488,-0.15545778869476337,0.14410388795477491,0.14094680667806064],[-0.17973173260054903,0.088265849248757564,-0.13589724747380522,0.28099642661791591,0.0019240129497883271,0.10204605562736928,-0.19786617439792315,0.15623441150436826,-0.20243626016584887,-0.35096568228369435,0.070676850074503167,0.21659538641694934,0.12968491321250542,0.080207344522845087,0.1612149826220414,-0.10589360333901307,0.04071613444665724,0.11660077105212043,-0.25417681143586729,0.068336845273947025,0.098249516905663734,0.13172684985352023,0.22265651465947767,-0.0016662155082276151,-0.075487602593049291,0.17725677217481578,0.5356405590778669,0.26123238837266388,0.187499418185176,-0.097437363234214633],[0.732833357149727,-0.17500022823360728,0.14144562901066912,0.0207999806416179,-0.48726632228586547,0.29722187721705146,0.30406061473769713,0.23060257441527318,-0.011565811449648137,-0.24669408849343236,0.37987319323945562,0.27508833606787908,-0.095501788001749729,-0.10028279400972281,-0.20258861819739163,-0.049072925518201617,-0.279184255487248,0.46990277741613934,-0.23073044208541249,0.41100301515304877,-0.10827352535342812,-0.0076941340632456093,0.10225362185073826,-0.018925380876996176,0.24229022404877745,-0.030681917006652765,0.29317663065442356,-0.16566354706100395,0.1503780015065477,0.16522579625969178],[-0.017954907657863593,0.22851774390561877,-0.29632499473468443,-0.28113165372514892,0.10728340734191878,0.1638161916486176,0.18900568243848986,0.073823017100151739,0.26659705217253254,0.23688139370945294,0.01460039393320762,0.069723289614018871,-0.11275331455312962,-0.0054771619645720129,0.11309683475854153,-0.40866245394645095,-0.18009433979324865,0.00878206715101645,-0.23580578664467036,-0.053795150278110132,0.1004409208304763,-0.0020499109525384607,0.1470888551508259,0.10905040009069,0.23275872780261891,-0.21356108100996837,-0.15369282839140219,-0.15459234360064031,-0.15495802595898658,0.055813281083372565]],"ActivatorType":"LeakyReLU","GradientAdjustmentParameters":{"Type":"Momentum","LearningRate":0.001,"Momentum":0.1},"Type":"Standard"},"PenaltyCoefficient":0.5},{"Type":"L2Penalty","UnderlyingSerializedLayer":{"Bias":[0.081565242896359511,0.012932136103672326,0.050402227004279758,0.0067755535414477383,0.011584358247819563,0.0798431676820235,0.016225032063788128,-0.0041111519743140977,0.099432414625072879,0.019855023594163884,0.07571417525280634,0.022191912675881682,0.0054537942086946628,0.071819505610702383,0.025253470053937625,0.15437185106961521,0.021983980016183683,-0.00086324454857131163,0.027734060656653462,0.25947590895609141,-0.017493915528837424,0.0029557771059067622,0.012436126099038171,0.011813680047866398,-0.0087357808234406059,0.12240563688148194,0.089593035595232184,0.036228807161431904,0.010146277229034623,0.14600830706940143],"Weights":[[-0.28489685225149669,0.14704489460336226,-0.251311351157215,-0.08290415498361213,-0.045977845016150778,-0.19859550060636774,-0.1578865226136186,0.18788626575083295,0.011865773684642296,-0.092210422426199326,-0.20587166709870913,-0.25499956433876586,0.026182457510708506,-0.25262139775851289,-0.078807197036142,-0.099593462387151985,-0.097887424599698777,-0.03293462961290658,-0.011150520733269387,-0.057491961725127189,0.088928112312861379,-0.10061947455527705,-0.16279633537958466,-0.24110277098342745,0.1123733258649241,-0.055992344402411527,-0.12338805746221772,-0.1147841923095025,-0.15351645209223033,-0.1264825315369828],[-0.17439062263359254,0.18162786568303999,-0.195567737540074,0.082937317277306286,-0.12405470190739039,-0.29295651027180364,0.10389196870476095,0.12678833228051309,-0.70715375612947662,-0.38151396979616109,0.026886690303779642,0.035447113856288875,-0.086573449174558836,0.08216833471619843,0.14111842700346994,0.027374261402009797,0.15015518948883558,-0.14671297852659451,-0.0407171421896047,0.31831806331384266,-0.030062342428433197,-0.068697373495406375,-0.15869132456093224,0.078541595436717765,-0.288865738139938,0.056422041439921536,0.11069991594105764,0.263349970506941,-0.027936792618202328,-0.28044662488435684],[0.31775117073854675,-0.18464234851368835,0.03007248470580668,0.12016310466041739,-0.27229229446659931,-0.18288633727898954,0.25378146168416854,0.0075235545707301246,-0.55701894847396627,0.085236922153554759,-0.10520923869763491,0.026860329665452345,0.048729083424896687,-0.22829414700131015,0.056069443133811805,-0.22050116530614911,-0.30573439756107856,-0.0824874857903983,0.17418654918808302,-0.29384760075317595,-0.21638763997480751,0.18927987090746876,-0.021218885086357161,-0.36783454363915019,0.14484917084473684,0.041820795456496487,-0.0699969950896785,0.075582387538344578,-0.33177862239626787,-0.50638710667566966],[0.11025516650701701,-0.13774447108893451,-0.083882198189010687,0.19436345741410122,0.32009438335485946,0.099702816598953636,0.0042073061769465686,0.0026533978287428626,0.02994987266589497,-0.012518381831749888,-0.14064542391155588,-0.13013611556080548,0.077106784511314017,0.10062244418719891,0.1050453025642918,0.14186923081091157,0.060262056863642846,-0.036255910944510687,-0.15282370257569561,-0.033724389053942337,0.0851636762313659,-0.0098631071805425422,0.06347734374441806,0.18335560633695128,0.37413542811067574,0.11699656415368546,0.020330975676461489,0.371016781261125,0.27240722212138779,0.22536760935974889],[-0.11080843103128021,0.079931967120602673,-0.11931664626568046,-0.017635462920311033,0.0079157702755545921,0.10070095508100814,-0.045902393034903705,-0.00801265691183202,-0.18733235763270756,0.082085332956764775,-0.14868122666725067,-0.1380049631616263,0.25044362403307163,0.044333466468374272,0.0579768528062676,-0.10904680248668601,0.12163584732844864,-0.29251363954667359,-0.22027911766328062,0.012549010813675245,-0.39348316914347031,-0.037033547187162855,-0.204800135273438,-0.39413927184577791,-0.36576697300093658,0.00075599500664005014,0.26982800842395832,-0.24467808765812837,-0.35132197949510585,-0.031142425814092881],[-0.023082872915095597,-0.24918825629781166,-0.29186161941041805,0.4171923260468226,0.053572444176359514,0.19524884631385225,-0.0656165258377862,0.14945344602661012,-0.11094409163799376,-0.10124035438618648,0.32114867655324375,-0.103433622157714,-0.055100589667796539,-0.19006397689605917,-0.21753820280791958,-0.17700458811818481,-0.21268392295800426,0.057543560083595173,-0.1252729197769282,0.24280427814815292,0.18644574060960667,0.0081626646739332079,-0.34282343534014215,0.08841421262313727,-0.1833914012576546,-0.064354309854364009,0.258724029002332,-0.021204155433561515,-0.041799623274062905,-0.079736038898751846],[-0.14909080050941509,-0.0022906077245826856,0.050211447320277831,-0.27566932768990976,-0.18259924408422742,-0.25194042522184951,-0.13444007272504444,-0.23953318734709972,-0.24195473459472985,-0.3287346638799632,0.18578547006014362,0.10584024021226882,-0.17081597758976111,0.14711099073526826,-0.16045108928303239,-0.13207512967813107,-0.30818668962654139,0.17572765160102113,0.15604619162756825,0.2649810426682927,-0.16901321434564282,-0.0072260648186183935,-0.16192159646982346,0.17268055942626664,-0.0736704988089589,-0.42367325949908841,-0.0775122057206473,-0.22666020691056549,0.28642634963370212,-0.40115082326489876],[-0.21081483914739033,-0.27718130191256568,0.010575973980688717,0.049622649563657827,-0.34311002083350539,-0.33778461983586261,-0.18473736550585712,-0.26494919916242149,0.347417243533326,-0.070291276476824954,-0.55840856403120354,-0.62628492021714754,0.035803654260735514,-0.32335011772530592,0.13046534373345392,-0.532550075108764,-0.26666707962868486,-0.17610766446882981,0.070136919217894778,-0.41547301873568504,-0.25703902057183792,-0.119580579595312,0.22747224580019382,-0.22289237182082283,-0.0001948250340672976,-0.23837607326194354,0.0733559138301908,-0.1562794064631326,-0.012308943685242503,-0.37604997393110928],[0.17851673817882971,-0.20048170444486219,-0.021945094531812124,0.22623523922675398,-0.32121384114230411,0.25929317955462722,-0.093933153366925634,0.030039203662425306,-0.40702658288177967,-0.0056133081199358286,0.069809105253380632,-0.23326503252016928,0.078779401692325238,-0.062016360868169605,0.1133030767527574,-0.13036463732740036,-0.10911980807992014,0.14377450537153028,0.0756607994666701,0.28671681615325673,0.31331162294472442,-0.42986776676624638,-0.21428870035533698,-0.17728698189554623,-0.060181383320607414,0.051385431267599882,0.05943326677953497,0.18730321420639667,-0.22903244038643261,0.031867897150519318],[0.17302063498056794,-0.24629609519789489,-0.067030752945653749,-0.31765954161631238,0.24835088723100346,0.045258191981554646,0.013525842538779831,-0.068468052882038735,-0.1834712573041834,0.0322882522206289,-0.087620109588652351,0.084721862079321086,0.08495313250674906,0.027855018358786853,0.16593630956662533,0.23630462634116561,0.17758196684931291,-0.19939881440031451,0.034578504019970244,-0.33216600209365549,0.38447217337702344,0.1491959609421111,-0.11831242011106037,0.408639686541327,0.085359735977550824,0.10540891037945842,-0.10622327236334458,-0.038393924093701882,-0.13211321232177997,-0.13107431340216791],[-0.19943415962733355,-0.3893622128447064,-0.22292420294797685,0.26946187157791529,0.40144604009073676,-0.35235825472345994,-0.21604353934817838,0.062315519953288927,-0.36661667022128341,0.024651434477190152,-0.00884191800147804,0.20544177588264609,0.0502710523955523,0.019535923998213457,0.14345550944701718,-0.35931684222473581,0.079504358480042225,-0.16589727594763357,0.10614962019830222,-0.12533770959127794,0.027025608057279996,0.053350016374303304,-0.12928812167711443,-0.17953549395047846,0.2061676013086981,-0.12628324357325338,0.13459489721980539,-0.067209003892596181,-0.10241279478140392,-0.20798419321805559],[-0.14865533507730422,0.12040881893964628,-0.32108605585702,0.302360524096477,-0.09846240735915418,-0.15524316467353488,0.097636989258978221,0.269025995113815,-0.16451786771881016,0.1682779831513555,-0.19472440596159663,-0.21456873846142344,0.27314071244856075,-0.180114256033464,0.12354186319811156,0.097626072632061855,-0.11076965211718366,-0.0061169640962213927,-0.0954063034394608,-0.18818201232153445,-0.069787848710998038,-0.114457212110025,-0.050729085936606827,0.092127537677924837,-0.088310712163566119,-0.11034088646139249,-0.037882295542454258,-0.21016704107259487,0.041914561923242964,-0.1055656395543467],[-0.22803773692528373,0.081851517463204224,-0.37331934474325829,0.026926956457947869,-0.10813567456347442,-0.084351373955366488,-0.23620163299381725,-0.22343656260870309,-0.21705478087845609,-0.112761047429775,-0.24416045645730428,-0.29338848110223958,-0.1413312616707742,-0.16360182370117085,0.30301437769605594,-0.13304083301215658,-0.079324151953093253,-0.056895916320056653,0.13550250702633493,-0.43317317704010283,-0.20397840543867127,-0.17737422674205705,0.061361278044502927,0.017559441163400646,0.29819423382285237,-0.14212356306782234,-0.079454052587321786,-0.20675373979215311,-0.17261952146368337,-0.46344316598323559],[0.00208813888715678,-0.10032517027569524,-0.10907412749200743,0.10444128085713733,0.094991015190086611,-0.059283315441665721,0.018012747023895478,3.7431742112454633E-05,0.09232273635038922,0.0066692960453993014,-0.02980693630486881,-0.05018713753047252,-0.11234364618194664,-0.10716109518464174,0.048957104728671035,-0.23163655690650195,0.12347135900638989,0.1711252482976692,0.28435095498081342,-0.082586136656719114,0.11482955237320074,-0.3852287479934553,-0.0658073483992687,0.258698063066671,0.10471057966341139,-0.086651835643011169,0.034948549464602019,-0.29696002173716096,-0.0872308988146084,0.029352593708852813],[0.074618546493235807,0.21223596518063226,-0.010122614578619299,0.033885144507110672,-0.23589991404247904,0.17439288780891857,0.085803853754061188,-0.15181108638738178,-0.28575915355606285,0.11498604146975353,-0.10405210873420664,0.3069804351225911,0.15887405176295874,0.0075693550065998195,-0.36441322836778173,0.04995531424664023,0.23467854783347947,-0.0040031401501670547,-0.26145423880106561,0.088564233825246558,-0.17261327731503889,0.072680018000850555,0.048373635652855171,-0.049935981742957457,0.014399454296801473,-0.20489863692565297,-0.026768027045738222,-0.17605601132899804,-0.069800223187995489,0.020446221256638114],[0.15748720846645578,0.11939768539081778,0.065922908031309749,0.0068351734996173474,-0.16179033551015462,-0.053671113951614877,-0.37565714973232306,-0.10858950363742514,0.0528837787114313,-0.13702936045299216,-0.020172858021574511,-0.010943537604212466,-0.11768213634515641,0.0919317059889416,-0.17973034240783323,-0.0063570380562846859,0.045378697089004487,0.098731546403003551,0.28693448253287879,-0.088673038242810157,-0.0072935441973939258,-0.038950510103326376,-0.20644008605005573,0.10081110611550484,-0.024816952540752168,-0.00014233483928513831,0.14956125176608778,0.27817474555504296,-0.33382563198652448,0.054950058157522068],[-0.16830758594021228,0.12631598871739955,-0.0042210946822370844,-0.38942194841876238,-0.40827948855244489,-0.078030694809611431,-0.37690973439220654,-0.63766796545476145,-0.40108019780150095,-0.23611066352174567,-0.17840688756878695,-0.20635932813045874,0.058796278096972826,0.15919981943177011,0.00077079291642555747,-0.28326586560299316,-0.25932958904467995,-0.31660707005589883,-0.34239697244066547,-0.0655340480897058,0.15926410247730249,-0.23740288977031218,-0.13915726489826416,-0.27011237851622111,0.12686936205575852,-0.21259914184140358,-0.28609559936299472,-0.37421966700383191,0.049896412136807587,-0.28993973388063532],[-0.17156331398980276,0.381955629713738,-0.13440559201086932,0.007106263101175697,0.033985484747614286,-0.10052075580561698,-0.18217353158692931,0.13281924672544684,-0.15679226440510302,-0.1024706335476795,0.014244833207995397,0.0675310156674829,-0.18486340803170887,0.12477535328794508,-0.0951119735396206,-0.09860385180126148,-0.19774233114820905,-0.047649933820154491,0.031754301879425274,0.39908104839585684,-0.10689073175442351,-0.013414214927348282,0.23808215262193216,0.019360349699950145,0.31889463821607461,-0.0637062150877261,0.17028592761436343,-0.022791881403128864,0.23574223037230349,-0.094924401044701776],[-0.10074725583803179,-0.12925587234825156,-0.000845013959306334,0.32069713961893087,-0.25940580656112983,-0.038406560286289117,0.023097820545151571,0.02138763661902662,0.14641190314196742,0.10770684292281553,-0.029141243972991261,0.32620549723103992,-0.20023937168902492,0.056937240104945955,0.43521169527568715,0.29055087788315676,-0.28659129079443185,0.39415560300667363,-0.035050291461945951,0.1090393285257039,0.12691744572161187,0.11634997387048159,-0.12005944890142885,-0.31361441145598429,0.15988220218763916,-0.11905561052907265,-0.025401675680643443,-0.38054454507004587,-0.20004891300850627,0.20364801531068602],[-0.028240459876814658,-0.095710985767642615,-0.531098311074297,-0.019129355869649135,-0.079590142736433916,-0.064073696054759238,0.0059065372110400638,-0.37574552887376939,-0.89468008898659857,0.074327934638183629,0.16549649181234946,-0.057157988996705052,-0.0691764374931964,-0.15375325497318243,-0.022900937307937849,0.079002061916976341,0.19282923605276897,-0.20812934131331018,-0.063785894911670013,0.25826786169484084,0.18612953031387339,-0.17050549547595478,-0.013121303466786216,-0.10260304976006995,0.10358670942418803,0.222370742853165,-0.10629573767899088,0.083613495817449021,-0.10881370285055009,-0.50201269028551776],[-0.40218005549057295,0.047838536106521404,-0.25599722179883505,-0.11449896198380015,-0.16142158540938628,-0.18371220115728532,-0.306639922549487,-0.10051208066059757,-0.063440725130743059,0.0099501750460363955,-0.44205192356911038,-0.13095754561099429,-0.28352916803317429,-0.29808674785201883,-0.060145135024776725,-0.20629683851487829,-0.059441381738106487,-0.20595732314579152,0.040963699480852385,-0.079928965183715853,-0.039870569444578639,0.11425703806558335,0.023724232451972308,-0.25298927003023819,0.20623269928631891,-0.28930361380514918,-0.29298205035086788,0.067415060650869552,0.056652592625378355,-0.24173786010757972],[-0.098735909832176089,-0.11285652686175451,-0.024746397535802524,0.10351522841099667,0.051367105000617495,-0.38906322183118375,-0.46934281686241869,-0.19497340277781955,-0.066665331546071918,-0.21836611360095826,0.05211335494292145,0.14597466985689048,-0.15018551697185767,0.33470000865746952,-0.13724991188615074,0.35032597892869505,0.10982060555606861,-0.047691383449886382,0.062457501302231183,-0.22737433383355987,-0.12747125190009764,0.0648269886926223,0.22596611360107277,-0.098665093137029869,-0.1784307613288888,-0.0686732778900503,-0.20885606760751754,0.0567613136375362,0.17681782490686496,0.027508397296324563],[-0.18708080778225578,0.12760953765512118,0.10778567927699284,-0.0625500345194174,-0.082850267323357263,-0.45671833795940908,-0.042525817521125636,-0.1045881463432496,0.069789601943311144,0.028382989916594624,-0.75954483509201876,-0.4773316688451742,-0.18610454953660041,-0.337569342300739,-0.13054318974362389,-0.74587060533975935,-0.35001828579706651,0.023038221154416429,-0.26982636458653364,0.047591440160806527,-0.054798324145500309,0.082893495883921572,-0.12462556589989356,-0.27924976893340758,-0.12117622520574435,-0.52049764611452776,0.010140920511835383,0.048668743365891921,-0.097980121977515447,-0.13819545037894196],[0.16518145626052272,0.18738348857240891,0.024064598794580568,0.07514559946101694,-0.14076773627534039,-0.11139690827652075,-0.0485259557170189,0.16666439244383849,0.0065053789654284308,0.19032484996335858,0.22090345733246242,0.20727805811790925,-0.43913470391857506,0.12379072136130385,0.027425682129804861,0.044783795124773547,0.19439750316883056,-0.21229122763760719,-0.49021052649639923,-0.1542926054256934,-0.066952301023127672,-0.22015101367428258,-0.2078889389035597,-0.044142591375437516,0.15027431851371181,-0.13883990642714417,0.074017124052130873,-0.14090517580632112,0.034910380404135015,-0.10437782873527511],[-0.23721619583716805,0.28653701632614148,-0.32603171219433141,-0.32181199690684981,0.29096085938823485,-0.22703662184645831,-0.30115015763227831,0.099497014410210083,0.29933631877385936,0.040190978840900775,-0.34946693351401831,-0.020135867604305333,-0.17429250427881984,-0.13076268560046866,-0.15370951211096545,-0.0086245697780898013,-0.15242554913270803,0.15250254505473279,-0.23351202321133258,-0.015616113280606848,-0.070168863879565016,-0.025038638972057502,-0.19081396099810666,0.3399398981101926,0.035246254890077926,-0.38193611504015462,0.011645909945636794,-0.19451428551466124,-0.33694956405394988,-0.13153792457923264],[-0.19006160616002762,-0.2212736364549672,0.020320520293142165,0.117063322604299,0.081289444006689526,-0.27312124731939486,0.053077413534637241,-0.0052178562081703975,-0.0025376940187582997,-0.19846096369988173,-0.19484394600566551,-0.29003033159304553,0.39876927404982448,-0.14401000783082685,0.1214262881948161,-0.2479750601074909,-0.19548180505882476,-0.07468300944949216,0.0024387756048347741,0.083876810153699577,-0.0942167273037055,-0.1284794591443581,-0.27033586704491397,0.064804555730503949,-0.19223614516710735,-0.23964059821352138,-0.068319682738163592,-0.2029758528953971,0.025098437127199218,-0.43052072654021339],[-0.15784514552546905,0.0097553907055924725,-0.68125161913235832,-0.063223447431519378,0.0098338586021712981,0.22421518407688348,-0.26586510570255295,-0.097550003542920552,-1.4026554559852085,0.08250243094945213,0.38054088055462726,0.7389240229332511,-0.046388436904644045,0.03833860576754524,-0.1583879447646569,0.013149849056970371,0.2523642280656464,-0.012328605322278636,-0.18215579152889563,-0.51948780404085571,0.063689566210816312,-0.11176474434109066,0.16738028259220264,0.20074082793723513,-0.048694832254316305,-0.1289430323808351,-0.38665968100033721,-0.13179495553227197,0.059600394773520277,-0.49323396526485436],[0.23541018576427028,0.0580548689969559,-0.46187128817325607,-0.2063692251089389,0.11262710359839739,-0.088581589517851972,-0.060204378395903042,-0.13682261550437982,-0.93128306936254934,-0.027275863014953834,0.1772647108962595,0.25785427371996816,-0.11898572674424002,-0.066959252114983644,-0.08294447105777826,0.00835749846968104,-0.04994519162712318,-0.0070823018551234755,0.22864591633834058,0.15079464651380842,0.046907751723216429,0.089897828575978181,-0.3138622640267732,-0.31866119298876988,-0.30771684258843318,0.0021589670390035854,-0.0941259371910795,-0.12204151731016107,-0.11151809086641067,-0.36758525303318113],[-0.0038152808588377183,-0.24996371745423957,0.21229399307439678,0.36726746436705943,-0.30176227543024736,-0.0347791126620545,0.063072693499898635,-0.16583384940500073,-0.21653052954992366,0.19861895232407803,0.042142988199080418,-0.23721513703717223,0.053683050595392627,0.099690587822360024,-0.24580395227198587,-0.13864486566055878,-0.035652713851994561,0.098555674697136553,0.31832568642736003,0.024970332441515621,-0.40399620875410519,-0.066398158559499834,-0.17465993666913243,0.14893351560016316,0.18307313948114107,0.076277251127149615,0.016463768940151887,-0.0021572736152202674,-0.0110956898244128,-0.096543761751495982],[-0.26344519960340362,-0.26460655389436333,0.043388750011486961,-0.26624251598430521,0.067606443873677508,-0.0741163301377186,0.086773643324893665,-0.22522783408431843,-0.049010424369421192,-0.04194124410537374,0.20730549574292553,-0.099529302012276791,-0.02531962439234944,-0.18933491414425224,0.14037309608373458,-0.39620608901084325,-0.062376276727950306,-0.00098343157392526831,-0.13307532734962244,-0.28225620237007765,-0.023481267503276285,0.078865535657134583,0.062394732815760752,0.11008597697072813,-0.27020667361986489,-0.4285817496449375,-0.0037008638009723245,-0.065419337388292434,0.05076959731110977,-0.1004735413197807]],"ActivatorType":"LeakyReLU","GradientAdjustmentParameters":{"Type":"Momentum","LearningRate":0.001,"Momentum":0.1},"Type":"Standard"},"PenaltyCoefficient":0.5},{"Type":"L2Penalty","UnderlyingSerializedLayer":{"Bias":[-8.90555788194341],"Weights":[[-0.46681882291568272],[-0.12253307622901269],[-0.48475487950870938],[-0.14176481424169526],[-0.16917318216907415],[-0.70990332730863359],[-0.27588810031434791],[-0.34302262323119287],[-0.74870100337982126],[-0.15285595644270181],[-0.63922934822344357],[-0.47069845899844148],[-0.080041216988391464],[-0.51759814985064478],[-0.05433808059541962],[-0.87614289074261154],[-0.38848530988089208],[-0.15791465882702224],[-0.13946267005436261],[0.075323979999421156],[-0.10215048916934177],[-0.11404968740459968],[-0.20294016298803833],[-0.2746089365600457],[-0.17560567041556438],[-0.66961769554940154],[-0.15202857356371671],[-0.22135304870355996],[-0.15928465415776083],[-0.97201097661683611]],"ActivatorType":"LeakyReLU","GradientAdjustmentParameters":{"Type":"Momentum","LearningRate":0.001,"Momentum":0.1},"Type":"Standard"},"PenaltyCoefficient":0.5}]}