{"BatchSize":16,"SerializedLayers":[{"Type":"L2Penalty","UnderlyingSerializedLayer":{"Bias":[-0.0077901758234653166,-1.4959945181462246,-0.0082671380135515473,0.012489478732392289,-0.012314558351355247,0.37899280933791984,-0.00059937457052802745,0.003887110896388722,-1.3047753194863165,-0.92838271321334043,-0.0036413609150406589,0.014725361514992845,-0.019313234710817626,-0.62263367482010179,0.0041733194375366,0.013200403885646254,-0.006926939933985579,-10.105709000447066,-2.7004732302612804,0.000246099690567476,0.00024381354621560094,-0.00086360006659975247,-1.018535204924611,-0.0040653756325198182,-0.036268285011899076,-0.00715063818530906,-1.1010897470182153,2.6074212292724153,-0.03367019722982937,-6.2279409150312519],"Weights":[[-0.85379680385052881,-0.41561358587241637,-0.57323286325246059,-1.7843953111598592,-0.18802898717215016,-0.79386776966887984,-0.580852022604618,-0.5030533120895132,0.86615729123693175,0.24651414222316209,-0.85087612776151866,-0.3273469136379123,-0.11559270957060083,1.6515897668421149,-0.11236500616667784,0.16843025782312462,-0.39191564516723931,0.92476186718669151,2.2896267136814688,0.27896636803358138,-0.40647864868014821,-0.36047762996842025,0.089475456943139783,-0.53218034517173984,-1.0593032619669234,-1.5088757382618705,0.4327879217962996,-0.40106098020556785,0.3242857514810108,0.11831136516674534],[0.4691706227391742,-0.99294906018263207,0.36514238556251088,0.1911337877712809,-0.68542635678943187,-0.44268947007819326,-0.080699200077149563,-0.3724015955333681,0.26447835512710904,-0.016647341071717541,-0.6797780923750949,-0.44898706268998262,0.15755876369762759,0.33427863657365,-0.018808029083328171,0.045582156423178123,0.42342743975549835,-2.5745560827881686,1.6112247894368279,0.069425375955913388,0.65963011986041642,0.14897556620232041,3.7113490676795271,-0.35340698153095618,0.30476547155797779,0.35513131586539365,-1.9583837050610735,0.49768790282753561,0.069408691015855076,0.6197083397785893],[-1.0577075920978225,-0.66884399023720142,-1.1634433838662242,-2.0830426101194113,0.097446888710085083,-0.779197145387163,-0.042923682140521641,-0.40896191057329734,-0.50848434024220568,-1.0031185104079734,-0.72358421241962256,-0.14264253996864193,-0.93233567277590745,-1.5271190084562558,0.052038738044700231,-0.1937971052390437,-0.99459799251104131,-0.51583422412501212,-1.9502633177366362,-0.39923005404509004,-0.30408122226709328,-0.37113334424173416,-0.098362430207675974,-0.49448773766197679,-1.5647024761324326,-1.6033746344820443,-0.68388808863547135,0.40783886082036841,-0.60717541400712827,-0.23248514650718441],[0.39642667519844627,2.8967645871869117,0.37686283230492607,0.29769996337669125,0.52458405976455669,-1.6246699679754728,-0.029034894672683328,-0.16007789451781576,7.0183547914607205,0.86722195207446939,-0.178037910296489,-0.092242923485304412,-0.085846545864992449,1.9764925480486526,-0.570997896562022,-0.053597894378983865,0.62812222408776319,25.829902649514512,3.93017080613001,-0.14964605650982862,-0.0033519604510063323,-0.1095394836231518,8.4262373913941353,0.45322226279273281,-0.53598158155387321,-0.4256573435058581,1.7644429581249563,0.20345455084646072,0.21021957221897628,23.573869112354785],[-0.52344273284340381,15.971170450011146,-0.18285953073300426,0.30798693951486245,0.67957086484349893,-5.8499170721638949,0.024055208985583911,-0.128054280558998,9.0398207938965367,7.42645177147102,0.24488481247881119,-0.43347214444439414,0.35422062677939092,-0.13775327596471973,0.24594740977946089,0.25400384314726349,-0.19998386229795404,8.3184644196723614,4.0143275813797112,0.155093437592092,-0.14810431194102419,-0.41318380405751109,-4.7677912069820474,-0.0068226544717813007,0.52417960228755589,-0.19493964115677709,7.9093000656052723,-4.7950992481009349,-0.27821754002900384,35.310128147081656],[0.53156321334297452,0.26588105931569112,0.1305534207085432,-0.69448693737555522,-0.23707263271748813,-0.324924669539647,0.29467306895757606,-0.50717754163055173,0.023869771554083517,-0.0076631995220750732,-0.20801785598781153,-0.1125365454270834,0.53368229839872316,0.23754369142653928,-0.535988815202306,-0.13354044218512215,0.20980220104301983,0.32135396972810087,-0.12078532253310342,-0.030690679696062519,0.4263657751441961,-0.32484868593598903,0.34359572683284723,-0.22162470056393385,0.3339642966573963,-0.19243923010510228,0.012118811854522005,0.062648406900229089,0.31425178854309416,-0.31758401997779767],[0.45444416099388579,4.0878717338016157,0.057267625881878073,0.073913012661643018,-0.23810243462614705,-1.8887354466719308,-0.69664916950938416,-0.46678668651625344,9.6529325865782329,1.3140162434350784,0.092873347309055443,-0.039831967766972981,0.027777130704743278,2.0621927858525178,0.16036629679418216,0.1768967020737672,-0.2084952194641182,33.811572474906114,5.4518726818153169,-0.22662649862182324,-0.15652517224928422,-0.19460465338976618,11.591017012557531,0.28788148384637879,0.79069628445818707,0.22643424888044314,2.199789853926656,2.5423183311803323,0.4265511697198216,31.169774424342378]],"ActivatorType":"LeakyReLU","GradientAdjustmentParameters":{"Type":"Momentum","LearningRate":0.001,"Momentum":0.1},"Type":"Standard"},"PenaltyCoefficient":0.5},{"Type":"L2Penalty","UnderlyingSerializedLayer":{"Bias":[-1.0312292110878332,-0.0042959120033605027,-3.6736448286528236,-0.0078553880087303858,0.00017460304200955093,0.038441595209938215,0.59352401968574509,-3.0744471115845027,0.0050741547165483233,0.00036182365503994437,0.10613279444391299,-0.51100464370191911,-0.48046915755373287,-0.058053872385041796,-0.0062517013325728921,-0.0019294578423589878,0.012538590358253419,-0.14562998867201302,1.166501710074968,-0.32331886567764584,1.0749040142921273,-0.39607709079006193,-1.4630052262114643,0.0015711203056019,-0.0038783812442191967,-0.10697678566346645,0.012870939538340493,-0.42674078807250521,-1.6741135925505741,-0.073952792580251753],"Weights":[[-0.33579708451956797,0.022254528545724541,0.32150222622650637,-0.69049375075013664,-0.17299586211244847,-0.0076032211624772368,0.050076075347434558,0.049934850975616889,-0.070766283006347352,-0.22160841815081819,-0.19906468443622932,-0.18278157489581945,-0.23171996290878053,0.033958266732362179,-0.082933075337072074,-0.026323423271678765,-0.1800606820397094,0.086768841550112108,-0.39166746225732835,0.058859643567346756,-0.14820749585439255,-1.0111760149106619,-0.37290410365821897,-0.065858804636683949,-0.47309157791108009,0.12809254547639196,0.15526837543626185,-0.44182950484393674,0.17102696236884196,0.034059793474797012],[0.22196701516604933,0.051342571340535291,1.4075983167955188,-0.83108846353105259,-0.098826647440094617,-0.060024522875054116,0.89220142436957339,1.0769357433106426,-0.54757106945684886,-0.084398576829259192,-1.4223424208893367,0.34396099326557539,0.084625711968849118,0.11073331102048196,-0.360210159069212,-0.16042958458291837,-0.2424237272793319,-0.69728382937034161,-1.7838508644269371,-0.12035561177139896,1.3199403434846326,1.3114692259013678,1.2564474062065694,-0.4417012504503256,-0.089304716030061279,-0.010584031224338087,-0.38129453609365044,-0.044116794466801681,0.50236519352262776,0.21293234521818413],[-0.15929909671621337,-0.10550107484610195,0.15840348000629695,0.0029661963454687907,0.1016423570134561,-0.35298112483418637,0.062500285490948534,0.1965865860054084,0.24065157904959628,0.15618446302469186,-0.047095646745588825,0.12770028376325954,-0.11269068901750329,-0.18240074791408925,-0.25280241035027445,-0.041710811583200294,-0.012239366867712112,0.56676215119204831,-0.18570147297907588,0.096439221651896029,-0.096707602348270374,-1.2136278908072813,-0.085331235289184515,-0.25936593472087427,-0.053378679391766166,-0.36575360927950373,0.11114675290653144,0.013772781531711955,0.15432807589889319,0.21383978341248439],[-0.1335944617053228,-0.20019239480564013,0.064279313242889241,-0.41497737672283375,-0.017550106851027363,-0.31523119326822346,0.13862572802952952,-0.13761150764711197,-0.0550347611155243,-0.1378437642585004,0.14364481395621409,0.424001230226837,0.15612769748051167,0.12893185788351722,-0.41170871106834978,0.14045357347115967,-0.12419635907317417,0.52320080628166976,-0.6194014503360985,0.16653910710516934,0.25534556894012161,-2.157450514919645,-0.87292857431092041,-0.41932024595009115,-0.309983372744505,0.0224259724360324,-0.085749274145850513,-0.27438244408978013,-0.0076443547960909786,0.219208718132681],[0.17554865890049323,0.10316856583494839,0.18601465482580773,-0.078973278000846414,-0.26848007082788644,0.1045397684361508,0.044980699750187848,0.096829487291211075,-0.12110388633153971,-0.22471882051850881,0.17566545255395236,0.16160236270128583,0.21018679208541971,-0.21511434600615911,-0.19740752435984646,-0.10642529681630607,-0.24486965222159066,-0.3197893172994028,0.096513808241423138,0.027731310926573237,0.0005531409609506986,-0.027723254930883637,0.14304842721175443,0.055754799135080996,0.08875763737720356,0.1662111634032904,0.029013958908150693,-0.070427864787240169,-0.070002172130464446,-0.022258961174684528],[-0.14927656368844841,-0.010409854372337445,-0.32846911977139875,-0.61601718061114075,0.189264485269983,-0.20860411457515654,0.20677970319744329,-0.953412888263646,-0.21112750371403558,-0.021170237572451123,0.14941495674638317,-0.47820136925402412,-0.56175632457290359,-0.098975948329479063,-0.44424826236703885,-0.13806789077284504,-0.46081584450455826,0.32539176689296445,0.69130153813199069,0.039193951282981962,-0.33017517770362304,-1.5671667382085401,-0.90667747797087028,-0.13667640947454435,-0.081183491098324942,-0.12990301405835042,-0.1651526348967457,-0.4809863901906905,-0.43371864988754433,-0.025407254953447526],[-7.7045729159535734E-05,-0.37338893203932105,0.24082987174499571,-0.25796384692507285,0.17142109059445115,-0.086033750183666338,0.046190433040699738,-0.16181136662392195,-0.16697773581906028,-0.50673006499972073,0.22256539273221479,0.315189940785406,-0.086957093119012466,0.078805376289753828,-0.084994190408615736,0.047608756350579123,0.30892796245766846,0.112328757664221,0.19455213452036843,-8.24700017953883E-05,0.086480939211396032,-0.48047732769279639,-0.20573485180469645,-0.0918098644883121,-0.094153088538004068,-0.50184969804197144,-0.12707088651995388,0.27779066190873775,-0.19017887203734565,0.26151006372060381],[0.071468484187508757,0.16273522339430924,0.037035967774795439,-0.28713306401002381,0.035455513358457286,-0.080431745399840313,0.24916513487474232,-0.068946364796183351,-0.096016062005800873,0.14684149009203079,0.0018699188672709262,-0.08600766542239284,-0.22073495191509718,-0.2381525796220372,-0.037926387972645408,-0.12673687012929483,-0.022085763703788081,0.083818921752940548,-0.021270521790721631,-0.014526254204136018,-0.16913954415161306,-0.73635437946790194,-0.087897515740619964,0.1387544699884429,-0.4313918690290276,-0.35489736346474959,0.0686870142892813,0.31009644766525984,-0.17529632044620791,0.13422254479693346],[0.36691391854376093,-0.17803662956580307,0.20012370543593133,-0.2784499341581621,0.084626655223833655,0.022146200223507058,-0.027681177173939069,0.12376035971385221,-0.3416948693360034,-0.11394879837029928,-0.87202760040374117,-0.3552148752164489,-0.084077397254611413,-0.14968086542567693,-0.13444903636734129,0.061424455854083453,-0.34664126277984841,-0.83201116131343011,0.073714013463114472,-0.41544780348646426,0.21989288242045618,0.24103268421567517,0.060359918749534565,-0.10528116939913694,-0.38418186109742375,0.11137700068549301,0.0034727450027522166,-0.40230095857567144,0.01187778157415861,0.0025621236406598996],[-0.087576374069947116,-0.02771131325764065,0.77914040961316755,-0.26600492236088452,0.10307105342625098,-0.202746025720651,0.18156005778521467,0.70838834746972024,-0.21518040649866926,-0.10675837336020715,-0.68484769684407487,0.20235517150246588,0.20586828524543219,0.092383858021036658,-0.16917867736634187,0.021238599676697282,-0.1143633004863181,-0.18574839602434853,-0.80687133371350428,-0.11032153316801459,0.35129486716185326,-0.19862979100350248,0.49318182439091818,-0.19424659664809085,-0.09419907985785686,0.1630047627614313,0.20547832154120035,-0.2541483044599217,0.439474432910888,0.077990251351614873],[0.13633903314150647,0.34536857995190895,0.31434788321840168,-0.18806418953400572,-0.063993056272359281,-0.31156184796366082,0.20868330665164592,-0.21861756466291565,-0.25933165929597346,-0.16356191954591892,0.1024721678648583,-0.11270809454865942,-0.039187571614831024,-0.0031168841672689252,-0.06214232221699003,-0.075447813220164542,0.069318894808176865,0.00062630264759044917,-0.3743981750236367,0.21535718329378425,-0.06297331586873145,-0.84095685197489256,-0.38703818832615056,0.34683424392545048,0.32770011617242822,-0.10225050489038505,0.36321823780420737,-0.12135128385459698,0.12951398021212898,0.240449068860278],[-0.098139072390457979,0.032680784769595052,-0.20439942565768485,-1.5454886922646534,-0.05395412232065664,0.13310264784565068,-0.37252866966502829,-0.019003182841091606,-1.1782287495928872,-0.47472815931030055,-0.24826406792207528,-0.36523782336447608,-0.021866784173741168,-0.1243257615339385,-0.59187199188145723,-0.094985465703349148,-0.7608048224341456,0.28229189685577033,0.072220493412997883,0.11824799623842554,0.26687924781589623,-0.47641394571336071,-0.1056100816877094,-0.42169787397801256,0.11574510517919019,-0.15167395881194759,-0.017015079571619011,0.084223561495042953,-0.28723276184307661,0.55029341536542842],[0.11342573442082271,-0.057107462951791144,0.43136331411343065,-0.231321270652369,0.24509918747723683,0.1143771839237408,0.047514102339739468,0.076929661330408225,-0.10457540936052236,0.26538849174182644,-0.0033219976886354509,0.15883582592877993,-0.13829817439680969,-0.06772545181714279,0.028785925932210733,-0.221862670909336,0.011956461386400736,0.26218008344434629,0.014469486730194313,0.014652241697410974,-0.26321082094350279,-0.76295989773919437,0.11374501682743246,-0.036361976139610952,-0.038642306610056534,0.21552420209762066,-0.20244696071601803,-0.33269948226055734,0.026011352877924488,0.12995391850394775],[0.33570797617565107,-0.015209458270773938,0.12487226354601186,-1.3533619300321469,0.013678550906727611,-0.21187306351941926,-0.16768543799873556,-0.3747101852863044,-0.35633046509634031,0.010342103534051459,0.68909793163574273,0.23214529529665684,0.23338805302381635,-0.34475595912850648,-0.32241196560196372,-0.10092479769012061,-0.53403475921446708,0.050454547674005534,-0.3080214291435916,-0.17741178784235026,-0.64496811919450092,-0.24132918590392194,0.65874582897292977,-0.13102947910678148,-0.1674879579473561,-0.12211922238360634,-0.42318884714791838,-0.37439123948039726,-0.0689383984321989,0.17363479041361279],[-0.12791362002940634,0.14398007164678192,0.011256807019999386,-0.060123681430464614,-0.080948101375536638,0.047135071061825275,-0.071538850966019335,-0.0912310043729518,-0.084906894813844391,-0.20748126345268661,0.061963870249494582,0.0587623549086884,-0.49743041741708177,0.17799044023877805,0.01135758621579698,0.003442294104830621,-0.02514625252786654,-0.39447680157312648,0.22590225232149239,0.2551933116989521,0.13189680401462642,0.37814780496481942,0.033260422906523632,-0.076705661988281659,-0.3560281121116875,-0.23184040872416983,-0.070626251410670013,-0.11682925732317248,0.12298910126657353,-0.015756055784922462],[-0.16478864379300223,0.31905463406590945,0.17417247408430162,-0.26073743444896236,0.15821312635729865,0.17713325053255322,0.012536981588747885,-0.038329459992506594,-0.0368834159068996,-0.011756936229535624,-0.070444767997705,-0.044881725550726934,-0.33822758969033451,0.11388026291921209,0.14909040116821237,-0.13602449342285958,0.0027952222751370425,0.13056901057728246,0.399502639882991,-0.11621093306663684,0.39581943486186805,0.027212600661832464,0.00097781813405141719,0.30003235669057038,-0.070733059740370682,-0.15207536860433576,0.17090940127870663,0.18658288312668248,-0.15829960160277851,-0.2236120353834988],[0.087255545443809937,0.077755511532439522,0.015777384191094927,-0.506474958079688,0.34288522705552649,-0.11293432165491633,-0.030732969813170471,0.037421833556317396,-0.38202705096524131,0.1195246147977391,0.12095961874159159,-0.059302093317616114,0.092378857033962952,0.2617180883003708,-0.13242633904735202,0.12792630070256641,-0.35488052942689241,0.14224787664493757,-0.23572721011637382,0.54887089208707285,0.014282792146321803,-0.71254114588196993,-0.22813148036984629,-0.393546531614778,-0.1318484629908066,-0.11009180806972274,0.0798468844602781,-0.103714320479741,0.11222392058888464,-0.12294198158331007],[-0.84887391048664573,0.0021199569287784653,1.4248851043248596,-0.2694277786942566,-0.42240805619614996,-0.090400411703195155,-0.79063716490930591,1.4910535004744121,-0.44079383855500831,-0.33198754378296724,1.2429944121573073,0.3968121585322032,0.48597300214110895,0.041012552017994211,-0.21083534215304811,0.047718715422453387,-0.53864973675574368,1.183429320182767,1.9660382593787937,-0.670799602199784,-1.0770604200464067,0.49513313375387591,0.099036324257235062,0.016080415207977563,-0.23180717596110406,0.035595557453363652,0.06434277326534249,0.67108244138249573,0.9675243188509659,-0.17911251985814861],[1.2459895609331702,-0.43448810640041513,0.80882383050875917,-0.082125067093759427,0.033817835529381654,-0.1289479491703153,-0.092984646249538672,-0.61439386054407852,-0.22613811853997753,0.16099861528055137,-0.22843669747197451,0.66029975624886139,0.675347227914728,0.11106102656170687,-0.27477695213455611,-0.16770731491304783,-0.08390242301075003,0.10185983570810615,-0.58562083044956259,-0.039510260847791807,-0.28911760986596347,-0.70405944044423452,-0.0046610013931259308,-0.19200283681654271,-0.037940167073609234,0.33377775743979921,-0.20159159580614583,-0.13008084146413532,0.31920686801529452,0.34406446308836347],[-0.12027366195150051,-0.092869566339218446,-0.12179263045714464,-1.1014866397170506,-0.025104412740794519,-0.12075759209738113,0.16080767688916645,0.18825282786123662,-0.65574838073926278,-0.023840907024320551,-0.064805013525992272,-0.20522932005848085,-0.11357734657890679,-0.050883032286328379,-0.50549199146651591,-0.11040458622018411,-0.10223331102082647,-0.0073909443783925872,-0.045934540113090568,0.20290835060517776,-0.38873898517166283,-0.16398332982155778,-0.1849476012002827,0.0791743168795384,0.11920798695308298,-0.11788616931164768,-0.37608586867079913,-0.15114926669889908,-0.22670575443599592,0.41037593460237326],[0.14691541124779894,-0.1329244816409467,0.11191370043723491,-0.333271506527719,-0.057355104309621936,-0.065056835525488479,0.11548454208845188,0.11179106362042798,-0.33758122674235419,-0.030472282443426202,0.19056506279669325,-0.082995124309523924,-0.14345755705447372,-0.11886430740648626,-0.12031330207114357,-0.08419360744151129,0.039776090413960449,-0.065316098944525572,0.0758144924252898,0.054867918896169335,-0.0075983772927601615,-0.34903247679753785,-0.23706262593192107,0.044221799198235857,0.1089044154034288,0.097487150914512433,0.005316500358551743,-0.34519866831277785,-0.241599664846437,-0.009802792081526724],[0.038712681383023105,-0.16954111545625489,0.31415438090015607,0.048644280588019409,0.044630701205123142,0.094120192935706615,0.10828263439655007,-0.019898035638306943,0.50164064394723151,0.08053835033114505,0.25720073544065392,-0.10478014285732984,0.23926558708384457,0.0950800583738663,0.065838803696494932,-0.17686084576989583,-0.29511560994260438,0.48547013889200374,0.2800342913548366,0.17775564430316188,0.13907559998769961,-0.44167552518063424,-0.29152391694847796,-0.011113511466626549,-0.022226220473829127,0.14514340608173518,0.11112454853469009,-0.055578538340284339,-0.14743337826060027,-0.19777263967470909],[1.7899615722699271,0.074619050026748429,-0.78451593527436281,-0.7691800980302127,0.0724449460929413,-0.009894106620356783,-1.6702617595165679,-0.61510720177789935,-0.84620300648166213,-0.26204242108048731,0.93284710413140182,-0.26831810047147431,-0.1850155251554714,-0.32943797623159576,-0.693011900892877,-0.29987733917893861,-0.55280778967805211,1.024205728804239,0.0096506733206658275,0.12346171561682444,-1.2692819493655034,0.45554538635109881,0.84355608173653307,0.059237760638648759,-0.1966621674752681,-0.223769425485925,-0.21687900789035949,-0.63590168871774477,0.5822977737816456,0.01432907168521051],[0.058347573978118045,0.0096090003839736145,0.29778393698617489,0.1855524124464705,-0.26732301705084133,-0.27747406138455349,0.024265718707566553,0.18171546868338767,0.23051323794493339,-0.1311248952965105,-0.059347815482402477,-0.032151025899741913,-0.24596177500902744,0.10517530474346028,-0.17178591946450475,-0.10137609786575166,0.23117509049069049,0.14204539626159396,-0.047330826798285611,-0.38404710023176725,0.19039750006609524,-0.65025963858585156,-0.25790663114942997,-0.023827593410981944,-0.030745754539475298,-0.21248169391078545,-0.13307853091121769,-0.15126632752896635,0.0431289589040279,0.10456336554261679],[0.267567455821113,0.093429796615984273,0.58639763333423,-0.43169327962722914,0.05995899411014001,-0.001391335501176234,0.12924964702613692,-0.030963116120640406,-0.23255185184196564,0.27925920107804986,0.23232116275101813,-0.033805733000586972,0.13271992716628336,-0.26165265235330482,-0.13094060968112106,-0.21996973268870412,0.19661381486835985,0.11351067930130927,-0.772914224514213,0.4439870243100269,0.36664725711434382,-1.3431380381321076,-0.23999376764315836,0.14786455879826649,0.25926560021365164,0.17828758597360683,-0.075396626575349388,-0.079115970572966474,0.563565216287081,0.3766456397975651],[-0.1501415875679738,-0.10204518776455789,0.15177824418033784,-1.1082049936755041,-0.29752545500892119,-0.00607915835507747,0.32819941084907012,-0.031261921685817047,-0.25264878247725392,-0.091809113264834263,-0.15775468147459099,0.2455975221359713,0.41687960682638026,-0.32017523461854885,-0.711186261406498,0.15084578225036194,0.031806052577250866,0.22121880635709976,-0.34216264528215712,0.14840342833582845,-0.14994870367210128,-1.7775814947304258,-0.64564316325333138,-0.099134989290457332,-0.14530613144671006,0.078676081552476143,0.046414550558671192,-0.59231980789564487,0.35748203683016894,0.19007031320890219],[0.048972156188214308,-0.23255021778757318,1.1720793259952249,-0.37307049091121236,0.0097013975627643738,0.077081673813152188,0.11002744230443934,0.69237096944351717,-0.76886818946947177,-0.015458948774100846,-0.37015756518851745,0.21096618854306723,0.089110950358194607,0.04582888225170708,-0.41052988468314178,-0.1053304628952018,-0.15288433593235451,-0.42116858218660214,-0.404123159558853,-0.017487690525701823,0.39935388681776324,0.840629893839286,0.638948805662231,-0.011614167564403855,-0.033642571689317384,0.11026224939126073,0.15526881543245585,0.0035628669511451718,0.147932291571196,0.018938500623705574],[-0.030581746802115655,-0.076199894361962076,0.011652357877829324,-0.62909996092437237,-0.21889236109841029,-0.71379266200791658,-1.1307663929385465,-0.527774019670242,-0.30200360315722463,-0.01993145408336788,-0.38670692867192041,-0.29632625689626335,-0.47673476949944343,-0.12459109767622013,-0.5975866353804401,-0.28388188194170333,-0.55434906209805856,0.34059007747074349,0.21792107101245634,-0.97632840448579461,-1.2153188775518986,0.34165002539499884,-0.017095088173660129,-0.14369439774099288,-0.15622577344360233,-0.72324946455704708,-0.11709244786093304,-0.14129161528416553,-0.34157779767228791,-0.18520179792454664],[0.15962420221701817,-0.064983652006498013,0.21631733019455271,0.24705592205163346,-0.24928245906822905,-0.30514491035708269,-0.12856050057584026,0.53845882687309188,-0.1440969325064588,-0.37400173238174056,0.31978844165889669,0.22422468988433247,0.13356986240636118,-0.4584434305489542,-0.015232658434386898,0.079829794004684845,-0.033838551333110291,0.25968067217321367,0.075691113035568275,0.31142777158551016,-0.11607295744309805,-0.038442502917254359,0.10884293852634776,0.33930155576511428,0.155801548195563,-0.19423641426254618,-0.14325608750933808,-0.20372959533178411,0.40845213704322259,-0.026465350725583665],[0.23775317861669715,-0.24811454794506585,0.19421590480093653,-0.40695495814671784,-0.23677369857691635,0.081064596111701664,1.3690368041745005,0.70885143395561689,-0.52153936594316253,-0.12463005958954131,-1.7276228880377889,-0.42406158586079945,-0.47222478379571386,-0.031327792783998776,-0.33723567834121809,-0.461231246560918,-0.28562696864668863,-1.2872485757869592,-2.0513766400778057,0.61663780925422063,1.5961639312680986,0.47585674339493983,0.64707234029509308,-0.17705145606324904,-0.12825202424666304,-0.15525215523232239,0.067646932863468151,0.36420820500691059,-0.013910406993994949,-0.24014472973488943]],"ActivatorType":"LeakyReLU","GradientAdjustmentParameters":{"Type":"Momentum","LearningRate":0.001,"Momentum":0.1},"Type":"Standard"},"PenaltyCoefficient":0.5},{"Type":"L2Penalty","UnderlyingSerializedLayer":{"Bias":[-0.59363739856962072,-0.66873424219661215,-0.80655886182715586,-0.010532912611514253,0.036249152939847457,0.0089089190741583231,-0.7139077880645639,-0.51033135719589306,-0.039227515310197879,-0.11286154580823442,-0.63278562342022271,-0.0020915270468184282,0.13523740774317897,-0.059165766997531143,-0.0055208423104984947,0.0020378540428847691,-0.22075607093974761,0.0056096126334715364,-0.0014686519955271603,0.12818107990539546,0.36769035312446557,-0.0068495220318522858,-0.53110148833147752,-0.0083812044676822971,-0.2771652113800942,-0.223632703008123,-0.25586949199882869,0.012904756340986352,-0.025518436638182967,-0.46022932921091125],"Weights":[[0.3722429708975924,-0.24363688200676681,0.041336991909508874,-0.0965505958218464,0.33807402439908457,-0.10442405257877659,0.5189395834894035,0.20729076672968588,0.30205945464039652,0.18869546374083013,0.24262910634646734,-0.0846166381410642,-0.54745294763368146,0.11295660892908048,-0.1615352909884423,-0.013589380973493997,0.075341692225056212,-0.09188688003079383,0.017997374680456011,0.4168256803939418,-0.75998768174225118,-0.13317876229542147,0.38798127336018107,0.15474601263933188,-0.66077229609458377,0.10781738504214213,0.23544873266061267,0.069010804299653866,-0.075666392076700117,0.700321059647051],[0.029640223852997985,0.19976583847368343,0.32058262362408957,-0.059215330953588365,-0.030081748600300436,0.016717646168615954,0.38423541181567922,-0.25754760301818747,-0.19213563241685652,0.22227765308301875,-0.0641355538187509,0.041272609611486884,0.0678508761403586,-0.10382357618130947,0.025598908654177216,-0.24347476361256795,0.074965615183523612,0.1728240020967485,0.047227399322630419,0.0076455451674566294,0.23594064864778444,-0.22913875952707502,-0.012296191368341381,0.020019377090250496,0.0023978293950121807,-0.090097004089222235,0.16988604175622421,-0.11190688709085175,-0.15321237632304235,-0.18269487847045196],[0.50136552218414165,0.27019212311920104,1.1333005631252662,0.13367895832835761,0.056602742557630231,-0.1340166353474451,1.0089897283742335,-0.013017678860109558,0.071136721095235292,-0.37051920401553473,0.59938769647665679,-0.19612524221529723,-0.90367673240576951,0.1424023918735326,-0.038913092862745427,-0.19328086225996125,0.084596317354441564,-0.1866890094650957,-0.087061422403207592,-0.012425006236150872,-1.1095507240719469,-0.33807336508598551,0.54692869270422373,-0.32695013078616786,0.64437920125141557,0.49250648705649197,-0.036173048885337011,-0.83449293517074219,0.28557817860830303,0.78391458293489025],[-0.53983346824716483,-0.85432142776601083,0.032510643586561756,0.040404708316596767,-0.24788456699416386,-0.33393573586782171,0.535972330751002,-0.17058981851225807,-0.32087714348071228,0.65629111134587315,-0.6743175659436389,-0.13114184003819468,-0.26894333233279655,-0.072095912379664479,-0.54727951262049468,0.19938097085422624,0.31634795481661232,-0.29396540821963868,-0.089827686221702882,-0.92977180188495656,-0.37701590021487347,-0.10760292905698592,-0.37548483390038412,0.0033708912197750636,-0.068085452869699345,-0.56976877529957781,-1.0762311727500744,-1.2754052819994046,0.26691556612428308,-0.21924740323542605],[0.0724579773904001,0.31041116300758609,-0.064749996322476064,-0.15500750353016637,0.15687435170254527,0.039313921701994013,-0.081638555556447667,-0.19853068935686241,-0.20876456232984506,-0.51113181792270512,-0.033244291284597056,0.07567597276874749,-0.1120173194902843,-0.3556930813213291,-0.076447093363251867,-0.15605255300600648,0.033608379505957561,0.25857806807805939,-0.21389338389133883,-0.022985422780520522,0.12187151700434434,-0.28118186677054019,-0.31019419124337927,0.0622413882435156,0.33041239597167388,-0.033169870443826979,0.10619000183434232,-0.09696036095996044,-0.3794719088866233,0.1530188102798086],[0.070181909349357627,0.095282653692058822,-0.0020505334347463637,0.0996442684063728,-0.31473353019893163,-0.012052661701389146,-0.082421386864415511,0.19558670693022676,0.014720473533661582,0.11177163302613702,0.072321071258392586,0.048381399204001009,-0.10461615544847062,0.32200250757056209,-0.13243322652696163,0.38013339341035635,-0.049877535215647258,-0.19034935106343448,-0.038849337390552741,-0.095717758242470169,0.20625260804574916,-0.017549523497012619,0.26594586621935845,-0.037135857708292676,0.344945641199542,0.10750218494298142,-0.068935747317549936,-0.0041259032835267362,-0.17429095061742062,0.011558476466321275],[-0.30890027422791788,-0.50142235352361419,-0.46237690760747679,-0.13648543943396893,-0.14455548742152538,-0.1222961054035087,-0.36688313053343219,-0.40329502333133144,0.10065722736623678,-0.096667727901462067,-0.48050427341293028,-0.33005834537544904,-0.11249105213837125,0.085190210771560748,0.012979845097741007,-0.078990069504723828,-0.4506737422600845,0.1772194986380993,-0.308893797414931,0.097391268612963475,0.14533343285231878,0.23578589949430356,-0.26787271716297129,0.0096858182007319316,-0.016054024976370356,-0.055428843622546228,-0.29543303246777469,0.077161187985287982,-0.15374788867674535,-0.0027059596809903457],[0.096587024476267214,0.91680349244116488,0.49128071753117725,-0.33114996945412029,-0.17378973590982036,-0.17538926301576352,0.528018092156253,0.52309899214223465,-0.10531131250833804,0.19162635523635418,0.48163453011543561,-0.035284134747107357,0.004954135503961528,0.013036086682092312,-0.14688976544913582,0.24232826121655082,0.66702689805990123,-0.17175088845926506,0.024377882467366992,0.097722830851967965,-0.27937480830522132,-0.18559576553106746,0.2593642496384268,-0.15161087978948554,0.2132904126074118,-0.051884518532967709,0.33396752523605733,0.20869894212163734,-0.36765685007047283,0.27341019108442194],[-0.19650429323778734,-0.81948156787233117,-0.14281785263943261,-0.24599435628013538,0.031500500643044084,-0.15939639873122127,-0.12190088202741105,-0.044326081069855104,-0.14083789458261381,0.12610660030855539,-0.45881704852379462,-0.10095682310540388,0.048041636429130452,-0.09266810569407985,-0.78591317780986547,-0.20319099054633621,0.39064601408400262,-0.0775838291547664,-0.025564144392598537,-0.82677679538163906,-0.14145145856494321,-0.13083559587828034,-0.26960202110213549,-0.10350646962342912,0.04984985393998561,-0.741584796361275,-0.47413492341694358,-0.90285376012314233,0.12672629219004494,-0.17438198995312371],[0.00657116479101531,-0.327965069293523,0.035484660410517774,0.015089207975497686,0.20588677135401698,-0.25585229328528791,-0.14505823145610125,-0.075953003086632234,0.007640236813616242,0.36925812907340472,0.23824404457761564,0.33898538329904943,0.032725908105695437,0.011401495459958298,-0.11980474307992572,0.18869052778487369,0.30713798012435473,0.081391283028421024,0.14052842433304685,0.20178971886457975,-0.056520127861665069,0.0065151266313249858,-0.086157986135398545,0.24135509161304131,0.051719119874272378,0.18224522183245934,-0.056573261062356522,0.070418695424036934,0.21345680697546091,-0.079431837613386014],[-1.0557840378450683,-0.60459237050095582,-0.16780709843190808,-0.0015865309656906063,0.0028094698417734528,-0.14570019794298336,-0.56320179446482355,-0.58059180473348726,0.045819327670624362,-0.22387679597590815,-0.86332167893293343,-0.24562534198979852,0.33144642179768624,-0.30248627820112239,-0.132710001067277,-0.10778281090467634,-0.26595195898132212,0.067863236109644384,-0.13358050950541786,0.39040813435314969,0.2799736679225136,0.13119452820632072,-0.56138532516492212,0.11621763123403874,-0.4589274148505893,-0.19822399294077775,-0.11063571502454653,0.11374995638905505,-0.0769802037356304,-0.49506898032122476],[0.00010965850507692981,-0.056141712385203921,0.082506998460793832,-0.051317020032746512,0.37329327264372042,-0.34362459747493967,0.17136114697662044,0.052811071928891971,0.15151334617417467,0.036732595200542187,0.0674115755002176,0.30234268295540673,0.14253552785697357,-0.30006387546020463,-0.31037383554725229,-0.23038974623135303,0.16692670233510029,-0.11168848782916523,-0.15904949369324473,-0.033911187138660225,0.17863718545059135,-0.02402634999469163,0.16362949980414063,0.18265900008355429,0.1011472899966737,-0.1454415526154979,0.032534101796704143,-0.17623211009696882,0.040891209275040252,-0.10699212285058753],[-0.09580572083728367,-0.066700475656998964,-0.099457829522748648,-0.10255355071062747,-0.0090448416306013815,-0.18028038144637168,-0.18448352525996625,0.034561867913218025,0.35598685460753515,0.20009531039389408,0.12076642420077338,0.022429727635119238,-0.062398209071217493,-0.092004764725349714,0.16312974211504391,-0.041627451771670376,0.13904951121659909,-0.051454826709199084,-0.15619020993134908,0.19148543043879593,0.073244494674057817,-0.3836128645297151,0.028318042049018943,0.050309916305995434,-0.11058512972653513,-0.16246967558200587,-0.2917223029160167,-0.37411280364993427,-0.080644951089154426,-0.11325744118964187],[0.049036597430872672,0.074451907276173276,0.073417201739585616,-0.20735121775903936,0.22575833267925816,0.00122543546516419,-0.29918123898268173,0.23667831409132537,0.15409304929831194,0.1057500911914263,0.075755236743288282,0.06250141910401287,0.20997224165612805,0.0042230237567134109,0.20387170339216765,0.029313985431097679,-0.11370363619238785,-0.41059090038474133,-0.15816329008356828,0.048074903962701289,0.27375443809150773,0.030225934295889254,-0.0060009712925509695,0.26770118669617615,-0.081637155601117159,-0.023568182796047318,-0.094818092167300333,-0.26339559597867157,-0.053922511888410948,-0.17661579401625008],[-0.12696104738787245,0.27008143156718184,-0.044947276253821451,-0.1813384966190299,-0.13051154912029106,-0.031443879087127216,0.20252032068158046,0.27333151381392817,-0.1054490304761139,-0.27962234294710742,-0.38553040878550054,-0.18741211933945368,0.1955259528744501,-0.17163239804920133,0.025185402141677707,-0.1112897543936538,0.037684653845673724,0.34904388802252589,-0.038725534019447172,-0.262290952488779,-0.17864206441204497,-0.061366501752031358,-0.090509162486031566,-0.25035140386595911,-0.26857430951789646,-0.018908136363450703,-0.1729361634831712,-0.31526714624649549,0.25060906757907819,-0.17946491473239976],[-0.28606495736884258,0.11014797149478436,-0.0011739926404526705,-0.12471394183455203,0.055113174838569839,0.2131855032071967,0.096923713751556215,0.133000815091947,0.049626199731819726,-0.14067487337324028,-0.13407840849792765,-0.10975661200617147,-0.22156319989826045,-0.063913576611549491,-0.15064699830174785,0.19675520605378336,0.31677898063810966,-0.034852172570079679,0.0034679081923835969,-0.20203181669373221,-0.21409175976236411,-0.031159290440171315,0.18319185884338465,-0.21546978351015589,-0.26090591968943733,-0.38957195162967856,0.061612600796017443,-0.22293247513445041,-0.34992943792801856,0.083937710358380657],[-0.47756889094175586,-1.0607878918589651,-0.077612665984466686,-0.11071545830371389,-0.001541431162944174,0.10759147559025045,0.056251215275271438,-0.58394711369055119,-0.26052869588378935,0.44031237918440719,-0.30013629688215809,-0.16098639580278484,0.13660499737502491,-0.025524444629499533,-0.51541525984903513,-0.22325295310245369,0.0951548268078066,0.0067808542263049412,0.087318763314635353,-0.78663939762144475,-0.28453297555628126,0.14848390622501126,-0.39104314782446903,0.0038545203122190151,-0.11802702778768077,-0.52607049389934646,-0.656556459351234,-1.0539637187143425,0.096946933692195661,-0.23221841357060927],[-0.43145944946246151,-0.37537370966483535,-0.17197336592619772,-0.030506538893860926,0.43720021662717073,0.24792582201835661,-0.23411840570896858,-0.69304324802740258,-0.0026256688467337789,-0.1225275233043199,-0.37040815999447835,0.2016255476271214,-0.32981245160768835,-0.065242204251159383,0.003079818035228775,-0.16096567701256495,0.12849528331768589,-0.054310764039267566,-0.150728642873854,-0.40893484635295019,0.010133791201476785,0.15861121509721482,-0.5772269143970169,0.014765612769334455,0.40703520158063877,-0.2170453517703875,-0.490333920950875,-0.28211661243974828,-0.14520146490330663,-0.17702858839596325],[-1.0440473873946745,-0.34269202738129778,-0.36782677089679322,0.10027217239506416,-0.033689008872048842,-0.31511411710454312,-0.097369974559093339,-0.075379074336255555,-0.15627497484962821,-0.319054593956396,-0.9500349179740909,-0.11161485024495726,0.19436938690412584,-0.23564822103400382,-0.2543919523946247,-0.206027684214292,-0.84440356338848044,-0.079997887264856377,0.099904613737054573,0.38781040499835762,0.27119390859354403,-0.094968771623839959,0.0875917814627849,-0.14982951124499666,0.1096736344726036,0.027251276688209963,-0.3028085236923303,-0.25270420432618118,-0.14741425438767505,-0.36920982461332863],[-0.1028813526595678,-0.61395092946084939,-0.3117672283852812,-0.2442398234708118,-0.062281891988073705,-0.1510744987641546,-0.45514557118378129,-0.69848620468761113,0.043110987059882054,-0.12628807586044868,0.25354412459601011,0.30456384063909553,-0.059885024767590792,0.10958014257733356,-0.080379087638532187,0.0848022224255404,0.24866552073609749,0.20808683903776479,0.0042495843991285729,-0.21448502853314855,-0.1593148288055469,0.20426761359979911,-0.37293493646630621,-0.049512543803535716,-0.14947762670084602,-0.12396510217791197,-0.28043562764451263,-0.3675465105925535,-0.056733917603097567,-0.31459232727367431],[-0.30229419884016157,-0.71233221033052607,-0.95593032559895941,-0.035491415595282814,0.10247499392665051,-0.00039927336740083741,-0.57075026374249749,-0.057529911772780655,0.24097130754244731,0.075808220969780168,-0.267691826998884,0.034239855297124394,0.44073901099230589,-0.065366368036716388,-0.07992821581806564,0.057541440623980346,-0.63615448014734233,-0.055985653522775715,-0.4036278134072846,0.22396637464611027,0.13695478272341036,-0.17767749870941321,-0.20575454856937883,0.22389080448345705,0.17589500423335536,-0.077457631026360274,0.1930106610250715,0.56481065522890483,-0.46283604058965261,-0.63492851891757762],[-0.17584015959467908,-0.23427847852812711,-0.71655058438722252,-0.14904336080635766,-0.040919427169891054,0.11218053571930942,-0.5870842269011054,0.81356122323872759,-0.24281835588844081,0.10555857865151924,-0.65559169021687136,-0.050747903456096609,0.33454698720438136,-0.029672507925965562,-0.26926004216447957,-0.24740224700216612,-0.87419980128641728,-0.19343360234473103,-0.073353390847563843,0.44875242686017919,1.0853842086585295,-0.0809554451288639,0.97429726843817677,-0.28239296643700751,0.36947163370427788,0.80833566879400875,0.3571641280309657,1.0794121737403124,0.12186110353550315,-0.74425541524081762],[0.2552575025481893,0.27677139018572117,-0.37530334282963224,-0.21696132910854959,-0.187891910503312,-0.12255110835313078,0.030488831975912498,0.57390527983686468,-0.38762556034368395,-0.16387667607334205,0.28786017960765709,-0.15856921523407153,-0.08204253857113504,-0.30187085590986074,0.038302393215808909,-0.0094614272875856841,0.036278690210090461,0.010272850677116479,-0.028987980044190443,0.38959747166832553,-0.6650098464326657,-0.0036143835992095185,0.58070571110408953,-0.066795508437778969,0.0940912357833067,0.25575195970333714,0.017109090867004989,0.097996014987721661,0.0028232160405038511,0.33690459798289013],[-0.096316663791826934,-0.14709074197549044,0.13382253389133555,-0.019716399252450785,-0.32428719678954948,-0.10087324287629745,-0.35948480752149881,0.29983950084769717,0.025688995348768534,0.001153976906438808,-0.055830011707949788,0.11158370237419815,0.069673559807205437,0.036065795470146857,0.037093531600415272,0.10128525428973408,-0.13164464874339146,0.14740099528645692,-0.010511899318620309,0.0072022450098439732,0.19666320913870322,0.055775285054366332,0.095351379379495713,-0.099695231851953975,-0.26867583234353148,-0.067108659563592826,0.0948271804625752,-0.0032960325241740062,-0.038384029229097068,-0.052211924110164606],[0.18867280949677703,0.062536672104437932,0.10416867774681171,0.22145886968397385,0.03886388241413969,0.061948577349812128,0.32373041868829933,0.33082142551187654,-0.15401242359766715,-0.0026354039786858825,-0.22742605733927038,-0.056802876766231435,0.031493488087630805,0.33298989653411948,-0.32006810006279063,-0.33603068545811249,-0.02269001539578271,-0.078569614764478143,-0.44474780844077633,0.055780470664819344,0.00032140269291560443,-0.095453346021068738,-0.20633092097718314,0.1473161412334866,-0.015318310739224831,-0.015420296471415957,-0.10871643141692175,-0.2327909882906205,-0.10242490851414218,-0.053018457998113916],[0.12467080538142257,-0.11110610091048247,0.13453904822332424,0.0056587286302654119,0.032833128707408524,0.048727666173464634,-0.16365859566512025,0.043263260155894906,0.10354549474971837,0.24422434273280774,0.41602053671122913,0.0576534648604947,-0.31578483191278472,0.266648491133682,0.11057031799214273,0.064782193406925273,0.029700240007476369,0.0007767788557892242,-0.28119387206129187,-0.345268198509696,0.026334409090046546,-0.18474145368874506,-0.21507990351278741,-0.30434581727887516,-0.0095564858084715987,-0.25250232992207966,-0.33052057003339891,-0.024257290726058443,0.098267195219867071,0.046815829716263],[-0.041702370845228764,-0.064445072685154536,-0.10343919011398479,0.21678534678303837,-0.030704584066610557,-0.13797294579626548,-0.10853848100324656,0.1307880877737696,-0.031745944406639283,-0.10648338838418717,-0.27009705282157609,-0.098955535349636026,0.11932824633023351,0.29358155290654059,-0.13286565074967274,0.056163983567379706,-0.039953890830960584,0.080021631324357814,-0.516412628183896,-0.41968779723707261,-0.085937473108343154,-0.19220696260687542,0.13071880798006702,-0.28931342826683493,-0.072702214665790063,-0.10448474696597618,0.06628284820352158,-0.19104226994825202,0.14351678705111545,0.12962573129433982],[-0.13670297958188563,0.049612977970916496,-0.2801338387421724,0.27944993440930427,-0.013224356815162423,0.086499623695620809,-0.29824944722549873,0.10334206254610583,-0.19730647745394575,-0.47772050130772853,0.038218102008602983,0.21791763542499745,0.22786351451398879,0.0753499242267165,0.16145265962970543,-0.10675066243616203,0.014331827457026302,0.117642155964512,-0.25476652817759887,0.095940596290564256,0.129896717087339,0.13158106577877587,0.19563676688537005,-0.0019783703122388417,-0.094947439113010346,0.16857426538295409,0.4953960267681688,0.29505340908478922,0.16962056737644468,-0.11804636048654964],[0.80232300620845731,-0.15281976166615782,0.39486872554425456,0.017512109414554257,-0.53938808251157333,0.28746185154397341,0.32824265051216528,0.15663470358436826,-0.076220870177658273,-0.19237370902880235,0.2864912659992665,0.27811777442321406,-0.15108570859467782,-0.10771224310660454,-0.20210433073122922,-0.050339346022434041,-0.19878443738741222,0.45218298567803589,-0.232137082361918,0.39867781616447756,-0.20011064091828665,-0.0077522718698601542,0.013925086522181262,-0.018807248854357406,0.33891562357980093,-0.062490741364283793,0.30263636944206457,-0.24396264265109732,0.14535322386900212,0.10637503494134022],[-0.0062663563397246458,0.23786455183663127,-0.2891824872912559,-0.28119552558611483,0.10958235913790713,0.16370977903235698,0.20574907844950019,0.092247753497530935,0.27858327411964445,0.23278222553035619,0.025536880841237983,0.069766115095912185,-0.11444919476334062,-0.0053753849307736972,0.11311397904618654,-0.40866461048910946,-0.18029233446385637,0.0093709241578298491,-0.23583045281560242,-0.037222948094437332,0.098167017162291759,-0.0020644201994280565,0.17308615420143947,0.10855610211031076,0.23863472178883832,-0.19738894221136039,-0.14066623939206721,-0.14890245481862979,-0.15143154409552725,0.06481718700685532]],"ActivatorType":"LeakyReLU","GradientAdjustmentParameters":{"Type":"Momentum","LearningRate":0.001,"Momentum":0.1},"Type":"Standard"},"PenaltyCoefficient":0.5},{"Type":"L2Penalty","UnderlyingSerializedLayer":{"Bias":[0.090763219671093534,0.015224350865011005,0.060465239348658648,0.0096787580940956609,0.015219402183216407,0.093769618681614625,0.021854271465210705,0.0031418477138751397,0.1146983654736479,0.022961229679423611,0.088476458248573836,0.031887418742138823,0.0070107926654071643,0.082232766254834971,0.026337109871857532,0.17167988436083073,0.029769474399123929,0.0024342847971058133,0.030654025688429187,0.283933052632156,-0.017575472965475344,0.0055015526189427719,0.016728214212130572,0.017758237509511526,-0.0050712057329816663,0.135554818032551,0.092671034388439419,0.040705564557411138,0.013544507456215819,0.165506304301201],"Weights":[[-0.27905361324927352,0.16568974928195257,-0.25794138957385515,-0.0830191330894353,-0.056405383829988255,-0.18514416114840679,-0.16357805586075422,0.17882872415384854,0.014451132323163717,-0.084483534563125254,-0.21628670896541638,-0.26583547212614833,0.025928443592051396,-0.25605729650323661,-0.089673590919416832,-0.094217168866143619,-0.097702124037504764,-0.036977985505287032,-0.014958488293951373,-0.0013062265845303629,0.094989488732462143,-0.10721824400421959,-0.16262760015255495,-0.25622632567357884,0.11048150113892453,-0.047910856446686592,-0.12766044268923824,-0.11594228607097015,-0.15466863571798453,-0.12126635100614766],[-0.18843897057482512,0.18255327294804569,-0.21822209817551577,0.077323250872315813,-0.13646925815155386,-0.30855331181560658,0.090310341047002585,0.10470432131466663,-0.73595732165164229,-0.38115004385117812,0.0015716133616170221,0.0097441250674340871,-0.08855409882901473,0.059366273347832427,0.13817150486357288,-0.0032976340523537912,0.13668061979773949,-0.15642937481979594,-0.046472566603161757,0.37863112556162964,-0.012233921348679445,-0.0774403650466117,-0.16580767846940556,0.05367210222794911,-0.29537771445175787,0.038045427790937579,0.10082887327377423,0.25331898991127805,-0.0327213828481458,-0.31265697664534781],[0.29397938010988905,-0.18703975471472592,-0.0079572939204797886,0.11146693921332299,-0.28704538452641304,-0.21532974719296844,0.23256525581284293,-0.020398899576827226,-0.60528142773786253,0.080697283729438671,-0.148668564824665,-0.0087919251422490657,0.0439266098218238,-0.26259376426299125,0.04998046580262494,-0.26849832301120391,-0.32599896388243838,-0.095775401755880771,0.16349128390374912,-0.30204733845733622,-0.20799700076950217,0.17640376511548828,-0.033824063087443332,-0.39683025328348009,0.12989265222196306,0.0097741110383099371,-0.08272520058301451,0.0608686356872373,-0.34160487211705021,-0.561304249112553],[0.11214674892407116,-0.13722078657820938,-0.081851490596651366,0.19494729815077552,0.32096256791526612,0.10248250260618186,0.0053795641941858218,0.004182748235724917,0.033050627430779224,-0.011868747674804428,-0.13806367172814593,-0.12810520453127658,0.0775239609210949,0.10274011762343113,0.1053013113669594,0.14541607241942117,0.061887443520810027,-0.035564011997063653,-0.15219006982918645,-0.033990466096730163,0.085702253654151059,-0.0093067582822685853,0.064360570154497074,0.18467889454833192,0.37487826071995289,0.11967126516532115,0.020970070987163081,0.3719469285830807,0.2730978949751679,0.22931990686338818],[-0.14303179395489751,0.071298525125048057,-0.15446655851231769,-0.027720634143154958,-0.0056599941019902927,0.052478766160787074,-0.065774496371454869,-0.0336453035761057,-0.24099539701541325,0.070832577338447444,-0.19284471189366015,-0.17204733225619245,0.23867876252693318,0.0081575260443396171,0.051868317627688343,-0.16953687316113664,0.094139816884421,-0.30412485887949675,-0.23073856668211051,0.031984998027569482,-0.40168199898918044,-0.046315323864753483,-0.21998445486303037,-0.4157279257646827,-0.37876695613293493,-0.045078253299235628,0.25905860191016217,-0.26050630626446947,-0.36333217424108816,-0.0992084808881965],[-0.036341994602007127,-0.25262288222093554,-0.30599805740857688,0.41309033087907132,0.048207195490023974,0.17538195643202303,-0.073639367088698865,0.13914827459753335,-0.13258938407451623,-0.10582271615807305,0.30309475949932863,-0.11727848952844111,-0.057639460289125651,-0.2048133292220071,-0.21915378792543916,-0.20181817548812708,-0.22389050638467511,0.05286501940594842,-0.12952364952069997,0.24422363059653052,0.18358896728691043,0.0044865685563012809,-0.34891923468791347,0.079890497194218119,-0.18862137770056564,-0.083206980582921461,0.25439976800205516,-0.027619850534180958,-0.046590237522103721,-0.10747243855686567],[-0.15398055343103054,0.0029804447492230894,0.02341622994353101,-0.27907483610489325,-0.19601156267729486,-0.25441345276484889,-0.14982766360100053,-0.26008794639305832,-0.26683170879120166,-0.32331153057062123,0.15690793299145606,0.080797428435626539,-0.17204253388397811,0.1270167868665526,-0.17296724360086516,-0.14930278520740517,-0.31493979131469652,0.16463147793110897,0.14933944540169458,0.25606144930004504,-0.18889679332750051,-0.01889986148539485,-0.16747056315366884,0.14314031198280125,-0.083925743828815652,-0.42892553438825837,-0.088280072697375547,-0.2346334523902964,0.28123858662007312,-0.42220288660408678],[-0.20748311641526854,-0.2776238613620215,0.018644031057736092,0.052986837927651652,-0.3652747696460189,-0.31034502588878782,-0.18839270075993705,-0.27510344277759075,0.35857822660758271,-0.064178860330436877,-0.545052363440652,-0.63422588806284674,0.030405633267935498,-0.31730619903506213,0.1260862988675534,-0.52465816059296955,-0.26799400258180595,-0.18018657167526928,0.067504461209129549,-0.40710488977376519,-0.22502189080504589,-0.12772262985450636,0.22960903313145747,-0.24986184616244228,0.00826063152595293,-0.22529156929138386,0.070450819421238514,-0.15829035262504126,-0.0080938955709364529,-0.35593329891529651],[0.15486648869830805,-0.20652881532462802,-0.047973915518600696,0.21880796451437842,-0.33131733171390565,0.22391770855565163,-0.10862824189441037,0.011035178127738974,-0.44656701071928462,-0.013832163199564863,0.037165463246890185,-0.25847334945256639,0.073921203864000334,-0.088712123256944567,0.10742596828730136,-0.17479794286552727,-0.12932596306852631,0.1351353510001872,0.067909860789084828,0.3201687387146861,0.29300059231090309,-0.43678044022536244,-0.2255091337647876,-0.19338782316495326,-0.069776078569332087,0.017777615641337896,0.051458014423411032,0.17566390981088562,-0.2379303220547288,-0.018218620272236825],[0.23931848038904693,-0.22820637543265709,0.0064777961384913712,-0.29672280505566712,0.27648248954872856,0.14486422556245174,0.054774838289700041,-0.014751225954468287,-0.071856611645034527,0.05517983168292085,0.0045797969907291937,0.15586197970426494,0.097772055637623118,0.10351879393632026,0.17297942637625272,0.36160920437123323,0.234201087454361,-0.17491086347629431,0.055812683581809283,-0.34159715629222454,0.385972951581862,0.16837546055620092,-0.086914428446923417,0.45418202091762971,0.11281140524070034,0.19985026739409795,-0.083456335732648879,-0.0056438260515393633,-0.10734363296913296,0.010065803587704137],[-0.18005056567025629,-0.37283814043131308,-0.2159891427829935,0.27338290992208564,0.39996419217971346,-0.32187138753035166,-0.21204119601431737,0.06546445451268966,-0.34404958511490408,0.036282167646068855,-0.00051690357330767887,0.21019570478505731,0.053760908229826314,0.03022398978868052,0.13696213316542488,-0.3294785255747264,0.092984602776317857,-0.16462102513160876,0.10776046496464743,-0.062455063728617755,0.05391906005444539,0.051799390698460117,-0.12233557458210947,-0.1823563822320752,0.20748244403131114,-0.099225323858069953,0.1350370856764338,-0.061431549143832295,-0.097719366690131662,-0.17601380519093751],[-0.14754097261095447,0.1207171121927401,-0.31988735057302981,0.30270335528172659,-0.097960577478330577,-0.15360012324308886,0.098326183794871985,0.26991802291682027,-0.16268555970632181,0.16868504205361168,-0.19320630029097261,-0.2133823037371658,0.27338654399404289,-0.17886966362410234,0.12369139863887284,0.09971320728049797,-0.10981721299747164,-0.0057111227129505969,-0.095035128699643728,-0.18843961208814383,-0.0693220235194353,-0.114132344500144,-0.05020931706843311,0.0928970069504623,-0.08784186536933361,-0.10876565044951811,-0.037508225505838953,-0.20962040994940331,0.042321164959179543,-0.10323618412465278],[-0.25609703236742576,0.072516434035969163,-0.40245612271205872,0.018408784745927696,-0.11996809171019388,-0.12597129075558938,-0.2528577104398208,-0.24503279874025194,-0.2625794020376549,-0.1229642223998739,-0.28095369618300847,-0.32233727606110596,-0.14654610337548363,-0.19401182056158345,0.29981384928500276,-0.18514641062950377,-0.10314277221466575,-0.066582182767228465,0.12493369064205481,-0.40214336335195272,-0.20999175261850822,-0.1854107682674811,0.0483594188115859,-0.00050697221365190233,0.2869578359939321,-0.18169319303937792,-0.088173732736753413,-0.22028837770901003,-0.18276897087748575,-0.52151122145581374],[0.0025712132784246355,-0.10010045952264474,-0.10856857671734442,0.10458206616630844,0.095184365564736029,-0.058584340830891306,0.018308840905191342,0.00040569980966586417,0.093112149052224175,0.0069081617441481028,-0.029179575839434042,-0.049697866315306281,-0.11222173632203786,-0.1066397277146285,0.048702988994458657,-0.23074301038019399,0.12387646386697966,0.17129833598616789,0.28450116184404328,-0.082925552421008464,0.11518677636744269,-0.38509301065178186,-0.065586752194973924,0.25903062443251812,0.10498051912557259,-0.08597796835277112,0.0351060103721735,-0.29672483016398349,-0.087060641521729432,0.030340801549767989],[0.077215637677992791,0.21304159774449663,-0.0073013701108794486,0.034682550391659635,-0.23473299163176745,0.17820656111904845,0.087426009903158936,-0.14971830672995723,-0.28145315172560542,0.1159563951881482,-0.10051270192811945,0.30975204744597618,0.15944941289659359,0.01047961690966479,-0.36406955843559063,0.054824425029183527,0.23689349999706497,-0.0030444567237368158,-0.26060545988910788,0.087424066858352273,-0.17174562873809668,0.0734479507805032,0.049588290070618907,-0.048102311884153273,0.015535757477725315,-0.20123771561599041,-0.025884172971933333,-0.17477334787932633,-0.068851752989028472,0.025880235158163539],[0.15870084508979215,0.11984644065050874,0.067245617578682262,0.00720444651781857,-0.16125080887082477,-0.051901859259671362,-0.37489586347290282,-0.10761668934951857,0.054915385572797633,-0.13652854713708823,-0.018549149213419526,-0.0096652687956739931,-0.11738563081606525,0.093276738188521474,-0.17956474911692666,-0.0040928058579914267,0.046408484561032921,0.099179519382662715,0.28732662513780044,-0.0899434500609858,-0.0066977306088298379,-0.038584083140584362,-0.20586879993439605,0.10167802780300664,-0.024234328553474332,0.0015571684962027957,0.14997082284613902,0.2787772843324865,-0.33337998137874525,0.057481489124975277],[-0.2214510800276851,0.11268000813838613,-0.062525196277118833,-0.40614037321009794,-0.43067242310074372,-0.1574874427573891,-0.40982938673771091,-0.680306792204164,-0.48948244980596411,-0.25431995231246934,-0.25177806566612393,-0.26299934646993972,0.048107561915575796,0.09914625940839715,-0.0060675313865326151,-0.38311586285718108,-0.30456566596112794,-0.33592110382101503,-0.3596888034799865,-0.059008893813500357,0.14751987844525019,-0.25278989294327281,-0.16414230468576377,-0.30596166241761791,0.10540101200368113,-0.28814889279346118,-0.30404300347518526,-0.40032795692698608,0.030190836992979347,-0.40224688400163772],[-0.17042586439263316,0.38230815349171288,-0.1331905866630633,0.00745468288334592,0.03449406570011284,-0.098861082328606659,-0.1814737643023675,0.13373421769165517,-0.1549182920991935,-0.10205806705980819,0.015755417126670553,0.068733476335950061,-0.18459749609140527,0.1260329981808706,-0.094964958424777729,-0.096482475073478347,-0.19677346935470275,-0.047235907248202549,0.032122866621438144,0.39846834804771275,-0.10689553021292134,-0.013077917815913637,0.2386134282387,0.020157723438922994,0.31935784474554074,-0.062109282212318359,0.1706652802872205,-0.022232340452250563,0.23615393442742177,-0.092561116297162752],[-0.099339054243962915,-0.12884611500678411,0.00068565685331055089,0.32113086079257175,-0.25872303561529192,-0.036336419897595472,0.023978459913702812,0.02254602824574543,0.14874013175045,0.10821218605801967,-0.027191775349519207,0.32774610167993046,-0.19995156471697986,0.058535590694288937,0.43540492719701507,0.29320831296176114,-0.28537932929937265,0.39468347823569372,-0.034565684995050694,0.10789728550779247,0.12740237318867798,0.11677176245328783,-0.11940037518122133,-0.31259764858364764,0.16048369939527507,-0.11706644889061765,-0.024914397121528167,-0.37984796692740536,-0.19953708620497695,0.20660516770087395],[-0.051047011000207053,-0.1129410226339177,-0.55468637161543644,-0.02367461425896834,-0.10736246240630039,-0.083538926070506683,-0.013347896463295534,-0.40049624061788713,-0.93142442900263844,0.055930840473003625,0.13804936418204217,-0.087840860295491041,-0.085322572527828836,-0.17716415270021479,-0.031768286119772664,0.037639686212298414,0.1705558192395385,-0.22044004434050857,-0.075025996017110172,0.24569337976528549,0.11895500382323972,-0.18369029899730563,-0.024267809906958353,-0.13849386660974894,0.081956178027327534,0.19580158522418428,-0.11643133368174283,0.069998366625897215,-0.11641532500952723,-0.54213694799111134],[-0.42642896915988709,0.033827361933512851,-0.27508696035385111,-0.12048881955077627,-0.17074648587957012,-0.21718834592409977,-0.3187038658091586,-0.11469327361936967,-0.098288147857477678,-0.0052995319753606487,-0.46501988771909686,-0.150442350279624,-0.28646557380063692,-0.31846433391596646,-0.061448128820641518,-0.2478272339118886,-0.078689940256275362,-0.212082660504516,0.031630141337496934,-0.1463956259118476,-0.049348988820952788,0.10787827246781727,0.013889552831427244,-0.2645529168118495,0.19167529755602217,-0.32172339161841107,-0.29769417018090644,0.056580150132298883,0.049532094258526616,-0.2859065666509204],[-0.096792502665033281,-0.1123113470451913,-0.022589733554887092,0.10411929627739647,0.052261090517639427,-0.38620764285679471,-0.46810770209368241,-0.19336738068918083,-0.063409853424879953,-0.21769796532284777,0.054818972506105595,0.14809815490485107,-0.14978630924583644,0.33691752020413024,-0.13696381037464694,0.35399359394594382,0.1114849301950612,-0.04695515826957062,0.063098315414893427,-0.22889174977757182,-0.12699711805659641,0.065419211791326509,0.22688113811069366,-0.097246707032270716,-0.17761566631926604,-0.065931028141657688,-0.20817423067360119,0.057731230622988773,0.17753361587937833,0.031607277542755857],[-0.19375418659398683,0.11560495146189269,0.10159822761276761,-0.061631384632461664,-0.11417660631819325,-0.44005970980760162,-0.055438951091382263,-0.12530318758172848,0.060656090040388341,0.025283223548863393,-0.76064687030191636,-0.49828089373567536,-0.19929614194506351,-0.34339888451755629,-0.13946172007967025,-0.7568438938390013,-0.35995633643992636,0.013192983971525138,-0.27627309459838423,0.045784113291362172,-0.054840340347451555,0.0688636628007489,-0.12769672379206951,-0.3209339254240185,-0.12610521597420907,-0.51940255174403194,0.0023268467542363691,0.040367098553013313,-0.097700658521757092,-0.13853116866615153],[0.16534472565570735,0.18755997880898478,0.02431609781595186,0.075202707641126229,-0.140567633266082,-0.11124444800415108,-0.04837352495981629,0.16691417574308765,0.00690650012623597,0.19042316246760035,0.22108186115548237,0.20752854473500215,-0.43908083193341269,0.12400231550112564,0.027448823153149872,0.045113488133456919,0.19456395921286884,-0.21218549422037297,-0.49014701250405063,-0.15445408476131603,-0.077335289498009746,-0.22002866581291544,-0.20777929175696028,-0.043819726885877264,0.15041280039995211,-0.13864908838261392,0.074116961732599573,-0.14077991747729882,0.034984543806553005,-0.10401142337163272],[-0.26096321303571346,0.25914049630471381,-0.35563238369409489,-0.32823267287777841,0.2667554134396446,-0.25248512957646396,-0.31988743218747251,0.06990545305069111,0.25363040014303961,0.028473051613273532,-0.380138911752721,-0.0546736084154428,-0.17608252925183626,-0.16149211111563647,-0.15567622026500094,-0.05668732545583386,-0.1736161830193026,0.13839007832504432,-0.24148199442427315,-0.065988579721746,-0.067305123311444892,-0.037158814703310283,-0.2020028512470822,0.30274358987781097,0.016897000849777324,-0.41084915704079861,-0.0012907604193044373,-0.20927922153611611,-0.34328330617331809,-0.17977834742694832],[-0.20445929117691811,-0.23517065233227324,0.008518798017155587,0.11489989485464248,0.058457863585974122,-0.27772875177804168,0.040445870738179186,-0.024224887449999823,-0.023540422327000887,-0.20704145145702307,-0.20475913363086626,-0.31094458802585812,0.38825926320141907,-0.1566022859640557,0.11751095680667108,-0.27277645166239223,-0.20984352530423489,-0.083336574163007937,-0.0044502859501995059,0.0517800942353057,-0.10185937279064448,-0.13921061605078641,-0.276501216331297,0.034443269426301978,-0.20088784245466695,-0.25307138147033659,-0.075309717619093677,-0.21262591406080375,0.022283307944916553,-0.45013967356818618],[-0.14694364925990835,0.017862875447540713,-0.6686145586280805,-0.059332003513351911,-6.4247423180731488E-05,0.25092704266138782,-0.26258616162936177,-0.098167366566351361,-1.3820551132589543,0.090655655272436533,0.39582676352222518,0.74066672509063747,-0.044462665511728693,0.04896033391481968,-0.15979317325255965,0.032399276332483677,0.25830627495294939,-0.011906232136396133,-0.18173645846275027,-0.48766448507271615,0.083484432914009352,-0.11383511302867651,0.17239668212563425,0.191231635176959,-0.040126524752834389,-0.11014813139947013,-0.38608817980014243,-0.12868567909014664,0.0647729206927257,-0.46591339956758637],[0.21243519079682219,0.051913411232735338,-0.4651836444480138,-0.21003323474224747,0.092894470534650025,-0.10984238741287812,-0.0686023075904833,-0.15082201300994566,-0.94942738894777,-0.036777862513001434,0.16910721369025947,0.23993739775700917,-0.13077056301336537,-0.078384831164143326,-0.081572118880489389,-0.026387710652061212,-0.07130928263911572,-0.011326152607709228,0.21767122780397241,0.16115482782502719,0.015238490733489138,0.083639957175156446,-0.32170003483268089,-0.33399780019477093,-0.30386451589544033,-0.025562587247785973,-0.096504396630009578,-0.1312809743909803,-0.11572379170441581,-0.39682308709198622],[-0.000458282369292345,-0.247390310982147,0.21492743390103791,0.368190108996081,-0.30087497295485721,-0.029229571629019714,0.064391252865952237,-0.16373822652545877,-0.21139741084092584,0.20001842982362666,0.045769079355665356,-0.23443566592761458,0.054462305754050484,0.10315236970913988,-0.24614093320649469,-0.13231275723272676,-0.032834459069404104,0.099459249656384155,0.31879904074356175,0.039101821218185936,-0.40064064178312031,-0.0662348124233457,-0.17316499087846082,0.15016488703033615,0.18397979863672337,0.081273080817179683,0.017352105274222838,-0.00079870169481527917,-0.010057930040475782,-0.089576481934691268],[-0.25776692127419576,-0.24899259183983338,0.032747562398043252,-0.2662653878863383,0.061826091833368423,-0.064478420998433664,0.0806546239198231,-0.23198571831088524,-0.051104843988995882,-0.035397658320644051,0.19410163106325368,-0.10882724347892706,-0.025463347347234131,-0.19416358571844514,0.12718480278431607,-0.39159903930260626,-0.060306378786961087,-0.0052054857972627655,-0.13664656716904405,-0.39443145723923451,-0.036234363500421626,0.072684524145856355,0.062256856649834144,0.097523025737177,-0.27563824400458903,-0.42078571166537587,-0.007926780241402016,-0.066513401127250626,0.049099847364926938,-0.098360619671499033]],"ActivatorType":"LeakyReLU","GradientAdjustmentParameters":{"Type":"Momentum","LearningRate":0.001,"Momentum":0.1},"Type":"Standard"},"PenaltyCoefficient":0.5},{"Type":"L2Penalty","UnderlyingSerializedLayer":{"Bias":[-9.85067679232628],"Weights":[[-0.46748059646027351],[-0.12140143650622907],[-0.544306376929769],[-0.15556343806488751],[-0.22817332219873296],[-0.70269348979222246],[-0.301976019823219],[-0.4118032905855516],[-0.83690043415482651],[-0.16683763546901612],[-0.65243227514460966],[-0.52533962489566943],[-0.10193551312925521],[-0.54409370395777834],[-0.07195342223714557],[-0.89952934259668749],[-0.42285374292489669],[-0.17897163445938893],[-0.16225635428211011],[0.07609603290085333],[-0.14711729913368213],[-0.15716110930456351],[-0.24448411068516196],[-0.36357685545719404],[-0.20113894128235788],[-0.6722132243147001],[-0.16626059929476725],[-0.24805867222234193],[-0.19593257079713],[-1.0308294013102832]],"ActivatorType":"LeakyReLU","GradientAdjustmentParameters":{"Type":"Momentum","LearningRate":0.001,"Momentum":0.1},"Type":"Standard"},"PenaltyCoefficient":0.5}]}