{"BatchSize":16,"SerializedLayers":[{"Type":"L2Penalty","UnderlyingSerializedLayer":{"Bias":[-0.015684702134770183,-1.5516480511813995,-0.017630773558594104,0.014729315742299767,-0.018958666426755377,0.40527092907263323,0.00031509260574036645,0.0040330326825543687,-2.1758512651249204,-0.95782726629390114,-0.0081821103110625015,0.021389492018350973,-0.032296831193157308,-0.816678220474065,0.0022310986135329215,0.020569000885213108,-0.011802490764668137,-14.789390665279871,-3.5032797724719158,-0.00015604165713325969,-0.0014307436816956654,-0.001366735912926392,-1.5715181497389013,-0.010647177948866583,-0.05397634929920566,-0.010465013572123535,-1.1372965970890847,3.1319524581499625,-0.05159609058105033,-7.7895314084671359],"Weights":[[-0.99450426116717883,-0.15233079841900296,-0.84979617745347635,-2.2994697472265,-0.16627698948625239,-1.1400885177221234,-0.65136926639677861,-0.63499671883324382,1.7352765407426349,0.4125981617543476,-1.0161178257454466,-0.40394705434447459,-0.17496223936284819,1.9557170279620606,-0.055253334446610569,0.16437989172488846,-0.57653182560558291,0.31341720818603824,2.3761274166231665,0.25609928202712323,-0.43189277829010125,-0.50712683260712,0.057262752158152921,-0.56999241756147967,-1.2920807311754716,-1.846803920583356,0.592823948694604,-0.3193588509348127,0.31253210847492097,0.23571069627107968],[0.46315825265794247,-0.998948323348574,0.3511031023871366,0.16688426328832326,-0.68891768337394732,-0.45524536048835329,-0.086215885437603432,-0.37754062514905962,-0.901339540531517,-0.00702685978714436,-0.684422005949383,-0.45485631007059263,0.15475162628875458,0.5777375467954825,-0.021816395995245558,0.051034239794770432,0.41496312445992928,-1.9932829616971326,1.7327783248037947,0.07001278479933061,0.65959913424435268,0.13924526442066493,3.4503526326012266,-0.3559511297053235,0.29426312734729859,0.34163774762886479,-1.9771138256166527,0.32376794103057827,0.067809023747042285,0.53140968884930073],[-1.0299983181220354,-0.92059424860038142,-1.3024178589867319,-2.2674097084745064,0.094614655439121592,-0.722952218004979,-0.019106944659528766,-0.42904794665155976,-0.96725349701831065,-0.93158035508835979,-0.74988859444177813,-0.11457182541373649,-0.91677298899026916,-1.8488037327689593,0.02153391996323405,-0.18034830633889781,-1.0923639375920418,-0.13530571512811246,-2.0469204610007727,-0.38838777947705683,-0.26138981391195076,-0.44942049846937671,-0.07388330472966248,-0.44377748752026558,-1.665201156080411,-1.6577018142885276,-0.82384695991528289,0.32252029859393611,-0.689096541159944,-0.3174851993969634],[0.35338104168803453,3.0388718488914783,0.33042785533677776,0.18467457389527764,0.530122392366115,-1.7448526395338024,-0.055276831803255259,-0.19356555954978869,9.1047444263825774,0.90548825168420577,-0.218880937395484,-0.12029064776142331,-0.10537332608914972,2.1026104172194415,-0.55737564154213748,-0.053042810360963616,0.59606629865775262,33.16021965032305,4.6750978390735964,-0.15824476614471464,-0.022025623364175753,-0.13677231927703112,11.543368696033522,0.43122086119947761,-0.58021295439965248,-0.512504873858819,1.8480828153896733,0.78055772743650009,0.22899753470384965,29.286079005804879],[-0.52909945026875971,15.977928317639435,-0.19552125194237616,0.290833100198691,0.67657935893972432,-5.8587933557301328,0.020020199736354764,-0.13179395819461826,9.31850299548022,7.4320798402810659,0.24043520222130976,-0.4363622368888847,0.34656042080427546,-0.31504360861291147,0.24615647963268303,0.2584402383720224,-0.20758647872227556,5.3406946417450527,4.2376895647133166,0.15478417205457992,-0.15009778212874642,-0.42084539061630927,-6.6476598827280968,-0.010777299987785462,0.51264059882374313,-0.20633686656191755,7.9079521601785281,-5.4510109509602538,-0.286633984341828,37.8113176460632],[0.53074703200980644,0.26605971185095662,0.1296496750551249,-0.695825388109004,-0.23722937197980731,-0.32552765149400825,0.29437454680017544,-0.507592424681263,0.024546192018327972,-0.00818577611423636,-0.20868631684002376,-0.11266229845630427,0.53299638013208794,0.23249418773655864,-0.53585131859951651,-0.13326548108207065,0.20924349945914694,0.24956843368857454,-0.13941180142386403,-0.03081209629923257,0.42608151648342091,-0.32520314396313,0.35498318628485942,-0.22213111239323602,0.33281198445420163,-0.19363394959725028,0.011834922985416829,0.0834056212569242,0.31388147118024129,-0.29577945894515029],[0.38950852398445385,4.2843906148695483,-0.012568909325759244,-0.091333973879333979,-0.23164406079864872,-2.05969870772608,-0.73501677029696988,-0.51605852137246255,12.474635073550365,1.3629449420888071,0.031453717260962716,-0.07944559653669038,-0.0040252241464760127,2.19345703169138,0.18037306185119834,0.17777851204021361,-0.25624053151629123,43.8654573483195,6.3009091763707952,-0.23879793281155554,-0.18449972763737779,-0.23458710285226447,15.919762119247677,0.25362882455594021,0.72164134143022962,0.0980655712783529,2.316956950723474,3.4399512706372133,0.45087406711409539,39.119871429796717]],"ActivatorType":"LeakyReLU","GradientAdjustmentParameters":{"Type":"Momentum","LearningRate":0.001,"Momentum":0.1},"Type":"Standard"},"PenaltyCoefficient":0.5},{"Type":"L2Penalty","UnderlyingSerializedLayer":{"Bias":[-1.5194771899987092,-0.0084973316291249053,-5.3729309739269979,-0.011487500021611556,-0.0015267500910735774,0.046282273720410452,0.84914621102478949,-4.46886704589547,0.011108976577177606,0.0029885397898289927,-0.084688516347174267,-0.55299422773850049,-0.24927427518658332,-0.0569292276656843,-0.0057588344750270836,-0.0022321937923214978,0.02036024244405979,-0.07142898802362474,1.6264274017455624,-0.639683073549582,1.5627652893914088,-0.041719903727608004,-2.0950904815157871,0.075646474075772643,-0.0049091246076099779,-0.0072147493191515337,0.046874426740597247,-0.33476042527349825,-2.4097708891549083,-0.069455956767609808],"Weights":[[-0.36867551554924782,0.022791310743468494,0.082826091259724843,-0.65117981037919492,-0.17382268933763559,-0.03227977608933652,0.22556789626780732,0.047095049424409889,-0.062531751136479435,-0.23058672275760664,-0.020536839785331849,-0.19939659212813446,-0.15623099331183044,0.034455790533193767,-0.0810443302606792,-0.023782309199515558,-0.17427608345879114,0.46893938366370408,-0.5855975493432628,0.17099856275770708,-0.18102652105107378,-0.998830879647166,-0.30961161209816629,-0.1078739867298131,-0.472369347319694,0.14058324965925037,0.18816764616286233,-0.37628186283268988,0.19836136052834721,0.03458648692546399],[0.26771262045324468,0.050506991823528309,1.4058119549731261,-0.81156891862062142,-0.10299930186593054,-0.0684984454463734,1.0224466624921174,1.1816736438347617,-0.54531038409627364,-0.08925931086508869,-1.4657459897826501,0.34562473186772619,0.10031473498479089,0.11127796085390329,-0.35965957379529262,-0.15958981637467715,-0.24242533443470937,-0.62344649706327837,-1.9312031063101036,-0.06498024055269544,1.3251352503768936,1.6873476433838082,1.4089795517155774,-0.44834747922660645,-0.088802934214048765,-0.019273832737680078,-0.38248486866189479,0.024581118093931452,0.54131011388524841,0.21508681240349223],[-0.18847520509702695,-0.10516763191166356,-0.082990868319098049,0.043437894446938012,0.10048847698511616,-0.37783292060140122,0.24678230068571327,0.19329800433766511,0.24920573421546477,0.14642718013440131,0.13411538378763654,0.1105632972968008,-0.034356561194886753,-0.18179931864309096,-0.25084666830327518,-0.03918892186080445,-0.0063793499561800139,0.95226491845607009,-0.38306906211777886,0.21175357871981193,-0.13106745928800384,-1.1912048913855842,-0.017957029137565961,-0.30272029407498247,-0.052585793514126462,-0.35291247420358951,0.1408176003756538,0.079363511185440286,0.18096006627750516,0.21437956071682568],[-0.22397562142272451,-0.19901346581227905,-0.47629486559535494,-0.33102443042701973,-0.019577073151028707,-0.36960759066105142,0.52895070472774253,-0.18178300309811707,-0.036645733436355687,-0.15756343962940711,0.527305662052035,0.38770109585415641,0.32117894673269876,0.13006289677523716,-0.40751248572570647,0.14592923706812591,-0.11091392039916789,1.3482317909475672,-1.0293585771889722,0.41131758974455568,0.18794802938055569,-2.1982249413865929,-0.77240030875780163,-0.51057679720180338,-0.308412264661163,0.050453472850013566,-0.00765647198241082,-0.14138317965710348,0.034389012852233329,0.22022724051594031],[0.16420223479690341,0.10376563738580028,0.175628870695211,-0.078520061399550423,-0.26858278753377868,0.10378913577273555,0.055783483659635313,0.075101306999430448,-0.120591697895268,-0.22465141409252096,0.18465805179783976,0.16170269411785146,0.21277123267296672,-0.21521560490282549,-0.19731709447494961,-0.1062555835130202,-0.24411617116194675,-0.29878563743723291,0.091548681228903056,0.031525924393303033,0.0034375656370490126,-0.087206548431025432,0.12140351873249303,0.052721186173623917,0.0887207712989658,0.16688807065471109,0.045339307839842913,-0.073723503704971383,-0.070978159420898856,-0.022348907115139448],[-0.2252368089335845,-0.00928889356064789,-0.61436005783672532,-0.58077469239151536,0.18993297555576624,-0.23250711131327204,0.35439084208227511,-1.0330923618458257,-0.20234535431621126,-0.029151550273244821,0.36671659154635722,-0.49757689464312577,-0.48164382976523312,-0.098655165855759411,-0.44227974582411617,-0.1355481335803615,-0.45354527288701968,0.72129815421893739,0.54521797866746813,0.14000835475510925,-0.36256638282283926,-1.7829679142467492,-0.93637164688273733,-0.18310331677731903,-0.080607133735358022,-0.11045913307800248,-0.12131462237347233,-0.44226282341816342,-0.435219427881011,-0.025956860851374264],[-0.034086898400442954,-0.37293280347036473,0.13786914594674143,-0.2473442268796654,0.17155451657561258,-0.095190564124803145,0.10160840693331207,-0.20286696427345413,-0.16406916511846828,-0.50893109857368934,0.27968742087020787,0.30975640622891137,-0.063695400125879348,0.0788758947357456,-0.084345952739904959,0.048477891203017133,0.31156139274360722,0.23559285231445515,0.14611431687884133,0.034870353786599285,0.080298012557506113,-0.56911312617168164,-0.2293263951140222,-0.10424058554220307,-0.094002451281987989,-0.49676546291851653,-0.10504289866799335,0.2877288359237743,-0.19760956467278654,0.26153898067935366],[0.037910370343246624,0.16317264625269465,-0.10517384124165663,-0.2677255150067363,0.035164255625019528,-0.093484446551673345,0.34061792106154182,-0.098781429922662409,-0.091435762711742974,0.14241236251774669,0.09681993073894779,-0.094933410252580175,-0.18049418392732936,-0.2379289050816687,-0.036896222589406162,-0.12539845260825547,-0.01849052903382933,0.28362253040904561,-0.11142086141168694,0.0430448554579691,-0.18249914991122007,-0.79533215778172162,-0.086457015498594789,0.11611394411114359,-0.43105342724640627,-0.34692281717398205,0.092007663779929222,0.33713879587695023,-0.17366604542866543,0.13430110546162974],[0.14758266505249107,-0.19144621984104318,0.81070045651460576,-0.40970176467548014,0.19331678536016508,0.27455653177748285,-0.718287936563824,0.19696872418633737,-0.42577471544369627,-0.11091481829176468,0.1978346520471401,-0.39711098787393956,0.19697155471466543,-0.14909689843807325,-0.15354759216847216,0.022082091064017595,-0.45888763010435424,-0.615558058986879,1.1567948525606935,-0.7116557967338345,0.43897261820920935,0.2320611887432546,-0.40480453096635188,-0.23340907111818707,-0.38280084048222285,0.18550587200291538,-0.79010420374403978,-0.412084781645139,0.13557579469561248,-0.058244113335427866],[-0.052958817971156924,-0.028460220369487133,0.750285298910534,-0.24779656506682657,0.10091140221283779,-0.20918546862772916,0.27498443439652442,0.76762057764548974,-0.21276402406896133,-0.11075798537068726,-0.68719524236220186,0.20152689640675708,0.22627066040429952,0.092745663236435391,-0.16867156440189338,0.022039541012115475,-0.1137175801490124,-0.10229877161287067,-0.90664435437774948,-0.0639885457696827,0.35650413738505854,0.0023805398955565808,0.58422994832812136,-0.20556035953668395,-0.093796079728206,0.16217198609824235,0.20195692760106621,-0.21395881452054064,0.45888206297602896,0.0792165821833088],[0.08900929039101714,0.34604830586079877,0.092095306266746335,-0.15548039174056855,-0.064711358211806819,-0.33274330529996882,0.36032010575397455,-0.24741937687801974,-0.25197917665989084,-0.17100707960449019,0.25621958582824622,-0.1271719859913989,0.026816840725589236,-0.0027259053175293945,-0.060469535142705096,-0.073252213959392729,0.074864677084642672,0.33015862777115268,-0.53183120858392374,0.31110652236197323,-0.086544916305908756,-0.88705208188307139,-0.3624638477048549,0.30959835982911066,0.32827883212191222,-0.09013723255541603,0.3982791737139767,-0.068696553672348823,0.14067819009760343,0.24068171875293432],[-0.11732903549421554,0.033010197098862555,-0.27337013603500993,-1.5362214548659405,-0.054044247732937027,0.12665341673085725,-0.33046395047815319,-0.030573838689830633,-1.176007293742797,-0.47682883472178689,-0.19664511247775859,-0.36987830774119779,-0.001797685986872763,-0.12423955956478412,-0.591359335414582,-0.094317765614140334,-0.75902333017680124,0.38552025350720176,0.026888426560178019,0.14631789158303696,0.25837098546399528,-0.505950434184925,-0.10337099590049481,-0.43351310569918655,0.11589930918667293,-0.14769398260072328,-0.0047262964003837509,0.099997350980232227,-0.2837970285582353,0.55023666976394947],[0.10496475236249583,-0.057090680868420618,0.29646004307855306,-0.20635058046394286,0.24429829172584175,0.10111547424763902,0.15694646450566752,0.081981020688514039,-0.099635195226277659,0.25964820911579056,0.0947768762392831,0.14951515089203696,-0.092061060381928031,-0.067364373656911822,0.029886144242837556,-0.2203913093240813,0.015182894071597062,0.47880688015074108,-0.10130510198682351,0.080922858597003836,-0.27739932984587307,-0.728460539953816,0.1598841565251577,-0.062326763743770795,-0.038163408108094619,0.2235868748350518,-0.189508903296045,-0.29304396911760494,0.040131929431700658,0.13034860111095628],[0.579534199871822,-0.017373460292438008,-0.022964295181358202,-1.3425677835731635,-0.01051302395885091,-0.20607499271891994,-0.22919130501620175,-0.54925446722605442,-0.35669540474552119,0.0070575966353611987,0.76251824473837637,0.23456989913369566,0.25403434090761,-0.34417818492880842,-0.32264391183598445,-0.10012655939215959,-0.53787775157427486,0.025974943548496617,-0.689576521042994,-0.14253725570177822,-0.605737025249796,-0.16706468499597432,0.88285824404679436,-0.14070225154472341,-0.16718100951881668,-0.19716566515891332,-0.46722353093743746,-0.352354726202906,-0.22439598763400706,0.19852747749566227],[-0.13584919624419603,0.144031309008195,-0.0047608869380801654,-0.0595122837970309,-0.080849458228605481,0.046089205416160753,-0.065936641923213468,-0.10524619910403486,-0.084579418881626872,-0.20753436337758868,0.065112361492426343,0.058367849034238896,-0.49546003608138312,0.17798217511892686,0.011420690569896575,0.0035311027122462723,-0.024744730147694877,-0.38475938207773558,0.22530909571032931,0.25819492839217772,0.13356257538797767,0.35003273050417594,0.020315135452470826,-0.077448311452731636,-0.3560302408394026,-0.2309668882454366,-0.066691817498626807,-0.11894237215721511,0.11703695646229602,-0.015762255783763408],[-0.14454180690955015,0.31887964787387529,0.178886705585595,-0.25905976427325822,0.15763550952002722,0.17819105799544494,0.017424443682629839,-0.031679914048296676,-0.03686134032907961,-0.012211422232176023,-0.070222623665966974,-0.045094130865539511,-0.33604294303198529,0.1139392732668731,0.14909281723601861,-0.1359958439363691,0.0025387352049613451,0.13378419713446985,0.39095952231637315,-0.12201733785729076,0.39890601302859346,0.070465689634175,0.021173566632064222,0.29877694436600227,-0.070687783949247185,-0.15195453547967233,0.1667053217374157,0.19111770001416273,-0.1583355357689954,-0.22331795381966629],[0.068563411276876582,0.077957333110534155,-0.17164244131357417,-0.47402723745054842,0.34196099864759816,-0.13236842988910269,0.1151692537265671,0.03860220375824587,-0.37528252336125695,0.11176235977855696,0.26307268171882525,-0.072718866866231024,0.15430341048320773,0.26219778711870362,-0.13089072922373921,0.12992313178950071,-0.35032709699069037,0.4460559971420987,-0.39288765230797351,0.63997196915807175,-0.012539445809399806,-0.68814044941998864,-0.17102365815143392,-0.42800167349051893,-0.13121193685959945,-0.099983659061111188,0.10189700646387104,-0.0520260076212219,0.13436510060387943,-0.12247490848179592],[-1.0620415317555219,-0.0047833368520004338,1.3378595438934107,-0.34915158242476091,-0.45854366220670628,-0.70674108790970913,-0.56333403886673128,1.5979682345301143,-0.48960478326974788,-0.33338009167619426,1.2301300762440721,0.70389717254905215,0.35336577608845143,0.03441379256552881,-0.21724645896745276,0.019524587051764561,-0.60533509391419382,2.6131919329180318,0.63416485576192871,0.38426167253195159,-2.1798315019486969,0.75485586343684563,0.35287266369131437,-0.21788796342034011,-0.22958581962023489,-0.15932949328151805,0.55348643301654044,0.90829942577666511,0.93955124214192087,-0.25493377820987079],[1.2129000829080296,-0.43810141200418162,0.819750424707296,-0.092069648034627,0.10546078484806731,-0.076383870104943019,0.079691153112961932,-0.63850542580014658,-0.24242164447903364,0.15753579523996641,0.066942436927118626,0.64765779658789857,1.3173654811106372,0.11089285931758758,-0.27774789054312166,-0.170117252424793,-0.10967133587827709,-0.044560198613917135,-0.32442012796936986,0.48705094030392265,-0.28901010240789088,-0.5013265265899719,-0.0157683393883306,-0.1806330965240977,-0.036188236363581192,0.517388301647562,-0.48239526896982943,-0.26450032213372793,0.32184714864350794,0.32299629749345321],[-0.11169325840839049,-0.093074485938799356,-0.1373313789054153,-1.0960078758171106,-0.025434400731533684,-0.12198482797116349,0.18193127834870762,0.19741247800080458,-0.65489551335131291,-0.025162233633259794,-0.051063800590610296,-0.20659386536476018,-0.10467160864595068,-0.050770821995817408,-0.50531985432322857,-0.11018457952000865,-0.10188406370639133,0.023845372252112019,-0.067000477273475717,0.21395166394179449,-0.38919157161555878,-0.13572120026922985,-0.1675744477977659,0.073891175778744919,0.11933067085983545,-0.1161889703986079,-0.37922851908119115,-0.14370185024540733,-0.22322120080104077,0.41049598458302433],[0.13035341251939014,-0.132720051543261,0.018315752583876112,-0.32003690330633877,-0.057389753875986584,-0.0745651871325853,0.17759052877539117,0.095550114231008482,-0.33464386472507557,-0.033317087118814696,0.24963468511054415,-0.088599464157107816,-0.11832310455555353,-0.11872248347905649,-0.1196534292858915,-0.083275548526938414,0.042025060338895852,0.065561068466114966,0.013055842969529949,0.093795357866370763,-0.01691029622528056,-0.37687549269556464,-0.23011603518563492,0.031128825445147817,0.10912885549332944,0.10193691546479904,0.020531163375366323,-0.32868979593196068,-0.23843028374193262,-0.00955103117233893],[0.0166716912637074,-0.16927523653325988,0.19967340224217786,0.0651702781277643,0.04436904439013431,0.082754732984174018,0.1859038072890756,-0.036632513540268474,0.50543524157771913,0.076551361860441258,0.33866387594026792,-0.11244837616888798,0.27284362257629563,0.095308844273983784,0.066704619027291315,-0.17575954718407094,-0.29228441108356823,0.653735169812818,0.20092656922703917,0.2269773481159196,0.12415180126161711,-0.47127587692288797,-0.27947235654226538,-0.0295082841065733,-0.021913777008203746,0.15117097879805427,0.12795955243516488,-0.032046410121359087,-0.14123539168261792,-0.19763732023301092],[1.5265950202586791,0.057808708618311229,-1.2720287154978385,-0.81857189262544294,0.15674883833041473,-0.43973316995443446,-1.4164795549668912,-0.37934624363113267,-0.880995828919843,-0.26376595900595134,1.0930628012507997,-0.074484644418769771,-0.42923390413497242,-0.32825829890748087,-0.69653807019671987,-0.30570560617459858,-0.59869804243442581,1.1249690223070112,-0.63700185485742644,0.18454612284360822,-1.6544862471424675,0.541946306425094,1.0297234840194569,0.27763029456297372,-0.19454494784493231,-0.637739440159293,-0.28260913368778434,-1.0602912691485675,0.69923952041395765,0.043977530840414523],[0.037143655021932051,0.010013004327630325,0.17461283776108968,0.20580081120100505,-0.26783440927372743,-0.289819886895695,0.11403386321545991,0.18184101834221542,0.23477308854285223,-0.13564917938149837,0.034270404063549614,-0.040731696422634932,-0.20644943671186405,0.105407476205747,-0.17080395133366255,-0.10004159767775511,0.23422627321417308,0.34274468118082746,-0.14909442404779869,-0.32602346193317067,0.17427924503149037,-0.64356812642217176,-0.2257082592986133,-0.046611382039751723,-0.030388149680044302,-0.20584822115878221,-0.11455551415294472,-0.11388255526699842,0.057708759850494215,0.10475018410893801],[0.21512137640902956,0.094049894658411876,0.22938196810903394,-0.37439514716354028,0.058526194700103458,-0.037188038621177172,0.3921433094298552,-0.051506866357343306,-0.22032494037520739,0.26597080942595608,0.48346686467152622,-0.057700172726630285,0.24368251707798735,-0.26087691279238706,-0.12816527515556112,-0.21630488128167033,0.2052582982073817,0.66119522576933543,-1.0496030869684609,0.607748770676269,0.32465571838714152,-1.3410875162490867,-0.16206036069087015,0.086767489190531066,0.26033641078190722,0.19734010554388434,-0.02734163947923,0.012358588777300263,0.59245247557372771,0.37743109149829634],[-0.22648854263111573,-0.1010342298990623,-0.2797897081653376,-1.0428335534665636,-0.29879046599017084,-0.048907787843904815,0.630529781511462,-0.076690002210720434,-0.23824928161764267,-0.10684730686842849,0.14313931737006388,0.21720718635286715,0.5456609888974826,-0.31934730126115141,-0.70791260735108785,0.15516995478506079,0.042385201414720346,0.86749299575077032,-0.65756724373857545,0.33874716555367512,-0.20024206276321713,-1.8384027208562919,-0.579895120535939,-0.17010244045031953,-0.14411543697104107,0.10136555792670852,0.11029161713050829,-0.49198883366115781,0.38547000985610363,0.19083199911538171],[0.10384391912083382,-0.23323336587217045,1.2353538825457544,-0.36419972599884037,0.0069406714897725878,0.081235841225595809,0.15535539737284781,0.79434025184514467,-0.76866087001415617,-0.018018697647866622,-0.400903256951442,0.21318327009422874,0.094350190921964117,0.046151389058067226,-0.41046949311770303,-0.10523102773558214,-0.154187643458773,-0.41402451288307579,-0.4731823722297655,-0.0096292142553017126,0.40551786656158073,1.1243544149760849,0.75574538671614533,-0.017229940926090159,-0.033358092427924313,0.10541775389654139,0.13448762357318958,0.047467488464864246,0.18322754102951658,0.019777975011096668],[-0.17723918216734,-0.039749876090988928,-0.18683639833481192,-0.91161177479073108,-0.22688224375950522,-0.48800655920782665,-1.484842778699548,-0.63437938881064448,-0.35298584364051366,0.045841119644023549,0.50529642451743051,-0.34864824190030952,-0.37235674540118535,-0.13233982859235463,-0.60227050431321638,-0.29202783120052578,-0.58821506347622343,-0.11898633531510983,0.32996937890450656,-1.566132426417747,-0.777471003707542,0.209596480895244,0.030974380802717135,-0.065457470824228259,-0.16234925185230983,-0.68100105983574866,0.29101323578041727,-0.10089294419800596,0.37532426104818112,-0.18763392859720937],[0.17618251728904266,-0.065240362746134664,0.19077976240788697,0.25758443738267606,-0.2499497923885407,-0.30824793314137128,-0.08981440591092979,0.571838980170474,-0.14250954359711032,-0.37674882395782128,0.35731652610261622,0.22076482472092629,0.15165567172331496,-0.45821727194097894,-0.014869254370118878,0.0802810520993634,-0.033312560624297542,0.33545902098708935,0.025526912228983224,0.33533273726394941,-0.12506219046805639,0.044696121664942468,0.15930849458547478,0.32839130819633933,0.15605021037432543,-0.19175504347739261,-0.1494896859464305,-0.18165192557612581,0.42587708199824514,-0.0262896350086121],[0.21775623910072592,-0.26316229397251434,0.2463242050731311,-0.53690869800863261,-0.17689294988513285,-0.24650405810764375,1.6001581604884752,0.50999235639861,-0.60232255174566,-0.11221307625419968,-2.1040804480314761,-0.19933893709981318,-0.628353929546921,-0.03684218337049372,-0.35042397360274419,-0.47720974307722763,-0.38943585593413527,-0.31232825568836242,-1.9528317669633706,0.2969087120934259,0.87595258264833586,0.7476160492494387,0.7506151239340767,-0.30298236002827322,-0.125673417285821,-0.51701426024663033,0.36159281310717334,0.47520479344275135,-0.17098121315701909,-0.18053508880210525]],"ActivatorType":"LeakyReLU","GradientAdjustmentParameters":{"Type":"Momentum","LearningRate":0.001,"Momentum":0.1},"Type":"Standard"},"PenaltyCoefficient":0.5},{"Type":"L2Penalty","UnderlyingSerializedLayer":{"Bias":[-0.7436928468061742,-1.0293793191847742,-1.1505255035110882,-0.010283932277232337,0.18783954553866292,0.021771956297591172,-0.94985630699082257,-0.62545876452024407,-0.0015992180286594814,-0.265413262783332,-0.84443624317838661,-0.0025740765783697347,0.2791153838878872,-0.059498576729247417,-0.005489605049516795,0.0020703338846213585,-0.3043390000852238,0.0057572382214903586,-0.0014374572048636018,0.040501467557427236,0.50614702471128592,-0.0064928689022191871,-0.66319549529367117,-0.0084979575299962678,-0.41198280246396046,-0.31610918207747962,-0.31122460098613663,-0.0077854748230987824,-0.093004812450810062,-0.60406870494467169],"Weights":[[0.67659839747770412,-0.34221421044424277,0.25424357725609192,-0.10482240496352853,0.35218364950336134,-0.0922518894312647,0.600534300518855,0.27607162142226455,0.23522182931238345,0.026923800627927215,0.27734304827479211,-0.079255865469904443,-0.89374355328005661,0.16869132746103893,-0.16053680624165506,-0.013362993943491837,0.11666565159578692,-0.085058577210196815,0.013220839789694273,0.4128850341771319,-1.0213944789794911,-0.12018607200089342,0.4335726917653675,0.14528850996253859,-0.78672360576469813,0.10104492176123145,0.15631544445184709,-0.1433299533942155,-0.18617444243029477,0.72835339311448166],[0.021300235882735483,0.19631611181441236,0.3179185160575555,-0.059061923054573216,-0.0409253370880512,0.017298464388055473,0.37780079047706211,-0.28075086862779447,-0.19515001214744684,0.22675635009627793,-0.067489715800567868,0.041192356050581851,0.054149991951875642,-0.10406829739022476,0.025565369657853197,-0.24348258926751665,0.073837203217860692,0.17281551781825469,0.047321040292406524,-0.012029997380464182,0.22714056423650347,-0.22900244883908022,-0.041574484947257954,0.020048918032457709,-0.0094038975855866656,-0.10894068045749762,0.16018625563190519,-0.12658014528036385,-0.15343213237462836,-0.18569979486831925],[0.57656680657302539,0.050509502444046436,1.154938329275391,0.1227734080259896,0.083770726170522267,-0.19634309169911215,1.1554957628969278,0.013337285416863574,0.12354304891814148,-0.85112768276070372,0.70342394145032983,-0.19775444985772125,-1.1193019261544468,0.10209726773089237,-0.038342328771699317,-0.19365678659286875,0.47028765460358191,-0.18433162391990035,-0.091663240196061022,0.058203925534745064,-1.0857013614368423,-0.33882810949461994,0.4660497296009688,-0.33018204710957894,0.83451594170854493,0.47265202862419037,0.0088511021614070453,-0.72580350164528329,0.29917962489497962,0.81631147361058776],[-0.5637105265641883,-0.87002942408382256,0.033726521920038104,0.040598612866431474,-0.2455524103060075,-0.33339058602712218,0.524152009170378,-0.19894397404417563,-0.3220279184550951,0.67205493240425351,-0.68136841838777784,-0.13110641403830906,-0.27143215779573876,-0.072294660016884491,-0.54728553577980765,0.19939003056516624,0.31245235616608086,-0.29405864977949858,-0.089737312043344383,-0.952244983914294,-0.38131900448444805,-0.10769305834316381,-0.40801884249066422,0.003430002162960571,-0.0793573113826776,-0.59240650955095764,-1.0880758519185056,-1.2912465387984766,0.26618315347267,-0.22467216887712671],[0.04605423735055867,0.30141758921997536,-0.091198219195037025,-0.15457052196202525,0.16531763595835131,0.039812755870687555,-0.11845766682430668,-0.23077858716765359,-0.19038506138022177,-0.51400384414912148,-0.0527768867397168,0.07567236226835021,-0.098876929071345543,-0.35464425028632385,-0.076434457963235364,-0.15603356796319873,0.0045007134672716987,0.25879181912423493,-0.21388060435560313,-0.050493888185579441,0.124026311548309,-0.28099483159070948,-0.34770292281061566,0.061760894610365775,0.33135887354455806,-0.06086868329334854,0.08739981801819996,-0.12806117701658951,-0.38423489765273405,0.14042567630755234],[0.1624641856001959,0.071169426440692837,0.079043875706421976,0.10354399646041161,-0.17799205228050646,-0.011169909461438142,-0.01492487843188906,0.36101307439160307,0.15098173563125394,0.088666572645825448,0.12587767174439571,0.04916655397975709,-0.088126346782347584,0.33378716849804407,-0.13237610944418693,0.3801244041988846,-0.050808025453128056,-0.19024658659528054,-0.039198762117812973,0.022855843233672461,0.18722709694125897,-0.017583079405995627,0.45850533407451227,-0.037109237867511864,0.45626631310527366,0.23631378254681684,-0.013948252382638264,0.067148089271535691,-0.17194458297903287,0.078767654334606862],[-0.1864504248721546,-0.61585960415111685,-0.5999660708558564,-0.13775036307589711,-0.20210057669596046,-0.12066937585357712,-0.35878967169216347,-0.41534581912625806,0.221973368900966,-0.0582504024278595,-0.69225397053804272,-0.32868066897773673,-0.059622548943177464,0.13346957226722833,0.01309569267355583,-0.079026711997669571,-0.52995398881707934,0.17755361944300033,-0.30943164572706461,0.095250132839674748,0.14063483852120809,0.23547910215778559,-0.28056698977707023,0.010834691476998242,0.12769877873833413,-0.067305938020944978,-0.32252941232165439,0.098076255763729275,-0.30677472163623754,-0.31493248665751089],[0.24784220071427618,1.3126954391472985,0.71122151218371532,-0.34049527599655616,-0.22156623447818805,-0.26895168697781874,0.47083050494580125,0.36018190024373864,-0.36285170844216469,0.24929114632694732,0.52366370362592063,-0.049488241766830018,0.17799840600515815,-0.055249391327011919,-0.14636365109373475,0.24197733535445434,0.76048522655479645,-0.169958663940651,0.020849734227720861,0.079219132837106285,-0.31976828140699326,-0.1879169093048603,0.030625007114529163,-0.15025284960843527,0.18981324555936055,-0.17838547391899659,0.24262239862803342,0.19449870327076352,-0.2770141146397152,0.14246486682436449],[-0.22311732415341454,-0.83791544998834344,-0.14876412141962822,-0.24570226104608309,0.026153811345501203,-0.15883359241691961,-0.13907505115381355,-0.087147472981571189,-0.14347273644890238,0.13939728403178553,-0.46815743413074856,-0.10097226326983445,0.039494736696984618,-0.0928894941672246,-0.78593256073297857,-0.20318258825506042,0.38823061648751345,-0.077696585372696428,-0.025424075014737337,-0.86065264038684253,-0.15080860353592571,-0.13093961341116456,-0.31951546863562919,-0.10345444958475804,0.0272656256899644,-0.77549032643225191,-0.49248239195404164,-0.92703371819970337,0.12408875645900697,-0.18273095218860971],[-0.0011788009678316337,-0.33422118920266369,0.033250770990469705,0.015135917050611517,0.21121734748684851,-0.25570331347577574,-0.149866696338681,-0.081207554591013351,0.0076113911087247604,0.37237815334551061,0.23553317144214228,0.33901368691130546,0.035980317653155139,0.011475783836593334,-0.11978032419171233,0.18870636183269687,0.30682097368867844,0.081370251104812844,0.14052107228672536,0.19827917612526219,-0.0538884100977832,0.006496649521403601,-0.089858675871577059,0.24135416423163589,0.051050747048811483,0.17795872488549666,-0.057598940920512445,0.069068686903506912,0.21393756357376356,-0.08200284715512772],[-0.94373151194374194,-0.61558224674953155,-0.38311522397589104,-0.0076260865542687366,0.3083367777866568,-0.12819931656762804,-0.69565920829001715,-0.68257381543977591,0.080646289863062576,-0.28319719699751833,-0.78433127575301231,-0.2483559738038324,0.079884562438897744,-0.30351800736105883,-0.13360569448163845,-0.10809515968126053,-0.26303945171014481,0.078437303511524475,-0.13286790617295033,0.28059190868921546,-0.0097333689616553969,0.14017828093380291,-0.75231353926729794,0.1120204588575061,-0.5561535483850244,-0.30047266384763749,-0.29006050917566878,-0.2057242778849821,-0.2259524963765118,-0.47756242032790513],[0.036001064811916644,0.016787206408899538,0.0939302006455906,-0.051652644312074933,0.37241885842518696,-0.34406640619138878,0.19104654713919206,0.081023477254609164,0.0021766733987332271,0.037024957772950062,0.14746402371505923,0.3020192889539664,0.14288563671072982,-0.30257369443124577,-0.31038074457325132,-0.2304039197154,0.3425566532149657,-0.11102041473964049,-0.15911811447418056,-0.011102028895038285,0.17689059914333308,-0.024701934405978579,0.19240510617569284,0.18204824601944161,0.13782450971448179,-0.12195555862977116,0.053281301232458438,-0.19793804528724654,0.02901797216815075,-0.12039595209634033],[-0.24944888104511367,-0.17511922677987349,-0.4893623614724204,-0.11161579308916671,-0.042492235589805152,-0.19129476124378825,-0.2216035675208,-0.00895089338945303,0.12320829605944615,0.15981603728774749,0.096096767835214925,0.023470785082261948,-0.05805424116795331,-0.11738688243299424,0.16322699370084431,-0.041621736291766548,0.47472586400920697,-0.04991427893394141,-0.15669621644677362,0.14552281930756431,0.10914306621129187,-0.38353541336725133,-0.048076283872020509,0.047747049851051437,0.11191045214113569,-0.20753504556984204,-0.3361183650007859,-0.71635074358697981,-0.23042217407432086,-0.26596326344424426],[0.044082649223510247,0.0709836384123104,0.073465409185324126,-0.20731840622774173,0.22501117603639723,0.0010048038512133377,-0.30151748602264361,0.23002977332692082,0.15344583767197753,0.10867310196824488,0.073948270709173952,0.062494281637802379,0.20934630304060758,0.0041429261174403993,0.2038687189367171,0.029315021097744833,-0.11420944134534339,-0.41061877513857181,-0.15813961196541831,0.042880088406535892,0.27205239611714543,0.030192145066848777,-0.013783432238083569,0.26771556679391872,-0.08425649648794771,-0.028805211371718223,-0.097580145896075263,-0.26735238015901908,-0.054462035942865014,-0.17799026356666964],[-0.14376232672430397,0.25807113893408562,-0.045292520509106163,-0.18116693378778639,-0.12850224385931044,-0.031037806804365031,0.19356761717365398,0.24905605529874114,-0.10516429965644915,-0.26860858761529738,-0.38995324218504956,-0.18739387882787281,0.19097089939855261,-0.17174793711897102,0.025177959715544908,-0.11128347079249104,0.03609375208476584,0.34897153560763816,-0.038650171846454605,-0.28132006039278662,-0.18405109932963332,-0.061443824219695492,-0.11849987714642325,-0.250315418345775,-0.280007370407253,-0.038077733653008969,-0.18347140216516414,-0.32901096898119087,0.24939210480482257,-0.18353944356339338],[-0.29583369612161986,0.10286075109156347,-0.0024748766507779771,-0.1245943612765557,0.054189109978055115,0.21358839621470382,0.09092646576119405,0.11742148176050074,0.049061280017522725,-0.136473806388059,-0.13785223629904703,-0.10973655059047494,-0.22639840724828556,-0.064106195373518138,-0.1506536495650935,0.19675900449896092,0.31607036997423466,-0.034890644675955505,0.0035190398132386972,-0.21460902374897661,-0.21648107658822238,-0.03119998489815462,0.1648377017926278,-0.21545978154932,-0.26792570937067778,-0.40211792073921121,0.054847953890747321,-0.23193394224767278,-0.35010994017413605,0.081155686523620124],[-0.50112401137269669,-1.0768913487511107,-0.081835011837458435,-0.11047119066615434,-0.00440727882925371,0.1081083714972831,0.041160665011979819,-0.62193615842271943,-0.2639254509170576,0.45510279209576421,-0.30884738592124705,-0.16096946548541743,0.13039742121716444,-0.025643073270129414,-0.51543040972283594,-0.22324439619647496,0.09285375081514885,0.0066759091868091678,0.087445393650405545,-0.81665002947633059,-0.29335531636970541,0.14839541071890644,-0.43511018902870741,0.0039046211906690483,-0.13879440863510364,-0.5561224151975076,-0.67316000892833,-1.0761462786953671,0.094023987129443931,-0.24050374786096618],[-0.58345988581442887,-1.0101668044999188,-0.590386374823507,-0.033109796924802176,1.6119489118522048,0.21624919321839281,-0.26715377488950037,-0.42658679592546356,-0.091878691004880927,-0.38470397594315653,-0.935212586770722,0.17047913119291003,-0.34094307929549644,-0.0651644463046495,0.0028511964194592827,-0.16111200362348838,-0.10980670446206473,-0.046626881411867584,-0.15155990971638308,-0.18783562178047186,-0.00749681586246728,0.16616715422099296,-0.29951011687363155,0.012154405431210004,0.39714052629721869,-0.027580003254268973,-0.520257484267505,-0.31742077722110384,-0.2812795616414977,-0.23283984317861806],[-1.0805694968103519,-0.29965514312067359,-0.70454005107138007,0.10559931226580642,0.1404182536974711,-0.3325520859348613,-0.17912810100025786,-0.0727634542584556,0.17110561641853461,-0.41281537733907542,-0.81655989505115079,-0.10884627124987735,0.5603943163511893,-0.24229227421356839,-0.25451695211071473,-0.20617481415408362,-1.1920465515730629,-0.075674820121459388,0.096649680777979308,0.2992908257157979,0.33862002023367138,-0.093888117424245576,-0.019853126753496181,-0.15126896349077826,0.10407167180561194,-0.035081467793305759,-0.3399328926249342,-0.33482783038684311,-0.08771514155334538,-0.40265468195038423],[-0.285746417358968,-0.73684366155922487,-0.40654393550862411,-0.24372091287013406,0.065121265343766166,-0.15107514334980587,-0.68098180456271318,-0.90856485354635019,-0.08010738016465388,-0.21393163096932666,0.063722489993921119,0.30412108554030787,0.069989164472217008,0.11514750819827337,-0.080406836549651209,0.084831315864100768,0.24732801181668487,0.20814561476299556,0.0045785827027254936,-0.38105117265309452,-0.17519756205894943,0.20418401509987871,-0.61836673500012163,-0.047753484676063759,-0.33158600432682478,-0.28861716977586316,-0.38638524582593353,-0.517124384149095,-0.062649814532405826,-0.51631958696942482],[-0.2589495521398309,-1.2010912199241195,-0.840375826791803,-0.0261573507335654,0.33238252405016322,0.01378924439387502,-0.2047749946735303,-0.17293437774306456,1.0156596605803445,0.20672348981744676,-0.27031646521609931,0.035915191467664809,0.29626900587058519,0.046405792983353088,-0.079747528395672049,0.057522903930884522,-0.72916074617947724,-0.055748158168525033,-0.40424625108771761,0.130705701132579,0.11861485558987073,-0.17779558567397669,-0.34453254815072687,0.22816432805139728,0.19112845954484081,-0.17864108231913983,0.12937460254401093,0.58595903299627794,-0.595851545538931,-0.69335174199658089],[-0.35163190091726182,-0.3682064063467852,-0.75961641565044113,-0.15810071316668384,0.1041582010981766,0.033062519612856667,-0.54160061319356889,0.91681546705361883,0.044974252006984995,0.12138240988614346,-0.512517887978847,-0.083242527459056123,0.26621020377053595,-0.049348197565762537,-0.26800308328801264,-0.24787886363792075,-1.1529383793306767,-0.18181891819377849,-0.0837329570260881,0.63700880332461762,1.0311201716641647,-0.066728315222215367,1.0639520496282182,-0.28262467529102481,0.50056153235844425,0.85995973155199423,0.38792480395503148,1.1939527991797494,0.053171452992289515,-0.5734708831010461],[0.37903290466608108,0.64973698267382651,-0.53582095585836464,-0.22746972508518951,-0.33656529327342949,-0.20896431391168366,0.071013340954724627,0.56475040448737457,-0.72052829306429367,0.21940996363473411,0.36107597009770914,-0.17904205440482973,0.1489907832350465,-0.29864100335565391,0.038969111574655629,-0.0096947032951310678,0.098717011589891213,0.017711883693711645,-0.033810918896378488,0.44380222496965893,-0.78733987126630844,0.0068784970967509457,0.554967519959387,-0.068531991060909417,-0.298750153543906,0.24165049074146841,-0.02534542822826908,-0.046650685260933286,-0.13215675174852393,0.18138326762178825],[-0.092785006627207178,-0.14938970944379046,0.13494036874268134,-0.020472660197144252,-0.1644571470251637,-0.0867372252418915,-0.35465931821151636,0.50619367967584383,0.026385402804401256,-0.04932131558602762,-0.056677590975848707,0.11223311649638769,0.19827428331964775,0.036275477904657669,0.037122943658525628,0.10125646906519228,-0.12923669002102634,0.14841696466145996,-0.010848555281190105,0.16850617831084613,0.34224631367198433,0.057685533269811774,0.34030685828251023,-0.099703313856497347,-0.16298735337237019,0.097441742974118964,0.18792167302402452,0.13773776805402901,-0.023264779211530355,-0.048005258129716351],[0.17624062539591556,0.055356913643064373,0.10117370911689952,0.22156859943203444,0.036623554865120721,0.062116938669634393,0.31577241400848272,0.31215799151425283,-0.15718374552461745,0.0046047425528149511,-0.23218454668962985,-0.056841592818153076,0.02922879251115839,0.33287557453589517,-0.32007642700766908,-0.33602685607877258,-0.023693047841458623,-0.078613211623273754,-0.44468413738300838,0.041138499286453391,-0.0038342342691389574,-0.095483688159123031,-0.22791845406489972,0.14734006354397411,-0.025917024683426066,-0.030118152263618522,-0.11678612112050874,-0.24383942475458412,-0.10400072521904957,-0.05749689081232532],[0.029032916944493489,-0.357716674875562,-0.014897546597260922,0.0035480082235310744,0.038752191013490193,0.04861122173828307,-0.22481107199227632,-0.06811143960255861,0.1533017286883672,0.24275969852745385,0.36703776148405481,0.057637601410095225,-0.31753994243880607,0.26380952386784545,0.11057651266982967,0.064793220906289084,-0.019248663291079385,0.00071066910647486271,-0.281082105305765,-0.43091688525575739,0.029728180533018334,-0.18483115831301089,-0.34694529949145386,-0.304370416365681,-0.069302209654827085,-0.34097046396118535,-0.38178880296793721,-0.0729572511978714,0.0383747096232164,-0.028727393528666809],[-0.14194450447556253,-0.12157108805133052,-0.11061530936874785,0.21745929297247549,-0.1709271179239632,-0.14920495567080463,-0.35943215788259814,-0.092888177680176862,-0.12065616523204066,-0.23752696052309674,-0.43140750194614291,-0.1086289319067935,0.25084836912814462,0.28931294574598165,-0.1330560632320057,0.056127134669289945,-0.043864572856134092,0.08025569216590922,-0.516002729790407,-0.58683051463852376,-0.07794271808139161,-0.19269666215835252,-0.13740261122917308,-0.28921438657322979,-0.1890647075336615,-0.27410032128525824,-0.057024279218096587,-0.33989902355399143,0.11649114479187532,0.02783634653542319],[-0.22807532658752994,-0.046224164169577808,-0.54395335345143148,0.27766064745198826,0.29299134901185137,0.010709894940002249,-0.59341358789565923,0.0066985345355776342,-0.32112364856205983,-0.84462971903250472,-0.15735813056310466,0.20803486582196981,0.45259897924325393,0.04622312496961372,0.16145132900923004,-0.1069135549737311,-0.086656019090265629,0.11810246458902622,-0.25542208006904388,0.06834039652778609,0.063045051157133714,0.13047913434572922,0.075449125748431642,-0.001997400793367337,-0.14165071628669568,0.10147312583371644,0.42678581362747603,0.19730676537354655,0.01004584028586529,-0.1723785180626993],[1.0227947107522886,0.23041348461884173,0.50494688649546537,0.0054675834100907875,-1.0175169824163328,0.22771520847580085,0.328885840236075,0.15786267409387794,-0.490239093060965,-0.52006480433470037,0.11790051042085613,0.26641635308906109,-0.29010509644310595,-0.15363755391366396,-0.20176149407630437,-0.050433668285420466,-0.059615043637708059,0.45822973087558011,-0.23483221047298078,0.40917753286706648,-0.24752995164680983,-0.0012856415820567981,-0.041830561950445481,-0.0224318459370123,0.54971254654547341,-0.090387852386946424,0.21003531534044451,-0.537374703545447,0.26026547787011606,0.014784969315799338],[-0.0014571342595644141,0.23218986653653767,-0.3052803700038238,-0.28123166256562038,0.13301667100199777,0.16378406926244743,0.21292018541984048,0.1004749129707031,0.27146576977874742,0.22011974441290777,0.038969804307506073,0.0698852807636723,-0.11725641187964979,-0.0051906255667895961,0.11311487077261127,-0.40866144887506017,-0.18412799644226985,0.0096388333786242182,-0.23583299821279311,-0.031031441510226066,0.095524242615169008,-0.002081149009441203,0.18304062836782012,0.10808585597373149,0.24117732916138893,-0.19035622323687115,-0.13917017802837514,-0.13003803800724781,-0.15274843931263835,0.070114884660400834]],"ActivatorType":"LeakyReLU","GradientAdjustmentParameters":{"Type":"Momentum","LearningRate":0.001,"Momentum":0.1},"Type":"Standard"},"PenaltyCoefficient":0.5},{"Type":"L2Penalty","UnderlyingSerializedLayer":{"Bias":[0.10216447671614794,0.01803903562849073,0.074120861837362786,0.012727557448636835,0.021886150367035988,0.11045405752755162,0.029702294940428295,0.013922681533500481,0.13578489082262574,0.027027294903521543,0.10476813731367732,0.046537213370245738,0.0083251500840972482,0.095613450018151067,0.015895522304616185,0.19434054708201959,0.040508516840745162,0.0069872068436270512,0.035044502649733529,0.29176054072468188,-0.013253283453555873,0.011032176598999917,0.023779514075040104,0.02830956972752,0.00065513947282009786,0.15169894667167092,0.095690477043305647,0.047179741004414077,0.019191084739754189,0.19072485210206566],"Weights":[[-0.26188673127093326,0.19138465844102803,-0.2669231077798126,-0.064756852554058913,-0.070267835381412416,-0.15669560087058063,-0.16697329630093036,0.170177083962287,-0.0036100973638549892,-0.0762318754574553,-0.2144355561349349,-0.27426681017470467,0.039487014456249275,-0.24731198033869054,-0.077005496334634035,-0.080425265071430954,-0.0864409040784678,-0.040064124016164479,-0.020013122581496193,0.049786801036809804,0.095046578142962551,-0.12845380044648966,-0.16862072610072729,-0.275710988257977,0.093453905015247113,-0.023662434761304627,-0.11784380865058006,-0.11173575564917342,-0.16172195385100618,-0.10518789972159426],[-0.23906865029513058,0.17224013344402966,-0.28569353479273435,0.068506904228952045,-0.17821716765829154,-0.37640802518469219,0.049868334237601647,0.042147409244105323,-0.84468234522549812,-0.39607795827709469,-0.074166031379802613,-0.072107916980615486,-0.08893408115956028,-0.0060517079605296046,0.13605347059067924,-0.11724138102837628,0.084484012736026459,-0.18077303230679664,-0.07058249287326164,0.34947302710186429,-0.029490468003374657,-0.11554452500831224,-0.20331506667353036,-0.016263788757659506,-0.32963738095511447,-0.034764264489251989,0.092357233274988057,0.21938681802272406,-0.062932030424720051,-0.42909788686670564],[0.30730677665526124,-0.17287224145857444,-0.012999984468156483,0.11963348790534707,-0.28910578965857858,-0.19259947091182869,0.23224917860797839,-0.021607684740620685,-0.60999592566027028,0.087095225251887148,-0.14257073181411997,-0.0073585347038055485,0.050488582158190021,-0.25478197678672648,0.0546919944772914,-0.25095030901261711,-0.31148896525329095,-0.097810113991590342,0.16243607163932744,-0.29154298272254492,-0.19827419139658603,0.1671304840310433,-0.032285102177678909,-0.40511793477642216,0.12004601362862476,0.031782832684035721,-0.07839917976307606,0.065253548792232663,-0.33991556393016714,-0.542451280921097],[0.11568181577856987,-0.13616077559682158,-0.077645410295242773,0.19583650904889263,0.3233148572089089,0.1074924442696356,0.0078676617613475473,0.0076196349552921008,0.039848179215922923,-0.010427119214474907,-0.13314373273006749,-0.12335894737582732,0.0783765880194284,0.10679623447681536,0.10601340258429177,0.15259638143314924,0.065277090969452167,-0.03414763503459977,-0.15076079762300845,-0.031823556033845117,0.087274387498709555,-0.0072610728127225329,0.066726738859127263,0.18828592129505939,0.37679459973490959,0.12462617858174209,0.022112282859073278,0.373981352271583,0.27498742253410069,0.23707422551854615],[-0.23638450110580311,0.026406553796943764,-0.26516717071787738,-0.057814062053153363,-0.063365296450228148,-0.082878617950532751,-0.13047963584871145,-0.12046667778636899,-0.42122829371511994,0.014639204241996152,-0.32099893049796535,-0.28900519548140541,0.15519426822414004,-0.099307687205601847,0.14957861178093246,-0.35827036087531861,0.0055075310059857106,-0.34094797431712354,-0.26555269321046981,-0.036428412888173979,-0.43835330770345549,-0.093378213603386676,-0.27838283490244736,-0.50606524697869715,-0.4262535649386166,-0.17728190273412728,0.2002502044236455,-0.3121839054516593,-0.409295285622843,-0.30496627625233241],[-0.045454800174762985,-0.25469638990977822,-0.31671852624308133,0.4103953733342609,0.043280432737561943,0.16166849592569871,-0.079624120527849881,0.13095609985140136,-0.14967588340138374,-0.1093108366491458,0.29064052319125244,-0.12758783103163179,-0.061058560062654282,-0.21526043506448506,-0.22112010371364249,-0.21949122082935929,-0.2323746705195571,0.049395506851420815,-0.1327302278894951,0.23764427364363297,0.18047739382819197,0.0010893997305322241,-0.35388264155418031,0.0725553485236027,-0.19260561220607611,-0.096234429896563362,0.251277837914519,-0.032598082378178822,-0.050417035592292027,-0.12790625006785725],[-0.14481702742005356,0.023706705233033275,-0.0037358208515690869,-0.2615397783650113,-0.21751338875892465,-0.23548263257524188,-0.16176566188588498,-0.2789359622677276,-0.31617958833367116,-0.31824377705109297,0.14674104046329986,0.058501308924792682,-0.15716722450678394,0.12347805569761639,-0.16126869004991309,-0.15617814752673781,-0.30745751192346027,0.15315342149429817,0.14195213397220655,0.16730065386264839,-0.18142990907141782,-0.049511666089981594,-0.18047203893755304,0.10203847665108212,-0.11136828962184003,-0.41145847619069464,-0.089014830001456116,-0.23554521003839637,0.26962459869981747,-0.42598862012710309],[-0.17911539087638145,-0.255497654437015,0.048106534373296511,0.074504222070810117,-0.40124757557570007,-0.24170046246222043,-0.17983717108810438,-0.27429661708873515,0.34995697636668555,-0.066154412207454161,-0.48421681073801454,-0.6364878406800083,0.03055182840266777,-0.27260097044929577,0.043443515029640466,-0.49776059129967876,-0.25152527115600182,-0.17291855820814148,0.065409658645572535,-0.40646033307314156,-0.22637592964207862,-0.17339293696740343,0.21645555711756467,-0.28570087079416229,-0.003867188702841098,-0.17598022134849,0.087606188979578933,-0.1487983253384973,-0.017502616519247654,-0.29242870845209046],[0.0066905897118654158,-0.24693859923451692,-0.22388943728171537,0.18111586289604767,-0.42311836994808044,0.0094711752170169722,-0.21141882971489689,-0.12859735234831229,-0.72527837390748329,-0.070216667426963447,-0.17084821265115627,-0.449559122566891,0.047879611738138886,-0.26046027928747034,0.081741854587570273,-0.47212981430208006,-0.27059910703601731,0.0765954380176412,0.010112912510762344,0.22802668202074441,0.22389994233484561,-0.51269586174088277,-0.3188879726102169,-0.33535702016481816,-0.14591533476609289,-0.191659443498033,0.014648682503342274,0.091939833705819485,-0.31270194372940324,-0.34432168845756594],[0.37174802286441433,-0.18979203421966007,0.16615678205711315,-0.26042490609188623,0.35736505097055721,0.33787377872592039,0.14710196085876348,0.11175009354427815,0.18061251038903378,0.1052774350224981,0.19159280073712603,0.3257853917715981,0.12348251583817385,0.25884057890908058,0.19261663449265587,0.6283473526743647,0.36043918120638851,-0.12185073352467135,0.10677945804090992,-0.256576998684999,0.43779986387125042,0.23472380312599145,-0.0039534348852355086,0.5813262525713413,0.18103763569811329,0.38816331608569404,-0.042316924382453804,0.070054945165132082,-0.041410004116160165,0.30470360620939191],[-0.18606409558215789,-0.36151733507799483,-0.24449809556974017,0.27812998704277975,0.38137935561248926,-0.32851901114554238,-0.22746704801521436,0.043338952697430544,-0.38589668488138879,0.035502694361688063,-0.027324272508325257,0.17952736342585271,0.058807196889143688,0.013103577154075136,0.13528952449428577,-0.355959054072872,0.0837033280863993,-0.17392528361523585,0.0965377657339578,-0.043346047226931535,0.050106551085474217,0.028821404068371342,-0.13707581789245479,-0.21365661651522055,0.18488746095051692,-0.10810114773605579,0.13784642304657457,-0.069378543796960235,-0.11084600508917276,-0.20298342039525813],[-0.14527511248740133,0.12142754736944202,-0.31718654012172454,0.30333577450660432,-0.096439923488137555,-0.15039416400362837,0.099920680659228489,0.27211811042177553,-0.15831678744849448,0.16960318439330144,-0.1900397581885819,-0.21030554960313644,0.27388144013404037,-0.17627021403805118,0.12359862630685822,0.10432563244122821,-0.10765852872277019,-0.0047906168544205891,-0.094117602212140467,-0.18694238558942639,-0.068310288962093735,-0.11278961664884867,-0.048678640452696195,0.095242649452697475,-0.086586496391691872,-0.10561119410503504,-0.036758643749291,-0.208323444082446,0.043548176528274439,-0.098278581673780674],[-0.27784411504175766,0.059744704401378128,-0.42519438195257331,0.014067487848995853,-0.13350381750225809,-0.15665863680851797,-0.26656151433928427,-0.26365745578380906,-0.30122037669635171,-0.13196254920905243,-0.30804734368701142,-0.34935083735573785,-0.14810914623152663,-0.21656146426387105,0.38083304521441624,-0.22762115600118699,-0.12346742535650419,-0.073993879480740335,0.11601367925898865,-0.4052714656312692,-0.21820738884851013,-0.19742685099608168,0.034367443161977825,-0.019623214478875575,0.27483411597600005,-0.21153804952473371,-0.090458834486299808,-0.23230754267083431,-0.19354999047218124,-0.56660678183530377],[-0.017381254237796691,-0.10560530458297776,-0.13234555973782572,0.0999733720168323,0.0820488544801505,-0.086792593961765932,0.0041581266857345853,-0.018975748600422317,0.055640464947220983,-0.000510291472081158,-0.057557401165988537,-0.077358248731003942,-0.11534346749170946,-0.12979584396721861,0.0447858742155991,-0.27134582770283072,0.10473881651214846,0.16323030060613974,0.27622873589080621,-0.093297793134056478,0.10657659125644053,-0.39702575161415971,-0.079246830755790712,0.23835229922360046,0.093884674482829555,-0.11385551727479577,0.029929762703388072,-0.30827088027535371,-0.098163456524798076,-0.013078779216491815],[0.08148114186400765,0.21467426726123148,-0.0021802796187551225,0.035929019528382032,-0.23186283323795992,0.18426192058933219,0.090440380601763029,-0.14556228161586865,-0.27310968012324965,0.11775482701746698,-0.094595759887879952,0.31546186497480116,0.16060870460620341,0.015386412847680331,-0.36355329578957518,0.063530249737260056,0.24097774216489173,-0.0013159288339620969,-0.25890554758961326,0.090717964511461552,-0.16993902705324673,0.075930163434857825,0.052446136127350489,-0.043675467139973521,0.017879489501997154,-0.1952687909743443,-0.024337004422840064,-0.17232021593515376,-0.066582233543484026,0.035279120824398158],[0.16171973630619979,0.12112364612718472,0.070874702361949329,0.00809663390535285,-0.15920926139920641,-0.047626379437615253,-0.37276189890183381,-0.10467091964631892,0.060837407117710213,-0.13522251426851206,-0.014375908441942311,-0.0056105432817568487,-0.11647996303977813,0.0967433953040949,-0.17948654723347088,0.0020706645244970563,0.0492910383592147,0.10040427832057196,0.28853001825625668,-0.087575018671797511,-0.0054613428413793587,-0.036801089517826929,-0.20383519531624669,0.10482821898563428,-0.022562655933158551,0.0057687002850025709,0.15113184279224018,0.28051590040821145,-0.33176746408669405,0.064127735134275513],[-0.302748251783141,0.091637129229494421,-0.16000411417254465,-0.42819082597442626,-0.47916331156562414,-0.27620724985652156,-0.46591067082947341,-0.75699022848125153,-0.64271802950398549,-0.2848189485560243,-0.36635119871551414,-0.36572946288661723,0.0333140764617145,0.004430079512732072,-0.019141808228004084,-0.5451050489427357,-0.38129446795825794,-0.36813738110789873,-0.39087114907321729,-0.10823462152524516,0.11641393139508115,-0.29216141006121027,-0.21402764381262757,-0.38143795727730812,0.064338348015671593,-0.40343262070112906,-0.32847772990597524,-0.44626132719020556,-0.0094022015638313382,-0.58247425216637583],[-0.16784750625790459,0.38313530022053982,-0.13009879327354193,0.0080804519111839172,0.03620755537229365,-0.095203966065433576,-0.17965985041706553,0.13624468853519661,-0.14991474119447065,-0.10241229596634154,0.019333787642346636,0.072182779054642474,-0.18582346375102038,0.12900489996644077,-0.0963280716970191,-0.091238645691394366,-0.19431416732530268,-0.046189262622079057,0.033158703836521169,0.40006338942917158,-0.10584634075809792,-0.011594747842193323,0.24032437264470191,0.022807207411530764,0.32076278234048572,-0.058505095923904148,0.17042192798968459,-0.020749112069881098,0.23752115451478453,-0.086889004460420249],[-0.096901436767042409,-0.12792253662014544,0.00360444985205738,0.32175335217195272,-0.25703404668122209,-0.032886078766138742,0.025698739061835521,0.024971568576701957,0.15350356302236728,0.10926276970257015,-0.023784283362291502,0.33108905419632373,-0.19926498967623618,0.061358148603896941,0.43518166443263051,0.29821189716100927,-0.28302989522776612,0.39568288173767985,-0.0335792819021557,0.10950119752065986,0.12856584963455017,0.11822946927907439,-0.1177569022277318,-0.31002242811229763,0.16183715714034233,-0.11366012323185104,-0.024079657147626988,-0.37844546238384358,-0.19823269221181419,0.21198513815575681],[-0.055545331899731813,-0.16399698132057033,-0.56598869771869742,-0.049093388112438664,-0.1575380135859229,-0.069069352872172987,-0.026340246675744319,-0.42328232443850211,-1.0029799436621782,0.0094831822385901265,0.14972516480945716,-0.12160122014491301,-0.16372565051450966,-0.17118569895832028,0.00899084001888432,0.0019076475977239738,0.15933439910991695,-0.22663158011296547,-0.0836623117957301,0.079829376820513512,0.089849272297513841,-0.23629026080623639,-0.052994418900262449,-0.19868570309205985,0.055010328474418828,0.19857963823958669,-0.17635905989893447,0.064419400739196123,-0.13687639410088517,-0.55364630728162556],[-0.38118861628445894,0.0094159047671483771,-0.21325570261183086,-0.10298948479348545,-0.14551864115319943,-0.14843599436013863,-0.28458410185904326,-0.06658868920495431,-0.011718948944336713,0.0084405050097548263,-0.389427593371143,-0.088568903014173958,-0.27188150721013049,-0.25807216004323469,0.0072201847558309292,-0.15599701651269818,-0.035671540946616308,-0.19056144877053488,0.048527527408020278,-0.1019699538885684,-0.029956725804141417,0.12680047161316968,0.040865762578673609,-0.2196812804196725,0.21330832490860988,-0.25559317195697762,-0.2682252967897083,0.082865953420125441,0.0721565241752589,-0.17895899684473648],[-0.0937264579923433,-0.11153916973265451,-0.018799953592446354,0.10493897825192702,0.054364551117807122,-0.3818542543563414,-0.46590779867797372,-0.19029624064005271,-0.057282926345066786,-0.21647076919271449,0.059158366662610477,0.15228996966515287,-0.1513103464124512,0.34049915919090779,-0.13608389632255408,0.36028133661158213,0.11440511129672359,-0.045660908593093449,0.06434668221951613,-0.22705888808684052,-0.12571768927599791,0.067256209068016673,0.22895184349001807,-0.09397649190523423,-0.1758719052964309,-0.061663810025146523,-0.20723904268339705,0.05950666614017476,0.17918333496127767,0.03843842750711781],[-0.17027471881211381,0.12154476705827515,0.11769025144017262,-0.042722413182558934,-0.16542135790216919,-0.37414154290952883,-0.054593173267477868,-0.13580034541628469,0.019802786345175155,0.014359831158024016,-0.70629569481792,-0.515728225551554,-0.20885758538222216,-0.30440627895230116,-0.20408150118502413,-0.7480239282223311,-0.3483746748890853,0.014844812588766177,-0.28262128769409245,-0.044240229437552,-0.064119220859266621,0.0068855435270871561,-0.15062209571889351,-0.37934331459294751,-0.1503882401527365,-0.47376975022929918,0.0063664806288664848,0.046088813945885529,-0.11460339858549268,-0.089750962181372171],[0.16712990984556012,0.18842620307056349,0.026455526506011889,0.075651279879277528,-0.13929507605963243,-0.10879177668822557,-0.047129594239276006,0.16874770666678848,0.010504338265885111,0.19017985466994836,0.22349056384374802,0.21002117201226453,-0.43871012267635107,0.12604083006257202,0.02701147911370708,0.048805540486211378,0.1962124803075915,-0.21140500870411758,-0.4894303777329439,-0.1531589104258039,-0.077018190743613144,-0.218882796370333,-0.20655450855289043,-0.041798372469283453,0.15144810228673766,-0.13622214080156755,0.074795508923594545,-0.13975350788427784,0.035946850589260546,-0.10012027820766847],[-0.27519569198753668,0.183234018814654,-0.38712669632051422,-0.30780797191119325,0.2190513461100885,-0.2585435445409891,-0.33819425734672037,0.023650326399462122,0.16515410919422974,0.02417600843739081,-0.3911278885603845,-0.10566475493453291,-0.16889876118551969,-0.18507537942971397,-0.053991411828772075,-0.1176859207399806,-0.19379261471126785,0.12159613647888722,-0.25034201372816378,-0.13393417545819522,-0.0706215407257115,-0.08079927271622607,-0.2266494254744531,0.22945451817204282,-0.010006961351611674,-0.42646320785720448,-0.052000127885950556,-0.22437427929232198,-0.35900129154003291,-0.22618834174776789],[-0.20399529097551389,-0.25793335281140839,0.004624661734630206,0.12189213057399929,0.014169951964325966,-0.25466978191881023,0.032347841152074681,-0.045189438475326839,-0.079325143492850539,-0.21983993124278725,-0.18439545469683005,-0.34024224672235304,0.36463331008691013,-0.14662790805058662,0.11963111082840316,-0.29783864055659831,-0.21619744341451483,-0.0876657132432948,-0.013119103477752412,-0.014847062783622704,-0.11411156733018626,-0.18782370404572932,-0.30020689120380067,-0.019081687250110932,-0.22335053103259198,-0.24371262409611075,-0.087351725490081231,-0.2169645306957198,0.0049744898196735065,-0.449437342695244],[-0.11335127275044858,0.04292196930813319,-0.63124038030012808,-0.036919663192125231,-0.0055631972159007,0.3104798504137285,-0.24521825932969824,-0.081307428351458544,-1.3424175511739485,0.10125291039243259,0.44552997317425191,0.7589589496390915,-0.026097775071399709,0.089735772373858644,-0.18199589134556465,0.084128221012130092,0.28193065480074841,-0.0010333624110406658,-0.17685437591971137,-0.44682563675059983,0.085241742372264173,-0.12496468464227697,0.17790579010557459,0.19216332178542048,-0.036133789147666961,-0.060156851975349881,-0.35788417855002824,-0.11392354190638257,0.068920638744817853,-0.39342127349027817],[0.20775151050258922,0.043467327757388076,-0.43843225055745638,-0.19428902572408585,0.068656085508487827,-0.097271159637030563,-0.063687617361135873,-0.14924921829481821,-0.94590901835674657,-0.045333532712290819,0.19875530417568818,0.23014955616173524,-0.14800571690863126,-0.0585941342029657,-0.11890993160815495,-0.034751714687230179,-0.080650506950686915,-0.0032123904167563233,0.21214861394116691,0.19504605697536137,-0.009448437475151502,0.060252519365898149,-0.33330540292059574,-0.3438597706007207,-0.30192470245270586,-0.024905929105580822,-0.068157009874092775,-0.13168666547541727,-0.12422269297956819,-0.38033330729219583],[-0.026713587922494418,-0.25344673914010218,0.1815682049982052,0.36222508273534937,-0.31936555897593089,-0.065892927847622948,0.044880145233229141,-0.19081719267212322,-0.26484513285819705,0.1900912944118637,0.0084285193886991482,-0.27153882908903876,0.050950869624686992,0.072133160396469692,-0.25097242251681723,-0.18689672076415997,-0.05801789563245191,0.088193032743715066,0.30741583558152147,0.0275163021520803,-0.41030936671015017,-0.083369513792431391,-0.19155551610667107,0.12051954521876807,0.16798642979331283,0.044779341421339887,0.010791075830075379,-0.016595697503001293,-0.024700181975751488,-0.14807882762554137],[-0.22848716866526064,-0.22369722939245626,0.040003930197771,-0.24889659113031876,0.062631701408745508,-0.0207459142932457,0.087025514291320785,-0.2206264223623432,-0.038516852799197858,-0.026158878033638793,0.21442673050589681,-0.093842841124353718,-0.013704066769064802,-0.16939451923930918,0.13158958266777543,-0.34765776600829584,-0.034775662091005251,-0.0021540127426571206,-0.13483430814311903,-0.39733941063433625,-0.030253260234248854,0.063765822495155181,0.066715885817453927,0.097060863856297711,-0.28354284296991827,-0.3777806766334702,0.00233441756430648,-0.053975776926919419,0.051060003422778361,-0.051456615369196775]],"ActivatorType":"LeakyReLU","GradientAdjustmentParameters":{"Type":"Momentum","LearningRate":0.001,"Momentum":0.1},"Type":"Standard"},"PenaltyCoefficient":0.5},{"Type":"L2Penalty","UnderlyingSerializedLayer":{"Bias":[-10.558449017657868],"Weights":[[-0.42296238194060132],[-0.1393385600102697],[-0.523688450688166],[-0.1257838085121781],[-0.30681026774292847],[-0.59664316598263956],[-0.307893442655615],[-0.45243027487291937],[-0.820797292448236],[-0.16380612821348384],[-0.61295152804528208],[-0.63434250476678622],[-0.11156852691543803],[-0.507372808364989],[-0.061263615097489024],[-0.87819518269365082],[-0.41943756212602051],[-0.17109971863934265],[-0.17855346235804145],[-0.2286862997185557],[-0.18673001096377895],[-0.291398931164577],[-0.30615042414812721],[-0.46193478124969573],[-0.23237537282951143],[-0.59008334584580535],[-0.10242367205687733],[-0.25584121362401635],[-0.25099015197742158],[-0.94803126723385112]],"ActivatorType":"LeakyReLU","GradientAdjustmentParameters":{"Type":"Momentum","LearningRate":0.001,"Momentum":0.1},"Type":"Standard"},"PenaltyCoefficient":0.5}]}