{"BatchSize":16,"SerializedLayers":[{"Type":"L2Penalty","UnderlyingSerializedLayer":{"Bias":[-0.012840371664432339,-1.5205321952376536,-0.015282055287233169,0.010290204423260544,-0.014567383080055693,0.390203209717174,-0.0013004164552181327,0.0026916075449183487,-1.4994303181971274,-0.94317746474568587,-0.0069858186181811126,0.01725244732916904,-0.027071561730337132,-0.74323883231287291,0.004004688383675078,0.015550137526907841,-0.010438696484857854,-12.664111114666754,-3.1190756995790663,-0.00035742932197877777,-0.00083650843803395,-0.0025621104118016755,-1.4473780034693538,-0.0083152669526765539,-0.047107820771126865,-0.011130905068159487,-1.1172877182559362,2.8413889680347908,-0.043303468157263353,-6.9741353723418307],"Weights":[[-0.88937602239502278,-0.30576131677706692,-0.66728420728369775,-1.9587084742961385,-0.17116847684360179,-0.89310560969981978,-0.59796946205644141,-0.54210343480055945,1.2178062778878789,0.301113216274358,-0.89750738596362634,-0.35860024101787263,-0.12066152062210767,1.7985763628613802,-0.087851992550281491,0.17278667249329735,-0.4544238388447569,0.76327166909138422,2.3369312937520172,0.27862318663367674,-0.40530077574727735,-0.41086960641436565,0.041263609470000594,-0.53662911274910752,-1.130267057529504,-1.6071017152338629,0.50563669492341445,-0.39080912757002867,0.32822238747101284,0.10866487352846603],[0.46560162584617715,-0.98626541297859027,0.35792455539351453,0.178018078599728,-0.68326772003784986,-0.45139355440773915,-0.083229739026650928,-0.37545640538077746,0.05074697121441276,-0.01276325506426285,-0.68234416480035509,-0.45266279235104268,0.15639037326030511,0.37626549061288705,-0.018248316314318676,0.040198025773470349,0.4196248209771361,-2.389079814573007,1.70477840621874,0.069382825392857853,0.65951814645038342,0.14426652010935614,3.8337346885380539,-0.3548938915355927,0.30051485345334872,0.34749199789500707,-1.9602898786924499,0.49890776938277676,0.070354572977705573,0.51420298041639267],[-1.023171766698759,-0.79432053520448909,-1.2017347282326434,-2.1153201171824789,0.087071517657290862,-0.69437804266541847,-0.017576532568842052,-0.40237948807722934,-0.7097087165387278,-1.0049145862641664,-0.71544757126513436,-0.12607248613537883,-0.90334439387779186,-1.6949638079961298,0.038007243744014527,-0.17886153287945064,-1.0198679920214619,-0.3928800954737805,-1.9360075797255079,-0.37476734452106958,-0.27132715408475083,-0.3870568284355303,-0.036023619439332626,-0.46421828921894515,-1.5881508273590852,-1.5845215812844447,-0.74740097052877108,0.34927729913097594,-0.63182176689520586,-0.19436210664003312],[0.37461380766663588,2.9700988734896789,0.35437741029816544,0.24123395422828955,0.52842392398194282,-1.6863822919542366,-0.041514372989295452,-0.17609178934079356,8.0614494938116721,0.88710515714863114,-0.19811318874647166,-0.10657932844055404,-0.095544675544444138,2.0313851671735885,-0.56393614382174617,-0.05391941675684387,0.61224788099526584,29.689304026969776,4.328322463646801,-0.15450301013037682,-0.012854702085935161,-0.12326636705679581,10.060145986370856,0.44240817466318677,-0.55690474476781171,-0.46891812165377017,1.8074731476365722,0.50621758170022535,0.220315688664823,26.628979003383026],[-0.52621622966476078,15.97866574950681,-0.18988067192004907,0.2988234888910955,0.68068629661194535,-5.8553643780694395,0.021837668998682443,-0.13023992480635221,9.49644570568159,7.4289042679743149,0.243056737690133,-0.435990860453665,0.35015887483427055,-0.22784680109177063,0.24714663194434206,0.25615506754677236,-0.20343611515532969,6.8743728873290291,4.1350010501281531,0.15468460453238123,-0.14883379497315524,-0.41768980951621781,-5.7414009103938337,-0.00915933819390597,0.5193768368227587,-0.2006577605668447,7.9117519238823526,-5.0896270937570476,-0.28174746089991615,36.472564178918141],[0.53113000131953725,0.26597652135345035,0.13005028049658729,-0.69522202140745815,-0.23709842625960853,-0.32526401800931426,0.29450221859000064,-0.50740617580377689,0.030377449467164173,-0.007939536000950485,-0.20836911767535113,-0.11261957983753981,0.53330577197610873,0.23429830958198358,-0.53589914735815869,-0.13346610785724591,0.20950102992462855,0.28116381715862726,-0.13091086015803546,-0.030768211417794469,0.42622059968215548,-0.32505967067062891,0.34536494201037443,-0.2219012930816367,0.33335272802246324,-0.19307933372002836,0.012037443304380942,0.071772644407106123,0.31404644995697112,-0.30526137116756186],[0.42132080351847789,4.1888394801823692,0.023103151353997597,-0.00903312391450023,-0.23321771115524489,-1.976525016147626,-0.71502385741888,-0.49052078901230017,11.041952662492239,1.3392071315417407,0.062476398578889411,-0.06006427368023922,0.011742079751742565,2.1195175616990229,0.17069639119631697,0.17668606057297528,-0.23231647701675728,39.127962861264464,5.9039460288171108,-0.23359352206654255,-0.17080789606290908,-0.21475370142612993,13.87727836945286,0.2708262054812513,0.75743064839253438,0.16208523542668668,2.2596148170251023,3.019407317641456,0.43951716094064058,35.400185813484335]],"ActivatorType":"LeakyReLU","GradientAdjustmentParameters":{"Type":"Momentum","LearningRate":0.001,"Momentum":0.1},"Type":"Standard"},"PenaltyCoefficient":0.5},{"Type":"L2Penalty","UnderlyingSerializedLayer":{"Bias":[-1.2819887482403822,-0.0059442914011893959,-4.56748850551949,-0.010552040433120804,0.00023206876196928906,0.0436230824151005,0.69461375800018588,-3.7859031080694856,0.0083065138508441258,0.00059705829881599888,0.029806211764993391,-0.52993713460203828,-0.37207709831521962,-0.057329671767149405,-0.0059511928205497151,-0.0022823780441232604,0.016536596103789925,-0.28394415010307811,1.3938004033595022,-0.50248351948717318,1.3425764778611626,-0.18608691872158537,-1.7752605402135513,0.030079003634390287,-0.0044179531940903337,-0.028982451009522184,0.080153430260452366,-0.43139655108440816,-2.0292384416776987,-0.0721426256774899],"Weights":[[-0.34553916314063937,0.023583625817137677,0.22124939174133521,-0.66754056101795189,-0.17254352796622327,-0.011123554149679185,0.11171386265945672,0.071899197132906364,-0.067804510507517235,-0.22225969274167182,-0.14246851943007977,-0.18660760206873073,-0.19930820501094787,0.033737952150727071,-0.082371370329293508,-0.024762538694178927,-0.17754044655880213,0.23577903009559825,-0.49220001448469713,0.10682461310390516,-0.12918296314525599,-1.0037220116981123,-0.34364140826032352,-0.089075987575637935,-0.47304044033542564,0.1367697581368332,0.18501319921125506,-0.39990122286708013,0.18624466148128649,0.034772909581992355],[0.24568339924348714,0.052092329143628005,1.4168389125491987,-0.8195494430751552,-0.098791044844709755,-0.061684642183934296,0.94051869142160449,1.1537358043304593,-0.54715155300639984,-0.08469356617321476,-1.4379837402552842,0.34658080558587484,0.090192449813902065,0.11068688258161108,-0.3601144012370367,-0.15985643563731283,-0.24266537730662885,-0.7144591474511045,-1.8611696035267034,-0.094699058762763272,1.3404631626535448,1.4902549300568815,1.3417367601017243,-0.44759554575737448,-0.089233430068555608,-0.013333972297842282,-0.36611253022363283,0.000241523663289556,0.54186294856131689,0.21406220640612841],[-0.16639013280284012,-0.10419972930957822,0.060906366013955347,0.025881441070992852,0.10207471114720038,-0.356338371933413,0.12422723726028777,0.21815913292583006,0.243584867249957,0.15553208312021502,0.0057932892370209576,0.124062512639927,-0.080540828505900747,-0.18262286151605675,-0.25225536925578623,-0.0401988234886218,-0.00977167033766836,0.70772334977998563,-0.28364026107162327,0.14329112685588405,-0.077100924314331465,-1.2051917787917683,-0.0560020053008751,-0.28234148689884025,-0.053323393623634689,-0.35683178687322775,0.14082027863181074,0.053984011383571812,0.17000271143754009,0.21453903581652309],[-0.16366774793172137,-0.19741062964095937,-0.15896931011004664,-0.36719577819026378,-0.01658233807660852,-0.32299520900958617,0.27237147120446392,-0.11139442537780733,-0.048544880795724957,-0.13920231139980666,0.25911801655602318,0.4160586390730136,0.22470529764958039,0.12847381696758514,-0.41048733428261019,0.143741469827963,-0.11852406003206481,0.83274711627297171,-0.825765521967407,0.26891056413946829,0.29872347514170433,-2.175030907714754,-0.83125582844957724,-0.46793835919559629,-0.30988441154366991,0.04210548476871228,-0.019270533498451807,-0.19239040329449775,0.014403572710156094,0.22068582239013704],[0.17021988647666519,0.10322825255899887,0.17976141909675186,-0.078536372651007047,-0.26844706041522037,0.10431386753842192,0.048205845515103381,0.0924732828637545,-0.12092354607214771,-0.22473277260818522,0.17735818355370323,0.16158807722976054,0.21121715161456586,-0.21511760431456015,-0.19737013259869865,-0.10635842374560828,-0.24465038200191513,-0.31329688636030151,0.093322233430803231,0.030050670331663247,0.0021255062594817005,-0.038163559491049534,0.13799304296784,0.054898821490899176,0.088754505165550848,0.16684784023628782,0.031575478842660452,-0.069732040773237677,-0.072465359798844456,-0.022252477922280731],[-0.18071708641640547,-0.0092539997511112485,-0.45391276050747476,-0.59594261994128483,0.18977211907038458,-0.21180715596616911,0.25769822085586336,-0.98019089955415073,-0.20777078776348756,-0.021741953448670883,0.21621361651144816,-0.48335539926388965,-0.52787761130489486,-0.099195173256959437,-0.44362733859368353,-0.13657414981943,-0.45753214589711572,0.49571745063110995,0.61848236520159172,0.081496346343080589,-0.31405650371158489,-1.67105561962789,-0.93118508630099861,-0.15994936984059838,-0.081168822700423165,-0.11735850637307078,-0.13539008246822298,-0.45869790293883589,-0.44366288928526065,-0.025179594798963423],[-0.015337943866889692,-0.37300664936634009,0.1951406019677058,-0.25189087165895097,0.17159145499632522,-0.087575146234040627,0.0665074356733778,-0.17725389263323424,-0.16582828273993669,-0.50689825948183931,0.24151198775795349,0.31375439119177478,-0.07686448325143462,0.07874683059730278,-0.084776063729205986,0.048126417052941808,0.31010626117108636,0.16366123225846549,0.16922604917855502,0.016061167624846859,0.093713907054009768,-0.51948948621223567,-0.21955835860675804,-0.098463497857393348,-0.094153669356863742,-0.4982953552431168,-0.11515987977917075,0.28391665274695266,-0.19719987347183929,0.26168980466935632],[0.0577993635427241,0.16339022045273882,-0.024036512102440392,-0.27608581196274407,0.035705785521470579,-0.082362846955151447,0.28133025717248089,-0.074248372270793062,-0.094322120983996727,0.14653067614919468,0.030806387415729383,-0.088067359944557277,-0.20388974439110308,-0.23826023873160265,-0.037609608653716688,-0.12593826009729575,-0.020500729982919359,0.16176527832104332,-0.066702373418368779,0.010113850121852062,-0.15795051845303848,-0.76444878798762161,-0.090513336988297818,0.12703184466913711,-0.43137663579162683,-0.34928537055078379,0.0857778989322508,0.32619725595085985,-0.17621868523444886,0.13450940735591146],[0.521836336337656,-0.18040673768336424,0.42204662871034909,-0.33312509095234472,0.080978078592871,0.12731458207815158,-0.25363716453770391,0.18840050368322692,-0.37482712513384947,-0.11331038305212783,-0.57554933929019281,-0.37694233684116796,0.0084149461977938936,-0.15019897138861682,-0.14167271840736517,0.041666037482687851,-0.3898655666567693,-0.84739273308736973,0.73454439294475049,-0.96984441608379979,0.52935673928890314,0.11499192381175799,-0.058995390419747273,-0.1849839328900833,-0.38316271727174117,0.24691545187117628,-0.46931415478672051,-0.41233458613404977,0.045948407178259612,-0.019639884476619046],[-0.0701428145696772,-0.027104270848399926,0.76777848430990436,-0.25459696774497981,0.10314516042458184,-0.20375910515746651,0.21830488890382774,0.75208728942746361,-0.21438467404435266,-0.10703794437969508,-0.68485024704425379,0.20301003662731237,0.21539485521433188,0.092299421144807658,-0.16904255502937549,0.021790180956094325,-0.1140396449668646,-0.17459883810196233,-0.86119715069633951,-0.089105681741170312,0.36667271317554351,-0.11146462368235792,0.54194171064575036,-0.2020367507063115,-0.094143676093634679,0.16394528607650874,0.21734737906506937,-0.22752609266455529,0.4641348246124703,0.078645422459086317],[0.11787566740034773,0.34648859815924521,0.21953368986325572,-0.16934537978531156,-0.063585378077414448,-0.31469360071035674,0.26231692770317117,-0.2151546729702809,-0.25664537477050714,-0.16409370294793849,0.14989297495143833,-0.11593059633863388,-0.011420124525181754,-0.003294129894571448,-0.061633490094208883,-0.074124417238405446,0.071746408615812565,0.12835421570345537,-0.45479534865745491,0.25645340543244571,-0.044756194633310022,-0.86166932385997352,-0.37857909420147667,0.32721845421246554,0.32773181082021163,-0.093588539751878336,0.39071302645200623,-0.089248289046227419,0.13384723723709027,0.240977424198756],[-0.10597158488652195,0.033014611606842048,-0.23374947530191792,-1.5402230677970288,-0.053821898440338724,0.13215312280620312,-0.35770003242309778,-0.01969643262035458,-1.1774094812758642,-0.47488324733821558,-0.23234665006806565,-0.36629839310200174,-0.013509365408012366,-0.12437696633549449,-0.59171330191773364,-0.094589103236509334,-0.760033923704705,0.32436063562723311,0.049108784892297183,0.13038290038168324,0.27152057066901064,-0.488280800368559,-0.10560197174438717,-0.42768875588868965,0.11575122936461214,-0.14891331959258705,-0.0088205767433581217,0.093704337611261818,-0.28718728513792119,0.55041038704454748],[0.1124405768017001,-0.056304850102965834,0.3733260550132198,-0.21657015279699576,0.245348990774773,0.11264997428123474,0.086624270211654725,0.092490340226153045,-0.10278943116446766,0.264987507425066,0.0267762543504377,0.15677428653664705,-0.11834527465868001,-0.0678669347020806,0.029109512771362867,-0.220945884160143,0.013421534596128522,0.34276018286678822,-0.045122823251152959,0.042444034707363333,-0.24927675256735266,-0.75256337418076258,0.13413691847713888,-0.0505738572233781,-0.038604416108315616,0.22131974695439474,-0.18479603436944014,-0.30796789914770911,0.037088066447679188,0.13038064743922054],[0.42496569622294078,-0.015187387277012522,0.048182111179515187,-1.34545746024431,0.013651265993546441,-0.19577127307042655,-0.12538452404940059,-0.44479721205898354,-0.35603069704125878,0.010548903710196438,0.77671399830110366,0.2673028884545679,0.23880003813657449,-0.34455281810690186,-0.32242630282304685,-0.10030484998912402,-0.5348300382830079,0.024938253058851226,-0.54766231517025743,-0.052349918371184419,-0.62366279497883659,-0.34597903993826828,0.70388240203141461,-0.13655477209889122,-0.16742513266398185,-0.20942302786180692,-0.428359442161507,-0.38356133266634851,-0.14077611029263118,0.18136987894700771],[-0.1322750702829161,0.14400381557521952,0.002995010318438439,-0.0597781559522225,-0.080927512941740415,0.046882477330159031,-0.069012141296363572,-0.098780503227113639,-0.084742083381472877,-0.20748784705211937,0.063489993032814759,0.058576337933149057,-0.49644870962320808,0.17798752694913045,0.011387427978766965,0.0034949598513685635,-0.024940451131706912,-0.38974602811175224,0.22536010949710136,0.2569721691159485,0.13327059112700665,0.36420866771700877,0.025910822176141556,-0.077109947776333052,-0.35603196538529358,-0.23120454989478079,-0.068867898411918815,-0.11827066448550058,0.11919589459874953,-0.015746065565687292],[-0.158344862513961,0.31908742740790014,0.17227721708313093,-0.25956562393906629,0.15820891404660156,0.17800286698247389,0.015438466907036336,-0.03602526888726118,-0.036860964167682933,-0.011779738593310711,-0.070798341813161941,-0.044860672244500133,-0.33666636523865417,0.11387553908648995,0.14908840399738896,-0.13599154883237583,0.0027457982942554336,0.12949537708342224,0.39521175750964366,-0.11491035968619189,0.39972530599189932,0.04108405921768233,0.0080002115481950468,0.29925629056440473,-0.070728831433127887,-0.15178504960279524,0.1708721515452146,0.18921278889062773,-0.1574814438756974,-0.22347200480674953],[0.0836197553199807,0.078793901503558722,-0.060331937093708,-0.48795880110167228,0.343225435026223,-0.11553340346372823,0.018529279509911612,0.056421836920990294,-0.37969837995125622,0.11900140755148578,0.16286948143658131,-0.062175930773511787,0.11803246865643423,0.26153700867924451,-0.13199448530873298,0.12913106976485472,-0.35294017839290359,0.25380254517396766,-0.31425576246961423,0.58603009365734471,0.029881457617957005,-0.70401813109999667,-0.20300037191806272,-0.4119735573607084,-0.13180190930456123,-0.10308263959194616,0.10322880457785612,-0.071736951319112521,0.1259494798423963,-0.1223762684889548],[-0.97107987979737387,-0.003251493214831929,1.3272452891191198,-0.31643898810636339,-0.42357168809238283,-0.33391865170099078,-0.76430835437653943,1.5010873551563044,-0.46817759778976348,-0.33228733973169183,1.2507761306508958,0.49392359790981155,0.36102785455460917,0.04238178211728947,-0.21458075740491955,0.028442391869274566,-0.57643187521433226,1.5631757880936523,1.360318831054679,-0.025488440814877781,-1.546886061782409,0.7724766197046925,0.16293908459400242,-0.021162997320123882,-0.23026701902583077,-0.05231670275111764,0.40959434300993047,0.728234165218263,0.88476817371487471,-0.22871821125863115],[1.3412158926405282,-0.43506288601998555,0.82639425204264716,-0.084880423210789951,0.0357350085415085,0.0044423862983841156,0.030586491150339113,-0.60373204128385238,-0.23390766228976875,0.16113238219541609,-0.1477577172278586,0.623336894874881,1.0099704882716705,0.11052431476315124,-0.27673010262867775,-0.16864568126967086,-0.095633821323555648,0.06928410889104307,-0.42405807428158548,0.32546352955279628,-0.19461930306454814,-0.5613636764688289,-0.087294236665900207,-0.19026099681928593,-0.037393108945536636,0.35882543378010096,-0.44837855128575627,-0.13960518741350175,0.28142110130322651,0.32783372737818661],[-0.11556404055934189,-0.0927254129256801,-0.12868783301718956,-1.0981503588009551,-0.025077212127683837,-0.12074629311147762,0.16837296469301413,0.19488224831245593,-0.65545237575739679,-0.023921059911511663,-0.061500805446326162,-0.20546668265247714,-0.10973440103615721,-0.050917103814459089,-0.505448534045833,-0.11025910714543259,-0.10204456645740595,0.0017196461943122896,-0.056317493396662963,0.20686517968723678,-0.38525946769146191,-0.15593241865001836,-0.1773268489876004,0.076367416642998148,0.11922114105469817,-0.11661799375216488,-0.37358597659213172,-0.1467720836548089,-0.22211734594893284,0.41044792120863338],[0.14082991036913306,-0.13247982486423343,0.071377281240369808,-0.3254416794136738,-0.0571932387207905,-0.066510408215731467,0.13785265265660995,0.11127926927784519,-0.33647025275159559,-0.030686444178779582,0.21063219695842231,-0.084478603493338383,-0.13222570339644438,-0.11894005538391606,-0.12010494316933024,-0.08362596904341478,0.040781988593381134,-0.012532358495284992,0.042421303247601863,0.07228690009450657,-0.00043641534357718282,-0.36077825356719995,-0.23449255249101225,0.036542417583610091,0.10891773170716697,0.10049347148574817,0.016478966252478897,-0.33396028880831968,-0.24012094979733034,-0.0095286455763586141],[0.031083108793872664,-0.16900943277960634,0.26762364551534368,0.0578205615912033,0.044825943690847664,0.092531144986093258,0.13390965200419946,-0.019282549480903261,0.50296067983168391,0.080275589064251113,0.28089063741877973,-0.10649025460908337,0.25286800384185354,0.094989458593280535,0.066085883462383352,-0.17621280152617322,-0.29392648815689865,0.54843488288926256,0.2414041574089475,0.19782973870550918,0.14715503817657816,-0.45524969002613652,-0.2880533384611218,-0.020635674715052139,-0.022209421044931985,0.14921771354772148,0.12437339053850093,-0.04145338156738982,-0.14527435300958436,-0.19750876780813614],[1.5017784170890811,0.062804656990049765,-1.044066907715612,-0.79473410488374463,0.077573374815931476,-0.19430202715076836,-1.7097766261227609,-0.48326702184201964,-0.86292969307538692,-0.26286233484387062,1.0313312502972429,-0.27018361634016497,-0.25156729048864013,-0.32934492228592926,-0.69483714554187981,-0.30268816591539816,-0.57523712848613862,1.1697607212489998,-0.46113506650627,0.33105714888544574,-1.4596146232034737,0.63393439099408477,0.872794040107933,0.13640603517719246,-0.19546326063368855,-0.60217754067742646,-0.34633915519691066,-0.76427569597631062,0.64928414446519489,0.017070756438218565],[0.050776880621225227,0.010330798811955965,0.24455050207209048,0.19753283254853368,-0.26707444810251574,-0.27930202765850876,0.056974329494889932,0.19378833409748444,0.23208833211868177,-0.13146845320675735,-0.029044154645454626,-0.034087309925867032,-0.22878826288166956,0.10506312156532913,-0.17148299824521393,-0.10054691385626556,0.23253175900728745,0.22239282928796558,-0.10101754440099311,-0.358532565230216,0.20075554260300429,-0.64563736484699663,-0.24280726001936523,-0.036293840675202943,-0.030721117390707157,-0.20767944811745254,-0.11704778922668319,-0.1275462046167723,0.050690133527432936,0.10491361295225221],[0.25046806954910295,0.095324772165509469,0.43626136283619649,-0.39865058163867007,0.060604114583073819,-0.0065043761096637486,0.22095107029254729,-0.0092061713460985378,-0.22817888293185579,0.27832782202452822,0.30940176812075609,-0.039145247458358838,0.1796196637181616,-0.26196704513788804,-0.13012253792453582,-0.21774239020678105,0.20038139883740269,0.3200561695796047,-0.91387682997637343,0.51313428842298514,0.39706789933743381,-1.3447197549300491,-0.20689524582551508,0.11476934111945226,0.25933735936240282,0.19175258254551117,-0.030841655814988458,-0.022230799803192688,0.58078181046848831,0.37766731328690128],[-0.17709550956004222,-0.099861470665566346,-0.02968550886026276,-1.0706327732593277,-0.29675150154973223,-0.012284753551456187,0.4334527660299955,-0.017127476998454502,-0.24745982896535737,-0.092869515381037451,-0.064681354661130119,0.2391010084459391,0.47126977784823981,-0.32053611360365614,-0.71020992680548678,0.15345956446433973,0.036398522738977722,0.4693920840988266,-0.5029695666322499,0.22932287493092413,-0.1155595132256875,-1.8046220694877513,-0.61949864263057364,-0.13741466532121116,-0.14523356826804,0.09451000371848961,0.099042562870801265,-0.52976368732601364,0.37141329933007122,0.19121332989738854],[0.075922068465918063,-0.23221576601191668,1.2054316063990533,-0.36766983319832081,0.0096570779019550124,0.079796195670548478,0.12620962287121945,0.75499129958279509,-0.76907473878704025,-0.015595870305693529,-0.3838531790035748,0.21304869613795682,0.090194523487388725,0.045801610725596964,-0.410573236916582,-0.10522453676923763,-0.15355230250836308,-0.44505261870580121,-0.43908790155591804,-0.015221163565157693,0.4076437110542882,0.96676202216168827,0.70278942035101011,-0.014630963114389252,-0.0335942216986372,0.10883581229722739,0.15605765620232209,0.030802720421182012,0.18005408724527613,0.019349240058929011],[-0.031868425425457161,-0.084974880332604225,0.011936959927433792,-0.80788735820941759,-0.21574864475552144,-0.70838843226360371,-1.22566068927248,-0.53383480320144239,-0.3218341907327737,-0.018513112942765367,0.063840884288693611,-0.32034738185449363,-0.45564065879649962,-0.12422504612623829,-0.59900531461296136,-0.28876691441662528,-0.57185142818133738,0.44005217534968494,0.20867409943104576,-1.2752917833772186,-1.038770766557894,0.30305666263917258,0.059492807845521495,-0.11609000663029488,-0.15673497050894458,-0.69180730528421885,-0.19609678401279804,-0.18905473398393338,-0.33718110084189645,-0.1874075424638473],[0.16920089214679776,-0.064678338991253526,0.20699884450848427,0.25323432188086287,-0.24921766602095219,-0.30528704993223249,-0.11593053356253288,0.56045605137559751,-0.14361738851613529,-0.37417519323832632,0.32940676063562552,0.22365549590417788,0.14096534325545143,-0.45850507855629657,-0.015151472844581081,0.08012082324640725,-0.033604471395293371,0.28436615183846858,0.051243599385318236,0.31982394011368825,-0.11214207039542098,-0.0062751363507618464,0.13269414472943206,0.33355450944532072,0.15582869338879851,-0.19245365100573303,-0.13914280943814461,-0.19035218133406764,0.42128667721212615,-0.026320051971389112],[0.10318933893307178,-0.24911220005450935,0.25721947221217428,-0.47569044002073557,-0.24202928937720197,0.04893922076036536,1.4112978834261429,0.524168997102611,-0.56007047925317088,-0.12423111602643104,-2.030343617938283,-0.35420994373250819,-0.5352451427987277,-0.030066119143505043,-0.34266781845443817,-0.46807376466703987,-0.33568580104650825,-0.822543460701161,-2.0739261500831208,0.50963871284069606,1.3488883624781669,0.48114693534714414,0.70378852043278539,-0.15713020276834608,-0.1270322376040724,-0.30954559057529113,0.24525107700385906,0.43780937000951448,-0.16059108450230117,-0.2053437320412545]],"ActivatorType":"LeakyReLU","GradientAdjustmentParameters":{"Type":"Momentum","LearningRate":0.001,"Momentum":0.1},"Type":"Standard"},"PenaltyCoefficient":0.5},{"Type":"L2Penalty","UnderlyingSerializedLayer":{"Bias":[-0.673975646306595,-0.84262454029513123,-0.99853047072483248,-0.010404065604242931,0.093471385596825635,0.020118356122588242,-0.8413573939536787,-0.573424421253882,-0.018092536327153692,-0.18168508460318134,-0.72842187192179375,-0.0022251454055455758,0.20916138209490123,-0.05912161796839991,-0.0055307393134999168,0.0020437502041735912,-0.26609436135982056,0.0055827348633959942,-0.0014062474648912583,0.081773841570702138,0.45021912596775587,-0.00683203351329046,-0.60410277944969637,-0.0084035208695514788,-0.34426814694318786,-0.27152261577945286,-0.28994577044956849,-0.00088900705534099658,-0.051240610469612133,-0.54135243791206489],"Weights":[[0.44383988892347814,-0.37217923856403734,0.16404340742042844,-0.10045665707472269,0.41393154061408349,-0.090796352678245859,0.62874944955813072,0.23741905720379161,0.34501650707954457,0.13996778924658485,0.24094575176294691,-0.0806605044679875,-0.75542746451835163,0.14483897878139368,-0.16115810040669548,-0.013559585574218091,0.030715098525838994,-0.0911859994230233,0.016076908430777231,0.38660223175254049,-0.94682845341688193,-0.13153267710344377,0.36592451884422783,0.15708907382704962,-0.68790660427019135,0.099458245791967367,0.26370927993843829,0.086726629065475652,-0.19144906523308777,0.79182339069652319],[0.026032448613443823,0.19864959288807865,0.31940553130702232,-0.05918639740436811,-0.028244053108768659,0.01726564839868416,0.38119152623606078,-0.26036273434904539,-0.19350240201145816,0.22381946316658813,-0.065810863489693575,0.041244016181782583,0.068547471905958876,-0.10387657046327034,0.025596210718122438,-0.24347440668373979,0.074824837662186616,0.172818636414662,0.047241641913084387,0.0056421026801796734,0.23754349465278321,-0.2291096658005416,-0.015289738320328717,0.020016333987487086,0.001246375454470593,-0.092097150656230822,0.16818908014941014,-0.11332677580818047,-0.15324520320161714,-0.18440581423004399],[0.54268639602148683,0.1264137844656133,1.2388831858849232,0.12920323912348122,0.087689305457910288,-0.18907887347233662,1.0457182459368071,0.021156390888302956,0.13471301124201374,-0.58778721881026841,0.6437876350825823,-0.19182755070570784,-0.94916532283224542,0.12087791306854789,-0.0384685890121055,-0.19337040059686406,0.25860538178813208,-0.18591218467787685,-0.089253316949753081,0.02481651579274952,-1.0359047197018683,-0.337615358526435,0.52835403578191975,-0.32878870862808535,0.71922479678246443,0.49763746971063449,-0.019700872690768808,-0.83517146709802992,0.30388274718327191,0.75804961119098746],[-0.55120656971975268,-0.861882217298399,0.0337278659300659,0.040493038551408,-0.24855695241824857,-0.3337221779979937,0.53054879045089465,-0.18218911791983708,-0.32078609234680511,0.66204332144898048,-0.67747130338735284,-0.13122691522739363,-0.26844004820399064,-0.072150052726398572,-0.54728714561676506,0.19938311024160954,0.31430495280269344,-0.29398331488610363,-0.089786805643216422,-0.9384224585296479,-0.37833102244568767,-0.10762084245075831,-0.38851794612881968,0.0033503344419051587,-0.072393003895255312,-0.57849450786730783,-1.0822395424821116,-1.2818528611384699,0.26680603812778109,-0.22213837122712263],[0.067849898553510257,0.30759375687090085,-0.065479183066553454,-0.15496066258959992,0.15642509647478833,0.03962781882713319,-0.08482457214723417,-0.20601453923906096,-0.20925350118532768,-0.50844566611120612,-0.035173871814197712,0.075631959450543268,-0.11384649331845347,-0.35561886563822259,-0.076451621189908156,-0.15605114933032202,0.032831652316911639,0.25856779472745067,-0.21387117569137745,-0.028800766451972503,0.12042311132264358,-0.2811874291548373,-0.31882503263259965,0.062257831297366374,0.32710378755686514,-0.0388700784500095,0.10226161648569679,-0.10135893270010213,-0.37982223479284283,0.15104827987585248],[0.09556327743322289,0.094671568651369012,0.006163438046018337,0.0994067620231025,-0.30274180761539216,-0.011802652291526829,-0.063669231522204481,0.26195925636531925,0.059845589699150853,0.10224871928982197,0.08322575447131017,0.048610544360317247,-0.092669738156136258,0.3244283059180052,-0.1324125456208782,0.38012566461725106,-0.049277618591884,-0.19029857196757749,-0.038961358610496391,-0.045605681528779564,0.21630740922769334,-0.017543793425438971,0.34299392740779489,-0.0371073376052075,0.38749082440797145,0.15905506713097253,-0.035816891233728859,0.042133583621994139,-0.17468051737708851,0.0217338901880715],[-0.26882364009555376,-0.541906180799912,-0.41962844918874181,-0.13711382477551917,-0.16620992026510029,-0.12186237042748671,-0.29861332895771736,-0.36311251557946356,0.29126346031989708,-0.17349462895198353,-0.54948253124120283,-0.32945645834279658,-0.2830350327887069,0.1052283142057026,0.01306652526130435,-0.079009622757467743,-0.538675164557161,0.17739896312126036,-0.30919294569312433,0.12666170222536391,0.066962825477017068,0.23579687453998172,-0.22021790562346877,0.010891287251705838,0.083409400160533956,-0.024191994562675928,-0.28708945418055709,0.1268045204094895,-0.20775992674169663,-0.028392565179769139],[0.24273212516826451,1.1780169286620397,0.6138448565282415,-0.33560883351747806,-0.24139122519224621,-0.24203308700512624,0.52500964040412745,0.45466039113597795,-0.13846304434192858,0.20795842324764988,0.49340803967771868,-0.031205137432579143,0.089877468629110391,-0.013934075062775371,-0.14645894849449212,0.24219472598525602,0.76110632976598336,-0.17084921253822616,0.022299868336897611,0.092515496478522766,-0.29386263471132651,-0.18511252893249486,0.15733385866366709,-0.15013003277164067,0.19471998515079178,-0.10221422956829153,0.27100218605475046,0.13586799242080261,-0.28493656587453836,0.2277199705571667],[-0.2092987635297093,-0.8277187906099478,-0.14523215760185823,-0.24585930625316674,0.030344040907957993,-0.15918576345872446,-0.13031232916208044,-0.064410082228226292,-0.14116442656197625,0.13112608619327534,-0.46322986750660322,-0.10108697770847826,0.044209250714296315,-0.092728052746243961,-0.78592508859809207,-0.20318719794429366,0.38949544599221347,-0.077612355963882315,-0.025499664269469268,-0.841875480380207,-0.14641313492959479,-0.13085721521231652,-0.29238593690032144,-0.103538575294454,0.039949637136034888,-0.75676483580950249,-0.48458177806572694,-0.91476783105371973,0.12547230320882677,-0.17904524628118182],[0.0023760071994068151,-0.33105796825437495,0.034422233817954333,0.015131715162789102,0.20565321797980943,-0.25586976048393129,-0.14771864446265715,-0.0821041011489309,0.0079429412178000716,0.3705707428256847,0.23686364117320052,0.3389446232393088,0.03179203904835684,0.011430353306928397,-0.11980835145050978,0.18869178447402737,0.30681662974504859,0.081382582160652472,0.14054871475464628,0.19714756725327209,-0.058012120490201761,0.0065079958046986991,-0.093112285478200954,0.24134221696687355,0.0484882102791961,0.17760416547544558,-0.0597433808850371,0.066849169112358164,0.21276641376429775,-0.080957924373401088],[-1.1075218413099668,-0.64342114162649011,-0.23305883950558434,-0.0013595269065030098,0.20752384830331527,-0.13803894407825604,-0.67861060089604086,-0.65652232804578958,0.024186220982301131,-0.22919090283067575,-0.862444771869145,-0.24585949624733039,0.33695724268229521,-0.30286621248008533,-0.13281026662254478,-0.10778596775321948,-0.26487419493010356,0.067660744738657,-0.13344374708748619,0.31646652694008609,0.2238369440246944,0.13265418613345598,-0.67195718273748217,0.11613500263807329,-0.49774620814404857,-0.26702866935690406,-0.19105242506161005,0.050604098861159921,-0.13617842952875114,-0.51648334321109679],[0.007465423753782321,-0.037894891942848112,0.081145663178120622,-0.051386454201099871,0.35191764780117912,-0.34418648190329681,0.17051325842600562,0.047478687145212563,0.10239246073408628,0.035673517065852582,0.10980355786553762,0.30240678322505332,0.14162119475632551,-0.3013064010294092,-0.31036122155384488,-0.23039378106731184,0.26659223365670648,-0.11166215383448366,-0.15907673248368262,-0.037660550793018187,0.17780239730394745,-0.024030348880592679,0.156225692510401,0.18259390434078776,0.11545850151238085,-0.14946119121493626,0.028505832982209996,-0.1911301013354362,0.035597926628367492,-0.1261218823293743],[-0.20674963488209405,-0.22794284727648453,-0.20583484625747625,-0.10279785689716772,-0.070479446299531137,-0.19080126621641644,-0.223767976600797,-0.024595379849115744,0.2568916737567708,0.18747344785322279,0.07278763892991226,0.022690296271839012,-0.058998781942809685,-0.098548839473577787,0.16316828531890956,-0.041620739616688544,0.27675539873387278,-0.051425541687783433,-0.156314742623866,0.14099810261280793,0.10275812468554121,-0.38358130849755867,-0.052482267241138775,0.049923517170304951,-0.056439849790809335,-0.21297556186322944,-0.32289936455819679,-0.52406288364411491,-0.1097905230043509,-0.19903413218868124],[0.046742650746490429,0.0727889652715375,0.073755196749714619,-0.20733144459051994,0.22540334383995461,0.000980533197754331,-0.30032541650434175,0.23389310571450248,0.15417220794381745,0.10661580596363797,0.074989302519719,0.062482126200268009,0.20995384676542608,0.0041898682371428533,0.203870102556271,0.02931441989314279,-0.11394173734593102,-0.410594841790375,-0.15815375678799504,0.046048808777090326,0.27297190637703056,0.030220525785654467,-0.009127189413122001,0.26769469990165007,-0.082643224705139892,-0.025638702778905911,-0.096296787022072075,-0.26512057957671864,-0.054179387875263517,-0.17731778479678828],[-0.13554878596568262,0.26427572228527019,-0.044858863812835208,-0.18125649604194921,-0.13045186011683563,-0.031303470820545395,0.1979720372072501,0.26127373017561434,-0.10496810477417072,-0.2748718252700536,-0.38777570508851616,-0.18749119904339459,0.19375278025462389,-0.17168065803210825,0.025178333617421673,-0.11128757382603532,0.03682662470758024,0.34902670269017222,-0.038686729970005981,-0.27129000489347116,-0.18156504766407872,-0.061382891592654545,-0.10415117144375993,-0.25037447630846715,-0.27425724842598043,-0.027976704877141264,-0.17925074382791562,-0.32256784063750521,0.25022957230654619,-0.18193484150076775],[-0.29072740354457266,0.10657982047372855,-0.0012544057984840607,-0.12466307826067746,0.054889574607395873,0.21339405466429559,0.094510336714312554,0.12611714278857339,0.049398948474480987,-0.13855393931645552,-0.13603123751146609,-0.10980468391705038,-0.22358516112281776,-0.063983084639962051,-0.15065176400058117,0.19675677701985997,0.31638742087126931,-0.034864219516295689,0.003491706496586477,-0.20738625099394756,-0.21489102604728752,-0.03116724201259307,0.175201551342511,-0.21549044256073502,-0.26367871037847085,-0.39488980646599742,0.058078148209502536,-0.22706216917093156,-0.34959652206824848,0.082282429835737608],[-0.48907670714033941,-1.0677178864218222,-0.079250039558558888,-0.11059504907185272,-0.0019936340834005644,0.10773122345262919,0.048907927643292194,-0.6015953642533628,-0.26094136081495739,0.44590762619027391,-0.30413580382657568,-0.16110207716863276,0.13416835999820981,-0.025537646949412338,-0.51542560358282818,-0.22324950438768024,0.094103965126224487,0.0067559167068483627,0.087376533565424547,-0.79991870459197845,-0.28909785884532957,0.14846340150656254,-0.41100217022936897,0.0038354511777486449,-0.12705442167173478,-0.53937645582526139,-0.665772575345314,-1.0646708700811105,0.095427441482129852,-0.23658626150391329],[-0.4486385607259582,-0.51717710760987057,-0.34448771673898659,-0.031244142720244682,0.548628371219934,0.25459385957439118,-0.29755031961040168,-0.584114765477346,-0.082540325065305509,-0.29859645031769627,-0.55562504551468272,0.20213438436480888,-0.36136908571355464,-0.065281004564658227,0.0030227575919712243,-0.16098013570867981,0.12639214625189738,-0.054398643128000364,-0.15104239681458048,-0.35488949887025367,0.064555156731517627,0.16054899267667322,-0.48752037150076388,0.0153614312515212,0.55319434042504023,-0.15151823665355474,-0.47928022122839331,-0.15562847105905747,-0.15977919366512255,-0.18161546795843556],[-1.0640263703574309,-0.34815460303971096,-0.436255359841623,0.0990011441550184,0.0037061163168143479,-0.33695348001540332,-0.021536733380520871,-0.081596775890944467,-0.16968675455519888,-0.3837783699648501,-0.93225961523969492,-0.11024198591178061,0.30072778891218283,-0.23501030321232097,-0.25442872966012942,-0.20604282077155728,-1.0468191310644184,-0.080215230628364415,0.09907816999491964,0.32114814473914455,0.19390062800125732,-0.093928958884336472,-0.0013770329820088003,-0.14990322863549244,0.087395662469026469,-0.018236649474043205,-0.32324553333474948,-0.32093198960879393,-0.06310278444478544,-0.3920375278344867],[-0.23758536123376406,-0.65890650955989483,-0.37143465174813328,-0.24377868373270281,0.012867281655409353,-0.15164559430935845,-0.603370054867947,-0.84706073360037815,-0.089936504797155939,-0.20904413394280919,0.10766607397447119,0.3041165829907112,0.036687870358376971,0.11001123966953745,-0.080404125676440813,0.0848213130812379,0.24782372599731878,0.20800042029161966,0.0044657446086568478,-0.33052507746093357,-0.18194198833859399,0.20423897675225294,-0.54566574477534335,-0.04756050002774697,-0.24659290009435161,-0.23801646602993126,-0.36124784403119942,-0.4713998666017431,-0.060402617214382635,-0.45977947372232358],[-0.31664087304591476,-0.74406481200886188,-0.98624348342155288,-0.03671000887042223,0.15580548435669009,0.0092231054446381636,-0.46405514228329409,-0.0164657849381708,0.60479174675550229,0.31322688272666477,-0.29800506124372239,0.035404811754193341,0.45701306538686881,-0.032926515605609809,-0.079769472370992869,0.057509854601525544,-0.80145201502750418,-0.055649604693531432,-0.40420180290571317,0.2560607024082362,0.14337891855425078,-0.17763495119200692,-0.15493840167335429,0.2281341501438571,0.20177637167565851,-0.04234494249228829,0.19424769139176143,0.67517297737021564,-0.56969587685377754,-0.63429927832282762],[-0.26969869789740281,-0.33984379357959521,-0.87608235804136414,-0.15767292052603549,-0.10745231763286768,0.12108428156846378,-0.59031617853205509,0.85356670072164642,-0.24623940868280647,0.086504783238015748,-0.60483160903144317,-0.04289835321281972,0.2877687276420921,-0.031480304265971641,-0.26852711610864632,-0.24762379782628771,-1.0259951337828783,-0.19168201412756969,-0.077476800165221738,0.52058366428729608,1.0981335168912108,-0.078353764583170879,0.98233019126612353,-0.277746945721658,0.41323461579651621,0.8316009145947636,0.35963727024914582,1.1400584716445465,0.13742577967661437,-0.65508918410932571],[0.32912060774889584,0.46865917138021379,-0.523577113056126,-0.22230923683368306,-0.15816434000633287,-0.15511097238744556,0.022049747003460976,0.563665970029429,-0.45943578245605804,-0.0884575044226706,0.31994349361578911,-0.15358370372330568,0.023331248346143505,-0.29448260581457969,0.038804379643759809,-0.00955884469607678,0.085275921164126148,0.011393869534322291,-0.031501754883072761,0.39505976770070605,-0.7120619297912153,-0.0020819357660131362,0.54312243756565415,-0.062799148406292471,-0.029912962441435032,0.24243461798754468,0.0026080825731785114,0.029665284928768871,-0.09933585326790928,0.2993926590725145],[-0.096187475674020126,-0.14784086042121902,0.13449795592307809,-0.020043956280121615,-0.27486804335778281,-0.089461396998343615,-0.35862500559147364,0.38986459138139951,0.025265343219977452,-0.020626419763002796,-0.056239281970935438,0.11189331867152043,0.11791728226926607,0.036145175220789784,0.0371183622123755,0.10127078603993761,-0.13060329913166086,0.14747942573370027,-0.01066275816479453,0.075727058626992,0.26854202993901272,0.055955465352027854,0.2004824146630749,-0.0997118191998904,-0.21992674444991428,0.0021220768644932535,0.14114150017485197,0.059697859083713792,-0.0318469430513696,-0.051317307125866088],[0.18263838906025889,0.059456937516434889,0.10287840457909767,0.22151819341546136,0.038411620314492884,0.062014706314616946,0.31959028066512285,0.32200249067537212,-0.15483720767260142,-0.0004045681868196135,-0.22969860742083414,-0.056860622706993276,0.0304917410136717,0.33297277116454432,-0.32007327949495318,-0.33602906918169523,-0.023005828252198247,-0.078581641750586559,-0.44471908624897016,0.049197879914603275,-0.0018915763690513043,-0.095461369869976331,-0.2162543737225151,0.14730822610566074,-0.019798499520902912,-0.022039088679570055,-0.11335444796165263,-0.23828089628616039,-0.10340425832495473,-0.055463893072433684],[0.078052257903066274,-0.27092936869137896,0.04905153148252045,0.0057659542698737616,0.082755912781111274,0.048372018636520568,-0.20012673233911307,-0.02360546529091255,0.15268413237959677,0.24110273628987414,0.38404826770241696,0.057537652704287227,-0.31485212489929981,0.26672191416718588,0.11057564351985533,0.064784462464837086,0.057821391279979914,0.000776945975419872,-0.28113880296476806,-0.39205869375468755,0.031617255192684032,-0.18477262397931835,-0.29139174283964675,-0.30439782125428738,-0.049323649913623459,-0.30186565747141736,-0.36300148038981983,-0.0814053811612808,0.070349008587076,0.0025695637955840088],[-0.12943934593076495,-0.14423160583308056,-0.10473144877542699,0.21743048618939195,-0.031798058743327105,-0.1426932162316934,-0.20736237672251198,-0.076422251389411736,-0.075797864226427966,-0.12258268501876177,-0.3355427076028269,-0.099652476541953319,0.077879738577544391,0.29331744549206651,-0.13291930679134439,0.05618918257666413,-0.043742913550266327,0.079873293158335634,-0.51610245583933068,-0.57339874028028015,-0.11342589562749979,-0.1922424113715642,-0.10937900105320651,-0.28927320313983607,-0.19261362415025629,-0.262805952114687,-0.04395038943694253,-0.32921206431597816,0.13518960549075429,0.077092593521705763],[-0.18107333982825377,0.024242498637930984,-0.31746203730041245,0.278241540632314,-0.029649329036352149,0.023247567983816646,-0.43438962176067664,0.044799620507635113,-0.19839897370087808,-0.65698094334439039,0.018358768201460398,0.21887554390258446,0.34260044451474675,0.064752319745059045,0.16157795490879814,-0.10680936111846653,0.055877503525714647,0.11795091343376939,-0.25529552049369553,0.082038268878168674,0.050640270200170971,0.13166383525155936,0.13236440053482435,-0.0020241302505939161,-0.12622111697880051,0.13112789872690772,0.45287410726345845,0.27849907361616161,0.12612363789609604,-0.13506847335068362],[0.93393358638213675,-0.0769782454479667,0.55457043324568844,0.014896822528718838,-0.73099389998806164,0.24936272326916109,0.35673448185951112,0.098636690274352123,-0.29987405155290775,-0.34648221846169608,0.1514923956843092,0.28068405178025879,-0.25761911226963141,-0.12213219992127644,-0.20189406048760769,-0.050358189318194545,-0.091626219670744538,0.45248039416427532,-0.23341431586698544,0.33451256825252884,-0.2605384729288856,-0.0068533413248009316,-0.1094937074349899,-0.017757710106650108,0.46475773285957878,-0.128647177237252,0.25706131166460805,-0.41520856472645723,0.20678141804956429,0.049167606728640768],[-0.00844153847793222,0.23488200997423084,-0.29697873326030638,-0.2811654334566262,0.11138777966479163,0.16355008793293566,0.20459511548181081,0.088131532169976809,0.28005084985772666,0.22966339679485329,0.028150178779381443,0.069738485971591532,-0.11596334471117432,-0.0048495599936230994,0.11311220179212325,-0.40866365631061125,-0.18052568381344294,0.0093659027608404138,-0.2358167029605894,-0.04061726133735262,0.096665736356425863,-0.0020690906775274686,0.16828284788952325,0.10842117388650191,0.23819869174764644,-0.2007231739163044,-0.14242132216114906,-0.14329212591361937,-0.15081754391352173,0.063998310895629143]],"ActivatorType":"LeakyReLU","GradientAdjustmentParameters":{"Type":"Momentum","LearningRate":0.001,"Momentum":0.1},"Type":"Standard"},"PenaltyCoefficient":0.5},{"Type":"L2Penalty","UnderlyingSerializedLayer":{"Bias":[0.097457455338213816,0.016725554841480084,0.068488838428160476,0.011732460108329621,0.0188186792988535,0.10375773684875442,0.026358776631329645,0.0092888089840861762,0.12715948258173515,0.025399330505507089,0.097889498031739408,0.039816083928927389,0.00800647512710737,0.090073647920079172,0.027446778267005568,0.18478848372120504,0.035955248368495014,0.0050559096968523154,0.033055314112642717,0.28940712649889438,-0.015305821115195836,0.0082016027393805434,0.020500830729911421,0.023399775112440079,-0.0019631451987135702,0.14512348877532694,0.094985026770021935,0.044400939988728835,0.016521992964448475,0.18046033751553053],"Weights":[[-0.28243018526350155,0.17991701869886531,-0.27750267115024091,-0.081607083512171677,-0.073146812104591272,-0.18997579473133019,-0.17504050456470227,0.1619121278660253,-0.016647460137279437,-0.087288029264424111,-0.23565561314379452,-0.28887317895591519,0.028129183032176902,-0.26740849054636345,-0.094885050745790941,-0.11325957973475467,-0.10779259147821672,-0.043015200947166751,-0.023510708376717208,0.020658299860053037,0.088907533802526514,-0.12448948186906796,-0.17500988674441395,-0.28094498162719139,0.095092126626424855,-0.054467337886909259,-0.12907444373173382,-0.1222459878317729,-0.16463904740465865,-0.14183507853770994],[-0.2090101919252812,0.18083636077378859,-0.24768904444901529,0.071163575420844144,-0.15532280378967905,-0.338066180649765,0.0733128823428894,0.076187221259227278,-0.78480740217048839,-0.38812546165380629,-0.030747115480496252,-0.0244340277432081,-0.0904386870512734,0.030463560918503694,0.13468861213818648,-0.051978521529285608,0.11316976091338314,-0.16708473385398,-0.05584730494010267,0.35964465589770317,-0.016129227127121882,-0.0919254053306171,-0.18075449327100196,0.02265252427892691,-0.30897111313069842,0.0070626591549474158,0.092206544555404113,0.23876170091648333,-0.043676025887673151,-0.364480140831195],[0.29380093648953393,-0.17947338789163589,-0.020003942065706777,0.11233269122215285,-0.2930949862367398,-0.214245880732571,0.22645253287391096,-0.028323178940686918,-0.62114496469867286,0.080638648032615168,-0.15695706203020488,-0.018399603606007783,0.045265069246935116,-0.26761880798259952,0.0483387130820698,-0.27427492021944472,-0.32675299986841705,-0.099583353222260085,0.15946030206540324,-0.30552948796622759,-0.20430782258370012,0.16763176894329937,-0.038373924888232644,-0.40951924438639892,0.12050938591335517,0.010438607110054487,-0.084136260356531656,0.05822371365193401,-0.34455840628552081,-0.56797175215520934],[0.11383298629012233,-0.13675883059553667,-0.079846507388527471,0.19540251877320539,0.32202899812859964,0.10495390450568412,0.0065421554299295468,0.0057828116704231394,0.036300961121223517,-0.01119611098543891,-0.1357231919157364,-0.12599609680621193,0.077885700335724117,0.10468877390059223,0.10557875164569579,0.1488028183234425,0.063524190781427556,-0.034904854286281532,-0.15154612549493404,-0.032714355633781417,0.086446915188639464,-0.0084917504886762533,0.065399181484246,0.18627200673900637,0.37571606266645285,0.12207934654823074,0.02150163748528067,0.37290225803008381,0.27390782763114779,0.23309212983653455],[-0.19345326906754115,0.057201922393408669,-0.21476201225945257,-0.042003298089874956,-0.035250577773258809,-0.022006519054077106,-0.10024762536932294,-0.080341934282656666,-0.33676560011878987,0.050749953234442355,-0.26305320291626655,-0.23324360311226627,0.22004610899668198,-0.050261794103594049,0.042425204816535327,-0.26944465095029008,0.046265179588903617,-0.32374842109160579,-0.24942257257884951,0.0026608428509140919,-0.42096789032170268,-0.068951055005798026,-0.24990182431267757,-0.46076701713049073,-0.40317159524983792,-0.11697351508504025,0.24259560595336516,-0.28875424786741066,-0.38683633494229991,-0.21178985419797761],[-0.0493258544011812,-0.25592968733761734,-0.32138755023501092,0.40937389232188776,0.040699075097017839,0.156202986632879,-0.082423544647321031,0.12716719629076004,-0.15707966323561259,-0.1108258277335684,0.28514962188864695,-0.13293080941905333,-0.061320846781669748,-0.21978249046493853,-0.22128494639983584,-0.22745229165380934,-0.2361268256653366,0.047844120289807328,-0.13432429966291717,0.23546440128644411,0.17882184534345555,-0.0012508133911561283,-0.3565431097880174,0.068467232937196865,-0.19480199318280647,-0.10169841348677777,0.25017523520920215,-0.034862251778392452,-0.052566632517122812,-0.13637376306509549],[-0.14726131461123043,0.01911063249875675,0.011246986030653742,-0.27385906769021173,-0.20701416287876004,-0.2435329736688216,-0.15612835044642923,-0.26852876688853455,-0.28553403611493949,-0.32193674877839479,0.15106251094456272,0.06962458153162715,-0.16725352215617331,0.12581024499746055,-0.17631151319733268,-0.14957587970440051,-0.31350461232161131,0.16032957407091189,0.14483358185945947,0.16680315858678343,-0.18129897586174071,-0.033022204249471089,-0.17423915698099912,0.12205808572163832,-0.09700677883167691,-0.41924050218580983,-0.0874852120129668,-0.23586747860942578,0.27616835653256228,-0.42129602778718034],[-0.19070466558448859,-0.26106878693754304,0.036569382381787183,0.069824263310338058,-0.38969238409394913,-0.2762192566781958,-0.18500361604400728,-0.27557563880312558,0.35897337349368091,-0.067038997623130536,-0.51758306208517335,-0.64114384495248555,0.03657931455378477,-0.29564882883419735,0.12916992890433751,-0.512805498526871,-0.26911774748639933,-0.17542968927269456,0.064327776928319355,-0.44888028453079709,-0.22736678199797158,-0.15113424242374757,0.21945531238705496,-0.27636021948249662,0.0026876141840237269,-0.20138122715910062,0.085103603514806558,-0.15581794034830687,-0.013910905111410247,-0.32400789722147144],[0.068706480605924145,-0.22917255419709617,-0.1511053260021416,0.19449801144586859,-0.38253513875378276,0.096880970371657965,-0.16771720070303808,-0.069708123858977067,-0.610513704398239,-0.046858393538353846,-0.083035800701823939,-0.36439654541384514,0.057415329374815381,-0.18904184537161425,0.090990981805730078,-0.34631477100283314,-0.21141277889891125,0.10149361413798114,0.035836586192213811,0.26150831449362438,0.25149648213347575,-0.47618877811962079,-0.27710678615110151,-0.27142721479999715,-0.11169417151909221,-0.10529128021196484,0.023390744508468293,0.12708332822445395,-0.27842900695957995,-0.21098299019698549],[0.32110340754115807,-0.20567342392016644,0.10483389504985771,-0.27281535856617983,0.3237675078770485,0.26615857834827755,0.11054862729177699,0.061868198673653181,0.083774700945689382,0.086091173315760508,0.11915757392902283,0.25520984651134987,0.11407591651165241,0.19930870830556172,0.18662890139728691,0.52404231000814072,0.31138915720403793,-0.14257626191867057,0.085803617177925687,-0.28524802508152558,0.41618307275452243,0.20412801713625986,-0.039009432061581958,0.52733819084551925,0.15217417823357329,0.3167939766179495,-0.055912847509072446,0.040217971181207443,-0.06977253972187572,0.19356962115361562],[-0.16941133378473058,-0.36030511677549842,-0.21596904101161091,0.27713885335282479,0.39657729018042431,-0.3064257774561826,-0.21147143341630467,0.064512959497553354,-0.34189109178854321,0.039999235909018181,0.0025012929735881645,0.20906884800923511,0.057158445731027796,0.035835045553501275,0.13479095943363917,-0.31719311412429679,0.098941952452462928,-0.16440935707654683,0.10646711311842159,-0.040345261518762672,0.057407372669318939,0.045806924290581578,-0.12262274895585232,-0.18819416100624004,0.20205038392618827,-0.085179548755029269,0.13724637089835223,-0.058851920900280914,-0.097891759643390558,-0.16245243330280534],[-0.14668443643581211,0.12097967194000581,-0.31886638301449993,0.3029353650042193,-0.097424635241599819,-0.15234302147530135,0.098915148201438152,0.27072720349177271,-0.16103041571783239,0.16902669619557886,-0.19201945215822563,-0.21231871896353102,0.27356304576606333,-0.17788024757057419,0.12383816389348513,0.10143033992368994,-0.10899229018726087,-0.0053742782800988032,-0.094710447570623468,-0.18769930280549332,-0.0689411223329494,-0.11372377724040812,-0.049686471661689276,0.093701921284754963,-0.087415541385981788,-0.10754532975717868,-0.037236174698912883,-0.20913702041746166,0.042728111046268585,-0.10132020600591576],[-0.2690700844068053,0.061931291509402464,-0.41656863208772477,0.015013921273946903,-0.12766633304446259,-0.1448682957669851,-0.26110520233647128,-0.25633764401812043,-0.28637237517396463,-0.1284088171300706,-0.29744227835252318,-0.33749379618925329,-0.148336260936269,-0.20802283926645862,0.29790905575972315,-0.21055292196648398,-0.115414807628771,-0.071174165665341044,0.11997591177827752,-0.40322154548222139,-0.21443024903109517,-0.19134688412535253,0.040755044870161912,-0.011474417874453375,0.28096696043006,-0.19996306278741888,-0.091737259886513045,-0.22741706390254232,-0.18861995121997455,-0.54946627456828978],[-0.00063700131218887783,-0.10073332744458605,-0.11246355688796909,0.10368556338192848,0.093213259327349529,-0.063285017725200274,0.016058685595599111,-0.0026811110793707408,0.086952619088054336,0.0057056256486277337,-0.033699550561644018,-0.05378316147216166,-0.1127694450633956,-0.11043468691244135,0.047649914952825591,-0.23721386481355114,0.12075859488450397,0.17004940691316134,0.28327524497386652,-0.084778663366394225,0.11391141974808063,-0.38667114556277526,-0.067582421723304462,0.25602399046908325,0.10336457252693525,-0.090593220719165757,0.034072865159338078,-0.29857914295001436,-0.088636290798142128,0.023118038960358359],[0.0792193843376253,0.21382575757354685,-0.0048962290438166927,0.035217226266640866,-0.23345522129017232,0.18114053049159642,0.088815210793444829,-0.14781471679705321,-0.27754084914200339,0.11676782786748205,-0.097740358798418137,0.31225115649053253,0.15987739834169515,0.012799022531677001,-0.36374426795610526,0.058859152955491184,0.23883125277406581,-0.0022499501389275159,-0.2598459539073637,0.089423484150765328,-0.17093599357609529,0.074421892372791051,0.050826313027145471,-0.04617011371479824,0.016546880851598812,-0.19838406350702964,-0.025247704718396963,-0.17363397521731785,-0.067890252809536575,0.030371901152350205],[0.15999808920156622,0.12045202661091767,0.0688034013340119,0.0075487173562438009,-0.16042794495214652,-0.050006203437314593,-0.37399764812728925,-0.10639390232151896,0.05745308543994674,-0.13599738643966405,-0.016769295285522193,-0.00806271073540297,-0.11708486281870903,0.094771311418254789,-0.17935325866246255,-0.0014875859571082679,0.047654902173831004,0.099692516674331363,0.28781629803982728,-0.088607635892056516,-0.006217586757892816,-0.037955171926362358,-0.20507080526963134,0.10292562533705484,-0.023578864972327467,0.0033993632542556667,0.15038121872524687,0.27951408943659584,-0.33276077299109968,0.060382490319731912],[-0.27951514343759071,0.098229631534827888,-0.13200899882647749,-0.42322203530844776,-0.46372825813790108,-0.24354242636889642,-0.44921188509551585,-0.73415124249707708,-0.59905214956756714,-0.27627861077372218,-0.33293869191601494,-0.33292808264717394,0.036634463743970093,0.031552795826688081,-0.01550174730981127,-0.49768620519029616,-0.35897520750095091,-0.35867393784731322,-0.38102029947190424,-0.096253543479155629,0.12650067886821606,-0.27781002498878493,-0.19783061040633357,-0.35690830099698,0.077654726221585993,-0.37098239773812763,-0.32349992953805706,-0.43261799631701375,0.0037823308363801617,-0.53191428572220456],[-0.16914861282465124,0.38270987808867141,-0.13166350094428631,0.007800662530430518,0.035295562774845426,-0.096993579032746358,-0.18059203421181908,0.13494781346572685,-0.15244184214679638,-0.10155435555309217,0.017514716351741441,0.07032335023659228,-0.1843326444649962,0.12751214042837167,-0.094750450055676644,-0.093915179925331591,-0.1955415636429727,-0.046734115682130269,0.032606627602246016,0.39941338322680003,-0.1064196233510732,-0.012461064462960079,0.23939649005877658,0.021370672011250785,0.31999364433662908,-0.060288352413781846,0.17107158154116575,-0.021505185165793892,0.23676336031786305,-0.089702916859383239],[-0.098227003035801425,-0.12844935690137094,0.0020227081479816068,0.32142508997199443,-0.257986030876768,-0.034708996417971157,0.02475378433164337,0.023628487661167628,0.15091779922295054,0.108660918312648,-0.02563194267971557,0.32917268483222206,-0.19972391240061677,0.059836558064387639,0.43560130744076053,0.29546853199836137,-0.284288482004901,0.39512891027090052,-0.034135997064924553,0.10876012152001043,0.12796602856799835,0.11733051621429748,-0.11870606757211001,-0.31149761943510296,0.16105602867389435,-0.11547768796894407,-0.024560486810152077,-0.37921124724522592,-0.19899976181797649,0.20911044340372476],[-0.041688940041137261,-0.13941586808121373,-0.5457945620355289,-0.010269820067081195,-0.12958604263298629,-0.062535914084521929,-0.013570702132100663,-0.40138252068922059,-0.93956515928003537,0.0489659923717598,0.15400646435867832,-0.095193571275486,-0.089720793799284521,-0.16330423601628244,-0.030584057302240578,0.040820132907231868,0.16733560145973478,-0.21840273199513324,-0.078316240958941491,0.10259591311649065,0.0998937645771591,-0.20306276062986572,-0.034145672603014265,-0.16315767550730023,0.074329636723226719,0.21017489676404852,-0.10585434677255615,0.070765123157060322,-0.12259079886273788,-0.52463674382650327],[-0.39443433582277476,0.0093618185222401774,-0.23275219797247396,-0.10934532088237702,-0.15415726099832294,-0.16823612125765983,-0.295543144643162,-0.082669807065871556,-0.037701677995962739,0.0044812697811654418,-0.41382282907481183,-0.11010823974481596,-0.27771153282169653,-0.27721288948815859,-0.055176122606680686,-0.18430452229544628,-0.049158508838909473,-0.19785550923857487,0.042836427199467259,-0.11159306908823556,-0.03633277972973855,0.11966086136896555,0.031624263738165417,-0.23606961447964131,0.20688887511425111,-0.27512250006296884,-0.28416815993039829,0.074400669783636936,0.06393345815027246,-0.2113197696315148],[-0.0952250930421673,-0.11203202005596973,-0.020658208902052555,0.10454255851323824,0.053269653983813808,-0.3839077204722931,-0.46700063397312713,-0.19184398876945494,-0.060295677234947186,-0.21707951062908285,0.057032902717148726,0.150086813903028,-0.14956710751823588,0.33876025178918717,-0.13668698593835513,0.357168602072708,0.11299880056714719,-0.0463147008647835,0.0637043267313264,-0.22747972828119067,-0.12638768298426717,0.066199085127905954,0.22785734564051477,-0.095699404903907243,-0.17679795817648616,-0.0636992565780312,-0.20766191096341774,0.058629858956377706,0.1782910634992512,0.03515501409929625],[-0.17608646137421055,0.12210609538272799,0.1169911509960061,-0.042167400191843694,-0.14454886763985822,-0.4031985869228617,-0.05403934476100105,-0.12794523680025388,0.053192802724029556,0.0202311041864076,-0.73280850350805349,-0.50883341862696108,-0.19571019325903588,-0.32111337545277907,-0.13736269992832839,-0.74722469070020137,-0.36220804974785353,0.016904435743436141,-0.28097758684257396,-0.077114699728646957,-0.061889496692529106,0.039760977515177515,-0.1410275718422134,-0.35596757441251126,-0.13576698784447255,-0.49350823997228721,0.018288652421397763,0.041995088780127449,-0.10563974799175535,-0.1069077175523981],[0.16594651919550987,0.18791739958949122,0.025019004259789895,0.075385315667505115,-0.14020480049900322,-0.11037025042411627,-0.04798213502341072,0.16749544387534218,0.0080981656551678861,0.19064976315358007,0.22186107712819736,0.20822410918362405,-0.43896683587592666,0.12469355888969905,0.02757000116469242,0.046320194622835709,0.19511326811321864,-0.21192896662874758,-0.48994054240473078,-0.15369915214687932,-0.077557447205231722,-0.21979199721074411,-0.20745427096156749,-0.043225029921777965,0.15069397993795208,-0.13780204900894696,0.074332407134585887,-0.14044870191307196,0.035220070359598565,-0.10268006283469172],[-0.27409434931072146,0.21732663721759871,-0.37714971911383782,-0.32648820023465924,0.23775335848058049,-0.266738020392383,-0.33442647769345252,0.0427752097778573,0.20421577989160758,0.020499626675649776,-0.39768458808744689,-0.0890194469253856,-0.17008435088246265,-0.18124195897607481,-0.15608918475922765,-0.099768415123865015,-0.19525695003522037,0.129173249467024,-0.24985061529041697,-0.13241840016689424,-0.069439225641322821,-0.059774059331478516,-0.21956916748808003,0.25868805837042369,0.0010257192123147689,-0.43027915041453735,-0.0042909975403745649,-0.22234161847929604,-0.35484798739332318,-0.21683865585596257],[-0.20332288969740939,-0.24861850478909292,0.0084449015293248976,0.12485067693505557,0.03243280096974599,-0.26839787339548149,0.035284793521899609,-0.034850866213174334,-0.04670327373873831,-0.21472483893124461,-0.19809834294595527,-0.32909502710057947,0.3859845585866975,-0.15306101379465537,0.1177208195795227,-0.28698477417689133,-0.22120720817971451,-0.084288011058780921,-0.01078612824641491,-0.031705961509648974,-0.11062419546066969,-0.16226033131311943,-0.29067160225756611,0.0028704453464244188,-0.21111065108761826,-0.25104187593329597,-0.067847165383522048,-0.21728116569756753,0.012957408760237019,-0.45134464454360113],[-0.12253084538319903,0.03721277153432042,-0.641791968648707,-0.046750262996738109,-0.0046000331707547479,0.29071940909027438,-0.25063657262631561,-0.086079629467261568,-1.3523403820037994,0.095681244386925143,0.42846491187039831,0.75291878277364,-0.036503363724392883,0.076406329518462823,-0.15594948119660179,0.068200961614277036,0.27129945851448189,-0.0039068677265282166,-0.17810230783682446,-0.46862909021619004,0.083365711493445072,-0.11951120074812867,0.175791037142411,0.19016861874311045,-0.036237736194161395,-0.076182138569131128,-0.37396394844994485,-0.11899078031917429,0.068494185507402092,-0.4164528561119592],[0.20641049841516873,0.039845716402747783,-0.45510004442642082,-0.2038879190370759,0.073856025039320039,-0.11136942483856333,-0.069439954935419324,-0.15507243672939058,-0.9569656511410799,-0.04654101619932207,0.17744063019014442,0.2273333467355485,-0.14011030726312432,-0.073963019035222483,-0.078933892200311051,-0.042483854358658292,-0.08604310379391493,-0.0083713142178411665,0.21268188087969936,0.17163605345041086,-0.005903563242667339,0.069659218860961963,-0.3321327692645889,-0.34778763952112446,-0.30437821488387545,-0.033369045197624646,-0.088446661863755313,-0.13522056144151778,-0.12256187854546695,-0.40045899033399368],[-0.012067528631512175,-0.2492325989900803,0.19983515939901614,0.36514385962959606,-0.30894964127280727,-0.04584132415161412,0.055706583967945131,-0.17577498564379704,-0.23586944518339753,0.19538107200999483,0.029450763390361533,-0.24990861907722983,0.05287876179312586,0.089285144160060656,-0.24798234890197607,-0.15644604268964613,-0.04421632395794884,0.094525218290373914,0.31385735410795568,0.0339993750615575,-0.40397297536174387,-0.0730477251297441,-0.1808272941450165,0.1373983398820243,0.17718913054332358,0.0648087686080558,0.013614848100589884,-0.0078453520954018911,-0.015936348062336275,-0.11616203199688435],[-0.24131840700294246,-0.23210760345047676,0.03628904312562721,-0.25892569711590263,0.060078238515459514,-0.040423031287585211,0.083005109451950082,-0.22691000265751163,-0.043070147371903449,-0.030843963985387347,0.20298544417952721,-0.10435600456860436,-0.020115115260326867,-0.18147646705649509,0.12459231091505896,-0.36837469219770391,-0.049040932147114281,-0.003337077676141032,-0.13698999939215029,-0.41373993131647585,-0.034903411683634679,0.065892811291621625,0.062571349060016837,0.09395027558180262,-0.28113324837481518,-0.39754383483957106,-0.0026947756896856787,-0.060917189783911009,0.0489973336617725,-0.072990921793674918]],"ActivatorType":"LeakyReLU","GradientAdjustmentParameters":{"Type":"Momentum","LearningRate":0.001,"Momentum":0.1},"Type":"Standard"},"PenaltyCoefficient":0.5},{"Type":"L2Penalty","UnderlyingSerializedLayer":{"Bias":[-10.396871399530614],"Weights":[[-0.44363245109153582],[-0.13040048661617551],[-0.54280831001882],[-0.11985109597291606],[-0.29149675401425884],[-0.641066416812629],[-0.32111253702139286],[-0.43784766048574919],[-0.85736747183847983],[-0.1673039994140286],[-0.62901040434987088],[-0.59260568502001809],[-0.078607172447643134],[-0.53153507150688772],[-0.079304319189878972],[-0.91277320586817257],[-0.44654262849084936],[-0.16928695696082988],[-0.17675169394177079],[-0.29131244844714033],[-0.18314801914343734],[-0.24369494142708986],[-0.29360485851604534],[-0.44321156301387765],[-0.23455702664938474],[-0.64473953701861675],[-0.13599978457931719],[-0.26656322236805452],[-0.23516787684813678],[-0.999711426006887]],"ActivatorType":"LeakyReLU","GradientAdjustmentParameters":{"Type":"Momentum","LearningRate":0.001,"Momentum":0.1},"Type":"Standard"},"PenaltyCoefficient":0.5}]}