{
  "BatchSize": 16,
  "SerializedLayers": [
    {
      "Type": "L2Penalty",
      "UnderlyingSerializedLayer": {
        "Bias": [
          0.004215018006784606,
          -1.7696999835679406,
          0.003970733419109168,
          0.14253805070698713,
          -0.04412936063773284,
          0.5640666483866364,
          0.037812079946310743,
          0.03397717159433281,
          -6.842795644499493,
          -1.0754165324265712,
          0.01985521053855024,
          0.06522066351419915,
          -0.05530406297459202,
          -0.8875839872442692,
          0.0027637518176742222,
          0.09250212666149334,
          0.008144170396156395,
          -20.145444868606724,
          -5.389040146588999,
          0.011692270653029324,
          0.013281548842464805,
          0.03353988693796814,
          -2.4660480956416557,
          -0.00810678144411728,
          -0.047672225691012426,
          0.06396161899998794,
          -1.288674946681987,
          4.328575352543562,
          -0.11406790292255459,
          -13.332051258695385
        ],
        "Weights": [
          [
            -1.5770045258686356,
            1.0987027639857558,
            -1.5299202687836662,
            -3.6702883251683205,
            -0.2884063650886858,
            -2.623871725041055,
            -1.0564117691530939,
            -1.1555966458367106,
            0.3430044911848231,
            0.6637488740116381,
            -1.767149680574987,
            -0.5525758643732357,
            -0.360362768692217,
            2.2160832932977916,
            0.06812611663585776,
            0.2723531012388905,
            -0.9299862593828653,
            -0.108131743905501,
            1.3256112377856208,
            0.26176089682665776,
            -0.6010160056492571,
            -0.9143769583035269,
            0.04561315141066335,
            -0.8145502808254128,
            -2.055246375673476,
            -3.0693548985066466,
            1.508289401100191,
            -0.7337930947837192,
            0.4817059430700979,
            0.06502235092988126
          ],
          [
            0.3334705223311349,
            -0.9395070668019018,
            0.1706512180877138,
            -0.08941377035530765,
            -0.8035783369107793,
            -0.7057068176140476,
            -0.19061556780254635,
            -0.5450773844275483,
            -1.8606797638077281,
            -0.09664591305354904,
            -0.8709455472735722,
            -0.5200629083695755,
            0.042910382507013074,
            0.6339179959047402,
            0.04520146141155967,
            0.33070297201637366,
            0.3389442518188687,
            -0.534531786937922,
            0.8581623499563874,
            0.1580632464310908,
            0.61722401749531,
            0.08245143850582287,
            0.7647746818273429,
            -0.48418675082654783,
            0.05432309146172605,
            0.06511578718598794,
            -1.8331813103973398,
            -0.29889061303429565,
            0.03933878878456356,
            0.2142883441095907
          ],
          [
            -0.44911786564533474,
            -2.0850060092983895,
            -0.8484875972696706,
            -1.256872038473868,
            -0.03140961767384076,
            0.0431942236711564,
            0.3076057457932978,
            -0.14214953974409683,
            -0.2249202448638008,
            -1.1751792294063366,
            -0.5105806904814316,
            0.26545392596695255,
            -0.6909920725242505,
            -2.104811169983056,
            -0.08075981914936649,
            -0.36670706095919,
            -0.7960796808032208,
            -0.8547661789499519,
            -1.1471551271574345,
            -0.2981212193637175,
            -0.05641984793801457,
            -0.33128434682674907,
            0.027882273927005312,
            -0.18316392664727646,
            -1.2463533595189034,
            -0.7597274071102139,
            -1.6920009265479574,
            0.5287131241153608,
            -0.8838904570289047,
            -0.2646020739960794
          ],
          [
            0.22170829821688298,
            3.5094693637489547,
            0.17507641540346056,
            -0.18556029978837596,
            0.5019532353130923,
            -2.15534916523668,
            -0.1881707093676431,
            -0.3401609971478416,
            14.906607394336135,
            1.0195095274111685,
            -0.38081983394467905,
            -0.23480583330757007,
            -0.16105073878091633,
            2.491830967372858,
            -0.5176277262984095,
            -0.03528005281808211,
            0.5122004429734683,
            40.96328228426274,
            6.621582720014336,
            -0.14749541330403385,
            -0.08805419153177026,
            -0.22903502903924772,
            19.69363990520776,
            0.33527066753275353,
            -0.7594204952683974,
            -0.818084937927978,
            2.1732775202358026,
            1.8699327894935804,
            0.3109340485155254,
            42.20319061573886
          ],
          [
            -0.5266602234549751,
            15.866813668023836,
            -0.2038128854443041,
            0.355965322461872,
            0.6449750520523228,
            -5.773187150974407,
            0.0463037944273384,
            -0.1262114711226895,
            5.1751640006301525,
            7.36132093471826,
            0.24714589649791258,
            -0.4108020823783774,
            0.3156789572281235,
            -0.48956862613959745,
            0.25713258927512106,
            0.2476611756580944,
            -0.20701352375993695,
            2.0508596514317374,
            4.386315592705533,
            0.14153997750300196,
            -0.14251082174980786,
            -0.4026784165510326,
            -12.564466397833076,
            -0.021895610915886522,
            0.5018551457821109,
            -0.17442594754627166,
            7.806179047712795,
            -6.796996053052236,
            -0.358734612284239,
            37.43548244950136
          ],
          [
            0.5292911451473836,
            0.26707671653331405,
            0.12793792614418206,
            -0.6972670479343899,
            -0.23854094901922065,
            -0.32641635209517283,
            0.2936623735157928,
            -0.5087926340227789,
            -0.04467644721031965,
            -0.010262025679843372,
            -0.21026214132935986,
            -0.11286188021356822,
            0.5313011447675233,
            0.23551231055468477,
            -0.5351957857075937,
            -0.13059353661757117,
            0.20856113231844683,
            0.17438124516597003,
            -0.16934477872344547,
            -0.030364305984426198,
            0.4255753098374227,
            -0.325467021844218,
            0.40312788237900776,
            -0.2234953361348624,
            0.33022806648004727,
            -0.19586682844960943,
            0.011385862502836758,
            0.1323539522043419,
            0.3129335781352685,
            -0.2702950212671204
          ],
          [
            0.20298425389092142,
            4.93333722253843,
            -0.2324319189133455,
            -0.6054756071689197,
            -0.277150543868235,
            -2.627326334249805,
            -0.9208551225422097,
            -0.7223399820061494,
            20.216416519756912,
            1.5123594689020041,
            -0.19807265217008665,
            -0.23837903767793545,
            -0.08886467437563408,
            2.6086983214513317,
            0.23940344668070077,
            0.2008393822091546,
            -0.3732220928207564,
            54.67559618030908,
            8.591274223152725,
            -0.2217776576511457,
            -0.2784930661160355,
            -0.36344974750528297,
            26.952908831528028,
            0.11395484777799351,
            0.464712198671947,
            -0.33018113709751906,
            2.7660513681850483,
            5.098888670897685,
            0.5602370779577598,
            57.01017455533359
          ]
        ],
        "ActivatorType": "LeakyReLU",
        "GradientAdjustmentParameters": {
          "Type": "Momentum",
          "LearningRate": 0.001,
          "Momentum": 0.1
        },
        "Type": "Standard"
      },
      "PenaltyCoefficient": 0.5
    },
    {
      "Type": "L2Penalty",
      "UnderlyingSerializedLayer": {
        "Bias": [
          -4.428707461961803,
          -0.31177120585393825,
          -10.553233285360903,
          -0.08246966581416812,
          0.12421467897120798,
          0.012083912502319707,
          1.669501612092862,
          -9.15672579112623,
          -0.002713476868908839,
          -0.006724847935183108,
          -0.4401909092359826,
          -0.776091799879793,
          0.23275372792682475,
          -0.043395507888378676,
          -0.014587908516552365,
          -0.006246925381203796,
          0.022045424107450834,
          1.8005683981212122,
          2.9970961789893997,
          -1.4061183229284682,
          4.161399855623525,
          0.6098693755737569,
          -6.137354021110201,
          0.3679495690736579,
          -0.015163517717478684,
          0.035198075902693624,
          -0.20599094890453104,
          0.12244947407218061,
          -5.3980002884932485,
          -0.00043709842436694005
        ],
        "Weights": [
          [
            -0.48556082666209976,
            0.02208402214468885,
            -0.09798091798157711,
            -0.3151802627036759,
            -0.09050757027216151,
            0.05042079563870908,
            0.5122088135335728,
            -0.15640870605729768,
            0.08112311521803621,
            -0.2803457403580004,
            0.19261569916531404,
            -0.3814395942904897,
            -0.008981538371845161,
            -0.014845433401545968,
            -0.04557550462118381,
            -0.0013896268461348034,
            -0.07374094384449544,
            0.6251275489732748,
            -0.7223051674191303,
            0.6208491391917937,
            -0.48338495712618335,
            -1.0774228673788102,
            -0.3250240468370715,
            0.016731589225017756,
            -0.44896912674845874,
            0.13625713413222595,
            0.425387884235578,
            -0.4903884480021598,
            0.3972890460149598,
            0.020782930036193692
          ],
          [
            0.5384272692606649,
            0.03658772988650849,
            1.2742043223465855,
            -0.6004964324793561,
            -0.13109203469176922,
            0.007493583980564306,
            1.269505832273971,
            0.6240371676690544,
            -0.45355801247600575,
            -0.09604478694127466,
            -1.7318433295551265,
            0.34519890046558743,
            0.19366111634751015,
            0.12038262581264128,
            -0.3432348770800257,
            -0.14592702940984822,
            -0.18280341203529754,
            -0.5598720310480428,
            -1.9748535611134974,
            0.10932861221334454,
            1.631399281665867,
            3.183465930394544,
            1.4402551526789111,
            -0.31788685906467284,
            -0.07504954651265451,
            -0.08465325225608955,
            -0.386411244626253,
            -0.06459303238327886,
            0.1778627436787953,
            0.22432356687148683
          ],
          [
            -0.2392149400499523,
            -0.07757798985961091,
            -0.2787241784291105,
            0.4411273738788513,
            0.1921338185099305,
            -0.279507761714641,
            0.5744611966148578,
            -0.005823983985081723,
            0.41945838420089493,
            0.08794115701341586,
            0.36945210122551575,
            -0.08772047289689033,
            0.1392566171516205,
            -0.23701407711711708,
            -0.2090910767705055,
            -0.012614808840800804,
            0.11194788161045921,
            1.1005334535658289,
            -0.5346882880922706,
            0.7241528311266726,
            -0.40762728183410335,
            -1.2743360242395751,
            0.011470141009131936,
            -0.15993139542163448,
            -0.024663333467554296,
            -0.3593414346639955,
            0.39194576763599015,
            -0.06944406730847646,
            0.3585322858669814,
            0.19893182019076605
          ],
          [
            -0.4915684499744239,
            -0.1811440761991419,
            -0.9329166722281805,
            0.4763282293440404,
            0.1769071080550559,
            -0.17388871039966905,
            1.2455388875676603,
            -0.645071832684866,
            0.3105763476433249,
            -0.2796386928040931,
            1.023621691843473,
            -0.04348270666321244,
            0.6743181527573819,
            0.007956066681208383,
            -0.32305465538581923,
            0.20032148299081307,
            0.13318200552408785,
            1.6814570757498504,
            -1.3332351845845936,
            1.4889108205507877,
            -0.3968534952658678,
            -2.8277399700817245,
            -0.7984749553083975,
            -0.22951472856354316,
            -0.2523989147708894,
            0.04025532288003799,
            0.5901786299277103,
            -0.4348518231888431,
            0.5104021644797216,
            0.1857661893115764
          ],
          [
            0.1319217470636255,
            0.10535056167280964,
            0.16681597656679495,
            -0.05991767542664571,
            -0.26967555756029193,
            0.10955447407314596,
            0.09726214786144499,
            0.06545866803176194,
            -0.10951987859488536,
            -0.22996063360444266,
            0.20473200200699296,
            0.14371222586732993,
            0.21844677902597603,
            -0.22253232186116273,
            -0.1964686073969772,
            -0.10409171862858047,
            -0.23413467880919592,
            -0.30067172557846705,
            0.08655334428279361,
            0.0662572131972941,
            -0.006125532790093443,
            -0.2999638550724793,
            0.12653689865072024,
            0.05674016264360012,
            0.08882230469120889,
            0.16695081924813035,
            0.09161865389307738,
            -0.07183824077951982,
            0.008711780061798294,
            -0.025790164431730725
          ],
          [
            -0.42997620279495785,
            0.03752368666990808,
            -0.7407721500289921,
            -0.22932235923670874,
            0.29042991361736875,
            -0.16354385882412947,
            0.6283189401854603,
            -0.9420022856326163,
            -0.04505846131220701,
            -0.09949007410179965,
            0.7459234061263464,
            -0.7255619020205634,
            -0.3465036118790541,
            -0.1716688796360255,
            -0.40659935267137537,
            -0.1095972023612636,
            -0.33684526072202414,
            0.7880216400215883,
            0.4186832597226125,
            0.616860885136107,
            -0.7149892701644258,
            -3.112848508402704,
            -0.8824063846532973,
            -0.12439849274074816,
            -0.05808844942118572,
            -0.08217990515751056,
            0.2012106255881364,
            -0.5739151562572451,
            0.05067973150909934,
            -0.05154836229302066
          ],
          [
            -0.2209355678948418,
            -0.4168277938776445,
            0.018749816786251077,
            -0.1635814691527566,
            0.20097843742560925,
            -0.07985642410560155,
            0.2172102009814947,
            -0.3427559802268407,
            -0.1261349091828993,
            -0.5259014632015038,
            0.34783055483324676,
            0.2384627988694378,
            -0.027143562133443527,
            0.05548700307795025,
            -0.07575335700091486,
            0.05477397234377789,
            0.3410916617688279,
            0.30584575683516957,
            0.12472950155477346,
            0.1769102522867,
            -0.009579157749007155,
            -1.022895363365148,
            -0.33096572679214115,
            -0.08527126752443027,
            -0.08914905096496105,
            -0.4918549384458706,
            0.030302966785186812,
            0.26520050986293975,
            -0.04914555378011953,
            0.25523087562779184
          ],
          [
            -0.07119651347487055,
            0.16219566116105194,
            -0.22311823714599355,
            -0.07798629219396168,
            0.08234820683767458,
            -0.05020258096828213,
            0.5224896376048449,
            -0.19429495209094008,
            -0.008111642825715004,
            0.1099226188924501,
            0.23144947970097007,
            -0.20582685629916012,
            -0.10016929602467546,
            -0.2724617749823539,
            -0.017432995382702998,
            -0.11203622990162221,
            0.04194553518176703,
            0.3508198966965543,
            -0.17613778112883477,
            0.30500995817353277,
            -0.31768145206570436,
            -1.2450515710559393,
            -0.1017992191132132,
            0.16663596627946056,
            -0.4184727103093617,
            -0.3445179408214045,
            0.26490750208160685,
            0.2698221833534156,
            0.003704169658243688,
            0.12365942689193019
          ],
          [
            0.3320006918268758,
            0.11748106308422111,
            0.1509006483641683,
            -0.7378740021313225,
            -0.9713629290492304,
            0.04349521591794925,
            0.09232775248086444,
            -0.07010935856877017,
            -0.6014244139729683,
            0.018524910047105204,
            0.6823573168869617,
            -0.043953102541074124,
            0.5635122709604827,
            -0.11585296437990587,
            -0.11964989986738339,
            -0.015321652134736786,
            -0.6627887801106296,
            -0.17501639598380458,
            0.48297721103836416,
            0.036188498131598204,
            -0.3571911400572047,
            0.08953695102771399,
            -0.08488629788304172,
            -1.0070465479922193,
            -0.38559330122225877,
            0.321145986492886,
            -0.023089538400157927,
            -0.14274707330163372,
            -0.21841899863608089,
            -0.457431903897721
          ],
          [
            0.12214483419908145,
            -0.02922790661204677,
            0.6798542764462454,
            -0.13483525964058113,
            0.09030147964631864,
            -0.16883340553962503,
            0.40826188114651346,
            0.4770841641732637,
            -0.16490675671430943,
            -0.11788889784050646,
            -0.8274172795131838,
            0.20710072561090884,
            0.2817719063317331,
            0.09943340362684473,
            -0.15857083784774006,
            0.029056217244639984,
            -0.08343470473812747,
            -0.08998729736665802,
            -0.922293692915423,
            0.09883755368601081,
            0.5608078560219256,
            0.7838198672393325,
            0.6283818282781238,
            -0.13461507938547945,
            -0.08585202951051507,
            0.13023711519215206,
            0.18676242036449137,
            -0.266971281405218,
            0.25866385362196825,
            0.08484942153070126
          ],
          [
            -0.026343276295871236,
            0.3655981474158204,
            -0.07425980082125201,
            0.18471395981681607,
            0.011446367347764436,
            -0.25265528570394286,
            0.6609101302527103,
            -0.37551812190134326,
            -0.10195899348597592,
            -0.22704804771692413,
            0.4789259726536894,
            -0.31240975016908323,
            0.16625122158340336,
            -0.05886746130278116,
            -0.026267155790173146,
            -0.049167299958567036,
            0.18299272242727838,
            0.4272657196150141,
            -0.6521764640607661,
            0.7620288774900748,
            -0.31788825397503645,
            -1.449363029337117,
            -0.33655104152133514,
            0.40633707118738654,
            0.35069644928290644,
            -0.090165211708493,
            0.66993123845942,
            -0.19182939232107515,
            0.41429161152908156,
            0.22296317316982284
          ],
          [
            -0.21029811910448298,
            0.0135245924304792,
            -0.3155585670888665,
            -1.5002934491737145,
            -0.03799331459985235,
            0.13896376589906925,
            -0.2653974050225526,
            -0.05880596202331364,
            -1.1614709037560664,
            -0.4850898376240549,
            -0.13168764064468316,
            -0.409806003666734,
            0.02545907724633406,
            -0.135812069666902,
            -0.5861025967570251,
            -0.09209177140643911,
            -0.7484322853550692,
            0.4426209511656884,
            -0.016160844737542698,
            0.2326071077018391,
            0.13050686166349487,
            -0.7282526490803362,
            -0.1192539415471032,
            -0.4277410715183935,
            0.11852740462970092,
            -0.14774515685670653,
            0.07119550041223796,
            0.10931658486185082,
            -0.165003664274235,
            0.5453065884169309
          ],
          [
            0.16446742098766495,
            -0.02063145689223356,
            0.19682902829966384,
            -0.012245610229296997,
            0.28313731326304825,
            0.15203815484949082,
            0.313403116078803,
            -0.004897058656027895,
            -0.01752664853190826,
            0.23259580411998204,
            0.19652438043054446,
            0.0676452861763251,
            0.00008680219709897377,
            -0.08787050264389501,
            0.050836959854337414,
            -0.2077772382735422,
            0.07079604276737737,
            0.546308860248981,
            -0.1774982306162757,
            0.3192428152246952,
            -0.3572445060559174,
            -0.6037290757206292,
            0.21670612344638437,
            0.010528073157683834,
            -0.023994637716993596,
            0.2162553637956621,
            -0.10316996542218777,
            -0.3701288159104499,
            0.05346844879498241,
            0.12434461244386164
          ],
          [
            -0.23703962888214863,
            0.19074281393583045,
            -0.34621360127776674,
            -1.2364895385522343,
            0.41504872765244666,
            -0.11149476933950497,
            -0.49651099118704267,
            -0.012779447114033704,
            -0.31504945237401727,
            -0.07236198137592352,
            0.28838793584311245,
            -0.06851564198708986,
            0.6192913569169034,
            -0.2897027036389417,
            -0.3101295988504579,
            -0.09286342358279231,
            -0.5211889801258709,
            0.03184710425169098,
            -0.22398126617301325,
            0.33713599625570756,
            0.027398551900823506,
            0.14542080789066003,
            0.25159956865106736,
            -0.05986904339982505,
            -0.15750256068280757,
            -0.4173236870069524,
            -0.7479506672076555,
            -0.37885423044448585,
            -0.2963592250172282,
            0.3689673330002757
          ],
          [
            -0.12687850989797164,
            0.152973483723928,
            -0.02030617322881485,
            -0.05334073056469209,
            -0.07970576807285229,
            0.045843493344775506,
            -0.05695311721103266,
            -0.1000519410877712,
            -0.08129982795283856,
            -0.20932988340771624,
            0.06778615845265212,
            0.055934058501920694,
            -0.4920438240943162,
            0.1779194565125563,
            0.011779219232248485,
            0.004111810912529429,
            -0.022120293807312032,
            -0.38571671847052014,
            0.22778379988589778,
            0.2659785215112873,
            0.17062362571933276,
            0.27599379118278344,
            0.02530800573405396,
            -0.07772807199773316,
            -0.35572476180997126,
            -0.2307770345974652,
            -0.06175236852394273,
            -0.12876424154831465,
            0.11152882990984227,
            -0.015748736602954165
          ],
          [
            -0.0897063735863768,
            0.3459796930270573,
            0.1957832806020152,
            -0.241935361673358,
            0.1651279167295727,
            0.18356392990323878,
            0.02068477891971075,
            0.03915901104675142,
            -0.02937075911072348,
            -0.009179524683556099,
            -0.06926846103333896,
            -0.03357935120827647,
            -0.3257717830276908,
            0.116617085569615,
            0.15054955042871723,
            -0.1348677384230572,
            0.006440221483151323,
            0.1266525233889266,
            0.3672325826857139,
            -0.127155531935635,
            0.37783403907603114,
            0.2672754088625495,
            0.10655787500469384,
            0.3030544425525653,
            -0.06932714098520439,
            -0.15520578546512986,
            0.14493414119640247,
            0.17668472517929776,
            -0.17714000858651213,
            -0.2141226222264155
          ],
          [
            0.07254359066388336,
            0.11654067280838619,
            -0.31867197103589695,
            -0.1542183292590439,
            0.41665523147486727,
            -0.05268324098008909,
            0.369407611756793,
            -0.09128201249160513,
            -0.23976946878807068,
            0.06696136827451253,
            0.44976027689356557,
            -0.22445399299042848,
            0.295788877758834,
            0.22215522667754733,
            -0.0968418727560152,
            0.1507858897182564,
            -0.2574583596501433,
            0.5600816125665664,
            -0.5163753308260086,
            1.0447654021837451,
            -0.2147548434916343,
            -0.6644279732929712,
            -0.12552854245669787,
            -0.305632556024128,
            -0.10804402097118314,
            -0.10731329827543268,
            0.28545453540241916,
            -0.17967703880239422,
            0.23338198132641988,
            -0.1335741544321444
          ],
          [
            -0.027893889863881464,
            -0.033728504315544736,
            2.9610377122732467,
            -0.4124109484046092,
            -0.7134288799574968,
            -1.0063235457191884,
            -0.9612278669798409,
            1.2990334341139458,
            -0.5372090252499326,
            -0.2043416488823605,
            0.8974019407378042,
            1.4352694725306716,
            0.38003168385821945,
            0.10144010404655869,
            -0.24064316868511842,
            0.006092521370859658,
            -0.695945652585177,
            2.2845918055434624,
            -0.49158260775569035,
            0.9967285509631252,
            -6.587306813712932,
            11.858071930091231,
            0.6599231505462453,
            -0.3630913837526289,
            -0.22935301233474634,
            -0.5324767536404061,
            0.3819526245785588,
            1.3664271471990708,
            0.6544948689445341,
            -0.34457781219305733
          ],
          [
            0.46901808408426576,
            -0.3338777018687938,
            0.006455083590410751,
            -0.17149275867007557,
            0.5172882674906057,
            -0.22247570100011685,
            0.09786578124988732,
            0.07452433882924232,
            -0.2881124269205391,
            0.379743554063095,
            0.3178822112490847,
            0.2703615982264335,
            1.2123949849111677,
            0.23995233587371853,
            -0.2722369588699909,
            -0.17992166704107904,
            -0.18366076028043463,
            -0.3414402734980725,
            0.44543273635638464,
            0.27486520560921957,
            0.13327073445006826,
            0.3367216301095921,
            -0.2437636496054344,
            -0.020532258888744746,
            -0.031514112175582545,
            0.8110272423332178,
            -1.2093062702817428,
            -0.6596424870265265,
            -0.10693207003726264,
            0.17375939731329285
          ],
          [
            -0.03607637748961851,
            -0.06439452932740984,
            -0.1497778716455484,
            -1.063048873282193,
            -0.01681303113094174,
            -0.11081383484276534,
            0.203632507749754,
            0.22842949572526097,
            -0.642676274825502,
            -0.03306766605412204,
            -0.04283621150510588,
            -0.21218705229969412,
            -0.08143578873871343,
            -0.05541552397591337,
            -0.5009500792724214,
            -0.10863568147249396,
            -0.09568979897495834,
            0.03551260044999647,
            -0.07731752304844236,
            0.22910285326876487,
            -0.31858273223526906,
            -0.008921137568427663,
            -0.13311225881942632,
            0.0892978603899936,
            0.12284329118284128,
            -0.11700331778005735,
            -0.393466461698436,
            -0.16399723285979767,
            -0.29251453101715313,
            0.4044520105856698
          ],
          [
            0.02736773133208831,
            -0.1585393436575968,
            -0.08460337000183454,
            -0.22200856839091304,
            -0.027142987626054764,
            -0.05476627052123222,
            0.2716146135223875,
            -0.045897774717982655,
            -0.29230082690661285,
            -0.0481102594333281,
            0.29986211209813723,
            -0.1470729065784212,
            -0.07711060667220884,
            -0.1352104379485357,
            -0.10955914424429182,
            -0.07663316842427184,
            0.07224459774649965,
            0.13543390697671162,
            -0.010288518771151502,
            0.2288668910087461,
            -0.09028970427750341,
            -0.426891668739815,
            -0.3078481372337653,
            0.07321643718173607,
            0.11567605282403629,
            0.10299859999399853,
            0.10472011389491113,
            -0.3666089844440493,
            -0.18988673349334098,
            -0.012354934655868309
          ],
          [
            -0.04129909347581508,
            -0.1577452546747551,
            0.10215626978862524,
            0.2580871614594894,
            0.09069035419286842,
            0.12576723666777517,
            0.3428455113187786,
            -0.11809473828662952,
            0.5901161653231638,
            0.04591157360651987,
            0.4618094495540822,
            -0.21436105904207017,
            0.34980047178783413,
            0.06495717391437796,
            0.08616867673074434,
            -0.1622041351799439,
            -0.2317615964373659,
            0.7089130875085363,
            0.1390750454141589,
            0.47492403058827776,
            0.0004676730358357875,
            -0.7079547786808423,
            -0.2787059538286088,
            0.031980183300160385,
            -0.00906036365206889,
            0.15294448361911417,
            0.2673299753755303,
            -0.11024805027909784,
            -0.01758252654167233,
            -0.2063544777529606
          ],
          [
            -0.017504722348786195,
            0.009358305734298768,
            -0.7443122557492384,
            -1.03978242582714,
            0.36839190097548113,
            -0.41889799020936436,
            -2.1008716269025784,
            0.058906022610738185,
            -0.9528157381246714,
            -0.5145195843689262,
            1.6540000796676806,
            -0.2351164243483378,
            -0.35844086870838626,
            -0.3914019997846694,
            -0.7240732202787953,
            -0.3227322790386808,
            -0.6885882572059165,
            1.3819412701027063,
            -0.1589861709898793,
            0.17568467764723378,
            -0.8828245884609511,
            -0.19093911209311631,
            0.04833913602622579,
            -0.09020920985122129,
            -0.194287663071572,
            -0.4452010350691495,
            -0.513556839950583,
            -0.32116760592818633,
            0.3762325703587999,
            0.008056188399613739
          ],
          [
            -0.014607379887164885,
            0.009131106160913295,
            0.11187797435799438,
            0.34037027574912576,
            -0.24000468017680177,
            -0.25322473258405165,
            0.24108018659373281,
            0.11855842461453853,
            0.29344340726394214,
            -0.15860276701232298,
            0.13778468844645547,
            -0.11963539743139223,
            -0.14321379006038557,
            0.08282300797973993,
            -0.15660032613329056,
            -0.09061141997112977,
            0.2760969715631104,
            0.41625251594694684,
            -0.2262155999296899,
            -0.1318572238329458,
            0.0036142609894226204,
            -0.7395789114406544,
            -0.20137142341488218,
            -0.009295158915249027,
            -0.0215828575417338,
            -0.20876507888363446,
            -0.004349047843788822,
            -0.14511582006451926,
            0.19780111233122458,
            0.0968742374636362
          ],
          [
            0.13167733888577862,
            0.12983393076813488,
            -0.0729940693060659,
            0.16117634741726755,
            0.18035425833756033,
            0.09442755994294354,
            0.8476175435853145,
            -0.3446184912213056,
            0.010552738199282222,
            0.18577930674376905,
            0.7947126373314308,
            -0.3248633345190271,
            0.4799891243592319,
            -0.33510819312042595,
            -0.07208758677776567,
            -0.18010539472387582,
            0.36649533980296506,
            0.87176559047584,
            -1.2496123454840036,
            1.303298415942682,
            -0.022659807972535882,
            -1.5124626695363383,
            -0.13292807075450488,
            0.2781231055948386,
            0.29747442132339824,
            0.18680060675783006,
            0.3212496856221266,
            -0.188778026207678,
            0.8268057876471716,
            0.35634182409913256
          ],
          [
            -0.49546705957634296,
            -0.1087743510432822,
            -0.6570871243192768,
            -0.43481424160206017,
            -0.14583865147259945,
            0.09536250688457255,
            1.17881077038405,
            -0.470684061753493,
            0.024126073415015853,
            -0.20079676378052794,
            0.5241833845879965,
            -0.11823663498165915,
            0.8097936994699486,
            -0.4154101778273029,
            -0.6443914109931456,
            0.1964217394925629,
            0.22811649823002345,
            1.1336575658547918,
            -0.8771614717807404,
            1.1585530527618308,
            -0.6560714864032636,
            -2.4241812476458615,
            -0.6469784569853174,
            0.039713899285832736,
            -0.10238959999967139,
            0.0978020610120682,
            0.5821451540855844,
            -0.7096631376203664,
            0.7749161516591488,
            0.16412867550300425
          ],
          [
            0.5654230539413535,
            -0.11956390242971576,
            1.354659628647692,
            -0.25593799982649296,
            -0.032931722102662965,
            0.12998892591264027,
            0.22464420295266438,
            0.83589595942242,
            -0.7220023712069792,
            -0.021329518720340612,
            -0.5050972353578781,
            0.24861198096495948,
            0.143536148965065,
            0.06403618735930784,
            -0.40229663285421524,
            -0.09830390867667999,
            -0.12604299797104346,
            -0.49083308939164977,
            -0.5364095525050041,
            0.03538031415756091,
            0.620173459185749,
            2.02085378058574,
            1.0608545127885094,
            0.022163082789272343,
            -0.025480365986172527,
            0.0667774839016446,
            0.05029689068348999,
            -0.0095581597351519,
            -0.030316247993047246,
            0.022503473807152414
          ],
          [
            -0.0775106805504528,
            0.0026817268211452787,
            -0.24951882255472535,
            -1.2713062358652225,
            -0.29850634797607256,
            -0.5775794114511337,
            -0.28457559753441564,
            0.06356051273786421,
            -0.5354240095629239,
            0.1424853116945936,
            -0.07250578099673524,
            -0.44025147989256846,
            -0.33198048980173894,
            -0.3230085398260796,
            -0.6970805187353976,
            -0.30380499930218224,
            -0.6386839228948716,
            1.2494772802500376,
            -0.5042967596512612,
            -1.4055662475949022,
            -0.4995888752807993,
            -0.31180403825732084,
            0.05618433127902444,
            -0.2864931674093741,
            -0.2336047588375055,
            -0.4946567778615521,
            0.3235576226597185,
            0.4678733142273793,
            0.40710099794311894,
            -0.16092350654211804
          ],
          [
            0.3892798061318659,
            0.013862027030075908,
            0.21823044842538564,
            0.3658285770307282,
            -0.23848204407021695,
            -0.2752978168924333,
            -0.0507921562200076,
            0.6621293166109136,
            -0.0981533897050856,
            -0.38924305873737514,
            0.41569701694947825,
            0.2009126343360602,
            0.20285161693050552,
            -0.4596464633996361,
            -0.0029154619617644986,
            0.08687300240336296,
            -0.005844404232073563,
            0.3288407771974639,
            -0.03401440492696026,
            0.4377573914021116,
            -0.15318310461547754,
            0.42466698225584976,
            0.32056884957147685,
            0.3721351113036595,
            0.16482315976393466,
            -0.19981025289643717,
            -0.17441212661058064,
            -0.23515076164902302,
            0.3540567637543882,
            -0.02804424716001883
          ],
          [
            -0.5304142646526583,
            -1.4576299093185199,
            -0.6045366015321456,
            -1.034872681026704,
            0.06013119963184296,
            -0.46760810418474946,
            0.6342113125877729,
            -1.3932564525134752,
            -0.8458974452957072,
            -0.3093542139418013,
            -1.2465718159919121,
            0.04201188312988198,
            -0.29712931784166396,
            -0.1410748289536273,
            -0.46912294617908684,
            -0.5206502233052418,
            -0.6795801790147235,
            0.7286998552405484,
            -0.8703249038722508,
            0.16919352157420728,
            -0.13936791133994916,
            0.30840663945225816,
            -0.12136251973538872,
            -0.37273981011071766,
            -0.15593089081553804,
            -1.0345309930647675,
            0.389917778401871,
            -0.2548177735909334,
            0.2239921618506502,
            -0.21303876791681026
          ]
        ],
        "ActivatorType": "LeakyReLU",
        "GradientAdjustmentParameters": {
          "Type": "Momentum",
          "LearningRate": 0.001,
          "Momentum": 0.1
        },
        "Type": "Standard"
      },
      "PenaltyCoefficient": 0.5
    },
    {
      "Type": "L2Penalty",
      "UnderlyingSerializedLayer": {
        "Bias": [
          -1.3355197345591232,
          -1.96068196821774,
          -1.8664526595038893,
          -0.022843434986881263,
          0.5179680939757331,
          0.07481184860922781,
          -1.4741341589434913,
          -0.9576006273189891,
          0.821967720385175,
          -0.44478539077368573,
          -1.3045876304611588,
          0.04085288343916877,
          0.7125055478785891,
          -0.10666632547769231,
          -0.005205778601380464,
          0.0022706839146488965,
          -0.42728405413547954,
          0.0053341225143843495,
          -0.0014475340419675773,
          -0.24657551322519083,
          1.0834353307664892,
          -0.00557988693859064,
          -0.9903200230186381,
          -0.009017615002043788,
          -0.6820551815498047,
          -0.558265238841485,
          -0.6622914625929416,
          -0.1852522083818075,
          -0.28485332047451445,
          -1.1143711984763591
        ],
        "Weights": [
          [
            1.661958092891875,
            -0.3374038915849948,
            0.28842411565502607,
            -0.13486564521762162,
            0.4671921279752516,
            -0.056382898933706085,
            0.3779624466631202,
            0.3988990675605579,
            -1.0927118338216708,
            -0.05239048512828764,
            -0.12946193030935438,
            -0.17948963120718178,
            -1.3034354761845768,
            0.762517451540425,
            -0.1593174246985214,
            -0.01379422447439797,
            -0.15509776234812409,
            -0.08427690080276484,
            0.0036808529301631753,
            0.313171150179345,
            -1.6646921176058236,
            -0.062383748338170564,
            0.38796004475659435,
            0.13442279388467207,
            -1.0660061571798618,
            0.0179390703679416,
            0.16405606579950538,
            -1.2406365624230182,
            0.03815078158852406,
            1.0345981243387419
          ],
          [
            -0.004673889326114986,
            0.15481723800849642,
            0.30292641131592374,
            -0.05334963349177535,
            -0.4729365436166271,
            0.003303036795785743,
            0.3500398076383632,
            -0.6147368736182967,
            -0.45227042618338087,
            0.29365764264056116,
            -0.07801751970433428,
            0.025605821566492118,
            -0.2515007463610321,
            -0.12352297914974904,
            0.024524426369124313,
            -0.24376958570101445,
            0.062155759591396874,
            0.1697438393880295,
            0.04943701526821431,
            -0.4580542612756866,
            -0.1949330434008424,
            -0.23973215029231743,
            -0.6112007339418664,
            0.020972875706211244,
            -0.1989310317371229,
            -0.4410924521717433,
            0.05071355735844226,
            -0.4216515601461618,
            -0.15643582738452494,
            -0.2005840072092463
          ],
          [
            0.7196169197238108,
            1.8645332305597297,
            2.2520949767201173,
            0.07920590285914109,
            -1.4170171250632737,
            -0.22586787778743994,
            1.8379078562888758,
            -0.13639459510763818,
            -1.4514710855660893,
            -0.8140291902460848,
            1.195413646789311,
            -0.11696992639079892,
            -1.9990778510792897,
            -0.17091052306643986,
            -0.037986408275788267,
            -0.1945265106242084,
            1.0716198602345488,
            -0.1839274007744056,
            -0.10080907458211785,
            -0.037061801372151155,
            -1.7718607293755018,
            -0.34369807390485424,
            0.16703318039240733,
            -0.3323331130833044,
            1.3404717481975579,
            0.23022756437167693,
            0.21166423792512573,
            -0.7780798571369117,
            0.5084142737480917,
            0.8550458858715383
          ],
          [
            -0.6093911365180869,
            -0.8853499314046032,
            0.0208803855087659,
            0.04045901101309019,
            -0.24501727162323003,
            -0.3386478079718603,
            0.507210589121792,
            -0.21614525288030922,
            -0.24693243463690281,
            0.6464032437545622,
            -0.6922173623852577,
            -0.1323616764630315,
            -0.21048101843242278,
            -0.0878173112017554,
            -0.5472279181127584,
            0.1994575548194264,
            0.29925813050572536,
            -0.29399736660695885,
            -0.08970255503125947,
            -0.976863472564659,
            -0.30477431350468154,
            -0.1081722500204736,
            -0.42753157667129155,
            0.003525908529501529,
            -0.09579806911094597,
            -0.6121121182328058,
            -1.107489087939186,
            -1.285656846628422,
            0.25875726999405385,
            -0.23737063918564946
          ],
          [
            -0.3179331825160683,
            0.18429484783555025,
            -0.3182210452509045,
            -0.15802074799841925,
            0.11093583955161003,
            0.1309346620805596,
            -0.23210582964401674,
            -0.27647815599949177,
            0.1344309976761317,
            -0.6172073222848189,
            -0.07353756976708609,
            0.173863526410028,
            -0.2847736866737994,
            -0.3868533606176186,
            -0.07643562835530622,
            -0.15601792623053265,
            -0.39715192773139757,
            0.2585679549176517,
            -0.21392210399164632,
            -0.15490087438060127,
            0.2710103701203179,
            -0.2879821923941909,
            -0.4260408716230456,
            0.0577800798032234,
            0.21532700363555105,
            -0.12850848917004865,
            -0.38376425427543814,
            -0.29625643408204355,
            -0.3979639982170957,
            -0.21546220029714497
          ],
          [
            0.14106620605371156,
            0.007609098696122054,
            0.16420642938890403,
            0.12461896184200057,
            -0.17015829192186963,
            -0.014064390821053025,
            -0.18194161943127513,
            0.2224937824191514,
            0.1008284881529358,
            0.08802045503678978,
            0.23283421750806235,
            0.048055682394601396,
            -0.0695655271995982,
            0.3130603418261998,
            -0.13242929518909868,
            0.38012704473245007,
            -0.06350671068543098,
            -0.190231893581066,
            -0.0389816603494599,
            -0.1332681900767966,
            0.07057178462356307,
            -0.017485703098520867,
            0.2664863153931571,
            -0.03704323395560355,
            0.34565074998886997,
            0.10064958955446034,
            -0.1482868547120645,
            0.030589594509417076,
            -0.24064324466148246,
            0.08377259403624318
          ],
          [
            -0.4242565651138246,
            -0.2100634613916567,
            -0.24117404458860497,
            -0.14886260357572684,
            -0.06034811149379098,
            0.05207600140929222,
            -0.3948802224091485,
            -0.325418565605518,
            0.02738401909434582,
            -0.4041385081469215,
            -0.54073626658739,
            -0.3507338208376016,
            -0.10952178798393697,
            0.1682058263190517,
            0.012829260037866934,
            -0.07913223589063088,
            -0.2571760211355681,
            0.19558104370467652,
            -0.3109176928541369,
            -0.007558749970501923,
            -0.16163719480578348,
            0.22076008038681735,
            -0.44221959957930357,
            0.007651858675420823,
            0.11267602915474989,
            -0.22544559235707873,
            -0.6980929857703787,
            -0.4007372610765411,
            -0.628221269512724,
            -0.34575025345034616
          ],
          [
            0.24377584074542805,
            2.8036396537873864,
            1.5086545885020346,
            -0.38912513808497295,
            -2.0908919850895398,
            -0.3790130516039485,
            0.8952428139977098,
            -0.20562487029866341,
            -1.794092374568137,
            0.8878848857541725,
            1.0810880963356173,
            -0.08780435692836243,
            -0.851937189779096,
            -0.22348858387604031,
            -0.14627838641667754,
            0.24129822368052203,
            0.9061797806739099,
            -0.17109524275529508,
            0.017879218053239512,
            -0.5904674722712991,
            -1.1885783003938477,
            -0.19134701494543116,
            -0.8753968415836128,
            -0.14981231127367772,
            0.2716940641480193,
            -0.6544609701014418,
            0.04756528463686176,
            -0.3171952579134228,
            -0.2165545549235657,
            0.3563654693020029
          ],
          [
            -0.27703482810089736,
            -0.8582726649012636,
            -0.16828787590563107,
            -0.24419649400529103,
            -0.04045633509698804,
            -0.16343931884934979,
            -0.17192614587965782,
            -0.1705168428740982,
            -0.16553514938539188,
            0.15288500400749688,
            -0.4817767421260628,
            -0.10110272978575975,
            0.03356780445667708,
            -0.10965737809704088,
            -0.7859460523232071,
            -0.20313225501222992,
            0.3784198717532859,
            -0.07771951439334449,
            -0.02507989431146226,
            -0.9592515134688256,
            -0.15583609759222164,
            -0.13112717100133656,
            -0.4342274874314334,
            -0.10332114266249721,
            -0.024084009589260543,
            -0.8518947906124992,
            -0.5268238497515308,
            -0.9639975118321974,
            0.11550482651858525,
            -0.20172359134701773
          ],
          [
            0.058903474733229606,
            -0.46630842774275333,
            0.10488033070278502,
            -0.0060918596827368035,
            0.34973699092356675,
            -0.259293606756376,
            -0.11794868234301122,
            0.01477363065971947,
            0.26678342707679276,
            0.3307988892671238,
            0.2780704679699354,
            0.32613769784284813,
            0.030222322426696882,
            0.04455673795989602,
            -0.11962227976451768,
            0.188734578414307,
            0.3212937883640344,
            0.08133309063482394,
            0.1402577574422761,
            0.2728369657729475,
            -0.1450372183125347,
            0.011557722292496308,
            0.025941763101516743,
            0.24273042733285644,
            0.07976220611286063,
            0.25286877859010487,
            0.007836205107052725,
            0.09529215327688687,
            0.22174600002888772,
            -0.04415658357643825
          ],
          [
            -0.5357404517551274,
            -0.5135141779013656,
            -0.6729684329302458,
            0.019963341061639207,
            0.21673226543135723,
            -0.05641935686121466,
            -0.7652487222875345,
            -0.5221366981214479,
            -0.009873236181021264,
            -0.6337008558281638,
            -0.8041546946808106,
            -0.12761321166276893,
            0.1460988380760374,
            -0.3582170630843553,
            -0.13362569401266325,
            -0.10759449377610221,
            -0.26488879324441306,
            0.054700988611014634,
            -0.13442144178044976,
            0.07017796255982964,
            0.05208589216312811,
            0.045108230199694274,
            -0.44640470635557294,
            0.13535066507842375,
            -0.19689433202268536,
            -0.2748484695664875,
            -0.35102640168144483,
            -0.20911698685203814,
            -0.2479187555638501,
            -0.5171749940062761
          ],
          [
            0.21177453081376604,
            0.14345486257341056,
            0.34473442076785515,
            -0.0599564351008886,
            0.5838457310063557,
            -0.371811782568539,
            0.2992565336966038,
            0.1905488397068361,
            -0.016813841017206746,
            -0.05784441841883074,
            0.2450234360144103,
            0.28346584810842573,
            0.08704827915006041,
            -0.2750624508091411,
            -0.31034265729251154,
            -0.23050880145679042,
            0.36732765038308957,
            -0.11040796347417271,
            -0.15936175583986836,
            0.06624797631652328,
            0.08265186312942588,
            -0.028739625021261997,
            0.29283546273038225,
            0.18242186107141087,
            0.08390600693731662,
            -0.026937466767383286,
            0.24347537482148077,
            -0.15108932241689352,
            0.015702937482741992,
            0.013970698075755279
          ],
          [
            -0.12438134751517457,
            -0.2159873267069278,
            -0.48765622304073986,
            -0.24795876556268623,
            -0.11935977599568691,
            -0.19797002585687326,
            -0.1521915593765602,
            0.19177736708382384,
            0.16837381064184073,
            0.034089290453512,
            0.5204412402074967,
            0.002418956840164878,
            -0.10469785719909733,
            -0.0784916016444812,
            0.16381108059066432,
            -0.04163288090674103,
            0.7129272851446548,
            -0.04958822084491267,
            -0.15875923345395399,
            0.2742375837693179,
            0.022319041134881572,
            -0.3781105189646738,
            0.13266310830691017,
            0.051558107066225184,
            0.33250497579248744,
            -0.0592699441100276,
            0.0019240719329491312,
            -1.1699638669701669,
            -0.20976206092218774,
            -0.2716633175732013
          ],
          [
            0.0653074490430082,
            0.07132856047281323,
            0.0942154912966026,
            -0.2088342378892192,
            0.3041508988999726,
            -0.0003307549409200974,
            -0.2914339338200983,
            0.29370617316041103,
            0.27680340182479546,
            0.03619248573703343,
            0.08893493164912095,
            0.05958749058258587,
            0.24902734459223477,
            0.010174409239001042,
            0.20383036383816677,
            0.02927141437121024,
            -0.11277762638146596,
            -0.4105817178516454,
            -0.15817982228334548,
            0.10861527293395395,
            0.3080137752888603,
            0.030275047223078236,
            0.06743277294684377,
            0.2678584454392693,
            -0.06773616723252984,
            0.026734324400182242,
            -0.048330799355910364,
            -0.21455665906256666,
            -0.05728741298836069,
            -0.16804556097734066
          ],
          [
            -0.16120647721235778,
            0.2500444686704425,
            -0.051617701414485524,
            -0.18430496961558224,
            -0.08969435444028438,
            -0.03349258038703212,
            0.18192528461781343,
            0.26351686755639014,
            -0.036521646127329686,
            -0.2870445031162555,
            -0.3981757443386224,
            -0.18673086947255904,
            0.24761446388169864,
            -0.1794016382117569,
            0.02523770799159929,
            -0.1112426207749102,
            0.03225217745680657,
            0.34905825964192805,
            -0.03884180037657458,
            -0.2624294187443762,
            -0.13698292824516345,
            -0.06161141602874556,
            -0.08621687475349403,
            -0.2503256000214508,
            -0.26599927387355665,
            -0.026446812429259597,
            -0.17727807799433742,
            -0.3392096878081287,
            0.24501396453892454,
            -0.1877493489508347
          ],
          [
            -0.31561048121228225,
            0.09488132363596555,
            -0.010635694592466478,
            -0.12345892104723874,
            0.019831976780237747,
            0.21136687808677598,
            0.07880418580464042,
            0.08029245818921962,
            0.030230061430490607,
            -0.13169833996009003,
            -0.1436157164357602,
            -0.11008188377806297,
            -0.2351719751331173,
            -0.0725459238254578,
            -0.1506603183068752,
            0.19678284774812269,
            0.3124166346101841,
            -0.03490308749203447,
            0.0036830511963078807,
            -0.26028807398615367,
            -0.2232073161347463,
            -0.031277465738447315,
            0.11124890915926376,
            -0.21537441125994788,
            -0.2878883712889456,
            -0.437283461945382,
            0.04295723818067997,
            -0.24558963898733835,
            -0.35372513354615787,
            0.07366653495984857
          ],
          [
            -0.5473340295605041,
            -1.0983281701968663,
            -0.09885358244322368,
            -0.10839474558179943,
            -0.07130213390726091,
            0.10455899600501413,
            0.010687295057929333,
            -0.7032600534722606,
            -0.3018692144521956,
            0.4730411246997073,
            -0.32231737484965955,
            -0.16191064194765745,
            0.11326392326681554,
            -0.03833216879103574,
            -0.5154501538960186,
            -0.2232000722183527,
            0.08275720779919317,
            0.006735775187922506,
            0.08779432910716452,
            -0.9141518436942014,
            -0.31798739084197625,
            0.14818161252074818,
            -0.5503373092917918,
            0.004030236248906302,
            -0.18732002388431804,
            -0.63158513932114,
            -0.7068369933595031,
            -1.1160583498572574,
            0.08551442768647535,
            -0.2576176463235591
          ],
          [
            -0.7167306499835056,
            -0.5267454095183179,
            -0.1197315597541568,
            -0.08381887851187896,
            1.7806818268698328,
            0.308614169792899,
            -0.4930142114671258,
            -0.8152337973872833,
            0.3034426385562025,
            -0.6307437332156766,
            -0.9632022268772291,
            0.11986485141119489,
            -0.29809424851599176,
            0.1373156431783724,
            0.003963175194736704,
            -0.1619917804889804,
            -0.22072769905345027,
            -0.05013657467958597,
            -0.15595574286228397,
            -0.028533520598240398,
            0.03181451117497561,
            0.17066264318460883,
            0.05954465294387552,
            0.013459841299814727,
            0.20457809687646952,
            0.14253379796425913,
            -0.9331687812754814,
            -1.0157481167204634,
            -0.46822017479018246,
            -0.5347556104395976
          ],
          [
            -1.0046112846845743,
            -0.23615451167137952,
            -0.40223326895756406,
            0.0182759236222338,
            -0.03333362285939464,
            -0.30772233731805065,
            -0.06233410834777488,
            -0.19428366970612604,
            0.5855681832178289,
            0.05847812955449468,
            -0.41353569387279937,
            -0.005499254356189624,
            0.01295665901061535,
            -0.368189871144311,
            -0.2549207033782916,
            -0.2067166326055796,
            -1.5599034314893574,
            -0.09718934483192468,
            0.09422605264277424,
            0.09821164488427703,
            0.2541310026770438,
            -0.14675167062867858,
            -0.11351235454600844,
            -0.14314817629366677,
            0.3453461388313724,
            -0.12309847021474746,
            -0.7374879874498091,
            -0.6634851248049372,
            -0.15799761079444827,
            -0.757942782239784
          ],
          [
            -0.40008617607160457,
            -0.78200208818334,
            -0.3823306810387036,
            -0.2389455342223778,
            -0.27471202255101274,
            -0.17083373755734418,
            -1.04786948850603,
            -1.1510675402473545,
            -0.03407685530993827,
            -0.3304098422794914,
            0.016654326391268386,
            0.2550773059241331,
            0.27831498100698987,
            0.09275233257597386,
            -0.08038717006026297,
            0.08496636003700461,
            0.24374923261414702,
            0.21122573648949527,
            0.005275405000557884,
            -0.7657498597129323,
            -0.24685526424999568,
            0.20673065610817268,
            -1.0809995646402228,
            -0.047865583875905816,
            -0.5466879102018993,
            -0.6003129205730003,
            -0.5041426095699004,
            -0.8788508525565796,
            -0.06668396369765094,
            -0.6042991816864793
          ],
          [
            -1.2809348644263177,
            -1.240361280921253,
            -0.2207239157618203,
            -0.06620532689552312,
            -0.7206664410816067,
            0.050282058638725105,
            0.047434563163334706,
            -0.9291836533861959,
            1.2482393520887218,
            1.027184576948526,
            0.691200947477858,
            0.12038601928714053,
            -0.5923101218293753,
            -0.015918436320473073,
            -0.07973099554751259,
            0.057598522749359456,
            -0.38346505484476134,
            -0.05607086450314553,
            -0.40421433887437014,
            -0.6978481868109666,
            -0.1968939603146397,
            -0.1752738244253734,
            -1.3549856174792536,
            0.22470929226520928,
            0.14313588563313887,
            -0.8508539681526394,
            -1.0890709103360174,
            -0.5499016699110932,
            -0.4959308886052338,
            -1.4461661764705769
          ],
          [
            0.6117183057856278,
            -0.8921576495571187,
            -1.2306441371278982,
            -0.26012279733153193,
            0.8629202771677081,
            -0.19602758669033093,
            -0.668112523941889,
            1.2029760650608674,
            0.4192766841273321,
            -0.0024193640759005218,
            -0.7043002646729085,
            -0.1876339554432074,
            0.08664266624486655,
            -0.04947606514482319,
            -0.2663985455850457,
            -0.2503478755370761,
            -0.8713197167869109,
            -0.20177696163618536,
            -0.10791358633662984,
            1.1758786983959109,
            0.605094213480053,
            -0.05313473788257632,
            1.62406562296641,
            -0.2894350812397183,
            -0.2776142545087961,
            1.126521790732557,
            0.43956234916418996,
            0.876664882927298,
            -0.19843980596948133,
            0.0038087561724891284
          ],
          [
            1.330448891469988,
            1.2956027126900636,
            -0.24790336302756555,
            -0.2475069836022128,
            -0.35099853686670623,
            -0.3091829159080602,
            -0.0013951464095717223,
            0.823026541346752,
            -2.1281998557663178,
            0.5744357833185442,
            0.31793509762255295,
            -0.3019762648895273,
            -0.301670365555394,
            -0.03367375112551185,
            0.03831608575411608,
            -0.010588643478218784,
            0.364173839332747,
            0.010629148795250665,
            -0.04013584058839451,
            0.8092992844587548,
            -2.014419944548172,
            0.030000871146040227,
            0.9323101192799494,
            -0.07505399736532596,
            -0.8382563949734627,
            0.4041273959227691,
            0.2720697794558737,
            -0.2551094892526119,
            -0.07564018931921516,
            1.0928949588138432
          ],
          [
            -0.08134709990746522,
            -0.16625064912075596,
            0.12100141921464906,
            -0.027409412714624177,
            0.16285728268344754,
            -0.059182143140065036,
            -0.3047048454082912,
            0.6609368756502156,
            -0.13646986271856046,
            0.045983167220985104,
            -0.06843103466171821,
            0.11416882739519171,
            0.38703705877031924,
            0.03106668855516994,
            0.03558098398687022,
            0.10083772206430329,
            -0.13519522993668845,
            0.14152841134573074,
            -0.00923794992490127,
            0.3368127709655861,
            0.3898049533378328,
            0.05291650132492045,
            0.459763244870787,
            -0.09881817147543746,
            -0.13234424930286096,
            0.1621545627618865,
            0.28769608460974927,
            0.21420240467307247,
            -0.004198565932135677,
            -0.05785927065293293
          ],
          [
            0.15779589747725134,
            0.04905564215958527,
            0.09494307828806116,
            0.2210573353170539,
            0.04635952131947004,
            0.06158055405375592,
            0.3053150898364037,
            0.30492872441291713,
            -0.12232467214931911,
            -0.0030612493413127956,
            -0.23802244618375723,
            -0.056197764481880935,
            0.053354701553284055,
            0.32982649894362365,
            -0.32006812288177805,
            -0.3360132030363202,
            -0.027344090463989536,
            -0.0786129936956472,
            -0.44468035296506664,
            0.03500355811968976,
            0.028241196950437666,
            -0.09563780694159536,
            -0.23091867445080635,
            0.14735103031560326,
            -0.03669353669287091,
            -0.034879610698920566,
            -0.12608652833761222,
            -0.25400591198592865,
            -0.10678584054563917,
            -0.0637760774975822
          ],
          [
            0.0110732914457748,
            -0.4567762602281088,
            -0.03565036222669479,
            -0.05359328662690947,
            0.07332231559772168,
            0.04704275760842714,
            -0.1273280219735327,
            -0.005681263727038595,
            0.062145278472162786,
            0.2259521104510578,
            0.5789790760022098,
            0.04338765340107477,
            -0.32639632439831284,
            0.16775653406827945,
            0.1104205300810823,
            0.06471316923082755,
            -0.5928201870184635,
            0.000701443220165593,
            -0.280635390812594,
            -0.436374583216734,
            -0.11782693146789817,
            -0.18469698265824144,
            -0.3607344436544948,
            -0.3038377351928652,
            -0.030781305639632762,
            -0.32133342338567406,
            -0.3321648166329679,
            -0.05513796598938928,
            -0.0030791827640970896,
            0.011254924539130497
          ],
          [
            0.012094664781240458,
            0.03145844160845957,
            -0.1477718357968593,
            0.1558105869854978,
            -0.32722552765835927,
            -0.16192076969952965,
            -0.4927076927595063,
            -0.09021677903099545,
            0.144993016629092,
            -0.028560470712358066,
            -0.4584049073969384,
            -0.11721848830889946,
            0.013517566312668724,
            0.4411682150052923,
            -0.132270864717739,
            0.0559940758100299,
            -0.03486816481323533,
            0.08202376946500571,
            -0.5174401337571104,
            -0.4282036180085233,
            -0.30066101369884646,
            -0.20032220374942908,
            0.03467550368595819,
            -0.2895493497780543,
            -0.11209925080007327,
            -0.19360935489052433,
            -0.16932712548633955,
            -0.1889132994387703,
            0.4211314471631268,
            -0.0038028425862088443
          ],
          [
            -0.31907324925537806,
            0.5458133702137895,
            -0.3974399677360828,
            0.17363932379406508,
            0.35920009509178913,
            0.06414002355413273,
            -0.659049082227529,
            0.03951749670440197,
            -0.36800482187950295,
            -0.744791817292566,
            0.13024658201744768,
            0.450218118289392,
            0.7199424175586305,
            -0.2304756425425379,
            0.1620122705666186,
            -0.1072809408424291,
            -0.10452028023504392,
            0.11278258449219454,
            -0.25761849001973014,
            0.25172873693210535,
            0.370890235857154,
            0.13703158031436513,
            0.23114733165708537,
            -0.004580556059381473,
            0.15533951852077035,
            0.18602341924290203,
            0.4608478065169378,
            0.1149561254799786,
            -0.06461512127277089,
            0.03391765383165517
          ],
          [
            0.9322422732643979,
            0.938105795463184,
            0.7159642876321952,
            0.053954778725359025,
            -2.0534714229379256,
            0.18706120410592922,
            0.5986800739136298,
            -0.014820591944829365,
            -1.3478310907686057,
            -0.30223215710759654,
            0.2538720903377566,
            0.24095850764474241,
            -0.45764665400765525,
            -0.24039063314039646,
            -0.20125877530182057,
            -0.05109962467849203,
            0.0849931683450196,
            0.44232113282148444,
            -0.23827520329725974,
            0.27433774670638683,
            -0.24503350073885324,
            0.0011876961900325021,
            -0.24763451836478304,
            -0.023511502273498686,
            0.8831284104517151,
            -0.16980775711872487,
            0.2221667202865455,
            -0.5233805766153043,
            0.5396983944083326,
            -0.07474566161812776
          ],
          [
            0.035678125357508604,
            0.21664679313990126,
            -0.33200273330206587,
            -0.2810317832732019,
            0.23834700560916014,
            0.16617403938563274,
            0.3014148973351111,
            0.20146720872845716,
            0.23559004934370906,
            0.18526312909972836,
            0.11249425253617505,
            0.07739374109705087,
            -0.12652895202828449,
            -0.004652175596715259,
            0.11306959898049754,
            -0.40866520432973347,
            -0.19058730311071842,
            0.009802035360293424,
            -0.23579625938710763,
            0.06658002963371354,
            0.05097394542658117,
            -0.0020869382379550957,
            0.2944872753137723,
            0.10800124170417656,
            0.24712398849318,
            -0.11880391191519128,
            -0.09831581645282965,
            -0.13610811566631972,
            -0.157252347889608,
            0.12969638450462287
          ]
        ],
        "ActivatorType": "LeakyReLU",
        "GradientAdjustmentParameters": {
          "Type": "Momentum",
          "LearningRate": 0.001,
          "Momentum": 0.1
        },
        "Type": "Standard"
      },
      "PenaltyCoefficient": 0.5
    },
    {
      "Type": "L2Penalty",
      "UnderlyingSerializedLayer": {
        "Bias": [
          0.1298063263812195,
          0.028486202251298203,
          0.10989322628453115,
          0.009942212481044573,
          0.044067900721242344,
          0.1440967318789039,
          0.048960422258149526,
          0.044580290475973436,
          0.19279467745246157,
          0.03660651589885708,
          0.14468842455517017,
          0.09073650148198119,
          -0.006536236045969356,
          0.1293063356390766,
          -0.060797099605683455,
          0.2496124303386594,
          0.0633807332976752,
          0.02240487360171393,
          0.04787446077104296,
          0.30713738298197785,
          -0.002562110394101548,
          0.032431164078732394,
          0.044011497301673155,
          0.061934293470467826,
          0.017697834150588086,
          0.1854953500093716,
          0.08257234525919642,
          0.06187027879807508,
          0.038872996917134056,
          0.25040913616457716
        ],
        "Weights": [
          [
            -0.5224865794856892,
            0.1033953901681145,
            -0.6072021691650464,
            -0.05750973488848007,
            -0.28565894609468473,
            -0.407224945653659,
            -0.34567254497756494,
            -0.08704573124681123,
            -0.5386633600785364,
            -0.15765604665023875,
            -0.5613724739178527,
            -0.670235503422749,
            0.062493270908559134,
            -0.5567161176169196,
            -0.12015675782937572,
            -0.5544272635047393,
            -0.2553259657669853,
            -0.19364070972027989,
            -0.13145844320712205,
            -0.07015951727135426,
            0.014671658606095947,
            -0.3354809484124681,
            -0.34574171366333917,
            -0.5865219613241014,
            -0.07011552811081628,
            -0.3102041095579284,
            -0.12942246098629573,
            -0.21284216115417998,
            -0.35179428934322454,
            -0.6076323029669324
          ],
          [
            -0.3886746601383554,
            0.10908377539864562,
            -0.49033210282974166,
            0.01400233759604645,
            -0.30046120912792296,
            -0.5591419508622079,
            -0.05867531824624709,
            -0.14475047802998736,
            -1.1523220282625741,
            -0.44110286616379607,
            -0.3117266034135557,
            -0.33628566760095047,
            -0.09559169711991815,
            -0.1999724772170293,
            0.1733858080580017,
            -0.4244692756238593,
            -0.042554678835941974,
            -0.27605990771604405,
            -0.15154805452272932,
            0.26092376769634074,
            -0.0910076267561881,
            -0.2407608779348882,
            -0.31981455482791327,
            -0.21035693917415055,
            -0.42702915859841906,
            -0.21756958025952763,
            0.11410078415431447,
            0.1315162782146315,
            -0.18528842040700672,
            -0.7648399743199559
          ],
          [
            0.2477802388049584,
            -0.196352552284284,
            -0.10751979944141657,
            0.09140909988767737,
            -0.3434277085203253,
            -0.27120807499412547,
            0.1846881709004968,
            -0.10592977371612378,
            -0.7511517917268979,
            0.06880505785830106,
            -0.24895668449028766,
            -0.1250469099265742,
            0.05047439907795641,
            -0.34089566311061864,
            -0.017651558289212298,
            -0.38400798345750187,
            -0.3643983446792163,
            -0.13897543750326402,
            0.1281367693260933,
            -0.3236992261031305,
            -0.2225654508403788,
            0.1100495079951905,
            -0.08284834170943015,
            -0.49300658377586976,
            0.07219601188622443,
            -0.04337629442434185,
            -0.0767030832863155,
            0.02757313251393071,
            -0.39139649540933413,
            -0.6893213657334212
          ],
          [
            0.12200911812180398,
            -0.1344052396756644,
            -0.06866559739689326,
            0.19720068966877546,
            0.3280648872289836,
            0.11679379911273756,
            0.013179251323251255,
            0.01563293634821274,
            0.0531627852526606,
            -0.008197350058202109,
            -0.1236742915499164,
            -0.11329689647380654,
            0.08029089576574788,
            0.11508059029545617,
            0.08833804027288196,
            0.16624513826298412,
            0.0722490554570641,
            -0.03200397110957142,
            -0.1481187534239166,
            -0.02812593734616931,
            0.0899066597123634,
            -0.00225754816714951,
            0.07187762526134235,
            0.1949469600594124,
            0.3773347326464808,
            0.1341387423161654,
            0.01994195434413175,
            0.37855225014041494,
            0.2792549684399164,
            0.252668172284133
          ],
          [
            -0.30908150450771854,
            -0.015200163152791298,
            -0.39497488783951,
            -0.13598369430228152,
            -0.11874403382825606,
            -0.15827254525232196,
            -0.19755408185336978,
            -0.19699687429777182,
            -0.6372517852409975,
            -0.04035751542691008,
            -0.3428250223857457,
            -0.3199377391883732,
            0.03504232986601419,
            -0.18872547064323325,
            -0.1099411013085542,
            -0.46668300442270616,
            -0.07325145340349305,
            -0.3327840331523073,
            -0.2567032605165568,
            -0.12976197815366097,
            -0.40620763788532216,
            -0.14645798432626353,
            -0.3042224710020208,
            -0.5234265988876178,
            -0.4185741841973184,
            -0.27590741723251483,
            0.07286278987358925,
            -0.3193283901365112,
            -0.4093596900333314,
            -0.4736255387430215
          ],
          [
            -0.0810907910612317,
            -0.2673898502545715,
            -0.36070266201765455,
            0.40088179012620373,
            0.015618717664053232,
            0.12612008391125507,
            -0.10340705304241517,
            0.09687063280599556,
            -0.21914898305547703,
            -0.1204869889082146,
            0.2467770577352008,
            -0.17883052777075062,
            -0.08943068663804236,
            -0.2565648179339539,
            -0.2096663036780747,
            -0.28404672217274746,
            -0.2588090129211916,
            0.030971080577997627,
            -0.14762644033342223,
            0.21800890121579475,
            0.1704069895773439,
            -0.025346148553496043,
            -0.3766415246021508,
            0.03243711667598403,
            -0.21359090943895842,
            -0.13649048532442776,
            0.1840820269558149,
            -0.04777523732864943,
            -0.07355141418681373,
            -0.19542927291413967
          ],
          [
            -0.1789069264570335,
            0.0044322663683316775,
            -0.08399544545831356,
            -0.23957416878565285,
            -0.2715337608545707,
            -0.2812996291444464,
            -0.19350305741222135,
            -0.34915582150796926,
            -0.44930150154725024,
            -0.32776235292990996,
            0.056171399495184696,
            -0.044388214697102045,
            -0.2654725779987673,
            0.05268261321605304,
            -0.12265762699435484,
            -0.255139207184925,
            -0.3337595068368738,
            0.1053055796086721,
            0.12162197140555053,
            0.12407592494779524,
            -0.19557111262745086,
            -0.10028867330705103,
            -0.22010767052712188,
            0.013155119786124861,
            -0.15410879851173387,
            -0.44783138804146005,
            -0.01693162320688073,
            -0.2523417854487157,
            0.2218576746335706,
            -0.5368916031569816
          ],
          [
            -0.2429067481919194,
            -0.275130174078466,
            -0.022167256749844457,
            0.10521872388154609,
            -0.45008423442639767,
            -0.2762240783767137,
            -0.22381813686916963,
            -0.31764343775328907,
            0.2482324564116052,
            -0.08412199592672014,
            -0.5383463607733718,
            -0.7078762913353321,
            0.04302464933109886,
            -0.3333230867587443,
            0.1243250610623499,
            -0.5770938155539593,
            -0.2749240242792946,
            -0.19708568864656623,
            0.05530210391020142,
            -0.4123513168317201,
            -0.2373818084998585,
            -0.224159066125528,
            0.17623199616863366,
            -0.32017223198800615,
            -0.03694831225642394,
            -0.24008470751144878,
            0.04746163650731285,
            -0.15446339042640508,
            -0.0635066634216606,
            -0.38374118777684985
          ],
          [
            -0.1846170273086937,
            -0.31780293233414125,
            -0.4647801717006371,
            0.2711361486080379,
            -0.5787857160890224,
            -0.21195492961753698,
            -0.33415577114746814,
            -0.333884068826793,
            -1.1214041635425611,
            -0.1394420516475782,
            -0.4379867969944265,
            -0.7504317140153779,
            0.0017369753212040713,
            -0.4879393346688591,
            -0.04197612330258788,
            -0.8423813314699452,
            -0.4139792163462198,
            -0.0384897389656742,
            -0.07791245486168769,
            0.08032486805557128,
            0.12968216019888346,
            -0.6581864679940544,
            -0.45309249083031117,
            -0.5659043717000374,
            -0.27214920163049183,
            -0.4118856889178119,
            0.06450650333930724,
            0.0056806668892358855,
            -0.4487922272124251,
            -0.7419576943366661
          ],
          [
            0.38766038922267726,
            -0.18265792518802876,
            0.1848783163337063,
            -0.21091254528746423,
            0.3742974761652549,
            0.3475738062223551,
            0.15562840215534657,
            0.1255336286028751,
            0.21538311874453128,
            0.11107654900289961,
            0.21179316483332242,
            0.35252950395623206,
            0.10566212238256416,
            0.2776075310301371,
            0.1948408034861258,
            0.6562173671867294,
            0.36669453927453616,
            -0.10744060843206965,
            0.11280438259803505,
            -0.24812550344489973,
            0.42818090797334996,
            0.24854711877205082,
            0.004762888713820163,
            0.6072261486344267,
            0.19315988314877253,
            0.39917871881676614,
            -0.03841454907916203,
            0.07169042854246692,
            -0.030047837043944,
            0.330705483437056
          ],
          [
            -0.21851665546487942,
            -0.3737903197227276,
            -0.31175259560930035,
            0.41203475815526797,
            0.3434961294207275,
            -0.37713368005602216,
            -0.25771052768119596,
            -0.01399363575003263,
            -0.4869991635345223,
            0.025115567613201363,
            -0.10128814716775596,
            0.1009080279692553,
            0.04997850695662714,
            -0.04499611998396549,
            0.2996153197060526,
            -0.439305430286185,
            0.05108260214476338,
            -0.20242511558097834,
            0.0747858959943443,
            -0.061533249162787955,
            0.03452140531654281,
            -0.010341857218824402,
            -0.17179835491579765,
            -0.27193361425352347,
            0.14965305978637639,
            -0.1521910651143053,
            0.1224907482161281,
            -0.09196741901667844,
            -0.1491280369879221,
            -0.3019778954728825
          ],
          [
            -0.16999465633210956,
            0.11194659017519767,
            -0.3464048983859519,
            0.34149772015484275,
            -0.11509469028337592,
            -0.17331669742089992,
            0.08435062910303516,
            0.2499219003437275,
            -0.20445148206224234,
            0.1620609436303392,
            -0.2194494453976719,
            -0.24516968117063723,
            0.2672461097973658,
            -0.20395372193294586,
            0.11732834091115252,
            0.06104596514907871,
            -0.12316059447811384,
            -0.018174979404503362,
            -0.10470782377262264,
            -0.2000935122769371,
            -0.0757059414573475,
            -0.130546275125854,
            -0.06381314923738277,
            0.06723258253991013,
            -0.10145401589655954,
            -0.13214498887009193,
            -0.0862994458980761,
            -0.21823010205286045,
            0.027566796366101043,
            -0.14233067848912473
          ],
          [
            -0.34182960649145216,
            0.03402932534495168,
            -0.5076395215200628,
            -0.06561597314132316,
            -0.184854054490585,
            -0.23637024214297564,
            -0.30953834721267315,
            -0.32986647322506274,
            -0.44000488439112473,
            -0.1593417361480704,
            -0.3961825935299737,
            -0.44564905610387967,
            -0.15450494493166383,
            -0.2904984299177448,
            0.44755121583365004,
            -0.35293505799968533,
            -0.17712854988080004,
            -0.10820401940937814,
            0.08642285720757602,
            -0.43450974707715834,
            -0.24179554857834715,
            -0.24789470416625578,
            -0.015681544503504764,
            -0.0917912343771463,
            0.18136614943579074,
            -0.2894114447761658,
            -0.1218115607647191,
            -0.2636967055609365,
            -0.2406916631569979,
            -0.706348278036812
          ],
          [
            -0.0847445474726575,
            -0.12980339468979601,
            -0.22032835970977832,
            0.06549554092193641,
            0.029331962333466195,
            -0.1698944916463104,
            -0.042901491816376314,
            -0.09300064748131992,
            -0.08358077599291336,
            -0.024522415430396745,
            -0.15122166777394244,
            -0.17999199453937162,
            -0.1334893174876173,
            -0.21137178880503163,
            0.04102715972758344,
            -0.40376074207846585,
            0.04862663875037683,
            0.1288521547012747,
            0.2466142079115402,
            -0.13210023742979576,
            0.08115319077972825,
            -0.4474738680928508,
            -0.12645964133407775,
            0.16194653023687572,
            0.054392496780701544,
            -0.1973941603287571,
            0.013308581664808998,
            -0.3428327667608299,
            -0.14282713870708416,
            -0.15898582711728113
          ],
          [
            0.08829283938235837,
            0.21737441086880718,
            0.006897344218755236,
            0.03889313088181293,
            -0.22646329328169762,
            0.193097768711363,
            0.09539245027599833,
            -0.13768269076403306,
            -0.2587630734649837,
            0.12032517090238647,
            -0.08478894294076952,
            0.3261810832291349,
            0.16126096749752308,
            0.023847448470244757,
            -0.36039958281002155,
            0.07738784558207362,
            0.24718680316218414,
            0.0021253651012526987,
            -0.255961781930705,
            0.09518442951667574,
            -0.16729502499591603,
            0.08116844534781519,
            0.05750317629724968,
            -0.03581492428929805,
            0.022136714324728256,
            -0.18648659917593702,
            -0.022005627717388385,
            -0.16849218927780374,
            -0.0619138980059985,
            0.050655855949778256
          ],
          [
            0.16876723656487924,
            0.12393114864536645,
            0.0802659638027228,
            0.010524425201225426,
            -0.1536044171654649,
            -0.03862648318480736,
            -0.3676701038251399,
            -0.09658661613999926,
            0.07571149831166302,
            -0.1325777108211361,
            -0.004306054485469454,
            0.005440994393937001,
            -0.11467495714460017,
            0.10547549830121097,
            -0.17688037532341297,
            0.016316541337800455,
            0.055590847124817884,
            0.10401916359661578,
            0.29157639543402725,
            -0.0829115931837003,
            -0.0027951710208554232,
            -0.03137405625691378,
            -0.19865105621279636,
            0.1130077156142678,
            -0.01818973468365058,
            0.014742081194786306,
            0.15381012440280173,
            0.28439284983059676,
            -0.32694243263405875,
            0.07990523905514409
          ],
          [
            -0.3207598544959923,
            0.08500102335759614,
            -0.18524815987088028,
            -0.43508098533333983,
            -0.49295244264665533,
            -0.30295417134770547,
            -0.47967761510486406,
            -0.7797033532064275,
            -0.6811280452784009,
            -0.29115629603385806,
            -0.39513600385715325,
            -0.3958274060579891,
            0.03091271000407239,
            -0.019191301954464373,
            -0.021435927627123617,
            -0.5844471132236535,
            -0.3995423675945708,
            -0.37674513479559507,
            -0.3997756261961575,
            -0.11869057851654206,
            0.10837507969907217,
            -0.30607956698416067,
            -0.22834406840570365,
            -0.4028875357242368,
            0.05402271662728892,
            -0.4288568556005669,
            -0.330694664018396,
            -0.4585507473560611,
            -0.022059875153197555,
            -0.6266023335184796
          ],
          [
            -0.15868746711643472,
            0.38640542200407474,
            -0.11827203021576724,
            0.010327742360183427,
            0.04328747769076031,
            -0.08432959754315573,
            -0.17328499671146533,
            0.14613971038258136,
            -0.13133511849809087,
            -0.09928712213434096,
            0.03192809073466005,
            0.0862364079108048,
            -0.1844039413072097,
            0.1400616374839791,
            -0.08635811003590518,
            -0.07334689659692883,
            -0.18790441854691586,
            -0.04139332705586363,
            0.03723101087025356,
            0.4054564781964879,
            -0.1024246231550338,
            -0.004707172313867847,
            0.24683108074094284,
            0.0334456531018759,
            0.32576744601098845,
            -0.04728204843705553,
            0.17184499981271587,
            -0.015937490561676468,
            0.24379520202751467,
            -0.06753967279660622
          ],
          [
            -0.09174056390341388,
            -0.125820182517454,
            0.010403168745311922,
            0.3233785520782092,
            -0.2529071540167062,
            -0.02626901247190335,
            0.02939739739018139,
            0.030936552589451133,
            0.16425308310218484,
            0.11119547307982372,
            -0.01638985820662209,
            0.33926967571201316,
            -0.19808194029181853,
            0.06776436818427317,
            0.43780141437858044,
            0.30866548969716423,
            -0.278368432497413,
            0.39830987383413535,
            -0.03133393020272892,
            0.11294573988318189,
            0.1305862600034996,
            0.12220918872891214,
            -0.11397397540091037,
            -0.3040656743664186,
            0.16501024642892323,
            -0.10707620418069004,
            -0.02110738748502505,
            -0.37560240844566517,
            -0.1947252911119428,
            0.22352190375538894
          ],
          [
            -0.12426061672920416,
            -0.19656266149596693,
            -0.6530561182249233,
            -0.05655525170723857,
            -0.21613616564870572,
            -0.12002880873660537,
            -0.07833406861128143,
            -0.4719757300682879,
            -1.1558730749850812,
            -0.04167171434567305,
            0.11234080378174302,
            -0.17097185627646896,
            -0.23727855348101035,
            -0.23973623804040378,
            -0.06329781719545628,
            -0.08930894774281099,
            0.10203914770125294,
            -0.24061659507387168,
            -0.06758091963142318,
            -0.04570028308408073,
            0.09117624119381253,
            -0.28382035971830555,
            -0.08607212213778508,
            -0.22607066810708037,
            0.017584797526640984,
            0.12207603950997527,
            -0.2895648384753703,
            0.06873265397947857,
            -0.15998901406978017,
            -0.6732106884501577
          ],
          [
            -0.6101890011195913,
            -0.07532085094347818,
            -0.5063058716233151,
            -0.19322381005301342,
            -0.3277854815435324,
            -0.421541059891373,
            -0.4394565329016347,
            -0.31123782655621895,
            -0.4879284057598873,
            -0.07730362956323636,
            -0.7051480505728108,
            -0.43937631801389104,
            -0.30970530441650673,
            -0.5295351564999669,
            -0.03283145337897391,
            -0.6012464664573421,
            -0.22283602053548313,
            -0.31602351747432283,
            -0.05297058328551823,
            -0.22777290630739191,
            -0.1146094645672255,
            -0.0487423408331183,
            -0.12420567506201191,
            -0.48455505221832706,
            0.005365964215852376,
            -0.5297790858532173,
            -0.35086797448495055,
            -0.02904359663530665,
            -0.08933069467806727,
            -0.6653171434884267
          ],
          [
            -0.10241578888425072,
            -0.11401936018980353,
            -0.02921984049358349,
            0.09503377677702693,
            0.048050435900122083,
            -0.3873334763842668,
            -0.47141158344334727,
            -0.1964021309606067,
            -0.07377442163241994,
            -0.2189845257160388,
            0.052681899141922416,
            0.14360548044740934,
            -0.162119075955888,
            0.33139204124238136,
            -0.10448160434160524,
            0.34789016893094493,
            0.10980074912175943,
            -0.04873710736761667,
            0.062100272605041494,
            -0.23119894962604423,
            -0.12559503412350193,
            0.06139490498889852,
            0.22533349595580324,
            -0.10113983700103281,
            -0.17939938812730516,
            -0.07031794435237859,
            -0.21789300867843112,
            0.058009578570511686,
            0.17532532100935028,
            0.02541533158046756
          ],
          [
            -0.27472831080976656,
            0.08458061650401547,
            -0.020656493579382432,
            -0.09409075973897672,
            -0.25088442885177625,
            -0.451007162731474,
            -0.13287339720126665,
            -0.22242325843393504,
            -0.19314581373964232,
            -0.02484760267886169,
            -0.7974181920911566,
            -0.628827091020549,
            -0.30040905286863795,
            -0.4159504634322932,
            -0.2632051309282437,
            -0.8945868362834463,
            -0.39960746094083915,
            -0.02183716561253692,
            -0.2940090732678131,
            -0.09667056211343104,
            -0.0679883869158458,
            -0.0772325073553124,
            -0.21256657940616985,
            -0.44336671187449705,
            -0.1938161505114705,
            -0.5859359224546534,
            -0.1928790376075167,
            0.03454992453328249,
            -0.17800077328432154,
            -0.27299676699076075
          ],
          [
            0.17176762095932807,
            0.1904840978332145,
            0.03295175226625696,
            0.08558281966571397,
            -0.13567635570711153,
            -0.10236992753853794,
            -0.043563972494115,
            0.17458766124264755,
            0.02060823654174871,
            0.19184667496969673,
            0.23044909904235056,
            0.21763766614374225,
            -0.43825047567334285,
            0.13205263369122838,
            0.028600529908238092,
            0.05869638519667015,
            0.20074988468611382,
            -0.20909877273901045,
            -0.48727304005666533,
            -0.15001050104573838,
            -0.07510279168036145,
            -0.21520304374733487,
            -0.2027945372603422,
            -0.036314031507087896,
            0.15450849928301974,
            -0.12983300028200973,
            0.08518226067473757,
            -0.13669604752401954,
            0.039340544233057634,
            -0.08900157996032819
          ],
          [
            -0.30044743011372466,
            0.13312945482016184,
            -0.40559394882581795,
            -0.22373331967538404,
            0.15988512909331637,
            -0.2707335371104135,
            -0.34410074364450804,
            -0.03768677353611457,
            0.11072025576421356,
            0.005222517908096102,
            -0.4439395047394777,
            -0.21229570268912024,
            -0.19069009690081318,
            -0.23639852162848116,
            0.30013595511934765,
            -0.19366387865649173,
            -0.2099203912448536,
            0.07058254073635914,
            -0.2521687622634117,
            -0.14548121769299563,
            -0.07364958652225416,
            -0.12139505104292432,
            -0.24103677284404823,
            0.13852356920499304,
            -0.03124414526796882,
            -0.429829984441688,
            -0.054347103152385084,
            -0.2258977136500593,
            -0.37851641295129723,
            -0.27548800753182423
          ],
          [
            -0.26134144124959546,
            -0.2831556041386839,
            -0.06660885475699886,
            0.017136634958672823,
            -0.03658074594567023,
            -0.28742243898880165,
            -0.00819679274687969,
            -0.09178106378713619,
            -0.1927680917786579,
            -0.24293805811779823,
            -0.2258884494811794,
            -0.40269024184197777,
            0.3136280552260897,
            -0.20725975541228714,
            -0.020979992842966665,
            -0.3740772115156948,
            -0.2432433560460885,
            -0.10904224218149193,
            -0.015029247688067597,
            -0.028892243539079123,
            -0.1094484792168593,
            -0.2357946111942356,
            -0.3305673486479778,
            -0.054518235647048205,
            -0.2477913337705496,
            -0.2996439507372348,
            -0.22878137319696482,
            -0.21734908908274253,
            -0.027258940321934357,
            -0.5406463152442097
