{"BatchSize":16,"SerializedLayers":[{"Type":"L2Penalty","UnderlyingSerializedLayer":{"Bias":[0.0042150180067846059,-1.7696999835679406,0.0039707334191091681,0.14253805070698714,-0.044129360637732838,0.56406664838663645,0.037812079946310743,0.033977171594332813,-6.8427956444994926,-1.0754165324265712,0.019855210538550241,0.065220663514199154,-0.055304062974592019,-0.88758398724426923,0.0027637518176742222,0.092502126661493336,0.0081441703961563951,-20.145444868606724,-5.3890401465889992,0.011692270653029325,0.013281548842464805,0.033539886937968139,-2.4660480956416557,-0.00810678144411728,-0.047672225691012426,0.063961618999987938,-1.2886749466819869,4.3285753525435622,-0.11406790292255459,-13.332051258695385],"Weights":[[-1.5770045258686356,1.0987027639857558,-1.5299202687836662,-3.6702883251683205,-0.28840636508868578,-2.623871725041055,-1.0564117691530939,-1.1555966458367106,0.34300449118482312,0.66374887401163807,-1.7671496805749869,-0.55257586437323569,-0.360362768692217,2.2160832932977916,0.068126116635857756,0.2723531012388905,-0.92998625938286528,-0.108131743905501,1.3256112377856208,0.26176089682665776,-0.60101600564925706,-0.91437695830352694,0.045613151410663348,-0.81455028082541281,-2.0552463756734758,-3.0693548985066466,1.5082894011001911,-0.73379309478371924,0.4817059430700979,0.065022350929881262],[0.33347052233113489,-0.93950706680190177,0.1706512180877138,-0.089413770355307648,-0.80357833691077929,-0.70570681761404763,-0.19061556780254635,-0.54507738442754827,-1.8606797638077282,-0.09664591305354904,-0.87094554727357221,-0.52006290836957547,0.042910382507013074,0.63391799590474018,0.045201461411559667,0.33070297201637366,0.33894425181886872,-0.534531786937922,0.8581623499563874,0.15806324643109079,0.61722401749531,0.082451438505822872,0.76477468182734287,-0.48418675082654783,0.05432309146172605,0.065115787185987942,-1.8331813103973398,-0.29889061303429565,0.039338788784563559,0.21428834410959069],[-0.44911786564533474,-2.0850060092983895,-0.8484875972696706,-1.2568720384738681,-0.031409617673840762,0.0431942236711564,0.3076057457932978,-0.14214953974409683,-0.2249202448638008,-1.1751792294063366,-0.51058069048143162,0.26545392596695255,-0.69099207252425054,-2.1048111699830558,-0.080759819149366488,-0.36670706095919,-0.79607968080322078,-0.85476617894995188,-1.1471551271574345,-0.29812121936371749,-0.056419847938014571,-0.33128434682674907,0.027882273927005312,-0.18316392664727646,-1.2463533595189034,-0.75972740711021391,-1.6920009265479574,0.52871312411536076,-0.88389045702890467,-0.26460207399607938],[0.22170829821688298,3.5094693637489547,0.17507641540346056,-0.18556029978837596,0.50195323531309233,-2.15534916523668,-0.1881707093676431,-0.34016099714784159,14.906607394336135,1.0195095274111685,-0.38081983394467905,-0.23480583330757007,-0.16105073878091633,2.491830967372858,-0.51762772629840947,-0.035280052818082108,0.51220044297346834,40.963282284262739,6.6215827200143362,-0.14749541330403385,-0.088054191531770257,-0.22903502903924772,19.69363990520776,0.33527066753275353,-0.75942049526839739,-0.818084937927978,2.1732775202358026,1.8699327894935804,0.31093404851552542,42.203190615738862],[-0.5266602234549751,15.866813668023836,-0.20381288544430409,0.355965322461872,0.64497505205232275,-5.7731871509744073,0.0463037944273384,-0.12621147112268949,5.1751640006301525,7.36132093471826,0.24714589649791258,-0.4108020823783774,0.3156789572281235,-0.48956862613959745,0.25713258927512106,0.2476611756580944,-0.20701352375993695,2.0508596514317374,4.3863155927055333,0.14153997750300196,-0.14251082174980786,-0.40267841655103259,-12.564466397833076,-0.021895610915886522,0.50185514578211088,-0.17442594754627167,7.8061790477127948,-6.7969960530522364,-0.358734612284239,37.435482449501357],[0.52929114514738362,0.26707671653331405,0.12793792614418206,-0.69726704793438987,-0.23854094901922066,-0.32641635209517283,0.29366237351579277,-0.50879263402277886,-0.044676447210319652,-0.010262025679843372,-0.21026214132935986,-0.11286188021356822,0.53130114476752333,0.23551231055468477,-0.53519578570759374,-0.13059353661757117,0.20856113231844684,0.17438124516597003,-0.16934477872344547,-0.030364305984426198,0.4255753098374227,-0.325467021844218,0.40312788237900776,-0.22349533613486239,0.33022806648004727,-0.19586682844960943,0.011385862502836758,0.1323539522043419,0.31293357813526851,-0.27029502126712041],[0.20298425389092142,4.93333722253843,-0.2324319189133455,-0.60547560716891968,-0.277150543868235,-2.6273263342498052,-0.92085512254220969,-0.72233998200614935,20.216416519756912,1.5123594689020041,-0.19807265217008666,-0.23837903767793545,-0.088864674375634084,2.6086983214513317,0.23940344668070077,0.20083938220915459,-0.37322209282075641,54.675596180309078,8.591274223152725,-0.22177765765114571,-0.27849306611603553,-0.36344974750528297,26.952908831528028,0.11395484777799352,0.464712198671947,-0.33018113709751906,2.7660513681850483,5.0988886708976846,0.56023707795775979,57.010174555333592]],"ActivatorType":"LeakyReLU","GradientAdjustmentParameters":{"Type":"Momentum","LearningRate":0.001,"Momentum":0.1},"Type":"Standard"},"PenaltyCoefficient":0.5},{"Type":"L2Penalty","UnderlyingSerializedLayer":{"Bias":[-4.4287074619618032,-0.31177120585393825,-10.553233285360903,-0.082469665814168119,0.12421467897120798,0.012083912502319707,1.6695016120928621,-9.15672579112623,-0.0027134768689088388,-0.006724847935183108,-0.44019090923598259,-0.776091799879793,0.23275372792682475,-0.043395507888378676,-0.014587908516552365,-0.0062469253812037964,0.022045424107450834,1.8005683981212122,2.9970961789893997,-1.4061183229284682,4.1613998556235252,0.60986937557375687,-6.1373540211102009,0.36794956907365789,-0.015163517717478684,0.035198075902693624,-0.20599094890453104,0.12244947407218061,-5.3980002884932485,-0.00043709842436694005],"Weights":[[-0.48556082666209976,0.022084022144688849,-0.097980917981577112,-0.31518026270367588,-0.090507570272161511,0.050420795638709083,0.51220881353357284,-0.15640870605729768,0.08112311521803621,-0.28034574035800042,0.19261569916531404,-0.38143959429048968,-0.0089815383718451613,-0.014845433401545968,-0.045575504621183809,-0.0013896268461348034,-0.073740943844495435,0.62512754897327483,-0.72230516741913031,0.62084913919179374,-0.48338495712618335,-1.0774228673788102,-0.32502404683707148,0.016731589225017756,-0.44896912674845874,0.13625713413222595,0.425387884235578,-0.4903884480021598,0.39728904601495979,0.020782930036193692],[0.53842726926066486,0.036587729886508491,1.2742043223465855,-0.60049643247935613,-0.13109203469176922,0.0074935839805643058,1.269505832273971,0.62403716766905437,-0.45355801247600575,-0.096044786941274662,-1.7318433295551265,0.34519890046558743,0.19366111634751015,0.12038262581264128,-0.3432348770800257,-0.14592702940984823,-0.18280341203529754,-0.55987203104804284,-1.9748535611134974,0.10932861221334454,1.6313992816658669,3.1834659303945441,1.4402551526789111,-0.31788685906467284,-0.075049546512654511,-0.084653252256089551,-0.386411244626253,-0.064593032383278862,0.17786274367879529,0.22432356687148683],[-0.23921494004995231,-0.07757798985961091,-0.27872417842911051,0.44112737387885131,0.1921338185099305,-0.279507761714641,0.57446119661485784,-0.0058239839850817232,0.41945838420089493,0.087941157013415858,0.36945210122551575,-0.087720472896890334,0.13925661715162049,-0.23701407711711708,-0.20909107677050551,-0.012614808840800804,0.11194788161045921,1.1005334535658289,-0.53468828809227065,0.72415283112667261,-0.40762728183410335,-1.2743360242395752,0.011470141009131936,-0.15993139542163448,-0.024663333467554296,-0.35934143466399548,0.39194576763599015,-0.069444067308476465,0.35853228586698138,0.19893182019076605],[-0.49156844997442389,-0.18114407619914191,-0.93291667222818053,0.4763282293440404,0.17690710805505591,-0.17388871039966905,1.2455388875676603,-0.645071832684866,0.31057634764332492,-0.27963869280409309,1.0236216918434731,-0.043482706663212439,0.67431815275738194,0.0079560666812083826,-0.32305465538581923,0.20032148299081307,0.13318200552408785,1.6814570757498504,-1.3332351845845936,1.4889108205507877,-0.39685349526586777,-2.8277399700817245,-0.79847495530839752,-0.22951472856354316,-0.25239891477088938,0.04025532288003799,0.59017862992771031,-0.43485182318884308,0.51040216447972164,0.1857661893115764],[0.1319217470636255,0.10535056167280964,0.16681597656679495,-0.059917675426645708,-0.26967555756029193,0.10955447407314596,0.097262147861444992,0.065458668031761938,-0.10951987859488536,-0.22996063360444266,0.20473200200699296,0.14371222586732993,0.21844677902597603,-0.22253232186116273,-0.19646860739697719,-0.10409171862858047,-0.23413467880919592,-0.30067172557846705,0.086553344282793612,0.0662572131972941,-0.0061255327900934433,-0.2999638550724793,0.12653689865072024,0.056740162643600121,0.088822304691208886,0.16695081924813035,0.091618653893077384,-0.071838240779519821,0.0087117800617982945,-0.025790164431730725],[-0.42997620279495785,0.037523686669908081,-0.7407721500289921,-0.22932235923670874,0.29042991361736875,-0.16354385882412947,0.62831894018546031,-0.94200228563261634,-0.045058461312207011,-0.09949007410179965,0.74592340612634644,-0.72556190202056337,-0.3465036118790541,-0.17166887963602551,-0.40659935267137537,-0.10959720236126359,-0.33684526072202414,0.78802164002158825,0.4186832597226125,0.616860885136107,-0.71498927016442582,-3.112848508402704,-0.88240638465329735,-0.12439849274074816,-0.058088449421185719,-0.082179905157510558,0.20121062558813641,-0.5739151562572451,0.050679731509099338,-0.051548362293020657],[-0.22093556789484181,-0.41682779387764451,0.018749816786251077,-0.16358146915275659,0.20097843742560925,-0.079856424105601551,0.21721020098149471,-0.34275598022684067,-0.1261349091828993,-0.52590146320150377,0.34783055483324676,0.2384627988694378,-0.027143562133443527,0.05548700307795025,-0.075753357000914859,0.054773972343777892,0.34109166176882788,0.30584575683516957,0.12472950155477346,0.1769102522867,-0.0095791577490071545,-1.0228953633651481,-0.33096572679214115,-0.085271267524430275,-0.089149050964961049,-0.49185493844587058,0.030302966785186812,0.26520050986293975,-0.049145553780119533,0.25523087562779184],[-0.071196513474870549,0.16219566116105194,-0.22311823714599355,-0.077986292193961679,0.082348206837674576,-0.050202580968282132,0.5224896376048449,-0.19429495209094008,-0.0081116428257150038,0.1099226188924501,0.23144947970097007,-0.20582685629916012,-0.10016929602467546,-0.27246177498235391,-0.017432995382702998,-0.11203622990162221,0.041945535181767031,0.35081989669655428,-0.17613778112883477,0.30500995817353277,-0.31768145206570436,-1.2450515710559393,-0.1017992191132132,0.16663596627946056,-0.41847271030936167,-0.34451794082140452,0.26490750208160685,0.26982218335341562,0.0037041696582436881,0.12365942689193019],[0.3320006918268758,0.11748106308422111,0.15090064836416831,-0.73787400213132248,-0.97136292904923038,0.043495215917949248,0.092327752480864445,-0.070109358568770166,-0.60142441397296831,0.018524910047105204,0.68235731688696166,-0.043953102541074124,0.56351227096048273,-0.11585296437990587,-0.11964989986738339,-0.015321652134736786,-0.66278878011062958,-0.17501639598380459,0.48297721103836416,0.036188498131598204,-0.3571911400572047,0.089536951027713987,-0.084886297883041723,-1.0070465479922193,-0.38559330122225877,0.321145986492886,-0.023089538400157927,-0.14274707330163372,-0.21841899863608089,-0.457431903897721],[0.12214483419908145,-0.029227906612046769,0.67985427644624541,-0.13483525964058113,0.090301479646318641,-0.16883340553962503,0.40826188114651346,0.47708416417326371,-0.16490675671430943,-0.11788889784050646,-0.82741727951318378,0.20710072561090884,0.2817719063317331,0.099433403626844732,-0.15857083784774007,0.029056217244639984,-0.083434704738127474,-0.089987297366658017,-0.922293692915423,0.098837553686010812,0.56080785602192562,0.7838198672393325,0.62838182827812383,-0.13461507938547945,-0.085852029510515071,0.13023711519215206,0.18676242036449137,-0.266971281405218,0.25866385362196825,0.084849421530701255],[-0.026343276295871236,0.36559814741582042,-0.074259800821252012,0.18471395981681607,0.011446367347764436,-0.25265528570394286,0.66091013025271028,-0.37551812190134326,-0.10195899348597592,-0.22704804771692413,0.47892597265368941,-0.31240975016908323,0.16625122158340336,-0.058867461302781157,-0.026267155790173146,-0.049167299958567036,0.18299272242727838,0.42726571961501408,-0.65217646406076613,0.76202887749007475,-0.31788825397503645,-1.4493630293371169,-0.33655104152133514,0.40633707118738654,0.35069644928290644,-0.090165211708493,0.66993123845942,-0.19182939232107515,0.41429161152908156,0.22296317316982284],[-0.21029811910448298,0.0135245924304792,-0.31555856708886648,-1.5002934491737145,-0.037993314599852349,0.13896376589906925,-0.2653974050225526,-0.058805962023313639,-1.1614709037560664,-0.48508983762405489,-0.13168764064468316,-0.409806003666734,0.025459077246334061,-0.135812069666902,-0.58610259675702514,-0.092091771406439107,-0.74843228535506923,0.44262095116568839,-0.016160844737542698,0.23260710770183909,0.13050686166349487,-0.72825264908033616,-0.1192539415471032,-0.42774107151839352,0.11852740462970092,-0.14774515685670653,0.071195500412237961,0.10931658486185082,-0.165003664274235,0.54530658841693092],[0.16446742098766495,-0.020631456892233561,0.19682902829966384,-0.012245610229296997,0.28313731326304825,0.15203815484949082,0.313403116078803,-0.0048970586560278953,-0.017526648531908259,0.23259580411998204,0.19652438043054446,0.0676452861763251,8.6802197098973766E-05,-0.08787050264389501,0.050836959854337414,-0.20777723827354219,0.070796042767377373,0.546308860248981,-0.1774982306162757,0.31924281522469522,-0.3572445060559174,-0.60372907572062917,0.21670612344638437,0.010528073157683834,-0.023994637716993596,0.2162553637956621,-0.10316996542218777,-0.37012881591044988,0.053468448794982408,0.12434461244386164],[-0.23703962888214863,0.19074281393583045,-0.34621360127776674,-1.2364895385522343,0.41504872765244666,-0.11149476933950497,-0.49651099118704267,-0.012779447114033704,-0.31504945237401727,-0.07236198137592352,0.28838793584311245,-0.068515641987089856,0.6192913569169034,-0.28970270363894168,-0.31012959885045788,-0.092863423582792315,-0.52118898012587089,0.031847104251690982,-0.22398126617301326,0.33713599625570756,0.027398551900823506,0.14542080789066003,0.25159956865106736,-0.059869043399825052,-0.15750256068280757,-0.41732368700695238,-0.74795066720765546,-0.37885423044448585,-0.29635922501722822,0.36896733300027568],[-0.12687850989797164,0.152973483723928,-0.020306173228814849,-0.053340730564692088,-0.07970576807285229,0.045843493344775506,-0.056953117211032661,-0.1000519410877712,-0.081299827952838563,-0.20932988340771624,0.067786158452652123,0.055934058501920694,-0.49204382409431618,0.17791945651255631,0.011779219232248485,0.0041118109125294292,-0.022120293807312032,-0.38571671847052014,0.22778379988589778,0.26597852151128731,0.17062362571933276,0.27599379118278344,0.025308005734053961,-0.077728071997733156,-0.35572476180997126,-0.23077703459746521,-0.061752368523942731,-0.12876424154831465,0.11152882990984227,-0.015748736602954165],[-0.0897063735863768,0.34597969302705728,0.19578328060201519,-0.241935361673358,0.16512791672957269,0.18356392990323878,0.020684778919710749,0.039159011046751423,-0.029370759110723479,-0.0091795246835560985,-0.06926846103333896,-0.033579351208276473,-0.32577178302769078,0.116617085569615,0.15054955042871723,-0.13486773842305719,0.0064402214831513231,0.1266525233889266,0.3672325826857139,-0.127155531935635,0.37783403907603114,0.26727540886254952,0.10655787500469384,0.30305444255256531,-0.069327140985204386,-0.15520578546512986,0.14493414119640247,0.17668472517929776,-0.17714000858651213,-0.21412262222641551],[0.072543590663883356,0.11654067280838619,-0.31867197103589695,-0.15421832925904391,0.41665523147486727,-0.052683240980089092,0.369407611756793,-0.091282012491605127,-0.23976946878807068,0.066961368274512531,0.44976027689356557,-0.22445399299042848,0.295788877758834,0.22215522667754734,-0.0968418727560152,0.15078588971825641,-0.2574583596501433,0.56008161256656641,-0.51637533082600862,1.0447654021837451,-0.21475484349163429,-0.66442797329297121,-0.12552854245669787,-0.305632556024128,-0.10804402097118314,-0.10731329827543268,0.28545453540241916,-0.17967703880239422,0.23338198132641988,-0.1335741544321444],[-0.027893889863881464,-0.033728504315544736,2.9610377122732467,-0.41241094840460918,-0.71342887995749682,-1.0063235457191884,-0.96122786697984086,1.2990334341139458,-0.53720902524993264,-0.20434164888236051,0.89740194073780422,1.4352694725306716,0.38003168385821945,0.10144010404655869,-0.24064316868511843,0.0060925213708596581,-0.695945652585177,2.2845918055434624,-0.49158260775569035,0.99672855096312518,-6.5873068137129316,11.858071930091231,0.65992315054624529,-0.36309138375262889,-0.22935301233474634,-0.53247675364040614,0.38195262457855877,1.3664271471990708,0.65449486894453412,-0.34457781219305733],[0.46901808408426576,-0.33387770186879379,0.006455083590410751,-0.17149275867007557,0.51728826749060575,-0.22247570100011685,0.097865781249887318,0.074524338829242323,-0.28811242692053912,0.379743554063095,0.31788221124908472,0.27036159822643352,1.2123949849111677,0.23995233587371853,-0.27223695886999089,-0.17992166704107904,-0.18366076028043463,-0.34144027349807249,0.44543273635638464,0.27486520560921957,0.13327073445006826,0.33672163010959211,-0.2437636496054344,-0.020532258888744746,-0.031514112175582545,0.81102724233321777,-1.2093062702817428,-0.6596424870265265,-0.10693207003726264,0.17375939731329285],[-0.036076377489618512,-0.064394529327409841,-0.1497778716455484,-1.063048873282193,-0.016813031130941739,-0.11081383484276534,0.203632507749754,0.22842949572526097,-0.642676274825502,-0.033067666054122043,-0.04283621150510588,-0.21218705229969412,-0.081435788738713433,-0.055415523975913372,-0.50095007927242141,-0.10863568147249396,-0.095689798974958343,0.035512600449996469,-0.07731752304844236,0.22910285326876487,-0.31858273223526906,-0.0089211375684276634,-0.13311225881942632,0.0892978603899936,0.12284329118284128,-0.11700331778005735,-0.393466461698436,-0.16399723285979767,-0.29251453101715313,0.40445201058566982],[0.027367731332088311,-0.15853934365759681,-0.084603370001834544,-0.22200856839091304,-0.027142987626054764,-0.054766270521232223,0.27161461352238753,-0.045897774717982655,-0.29230082690661285,-0.0481102594333281,0.29986211209813723,-0.1470729065784212,-0.077110606672208842,-0.13521043794853571,-0.10955914424429182,-0.076633168424271841,0.072244597746499647,0.13543390697671162,-0.010288518771151502,0.2288668910087461,-0.090289704277503408,-0.426891668739815,-0.30784813723376531,0.073216437181736066,0.11567605282403629,0.10299859999399853,0.10472011389491114,-0.36660898444404932,-0.18988673349334098,-0.012354934655868309],[-0.041299093475815077,-0.15774525467475509,0.10215626978862524,0.2580871614594894,0.090690354192868416,0.12576723666777517,0.34284551131877861,-0.11809473828662952,0.5901161653231638,0.045911573606519873,0.46180944955408221,-0.21436105904207017,0.34980047178783413,0.064957173914377955,0.08616867673074434,-0.16220413517994389,-0.23176159643736591,0.70891308750853632,0.13907504541415891,0.47492403058827776,0.00046767303583578751,-0.70795477868084233,-0.2787059538286088,0.031980183300160385,-0.00906036365206889,0.15294448361911417,0.26732997537553033,-0.11024805027909784,-0.01758252654167233,-0.20635447775296059],[-0.017504722348786195,0.0093583057342987684,-0.74431225574923843,-1.03978242582714,0.36839190097548113,-0.41889799020936436,-2.1008716269025784,0.058906022610738185,-0.95281573812467135,-0.5145195843689262,1.6540000796676806,-0.23511642434833779,-0.35844086870838626,-0.39140199978466939,-0.72407322027879528,-0.32273227903868079,-0.68858825720591654,1.3819412701027063,-0.1589861709898793,0.17568467764723378,-0.88282458846095113,-0.19093911209311631,0.04833913602622579,-0.090209209851221286,-0.194287663071572,-0.44520103506914949,-0.513556839950583,-0.32116760592818633,0.37623257035879992,0.0080561883996137385],[-0.014607379887164885,0.0091311061609132948,0.11187797435799438,0.34037027574912576,-0.24000468017680177,-0.25322473258405165,0.24108018659373282,0.11855842461453853,0.29344340726394214,-0.15860276701232298,0.13778468844645547,-0.11963539743139223,-0.14321379006038557,0.082823007979739932,-0.15660032613329056,-0.090611419971129772,0.27609697156311042,0.41625251594694684,-0.2262155999296899,-0.13185722383294579,0.0036142609894226204,-0.73957891144065435,-0.20137142341488218,-0.0092951589152490272,-0.0215828575417338,-0.20876507888363446,-0.0043490478437888218,-0.14511582006451926,0.19780111233122458,0.0968742374636362],[0.13167733888577862,0.12983393076813488,-0.0729940693060659,0.16117634741726755,0.18035425833756033,0.094427559942943537,0.84761754358531449,-0.34461849122130561,0.010552738199282222,0.18577930674376905,0.79471263733143083,-0.3248633345190271,0.47998912435923191,-0.33510819312042595,-0.072087586777765666,-0.18010539472387582,0.36649533980296506,0.87176559047584,-1.2496123454840036,1.3032984159426819,-0.022659807972535882,-1.5124626695363383,-0.13292807075450489,0.2781231055948386,0.29747442132339824,0.18680060675783006,0.32124968562212658,-0.188778026207678,0.82680578764717161,0.35634182409913256],[-0.49546705957634296,-0.1087743510432822,-0.65708712431927685,-0.43481424160206017,-0.14583865147259945,0.095362506884572554,1.17881077038405,-0.470684061753493,0.024126073415015853,-0.20079676378052794,0.52418338458799651,-0.11823663498165915,0.80979369946994861,-0.41541017782730288,-0.64439141099314556,0.19642173949256289,0.22811649823002345,1.1336575658547918,-0.87716147178074044,1.1585530527618309,-0.65607148640326363,-2.4241812476458615,-0.64697845698531742,0.039713899285832736,-0.10238959999967139,0.0978020610120682,0.58214515408558443,-0.70966313762036637,0.77491615165914884,0.16412867550300425],[0.5654230539413535,-0.11956390242971576,1.354659628647692,-0.25593799982649296,-0.032931722102662965,0.12998892591264027,0.22464420295266438,0.83589595942242,-0.72200237120697919,-0.021329518720340612,-0.50509723535787809,0.24861198096495948,0.143536148965065,0.064036187359307842,-0.40229663285421524,-0.098303908676679985,-0.12604299797104346,-0.49083308939164977,-0.53640955250500411,0.035380314157560912,0.620173459185749,2.02085378058574,1.0608545127885094,0.022163082789272343,-0.025480365986172527,0.0667774839016446,0.050296890683489991,-0.0095581597351519,-0.030316247993047246,0.022503473807152414],[-0.0775106805504528,0.0026817268211452787,-0.24951882255472535,-1.2713062358652225,-0.29850634797607256,-0.57757941145113367,-0.28457559753441564,0.063560512737864214,-0.53542400956292391,0.14248531169459361,-0.072505780996735242,-0.44025147989256846,-0.33198048980173894,-0.32300853982607958,-0.69708051873539756,-0.30380499930218224,-0.63868392289487164,1.2494772802500376,-0.50429675965126119,-1.4055662475949022,-0.49958887528079932,-0.31180403825732084,0.05618433127902444,-0.28649316740937408,-0.23360475883750551,-0.4946567778615521,0.32355762265971849,0.46787331422737932,0.40710099794311894,-0.16092350654211804],[0.38927980613186591,0.013862027030075908,0.21823044842538564,0.36582857703072819,-0.23848204407021695,-0.27529781689243332,-0.0507921562200076,0.66212931661091357,-0.0981533897050856,-0.38924305873737514,0.41569701694947825,0.20091263433606019,0.20285161693050552,-0.45964646339963611,-0.0029154619617644986,0.086873002403362959,-0.0058444042320735627,0.32884077719746391,-0.034014404926960257,0.43775739140211162,-0.15318310461547754,0.42466698225584976,0.32056884957147685,0.3721351113036595,0.16482315976393466,-0.19981025289643717,-0.17441212661058064,-0.23515076164902302,0.35405676375438822,-0.028044247160018829],[-0.53041426465265828,-1.4576299093185199,-0.60453660153214561,-1.0348726810267039,0.060131199631842963,-0.46760810418474946,0.63421131258777286,-1.3932564525134752,-0.84589744529570721,-0.30935421394180129,-1.2465718159919121,0.04201188312988198,-0.29712931784166396,-0.1410748289536273,-0.46912294617908684,-0.5206502233052418,-0.67958017901472345,0.72869985524054837,-0.87032490387225081,0.16919352157420728,-0.13936791133994916,0.30840663945225816,-0.12136251973538872,-0.37273981011071766,-0.15593089081553804,-1.0345309930647675,0.389917778401871,-0.25481777359093338,0.22399216185065021,-0.21303876791681026]],"ActivatorType":"LeakyReLU","GradientAdjustmentParameters":{"Type":"Momentum","LearningRate":0.001,"Momentum":0.1},"Type":"Standard"},"PenaltyCoefficient":0.5},{"Type":"L2Penalty","UnderlyingSerializedLayer":{"Bias":[-1.3355197345591232,-1.96068196821774,-1.8664526595038893,-0.022843434986881263,0.51796809397573307,0.074811848609227807,-1.4741341589434913,-0.95760062731898909,0.821967720385175,-0.44478539077368573,-1.3045876304611588,0.04085288343916877,0.71250554787858911,-0.10666632547769231,-0.005205778601380464,0.0022706839146488965,-0.42728405413547954,0.0053341225143843495,-0.0014475340419675773,-0.24657551322519083,1.0834353307664892,-0.00557988693859064,-0.99032002301863808,-0.0090176150020437884,-0.68205518154980471,-0.558265238841485,-0.66229146259294158,-0.1852522083818075,-0.28485332047451445,-1.1143711984763591],"Weights":[[1.6619580928918749,-0.33740389158499479,0.28842411565502607,-0.13486564521762162,0.46719212797525161,-0.056382898933706085,0.37796244666312018,0.39889906756055787,-1.0927118338216708,-0.052390485128287638,-0.12946193030935438,-0.17948963120718178,-1.3034354761845768,0.762517451540425,-0.15931742469852139,-0.01379422447439797,-0.15509776234812409,-0.084276900802764843,0.0036808529301631753,0.313171150179345,-1.6646921176058236,-0.062383748338170564,0.38796004475659435,0.13442279388467207,-1.0660061571798618,0.0179390703679416,0.16405606579950538,-1.2406365624230182,0.038150781588524058,1.0345981243387419],[-0.0046738893261149862,0.15481723800849642,0.30292641131592374,-0.05334963349177535,-0.47293654361662713,0.0033030367957857429,0.35003980763836318,-0.61473687361829665,-0.45227042618338087,0.29365764264056116,-0.078017519704334279,0.025605821566492118,-0.25150074636103209,-0.12352297914974904,0.024524426369124313,-0.24376958570101445,0.062155759591396874,0.16974383938802951,0.049437015268214313,-0.4580542612756866,-0.19493304340084239,-0.23973215029231743,-0.61120073394186636,0.020972875706211244,-0.1989310317371229,-0.44109245217174331,0.050713557358442261,-0.42165156014616179,-0.15643582738452494,-0.2005840072092463],[0.71961691972381081,1.8645332305597298,2.2520949767201173,0.079205902859141086,-1.4170171250632737,-0.22586787778743994,1.8379078562888758,-0.13639459510763818,-1.4514710855660893,-0.81402919024608478,1.1954136467893111,-0.11696992639079892,-1.9990778510792897,-0.17091052306643986,-0.037986408275788267,-0.19452651062420839,1.0716198602345488,-0.18392740077440561,-0.10080907458211785,-0.037061801372151156,-1.7718607293755018,-0.34369807390485424,0.16703318039240733,-0.33233311308330438,1.3404717481975579,0.23022756437167694,0.21166423792512573,-0.77807985713691175,0.50841427374809167,0.85504588587153829],[-0.60939113651808685,-0.88534993140460316,0.0208803855087659,0.040459011013090192,-0.24501727162323003,-0.33864780797186028,0.507210589121792,-0.21614525288030922,-0.24693243463690281,0.64640324375456215,-0.69221736238525766,-0.13236167646303151,-0.21048101843242278,-0.0878173112017554,-0.54722791811275839,0.1994575548194264,0.29925813050572536,-0.29399736660695885,-0.08970255503125947,-0.976863472564659,-0.30477431350468154,-0.10817225002047361,-0.42753157667129155,0.0035259085295015289,-0.095798069110945974,-0.61211211823280576,-1.1074890879391861,-1.285656846628422,0.25875726999405385,-0.23737063918564946],[-0.31793318251606828,0.18429484783555025,-0.3182210452509045,-0.15802074799841925,0.11093583955161003,0.13093466208055959,-0.23210582964401674,-0.27647815599949177,0.1344309976761317,-0.61720732228481889,-0.073537569767086086,0.173863526410028,-0.28477368667379938,-0.3868533606176186,-0.07643562835530622,-0.15601792623053265,-0.39715192773139757,0.25856795491765172,-0.21392210399164632,-0.15490087438060127,0.27101037012031792,-0.28798219239419087,-0.4260408716230456,0.0577800798032234,0.21532700363555105,-0.12850848917004865,-0.38376425427543814,-0.29625643408204355,-0.39796399821709572,-0.21546220029714497],[0.14106620605371156,0.007609098696122054,0.16420642938890404,0.12461896184200057,-0.17015829192186963,-0.014064390821053025,-0.18194161943127513,0.22249378241915141,0.1008284881529358,0.088020455036789777,0.23283421750806235,0.048055682394601396,-0.0695655271995982,0.3130603418261998,-0.13242929518909868,0.38012704473245007,-0.063506710685430984,-0.190231893581066,-0.0389816603494599,-0.13326819007679661,0.070571784623563075,-0.017485703098520867,0.26648631539315709,-0.037043233955603549,0.34565074998886997,0.10064958955446034,-0.14828685471206449,0.030589594509417076,-0.24064324466148246,0.083772594036243181],[-0.42425656511382459,-0.21006346139165669,-0.24117404458860497,-0.14886260357572684,-0.060348111493790983,0.052076001409292222,-0.3948802224091485,-0.325418565605518,0.027384019094345818,-0.40413850814692148,-0.54073626658739,-0.35073382083760157,-0.10952178798393697,0.1682058263190517,0.012829260037866934,-0.079132235890630884,-0.25717602113556809,0.19558104370467652,-0.3109176928541369,-0.0075587499705019228,-0.16163719480578348,0.22076008038681735,-0.44221959957930357,0.0076518586754208227,0.11267602915474989,-0.22544559235707873,-0.6980929857703787,-0.40073726107654112,-0.628221269512724,-0.34575025345034616],[0.24377584074542805,2.8036396537873864,1.5086545885020346,-0.38912513808497295,-2.0908919850895398,-0.37901305160394849,0.89524281399770977,-0.20562487029866342,-1.794092374568137,0.88788488575417246,1.0810880963356173,-0.087804356928362429,-0.851937189779096,-0.22348858387604031,-0.14627838641667754,0.24129822368052203,0.90617978067390992,-0.17109524275529509,0.017879218053239512,-0.59046747227129914,-1.1885783003938477,-0.19134701494543116,-0.87539684158361275,-0.14981231127367772,0.27169406414801928,-0.65446097010144177,0.047565284636861757,-0.31719525791342279,-0.21655455492356571,0.35636546930200291],[-0.27703482810089736,-0.85827266490126364,-0.16828787590563107,-0.24419649400529103,-0.040456335096988039,-0.16343931884934979,-0.17192614587965782,-0.17051684287409821,-0.16553514938539188,0.15288500400749688,-0.48177674212606281,-0.10110272978575975,0.033567804456677078,-0.10965737809704088,-0.78594605232320713,-0.20313225501222992,0.3784198717532859,-0.077719514393344485,-0.025079894311462261,-0.95925151346882565,-0.15583609759222164,-0.13112717100133656,-0.43422748743143341,-0.10332114266249722,-0.024084009589260543,-0.85189479061249918,-0.52682384975153085,-0.9639975118321974,0.11550482651858525,-0.20172359134701773],[0.058903474733229606,-0.46630842774275333,0.10488033070278502,-0.0060918596827368035,0.34973699092356675,-0.259293606756376,-0.11794868234301122,0.014773630659719469,0.26678342707679276,0.33079888926712381,0.2780704679699354,0.32613769784284813,0.030222322426696882,0.044556737959896023,-0.11962227976451768,0.188734578414307,0.32129378836403438,0.08133309063482394,0.14025775744227609,0.27283696577294753,-0.14503721831253469,0.011557722292496308,0.025941763101516743,0.24273042733285644,0.079762206112860626,0.25286877859010487,0.0078362051070527249,0.095292153276886865,0.22174600002888772,-0.044156583576438251],[-0.53574045175512741,-0.51351417790136555,-0.67296843293024577,0.019963341061639207,0.21673226543135724,-0.056419356861214659,-0.76524872228753449,-0.52213669812144792,-0.0098732361810212645,-0.63370085582816382,-0.80415469468081058,-0.12761321166276893,0.14609883807603741,-0.3582170630843553,-0.13362569401266325,-0.10759449377610221,-0.26488879324441306,0.054700988611014634,-0.13442144178044976,0.070177962559829637,0.05208589216312811,0.045108230199694274,-0.44640470635557294,0.13535066507842375,-0.19689433202268536,-0.27484846956648751,-0.35102640168144483,-0.20911698685203814,-0.2479187555638501,-0.51717499400627609],[0.21177453081376604,0.14345486257341056,0.34473442076785515,-0.0599564351008886,0.58384573100635573,-0.371811782568539,0.29925653369660382,0.19054883970683609,-0.016813841017206746,-0.057844418418830743,0.24502343601441029,0.28346584810842573,0.087048279150060415,-0.2750624508091411,-0.31034265729251154,-0.23050880145679042,0.36732765038308957,-0.11040796347417271,-0.15936175583986836,0.06624797631652328,0.082651863129425879,-0.028739625021261997,0.29283546273038225,0.18242186107141087,0.083906006937316618,-0.026937466767383286,0.24347537482148077,-0.15108932241689352,0.015702937482741992,0.013970698075755279],[-0.12438134751517457,-0.2159873267069278,-0.48765622304073986,-0.24795876556268623,-0.11935977599568691,-0.19797002585687326,-0.1521915593765602,0.19177736708382384,0.16837381064184073,0.034089290453512,0.52044124020749671,0.0024189568401648781,-0.10469785719909733,-0.0784916016444812,0.16381108059066432,-0.041632880906741027,0.71292728514465475,-0.04958822084491267,-0.15875923345395399,0.27423758376931789,0.022319041134881572,-0.37811051896467379,0.13266310830691017,0.051558107066225184,0.33250497579248744,-0.0592699441100276,0.0019240719329491312,-1.1699638669701669,-0.20976206092218774,-0.27166331757320128],[0.0653074490430082,0.071328560472813232,0.0942154912966026,-0.2088342378892192,0.3041508988999726,-0.00033075494092009742,-0.2914339338200983,0.29370617316041103,0.27680340182479546,0.036192485737033431,0.088934931649120946,0.059587490582585868,0.24902734459223477,0.010174409239001042,0.20383036383816677,0.029271414371210239,-0.11277762638146596,-0.41058171785164538,-0.15817982228334548,0.10861527293395396,0.30801377528886031,0.030275047223078236,0.067432772946843772,0.26785844543926929,-0.067736167232529843,0.026734324400182242,-0.048330799355910364,-0.21455665906256666,-0.057287412988360688,-0.16804556097734066],[-0.16120647721235779,0.2500444686704425,-0.051617701414485524,-0.18430496961558224,-0.089694354440284382,-0.033492580387032123,0.18192528461781343,0.26351686755639014,-0.036521646127329686,-0.28704450311625551,-0.39817574433862241,-0.18673086947255904,0.24761446388169864,-0.17940163821175689,0.02523770799159929,-0.11124262077491021,0.032252177456806572,0.34905825964192805,-0.03884180037657458,-0.2624294187443762,-0.13698292824516345,-0.061611416028745557,-0.08621687475349403,-0.25032560002145082,-0.26599927387355665,-0.026446812429259597,-0.17727807799433742,-0.33920968780812871,0.24501396453892455,-0.1877493489508347],[-0.31561048121228225,0.094881323635965548,-0.010635694592466478,-0.12345892104723874,0.019831976780237747,0.21136687808677598,0.078804185804640423,0.080292458189219623,0.030230061430490607,-0.13169833996009003,-0.14361571643576021,-0.11008188377806297,-0.2351719751331173,-0.0725459238254578,-0.15066031830687521,0.19678284774812269,0.3124166346101841,-0.034903087492034468,0.0036830511963078807,-0.26028807398615367,-0.22320731613474629,-0.031277465738447315,0.11124890915926376,-0.21537441125994788,-0.28788837128894562,-0.437283461945382,0.042957238180679973,-0.24558963898733835,-0.35372513354615787,0.073666534959848567],[-0.54733402956050414,-1.0983281701968664,-0.098853582443223675,-0.10839474558179943,-0.071302133907260909,0.10455899600501413,0.010687295057929333,-0.70326005347226062,-0.30186921445219561,0.47304112469970733,-0.32231737484965955,-0.16191064194765745,0.11326392326681554,-0.038332168791035737,-0.51545015389601856,-0.2232000722183527,0.082757207799193169,0.006735775187922506,0.087794329107164518,-0.91415184369420144,-0.31798739084197625,0.14818161252074819,-0.55033730929179181,0.0040302362489063022,-0.18732002388431804,-0.63158513932114,-0.70683699335950312,-1.1160583498572574,0.085514427686475353,-0.2576176463235591],[-0.71673064998350555,-0.52674540951831794,-0.11973155975415679,-0.083818878511878955,1.7806818268698328,0.308614169792899,-0.49301421146712582,-0.8152337973872833,0.30344263855620252,-0.63074373321567656,-0.96320222687722912,0.11986485141119489,-0.29809424851599176,0.13731564317837239,0.0039631751947367044,-0.16199178048898041,-0.22072769905345027,-0.050136574679585967,-0.15595574286228398,-0.028533520598240398,0.031814511174975607,0.17066264318460883,0.059544652943875523,0.013459841299814727,0.20457809687646952,0.14253379796425914,-0.93316878127548142,-1.0157481167204634,-0.46822017479018246,-0.53475561043959763],[-1.0046112846845743,-0.23615451167137952,-0.40223326895756406,0.0182759236222338,-0.033333622859394639,-0.30772233731805065,-0.062334108347774878,-0.19428366970612604,0.58556818321782889,0.058478129554494683,-0.41353569387279937,-0.0054992543561896241,0.01295665901061535,-0.368189871144311,-0.25492070337829159,-0.2067166326055796,-1.5599034314893574,-0.097189344831924679,0.094226052642774241,0.098211644884277027,0.2541310026770438,-0.14675167062867858,-0.11351235454600844,-0.14314817629366677,0.34534613883137238,-0.12309847021474746,-0.73748798744980915,-0.66348512480493715,-0.15799761079444827,-0.757942782239784],[-0.40008617607160457,-0.78200208818334,-0.3823306810387036,-0.2389455342223778,-0.27471202255101274,-0.17083373755734418,-1.04786948850603,-1.1510675402473545,-0.034076855309938273,-0.33040984227949138,0.016654326391268386,0.25507730592413308,0.27831498100698987,0.092752332575973859,-0.080387170060262969,0.084966360037004612,0.24374923261414702,0.21122573648949528,0.005275405000557884,-0.7657498597129323,-0.24685526424999568,0.20673065610817268,-1.0809995646402228,-0.047865583875905816,-0.54668791020189933,-0.60031292057300034,-0.50414260956990042,-0.87885085255657958,-0.066683963697650936,-0.60429918168647934],[-1.2809348644263177,-1.240361280921253,-0.22072391576182029,-0.066205326895523123,-0.72066644108160671,0.050282058638725105,0.047434563163334706,-0.92918365338619591,1.2482393520887218,1.0271845769485259,0.691200947477858,0.12038601928714053,-0.59231012182937526,-0.015918436320473073,-0.07973099554751259,0.057598522749359456,-0.38346505484476134,-0.05607086450314553,-0.40421433887437014,-0.69784818681096661,-0.19689396031463971,-0.1752738244253734,-1.3549856174792536,0.22470929226520928,0.14313588563313887,-0.85085396815263936,-1.0890709103360174,-0.54990166991109324,-0.49593088860523382,-1.4461661764705769],[0.6117183057856278,-0.89215764955711874,-1.2306441371278982,-0.26012279733153193,0.86292027716770814,-0.19602758669033094,-0.668112523941889,1.2029760650608674,0.4192766841273321,-0.0024193640759005218,-0.70430026467290852,-0.18763395544320741,0.086642666244866551,-0.049476065144823188,-0.26639854558504572,-0.2503478755370761,-0.87131971678691089,-0.20177696163618536,-0.10791358633662984,1.1758786983959109,0.605094213480053,-0.053134737882576319,1.62406562296641,-0.28943508123971828,-0.27761425450879612,1.1265217907325571,0.43956234916418996,0.876664882927298,-0.19843980596948133,0.0038087561724891284],[1.3304488914699879,1.2956027126900636,-0.24790336302756555,-0.24750698360221279,-0.35099853686670623,-0.30918291590806019,-0.0013951464095717223,0.823026541346752,-2.1281998557663178,0.57443578331854417,0.31793509762255295,-0.30197626488952728,-0.301670365555394,-0.033673751125511853,0.038316085754116082,-0.010588643478218784,0.364173839332747,0.010629148795250665,-0.040135840588394513,0.80929928445875476,-2.0144199445481719,0.030000871146040227,0.93231011927994945,-0.075053997365325961,-0.83825639497346272,0.40412739592276908,0.27206977945587368,-0.2551094892526119,-0.075640189319215165,1.0928949588138432],[-0.08134709990746522,-0.16625064912075596,0.12100141921464906,-0.027409412714624177,0.16285728268344754,-0.059182143140065036,-0.30470484540829118,0.66093687565021564,-0.13646986271856046,0.045983167220985104,-0.06843103466171821,0.11416882739519171,0.38703705877031924,0.03106668855516994,0.035580983986870221,0.10083772206430329,-0.13519522993668845,0.14152841134573074,-0.00923794992490127,0.33681277096558609,0.38980495333783283,0.052916501324920449,0.459763244870787,-0.098818171475437463,-0.13234424930286096,0.1621545627618865,0.28769608460974927,0.21420240467307247,-0.0041985659321356773,-0.057859270652932927],[0.15779589747725134,0.049055642159585272,0.094943078288061158,0.22105733531705391,0.046359521319470041,0.061580554053755919,0.30531508983640371,0.30492872441291713,-0.12232467214931911,-0.0030612493413127956,-0.23802244618375723,-0.056197764481880935,0.053354701553284055,0.32982649894362365,-0.32006812288177805,-0.33601320303632021,-0.027344090463989536,-0.0786129936956472,-0.44468035296506664,0.035003558119689762,0.028241196950437666,-0.095637806941595363,-0.23091867445080636,0.14735103031560326,-0.036693536692870912,-0.034879610698920566,-0.12608652833761222,-0.25400591198592865,-0.10678584054563917,-0.0637760774975822],[0.0110732914457748,-0.4567762602281088,-0.035650362226694793,-0.053593286626909473,0.073322315597721677,0.04704275760842714,-0.12732802197353271,-0.0056812637270385949,0.062145278472162786,0.22595211045105781,0.57897907600220977,0.043387653401074769,-0.32639632439831284,0.16775653406827945,0.1104205300810823,0.064713169230827552,-0.59282018701846351,0.000701443220165593,-0.280635390812594,-0.436374583216734,-0.11782693146789817,-0.18469698265824144,-0.36073444365449481,-0.30383773519286522,-0.030781305639632762,-0.32133342338567406,-0.33216481663296787,-0.055137965989389283,-0.0030791827640970896,0.011254924539130497],[0.012094664781240458,0.031458441608459571,-0.14777183579685929,0.1558105869854978,-0.32722552765835927,-0.16192076969952965,-0.49270769275950632,-0.090216779030995453,0.144993016629092,-0.028560470712358066,-0.4584049073969384,-0.11721848830889946,0.013517566312668724,0.4411682150052923,-0.132270864717739,0.0559940758100299,-0.034868164813235333,0.082023769465005711,-0.5174401337571104,-0.4282036180085233,-0.30066101369884646,-0.20032220374942908,0.034675503685958189,-0.2895493497780543,-0.11209925080007327,-0.19360935489052433,-0.16932712548633955,-0.18891329943877031,0.42113144716312678,-0.0038028425862088443],[-0.31907324925537806,0.54581337021378951,-0.39743996773608281,0.17363932379406508,0.35920009509178913,0.06414002355413273,-0.659049082227529,0.039517496704401973,-0.36800482187950295,-0.744791817292566,0.13024658201744768,0.450218118289392,0.71994241755863053,-0.23047564254253791,0.1620122705666186,-0.1072809408424291,-0.10452028023504392,0.11278258449219454,-0.25761849001973014,0.25172873693210535,0.370890235857154,0.13703158031436513,0.23114733165708537,-0.0045805560593814732,0.15533951852077035,0.18602341924290203,0.4608478065169378,0.11495612547997861,-0.064615121272770887,0.033917653831655167],[0.9322422732643979,0.938105795463184,0.71596428763219522,0.053954778725359025,-2.0534714229379256,0.18706120410592922,0.59868007391362976,-0.014820591944829365,-1.3478310907686057,-0.30223215710759654,0.2538720903377566,0.24095850764474242,-0.45764665400765525,-0.24039063314039647,-0.20125877530182057,-0.05109962467849203,0.0849931683450196,0.44232113282148444,-0.23827520329725974,0.27433774670638683,-0.24503350073885324,0.0011876961900325021,-0.24763451836478304,-0.023511502273498686,0.88312841045171508,-0.16980775711872487,0.22216672028654549,-0.52338057661530435,0.53969839440833256,-0.074745661618127762],[0.035678125357508604,0.21664679313990126,-0.33200273330206587,-0.28103178327320188,0.23834700560916014,0.16617403938563274,0.30141489733511112,0.20146720872845716,0.23559004934370906,0.18526312909972836,0.11249425253617505,0.077393741097050869,-0.12652895202828449,-0.0046521755967152594,0.11306959898049754,-0.40866520432973347,-0.19058730311071842,0.0098020353602934242,-0.23579625938710763,0.066580029633713539,0.050973945426581173,-0.0020869382379550957,0.29448727531377228,0.10800124170417656,0.24712398849318,-0.11880391191519128,-0.098315816452829649,-0.13610811566631972,-0.157252347889608,0.12969638450462287]],"ActivatorType":"LeakyReLU","GradientAdjustmentParameters":{"Type":"Momentum","LearningRate":0.001,"Momentum":0.1},"Type":"Standard"},"PenaltyCoefficient":0.5},{"Type":"L2Penalty","UnderlyingSerializedLayer":{"Bias":[0.1298063263812195,0.028486202251298203,0.10989322628453115,0.0099422124810445728,0.044067900721242344,0.1440967318789039,0.048960422258149526,0.044580290475973436,0.19279467745246157,0.036606515898857078,0.14468842455517017,0.090736501481981188,-0.0065362360459693559,0.12930633563907659,-0.060797099605683455,0.2496124303386594,0.0633807332976752,0.022404873601713931,0.047874460771042959,0.30713738298197785,-0.0025621103941015481,0.032431164078732394,0.044011497301673155,0.061934293470467826,0.017697834150588086,0.18549535000937159,0.08257234525919642,0.061870278798075079,0.038872996917134056,0.25040913616457716],"Weights":[[-0.52248657948568922,0.1033953901681145,-0.60720216916504643,-0.057509734888480067,-0.28565894609468473,-0.407224945653659,-0.34567254497756494,-0.087045731246811225,-0.53866336007853644,-0.15765604665023875,-0.56137247391785272,-0.670235503422749,0.062493270908559134,-0.55671611761691964,-0.12015675782937572,-0.55442726350473925,-0.2553259657669853,-0.19364070972027989,-0.13145844320712205,-0.070159517271354263,0.014671658606095947,-0.33548094841246812,-0.34574171366333917,-0.58652196132410139,-0.070115528110816283,-0.31020410955792838,-0.12942246098629573,-0.21284216115417998,-0.35179428934322454,-0.60763230296693238],[-0.38867466013835539,0.10908377539864562,-0.49033210282974166,0.01400233759604645,-0.30046120912792296,-0.55914195086220786,-0.058675318246247089,-0.14475047802998736,-1.1523220282625741,-0.44110286616379607,-0.31172660341355568,-0.33628566760095047,-0.095591697119918148,-0.19997247721702929,0.17338580805800169,-0.42446927562385928,-0.042554678835941974,-0.27605990771604405,-0.15154805452272932,0.26092376769634074,-0.0910076267561881,-0.24076087793488821,-0.31981455482791327,-0.21035693917415055,-0.42702915859841906,-0.21756958025952763,0.11410078415431448,0.13151627821463149,-0.18528842040700672,-0.76483997431995587],[0.24778023880495839,-0.196352552284284,-0.10751979944141657,0.09140909988767737,-0.34342770852032528,-0.27120807499412547,0.1846881709004968,-0.10592977371612378,-0.75115179172689794,0.068805057858301058,-0.24895668449028766,-0.12504690992657419,0.050474399077956408,-0.34089566311061864,-0.017651558289212298,-0.38400798345750187,-0.36439834467921628,-0.13897543750326402,0.1281367693260933,-0.32369922610313051,-0.22256545084037879,0.1100495079951905,-0.082848341709430146,-0.49300658377586976,0.072196011886224432,-0.043376294424341849,-0.0767030832863155,0.027573132513930711,-0.39139649540933413,-0.68932136573342118],[0.12200911812180398,-0.1344052396756644,-0.068665597396893263,0.19720068966877546,0.32806488722898358,0.11679379911273756,0.013179251323251255,0.01563293634821274,0.0531627852526606,-0.0081973500582021089,-0.1236742915499164,-0.11329689647380654,0.080290895765747883,0.11508059029545617,0.08833804027288196,0.16624513826298412,0.0722490554570641,-0.03200397110957142,-0.14811875342391659,-0.028125937346169309,0.0899066597123634,-0.00225754816714951,0.071877625261342351,0.19494696005941239,0.37733473264648082,0.13413874231616541,0.019941954344131749,0.37855225014041494,0.27925496843991637,0.252668172284133],[-0.30908150450771854,-0.015200163152791298,-0.39497488783951,-0.13598369430228152,-0.11874403382825606,-0.15827254525232196,-0.19755408185336978,-0.19699687429777182,-0.63725178524099746,-0.04035751542691008,-0.34282502238574569,-0.3199377391883732,0.035042329866014188,-0.18872547064323325,-0.1099411013085542,-0.46668300442270616,-0.073251453403493053,-0.33278403315230731,-0.25670326051655679,-0.12976197815366097,-0.40620763788532216,-0.14645798432626353,-0.30422247100202082,-0.52342659888761778,-0.4185741841973184,-0.27590741723251483,0.072862789873589254,-0.31932839013651121,-0.40935969003333139,-0.47362553874302149],[-0.0810907910612317,-0.26738985025457152,-0.36070266201765455,0.40088179012620373,0.015618717664053232,0.12612008391125507,-0.10340705304241517,0.09687063280599556,-0.21914898305547703,-0.1204869889082146,0.24677705773520081,-0.17883052777075062,-0.089430686638042364,-0.25656481793395391,-0.20966630367807471,-0.28404672217274746,-0.25880901292119157,0.030971080577997627,-0.14762644033342223,0.21800890121579475,0.1704069895773439,-0.025346148553496043,-0.37664152460215078,0.032437116675984028,-0.21359090943895842,-0.13649048532442776,0.18408202695581491,-0.047775237328649432,-0.073551414186813727,-0.19542927291413967],[-0.17890692645703349,0.0044322663683316775,-0.083995445458313556,-0.23957416878565285,-0.2715337608545707,-0.28129962914444639,-0.19350305741222135,-0.34915582150796926,-0.44930150154725024,-0.32776235292990996,0.056171399495184696,-0.044388214697102045,-0.26547257799876728,0.05268261321605304,-0.12265762699435484,-0.255139207184925,-0.33375950683687378,0.1053055796086721,0.12162197140555053,0.12407592494779524,-0.19557111262745086,-0.10028867330705103,-0.22010767052712188,0.013155119786124861,-0.15410879851173387,-0.44783138804146005,-0.016931623206880731,-0.25234178544871572,0.22185767463357059,-0.53689160315698159],[-0.2429067481919194,-0.275130174078466,-0.022167256749844457,0.10521872388154609,-0.45008423442639767,-0.2762240783767137,-0.22381813686916963,-0.31764343775328907,0.24823245641160521,-0.084121995926720136,-0.53834636077337183,-0.70787629133533214,0.043024649331098862,-0.33332308675874428,0.1243250610623499,-0.57709381555395933,-0.27492402427929458,-0.19708568864656623,0.055302103910201419,-0.4123513168317201,-0.23738180849985849,-0.224159066125528,0.17623199616863366,-0.32017223198800615,-0.036948312256423942,-0.24008470751144878,0.047461636507312853,-0.15446339042640508,-0.0635066634216606,-0.38374118777684985],[-0.1846170273086937,-0.31780293233414125,-0.46478017170063712,0.27113614860803792,-0.57878571608902241,-0.21195492961753698,-0.33415577114746814,-0.333884068826793,-1.1214041635425611,-0.1394420516475782,-0.4379867969944265,-0.75043171401537789,0.0017369753212040714,-0.48793933466885908,-0.041976123302587882,-0.8423813314699452,-0.41397921634621981,-0.0384897389656742,-0.077912454861687686,0.080324868055571277,0.12968216019888346,-0.65818646799405445,-0.45309249083031117,-0.56590437170003738,-0.27214920163049183,-0.41188568891781191,0.064506503339307242,0.0056806668892358855,-0.44879222721242512,-0.74195769433666614],[0.38766038922267726,-0.18265792518802876,0.1848783163337063,-0.21091254528746423,0.37429747616525488,0.34757380622235512,0.15562840215534657,0.12553362860287509,0.21538311874453128,0.11107654900289961,0.21179316483332242,0.35252950395623206,0.10566212238256416,0.27760753103013708,0.19484080348612581,0.65621736718672941,0.36669453927453616,-0.10744060843206965,0.11280438259803505,-0.24812550344489973,0.42818090797334996,0.24854711877205082,0.0047628887138201634,0.6072261486344267,0.19315988314877253,0.39917871881676614,-0.03841454907916203,0.071690428542466919,-0.030047837043944,0.330705483437056],[-0.21851665546487942,-0.37379031972272758,-0.31175259560930035,0.41203475815526797,0.34349612942072749,-0.37713368005602216,-0.25771052768119596,-0.013993635750032631,-0.48699916353452227,0.025115567613201363,-0.10128814716775596,0.1009080279692553,0.049978506956627138,-0.044996119983965487,0.2996153197060526,-0.439305430286185,0.05108260214476338,-0.20242511558097834,0.0747858959943443,-0.061533249162787955,0.034521405316542811,-0.010341857218824403,-0.17179835491579765,-0.27193361425352347,0.14965305978637639,-0.1521910651143053,0.1224907482161281,-0.091967419016678445,-0.1491280369879221,-0.30197789547288251],[-0.16999465633210956,0.11194659017519767,-0.3464048983859519,0.34149772015484275,-0.11509469028337592,-0.17331669742089992,0.08435062910303516,0.24992190034372749,-0.20445148206224234,0.16206094363033921,-0.21944944539767189,-0.24516968117063723,0.26724610979736579,-0.20395372193294586,0.11732834091115252,0.061045965149078708,-0.12316059447811384,-0.018174979404503362,-0.10470782377262264,-0.20009351227693711,-0.0757059414573475,-0.130546275125854,-0.063813149237382766,0.06723258253991013,-0.10145401589655954,-0.13214498887009193,-0.0862994458980761,-0.21823010205286045,0.027566796366101043,-0.14233067848912473],[-0.34182960649145216,0.034029325344951677,-0.50763952152006275,-0.065615973141323156,-0.184854054490585,-0.23637024214297564,-0.30953834721267315,-0.32986647322506274,-0.44000488439112473,-0.1593417361480704,-0.3961825935299737,-0.44564905610387967,-0.15450494493166384,-0.29049842991774483,0.44755121583365004,-0.35293505799968533,-0.17712854988080004,-0.10820401940937814,0.086422857207576018,-0.43450974707715834,-0.24179554857834715,-0.24789470416625578,-0.015681544503504764,-0.0917912343771463,0.18136614943579074,-0.28941144477616582,-0.12181156076471911,-0.2636967055609365,-0.24069166315699789,-0.706348278036812],[-0.0847445474726575,-0.12980339468979601,-0.22032835970977832,0.065495540921936407,0.029331962333466195,-0.1698944916463104,-0.042901491816376314,-0.09300064748131992,-0.083580775992913359,-0.024522415430396745,-0.15122166777394244,-0.17999199453937162,-0.1334893174876173,-0.21137178880503163,0.041027159727583438,-0.40376074207846585,0.04862663875037683,0.1288521547012747,0.24661420791154021,-0.13210023742979576,0.081153190779728254,-0.44747386809285078,-0.12645964133407775,0.16194653023687572,0.054392496780701544,-0.19739416032875709,0.013308581664808998,-0.34283276676082991,-0.14282713870708416,-0.15898582711728113],[0.088292839382358365,0.21737441086880718,0.0068973442187552358,0.038893130881812933,-0.22646329328169762,0.193097768711363,0.095392450275998325,-0.13768269076403306,-0.25876307346498367,0.12032517090238647,-0.084788942940769524,0.32618108322913492,0.16126096749752308,0.023847448470244757,-0.36039958281002155,0.077387845582073622,0.24718680316218414,0.0021253651012526987,-0.255961781930705,0.095184429516675745,-0.16729502499591603,0.081168445347815185,0.057503176297249679,-0.035814924289298049,0.022136714324728256,-0.18648659917593702,-0.022005627717388385,-0.16849218927780374,-0.0619138980059985,0.050655855949778256],[0.16876723656487924,0.12393114864536645,0.0802659638027228,0.010524425201225426,-0.15360441716546491,-0.03862648318480736,-0.36767010382513993,-0.096586616139999262,0.075711498311663017,-0.13257771082113609,-0.0043060544854694538,0.0054409943939370013,-0.11467495714460017,0.10547549830121097,-0.17688037532341297,0.016316541337800455,0.055590847124817884,0.10401916359661578,0.29157639543402725,-0.0829115931837003,-0.0027951710208554232,-0.031374056256913779,-0.19865105621279636,0.1130077156142678,-0.01818973468365058,0.014742081194786306,0.15381012440280173,0.28439284983059676,-0.32694243263405876,0.079905239055144087],[-0.32075985449599231,0.085001023357596142,-0.18524815987088028,-0.43508098533333983,-0.49295244264665533,-0.30295417134770547,-0.47967761510486406,-0.77970335320642747,-0.68112804527840087,-0.29115629603385806,-0.39513600385715325,-0.39582740605798911,0.030912710004072391,-0.019191301954464373,-0.021435927627123617,-0.5844471132236535,-0.39954236759457079,-0.37674513479559507,-0.39977562619615747,-0.11869057851654206,0.10837507969907217,-0.30607956698416067,-0.22834406840570365,-0.4028875357242368,0.054022716627288921,-0.42885685560056691,-0.330694664018396,-0.45855074735606111,-0.022059875153197555,-0.6266023335184796],[-0.15868746711643472,0.38640542200407474,-0.11827203021576724,0.010327742360183427,0.043287477690760308,-0.084329597543155735,-0.17328499671146533,0.14613971038258136,-0.13133511849809088,-0.09928712213434096,0.031928090734660047,0.0862364079108048,-0.18440394130720969,0.1400616374839791,-0.086358110035905183,-0.073346896596928834,-0.18790441854691586,-0.041393327055863627,0.037231010870253559,0.40545647819648789,-0.1024246231550338,-0.0047071723138678474,0.24683108074094284,0.0334456531018759,0.32576744601098845,-0.047282048437055531,0.17184499981271587,-0.015937490561676468,0.24379520202751467,-0.06753967279660622],[-0.091740563903413883,-0.125820182517454,0.010403168745311922,0.3233785520782092,-0.25290715401670621,-0.026269012471903351,0.029397397390181389,0.030936552589451133,0.16425308310218484,0.11119547307982372,-0.016389858206622091,0.33926967571201316,-0.19808194029181853,0.067764368184273172,0.43780141437858044,0.30866548969716423,-0.278368432497413,0.39830987383413535,-0.03133393020272892,0.11294573988318189,0.1305862600034996,0.12220918872891214,-0.11397397540091037,-0.30406567436641863,0.16501024642892323,-0.10707620418069004,-0.02110738748502505,-0.37560240844566517,-0.19472529111194281,0.22352190375538894],[-0.12426061672920416,-0.19656266149596693,-0.65305611822492327,-0.056555251707238567,-0.21613616564870572,-0.12002880873660538,-0.078334068611281435,-0.47197573006828791,-1.1558730749850812,-0.041671714345673051,0.11234080378174302,-0.17097185627646896,-0.23727855348101035,-0.23973623804040378,-0.063297817195456282,-0.089308947742810993,0.10203914770125294,-0.24061659507387168,-0.067580919631423181,-0.04570028308408073,0.091176241193812527,-0.28382035971830555,-0.086072122137785076,-0.22607066810708038,0.017584797526640984,0.12207603950997527,-0.28956483847537029,0.068732653979478572,-0.15998901406978017,-0.67321068845015775],[-0.61018900111959129,-0.075320850943478179,-0.50630587162331508,-0.19322381005301342,-0.32778548154353238,-0.421541059891373,-0.43945653290163472,-0.31123782655621895,-0.48792840575988727,-0.077303629563236359,-0.70514805057281082,-0.43937631801389104,-0.30970530441650673,-0.52953515649996685,-0.032831453378973911,-0.60124646645734214,-0.22283602053548313,-0.31602351747432283,-0.052970583285518229,-0.22777290630739192,-0.1146094645672255,-0.0487423408331183,-0.12420567506201191,-0.48455505221832706,0.0053659642158523759,-0.52977908585321731,-0.35086797448495055,-0.029043596635306649,-0.089330694678067271,-0.66531714348842674],[-0.10241578888425072,-0.11401936018980353,-0.02921984049358349,0.095033776777026929,0.048050435900122083,-0.38733347638426679,-0.47141158344334727,-0.19640213096060671,-0.073774421632419943,-0.2189845257160388,0.052681899141922416,0.14360548044740934,-0.162119075955888,0.33139204124238136,-0.10448160434160524,0.34789016893094493,0.10980074912175943,-0.048737107367616668,0.062100272605041494,-0.23119894962604423,-0.12559503412350193,0.061394904988898519,0.22533349595580324,-0.10113983700103281,-0.17939938812730516,-0.070317944352378592,-0.21789300867843112,0.058009578570511686,0.17532532100935028,0.025415331580467559],[-0.27472831080976656,0.084580616504015466,-0.020656493579382432,-0.094090759738976723,-0.25088442885177625,-0.451007162731474,-0.13287339720126665,-0.22242325843393504,-0.19314581373964232,-0.024847602678861689,-0.79741819209115661,-0.628827091020549,-0.30040905286863795,-0.41595046343229319,-0.26320513092824371,-0.89458683628344626,-0.39960746094083915,-0.021837165612536919,-0.29400907326781311,-0.096670562113431044,-0.0679883869158458,-0.0772325073553124,-0.21256657940616985,-0.44336671187449705,-0.1938161505114705,-0.58593592245465342,-0.19287903760751671,0.03454992453328249,-0.17800077328432154,-0.27299676699076075],[0.17176762095932807,0.19048409783321449,0.032951752266256962,0.085582819665713974,-0.13567635570711153,-0.10236992753853794,-0.043563972494115,0.17458766124264755,0.02060823654174871,0.19184667496969673,0.23044909904235056,0.21763766614374225,-0.43825047567334285,0.13205263369122838,0.028600529908238092,0.058696385196670149,0.20074988468611382,-0.20909877273901045,-0.48727304005666533,-0.15001050104573838,-0.07510279168036145,-0.21520304374733487,-0.20279453726034219,-0.036314031507087896,0.15450849928301974,-0.12983300028200973,0.085182260674737567,-0.13669604752401954,0.039340544233057634,-0.089001579960328189],[-0.30044743011372466,0.13312945482016184,-0.40559394882581795,-0.22373331967538404,0.15988512909331637,-0.27073353711041348,-0.34410074364450804,-0.037686773536114569,0.11072025576421356,0.0052225179080961021,-0.44393950473947769,-0.21229570268912024,-0.19069009690081318,-0.23639852162848116,0.30013595511934765,-0.19366387865649173,-0.20992039124485359,0.07058254073635914,-0.25216876226341173,-0.14548121769299563,-0.07364958652225416,-0.12139505104292432,-0.24103677284404823,0.13852356920499304,-0.031244145267968822,-0.429829984441688,-0.054347103152385084,-0.22589771365005931,-0.37851641295129723,-0.27548800753182423],[-0.26134144124959546,-0.2831556041386839,-0.066608854756998861,0.017136634958672823,-0.036580745945670227,-0.28742243898880165,-0.00819679274687969,-0.091781063787136186,-0.19276809177865789,-0.24293805811779823,-0.22588844948117939,-0.40269024184197777,0.31362805522608972,-0.20725975541228714,-0.020979992842966665,-0.37407721151569479,-0.24324335604608849,-0.10904224218149193,-0.015029247688067597,-0.028892243539079123,-0.1094484792168593,-0.23579461119423559,-0.33056734864797782,-0.054518235647048205,-0.2477913337705496,-0.29964395073723482,-0.22878137319696482,-0.21734908908274253,-0.027258940321934357,-0.5406463152442097],[-0.29917183543069836,-0.021355921317226838,-0.84843910960771407,-0.08006673299541478,-0.15326549232703318,0.1341508341495167,-0.36352795581348107,-0.25575656656946211,-1.6775320919025292,0.044355490499157893,0.20002517997164648,0.46900526280806742,0.033024492207767785,-0.12124060148684576,-0.32356280857577951,-0.24726006017813379,0.16240473360335572,-0.11167325741256498,-0.2606106877203937,-0.51996581537757236,0.022057415929674886,-0.26882531415858563,0.050932207589687223,-0.025032051745562091,-0.14893825595217206,-0.25921310633700589,-0.37146533660762066,-0.18889182299652974,-0.070817618934782972,-0.7304426849448481],[0.162075961400447,0.032496230083430805,-0.44228540802658844,-0.21014930015587049,0.045531169178360843,-0.12679205433120891,-0.077058824563121478,-0.16215589514089998,-0.93899687345500216,-0.057585391259459565,0.16212708059573938,0.17432826221258363,-0.063601979718685253,-0.0853522410293195,-0.32236589250771713,-0.085181274469712159,-0.10215175879074548,-0.014825039607041131,0.19338875021312346,0.20334195763882543,-0.023899492576984219,0.037543851123107951,-0.35323973546193549,-0.35463596568660577,-0.32714363858243245,-0.067042847377912135,-0.0030435349205040724,-0.14146154494563509,-0.15126569096077408,-0.41191084369520548],[-0.0322770414143184,-0.25523042722440736,0.17350601157310419,0.36245187064547235,-0.32498336703562913,-0.075137974674336125,0.04005339573772454,-0.19802217657764323,-0.27871577026014838,0.18759230590628,-0.0023604606356879576,-0.28237584942152455,0.049207511636044331,0.064042824763912251,-0.24953248475339979,-0.20183025371625948,-0.064640649177181167,0.085197376316199239,0.30492541534085954,0.026112651373920708,-0.41320798260512354,-0.088525654163279607,-0.19658436373885713,0.1112768131186089,0.16226086575723372,0.035755238881564379,0.01325878002136493,-0.020859696179381267,-0.0285994103210729,-0.16297130502931279],[-0.4683205590084713,-0.30650324664529777,-0.2697012882386508,-0.27591649831050036,-0.13719879646451733,-0.2707155818895165,-0.073720938261350524,-0.46739729541269959,-0.53221822805338992,-0.10457110170204174,-0.11650123710753492,-0.46958418884341241,-0.18466312431583334,-0.45814200146471962,0.10996203952794494,-0.80007473997815259,-0.20041661512825462,-0.147403204506954,-0.23971159190868085,-0.52669275965105666,-0.11182631006677496,-0.12433340137046132,-0.0960979931519814,-0.20144300750066216,-0.43860552348968745,-0.64351929463498825,-0.036770852852660942,-0.1556587017355742,-0.12011010702626773,-0.52877021346269959]],"ActivatorType":"LeakyReLU","GradientAdjustmentParameters":{"Type":"Momentum","LearningRate":0.001,"Momentum":0.1},"Type":"Standard"},"PenaltyCoefficient":0.5},{"Type":"L2Penalty","UnderlyingSerializedLayer":{"Bias":[-12.641423247145786],"Weights":[[-0.79243856545539337],[-0.24393993362357921],[-0.95899526191373252],[0.0052267981543627868],[-0.57730489480105363],[-0.71137434376769393],[-0.49790962554135493],[-0.67721144414928236],[-1.4908768520365194],[-0.23218913370440117],[-0.91084287698874589],[-1.0834027333493184],[-0.13900281598359546],[-0.87295918078160906],[-0.1701379844210035],[-1.3609849844772133],[-0.48072741374178324],[-0.43036822726293922],[-0.35942628386455239],[-0.43994251113353833],[-0.24673112930027],[-0.56640680274063959],[-0.48554390616812165],[-0.89661973198483469],[-0.49320360341937775],[-0.8290865325183191],[-0.23284902202072744],[-0.35302828420615462],[-0.51453245596075159],[-1.3995236539492371]],"ActivatorType":"LeakyReLU","GradientAdjustmentParameters":{"Type":"Momentum","LearningRate":0.001,"Momentum":0.1},"Type":"Standard"},"PenaltyCoefficient":0.5}]}