{"BatchSize":16,"SerializedLayers":[{"Type":"L2Penalty","UnderlyingSerializedLayer":{"Bias":[-0.018880212358443893,-1.6023600277913561,-0.018148164459443911,0.032732133974352186,-0.028082738810558762,0.441319567547429,0.0055980631519407572,0.0098122900500745049,-3.7627883559788469,-0.99355876179285818,-0.0072722300520113052,0.031307392228668171,-0.041146387431271733,-0.79325808245331475,0.00025262963370711053,0.023229955521167377,-0.011585916425827595,-18.381192726337364,-4.1851180407995452,0.0013878108147232099,-0.0016468982234099981,0.0033145929485877278,-1.6385969773395104,-0.014217846833788315,-0.062632370610515339,-0.0028002924299369253,-1.1714310492712767,3.8279595885121256,-0.067741214975713851,-9.3511196896763327],"Weights":[[-1.200661946663738,0.1777890321641393,-1.1360541534275732,-2.8475971033209855,-0.20406622471163119,-1.4662976282216067,-0.69924602512614287,-0.76950168778061,1.5119963582107556,0.46709300645044421,-1.255756497619507,-0.42320655196185758,-0.25601321808599709,2.1762731353831279,-0.00959714784654126,0.16296425406300732,-0.80678000366228,0.10576915384257693,2.5140159906265476,0.23999088440803418,-0.46213121778931321,-0.659394432131752,0.084736819720818646,-0.59351335331983845,-1.6196365172873117,-2.2647108227388015,0.817562575150591,-0.26278520166122621,0.26290515142700538,0.39063846269518049],[0.45311485809666979,-0.95758583784536322,0.33359330001492865,0.13164172329753535,-0.70601133733863808,-0.46963487949757737,-0.092390899103761678,-0.38335076920899913,-2.1774647901818103,-0.014632516914355893,-0.69558938607666121,-0.4596345194780988,0.1530464509541162,0.6871600474980033,-0.02187020932221883,0.046076055458009323,0.39816461753808913,-1.3812792632555295,1.7934249637494222,0.073747988145677942,0.660179674425196,0.12650508767767046,2.9601416732913441,-0.3568502728348279,0.27280988275277313,0.3200574407263162,-1.9694793910806303,0.14346408278414471,0.065115940911393735,0.53377375715006814],[-0.97983907518739344,-1.2228325169747751,-1.3443374262769996,-2.2937502258010141,0.1022726238281228,-0.50519581665199365,0.081410279334706445,-0.38350164525093211,-0.84505714709655677,-0.97934792348278354,-0.768009199596797,0.0241744894113345,-0.8912812300752645,-2.1288648546672371,-0.0023458448319626421,-0.18491922261873159,-1.1773177001449691,-0.030526482727931709,-2.158217190854776,-0.37654505334873384,-0.19128421331233947,-0.49456654712779791,-0.0626946887211649,-0.31998882350343072,-1.7267260033992817,-1.6168310641612247,-1.0309848815717173,0.23138255414477146,-0.810017240816673,-0.45407613343114811],[0.31896131505577063,3.1638539476060186,0.29099161759636161,0.091429925378505,0.52720535021269754,-1.8435405395216367,-0.080355010483952133,-0.22416458428328731,10.982329803041132,0.93876161053839235,-0.25359914866160577,-0.14441984991212753,-0.12019498358619812,2.2055816423889816,-0.54675374971617208,-0.052613621937112436,0.57036660682371221,38.29371180996241,5.2131646194741439,-0.16284425469285466,-0.038066144405408855,-0.1592213747556358,13.975664090741967,0.41270089639110424,-0.61777862546700812,-0.58544744974252216,1.9251738014297863,1.2832222370053812,0.24576409911746097,33.727865966847105],[-0.53645081018693552,15.998069981933879,-0.20587487628932821,0.27600173120773486,0.66811989663593563,-5.8641878727048837,0.017780752395704494,-0.13447912880768251,8.329744424323227,7.429433948949951,0.23409257730840988,-0.43631513104637615,0.33996331205084185,-0.37729613844765136,0.2459034153321415,0.25771483178688037,-0.21623651395431306,3.098130336494811,4.3966357688489541,0.15549097571385548,-0.15225917471370379,-0.42550313022310104,-8.2351993496210625,-0.013983616416818986,0.49790427649397756,-0.21833037672512343,7.9148911460201736,-6.2453147603396406,-0.29531648315076831,39.907319853388884],[0.53007364542651381,0.26667523875379312,0.12899663492215885,-0.6967333626048593,-0.23765907453185162,-0.32589969493241266,0.29415851352040689,-0.50788251249784944,0.0046221483083100428,-0.0087567303069123938,-0.20922187483641463,-0.11271238141167701,0.53245959874261173,0.23450143633339779,-0.53574021691580165,-0.13319181749309719,0.20883396296855761,0.19437912284488368,-0.15311814972834831,-0.030841782723113276,0.42582102504041647,-0.32542562609436082,0.37826164068840595,-0.22254401789237779,0.33190511637620029,-0.19455049255872439,0.011769711490175108,0.11037286189554657,0.31359942834878113,-0.27358440071127188],[0.33844631297385358,4.4575882726773433,-0.0704936684882909,-0.22565131266154809,-0.23836459810768068,-2.1997707826775534,-0.77124978786409759,-0.56032039596706318,15.048517998870684,1.4069126218248418,-0.01986499036303634,-0.11362536762975688,-0.027588381264431375,2.2988141985744983,0.19616702214436893,0.17954220978732283,-0.29374955690089888,50.944490874432816,6.9213348404510038,-0.24494403921448033,-0.20831216408814765,-0.26735200394759617,19.278378151531481,0.22539369966735695,0.66490463884421158,-0.0079294831241223714,2.4249062508751744,4.2049906119276894,0.47349880449601889,45.367688348291168]],"ActivatorType":"LeakyReLU","GradientAdjustmentParameters":{"Type":"Momentum","LearningRate":0.001,"Momentum":0.1},"Type":"Standard"},"PenaltyCoefficient":0.5},{"Type":"L2Penalty","UnderlyingSerializedLayer":{"Bias":[-1.9857331813577033,-0.026366043159674092,-7.1288027939617162,-0.021101224451090087,-0.024810540569149612,0.033255180220967732,1.163749065025697,-5.9067325077230093,0.015666315433150269,0.01021751228152378,-0.28441132704793853,-0.64326101871073393,0.01102229595060366,-0.055904573379968674,-0.0080217554065249771,-0.0017207942147550507,0.027670086606222596,0.50577759415948154,2.1067054031833807,-0.8962031142533583,1.9502165731866461,0.307825169596339,-2.7149235808164094,0.24451182633690757,-0.00717743024780988,0.022886766170458563,-0.12521592074426294,-0.028710424434525973,-3.2259372082727413,-0.059032992014699318],"Weights":[[-0.39222021554125441,0.022603398491424429,-0.089814237025759122,-0.5882297788012637,-0.15621829315305497,-0.0017639089616207195,0.38417201083244973,-0.0567911999248729,-0.049559640880380243,-0.24463921352826745,0.10629077783429392,-0.26197243610590137,-0.052621672735374762,0.035118251749736852,-0.067652495196250745,-0.022876926981099679,-0.16991544413691953,0.77312736099257051,-0.75898891007347569,0.33982922766612234,-0.36149651703057462,-0.74531264254609331,-0.2548567219196366,-0.099173717245622309,-0.46563805663194124,0.12144534201526748,0.24133941664800018,-0.34630856071826749,0.2694561538487184,0.032051397356576757],[0.3403549517127481,0.040195345448839487,1.42997204269917,-0.77539604925084693,-0.10815428839168584,-0.037891109400290064,1.1379245489482404,1.1607175232380258,-0.54007914872575014,-0.095664792357198811,-1.5642002485373647,0.34245564030375153,0.14024540842701119,0.11185623942288712,-0.35197033187506671,-0.15964250299448823,-0.24345530223652895,-0.5009304820892011,-2.0430243144600531,0.0021332966979127855,1.2465960538484213,2.2379443062641937,1.5188192201447828,-0.41477283775467089,-0.08455757645532315,-0.047116337755727142,-0.40830250345777336,0.069805511200763379,0.5188083941250099,0.21645380056402389],[-0.20455463595464629,-0.10630140129552849,-0.274658160769253,0.11713072477661184,0.11991838533493772,-0.34169106477855016,0.426925696790856,0.072888974413921045,0.26411690105461189,0.13039668113566022,0.26921049308479666,0.042750297327926394,0.084570033213959478,-0.18108756785911737,-0.2351519128683971,-0.038156186038628928,-0.0016084208780356845,1.2954607601545252,-0.57785189450417784,0.40098859486009669,-0.33441417431366877,-0.87933058476750381,0.047489369010978548,-0.29475923098897833,-0.044668444776883524,-0.37493133938729117,0.19472808464132613,0.11464728683666774,0.246186176306832,0.21166469792783182],[-0.29292326959776183,-0.19902852350316069,-0.900000301029087,-0.18457738145307578,0.020831020755599755,-0.29945025923442031,0.906470316716158,-0.44817850226954131,-0.0061900085752120988,-0.18991731701160372,0.81802865498304789,0.24262698155139278,0.56468083038095185,0.13143408543744053,-0.37635840306237583,0.14814004669413661,-0.10013467123149859,2.0617465589772532,-1.4261014413040727,0.80330404139982359,-0.21895730254663803,-1.6705403196321349,-0.6733352755238341,-0.49759448965197611,-0.29284323464536571,0.005554338749215933,0.12670711119838984,-0.073687754201393077,0.18274220577615885,0.21418579807926857],[0.14345126484670043,0.1059253376841364,0.16156346235877345,-0.080154906884877475,-0.26854092468808011,0.10560417009035995,0.074063209308491446,0.048024060831217137,-0.12057500978901997,-0.224066358006677,0.1964091777820296,0.15485207548485916,0.21734622852414773,-0.21531397782106251,-0.19758400381832766,-0.10623038252128846,-0.2436403681450377,-0.27583103494204581,0.089550953306157907,0.038942602369226809,0.0088123718437746277,-0.10403097658172236,0.1014278513571104,0.0588954051887774,0.0883191321403957,0.16533403599474189,0.061467976466200835,-0.068184115210035326,-0.057175704520661966,-0.022692426848889953],[-0.29880432834589621,-0.0037003796844039352,-0.83904411662098988,-0.525391695259639,0.21169361594671876,-0.21030804808022871,0.49441427471426846,-1.1623401056454905,-0.18951100955121703,-0.042486782847337194,0.5586353456825478,-0.56793894975549553,-0.37638550574331592,-0.098175525274905473,-0.43055949219175182,-0.13440663491807009,-0.44749956817522429,1.0234150854152277,0.3984313231637755,0.29911873639725273,-0.52349089560332973,-1.784378693663125,-0.94513245432186621,-0.19886723383781493,-0.074908812454771129,-0.12098361193168797,-0.040468514750300867,-0.42503181476683666,-0.35144950076741566,-0.029695396538926569],[-0.0693573202655901,-0.37125051712042406,0.058940479201152633,-0.23306538914941744,0.1774775463107913,-0.0907856450378672,0.15302702629451065,-0.25149530457833175,-0.16035727139730258,-0.51253696850726638,0.32702086043129525,0.28784677729558295,-0.034572762497280585,0.0790145039240791,-0.081361685719538945,0.048843418510084204,0.313733520298374,0.32856892922934111,0.10229437184689944,0.084768522641483615,0.038983195158955139,-0.60597414101678182,-0.24659052180184662,-0.1049536428445033,-0.09261235092411528,-0.50094561012439953,-0.070694912234594245,0.289571183025253,-0.17137069612733444,0.2604863768787728],[0.0082266538685848885,0.16436780336936999,-0.21713262629743207,-0.23548811846565387,0.044933512160333672,-0.078553537961635056,0.42908678016324403,-0.16978534456446542,-0.0843619973519843,0.13505665297072073,0.17392065401501128,-0.13037990412461578,-0.12325325887196668,-0.23763840512853904,-0.030067237837150297,-0.12483166621542068,-0.015552373230062954,0.451992590664935,-0.19941863982346975,0.13366341756749359,-0.27086573149894544,-0.726849174458605,-0.080095966607653321,0.11408727219373621,-0.42768821600077372,-0.35645653953472439,0.13174188773898854,0.35119512525462943,-0.13730702497376349,0.13266823449508916],[-0.15559105262151496,-0.20657985795794143,0.89617860951300021,-0.53759817902494489,-0.10021915862982327,0.41865484546796328,-0.79551528323935838,0.063560391242815928,-0.50951693087879568,-0.11245554647041925,0.47024351883979348,-0.41953357378369238,0.41653743949475514,-0.14994178650921472,-0.17938920230879585,0.0045138507796478947,-0.56536639398585053,-0.21176937214322286,1.0349435963225828,-0.78466646779722038,0.11872721814151262,0.29169835644217562,-0.44523797137309706,-0.68170458607856721,-0.38433665397183853,0.24882156754569912,-0.90721342389875159,-0.10118682045406251,0.29764249871245274,-0.11244555957456189],[0.0018363397732540686,-0.035281008457482166,0.76208984756882414,-0.22333740983103045,0.099316452740514871,-0.19136952278945546,0.33917084931639596,0.756966264308253,-0.20913125264797577,-0.1151162830534989,-0.74112198629604908,0.20264886100194726,0.25201996081553962,0.093194385239655356,-0.16350975293823486,0.022064585539710344,-0.1143534117788757,-0.033097578300000347,-0.96723996390402767,-0.021593990261933017,0.30828240669422541,0.3261742253572093,0.653186338481925,-0.18868736628025506,-0.090892550385738319,0.14849724325381958,0.17816437012606876,-0.19053159268040118,0.42932577790180343,0.080170990915668344],[0.048241612623296987,0.34735208239396193,-0.083723335928357859,-0.099577352684211473,-0.048957602874683162,-0.30524969614155922,0.5087584712423584,-0.35940225268410836,-0.24012313490082982,-0.18348056915727609,0.37975708714038825,-0.18621717781380906,0.12361571716829195,-0.0022634921521780976,-0.048577930471683052,-0.0723583534934282,0.079401385969587734,0.61401835606893207,-0.68524904808991149,0.46497490131560576,-0.24100568036209286,-0.71591178451709725,-0.337009975565046,0.30886206754654966,0.33415858583201363,-0.10775061090008251,0.4587188260912774,-0.04055843487351983,0.20338837864020731,0.2380136792530915],[-0.13767357523890089,0.03466305955935086,-0.32062394034365904,-1.5250042361901357,-0.049891012694818743,0.13268397845689967,-0.29539860675934071,-0.057628680849733604,-1.1732763983009518,-0.47984853973722813,-0.15486553732833031,-0.38659370452325414,0.0215698827986132,-0.1240721797852805,-0.58901102810941541,-0.09409297287340497,-0.7577045175158289,0.45569455330446212,-0.0099955234532988942,0.18411159256396095,0.2231117020850176,-0.49546652989119178,-0.10394576627453196,-0.4368442573764667,0.11704815942296883,-0.15137460499385033,0.0161082037085387,0.10721576219965535,-0.25746338343608427,0.54938557753592032],[0.1106014455126199,-0.05873121992492205,0.20639785067681343,-0.16709318088560499,0.25352446236961468,0.12124337743639058,0.24941019293531078,0.023328107816536089,-0.0919136782050146,0.25118056077729395,0.15351638164457282,0.11890392044484999,-0.0304806858249208,-0.066889213102893211,0.038212656550015184,-0.21989252282114402,0.017268518699683325,0.65033265528636242,-0.19954039176602978,0.17486103387514745,-0.38030023501237614,-0.52590919041280182,0.20355592028922731,-0.058482436697642692,-0.033871275153014885,0.21218536036892008,-0.17200916841812536,-0.27130985648893091,0.060022204670660322,0.12926856160548722],[0.69955111956437277,-0.026377215718367306,-0.27506588480047067,-1.3133450068591288,-0.0075227609076444083,-0.15170892472159325,-0.38319299609333141,-0.6047514478882251,-0.35307660919916795,0.0026388221517670805,0.69144503973623928,0.049320191629809274,0.40049131281535355,-0.34392114186383982,-0.31597522388970406,-0.0994148321419616,-0.54088249708180036,0.012062579296556887,-0.97471032164654181,-0.22362597040054649,-0.56282069394291834,-0.030251194518798395,1.0589614480420779,-0.11536998105608108,-0.16344382417751449,-0.34578998461487087,-0.56028390449847987,-0.2667470933821518,-0.327901882002094,0.26867208206477339],[-0.14047361789418431,0.14406654234811525,-0.014358867561729778,-0.059011641539127968,-0.080470299475827345,0.045541489213824921,-0.061840870058753494,-0.11239237033769733,-0.08434692159766459,-0.20763711197217957,0.0663079820040299,0.057612925662134079,-0.49388110542282471,0.17798004425243447,0.011516079837336771,0.003570612896729484,-0.024506307861797864,-0.37964859969531595,0.22526991448903586,0.26024923372338,0.13404774059904892,0.33292123565398418,0.0136881495038266,-0.077902292141398891,-0.35599840764444168,-0.23086609993498922,-0.063275214815988787,-0.11995392936011175,0.1145276958256716,-0.015805525319029241],[-0.1283448237960732,0.318002863422847,0.18573141640173424,-0.25602158017944959,0.15711116611265089,0.18063268202205807,0.018847576443306292,-0.029091895255431856,-0.036536772446180837,-0.012753215668317233,-0.074808781305391564,-0.044327062542758054,-0.33352537245488528,0.11400040727249164,0.14974803051638072,-0.13601064987294206,0.0022480911406555009,0.13900589600375179,0.38537602563901835,-0.12327338393034579,0.39165362485326122,0.12274544511166864,0.036742855058473765,0.29985227076146143,-0.070294526623566861,-0.15292973614862876,0.16009176046396731,0.19443894780684823,-0.16365296821200145,-0.22301791755243483],[0.062428210961537264,0.076522726159060958,-0.31935750542934283,-0.4143282809358973,0.35732012470089008,-0.10315630353906544,0.25739747448581057,-0.055093390400579575,-0.36335634563386943,0.098944428174711441,0.36710086494775857,-0.12549084758106247,0.248930321119991,0.26275223780629681,-0.11816159587744739,0.13073859705246105,-0.34666876725283241,0.71771747592030866,-0.54810460928185267,0.7897764832284826,-0.17615883372342203,-0.42484742626525185,-0.11411596781053174,-0.42100855638336149,-0.12477583583728738,-0.11757717968337304,0.14117416084197818,-0.024173381051524893,0.18209242620682606,-0.12454360816694564],[-1.0185586072232622,0.042637227890876012,1.1721352423822493,-0.42989514622321712,-0.45164635010329729,-0.98152829195205138,-0.28609078547488731,1.2722322028246835,-0.51963484848616126,-0.34448477577311232,1.1218968166167536,1.0645211806397246,0.44707733397299182,-0.0031438841959565336,-0.22679829231609103,0.012370594093623118,-0.64450798011301691,2.66338358648621,0.18629227815782426,0.86394898748749271,-2.4321097879156288,1.0306604822747056,0.16477787383647322,-0.530563261444946,-0.23158187961097568,-0.42375534085401695,0.78905441408991606,1.0181543611401414,0.71287514827210752,-0.29582378777238416],[1.3509875717168705,-0.45365379199697153,0.78050063131896263,-0.092658352908256358,0.49878356453051126,-0.096696487592370817,0.10695887433090219,-0.39354375136122027,-0.25818043914544242,0.15601631971403254,0.018805915082015588,0.34392952610545263,1.6279313641781883,0.11279283087023699,-0.27596673830432217,-0.17375327135162769,-0.13704604729089329,-0.06100981445432363,-0.080264121248564885,0.451247065014332,-0.11867304822933851,-0.42106413388696357,-0.23482818195967189,-0.032010579495619564,-0.031625242394580248,0.77800023420258668,-0.78334706380965635,-0.4761787206237395,0.0045078893618840194,0.37703084181263757],[-0.096228642459472033,-0.094376781941703056,-0.145109184559963,-1.0868782014030638,-0.024206792283638836,-0.11667412331716294,0.19781508336310852,0.18979096224927181,-0.65333595387045429,-0.0269751004178379,-0.048435546950403231,-0.20868237664562883,-0.092554079855803467,-0.050622808813654073,-0.50339088133001142,-0.11011112142607647,-0.10181970319818205,0.051735388486203848,-0.083958267397383685,0.22857676388135076,-0.4084899762179634,-0.061080298702748094,-0.14975352831059038,0.0740290457186576,0.12039398659379107,-0.11829776492766249,-0.38533756436692496,-0.13758279367935503,-0.23209447094276806,0.41055147615851145],[0.11682209900378134,-0.13286647215600941,-0.044790647366529511,-0.30204796036448228,-0.05139947448147511,-0.068142451260636949,0.22878846966901062,0.058755083023437508,-0.3306645430023275,-0.037468609460372573,0.28637684032284383,-0.10802385677704594,-0.0884287799967457,-0.11848822422448753,-0.11585843684182372,-0.082962225960523814,0.043637435639882864,0.15759749616346835,-0.037128777474158541,0.14551522593603847,-0.06929285043392848,-0.33591957021669372,-0.22237373596632606,0.037056904596733692,0.11101971589407503,0.0970502362302745,0.041270969682018231,-0.32473666184823635,-0.21753129769193469,-0.010263390260428234],[-0.0015710815449484681,-0.16906346567412403,0.10272594804199342,0.097058186404697239,0.053765672803988883,0.096901384385600767,0.26672140803341432,-0.096900381773553937,0.5121179533353396,0.069586376691069429,0.4058858794498762,-0.14459604587142988,0.325864017095934,0.095553218498627052,0.073499085822106652,-0.17524989795238655,-0.28978202888240062,0.80870608852336734,0.11631830848712454,0.31210150620001414,0.035794529627139776,-0.3781735244977773,-0.26279943412904638,-0.027470688401666898,-0.018550017323896013,0.14216831429838692,0.15926893750221818,-0.019805602715491019,-0.10901934268262821,-0.19905221724154845],[1.507852249105121,0.048102949175058779,-1.135325095164105,-0.92793017157225166,0.29217834418295729,-0.3890228451951307,-1.7537869110419897,-0.2176627078235677,-0.91362685888620931,-0.26903561759020195,1.5043910515634831,-0.18937749270681475,-0.5833226481835645,-0.32649079668380904,-0.71469524872139223,-0.31254735994980132,-0.63961782360382413,0.690058785925222,-0.52859512077729121,-0.047426955439292422,-1.7101513290186188,0.48871283118998726,0.85246752605784326,0.51087222098480478,-0.19935737337407036,-0.45456919694329928,-0.508562356356932,-1.4148311934829922,0.3138503461295023,0.0620133741218418],[0.019979196656064489,0.010920033268369548,0.095845189733312172,0.23299915989576459,-0.2602254039441082,-0.2748758520599221,0.1871242886529598,0.13520158622879488,0.24054820329805288,-0.1421137251425682,0.0986757051044961,-0.070700976676597124,-0.15851138829548597,0.10577060838379034,-0.16505175412821727,-0.099645384146230837,0.23626063592600569,0.48395233082286526,-0.22975923622663019,-0.24821133995187408,0.0939456639356714,-0.53145583434627253,-0.20276314950069824,-0.04610657834447341,-0.027486074893653869,-0.21508056669798223,-0.0868352421066421,-0.096418374383253777,0.0981720356570106,0.10345963449921657],[0.18326171074089023,0.092737433160365881,-0.041771398538986426,-0.2756355045392479,0.08480697204162399,0.01051839293988828,0.6406007737769458,-0.22289213707801575,-0.20013872036313862,0.24444282046962684,0.66488492563429369,-0.15014974646350771,0.40495334069548844,-0.25992395036505989,-0.10715046352590377,-0.21488265376097218,0.21197495990911977,1.1289356739053775,-1.3113257442782558,0.864817302895189,0.0537383207787347,-0.943607833708596,-0.08408274265117531,0.0974872434664757,0.27090205175146,0.16746889178951233,0.050882118996616446,0.059939136849054019,0.67958088236575165,0.37370469737660644],[-0.287129409874365,-0.10059957779807419,-0.61154349425735877,-0.9328444600824245,-0.26735339896179261,0.0023241087340545941,0.91745300998192547,-0.282964004003253,-0.21512110636148615,-0.13131066390685844,0.36895935038336575,0.10577624398583502,0.72998228144926036,-0.31829564257114212,-0.6845348935637019,0.15688126803186109,0.050841062904353508,1.4099489818021933,-0.956133602916462,0.63666133984163031,-0.5072833392353765,-1.4731863807590166,-0.51335749568477984,-0.15984560109317844,-0.13246015635137723,0.068369093706836012,0.21687888167464892,-0.44364305461642639,0.500766625169782,0.18616027311855932],[0.17587372613332417,-0.23870157963020722,1.3008485165584744,-0.34571000093598264,0.0014017185711897948,0.10361595748043609,0.19358896510545595,0.80880309585346866,-0.76682822553222918,-0.021140154357735832,-0.45610355880926773,0.21988902009938394,0.11286758997275133,0.046469591255719589,-0.4065211865709521,-0.10543477627921265,-0.15607119156045915,-0.37009742380190874,-0.52446933744259294,0.0015303415434638925,0.37782739180677455,1.5139712314557297,0.8385829035421889,-0.013096656616603935,-0.031019081880759386,0.090760901932254515,0.10249934146532773,0.081171505430681232,0.16018674287339937,0.020688726125147834],[-0.1352497142128134,0.026644583619696738,-0.10601267816281217,-1.0909423248668355,-0.35387769176770933,-0.43138966557795511,-1.2579109072364456,-0.6986610786273505,-0.41953268204283989,0.091678176907993347,0.58389047797038307,-0.49279281602689246,-0.33810894580769785,-0.14001381480088046,-0.64484458218583685,-0.29698893120518582,-0.60712494920658144,0.4927105953334131,-0.050837658265197858,-1.5516372282782693,-0.3339952758064737,0.20260092478287564,-0.022365339019366347,0.010747874026670571,-0.19461088080229813,-0.658189141998227,0.38232905514602356,0.10529675082464055,0.7802433517192362,-0.15520609087210291],[0.20458817899872614,-0.0673770262841755,0.17285117971048225,0.28037634194197103,-0.24615298246556472,-0.29430187968656579,-0.0523635663845868,0.55877319125345359,-0.13870863220747642,-0.38122379446911081,0.379502439082544,0.20959096931516738,0.1828403392719746,-0.45798293593609363,-0.0099759940059848048,0.080443229861787258,-0.033086017706336394,0.41339299580909633,-0.025751301153844497,0.37849068993013141,-0.18370353561786698,0.233050323220837,0.20756359593780763,0.33001428771254004,0.15865035867286687,-0.19806813326732198,-0.15800094426688038,-0.16519633903966069,0.42793795887288061,-0.026597806707870215],[0.30672651842992,-0.43152584822569778,0.2452359049674295,-0.73324531042763275,-0.30744211959886797,-0.27161623599206336,1.3825352308875079,0.36916168497603219,-0.69214149450158569,-0.0661010894386724,-2.0729248274394463,-0.18325348564112234,-0.69973922488843776,-0.054917560434306657,-0.38488768980469035,-0.49653087727917045,-0.50297732130797179,-0.19422287174508002,-1.4252554564826439,0.18894240848164445,0.79624273594729855,0.84615169182122507,0.62588096566068208,-0.35489475925690045,-0.13130168249076329,-0.56516219581482519,0.34930216759857646,0.29956610325846911,-0.03436682785800213,-0.19330658833180581]],"ActivatorType":"LeakyReLU","GradientAdjustmentParameters":{"Type":"Momentum","LearningRate":0.001,"Momentum":0.1},"Type":"Standard"},"PenaltyCoefficient":0.5},{"Type":"L2Penalty","UnderlyingSerializedLayer":{"Bias":[-0.84528608774398761,-1.3827474900971017,-1.4825799230416992,-0.014758248107752186,0.30065561900709886,0.024688953432434577,-1.1840152606841883,-0.71464911978839973,0.058688824199774822,-0.39850238239233388,-1.0545760830426449,-0.0028063804555966835,0.42967731841654028,-0.058472634333544514,-0.00540366801656937,0.0021249067184863917,-0.36824548561432485,0.0058632090366491311,-0.001447305548887685,-0.046338900248908389,0.59084221132687775,-0.0059078740572638573,-0.76274095121506724,-0.0084918709232210243,-0.56540915413971493,-0.39221914276635533,-0.35407552475654613,-0.021187319567369127,-0.20031080681017568,-0.71264325623314606],"Weights":[[0.84494568272723458,-0.28336692449777273,0.3279346710077341,-0.0998668670626185,0.39679611970287343,-0.078242425855498676,0.60877023909858918,0.36444765425691555,0.12179809019907702,-0.16887457594370409,0.24651646499307092,-0.073215950663085255,-0.862711716988281,0.16107536076733062,-0.16007675292694834,-0.013459711617482129,0.023333371687949148,-0.084722891971891881,0.0090223586425530623,0.52068163335788364,-1.1063054388812335,-0.11178115909162696,0.52651431627378664,0.14356916218370308,-0.80737142198778356,0.12080742064840004,0.25240214669046329,-0.53025182090715828,-0.050571777732907476,0.62256422944633116],[0.012675366445150873,0.19305086286149981,0.3138763827063063,-0.057271293595514208,-0.10376141585235887,0.017465247183049565,0.36993950524339292,-0.37827403215019845,-0.22853518007380577,0.23106833783272007,-0.071070403812246358,0.040901714213651456,-0.026162728415984993,-0.10508756434443986,0.025353625108061554,-0.24356429409095812,0.07127290477419794,0.17086695709686692,0.047806331451432024,-0.11892794506767607,0.16424045610698226,-0.23019115479641822,-0.17593411717329949,0.020104139769747745,-0.058188806910121064,-0.18442966127060292,0.12019068075030791,-0.2074950467673716,-0.15400709754329828,-0.1882818175435948],[0.67518916806127438,0.46117741990270378,1.5601123503472958,0.14584046533020756,-0.014729523400402124,-0.19192498871416511,1.3369955538707028,-0.075147777064338492,-0.26262913627610718,-0.8579912868186812,0.69703746160858537,-0.19671041726366037,-1.3979610680818477,0.12168038243302418,-0.038190076307145375,-0.19404664785917997,0.65937739751430091,-0.18400475631345931,-0.096440611852218278,0.022092422440176659,-1.2737194266267111,-0.33999984074829775,0.26758921132961638,-0.33112656437267662,1.0989642749514819,0.32835039514130859,0.10463733887394869,-0.70469983646289514,0.35077027418154744,0.78816024397901407],[-0.58240382237368415,-0.87571949316480857,0.032827322114970796,0.038723492393305789,-0.23586742306084213,-0.33368940929819207,0.50815620766089054,-0.22344965175704462,-0.32150834175125148,0.68158922670797761,-0.68908244326453894,-0.13118479702724434,-0.2711793237160427,-0.073918385034566242,-0.54723360870375892,0.19942608962852981,0.30748558687952987,-0.29400013044200379,-0.089692052521556126,-0.97744008777126978,-0.37887826098862948,-0.10778387134124723,-0.43307145546582887,0.0034482097391914982,-0.092439395211077816,-0.61291841790339952,-1.0991189089545628,-1.303894155301595,0.26216184223068012,-0.22861486460674196],[-0.031617074255348113,0.30962856091862356,-0.22041281605332697,-0.15802882575639088,0.098782283218956463,0.038356724496783137,-0.21827153654194881,-0.31713740792543527,-0.15101687991181972,-0.54152522930628733,-0.06584112146216671,0.075497903290787469,-0.074607254758420838,-0.3596461456066587,-0.0763845686782007,-0.1559850648047203,-0.15383691467941343,0.25897412660299829,-0.2138321667882887,-0.14597527817027192,0.1356661357445616,-0.28089305464156278,-0.45275900203653036,0.061604126287546544,0.29797887819312913,-0.13869522812453367,0.038453831102109856,-0.16235593105947815,-0.38835336469492149,0.091314898196108385],[0.1869785680449603,0.0402572429334171,0.17943234637246144,0.13518538206153336,-0.21081144563764823,-0.011443136426709523,-0.093245811376756069,0.28378173373728754,0.14171091466800892,0.095357854501245454,0.20694029408638009,0.049054985017329668,-0.096857396154490266,0.33481377129981993,-0.13229330590391353,0.38016372346940092,-0.061871568076984629,-0.19022340171734484,-0.039215523481951384,-0.05200220798052986,0.08658378838455405,-0.017559060839113662,0.36901047112339092,-0.037106116867230046,0.39492178399892719,0.16712699314919216,-0.078356181297716973,0.0396760393129581,-0.21398179943451109,0.116244894743831],[-0.17047522996107953,-0.71881312696657251,-0.55722000995510834,-0.14038503020897516,-0.060336959189762125,-0.12057576199104739,-0.27137549496703461,-0.38683367357022341,0.13794356066434743,-0.10018134311153135,-0.75540469146298261,-0.32715789032855752,0.043016303363290556,0.23931605321216931,0.013000392639822632,-0.079145270924457889,-0.41084534915015969,0.17814358650305698,-0.31017691481449389,0.12848049247689922,0.051592586896147465,0.2354962920846623,-0.2620475367947398,0.010668614166745583,0.16019777302710675,-0.055231653698125396,-0.35849952674676144,-0.016752079593425374,-0.54186792808853357,-0.26743742545486654],[0.27797284593088717,1.7490047561110063,1.2243932130523285,-0.36521792862483488,-0.47077050909609686,-0.29864253422179821,0.5550828524921847,0.16984890995108862,-0.72142997503683,0.33884106885457188,0.75507555748540578,-0.056434944943511096,-0.040474941355631,-0.13430894034718985,-0.1464682342931237,0.24167610762015321,0.92643539135229924,-0.17074296206633374,0.018519675372843679,-0.050395065780707425,-0.51996803254402,-0.19107534758724798,-0.24231118963275727,-0.15088488699865324,0.27187769670446194,-0.33324247508203303,0.15268126403714447,0.10317964426305089,-0.28629219089229607,0.29691704135544611],[-0.24379894800077812,-0.84704329283240332,-0.15440228293488523,-0.24604339646364065,0.014979405982859713,-0.15917135796664989,-0.1575578832319085,-0.12869774227878905,-0.15328718074971692,0.15465574628873227,-0.47672406740027012,-0.10109972959298769,0.028916673228333165,-0.094106541502015112,-0.78593459446899139,-0.2031685486460032,0.38500600095125248,-0.077675748588975,-0.025266805825341205,-0.90448313807726588,-0.15846502586085456,-0.1310146013864173,-0.36937939203597858,-0.10342012924615762,-0.0020703821964021037,-0.80895194727073871,-0.51038843120931532,-0.95313597532661509,0.11907203826640962,-0.18854223840584211],[-0.0050091610843206241,-0.33607635476285758,0.032260710869881873,0.0059069579690281581,0.24068958080764488,-0.25567805336959781,-0.15270693019551265,-0.069807937768873882,0.035009919897557487,0.37385616345738615,0.23419015481520067,0.33904494987396561,0.047976286775379885,0.011462592460904543,-0.1196785301436987,0.18875517634481051,0.30645361332001386,0.081362694126264914,0.14038168872830478,0.21158386941466686,-0.040800496995605007,0.0065207067132053388,-0.067738175066168679,0.24134363599868605,0.06363893981692155,0.18582006493154249,-0.046852921719854224,0.083414750650397218,0.22209450302382575,-0.083086961647363552],[-0.903315623216103,-0.60881092588675167,-0.63783054742274559,-0.029179933459223335,0.42829745282935666,-0.029593054832505461,-0.8367762230038005,-0.627310245074301,0.13100581887437138,-0.21733883083568709,-0.84597377115363581,-0.24933803618844036,0.2400868652010491,-0.30491265521219846,-0.13385747037064882,-0.1081059540217354,-0.26025940876181075,0.060236455336527037,-0.13334626887156767,0.29482276891017412,-0.033731330667142449,0.13141122463131019,-0.6908164546654143,0.11151180983765947,-0.652592787258566,-0.28333339226955634,-0.41668173416890397,-0.25951546835649536,-0.27726684147873637,-0.62082095060927878],[0.088633036234770743,0.14878709072056193,0.2560622202526886,-0.045222245041511268,0.44178769023647607,-0.34234319214485032,0.23695758685665533,0.0713905290681498,-0.075354222506142585,0.039427667562925962,0.19785486398201077,0.30092857496914965,0.0936706671566661,-0.30339346689224472,-0.3104229070360085,-0.23044498828746052,0.38155701363340205,-0.11128481679282844,-0.15913759977222849,-0.034917163189549079,0.1344955939874628,-0.026772285987789336,0.16218923955428924,0.1818950926741342,0.13371644751075298,-0.11993991165664975,0.11613973264431164,-0.23921170103126796,0.013395022506475878,-0.076824641185357354],[-0.30786757052757557,0.017149601827019672,-0.84663053276960187,-0.18666289065148353,-0.063167932963175369,-0.18960969458759708,-0.23485642490527195,0.039287916264179649,0.076189806447635774,0.15161491408950384,0.21735982883404145,0.024912693150422337,-0.047710889671074994,-0.12968663503036271,0.16344275591955107,-0.041568366287387228,0.565669908691217,-0.049542270063041766,-0.1578561210196047,0.16562080584621938,0.1320318296483709,-0.38354146784789978,-0.021112653866155805,0.047266992328015366,0.27207876836239542,-0.19973611529607249,-0.21513998027914419,-1.1059845096918046,-0.2762087435914799,-0.39842235505430224],[0.040669766229745559,0.069194880354266922,0.073591368460300621,-0.20764912285983947,0.22488991800922903,0.00086349491071265993,-0.30435812803635226,0.22327020035123488,0.15251535035335956,0.11120587070198883,0.072163399940082432,0.062477853122929451,0.20704584364192763,0.003883747802349707,0.20387284659573821,0.029318969040664007,-0.11511215954619783,-0.410606701653119,-0.15811957909357158,0.03591864244700254,0.2707258169836938,0.030178082791158488,-0.021583693607927369,0.267720000561243,-0.087709873872273442,-0.034245925716686387,-0.10015943225648886,-0.27211506855679551,-0.055530909313684464,-0.17876165693130408],[-0.15466238828066772,0.25384210328592055,-0.046092431985490574,-0.18311034808157059,-0.1220058636096798,-0.031224430210808406,0.18411838281556048,0.236393841613107,-0.10108840598691829,-0.26270005668350704,-0.39391657771292388,-0.18742811596527156,0.19274540844377533,-0.17245867964590617,0.025219540691572936,-0.11125731285964011,0.03429792598130256,0.34901979268719091,-0.038641220756160721,-0.29394655739839548,-0.18103743958791468,-0.0615011877379053,-0.13017457426337398,-0.25030505403635289,-0.2863392575694173,-0.048915021051589458,-0.18919755667015109,-0.33350664160558435,0.24668765724816433,-0.18569726115078736],[-0.30438976397230055,0.099286663121735341,-0.00524219207142246,-0.12455499686878424,0.049123834727138077,0.21352227218546407,0.083052676644924772,0.1003266011858165,0.045410913394866491,-0.13100624466400002,-0.1416409621680533,-0.10979026696837392,-0.23135082208451616,-0.064583935768544168,-0.15065402696755326,0.19676495651076273,0.31496155930007314,-0.034873985925733847,0.003583586162370353,-0.23276909098466542,-0.21985117682298769,-0.03125120041513213,0.14420960557524926,-0.21544648878555986,-0.28002645974758739,-0.41593640699985868,0.047198938001287417,-0.2421257329553522,-0.35258393680874578,0.078787594411866918],[-0.51894161150407436,-1.0856937353676679,-0.085797069172745627,-0.1106266643802359,-0.012857872750711048,0.10776035023830875,0.024726196597634115,-0.65854782395054645,-0.27354556116805734,0.46803406674437709,-0.31658856809484515,-0.16107040705189318,0.120767710068802,-0.026779239507826749,-0.51543678570448992,-0.22323381595728234,0.089576198356760936,0.006740148423950116,0.087591491077255765,-0.85538465574625511,-0.30095253201173466,0.14834386716899167,-0.47945411480531985,0.0039352464204000306,-0.16483642116213756,-0.58556835293269138,-0.689232338306459,-1.1004152149261957,0.088819700876679647,-0.24580743103804337],[-0.7191427782433657,-1.1976601063110695,-0.43839185263622332,-0.030261521741789671,2.0046891069449542,0.25293745768372622,-0.52480549225651307,-0.52280074679859645,0.059820319201604431,-0.36231517877797703,-1.0379286982589211,0.15394248257169166,-0.30797717767213595,-0.0661384196319346,0.0033891438852703105,-0.16095348610528265,-0.17663478604929991,-0.052347972065254447,-0.15342666511651293,-0.19923004668631569,-0.18546961908723006,0.16822777651902052,-0.36001991914516696,0.011744739620261173,0.37745793286296742,-0.095475270128069431,-0.42911930586917491,-0.46577779237591832,-0.51500241620722553,-0.21080572331148637],[-1.1227843805954867,-0.5519225634964402,-0.54940942950889371,0.14075856983435686,0.26555521061820508,-0.31433880175809092,-0.22544360463483126,-0.059614553449684755,0.55183008518637933,-0.33684146310447804,-0.73895970144956868,-0.10560323445895774,0.59409947600584923,-0.2841209673621275,-0.25375743906476073,-0.20610007188327206,-1.4156224438242817,-0.0937142067054254,0.094207017390774653,0.2937938296535646,0.33880631194108018,-0.10301667617929233,0.032628087285910906,-0.151737114391495,-0.047912290805201284,-0.055627552025565873,-0.506122073455014,-0.38909293928343869,-0.1531479257876513,-0.46993193556435109],[-0.40490077906351418,-0.75845818240106089,-0.39168356780436586,-0.24393131529697415,0.014108894184060517,-0.15211441633117187,-0.853411927438982,-1.1075054290737,-0.039010453293912235,-0.2284259533160887,-0.015653792989018752,0.30414787099911333,0.16932025015371854,0.098178445335109985,-0.08040751600312615,0.084874270486642187,0.24586986457082452,0.20837993728679274,0.0049839835645515236,-0.586279829236315,-0.1688392977182232,0.20438355182498874,-0.85901305870961209,-0.0476782734875517,-0.48193484339428166,-0.4513805589192163,-0.47371835606533474,-0.72183302848867359,-0.067645191699002877,-0.539997763801421],[-0.29684653625075341,-1.3430814075797151,-0.27376210640461035,0.0090413351154182819,-0.10038771463130979,0.013584328735971304,0.069472812602474551,-0.29448805459014482,1.3025492909079448,0.047193342971200404,0.22224085083000139,0.036618881554278955,0.11797041676917074,0.16921006431830962,-0.079783981233426032,0.05748796711171035,-0.565419924886936,-0.055445631202321093,-0.40452559793722787,0.014718704097451912,0.096874142515254225,-0.17788655865824243,-0.49851430805871716,0.22810436683123489,0.20015044063543319,-0.29248389039558553,0.047767878740878081,0.40002501313917438,-0.56370706204948873,-0.81974595780517645],[-0.279444411015283,-0.50911472033264171,-1.0628204295966404,-0.10871977534477839,0.24979790358528681,0.057412811316036705,-0.6056256360275758,0.919866972486874,0.040389531818126954,0.18639647357888653,-0.59825766036315076,-0.08811027947630494,0.49070490487999407,-0.16308499629912077,-0.26724329461184776,-0.24848082554806328,-1.175325151576988,-0.20430165581458548,-0.094395029725761581,0.81167082137885149,1.019218943000179,-0.063618167807167447,1.0917678154880637,-0.28516129069365564,0.48287900579580889,0.82104319804028192,0.3982999548067202,1.3192745202155856,-0.028253678734662294,-0.49234665537459438],[0.39178172484997725,0.77583611308219236,-0.39620603436093255,-0.24053778308964238,-0.49006566282403008,-0.20195793947416446,0.12917683815094305,0.54086475496988007,-0.84466754457601578,0.32944684382666184,0.39538898040727061,-0.18410666058905048,0.1077810584576539,-0.31521213609529058,0.038832830139137735,-0.010013646715919337,0.30929785558355516,0.01202166264628143,-0.037576110012202832,0.50586791321417279,-0.81603016345316348,0.013280683028309679,0.52583020101537625,-0.069286135401332036,-0.41308972869233351,0.21029560035344752,-0.0087680390727512564,-0.19401191946976326,-0.089406082655651767,0.1693168855126039],[-0.056083603216021682,-0.15093683686630877,0.13338581609623892,-0.035552832420825589,0.15193717615253508,-0.068245650282462308,-0.31288159172959157,0.68200737416351731,0.010371322792585283,0.013922347226548459,-0.061447733776780873,0.11290054898320404,0.366651676807414,0.036008147983993766,0.036659269781526164,0.10107108482538636,-0.12777502294394746,0.14361814358095676,-0.010654852714477085,0.34770203326094246,0.42441135209871678,0.056790309574154874,0.53446577220830516,-0.099561387171832424,-0.063224745022783663,0.23517861433229176,0.27991813600900856,0.26116744708703443,8.0781285377527163E-05,-0.040082384046372745],[0.16814774317637529,0.052170890763895368,0.099453604603985446,0.2208760326433192,0.035997547167041406,0.061993779719915279,0.30871833641133428,0.2984137871224723,-0.15973237375463864,0.010273497591738592,-0.23580957870259225,-0.056891448688361219,0.027275644143322494,0.33226534745347219,-0.32007098158919911,-0.336018696592045,-0.025011555229802064,-0.078606277000781752,-0.44463725440409335,0.026868207250868883,-0.0049486025785447155,-0.095492577774886678,-0.24375839636198257,0.14735168524160736,-0.035298371589410932,-0.041260904696283213,-0.12231596777810543,-0.25245250519992712,-0.10550809672626374,-0.059741176603477913],[-0.0030133373224710304,-0.3702430553867127,-0.00911622441871202,-0.029939710865475297,0.014257503994676353,0.04859675095920709,-0.20105988046176476,-0.028884057534113713,0.17916334018871855,0.2448335989042626,0.44867945897026923,0.0579555521404038,-0.32006262434722482,0.22844845424696766,0.11059885179517597,0.064800813480116778,-0.30028219920918087,0.00078572804609127378,-0.28125987470221719,-0.40217850799163979,0.025635119968867529,-0.18486661860481335,-0.3082709604678967,-0.304380185657497,-0.01248344141260626,-0.3171591551586635,-0.35197789557947473,-0.0798588300392053,0.019701714419619897,-0.056198050398293016],[-0.256282492450134,-0.29668022197029431,-0.10020895323298364,0.2000839768841659,-0.28266128321603506,-0.16385393318485061,-0.50100577343314456,-0.16773903118982864,0.14808287598646786,-0.16916263477394819,-0.50217356533836277,-0.11272973141933625,0.42556969904543679,0.26975760382217617,-0.13257326501602268,0.056215784725103857,-0.040315255876322974,0.0759778320280359,-0.51688272360473908,-0.60918862329145251,0.1468113799207843,-0.189158213563932,-0.1678120211687982,-0.28937039643422685,-0.081042121203313583,-0.32498995417114984,-0.020640683584438203,-0.32643102199759655,0.35670334645227558,-0.019880314456518691],[-0.21832175571702456,0.055304307032937462,-0.6022465916454417,0.27076507791556542,0.51299778292981657,0.00025326972306877128,-0.76886845726241559,-0.030522008938370176,-0.42577103729812621,-0.90198929235881886,-0.12929033511648527,0.20435690509287263,0.64942369304500924,0.0044894216517302431,0.16180817767194672,-0.10697613875546394,-0.12603223368620348,0.11676221457930104,-0.2566801559813271,0.098021795533053832,0.133048296724417,0.1317110144386095,0.070387901013717488,-0.0022628823452930549,-0.083999417987689021,0.074670061702100388,0.46534656687384557,0.1503038623333301,-0.048218361994684024,-0.061168198620882644],[0.89047513181441629,0.38509862709847104,0.32023904253168067,0.028994418030851891,-1.6441579072780201,0.24648915488002318,0.38622615838184732,0.10753246308045379,-0.50245259073662674,-0.56253648752119123,0.062692823828595617,0.26055833289334412,-0.39186835317474994,-0.17306066377192095,-0.20151892820943665,-0.050588929132525863,-0.017113057861289728,0.44812308817335705,-0.2374425116542255,0.39813207340151657,-0.11477202851992292,-0.00097980743229333163,-0.10304294930136786,-0.023359240499038179,0.733643012242592,-0.13374575253328494,0.21728668590226541,-0.537078954266666,0.46295385195412225,-0.072272046638048509],[0.025651828298254596,0.22947848761120143,-0.31992629119462085,-0.28174153367193072,0.19770388092310681,0.1639019734912634,0.25744351187360753,0.15517016973424647,0.2605752797693256,0.2130480401462144,0.06396791156302889,0.0700801751277889,-0.11936841755755502,-0.0061531395240112426,0.11310403920013649,-0.40866465701695631,-0.18703890479060342,0.00979245504355015,-0.23592285208750177,0.026063583235996047,0.094002219889659885,-0.0020876399307229667,0.25010352182704459,0.10808237724624116,0.24513301521980668,-0.14841207974874157,-0.11954378902786539,-0.12796538165264507,-0.15520443852515325,0.094312380304630183]],"ActivatorType":"LeakyReLU","GradientAdjustmentParameters":{"Type":"Momentum","LearningRate":0.001,"Momentum":0.1},"Type":"Standard"},"PenaltyCoefficient":0.5},{"Type":"L2Penalty","UnderlyingSerializedLayer":{"Bias":[0.11042155504418008,0.021036400295996877,0.085314721793466788,0.015794968249319471,0.028139687298270794,0.12198787779301569,0.035969191248902257,0.023665227394769093,0.15304188605889577,0.029932806865531278,0.11699149197666812,0.059474749966517242,0.0057583944322402358,0.10596423195581405,-0.0084140622594087652,0.2116105180121875,0.048481781999680416,0.01066035328254508,0.038784360989968077,0.29646335631049242,-0.0097632801424997456,0.017252184965753165,0.030040369973717621,0.037621183976566414,0.0049629358597330971,0.16305716774104348,0.092164747080865014,0.052428513133717769,0.024684162726175386,0.21001716586780547],"Weights":[[-0.24854684811189981,0.19146292873111009,-0.26834776929515985,-0.063303309768054622,-0.074270272962021711,-0.1424028722100647,-0.16423284824551462,0.1606865489403447,0.0011175195444602236,-0.065128916783409624,-0.22421210200139286,-0.28669682074339986,0.10206541906299199,-0.25037464323887559,-0.013808024068208932,-0.0722362780108127,-0.079285756846742522,-0.04512397871672242,-0.019639882857825974,0.0608377258685452,0.097980284986314281,-0.13364708706057676,-0.16889485327090706,-0.27994233746814334,0.097330253959602653,-0.0098519108436240753,-0.12145120267359387,-0.10927910019918907,-0.16871290547616138,-0.098091164308630643],[-0.24537803366838576,0.16499802057936458,-0.29443796653377718,0.061037361292323622,-0.18696510669825003,-0.37995748278616359,0.043169304985156087,0.022467902793060761,-0.84579258463008444,-0.39077078254294245,-0.095025926980196837,-0.10159516947454349,-0.082624448164584252,-0.022151616392349922,0.16335336276031687,-0.13634184799495924,0.076381148765418821,-0.18837184574334903,-0.079199185298663308,0.343588421649327,-0.03333268253912957,-0.12652344922666303,-0.20975105385101756,-0.032616966044527337,-0.33174009734641025,-0.04388841048776522,0.12334331073285519,0.2091873309713255,-0.0736878801010935,-0.44352055680721214],[0.27686991378658715,-0.18510585174136543,-0.064645806970483624,0.10625706109270433,-0.31907131356908419,-0.23508941599932337,0.2057940629071203,-0.069287576127348871,-0.68593549296990242,0.078754786406422778,-0.20079433633666344,-0.0718879824775064,0.044087195920943782,-0.30253283686502996,0.066432329674317683,-0.32380706760881706,-0.34166344707349944,-0.11779659087388336,0.14437544108861838,-0.30917081516216877,-0.21095196705486141,0.13556592749018367,-0.05925954386473057,-0.45214026598673529,0.095595193521776686,-0.00981066019738585,-0.0760920734552826,0.0431013417221949,-0.36615281285496853,-0.62262878641810238],[0.12380831193182165,-0.13304163089947024,-0.066573888513759144,0.19909681382383357,0.32968885342437132,0.11890581338336295,0.014119929955239181,0.017565562066009996,0.057014726956607156,-0.0075019510508326677,-0.1209590035488788,-0.11023491744818108,0.080659702553633486,0.11719889789104497,0.10289146998405965,0.16990660640336866,0.073434935673347509,-0.030517017042486536,-0.14717157488291219,-0.027271466900181351,0.090610387777383367,-0.00091586077324436654,0.073063163157474173,0.19759015959134235,0.37873960261620293,0.13594302154679763,0.021018723974739358,0.37926816482800474,0.28052951637635037,0.25635987873194654],[-0.20372082451461795,0.027584314144132691,-0.22000847584129368,-0.04620764431217602,-0.045554654245225895,-0.040462388223705868,-0.10540456846266848,-0.092209156024722808,-0.36363406252150043,0.0033479755742542644,-0.26828496634585974,-0.24191812334004126,0.18304000509222335,-0.062207314661783586,0.0588658189538627,-0.29721490379748644,0.016942791946067945,-0.32696541471944623,-0.24169336324985358,-0.040845839009151945,-0.41948058642777541,-0.070363407760589816,-0.25168682514622459,-0.47474358237007036,-0.39580922962504245,-0.13208657419087944,0.29173632046589687,-0.28985589800845984,-0.3790101808472856,-0.23682375280038795],[-0.048260462706021856,-0.25584090642631868,-0.320669975229321,0.40918887798043091,0.041120583977391163,0.15783431322782618,-0.081803907757813848,0.12746247998941668,-0.15567982282438622,-0.11021085877161743,0.28645939253253538,-0.13212120035893388,-0.067957274964894857,-0.21886563608442358,-0.22378997719483817,-0.2253259411278708,-0.23635629792144616,0.048056344634855482,-0.13402625049344419,0.23607142415100402,0.17939511607043515,-0.001124187573399284,-0.35609330704975406,0.069382471649552191,-0.19422012863304355,-0.10003053219626618,0.2425837764948553,-0.0344153197273279,-0.052451904163717263,-0.13455916409267796],[-0.15057784023082702,0.014199227205680211,-0.038282478331146917,-0.26457898494880838,-0.24230254207730295,-0.25005939646238728,-0.17395785042510487,-0.31620608514638793,-0.37179470913475238,-0.31566206834559718,0.1065694586281308,0.011206929748877711,-0.18535745458922637,0.090549013714664853,-0.11920963376063776,-0.19630906965665104,-0.31818159968604448,0.13436353424099659,0.13583752399105439,0.13401133284681693,-0.18348464568387024,-0.07235346866535329,-0.19457767613577928,0.063490554800140458,-0.12420115838164282,-0.42136476750048629,-0.035829966586030243,-0.24378476842268607,0.25204673264223232,-0.47184847431296312],[-0.16413793122151071,-0.26836735443961035,0.0783341078149661,0.066791691176466286,-0.40683075555268866,-0.22042907853242083,-0.16715210545518169,-0.28386283554753977,0.39949515604303482,-0.050379910141991849,-0.4839443170440213,-0.65787070629960209,0.061991753389744678,-0.27034042400217423,0.075313874032340911,-0.48774214588796944,-0.24775004890998903,-0.17390559625322338,0.071900189167334,-0.39991184494610033,-0.21905771991625347,-0.17678380328009516,0.21825969131858694,-0.2803898438062089,-0.0094442376458323089,-0.16033554531943559,0.10269297356378812,-0.14856296763548421,-0.020872998956719804,-0.266018669022277],[-0.0065468273270980655,-0.2517992142141221,-0.23790348233545416,0.17397959252536457,-0.43483615131314624,-0.0081510089649602744,-0.21761389200275103,-0.14438252256261552,-0.747258617901394,-0.074949510137743786,-0.19164852420143855,-0.47414433652593541,0.045402058853523192,-0.27707487557997285,-0.060162961211177805,-0.49769226759088264,-0.28063484644801229,0.067896120126697143,0.0034200108137191773,0.1931325549750105,0.21843001896124628,-0.52149374036844665,-0.32617940226899073,-0.34969143007128234,-0.1546435783128183,-0.20558671703034534,-0.0258256081105223,0.087150933926772076,-0.32103278717755357,-0.37169771504476057],[0.34031767486546166,-0.20127764408539325,0.12469624578966659,-0.27327941378776838,0.3338458070435591,0.29452775893860594,0.12369778782136526,0.07476925803407411,0.11776216249891822,0.094540122556655934,0.14511790138968425,0.27602658958504461,0.11489059328559848,0.21996898249408084,0.19321439110582073,0.56373575772565554,0.3303208150154836,-0.13577258893671346,0.092118897759160726,-0.27527538819627656,0.42459265328760087,0.21094302420595376,-0.028000062947586307,0.54756935387651451,0.16362588438315678,0.34541684126139272,-0.044273858755600012,0.049924828722060041,-0.0632813342528231,0.23250208700754191],[-0.19690601501162602,-0.36624549719210853,-0.27539832055035673,0.2711674968488183,0.36333618016904534,-0.34631872354335691,-0.2409707735068729,0.015719359918146419,-0.43035663203027369,0.034001827908735807,-0.061850019663377852,0.1422073755890628,0.04486546504930982,-0.01388923553995268,0.15224994349048707,-0.39150164297234707,0.070546983446491088,-0.18619967808759064,0.0868800249392962,-0.049994149276702378,0.045404821002032671,0.0095495116911866827,-0.15189565689027204,-0.24046108133266902,0.16972367965150992,-0.12485200042430256,0.12576041953802544,-0.079456088842740691,-0.12809176040653081,-0.24478996460597055],[-0.14288445988270671,0.12239086409152628,-0.31400857968647183,0.30429669087991468,-0.094531252772230179,-0.14702216494147885,0.10170774947995134,0.27504592069794392,-0.15333651936421108,0.17049898103791217,-0.18643125331819024,-0.20640092903736493,0.27481727860287131,-0.17320479571126976,0.12406367680232835,0.10943820531335194,-0.10526235303522079,-0.003688408045194355,-0.093081166027002685,-0.18523341065630869,-0.067324345069784,-0.11095577214233454,-0.046861293542158906,0.097989826493316765,-0.085163813963059151,-0.10231238631527867,-0.035649117231145229,-0.20680462201180985,0.045138171041877555,-0.092635646949876513],[-0.27973794082768605,0.059118322879860477,-0.42474073700533987,0.013363451812204615,-0.13394861693531054,-0.16031346012644185,-0.26672495748530772,-0.26345909965828973,-0.30203006372492075,-0.1340428000659763,-0.3089115753975325,-0.35069925954466513,-0.14701693716491429,-0.21727945452117364,0.39005198350094633,-0.23104722367434025,-0.12919200217329888,-0.073213270976791062,0.11478875688036437,-0.404242892354367,-0.218226803352903,-0.19829127150263065,0.032329590067884675,-0.018582920373478192,0.22208781689879845,-0.21480995234127837,-0.15146554110582591,-0.2335225039333734,-0.19456852573809366,-0.56938468542653942],[-0.042301109584205278,-0.11491419380703274,-0.16495987713903354,0.0908757428430721,0.062632289387575008,-0.12174258631282461,-0.014087143057716411,-0.048485216861477443,0.0048073919097523172,-0.00954424701532252,-0.09472868873253773,-0.11734572266890075,-0.12252960642740607,-0.16110768810486173,0.043745540900823179,-0.32372704389394086,0.080457715648354675,0.151950453433169,0.26510218631978616,-0.10802430718494212,0.096010367245376732,-0.41568101485368286,-0.097803674873578952,0.21024355278787829,0.079878838359788568,-0.14788573452335141,0.023438524808552585,-0.32359697459448611,-0.114406070270979,-0.070828810218541316],[0.084906688366479383,0.2161047310996265,0.0023807918387957218,0.037343222073006138,-0.2291102728807646,0.18909770365060294,0.093012260086869358,-0.14132218982008465,-0.265923236330984,0.1190959582146317,-0.089450307601634346,0.32106972399751565,0.16141055429287049,0.019796288752133528,-0.36149610402975735,0.070890690900823838,0.24448512380906393,0.00026234362644766436,-0.25745318235554804,0.09317386322545744,-0.16854921729519237,0.078573210074793426,0.0550640005816622,-0.039711265989898083,0.020062011010928259,-0.19052959572702941,-0.02278194854762829,-0.17012449369398786,-0.0643161982391702,0.043404911392162217],[0.16483219600572274,0.12242824860705157,0.075042792843570225,0.0093664928611001327,-0.15670078348374633,-0.043227094892963738,-0.37041871301577772,-0.10080705170826135,0.067416483445224676,-0.13399085513868511,-0.0096979183403351366,-0.00051340774959515517,-0.11563118880820243,0.10075988576127062,-0.17767220863533231,0.0087703816810684367,0.052477719059647175,0.10184677398007645,0.28984677847205209,-0.0852796495901418,-0.0042034434446823884,-0.034393193603474634,-0.20145513872720258,0.10845126579168715,-0.020602508062609722,0.010071924736872793,0.15264053646510362,0.28251085984135815,-0.3297114861234357,0.0715334267532334],[-0.31879249153292166,0.08599020185910565,-0.18150449762261464,-0.43371302434905351,-0.49148045282051706,-0.29888810995908416,-0.47795799437700076,-0.77583238686555445,-0.675986727440787,-0.29053355749638277,-0.39044829803498182,-0.39116791143252166,0.029146261477848285,-0.015783178260007403,-0.014725142341922239,-0.57904046321585434,-0.39697253034045671,-0.37516420016755886,-0.39813499716060047,-0.11702671462508965,0.10940550853013405,-0.30425816353503304,-0.22609426369180036,-0.3997207793360284,0.056000406433666342,-0.42568385085334315,-0.32995615490616576,-0.45639340495288638,-0.019787488924534902,-0.619964059769248],[-0.16459040237508546,0.38443724604885,-0.12575095176869036,0.009325474050035306,0.038786143188540033,-0.090648017078086132,-0.17722736415352702,0.14021781060603747,-0.1431321814367551,-0.10123053768681012,0.024229433909800886,0.0774967185329024,-0.18502393413968316,0.13317115343336106,-0.090552956209402735,-0.084309506046459787,-0.19211791689567051,-0.04467031101205178,0.034595818455523508,0.40212152054050204,-0.10449994939728211,-0.0090903538569251513,0.24280116390315007,0.026575160902041952,0.32205821412116992,-0.054043632056901832,0.17083994327157218,-0.018684806731745687,0.23969768537063255,-0.0792350346975342],[-0.094362793489410457,-0.12684291034963716,0.00695117448692131,0.32275642527378379,-0.254970455483281,-0.029321845279515368,0.02758273549509099,0.028140558216425481,0.15876685852692635,0.11025196338751515,-0.01995968418438307,0.33530921514213524,-0.19865340621184233,0.0646340401339315,0.4369874576176464,0.30365952730833057,-0.28042065373283903,0.3968685296737402,-0.032486940012732307,0.11132232546580331,0.12959059366732376,0.12020472687526738,-0.11582831450245851,-0.30707625876658035,0.1634112663195243,-0.11017662687931358,-0.022700773847359725,-0.37683542824177363,-0.19655631167698573,0.21797773752359159],[-0.057264471548983689,-0.19107862591374158,-0.56039424477426,-0.070958800087395135,-0.18271310694019766,-0.078842639086725216,-0.026288811249327328,-0.45762385434712932,-1.0119764396136628,-0.0066367372936499717,0.12865599326436214,-0.16505728308094547,-0.17908545702913759,-0.19336082153226303,-0.022720757703433684,-0.033293309800750258,0.12843785027100471,-0.23687211008938214,-0.071938422362560359,0.0029586215743636446,0.094833205414321983,-0.24926497084223367,-0.060168642867755556,-0.21857598269816916,0.025048788509780796,0.18995512618500032,-0.20921263086771108,0.058411885751573092,-0.14056839298391133,-0.57873466196231194],[-0.40479761360928956,-0.0007063168732414387,-0.24212438674630607,-0.11313284213619901,-0.16349828492867521,-0.18297144298315957,-0.3008833045250866,-0.093547832698144581,-0.059903330682099021,-0.0020962811839629822,-0.42178557587216603,-0.124896624145012,-0.27104522339275422,-0.2865328684916103,-0.05751443086936197,-0.20590895262068926,-0.064160234574117639,-0.19994266836709909,0.038342053547408342,-0.11613035923089568,-0.037899474925274977,0.10892242849855074,0.021771256334568025,-0.2428451729764548,0.13368696712051731,-0.28859520644289477,-0.34575403764605844,0.067304849848682985,0.056010518113213129,-0.23416545748110862],[-0.090002731704478117,-0.11007787509891474,-0.013811175158431494,0.10635337388334379,0.057334847061401129,-0.37659607823679986,-0.463121388017292,-0.18575912632746952,-0.049456048042138129,-0.21507905721356999,0.0648032141297237,0.15837354954769572,-0.15269073887906151,0.34527821536989617,-0.12656369832825709,0.36826682488411827,0.1168192234795595,-0.043921531042852506,0.065982580769027174,-0.22434329837582151,-0.12414361941290358,0.070118724358890952,0.23178790407118829,-0.08961687286542562,-0.17369146054905457,-0.056532925075316071,-0.20568421907489487,0.061872948962746206,0.18165601217321375,0.047239169633109708],[-0.1550961758551811,0.10238911690387842,0.14461732351403234,-0.053565908593161023,-0.17936299051225932,-0.35558661181859952,-0.042326885801538976,-0.15654597521503449,0.0590403919269984,0.027973781470982065,-0.71399925768076156,-0.55049047857061506,-0.17364896820369119,-0.31004096787262214,-0.22799492725672832,-0.7482332043526303,-0.3480526884147277,0.008636410681957819,-0.27373929019344573,-0.059968285889901045,-0.05537360207434814,-0.0013381256596919546,-0.15052631983050427,-0.38351879790342075,-0.15649864076457185,-0.45817860513220682,-0.01068017125262875,0.045630403998889596,-0.11955717155708265,-0.073032023496908224],[0.17097023375888598,0.19004386753624517,0.031579780028197862,0.07718098075999226,-0.136190399988591,-0.10340351399853635,-0.04424154249899994,0.17355043243585042,0.018523593180652095,0.19159362611302488,0.22930171093109775,0.21639956097289581,-0.43786447793123584,0.13101687489584935,0.02879989157586953,0.057074663371411365,0.20005960248034896,-0.20960666416785156,-0.48776048279754891,-0.15054236110259039,-0.075454377592126046,-0.2158811309576473,-0.20361040147017365,-0.037296477787629338,0.15381193665778914,-0.13092407315687141,0.076425452606974836,-0.13726776414603978,0.0385195232152016,-0.091020137389820469],[-0.28298580692071829,0.14925414314257973,-0.3966704905746431,-0.30773126368824116,0.18156193464785903,-0.267927462994231,-0.34272812597258417,-0.030769266201474261,0.13578697815591331,0.013532804399369724,-0.42440874374012005,-0.17726589376169474,-0.17600764406690383,-0.22334084033968363,-0.082642984453123708,-0.17137874996873845,-0.21351331223121725,0.098601922029501812,-0.24882355014729482,-0.16365993855653149,-0.066982533901613323,-0.10730797099288962,-0.23498513024427611,0.17769406901323917,-0.018732422837627324,-0.43418391102154225,0.015016072654543371,-0.23519573058871951,-0.36546145992119367,-0.26487467212284888],[-0.18456588737203525,-0.269743058865045,0.03712841986699026,0.11873611070652505,0.009720008999745804,-0.22901513737951396,0.04840208336563636,-0.049954944896929442,-0.033876138262851054,-0.21011500414714909,-0.17450956620591385,-0.35107480341807845,0.384324056583369,-0.13954678191595582,0.081729838995901721,-0.280665023197688,-0.21005416107398114,-0.088043508116554453,-0.0016695464651769565,-0.015191135596258834,-0.10333025279850314,-0.1869619416705974,-0.29215163669205341,-0.013838892051470292,-0.22403151692906179,-0.2201239904786986,-0.0724120136023194,-0.21099521342048541,0.0097760056305818965,-0.416586606686669],[-0.11827974289556306,0.0341012117129279,-0.63378516458390666,-0.042347323874910553,-0.016896173530902781,0.30595048004697156,-0.24832770875889795,-0.099208091325939829,-1.3402590125061142,0.10515361635858936,0.42517637297843114,0.72654520251474508,0.0016720001154981973,0.075318595846499456,-0.15786283051889996,0.065183782395219172,0.27329451281912159,-0.0078712021151304285,-0.18316052893345722,-0.44314020467931314,0.08279025982738579,-0.137221233212968,0.16871074904464922,0.18011189435538724,-0.038289381738058285,-0.068310843621096365,-0.36604639144726547,-0.12112220296687304,0.055888576668209192,-0.40613959145503886],[0.18567227481491497,0.027729360539957979,-0.43506805563602069,-0.20176377067729365,0.051265170095747395,-0.120320577539756,-0.06939889413374796,-0.17161604689236124,-0.93575018381491226,-0.048436108247746863,0.16948177961641592,0.18161356824336364,-0.097852954081399185,-0.0802388347320529,-0.12965766698569,-0.075436104469202861,-0.10396728905035985,-0.0091572929527474617,0.20039508067295986,0.194161981508796,-0.017717148501712434,0.044176816821736867,-0.34857596598762869,-0.35386470500487016,-0.32798548827249113,-0.053609675823963955,-0.028896136483613884,-0.14558683767966377,-0.14128807112272304,-0.40754552065674621],[-0.043690708650024779,-0.25982391792995668,0.15798260514844645,0.35584449687763553,-0.333016876409791,-0.09037476130788194,0.031583997017580787,-0.21182743464711198,-0.30148391872258556,0.18394562318667515,-0.018293028288081149,-0.29975469346456352,0.045996321258175724,0.049686349679915282,-0.25216285162552426,-0.22448036319092116,-0.075471685182398454,0.080296950242403062,0.29963985235485679,0.017558366499367675,-0.41751432851036968,-0.096819680566898436,-0.20487031935090505,0.09970788289214691,0.15630489768361427,0.020527678185001071,0.0096282894923854969,-0.028067889359177454,-0.036281545659990394,-0.18911353845074216],[-0.22591167054811503,-0.22389320936672227,0.026970966705237517,-0.25006248707177009,0.055982628218467445,-0.020939410855725038,0.083574461144623233,-0.23262142450600729,-0.055550917154494672,-0.022510299572793963,0.20020488182778481,-0.1078491903133255,-0.032841662647960755,-0.178787618183171,0.14680294062005742,-0.35432332325273125,-0.034634785451893815,-0.0087947459200348327,-0.13716859025094916,-0.40160210681699793,-0.03015892199373868,0.05634867350485958,0.062631404186889353,0.086111199089373647,-0.28878200604909671,-0.37574093867742675,0.0031142602163041454,-0.05565398475116165,0.043770983465273389,-0.062999728652773479]],"ActivatorType":"LeakyReLU","GradientAdjustmentParameters":{"Type":"Momentum","LearningRate":0.001,"Momentum":0.1},"Type":"Standard"},"PenaltyCoefficient":0.5},{"Type":"L2Penalty","UnderlyingSerializedLayer":{"Bias":[-10.897606131811806],"Weights":[[-0.41345160121808017],[-0.17230706128188086],[-0.5916664352977552],[-0.18240284766421322],[-0.32857967116403269],[-0.55941213674288048],[-0.31791922334481315],[-0.52284229485299727],[-0.90457943143004038],[-0.14147466074936055],[-0.61971937985996151],[-0.67942567373293294],[-0.061899288615311486],[-0.54331883761774857],[-0.048872555002001918],[-0.86396348661535327],[-0.39194729889711349],[-0.20678421815450182],[-0.19088692225239282],[-0.27773584296976483],[-0.14854738334492088],[-0.33213521721744449],[-0.32305302561922711],[-0.48059712860875387],[-0.25931828561221787],[-0.5520703292566056],[-0.070919727243528047],[-0.25578991552385505],[-0.30144930258722641],[-0.98574872853952378]],"ActivatorType":"LeakyReLU","GradientAdjustmentParameters":{"Type":"Momentum","LearningRate":0.001,"Momentum":0.1},"Type":"Standard"},"PenaltyCoefficient":0.5}]}