{
  "BatchSize": 25,
  "SerializedLayers": [
    {
      "Type": "L2Penalty",
      "PenaltyCoefficient": 0.5,
      "UnderlyingSerializedLayer": {
        "Bias": [
          0,
          0,
          0,
          0,
          0,
          0,
          0,
          0,
          0,
          0,
          0,
          0,
          0,
          0,
          0,
          0,
          0,
          0,
          0,
          0,
          0,
          0,
          0,
          0,
          0,
          0,
          0,
          0,
          0,
          0
        ],
        "Weights": [[0.11109649807706161, 0.5045360026125327, 0.013014859917920193, -0.08655557024903207, -0.25603136611631827, 0.11240394564921265, -0.39738979867551794, -0.2959663979720197, -0.008585668802748461, 0.4789715700239601, -0.509568508089643, 0.21529395710180874, 0.11077045579333311, -0.006404134697090274, -0.2594116453165534, 0.23798520479581883, 0.4361819142751473, 0.2830803311275226, 0.5181177535958864, 0.7245253680417844, -0.07287459193604172, -0.0804422446117396, 0.24592707621678145, -0.1328397154142587, 0.2624200782648362, 0.04953283622019669, 0.5260996088647734, -0.9573839561763842, 0.17784093761673977, 0.1303609222157042], [0.5209245491220534, -0.29901813868672633, 0.40244477236509596, 0.27779008014855455, -0.6926697217408923, 0.022001020846619423, -0.06879552173629278, -0.3610250408611146, 0.2182887979587966, 0.13309075567351666, -0.6686535290795286, -0.4182614598350307, 0.1700103413585664, 0.45891374393086243, -0.021172945057550914, 0.06938872441349338, 0.46044107914327576, 0.3419386651217706, 0.6928432792100079, 0.09603230832401717, 0.6779201519740163, 0.18038885820777487, 0.9206123436582627, -0.3271215719796644, 0.36434282336035295, 0.4349049457916031, -0.7731388734169751, 0.13711129109311568, 0.06826126950919231, 0.5294338386438082], [0.2996120376258363, -0.0007422389157900654, -0.41825253438480997, 0.1458697068916052, 0.1166710026038374, 0.3541754931866885, 0.17735308724116794, -0.16948956013240696, 0.08538380792028635, -0.2469896594643925, -0.2986258078998186, 0.5417474286198105, -0.5641468589690113, 0.5452823528031473, 0.041828707032267445, -0.12570418558556082, 0.19971283871924844, -0.07843487236186313, -0.28780032823431456, 0.23217690838317553, 0.19842168680114974, 0.03733757848444296, 0.4006565350497818, 0.02616951415663549, 0.3461963733506671, 0.6043689150898279, 0.077566811646176, 0.5565661879212169, -0.6601562136693316, 0.17782674038808463], [0.46048272326598205, -0.10499881046515201, 0.4486230291956259, 0.4854198047084817, 0.4889497520797611, -0.5703289449252218, 0.016340159099881596, -0.11428383927430663, -0.05603521637716841, -0.4709768391639563, -0.13291493457841655, -0.022001347838010523, -0.08047442322440751, 0.47257668900147115, -0.6159337072336666, -0.0324711980713927, 0.6633017012737393, 0.029732141257266316, -0.16155906683201934, -0.12283367259158133, 0.02537576048888614, -0.05790592941154825, -0.26541280551536417, 0.4983112710372206, -0.5322488222640696, -0.3093820355676222, 0.11408913566788934, -1.028310092238342, 0.13498823434399965, -0.23099258171643006], [-0.5201235903546302, 0.3560033084254931, -0.1409911720863339, 0.4054992768594, 0.6406356965130661, -0.2624004541104279, 0.052653955673699175, -0.10564828032362185, -0.029702341419102326, 0.3132430862030171, 0.24194086850486363, -0.36885258789995023, 0.3343129940667986, -0.11459740528119168, 0.20518989726600392, 0.2659606953584086, -0.18770345498532684, -0.12614675965960356, -0.14198239572987326, 0.18027674325008095, -0.1420041576779999, -0.3826057795195923, -0.03345649227704506, 0.021839192320716728, 0.45513616944778307, -0.17309255761102493, 0.171125541153828, 0.3286798137829346, -0.34283740454877615, 0.634337922082216], [0.5323914829552837, 0.28964746198307967, 0.13149086066371576, -0.6933017500165606, -0.23694492883296914, -0.33033003189363447, 0.2950792851729243, -0.5068996069521391, 0.010141099509140656, 0.012903215446914966, -0.2074455358047414, -0.1124885184878011, 0.5344519716948027, 0.24708288240878712, -0.5366156627947057, -0.1339585317126284, 0.21030791581599956, 0.4403364344872658, -0.050004558262911045, -0.030515249249528472, 0.4265828748828537, -0.3243881896111891, 0.31198964812110497, -0.2210718615481286, 0.3352779660854975, -0.19117610286129608, 0.034653667752784306, -0.045399535935904026, 0.3147773499788712, -0.29780824250253507], [0.5473543823741328, 0.12247112060211221, 0.16175014190768736, 0.3361492717601192, -0.284139319645345, -0.5294127110920264, -0.6309811404122724, -0.40247392985131236, 0.0834649060753358, -0.3186097366316936, 0.1593214587384008, 0.05417657948945918, 0.04260999491275458, 0.30448113124869536, 0.09419872079474809, 0.2016944691018654, -0.15850953332437304, -0.3498584495842503, 0.7998775753233105, -0.19068654879183408, -0.11622631726808415, -0.12195826719894332, -0.03265810193485409, 0.3544469138392638, 0.806562978058319, 0.3940676383151363, 0.0993207528433515, -0.36440508783578385, 0.3288872782737884, -0.4883166408101241]],
        "ActivatorType": "LeakyReLU",
        "GradientAdjustmentParameters": {
          "LearningRate": 0.001,
          "Momentum": 0.1,
          "Type": "Momentum"
        },
        "Type": "Standard"
      }
    },
    {
      "Type": "L2Penalty",
      "PenaltyCoefficient": 0.5,
      "UnderlyingSerializedLayer": {
        "Bias": [
          0,
          0,
          0,
          0,
          0,
          0,
          0,
          0,
          0,
          0,
          0,
          0,
          0,
          0,
          0,
          0,
          0,
          0,
          0,
          0,
          0,
          0,
          0,
          0,
          0,
          0,
          0,
          0,
          0,
          0
        ],
        "Weights": [[-0.40109428852818985, 0.022895313159584964, 0.24729735475997838, -0.02780916340748363, -0.17197199560629747, -0.035236692261011136, -0.04472461750973567, 0.019816732878428885, 0.3049387290557877, -0.22166011222470472, -0.22881094582013575, -0.15395424544836725, -0.2779653384074997, 0.1447926992517714, 0.24979520185274717, -0.03180025760832747, 0.004019262557373022, -0.11734672961003989, -0.07424463647933137, -0.014486306153661803, -0.29346838365491584, 0.07520022060607241, -0.014011275303816207, 0.08643006288970928, -0.47366977695819334, 0.11046712503527492, 0.1542699116509619, -0.2783098497801051, 0.09961431088669748, -0.11214359722770949], [-0.0859256069153401, 0.04300821671121568, 0.14298357099202733, 0.04511804365387854, -0.09531832374300296, -0.07100956454866252, 0.2652593640589114, -0.18029741636386412, -0.04971742630240938, -0.09565396825070513, -0.05250132358526044, 0.17157075946815645, -0.058713958908846516, 0.14504388033140883, 0.00210987398408774, -0.15885434531923798, 0.10395277645569478, -0.16845790528182322, 0.21389883707904592, -0.19494140187870396, 0.40144187961219713, 0.01369598823908269, -0.03651204738719167, -0.33544597259410286, -0.10007196326269968, -0.11517592322965689, -0.36406196368010835, -0.1717337106099302, -0.09695689870181601, 0.08739632370445256], [-0.21521340686834742, -0.10590256227087827, 0.03680349567965864, -0.03896051894954881, 0.10051557252958902, -0.37339905030273857, -0.03427139661570434, 0.14908606618615278, 0.22634244826954786, 0.15603409652453842, -0.10189926531677364, 0.09911219588696171, -0.147246806825111, -0.1855518610422616, -0.2582026453434236, -0.04382624359478636, -0.02781800187287901, 0.39040037465973865, 0.042467273801837534, 0.06539500359650822, -0.175863484485788, -0.44085288238711284, 0.0930679195583022, -0.2572568414147694, -0.052980697890793585, -0.37817308023577584, 0.1136777291760101, 0.138754136811174, 0.05725791384831115, 0.21116410322897478], [-0.2005451006726172, -0.20013010640099618, -0.20787659891685634, 0.3082637532392872, -0.017371630777690678, -0.35956193516399115, -0.1840371933619561, -0.213325535401018, 0.3829215044896509, -0.13808720229295138, 0.1078053601859616, 0.3478621609381232, 0.0412319092078478, 0.15021172183042733, -0.05271009920576442, 0.13189176025472932, 0.1305622859004022, 0.13844724366547287, 0.06017731079324755, 0.018658218501579945, -0.06642917931089877, -0.023361438721024606, -0.25198432357809714, -0.36961266936673115, -0.31078342924269703, -0.022131870486407572, -0.08505212559531132, 0.059205031769107574, -0.20081595529068919, 0.04121052910931207], [0.18629995772439734, 0.10303046262927149, 0.11358647053936943, -0.08113728726363822, -0.26856258017699824, 0.10555893570751282, 0.020042224228943608, 0.04677293013530001, -0.12213456803151584, -0.22478910462055338, 0.20050584080312095, 0.14592248630858862, 0.19427325060602987, -0.21701697125561223, -0.1981325848207623, -0.10651038503526071, -0.24562516571322485, -0.31601136793322804, 0.16557502394640894, 0.02475950137980466, -0.025867740943326386, -0.009174464597063395, 0.1250880835973291, 0.055660286499559807, 0.08868355134028286, 0.16002525479798083, 0.028863259456346803, -0.06924045830124696, -0.08291462192965617, -0.02465269093161115], [0.07921838112056744, -0.009653754524443187, 0.01636477134607787, 0.044244350880386606, 0.1899238304812513, -0.22242830516666384, 0.29504523962620965, -0.39142875230539576, 0.16397200538164644, -0.008686356673805186, -0.09795377139729697, -0.09267107706028407, -0.24284897540698716, 0.05806944256343624, -0.11802368883197832, -0.14066981262711375, -0.2727821849830196, -0.04953976521740535, -0.031694974880107474, 0.0065105373019300646, -0.16079530663547434, -0.054733595664568785, 0.15003778399028406, 0.01877719842971477, -0.08321532682569549, 0.16328284380723343, -0.16232490971286256, -0.16210171754870242, -0.13352839444631823, -0.07889396943181985], [0.05147085401350066, -0.3733767545349741, 0.30556013900872975, -0.2701893705676936, 0.17099239474938158, -0.0864793151017715, -0.025379362520315286, -0.07782271244230395, -0.17184135005404327, -0.5066399296569334, 0.20687327951843054, 0.31880456040194843, -0.08478845105572555, 0.08012118418772293, -0.08632493066609669, 0.04694027995636425, 0.3030256903558052, 0.04670514898070496, 0.26435031129208997, -0.01540078019774666, 0.019088308335255755, -0.13200290968298511, -0.06689576151302273, -0.09112846377512433, -0.0938714114282874, -0.5005466485499604, -0.12679801008382716, 0.3345972368282057, -0.1542765790908997, 0.2639536753006125], [0.10133465169507694, 0.16265303295009007, 0.05955979043493962, -0.3157614950638713, 0.03467724223351642, -0.08631291652162144, 0.15743952353391247, -0.01024779479855728, -0.10821203722524442, 0.14697532679861616, -0.021881848714263817, -0.09690244711828676, -0.2347603922369352, -0.24001361249107445, -0.04274239510106654, -0.1281290181075401, -0.03506228648601144, -0.020835257283307956, 0.11278072995809593, -0.03728769588251497, -0.2603758451729002, -0.14579458451946803, 0.1343803678742158, 0.1392849859328916, -0.43092093672978227, -0.3611688182036334, 0.06937491727935254, 0.3999605950806809, -0.18056856853803205, 0.13451901426456878], [-0.0876221403904997, -0.18035280920743393, 0.017220517767927646, 0.11006239830898457, 0.09692186905777686, 0.06183631075444116, 0.3695800241876177, 0.14117170591015557, -0.11043909333415024, -0.11440872543430891, -0.12608596099879316, -0.29059411153551956, -0.10357818573467842, -0.14017627309430164, -0.010398554782979512, 0.07135027174411845, -0.13772349368288778, -0.26214359727406167, -0.1721492655138549, 0.16110903261609377, 0.04335901193760892, 0.24629423713813997, 0.007091841459957234, -0.10404526634444854, -0.39106432771543637, 0.09833684241231933, 0.012438989751266085, -0.23415466797442352, 0.08104493789957337, -0.01599627099342536], [-0.17957388154424925, -0.03208346180281373, -0.03657657421133932, -0.008587204570051975, 0.10410471111476315, -0.20802407675633727, -0.26094646037407626, 0.055272729055362124, -0.07350482353332329, -0.10987218560324034, -0.16666561814155023, 0.14714364120094686, -0.023757779847964695, 0.137828007080328, -0.08103067702229556, 0.014508707216339019, 0.0036194829364263117, -0.004822425792675887, 0.07745432210332528, -0.11719630475322511, 0.06187814163234802, -0.36692962892943887, 0.020864580127804812, -0.17182894945089505, -0.0990454105612313, 0.06164299578286221, 0.23166045855288708, -0.231947106395528, 0.0971506870907025, 0.055826675544583766], [0.13970171616157942, 0.34507292265531614, 0.22033770267130293, -0.236645046810238, -0.06530529194472146, -0.3268176712117935, 0.05457968308754127, -0.23103025371177796, -0.27946228844277554, -0.16349820066877013, 0.08783049847479024, -0.15047780443488334, -0.0835019704107287, -0.008159344172901354, -0.07041308558025768, -0.07782123687455317, 0.0482216776665305, -0.16277515554067035, -0.0712708058648765, 0.17832500049475003, -0.2137996271239067, 0.08433395190222491, -0.10156384018546903, 0.34779397699221465, 0.3283335114525725, -0.11947065301702658, 0.36465046701421344, 0.017625710736788817, 0.06013079058881693, 0.23757481341004874], [-0.0861849713481866, 0.03452096811307039, -0.13878450109503893, 0.2807222412293633, -0.04756039208877883, 0.1248846420214052, -0.32581582576823775, 0.009882025925462695, -0.14894004390643434, -0.47504571161797515, -0.26733099077636097, -0.27166243419106917, -0.017836120514929374, 0.0350180976749456, 0.2506123350987544, -0.10210502892651786, -0.15279811447421324, 0.21347339197091597, 0.012669233658700077, 0.0012131307386579954, 0.23491429525187382, -0.1984888558851842, 0.0578992728678376, -0.21306748449997442, 0.111620462940374, -0.1532994138137682, -0.024427311987664534, 0.12838268770377934, -0.21833278712825313, 0.17937767228767826], [0.08313010058778532, -0.05745148915211385, 0.32149900626507805, -0.26501413565411375, 0.24432179568576218, 0.10339101968505932, -0.03252119108760992, 0.02474337822480977, -0.11718538464677745, 0.2651550363845891, -0.021586001130168942, 0.1225774700741351, -0.17811037207529493, -0.0728168443455705, 0.022835727870288567, -0.22333797742469017, -0.00034143132131884355, 0.15891113468419732, 0.18540657439914313, -0.009392167102144147, -0.3300306968733894, -0.23567199928983384, 0.23953860799924495, -0.035704064312304475, -0.03838441881889354, 0.19811901181574465, -0.2008933008226363, -0.24389037519369017, -0.04057622545396876, 0.12428350794982397], [0.21499266533702868, -0.01588558646115441, 0.18564057698112016, -0.2743869109762494, 0.021127446569592496, -0.15798611264666398, 0.13185871874091926, -0.08315016544496456, 0.2573429098017292, 0.013433263405881574, -0.0075816965079243785, 0.07295942178347328, 0.07041719541451959, -0.17331502286821854, 0.17358793453209012, -0.10593555268192194, -0.18145666637943692, 0.044275913812445465, -0.08133062862238792, -0.06746264252730999, -0.20806967534500714, -0.295587847225902, 0.2177782543350634, 0.08282405599045638, -0.1767382160205567, 0.04006915377397358, -0.41847561776863235, -0.2751270643839699, -0.09964749730310009, 0.05098709149165032], [-0.10253632863226383, 0.14401600083526925, 0.037250391274548614, -0.06517236252563045, -0.08105682479766275, 0.049526915697233546, -0.09751886742833074, -0.058460857777913794, -0.08786412862204361, -0.20742865255415585, 0.06923943262530781, 0.056182650896069046, -0.49967944764591454, 0.1773577838445164, 0.009908017673386279, 0.003272583150003057, -0.02795205263525203, -0.40004731766689294, 0.2545967238683996, 0.24941760148175002, 0.10160558631540655, 0.48407137270716544, 0.09070375228565226, -0.0770345428363807, -0.35591791380489174, -0.23325952994539817, -0.07089186664817236, -0.09865025387019173, 0.1413061492634894, -0.015386707881742994], [-0.18421282757425303, 0.3189874866764493, 0.12153420899478855, -0.267223804100442, 0.1580519288369535, 0.17619541580780973, 0.016358839896035197, -0.08560899120917381, -0.04883721804804938, -0.011885630417884624, -0.061069718449764734, -0.04927528457124603, -0.35387963948486617, 0.13661132235354456, 0.14663644340604132, -0.13618137915072662, -0.012801939464173781, 0.1334103249113472, 0.43284513588178886, -0.11372284565787025, 0.3929519755418114, 0.04503090635746242, -0.007294537325920038, 0.3291821313387492, -0.07061435812006774, -0.15969031922886873, 0.1710742835691408, 0.19165442841893635, -0.17745501020431087, -0.22595304904014823], [0.04331530174264364, 0.0785211526113494, -0.040531497526434646, 0.24538547542571768, 0.34430935217334463, -0.132656134992498, -0.10968765787614318, 0.011700203387771481, 0.02584513536139706, 0.11947745711123003, 0.12253956171635803, -0.03670863244780234, 0.03903888826319632, 0.3856492094299993, 0.22912453317779588, 0.12253237229978917, -0.14416285394658632, -0.0012763525078455544, 0.01892342026216766, 0.47952347655516897, -0.12547487724943285, 0.21829910951589196, 0.12208781962781332, -0.22756953712846595, -0.1326171392929968, -0.13380501805538494, 0.07783625746412516, 0.03807008137854462, 0.0692412065769053, -0.28740894267337147], [-0.03836758819479389, -0.016319630793823748, 0.11874638448799027, 0.07785057158366773, -0.410176353093331, -0.10415311439999912, 0.03332245394536473, 0.42041683327337287, -0.21755325937667325, -0.3414717653990256, 0.2497470028398367, -0.1123614674912329, 0.1504938269242609, 0.09008639085392944, -0.18091669090989387, 0.06515630527163128, -0.23930968212311893, 0.2226574130692695, -0.1447441169726745, -0.14594619829744743, -0.01850455075442491, 0.07238232428847868, -0.15146175081221944, 0.05094348773097029, -0.2597475368076964, 0.032762690510499466, 0.0716058395455038, 0.09956027838403549, 0.12304418034981733, -0.18504324063554825], [0.3762034923073076, -0.4378060089376934, 0.25956670565690115, -0.015196631410925204, 0.04086470174003087, -0.271514324102189, 0.22765915594783132, -0.3395678998325774, -0.19172388379608854, 0.15941665342260994, 0.5217504448705625, 0.2567004381296217, 0.09874677637574705, 0.12425634913361883, -0.26837237028921346, -0.1667829230174457, -0.03180851331170775, -0.023090981690266132, -0.13038650606872734, 0.4674407024858776, -0.07639453271172851, -0.030757438585095394, 0.14107102564629473, -0.17637353122523172, -0.044452370232307144, 0.14588222074497514, -0.11306566340475263, 0.07340576381561793, -0.03107104624102533, 0.25820930250139723], [-0.12383354131044108, -0.0916536260292386, -0.11431525809744086, 0.07311048404123684, -0.021318446846816226, -0.12388528237367817, 0.22567284789821992, 0.17411306208992533, -0.02481985894102933, -0.024181859340575474, -0.06039439464750283, -0.12367712271484856, -0.12845336507665372, 0.13198913066548018, 0.03770475700456815, -0.11507772990145801, 0.2425094106460825, -0.02800240591137807, -0.0951310988294263, 0.1444478780913055, -0.41098945983168983, 0.00737527878877433, -0.060609320452228437, 0.31302626601343736, 0.11696090310717815, -0.12890124802477204, -0.38078660902210015, -0.11412680398972208, -0.16388985075820253, 0.16972858487025944], [0.14077479487541902, -0.13240470317084502, 0.13343093858357022, 0.10709914154799695, -0.05625911672830581, -0.07302002236584319, 0.06291414435232165, 0.14984339492451887, -0.08601036259264845, -0.030461775914727884, 0.18824375503242105, -0.07207164139429413, -0.16079651264955547, -0.07887667527870573, 0.08919890149922081, -0.08696965503120627, 0.18244645641091228, -0.13791714975572777, 0.1964907481743363, 0.007619525193213403, -0.08255705837125693, 0.11309705033503861, -0.05499066351720149, 0.10095672968080066, 0.10825289185937116, 0.09016030904299355, 0.003791521960091617, -0.2718133920448619, -0.24203576093816362, -0.10084389959680186], [0.04098001175847055, -0.16961331577354943, 0.33496221655733555, 0.036202346359396786, 0.04422660147625599, 0.08828733076340789, 0.07765392797342881, 0.024713407362934783, 0.4980923552184655, 0.0805498350225746, 0.213365377280792, -0.09738538530923942, 0.2444745947898659, 0.09638592430630709, 0.06531078877811224, -0.1775653535321756, -0.29992405320501403, 0.4021895532567442, 0.3196976119119252, 0.16623035357514673, 0.11299812297700441, -0.13170082941490183, -0.197177482184325, -0.009817333222451072, -0.022042769101013705, 0.14831534513313985, 0.11207447518646642, -0.0037012199192978153, -0.15014931627567668, -0.19523277326561028], [-0.06939469033628805, 0.07947294470791717, -0.15691931496311226, 0.3735353070018482, 0.08519542339558725, 0.0037907016353838194, -0.04982694074991803, 0.05907718138702894, -0.20273192851459296, -0.2664668616233245, -0.22528870773174675, -0.0818702598594193, 0.03677951549586029, -0.10555881959059939, -0.21191735763726952, -0.2939538778487327, -0.1263769838072264, -0.18456249448380865, 0.22133407490763168, 0.022343796254787274, 0.009022778601090124, -0.2687647604660359, 0.06975448100278826, 0.24046606130142031, -0.20637494966762723, -0.02693825888159152, -0.18585185996502848, 0.0803248290733834, 0.0606983644518478, -0.10546232823188413], [0.021833297381571786, 0.009313256490627496, 0.1884905710588076, 0.16733242615164134, -0.26790863726606606, -0.2906763317754413, -0.018617952441358783, 0.11722125517460044, 0.22550141718423156, -0.1312295932629899, -0.09408959960860101, -0.04487034440599196, -0.26147931075495034, 0.10449363429514184, -0.17308118296927438, -0.10241763236582432, 0.22497698987520462, 0.03742104678147361, 0.08932632087498585, -0.3974338920925195, 0.158187153606966, -0.2845701316834027, -0.21370462479472146, -0.02214441913149563, -0.030649690454010073, -0.2162501068728264, -0.1315946454567074, -0.09504538492931908, -0.024876719844052878, 0.10422174390780041], [0.2160070295366693, 0.09375715815992668, 0.40891065643003494, 0.168355557700931, 0.06006629880981711, -0.031761568198293025, -0.04598279757395109, -0.09543169087382057, 0.09886736287033472, 0.27902608727796857, 0.22120404033328014, -0.028979381509733112, 0.04592427868433862, -0.12672954189977098, 0.18279708262334876, -0.22641713368203453, 0.33911168533321345, -0.14409096765064544, -0.28480783268827353, 0.3574276850915522, 0.1296059476090166, 0.16579166233762158, 0.24430082889189167, 0.3359340614983793, 0.2591191633887344, 0.1425638893160264, -0.07551023439018009, 0.1596073788069355, 0.47435292987331357, 0.23229563947404253], [-0.1795174861800164, -0.10096033556517714, 0.07573872675267086, 0.09879169563939386, -0.29539649440143817, -0.041403165264138564, 0.14210453051678398, -0.007498853456461663, 0.4367059571994336, -0.0919891721442617, -0.20152010866338116, 0.297765453532308, 0.34375033471530253, -0.13690323611193247, -0.10721795073186421, 0.14158659383593333, 0.3781025169122975, -0.10910053202719552, 0.1500020367935089, 0.011698494331974854, -0.42307457092538536, 0.055007851133917034, -0.0004826631704431161, 0.15494480282919507, -0.1466338563018524, 0.048473059513266185, 0.04393739552321974, -0.3048251771842981, 0.31223522757142397, -0.07605018382286598], [-0.026001418830719596, -0.2369438154246272, 0.08501157290958021, 0.23875872288574673, 0.012996177047348682, 0.06815202840777274, -0.2425081925804594, -0.009592057807669674, -0.4337907815758772, -0.021373151927966325, 0.29712373730796304, 0.27094517308372723, 0.12871440208392776, 0.13918028734033636, -0.14898849537019554, -0.10620281314364705, 0.0608887803384236, -0.21605052989638868, 0.20409023682460312, -0.015313405048575635, -0.033671562547251045, -0.19466228215576148, -0.3269520364906561, 0.11211206417551806, -0.04046923228275262, -0.017538050129949603, 0.17388453910937077, -0.09040854816027245, -0.033446524402078626, -0.09805017576685622], [0.09087016996247474, -0.0702212888736823, 0.04641387690195914, 0.1636391950170921, -0.20295039943278925, -0.0740583977955037, -0.2476650981485728, 0.03134063254423753, 0.03657811000911012, 0.03177991567204327, 0.023421449511034264, -0.0366087625179052, -0.19498066909721315, -0.050258951128695335, -0.4650868197923093, -0.255263882222015, -0.19171369252278278, -0.05761592377368187, -0.21908156125691297, -0.027763636989965992, -0.012195273474223792, 0.44014896622077904, -0.11565336346375046, -0.16951359011184597, -0.174129583700701, -0.1526550820319063, -0.16346905549868365, 0.008319602145372666, 0.0542317698848494, 0.020355922484983833], [0.1146799772525435, -0.06502681317134101, 0.17389219375672604, 0.22268676183560143, -0.24964645768747956, -0.31333608374625305, -0.16024134522511443, 0.4867515171439288, -0.15532579293283533, -0.37399007122884914, 0.3281309386837972, 0.19913059084484022, 0.10599760787639048, -0.4629498403519499, -0.02147479528442138, 0.07898291701537699, -0.043626436828359025, 0.23007498993319292, 0.16831551524203828, 0.30446819504423644, -0.1438541577159297, 0.20451551858217004, 0.1909926623816949, 0.338354747754011, 0.15610704004641823, -0.20696042240202334, -0.1426896365267726, -0.17529569991570723, 0.34605356307271007, -0.030408250445369055], [0.19985408040654462, -0.2538629694307351, -0.07721311029056227, 0.037408775390929995, -0.222022524422245, 0.03911054061375348, 0.3101679419848491, 0.17372570530072648, -0.2564702847028151, -0.13479633801978075, -0.21915491798867934, 0.3367803887215409, -0.04834482746274502, 0.128379004340901, -0.22971486207055622, -0.4467706281888561, -0.012929379755818439, -0.3113652678514235, -0.3420751947059199, 0.11759374635212337, 0.18400195377701997, -0.07000404153049834, 0.1686850364116532, -0.0984438347615387, -0.14275373953807385, -0.09635935680722985, 0.06406654353302942, -0.0926280050949614, 0.10884918483431982, -0.09348677313086008]],
        "ActivatorType": "LeakyReLU",
        "GradientAdjustmentParameters": {
          "LearningRate": 0.001,
          "Momentum": 0.1,
          "Type": "Momentum"
        },
        "Type": "Standard"
      }
    },
    {
      "Type": "L2Penalty",
      "PenaltyCoefficient": 0.5,
      "UnderlyingSerializedLayer": {
        "Bias": [
          0,
          0,
          0,
          0,
          0,
          0,
          0,
          0,
          0,
          0,
          0,
          0,
          0,
          0,
          0,
          0,
          0,
          0,
          0,
          0,
          0,
          0,
          0,
          0,
          0,
          0,
          0,
          0,
          0,
          0
        ],
        "Weights": [[0.29239423414926646, -0.1410428249794127, -0.03305151526977737, -0.0802781554116491, 0.3140252561106031, -0.08131247375144071, 0.006279715502923746, 0.05811489218582053, 0.2711129601824047, 0.14818201149338656, 0.03547491837046708, -0.10387583387923931, -0.16062024041676526, 0.1466838247189876, -0.1660780246329359, -0.008546449021464283, 0.2264939724918748, -0.1524890768247972, 0.026051431286784676, 0.020700479259061617, 0.06317509719085489, -0.13071523539831562, -0.010397532399675304, 0.2906955947004586, -0.50579695734371, -0.20416415698686796, 0.20063231425245454, 0.17618626344031182, -0.028433912357596326, 0.32926166644366006], [0.0569227938541745, 0.2131962605541725, 0.3315863943050303, -0.062023999586986366, -0.029219807907872368, 0.016270601648581268, 0.4009472738755275, -0.22710117837987134, -0.18727328884718755, 0.22320258127985, -0.04543084749297138, 0.04153149637816308, 0.06982919127736477, -0.1039809803937262, 0.023758479031023613, -0.24335837935820126, 0.07719128631387101, 0.172865255497579, 0.0464489682318936, 0.025070533018056947, 0.23690209836879172, -0.22933823385094482, 0.03121024220355799, 0.01836948631709615, 0.01403255660215391, -0.07048178802820969, 0.18290653195243908, -0.10397376943626763, -0.1503127367262553, -0.1710015215053286], [0.36293315739242493, 0.028078168690714785, 0.15487785439185706, 0.5109982291614041, 0.3353889345279321, 0.006724028319995806, 0.025926181048074773, -0.10723851777768029, 0.17994164938137594, -0.07899430437192781, 0.054158081857089195, -0.2241169398881756, -0.32219830994959425, 0.2719885807477165, -0.03838892378847669, -0.19597313869981248, 0.18671730520557359, -0.005834149252173169, -0.04918405309411713, -0.19014533517808055, -0.15068167859117973, -0.3246617635016497, -0.08686532551118012, -0.2074000019764148, 0.20039651608932943, 0.11673277005813831, -0.1631468619761575, -0.08795915013542271, 0.1465694207843236, 0.07171703783750315], [-0.020504720612187274, 0.3024688621664121, 0.08663339731018799, 0.16374289146935767, -0.2399053785476408, -0.14708530232272576, 0.4611238638123207, -0.018613729900389772, -0.3257141096434992, 0.2868065283335372, 0.053870188553607964, -0.14128126973077243, -0.2829098357657784, -0.008799662571091244, 0.21810024566827022, 0.22437810262116287, 0.17386105875044774, -0.21175894810453963, -0.08640354731772733, 0.3036216328182349, -0.20923093874516363, -0.10311443750707103, 0.04724160466173631, 0.10055556207831516, -0.04425185007851294, 0.19046151316498452, 0.14210304595888285, 0.13524449720327272, 0.12045932509990429, 0.056145825511991904], [0.12025057579947056, 0.3338367947781981, -0.04805560258089741, -0.157306575041998, 0.15613878041995677, 0.039286590410741506, -0.05726072036544868, -0.14122043108290894, -0.20719535109508816, -0.510978413919011, -0.006485727085370151, 0.07610639536841111, -0.1095898329100899, -0.35586407714351825, -0.07732528768695196, -0.15593202581328405, 0.03731825305643733, 0.2579757497167638, -0.21490752540816127, 0.009821693470290757, 0.13244829720635634, -0.2815576254656979, -0.23353676813426494, 0.061295233658214536, 0.35353240347853154, 0.005006091618776773, 0.14160641070115484, -0.0716961557752714, -0.3732150498972791, 0.16873676485222966], [-0.018566556233569478, 0.07013832366689816, -0.015592833013220692, 0.0973216580770184, -0.30715596926717725, -0.012918095287965593, -0.1588020773931374, 0.09225002331742825, 0.015562202123457713, 0.10018416866012758, 0.0059716147023146935, 0.04792736835907663, -0.06564174452522063, 0.3211736921546115, -0.13589741945349143, 0.3810069743533374, -0.04573296603520125, -0.18931771465470373, -0.03941852156087274, -0.14231300409680747, 0.25538167318723887, -0.017627980114003055, 0.13462405418619192, -0.04125735988140449, 0.3025750104220003, 0.04411977989289728, -0.1731503123971059, -0.06809827244692973, -0.16634292498596512, -0.02521025747912288], [-0.024955401893042305, 0.29226930771257975, 0.11478085478368683, -0.0850230979085564, -0.1080689722325483, -0.04677468599633607, -0.08567777070095962, -0.2333439623504567, 0.1248933041292358, 0.015508911852591825, -0.26886215275580533, -0.33345972741442914, -0.12274388149849537, 0.13200216745588172, 0.020497644759677375, -0.06684962381889874, -0.212354685142986, 0.16360735508266697, -0.3089377853957668, -0.15008306768485383, 0.2610385313692676, 0.23798069713113376, -0.11368944457240149, 0.06578992234966123, -0.12472035638126033, -0.05819545795657879, -0.18764068360896846, -0.19011830293127369, -0.0218374801579403, -0.15407842265945415], [0.14925000059089627, 0.26488678337593874, 0.11585925786117082, -0.1749267332753517, -0.0010070783815667025, -0.07871366848635135, 0.17364579806983327, 0.29634364753204695, -0.0036849626832940554, 0.14639156669486517, -0.012349802327324489, -0.06350067573526971, 0.15442080590394658, 0.10896226097686959, -0.15691531428942826, 0.23397899940672032, 0.24807996089428228, -0.13149615231957892, 0.08017586743618263, -0.05785927446338078, 0.17758900324140525, -0.18001824879520142, -0.10231066279691471, -0.1389736046291731, 0.020832242969648248, -0.10168891892661158, -0.05282968892143361, 0.02429438767249027, -0.3540385888146662, -0.021240184270766765], [0.20989394525722335, 0.001005372461142449, -0.07130447963959606, -0.14491594082301412, 0.03935105792679367, 0.04260899286929567, -0.1653024259451685, 0.15799502558152423, -0.13942555308137364, -0.12825317889354088, 0.029930234023539684, -0.10718064895053957, 0.0427591060144114, -0.06166093464320765, -0.2724853690560211, -0.19685569431664257, 0.3329660514554983, -0.004819228095496158, -0.023150221271878064, 0.02718189575220928, 0.057628536518841915, -0.133996168662779, 0.11368873101613437, -0.021486448217871993, 0.09253860076094392, -0.1821188884127636, 0.3865616615734586, 0.10805298374700793, 0.00877267997844456, 0.033986603925667984], [0.04301824616864066, -0.313089646910907, 0.05089714668172343, 0.011899928081101293, 0.20741408751709076, -0.25785263105157424, -0.12224709151046902, -0.030841204391156615, 0.010776261303664705, 0.37209263046456487, 0.2588757174762737, 0.3393648236691656, 0.0329738476740747, 0.011348467580755, -0.12591627829173066, 0.1886630125327449, 0.31160851198620504, 0.08028327353637925, 0.13975529511505902, 0.22078719871946703, -0.052821305375146746, 0.00613394636336333, -0.02622104419792658, 0.2395948222952609, 0.06834694303194128, 0.2076002569928986, -0.03590043629551776, 0.0811341725198468, 0.21980762396312606, -0.06594796743113869], [-0.20760168967831485, -0.024476699605021322, 0.31455459784835804, -0.0015967212252363406, -0.01925548637669404, -0.14693941184125403, -0.032521138984289, -0.044222847680388845, 0.06056270024215703, -0.07497286625023106, -0.17323510917197943, -0.2445420554822211, 0.24580810842280248, -0.18108682417877825, -0.13749784559255537, -0.10858112538638422, 0.0533604418073779, 0.07748678968088407, -0.13478719897811642, 0.2527359594814931, 0.13638278043146626, 0.15237033414585247, -0.0051563692686663, 0.17862814150536316, -0.24492437522563382, 0.04287362861660836, 0.25324776730309134, 0.22480982642846792, 0.018207041754842227, -0.041646207585855716], [-0.0779521091589637, -0.12233598907941864, 0.0033906955224939275, 0.05074607560045694, 0.3734294091440736, -0.247456267526791, 0.11449049009321323, 0.30186415704763914, 0.03216929144527, 0.1405309240900211, 0.09280926735523319, 0.30002553443347396, 0.14294927076538344, -0.2598637763966296, -0.31130300119914023, -0.228750099045403, 0.2153241063239207, -0.0707756941692593, -0.15884730868291938, -0.15659097736267463, 0.3667591768008882, -0.02219013708563752, 0.18137067855104982, 0.2821215225652368, 0.13400581362651495, -0.08618881182681494, 0.02945583686356588, 0.07620152588958519, 0.069463845378526, -0.04302212986019551], [-0.17010283836375986, -0.060531267204782996, -0.08419807500033015, -0.031233834268253963, 0.033708097628761036, -0.18210353377141922, -0.21648107058049565, 0.3403950818853838, 0.24121911541908836, 0.22747466478154324, 0.2000739419781298, 0.023074378911682014, -0.05638654704924153, -0.06567294590337834, 0.15563897618840705, -0.042091403954014305, 0.14668301608584483, -0.04939338200803202, -0.15594897705248725, 0.12004556085293887, 0.14182424244912348, -0.38097719205312924, 0.08976120034651225, 0.060756025505534106, -0.042792980795683055, -0.030025423607403772, -0.2645479563709492, -0.07525382406864066, -0.031884532472047714, 0.01692976178857533], [-0.04239402862561356, -0.004183472572641096, -0.027306688200543484, -0.13223103540163011, 0.22865000423649803, 0.10035588566492944, -0.33225541920521456, 0.2779171211532443, 0.11027784710867804, 0.1710926237817201, -0.019133415544631358, 0.06324074716150242, 0.21010910577982728, 0.03759603858874996, 0.2129142419287818, 0.037092204649016323, -0.08309230865621599, -0.3659624125639889, -0.15826461727626306, 0.03382924404806533, 0.37265680117656147, 0.03282920358293508, -0.054840675146915194, 0.3226027226275223, -0.0931575446203988, -0.008317992702044374, -0.15327109590028087, -0.2458098724154214, -0.0481754742109553, -0.1773676757799352], [0.029840168312868315, 0.488085041452999, -0.017644131150005776, -0.13144173991730396, -0.12756447248409541, 0.071360495535908, 0.23675407404975932, 0.427099412301729, -0.10227409100902665, -0.30094711041343436, -0.2458211445332721, -0.1877417348150085, 0.19436395958922162, -0.15125901491957439, 0.14182350023399676, -0.1048438524228463, 0.056996288633401115, 0.38974867870331265, -0.04096236420198385, -0.031175713972746034, -0.07484818469814664, -0.062086324397438636, 0.11472079264370007, -0.20638347160490433, -0.22566577500934748, 0.1690649114893207, 0.029700848106668454, -0.05650432107421884, 0.2274859021014282, -0.10349933855685053], [-0.23608498732357178, 0.12754792388565397, 0.012677253255054585, -0.12956538260967332, 0.05567366263435863, 0.2117006521285553, 0.1204486450147192, 0.19090419814051965, 0.05217789531588377, -0.1398791284404514, -0.10667718865379103, -0.10925003338427007, -0.2177848152560101, -0.0656266844881136, -0.1548870520777901, 0.19677555974796265, 0.32053269144620217, -0.035653086446662825, 0.0019699632607018567, -0.16726198466442557, -0.2077499205366341, -0.03168751526381564, 0.26291178434301443, -0.21863093222971483, -0.23855909791638955, -0.35110912449104564, 0.08978083580531214, -0.19912991505624725, -0.34279680704018844, 0.10085247762609352], [-0.06379415027392386, -0.23681177178615784, -0.010034750265717051, -0.07820810356378359, 0.0027117805529404955, 0.15154812737341034, 0.014346046083280013, -0.4568884907280364, -0.26705941188752924, 0.13573123651856275, 0.2464137645391238, -0.16827684341701862, 0.13376396546284136, -0.00874536895152615, 0.014040435301898727, -0.21528405226533048, -0.04522870430268184, 0.023509164202910434, 0.08905929893674207, 0.14685768252700127, -0.22365068587583498, 0.14881700034837372, -0.021388768982612095, 0.025892617775876665, -0.0769276572089945, 0.04557880914634409, 0.2977909439398919, -0.026736909291629796, -0.005286405672790864, -0.031037323260897278], [-0.008932525904281684, -0.12429952537145712, -0.07165967151499382, -0.03237681275314475, 0.36304922542698964, 0.26243340420489375, 0.022332224337466962, -0.2834626801335981, 0.04834163020169199, 0.01958409812819501, 0.09401379105043911, 0.2024364396354193, -0.2549134704489531, -0.031624074127761276, 0.0005211384413353904, -0.16099428474701483, 0.22663572158094875, -0.0019561784515125936, -0.15179662063978716, -0.3030962071456789, -0.019719807004664577, 0.16415137119799414, -0.19359190589991407, 0.015929355461780315, 0.38134315028935845, -0.06150971654768951, -0.12401097301357324, 0.021546995824420122, -0.10345380593603867, 0.0670922423477623], [-0.1036827843117086, 0.06690903966994326, -0.420640564898019, 0.13464466588996787, -0.11725242928259888, -0.23159705043803872, -0.012815197542041726, 0.09345508411677987, -0.11722019791005327, -0.009429640573617764, -0.060999637067268755, -0.11521179563804844, 0.01414560014983284, -0.11952284269756445, -0.252869041760539, -0.20456813304768867, 0.27607465096635664, -0.04768864930257852, 0.0936952668352, -0.02536952237338149, -0.01237726655137743, -0.08276677521678609, 0.013984790215174903, -0.09795210055924118, 0.06724585566068769, -0.2385852147903638, -0.020955055552953985, -0.02042202480260198, -0.16285476997230713, -0.08955636677251244], [0.0804082652673469, -0.11349336648560071, -0.08269400644576363, -0.14502764504847482, -0.09326152358944659, 0.006208791494374719, -0.20891724718537216, -0.3071809192766221, 0.012879720747295225, -0.039098915187187396, 0.40153820277846236, 0.303556974931483, -0.1486464376723275, 0.1638976738234616, -0.02994870131449448, 0.10163608843925004, 0.22411618827537147, 0.19080406904251834, 0.004008442287222504, -0.14537338132328326, 0.09283505958650023, 0.20816435717565007, -0.053583287286470445, 0.06151267298058971, -0.002242174837933059, 0.07517104063251849, -0.05115193747026093, -0.23820880748957882, -0.029735122046080968, -0.27031395625512533], [0.1140351083623643, -0.1500652173134144, 0.00576550263344586, -0.03278716360133836, 0.16021601375637068, -0.0022279845756634697, -0.18867997294577718, 0.016540068803969195, 0.24378903440346347, 0.04346365837997864, -0.031872285494996565, 0.02935002090027852, 0.2993007726309819, 0.04611421407783938, -0.08284603997562476, 0.06570744302822717, -0.2145193337031761, -0.15101113032310817, -0.40336763619644017, -0.09590606570781839, -0.017302009193420856, -0.17662316432816064, -0.10189935220641913, 0.21397436367675943, 0.12178026764972517, -0.1142839107399542, 0.21268605615882874, 0.10107409080610467, -0.1737073234047533, -0.38051530220295465], [0.1812271815341838, -0.2157443088921263, -0.0957881140868714, 0.008498896899522249, -0.05348659169663957, -0.005931398229239275, 0.020200559197665936, 0.29318055268268245, -0.08322228524340973, 0.3783612479738608, 0.07532517183051557, -0.10104487759364367, 0.06523701157306133, 0.15438797795902456, -0.2798611559231282, -0.23477596325377, -0.34366419863092346, -0.05601721566882042, -0.012793835796322957, 0.20437009254839397, 0.36411471156048525, -0.05837539427114711, 0.19123669808967558, -0.20327628640959294, 0.03194327028335198, 0.2297537228200942, 0.045648939990890904, 0.2876117454428253, 0.12323907570890981, -0.1929416695083509], [0.004089123937052848, -0.13781481373583465, -0.2675826117428843, -0.029434030740758812, -0.10222089851214691, 0.00768301996115363, -0.07277918500106012, 0.3366603562605281, -0.2886286800873319, 0.013227702435959778, 0.10387399891470016, -0.19432381869485602, -0.008471065949839736, -0.12196622808056394, 0.04305376122533153, 0.0014117378546838618, 0.04121776477101578, 0.07754689570235533, 0.033828168796145586, 0.04055320077559754, -0.10840279257247737, 0.031545040993414784, 0.08675317930005352, 0.1534503591162029, 0.09240902897467707, -0.14308315980837022, -0.16189446283296485, 0.09109205477827974, -0.021571351327867142, 0.35445859178939815], [-0.10545061097786736, -0.13284486823316857, 0.10613758871104377, 0.09049190501934525, -0.32341952575213384, 0.10320029720127842, -0.336576129870012, 0.41053013525424664, 0.02985588612616235, 0.09468595235492717, -0.09901346770719892, 0.11303688820704065, 0.06749641161658824, 0.08200120162513755, 0.043293820026245496, 0.11111303164462172, -0.031098101047807466, 0.23071702500291527, -0.011168445603134427, -0.03928687649520296, 0.38384331384593656, 0.05641116699846149, 0.13445141913402367, -0.00491090090201729, -0.256957915337376, -0.04471472289969903, -0.014576846971061581, -0.00266853301428405, -0.0502447588427629, -0.040135388298898025], [0.23908692240881274, 0.08404020000482078, 0.12315486073864701, 0.21655161864563563, 0.04018752329438779, 0.06022925666776138, 0.35243596129166865, 0.3898728987707986, -0.1504078059044584, -0.0007471772108070437, -0.19803946393158317, -0.056298077899749346, 0.032184416693483923, 0.33189442767656185, -0.32470774568253014, -0.3358666243571066, -0.018249600694508865, -0.07959634678829078, -0.4465015810119504, 0.08741795635580667, 0.004321561690522797, -0.09599748210056987, -0.12416942974858382, 0.14463373341068986, 0.006856916241715702, 0.022006185797427143, -0.07947479930365045, -0.21427482606445533, -0.09480270754090617, -0.03433584256562432], [0.2071126550139006, -0.03382463921049794, 0.17731307631796736, 0.025899786824497905, 0.1008941838676315, 0.0498591990859681, -0.14166216829673467, 0.1962440272723114, 0.16511577996152357, 0.2705036165925782, 0.5323782943352483, 0.05428700503583905, -0.31055346968654535, 0.2787614674442076, 0.10384507411398781, 0.06455089960126888, 0.06080782918150203, -0.00014356934921097727, -0.28192575210018217, -0.2889676512994088, 0.058722939374126114, -0.18541303219899125, -0.07521983933588486, -0.29058182051248327, 0.05168417626670761, -0.18750962647848696, -0.2573017038994903, 0.061152101922967536, 0.1167324419688982, 0.07617992663351858], [0.00733379580489963, -0.050383310320074655, -0.0947405337317977, 0.2133590002399487, -0.03265626634361965, -0.1397971635489378, -0.0854143089232817, 0.20507465774029268, -0.03535352019139827, -0.10292572203813019, -0.2466116386586605, -0.09844212331558051, 0.13464609216265686, 0.29241089955314514, -0.13836151170336167, 0.056066490388343236, -0.03560156619409729, 0.07892474857072404, -0.5175051233386196, -0.3699542008968117, -0.08551163059122678, -0.19265774916901807, 0.22615455859016567, -0.291664207445527, -0.03342711315349291, -0.05074763027964578, 0.09629873911402745, -0.15272892580786235, 0.14914423282688796, 0.1463063935368923], [-0.13201462994054108, 0.1301002389922932, -0.05926849693298393, 0.28299698450599065, 0.0018793164367528034, 0.10564553319232768, -0.12283998549795046, -0.024813080227427616, -0.20298865982404846, -0.29716107097015465, 0.12160794891377737, 0.21022413626330366, 0.040697931137904084, 0.09032130245213152, 0.156102785220815, -0.1049898503133236, -0.0011025006475014049, 0.12103492776816352, -0.2527678398254162, -0.11437889729122246, 0.02674409415969021, 0.1326075443498591, 0.05554235877267421, -0.002711656965616294, -0.12405986036826784, 0.09054126565501301, 0.279114683940906, 0.0904853852848524, 0.20342228485855082, -0.2012165364501719], [0.46426319045780323, -0.22687715307269365, 0.06864767497067088, 0.07717943905379324, -0.3339788559994934, 0.3937261236914134, 0.09318598361428886, -0.024937181605618374, -0.04186948627254584, -0.1973008842608818, 0.21514623186190607, 0.26305718900882347, 0.05072700400784774, -0.052230506585389344, -0.2033314472740669, -0.044462003398290414, -0.3031789051716462, 0.5529234395726644, -0.22456947912171202, 0.1324452429778559, 0.11816984556240136, -0.005860044765180846, -0.15430192818855434, 0.04736809935048749, 0.026356117265162262, -0.20316905612079836, -0.0003846485195606273, -0.10310729218696318, 0.12198315315921464, 0.09504256292502998], [-0.13120497533376876, 0.07371303747256581, -0.4191838000576969, -0.22643009412142945, 0.14588362531990487, 0.16036579981010105, 0.083326313414421, 0.07866465824258743, 0.20904108035525543, 0.26815500443159135, -0.0791739734767453, 0.06727866681112189, -0.10739980606023952, 0.023502736250496332, 0.11352057727770955, -0.4092272487015255, -0.22591407449763817, 0.007962942802021112, -0.23136916929485765, -0.04792456410167531, 0.20036969338090024, -0.0006233609078938902, 0.0021626382268810757, 0.15314055035344545, 0.242500970963412, -0.20218552754925942, -0.11849739627828192, -0.0931764033747021, -0.1351359662040393, -0.008318506305598328]],
        "ActivatorType": "LeakyReLU",
        "GradientAdjustmentParameters": {
          "LearningRate": 0.001,
          "Momentum": 0.1,
          "Type": "Momentum"
        },
        "Type": "Standard"
      }
    },
{
      "Type": "L2Penalty",
      "PenaltyCoefficient": 0.5,
      "UnderlyingSerializedLayer": {
        "Bias": [
          0,
          0,
          0,
          0,
          0,
          0,
          0,
          0,
          0,
          0,
          0,
          0,
          0,
          0,
          0,
          0,
          0,
          0,
          0,
          0,
          0,
          0,
          0,
          0,
          0,
          0,
          0,
          0,
          0,
          0
        ],
        "Weights": [[-0.21978046690727826, 0.07541116260677731, -0.15743650158251196, -0.08940014021106903, 0.04436447243218561, 0.12885645463150536, -0.07399472866844481, 0.3210255340057411, 0.17578989623030739, -0.15875103642381405, -0.11231097960488322, -0.1605427487823035, -0.004608709693993703, -0.17752666739167716, -0.08579114687127806, 0.0368063765881734, 0.05237047301242257, 0.03725926756587431, 0.06162145970715472, -0.048616590296825926, 0.15178157521547045, -0.024591267615783844, -0.2430202171175656, -0.1438376410758187, 0.029854134805824373, 0.03963960186166123, -0.11281219482872717, -0.2554778879933615, -0.0941768513463621, 0.048746183845049446], [-0.03240051582409522, 0.14576338616706766, 0.13662133476824997, 0.09529840191174464, -0.09353451107051178, -0.2819405900665388, 0.14441452812177027, 0.18441278962518506, -0.037889931684062544, -0.42479466864185006, 0.06889612389944717, -0.04190733165939801, -0.08700351544696888, 0.23338080804847125, 0.20439378744255518, 0.2798066506704843, 0.14124052266147422, -0.08456082135661555, -0.08573116981179489, 0.20401016116219545, -0.19951613827608253, -0.010675571337917612, -0.20241458417602617, 0.1666317157242099, -0.23672723525284253, 0.2505945890605224, 0.26344438529684905, 0.2230873340749933, -0.0023049806707587557, 0.16524473118932712], [0.4084013061588149, -0.22125992987880835, 0.28033544997082704, 0.12691359009367406, -0.26531519246526775, -0.12267555055949632, 0.27348447769508927, 0.03686969679564541, -0.09893718433797451, 0.029083393839850376, -0.045797292939844574, -0.022723524077340188, 0.034429233856756114, -0.11483473267359885, 0.08352660005163078, -0.050843372410971054, -0.28982414958887853, -0.04639703539259483, 0.13840202559216028, -0.20650679118711854, -0.3187826314240387, 0.2626324541180382, -0.04969198159586296, -0.322479642239733, 0.20112353104456432, 0.17044751312086878, 0.011503808367156835, 0.05587158347046285, -0.32132795884596016, -0.1930443925564649], [0.11012575062937216, -0.1277260811439523, -0.0865461968272828, 0.19852222882467283, 0.3815733479459568, 0.07897046320289247, 0.09258128537844562, 0.018522762885479483, 0.029658026319140884, 0.04149078444048475, -0.11387412725185662, -0.10541770772429362, 0.08442936242271706, 0.10463371565060016, 0.1155228614350761, 0.14238565229632635, 0.06545905887080325, 0.025246636848107844, -0.15286431205760556, -0.04020898822073954, 0.09430632009506648, -0.01138833784692215, 0.061217993642327335, 0.20035159829201424, 0.3455481861919044, 0.11576368142707327, 0.002701363785180283, 0.36933967097764026, 0.2643758332944897, 0.22261065695827453], [0.08581007243272792, 0.10731294346296791, -0.04109054115772428, 0.025081484076895283, 0.021025915846516943, 0.12690813229075393, -0.024934189654872062, 0.0727042489893284, -0.023678416058316217, 0.11429215344942098, -0.02542126021347812, 0.03507152933270297, 0.30151209346624236, 0.1762176218123292, 0.06528409430115503, 0.11302191598578669, 0.17681300965646715, -0.2968569359970586, -0.21382389261071216, -0.015836203908129322, -0.3846115794641318, -0.03506954542495047, -0.19116727932350117, -0.36211710406128467, -0.17840504100114382, 0.17737304164383716, 0.2514176525278341, -0.23309877409956245, -0.32086803620999305, 0.18753713971172936], [-0.0200549405115775, -0.23783688743854361, -0.2891270187041157, 0.41908803297085717, 0.1422798745362965, 0.20778823308255429, 0.06459263422590118, 0.15467981629778435, -0.1102270800343532, -0.02463650415456112, 0.32843619718279543, -0.09326259432591946, -0.05383674226863205, -0.1917373049206821, -0.19340337395643928, -0.17004966859738874, -0.20595664824254512, 0.13602086245463696, -0.12299792234464352, 0.24854700390892775, 0.2027387436783206, 0.010526997954834399, -0.3395634742310685, 0.0934818453052822, -0.2669419157130349, -0.059562123672561085, 0.2633090058293032, -0.016371050484078185, -0.052908545141784606, -0.07395845902926997], [-0.0869330918071128, -0.05989634700352717, 0.20413196107423545, -0.2759579749914956, -0.1997995796837928, -0.19170529207612214, -0.1409277182117527, -0.11368330105193457, -0.03574643009807618, -0.41773998299353876, 0.34112926771533464, 0.15200632662945426, -0.1826100174112744, 0.2704550222202989, -0.13752303816957615, 0.019004670529722874, -0.3165671145129738, 0.1949423728063219, 0.12183826484285122, 0.1611543758271925, -0.3033424433806993, 0.06483619862974915, -0.16957162479224008, 0.28157137136312704, 0.0194804418643711, -0.3252590329381775, 0.043139031491301806, -0.2636259480266863, 0.3793372276446252, -0.2035002569530321], [0.01925871820124248, -0.21102633879501817, -0.11381765067344335, 0.050505517336816734, -0.12054137787221332, -0.14900086648263366, 0.12581930803813282, -0.22429310643207964, 0.08246207360549325, 0.12878022217723495, -0.03380548507275172, -0.15567800439399881, 0.00690813379262039, -0.13781684715380094, 0.06858356992300231, -0.06761125165399852, -0.1432296895832654, -0.005743868929238454, 0.14463843488837738, -0.16639800534287175, -0.2772166616412252, -0.11066286449976748, 0.33804187089571053, -0.01239239086141229, -0.0558853793623573, 0.08559002596861331, 0.00011282941527298741, -0.07982109421542073, 0.11505890770840313, -0.19253001503650563], [0.22290315852562018, -0.20040827339530773, -0.03914608805874639, 0.2534287875055577, -0.3279565272827464, 0.2384072164710518, -0.10299400167907594, 0.07848760166356718, -0.4459278291164348, -0.011464352401136434, -0.005682466731615284, -0.15049648398948515, 0.11289281550998519, -0.057034545031296166, 0.14917718591859958, -0.16278167876813382, -0.09929842152803206, 0.13912139364955253, 0.07095881812243938, 0.32596058547959594, 0.30545852243468097, -0.430905197586376, -0.22021352946173658, -0.18047309467466163, 0.06935719260141926, 0.025902896183075282, 0.12718264340888977, 0.183735214585054, -0.23286612385984568, -0.004602166224070618], [0.16009109579837483, -0.2394893543614315, -0.10353980223504654, -0.3182387685012218, 0.25165821034687275, 0.17853686338218958, 0.007799627984227591, -0.0714849914014841, -0.23880788709811235, 0.024391526236239705, -0.1633185694099072, 0.11193070971193203, 0.08634828494635839, -0.0005610886285324239, 0.15582861692939193, 0.16904025484280832, 0.23518285761091737, -0.18518536260881444, 0.09575784843855727, -0.1282923938061343, 0.40189113520505304, 0.15177746410302576, -0.1394967861140128, 0.43606596990592633, 0.13879893256359724, 0.050201405700884175, -0.13255248563599142, -0.04298401749079967, -0.12431364963310122, -0.2036305100360205], [-0.06657440457940482, -0.45948058925516194, 0.021221721271564183, 0.26574860850840465, 0.4429158760731594, -0.06910049344329418, -0.18299541609666536, 0.1614700062187496, 0.10349613907119033, -0.027414990198814455, 0.14370053256325518, 0.22679038924740336, 0.0541531186652097, 0.17205570549243593, 0.20898984473567764, -0.12614780546059717, 0.16669733689467775, -0.11941316160723707, 0.15199824585825206, 0.03800793089237551, -0.03334310909572558, 0.10700691638860076, -0.13830050969750535, -0.05802276762092157, 0.356155312086414, 0.050994335533013725, 0.3645925643190228, -0.08298439860128003, -0.01276199725504299, 0.15410810122145413], [-0.15884836917202438, 0.1181505205769958, -0.33030671349219654, 0.30135822445268257, -0.10023800608069049, -0.16788839716309487, 0.09508221811538144, 0.26991596324138106, -0.18405552389761973, 0.16573864636663274, -0.20567980831812707, -0.217832023499079, 0.2729465347856379, -0.18856884608608457, 0.11993903724461258, 0.07761323812966456, -0.11550853098349186, -0.006625642759674021, -0.09630738227969421, -0.18489300528376829, -0.07113763886578495, -0.11502328525639009, -0.052506947040201354, 0.08877722013699416, -0.08523114110558173, -0.12631504679073713, -0.04611812338061698, -0.21037848263210926, 0.03857946663231544, -0.12712513560111127], [-0.0969269900249666, 0.1304612463477534, -0.2812826284040864, 0.050547345342626684, -0.07071420352508323, 0.22046717752151815, -0.189044754911241, -0.1578197650857594, -0.05326765720398686, -0.0616722165023206, -0.06837387993512756, -0.15362207801478364, -0.1279967267977258, -0.03855796945055253, 0.3119590538710327, 0.1138990577580982, 0.0775444997123665, -0.03892469793457982, 0.19145161853303905, -0.37800545079834413, -0.19794753692622885, -0.15935400425371002, 0.11312141615245248, 0.06611082941028655, 0.3032766813060495, 0.05232064633893771, -0.060928671382376294, -0.16319446092407736, -0.13464343815673852, -0.22235643202925046], [0.05137957993802146, -0.08889970505451175, -0.0946730885021983, 0.12294842328096141, 0.08423020712742518, 0.0748184264199059, -0.005148241568242044, -0.0025464093134971695, 0.1353309067119316, -0.0030518126160075385, -0.052664153260213266, -0.0010999496510765445, -0.10414926223818431, -0.07416617019924325, 0.07764533597766773, -0.15550163466737016, 0.1889145798509577, 0.15905608321354234, 0.3018377408576894, -0.0354054594295984, 0.09966465088778899, -0.3805588675518303, -0.07252585105283954, 0.2841672150961887, 0.1306210652676366, -0.0267195063187265, 0.12157728384069401, -0.3040229175177554, -0.07529307706796665, 0.09535843691839609], [0.1390494090289885, 0.20499920495576424, 0.1382233358160297, 0.03570420987738516, -0.2539296744814764, 0.155908273143189, 0.057263581143087106, -0.15670510961191692, 0.055463437217286395, 0.09548876770125153, -0.11276266571187771, 0.2203722518137709, 0.1582634405544699, 0.057918483777563576, -0.36906944859437185, 0.1520245639287442, 0.22381543274317847, -0.004279996989979573, -0.26388531902333306, 0.09943653923118938, -0.17912762728164425, 0.07221385199444791, 0.044406768958910756, -0.03128187901841232, 0.03882217945843886, -0.11946699498909116, -0.024637408327833173, -0.17811453100650335, -0.06206428297658266, 0.22568103002993137], [0.1502122539157959, 0.11755240980469828, 0.060580545751106066, 0.0065901354381006335, -0.16540756469435872, -0.06250892750473358, -0.38136608812755696, -0.10929894260725738, 0.04399370476503185, -0.14114875807060362, -0.026610127977943876, -0.010481761330250031, -0.11831869898767662, 0.08629474739274451, -0.1776064346313473, -0.01819542090424683, 0.040865594750447175, 0.09718492690272026, 0.28874588391704237, -0.07518096067036968, -0.00963959023506662, -0.036177961347646934, -0.20839683030148837, 0.10025098101581915, -0.02095244894354099, -0.009654123429536914, 0.14574769909621052, 0.2769880585103811, -0.3352139629194416, 0.04227752259636999], [-0.06075573108449432, 0.18026619846939876, 0.12073446289915613, -0.3567014267859154, -0.0766634565663061, 0.06901078255972194, 0.10534351693983829, -0.4601317384211644, -0.16906261191031632, 0.044831917745833304, -0.0668013327783942, -0.08781120894291206, 0.07244360222490853, 0.24779227929532358, 0.07832124834342523, -0.10895983960479175, -0.16923134038570842, -0.011656451200461543, -0.33896438690960934, -0.07855326708430205, 0.22370541903892496, -0.2019217673348178, -0.11631853930469052, -0.18364838811327805, -0.003526237929313138, -0.07649494720942669, -0.34386730272588, -0.357148281342528, 0.07188374903079532, -0.07148303098436366], [-0.15960930089102868, 0.40277808539922305, -0.12712139201449174, 0.010168995236287875, 0.19039658785393584, -0.07840463326152661, 0.0458876593429422, 0.1384655213540698, -0.14446567546653172, 0.0353922153916628, 0.036219113309265465, 0.0884078011024251, -0.1833775616942316, 0.12563151352787325, -0.05558117745753032, -0.07489434221032029, -0.18247617807518668, 0.09245945571438703, 0.03383612563252222, 0.40478270347170575, -0.07507947762735437, -0.010475719506946283, 0.24350823390348644, 0.03231414412447193, 0.17535255861748017, -0.04598817925560556, 0.1743207762202522, -0.017928709278813966, 0.2186927400592502, -0.07557435800760014], [-0.10646025449374119, -0.13039323771494887, -0.004602940334554896, 0.31958877041162526, -0.2620846176470928, -0.0438777793948655, 0.019115084407090047, 0.021833468490606057, 0.13979458586662402, 0.10505963514853903, -0.03256173432366352, 0.3289842822342348, -0.2006796051162154, 0.05192556619898618, 0.4336256021206485, 0.2808629712456687, -0.29073722486364395, 0.392018858194141, -0.035001795402619135, 0.10004154490139357, 0.12689394541631283, 0.11448921937356192, -0.12095470858683338, -0.3161183983857585, 0.16157986442225067, -0.1265630956275104, -0.03307441779663559, -0.381113434860174, -0.19955723555792937, 0.19417683044536274], [0.09749358055507687, -0.08105411475109081, -0.10112986179644787, -0.03852623235897902, -0.088562794793984, -0.13227782362968382, 0.05382160382804408, -0.38452886277949594, 0.06431100273748945, 0.11013488034856765, 0.21982951806072368, -0.1598161148449358, -0.06845971185056067, -0.054216152912095784, -0.051801657791570914, 0.2676405010348944, 0.1533150026213758, -0.17525650842780488, -0.0012094469467561271, 0.028768091690954577, 0.26715881829470384, -0.1660377383134244, 0.04945828087076577, 0.017005552845973177, 0.34668126880119055, 0.3806441665260792, -0.07509517499733634, 0.21907404565509012, 0.03808156172303612, 0.025269178229990277], [-0.21082909016071089, 0.2016258805295433, -0.2043483809330986, -0.08679041101280638, 0.1215731669378857, 0.08571486945973336, 0.08454217236818617, -0.05696395273676891, 0.07688579901428926, 0.31253075355884924, -0.3103702457377539, 0.036122304323302344, -0.27642764507264983, -0.19812606311584421, -0.01173331680276741, 0.07406038605938453, 0.07839107838576322, 0.02309181429299444, 0.1152167184670884, -0.08070655979344298, 0.02643455101862114, 0.11908433177580127, 0.06626514817458402, -0.19794752608589244, 0.14847216055520515, -0.06865333575692067, -0.3485954417543953, 0.1852855725710228, 0.06092113750663512, -0.0017080196345212336], [-0.10946592956812158, -0.11506224397091673, -0.032362153717666264, 0.1016885634544134, 0.048713684640228384, -0.3998586272299168, -0.4731250444250084, -0.19867811371032723, -0.08087527571392841, -0.2178926991676039, 0.0498383394304885, 0.14877996228199686, -0.15094750411129745, 0.3248464708316361, -0.13741571523076382, 0.3306080751578803, 0.10726694255479217, -0.0488348975586942, 0.05676077474700529, -0.22063003394536115, -0.1294263748526123, 0.06359039511734621, 0.22506116222852313, -0.10242052228760255, -0.1760988838100232, -0.08412525725929845, -0.20831246029044898, 0.05086465656429973, 0.1773110407306237, 0.00784170072472242], [0.06515152090059845, 0.17142788619188384, 0.08318168076816305, -0.08650368620766659, -0.05432702555632587, -0.10871254378907586, 0.009090141096309047, -0.02443495978705925, 0.004072726808832951, 0.029714384524462255, -0.28315010198088164, -0.14604943910873835, -0.23275716074171474, -0.10991552562776628, -0.23581340689344538, -0.21936899102608118, -0.17414137580945246, 0.031181777084826192, -0.22669123135847896, 0.2068920786643006, -0.02294500326981283, 0.10914609066926977, -0.0347072736354319, -0.002679871175368671, -0.010968199214715011, -0.1486107927974523, 0.057204395057173424, 0.12929517625472983, 0.11371168685306496, 0.17708088952359288], [0.18256841781634742, 0.19638072324652486, 0.01801878846900218, 0.08344652385662923, -0.04838780993065506, -0.1277660445838463, 0.08359789405234197, 0.17631594027543382, -0.0019747051682650323, 0.27379642502439505, 0.21365208867475557, 0.23673290582857218, -0.4369459899878258, 0.11753325769366132, 0.04634856589537276, 0.033400893400942766, 0.20479661696533508, -0.11710661773646112, -0.4911145059433488, -0.15444654020350934, -0.08599311989940048, -0.22052177419265553, -0.20870515159770311, -0.02103121155056614, 0.08872476646064968, -0.1506218060583534, 0.05493621912880748, -0.1424908248572973, 0.022525035107232062, -0.11910886748329078], [-0.155188776265154, 0.33646355633597147, -0.34427219648488383, -0.3130397061439548, 0.2861101431971138, -0.1775189684037796, -0.3394759308214244, 0.19975166081679452, 0.2388523096465889, 0.016123944764109534, -0.12072169287376046, 0.15465311838877688, -0.17606156809044599, -0.036435978620664916, -0.21401337895619277, 0.15405714844554239, -0.08720560551078321, 0.14427722040662666, -0.20731791871802416, 0.05166690607965715, -0.18328816800110018, -0.007532825134863133, -0.1556819264971403, 0.4444498081725935, 0.1759914994569031, -0.27228202375922633, -0.05892109496849325, -0.14939049748733058, -0.2970409133269108, -0.05236714929785457], [-0.00686800075046155, -0.1584612513865255, 0.09299912673068314, 0.11040731730230058, 0.057457286233537894, -0.0008772826090768431, -0.0015804994016644974, 0.09644463564593156, 0.17513796897150663, -0.221201525719324, 0.004522520045268309, -0.17803888023568007, 0.37995818575419293, 0.005303219208508817, 0.0454149186694992, 0.10116599960618615, -0.07072849230909274, -0.10087862374337309, 0.027920487272046594, 0.1533881848563421, -0.024861027470117144, -0.13100111114530644, -0.2238352523257429, 0.21723427980433477, -0.07013704586635894, 0.015817049495981474, -0.07691796643495653, -0.09256429335148193, 0.1230630738585195, -0.13542956752510008], [-0.06763438415462313, -0.08560928133675122, 0.00439072529240873, -0.12020407308574571, 0.0213810815803462, -0.3830868002775619, -0.2374824195870483, -0.16828938716278832, 0.1294354310075292, -0.015106538503807802, 0.05380188841419916, 0.13891936459843426, -0.07209905618319923, 0.09275372509650914, -0.18844294442201143, 0.09872921815068712, -0.07938958582150367, 0.0871885636214681, -0.19511161748892045, -0.23211502862025232, -0.08375404041587226, -0.09985260124750912, 0.11225081828721806, 0.27995305174100216, -0.11701017344089135, -0.050647162417333344, -0.37223415669015425, -0.12257967174367614, 0.12299975530721177, 0.192928077025081], [0.4886064540353569, 0.14946031225168377, -0.080476954510956, -0.22527849306572129, 0.10529873419871444, 0.08170343282377392, -0.11806911911554219, -0.1297304437336338, 0.021721055939859246, 0.014467210097917193, 0.23617792777847324, 0.2005030976040821, -0.12144781906181125, 0.08107535036148866, -0.13116771475648994, 0.40215975651494923, 0.037184442647820753, -0.025827855735062365, 0.33937440495578197, 0.10495263889006694, 0.017559901530409882, 0.07255815894363359, -0.26423509770628945, -0.2845191403284019, -0.21744821547446547, 0.3336591274744271, -0.14132936347920608, -0.0060643213818853655, -0.05375619808660376, 0.2787212518353968], [0.007011418665163783, -0.25198924257554517, 0.1964520730884788, 0.3651911161528776, -0.26322002444271747, 0.03897476072837022, 0.11780461210925364, -0.11543183982700102, -0.2504313699960336, 0.23216187111168166, 0.0788758079863222, -0.20098721020274532, 0.04995088136740557, 0.11050929509877133, -0.2470124110518048, -0.10921692941189393, -0.024630226214807052, 0.1343107700881323, 0.32699891747377025, 0.09065653172567667, -0.39561428362470147, -0.06765657714638955, -0.17437069352498422, 0.1922477021193131, 0.1818742824744295, 0.09616100379242164, 0.01235360535734314, 0.02522991260074364, 0.020432704752478072, -0.09272840370159294], [-0.14025284377468425, -0.3031160333144555, 0.14300540050171048, -0.2587766377835892, 0.06128519821744398, 0.07259914035172776, 0.1328261396369354, -0.06074692735739503, 0.0942519599117854, -0.07415467270552734, 0.5171521544360953, 0.07616355924687843, -0.018351709492215824, -0.03832967780369687, 0.15179008522205248, -0.1364119779676356, -0.028404145024843775, -0.019359637575887614, -0.1276409070557812, 0.01229822280127282, 0.12308537575555213, 0.10185339868518159, 0.07895498288089836, 0.17424086984429216, -0.18800443716061527, -0.23411802545108656, 0.026812536596421698, -0.08682288202528322, 0.1672157009246801, 0.148050627660251]],
       "ActivatorType": "LeakyReLU",
        "GradientAdjustmentParameters": {
          "LearningRate": 0.001,
          "Momentum": 0.1,
          "Type": "Momentum"
        },
        "Type": "Standard"
      }
    },
    {
      "Type": "L2Penalty",
      "PenaltyCoefficient": 0.5,
      "UnderlyingSerializedLayer": {
        "Bias": [
          0
        ],
        "Weights": [[0.0561989626433701], [0.03570431926734729], [0.1204254441204698], [-0.16949023597933188], [0.21867608310485365], [0.05494847252674349], [0.35695967074848833], [-0.19900395623454223], [0.3288810534467637], [0.19473070231039952], [-0.12868811070652938], [-0.14588714357288568], [-0.05122679066162527], [-0.07504278615753197], [0.1032568645696592], [-0.006942153816489333], [-0.11617017759239932], [0.24943472133309444], [-0.057501503271141036], [0.12241531236502841], [0.06661778903117649], [0.12025208957590437], [-0.03650555247717084], [-0.2946249949468847], [-0.3464119581838698], [0.027245142315415236], [0.2121707115665978], [0.03918607019686816], [-0.05673511222145599], [0.14516320345657366]]
,
        "ActivatorType": "LeakyReLU",
        "GradientAdjustmentParameters": {
          "LearningRate": 0.001,
          "Momentum": 0.1,
          "Type": "Momentum"
        },
        "Type": "Standard"
      }
    }
  ]
}