{
  "BatchSize": 4,
  "SerializedLayers": [
    {
      "Type": "L2Penalty",
      "PenaltyCoefficient": 10,
      "UnderlyingSerializedLayer": {
        "Bias": [
          0,
          0,
          0,
          0,
          0,
          0,
          0,
          0,
          0,
          0,
	  0,
          0,
          0,
          0,
          0,
          0,
          0,
          0,
          0,
          0
        ],
        "Weights": [
          [
            -0.17742744355526258,
            -0.18695872432580488,
            -0.20782631761089113,
            -0.2597543286921275,
            0.1575259566717934,
            0.02946303555606763,
            0.29772119318178064,
            0.38610309241514557,
            -0.14890383184826336,
            0.15016799387097504,
            0.8614548194530586,
            -0.02090116958089545,
            0.02423425203811493,
            0.05021386524160596,
            -0.7626507115130883,
            0.404716795781336,
            -0.14265723924239326,
            0.014438227810228544,
            0.9070677517678037,
            0.40573324503625385
          ],
          [
            0.49162047446440044,
            -0.7418533576813796,
            0.5387587245499209,
            0.20414439589670152,
            -0.03440027672180182,
            -0.6922174286783268,
            0.3594543055436675,
            0.02117299634635988,
            -0.11569119594911996,
            -0.11331765430871098,
            -0.43851758217708764,
            -0.793209012588652,
            0.06216837822517054,
            0.15732673876030953,
            0.04260089312458603,
            -0.15632746557375593,
            0.42599529956144666,
            0.45779620265790716,
            0.09588613328011475,
            -0.13181739959722985
          ],
          [
            0.21400421697133465,
            0.016177142976835857,
            0.5511249369716172,
            0.18415375253297278,
            -1.3279716350682598,
            0.5549341810192429,
            -0.6877176354076092,
            0.48186438345126614,
            0.6226492315871405,
            0.409036845321787,
            -0.23214127545124766,
            0.33487035181405095,
            -0.24055028192447167,
            0.22849579631090017,
            -0.03144591743266248,
            0.7210058069062402,
            -0.03758484308168341,
            0.35733930750195797,
            0.5953156386895926,
            -0.4475570266088863
          ],
          [
            0.02590634386431492,
            0.27312330924262257,
            -0.049568027500210755,
            0.37616189690858837,
            -0.41536088352954376,
            0.2707588877154192,
            0.21325564356183155,
            -0.3034657241318965,
            -0.26341394633853926,
            0.16539024065332109,
            0.2923106243970357,
            -0.15884358641463386,
            0.45798208639255683,
            -0.2745085290347589,
            -0.08389592540628017,
            -0.6073846538989176,
            -0.34653876471313644,
            -0.3254262289521386,
            -0.1287877679224358,
            -0.2008258385155669
          ],
          [
            -0.7635978636472888,
            -0.45475294495384894,
            -0.23639997802615775,
            0.5355242279299673,
            -0.09321380320106375,
            0.1996139721147802,
            0.22137915437100159,
            0.8877622060355189,
            -0.5269917419555162,
            0.18178468176499687,
            -0.3064071675359938,
            -0.6682704635242913,
            0.4230416283701487,
            -0.018999890296147796,
            -0.14723147385655494,
            0.1652226992175242,
            -0.22772008519434322,
            -0.09324849120589399,
            -0.03091846808479529,
            -1.1715695496106353
          ],
          [
            0.9803556097488898,
            0.20581096095747056,
            0.08329534000174797,
            -0.1577686321209125,
            0.05828987161989893,
            0.3222932520014983,
            0.19934913002916826,
            0.8126251563373456,
            -0.6022084814765352,
            -0.08453959665977993,
            -0.3144195857291021,
            0.6238520881075819,
            -0.4304190528323611,
            0.4636586516092464,
            0.17723279468047015,
            0.46154095028364756,
            -0.3555027974406821,
            0.6804049861606568,
            -0.586799849224836,
            0.24925473801800313
          ],
          [
            0.22805615841398522,
            0.5285772879911224,
            -0.05243416078386245,
            -0.20225310046951864,
            0.03363142411196975,
            0.345996647700233,
            -0.0702713718442973,
            -0.1071978980444592,
            0.09395703113368876,
            0.033035040630446474,
            -0.4727472821720163,
            0.2110433680475886,
            -0.19381362568905208,
            -0.26376665885434236,
            -0.16737887320622857,
            0.08508967609645435,
            -0.16706631533963015,
            0.11328760314396767,
            -0.10666355862521729,
            -0.3838162211007009
          ]
        ],
        "ActivatorType": "LeakyReLU",
        "GradientAdjustmentParameters": {
          "LearningRate": 0.0001,
          "Momentum": 0.1,
          "Type": "Momentum"
        },
        "Type": "Standard"
      }
    },
    {
      "Type": "L2Penalty",
      "PenaltyCoefficient": 10,
      "UnderlyingSerializedLayer": {
        "Bias": [
          0,
          0,
          0,
          0,
          0,
          0,
          0,
          0,
          0,
          0,
          0,
          0,
          0,
          0,
          0,
          0,
          0,
          0,
          0,
          0
        ],
        "Weights": [
          [
            0.051341020800982566,
            0.09294717370331375,
            -0.10672956484682204,
            0.0034313602816047964,
            -0.02854059076498463,
            -0.30160909459751806,
            0.48975746006321774,
            -0.12340549144024607,
            0.127549110400416,
            0.2084826022422638,
            -0.1211109042693289,
            -0.1842058354969906,
            -0.024330683309168346,
            0.17112506610137562,
            0.09693519681997079,
            0.24980101428654916,
            0.05424547129045617,
            -0.18497926929758615,
            0.12678712477825518,
            -0.14315106412578477
          ],
          [
            0.03663981572563639,
            -0.10641999469440001,
            0.09665187980873076,
            -0.24939702186217205,
            0.4004413938421673,
            0.2093533163207511,
            0.09060321502257962,
            0.19930852905986668,
            0.22627539103933159,
            -0.17882170646830903,
            0.09209928090391512,
            -0.07575189014664936,
            0.182214421002681,
            0.19115424673039552,
            -0.07432129192324985,
            -0.05014258635559826,
            0.1925819369947917,
            0.17636558502271868,
            0.37221321483512865,
            0.06592448600370787
          ],
          [
            0.21359964856208782,
            0.16258907686265384,
            0.00971410826590699,
            -0.033815094636719625,
            0.09432003431946073,
            0.4122111922827456,
            -0.017490453056999342,
            0.42532605028263165,
            0.1476725642411103,
            -0.1420255016867202,
            -0.04800457444704924,
            -0.2316778375229195,
            0.06913019583242058,
            0.09536322552559234,
            0.019402099789117368,
            -0.017546917470932795,
            0.17071596091783506,
            0.24887360692188737,
            0.17299869805152898,
            0.28161855299863225
          ],
          [
            0.11248581428739138,
            -0.2603049918565402,
            -0.3454246804126969,
            -0.010581320851926177,
            -0.0057238629148068845,
            -0.15975595412137664,
            -0.33751154996744226,
            -0.03507862438998453,
            -0.5293864242752426,
            -0.1761721658550263,
            -0.29003302366394684,
            -0.29857594533359744,
            -0.018114818426244402,
            0.6005368258510532,
            0.1744357160358692,
            0.10329119240229857,
            -0.08647657308795932,
            0.09558548643580977,
            0.09465177829489389,
            -0.1339993684970198
          ],
          [
            0.3411727300151689,
            0.15342263940325082,
            -0.12142177938712809,
            -0.23144614683448192,
            -0.0774858338298586,
            -0.04875338851069671,
            -0.10344847457234847,
            -0.21027758966761567,
            0.02287725920397813,
            -0.03180089768333354,
            0.022147209718295893,
            0.07212135640724236,
            -0.02328284838243551,
            0.18423297116200954,
            0.4452799079894064,
            -0.3146641599849686,
            0.1175141575534274,
            -0.18015732345807053,
            -0.011963688969098803,
            0.2958728398302875
          ],
          [
            0.21864280350445484,
            -0.290876161454021,
            0.08427738572296328,
            0.22825725873340688,
            -0.09970657392224354,
            -0.03242225619973899,
            -0.2765227019881647,
            0.010030852274506227,
            0.02950858121351844,
            -0.08097150826639402,
            0.234687528893673,
            -0.23006717431771306,
            -0.16541185935019792,
            -0.09760441089850548,
            -0.5281787485940376,
            0.17490936954538017,
            -0.13611673981237898,
            -0.013520069469934774,
            0.11378038579000091,
            0.18038645541259346
          ],
          [
            0.26222985538517346,
            0.15248516769965437,
            -0.04087878271286529,
            -0.03934368146159184,
            -0.3409903189197854,
            0.05493449654580949,
            0.3444910238524839,
            0.3455410309113497,
            0.21578011078513526,
            0.029243561224551042,
            0.19497952843770064,
            -0.17961750451609818,
            0.33890980271574433,
            -0.0016177338595325967,
            0.04705313818736548,
            -0.20517865272289676,
            -0.25725652117644704,
            0.41757351878313964,
            0.23709442381402968,
            0.13651563031749614
          ],
          [
            -0.05281201711439949,
            -0.11271210241257099,
            -0.014204131943176183,
            0.26594976013633476,
            0.2155387215716648,
            0.09917455817258058,
            -0.025796803827361707,
            -0.02870953195614834,
            0.22688572311776486,
            -0.04616525582107324,
            -0.17990530127795598,
            -0.17102560797184826,
            0.13480526516633384,
            0.08209587408564657,
            0.5402863286563118,
            0.1233240384749602,
            -0.1029329565962802,
            -0.02109205461583817,
            0.25029483556544413,
            0.14838162414093473
          ],
          [
            -0.14146825328218232,
            -0.00486904516996145,
            -0.3418336600223199,
            -0.15659691309269122,
            0.3779792615535932,
            0.2564983109853568,
            -0.017707555804605563,
            -0.02669897835538079,
            0.12458692177003992,
            0.02603585028681475,
            0.06643548807350229,
            -0.02969046237070312,
            -0.19102204498658404,
            0.12381270001341958,
            0.15054153694869923,
            0.03512721239331907,
            -0.30941688388266697,
            -0.4574507404571061,
            -0.09409040451756112,
            -0.2684614194709599
          ],
          [
            -0.20201201635487526,
            0.12139329493771427,
            0.34578650240873243,
            -0.19228663806999055,
            0.0702959129680763,
            0.16208768586873393,
            -0.3461639566185962,
            0.19637737871124017,
            0.3316755223182708,
            0.0838689794834763,
            0.11072427388313924,
            -0.09418002588062935,
            0.17900406109731493,
            -0.22324993719606598,
            -0.004050160710019033,
            -0.05915291866989373,
            0.12580725435895093,
            0.15029731450324632,
            -0.30514961189529766,
            -0.2960777098850579
          ],
          [
            0.057708851923994095,
            -0.10757095649273203,
            0.1395979780592401,
            0.04358489176320987,
            0.1210453358304383,
            0.12007355963666758,
            0.11188061217810642,
            0.01975529488781432,
            -0.2797841014182832,
            0.2625603729668441,
            -0.19387692826744352,
            -0.14490999521781137,
            -0.04636716877373431,
            0.06906339231318621,
            -0.06581810144662331,
            0.17078752531531247,
            -0.1748355439580665,
            0.14784086245504688,
            0.12830193463343964,
            0.42472640960783
          ],
          [
            -0.07905197143826216,
            -0.061219741087850575,
            0.008061094897906391,
            0.28679331466569163,
            0.16475088789388043,
            0.22388731441697649,
            -0.21431600993575595,
            0.530023922530268,
            0.09343427973471662,
            0.22299227483303968,
            -0.25114741891416653,
            -0.3501752095366441,
            -0.13513292354202938,
            0.08828168850654404,
            0.14779882058460841,
            -0.2701822331743048,
            -0.08068803984854098,
            -0.40048693015643316,
            0.08282628071812805,
            -0.13645592386267882
          ],
          [
            0.10971203244605769,
            -0.17058467241288702,
            -0.31688557890668606,
            -0.5539458292035471,
            -0.2589412470858879,
            0.2598587667193209,
            -0.10189439373955853,
            0.4680265729169351,
            -0.01833483079174887,
            -0.18751966835794548,
            0.1840411266203626,
            -0.0006865622774565968,
            -0.07568032240907949,
            0.260994767344403,
            -0.1513244180399953,
            -0.13691021431430386,
            -0.17669722094714707,
            -0.09303344588618087,
            0.13233336177686666,
            -0.3198394066710486
          ],
          [
            0.15680038566029805,
            -0.21113026348818095,
            -0.17581025068176803,
            0.14348380092439061,
            -0.06491479131334996,
            -0.16874263474980924,
            -0.08326215753142406,
            -0.1309606647321534,
            0.02845024057269207,
            0.35476278413907447,
            0.1835306013969933,
            -0.2569714209838925,
            -0.10226772404609472,
            -0.2192313766256623,
            0.2833742199235327,
            -0.07539953354611308,
            0.15512718422056698,
            -0.1259476719005772,
            -0.078378763087892,
            0.058762289502788806
          ],
          [
            -0.14372471098977108,
            0.17396793821777448,
            0.43142859162440905,
            0.07271699842848191,
            0.12512600493442802,
            -0.006077902383372831,
            0.10575716848620617,
            -0.11333266989898676,
            0.01786258967538677,
            -0.11507324287269549,
            0.21636028508487992,
            0.21403723253400933,
            0.3746541665516748,
            0.11889117414084355,
            0.23963217451861685,
            -0.19432051218872418,
            -0.3672470421329604,
            0.061266033223707266,
            -0.23392003522812801,
            -0.4270187290428681
          ],
          [
            0.23322601569242798,
            0.37866486011200373,
            0.19391398099457618,
            -0.12552047725405094,
            0.19868759419042173,
            0.40419991796875226,
            0.08528512424887116,
            0.07793168840624343,
            0.1442706643300379,
            0.5006679208958373,
            0.14245798999219844,
            -0.02115588664396481,
            0.022397466915747285,
            -0.03587820521059814,
            0.3177169806334055,
            -0.11759091145866278,
            0.006870970530809185,
            0.2809541307518958,
            0.047857611526128475,
            0.14692112912339556
          ],
          [
            -0.23548469078158568,
            -0.05153989611997704,
            0.5092353014268838,
            0.1601606480943438,
            0.06396212881012066,
            0.20666565308899057,
            0.008793760851008728,
            0.3324142456540294,
            -0.042397224927671305,
            0.36680775667563137,
            -0.31238003779991885,
            0.2695367403024488,
            -0.23328918197156434,
            0.38080634407340697,
            0.06379832425929072,
            -0.38024786360423724,
            -0.06012841336689207,
            -0.4654516302036431,
            0.11205197297798637,
            -0.35519869124914005
          ],
          [
            -0.013015174065533968,
            0.05516784966793884,
            0.19086307065815306,
            0.058076940912510026,
            -0.2650878591134103,
            -0.10068927821475382,
            0.31515795098529586,
            -0.2305765813046008,
            0.07704234879793366,
            0.08652888494427123,
            -0.4565744579307414,
            0.440491891331239,
            -0.44140257613459116,
            -0.11551257916809643,
            -0.034773822104812974,
            -0.15249104392993187,
            0.06994376727802552,
            0.08520836939479715,
            0.08114490415329391,
            -0.028258827201370545
          ],
          [
            0.335979595113224,
            -0.47964279891101813,
            0.13020521433678436,
            0.2633869922913841,
            0.15372905337471895,
            -0.5013602509810328,
            -0.9386703079991439,
            0.0429290961965874,
            0.06741750248908018,
            -0.3094701036817292,
            -0.12580106532455168,
            -0.3058351713296808,
            0.0754539151773874,
            0.2240818547817784,
            0.16118480013607622,
            0.2503529753103832,
            0.21749455934360798,
            0.21017767433737297,
            -0.13842357899394409,
            -0.05147575502992266
          ],
          [
            0.00681207087813795,
            -0.4889937232770119,
            -0.2269620652232943,
            -0.3906345506146901,
            0.005737293350538742,
            -0.30675294078177545,
            -0.36356868603538495,
            -0.37304369191464504,
            -0.022992051298360086,
            -0.7120181083857094,
            0.13359935628399516,
            -0.19332987358657994,
            -0.2017628838985766,
            -0.435150634983741,
            -0.1928670275796713,
            0.37583384004465964,
            -0.19551748806707106,
            0.08477635671240541,
            -0.15072082469956377,
            -0.21210051195520271
          ]
        ],
        "ActivatorType": "LeakyReLU",
        "GradientAdjustmentParameters": {
          "LearningRate": 0.0001,
          "Momentum": 0.1,
          "Type": "Momentum"
        },
        "Type": "Standard"
      }
    },
    {
      "Type": "L2Penalty",
      "PenaltyCoefficient": 10,
      "UnderlyingSerializedLayer": {
        "Bias": [
          0,
          0,
          0,
          0,
          0,
          0,
          0,
          0,
          0,
          0,
          0,
          0,
          0,
          0,
          0,
          0,
          0,
          0,
          0,
          0
        ],
        "Weights": [
          [
            -0.23180340574180766,
            -0.12832288151708388,
            -0.17476053525161955,
            0.23254279460006005,
            -0.2783397289239235,
            -0.014566158088564594,
            -0.006811750934308441,
            -0.06788275179840955,
            -0.24393613535531863,
            0.037939673595317545,
            0.26545980357897925,
            0.08770184678421886,
            -0.14233223290835711,
            -0.005653102334802509,
            0.034766339487356204,
            0.11439451585440208,
            0.2788451575817341,
            0.13253329283326853,
            0.0812666326216385,
            -0.07915859189746777
          ],
          [
            0.1431090171980129,
            -0.16561677589696344,
            -0.30974179033802196,
            0.31600609414338177,
            -0.2134060001293162,
            -0.3655453492191522,
            0.12386726432399138,
            0.16341870407870387,
            0.34315411558995934,
            0.010866470870287753,
            0.1525417489131205,
            -0.02518865677136357,
            -0.20548646441962554,
            0.3120528345716285,
            -0.001122449725710381,
            0.01400653019595518,
            -0.01873065544047316,
            -0.08908186075405103,
            0.07819830661317742,
            -0.2576163313791619
          ],
          [
            -0.10796106469282638,
            -0.1963886748112575,
            0.053858206455855456,
            0.47812844087378237,
            -0.16534878694896862,
            0.12870404542467487,
            -0.12947003906487528,
            -0.35126995938802436,
            0.37417279233792095,
            0.13660734819529213,
            0.0742251104919201,
            -0.04174084477892729,
            0.12579516195821894,
            -0.01741197113882631,
            -0.275541991770391,
            -0.1393011991231868,
            -0.1547827087508737,
            0.10670492559380439,
            -0.15584745221018115,
            0.06963452988023562
          ],
          [
            0.10349421109470987,
            0.08062705003263358,
            -0.37973741716229437,
            -0.07820869243458052,
            -0.08958864398572607,
            -0.14211675096011417,
            0.2268717193572461,
            -0.05648131982442836,
            -0.12748624822494395,
            0.12405938712972038,
            -0.21859805871111607,
            -0.5087504762798443,
            0.07059072573804963,
            -0.06893091299173841,
            0.22328793166620972,
            0.42672021918537084,
            -0.31962829640316226,
            -0.08698116733312052,
            -0.2173146905753148,
            0.3466219467785441
          ],
          [
            0.22326512913500174,
            0.0788223508601885,
            -0.3833495064935534,
            -0.03689898790578423,
            0.1609247611956022,
            0.15261588186422026,
            -0.02291929967725787,
            -0.10382579117657029,
            -0.19020731371986419,
            -0.013326676388566654,
            -0.12922810541050359,
            -0.01065958491330558,
            0.28382313170680507,
            -0.09349824079466484,
            0.13203090870604206,
            0.37312725738734537,
            0.2149820018358481,
            0.01624437413108895,
            0.056276117825191464,
            0.21762968718256948
          ],
          [
            -0.1625804019030233,
            0.03862998339330221,
            -0.4253907089882274,
            -0.07073426838952496,
            -0.02481614643118221,
            -0.0843886681265055,
            0.05753963493308909,
            0.38280046351386393,
            0.007752084287899698,
            -0.03157319818118853,
            0.06943387740346646,
            0.21844160652783792,
            0.008122765639391174,
            0.1602787061586423,
            -0.008316974239314405,
            -0.18754173723871276,
            -0.08938069103325032,
            -0.1852013292651579,
            0.23253067938622174,
            0.14673985800859843
          ],
          [
            -0.2277522256222186,
            -0.21983977903646437,
            -0.23634160568884072,
            0.19312815188446322,
            0.08509023622657128,
            0.11195732292248753,
            0.3719360213249018,
            -0.09449820553122426,
            0.38832029830138765,
            -0.04236999645439081,
            0.23140271485655345,
            -0.3763801956138593,
            -0.2447261358051379,
            -0.5020786649767546,
            -0.06608554124149364,
            -0.4625867181205273,
            -0.20510394605388796,
            -0.15284728445109608,
            -0.07421451507618289,
            -0.02811680354494034
          ],
          [
            0.04121720304194206,
            0.28333813388183243,
            -0.30937086917123063,
            0.06208743375724709,
            0.4136811164753611,
            -0.19812404109765222,
            0.033705012928137934,
            0.5451010159414518,
            0.02038867746829331,
            0.1389773734857731,
            0.39309350628231576,
            -0.13524090298676672,
            0.32245902424383854,
            -0.07750938771446736,
            0.02698499616668915,
            -0.25628160854038956,
            0.13969521939704915,
            -0.35560988412298367,
            -0.24095031422916538,
            -0.0889255542011052
          ],
          [
            0.1524360440713215,
            -0.2987357913290255,
            0.016965103007206238,
            0.21121705353695813,
            -0.036579238541658954,
            0.19665273734805544,
            0.31103071483800676,
            -0.14571929461408756,
            0.1842763152902845,
            -0.13282408290905512,
            -0.003597637635667286,
            0.0389444769754415,
            0.07180850223207294,
            0.21901910193351787,
            -0.460102261459041,
            -0.004040591197410102,
            0.46458684533144384,
            -0.15804296810968882,
            0.08031540033647161,
            0.028477157047174986
          ],
          [
            0.06072580300315829,
            -0.06022257735692656,
            0.5966936443042451,
            0.10167747298512532,
            -0.1276274493229759,
            -0.27673134991263665,
            -0.00012425948554979172,
            0.05687468607846381,
            0.14477892629616415,
            0.21931158687618807,
            -0.14511042338612176,
            -0.11829945327923264,
            -0.29428753261398194,
            -0.6737901034498975,
            -0.13996160795393295,
            -0.009961857393598034,
            0.006072075687030036,
            -0.07624785434783321,
            0.18620068691921446,
            0.0991994380609203
          ],
          [
            -0.03443978442775027,
            0.08551186683451414,
            0.10855719488117387,
            -0.12308661787677437,
            0.2653408559429984,
            0.10975600552870514,
            0.15295352499813838,
            -0.01658137467433389,
            -0.43648274657905073,
            0.4121700240545043,
            -0.008720999433895543,
            -0.311847106778222,
            -0.07850445065815705,
            -0.023470401612451345,
            0.28429921983835205,
            -0.24302829276663665,
            -0.28524489675081743,
            -0.01975598709474658,
            0.06332602619496,
            0.0829231023311235
          ],
          [
            -0.023836521414996033,
            -0.13296537037606948,
            -0.022358480612834283,
            0.2451662669658211,
            -0.0044018349997480164,
            -0.32992665875188,
            -0.10870897777350844,
            -0.1501553145736482,
            0.027011383339180784,
            0.19674465880673545,
            -0.08595270121060768,
            -0.14248596486683257,
            -0.04938986931280378,
            -0.15801418385683544,
            -0.35029658728228735,
            0.11316628761390025,
            0.17084952077881532,
            -0.1966005413390582,
            0.013100983259659551,
            0.2662783492346659
          ],
          [
            0.20361614600836062,
            -0.5462266888359828,
            -0.14188613306025136,
            -0.1746312367801151,
            0.22994944798858855,
            -0.017442396322638876,
            -0.46749309912338294,
            0.09309824276780584,
            -0.006842936113355672,
            -0.2034488924810802,
            -0.2869281398965976,
            -0.18512428669559283,
            -0.06452135272093017,
            0.34911751065864555,
            0.11914657242614524,
            0.3005440328876712,
            -0.12125766889368872,
            -0.3411063511239841,
            0.011783369162983271,
            0.15198326495290185
          ],
          [
            0.07358462777201966,
            0.24335215322409973,
            -0.05545113808377136,
            -0.08567295111835231,
            -0.03244061619933922,
            -0.15282881702367937,
            0.08076636633404924,
            -0.02957448270725959,
            0.4108796890272774,
            0.10188557073639577,
            -0.39584236311597254,
            -0.31957445104253007,
            0.10206936258791627,
            -0.1536914290633377,
            0.007961721572956831,
            0.03712991100477129,
            -0.18177080890351843,
            -0.08563991517855192,
            -0.18405938955462703,
            -0.23776653449528962
          ],
          [
            -0.1443717347888604,
            0.2620697183743791,
            0.2939577216406121,
            -0.603949431437052,
            0.210238611059886,
            0.32479420126609915,
            -0.17613164278102775,
            0.18741993022593317,
            0.22950444040745333,
            -0.15438597074080226,
            -0.0035512192667815374,
            -0.08565783241991683,
            0.13429987047970496,
            0.007743353445619292,
            0.23542814603795462,
            0.12172771463450983,
            0.0397445000168512,
            -0.045271361321678937,
            0.17795606724806323,
            -0.024587390453670543
          ],
          [
            0.16251296564240827,
            -0.2822620143631482,
            -0.0221615363423967,
            0.07326706913972941,
            0.26760513629715443,
            -0.06908951377525932,
            -0.13230980997029312,
            -0.24237659971993347,
            -0.042900473663790045,
            0.24956005498876135,
            -0.30108685583336503,
            0.131022550784654,
            -0.13142225983026531,
            0.12078403580685595,
            0.019263419516417586,
            -0.3601990712757407,
            -0.076835105408884,
            0.16971233874410355,
            -0.11287417333920007,
            0.3096063952871966
          ],
          [
            0.12171037155484152,
            0.008644758340514045,
            0.057460481166108274,
            -0.15534774317666145,
            -0.013715694718630171,
            0.130466330159341,
            -0.2642697115115059,
            -0.39546298425993426,
            -0.032308934962598,
            0.0016908519875641645,
            -0.5351443415943554,
            -0.13488959987070628,
            -0.15320886629321817,
            -0.10770741936551304,
            0.004033187034021507,
            -0.2333553359248931,
            -0.45543267797495707,
            -0.14466222193918102,
            -0.16592404657071996,
            0.2644229069020117
          ],
          [
            -0.017403107474876382,
            -0.0176708758703847,
            0.011970195837264927,
            0.24860490649822298,
            0.29495659027470333,
            0.20386049451686347,
            0.2800137978554928,
            0.16690599183271557,
            -0.23516059248942695,
            0.2673267235074966,
            -0.008960512197105757,
            0.09929964823775843,
            -0.025433808338814878,
            0.11745135231820045,
            -0.0959046427322361,
            0.24249505268069524,
            -0.008414008454540423,
            -0.14465920408054114,
            -0.05455203031498085,
            0.4439444230327992
          ],
          [
            -0.08060695545100624,
            0.2056031106591248,
            -0.5487736915537834,
            -0.11901010732508066,
            0.1986748709082111,
            -0.07171359066773765,
            -0.41873437871609936,
            -0.024268048105635553,
            -0.03438117832723698,
            0.00551770785712552,
            -0.03474012728526202,
            0.1666664977104095,
            -0.11239045652899601,
            0.22675482806810537,
            0.03154709721702133,
            -0.028287083880173532,
            0.07549122582683625,
            -0.2507350524192036,
            -0.2242516425436179,
            0.017697720618401493
          ],
          [
            0.16026571472961296,
            -0.1773919573812189,
            0.0385880443842699,
            -0.06788323747690286,
            -0.20606893680267507,
            -0.3894788319793408,
            0.12849068621288318,
            0.2807188696637973,
            -0.02850361936417268,
            0.24431272191185574,
            -0.5879664300554557,
            -0.1217514294981635,
            -0.01986398212389112,
            0.5113461450017499,
            0.12466972050698898,
            -0.36453135810147125,
            -0.12554522045433453,
            0.05046182139550328,
            -0.17343192059651258,
            0.2942736108064846
          ]
        ],
        "ActivatorType": "LeakyReLU",
        "GradientAdjustmentParameters": {
          "LearningRate": 0.0001,
          "Momentum": 0.1,
          "Type": "Momentum"
        },
        "Type": "Standard"
      }
    },
    {
      "Type": "L2Penalty",
      "PenaltyCoefficient": 10,
      "UnderlyingSerializedLayer": {
        "Bias": [
          0
        ],
        "Weights": [
          [
            0.20015885623529708
          ],
          [
            -0.1353682365713595
          ],
          [
            -0.01345399147169616
          ],
          [
            -0.44047971660485175
          ],
          [
            -0.0413481320490198
          ],
          [
            0.12259669228809074
          ],
          [
            -0.08874649064275718
          ],
          [
            -0.11008818376959276
          ],
          [
            0.3526027186418324
          ],
          [
            0.4120211330905926
          ],
          [
            0.06282435723384298
          ],
          [
            -0.11349471759048402
          ],
          [
            0.010624519423503493
          ],
          [
            -0.12109787672457048
          ],
          [
            0.1185784383294537
          ],
          [
            0.032569721250037056
          ],
          [
            -0.005909278686949396
          ],
          [
            0.3347491032934384
          ],
          [
            -0.314183015715019
          ],
          [
            0.2333527137533529
          ]
        ],
        "ActivatorType": "LeakyReLU",
        "GradientAdjustmentParameters": {
          "LearningRate": 0.0001,
          "Momentum": 0.1,
          "Type": "Momentum"
        },
        "Type": "Standard"
      }
    }
  ]
}