{
  "BatchSize": 16,
  "SerializedLayers": [
    {
      "Type": "L2Penalty",
      "PenaltyCoefficient": 0.5,
      "UnderlyingSerializedLayer": {
        "Bias": [
          0,
          0,
          0,
          0,
          0,
          0,
          0,
          0,
          0,
          0,
          0,
          0,
          0,
          0,
          0,
          0,
          0,
          0,
          0,
          0,
          0,
          0,
          0,
          0,
          0,
          0,
          0,
          0,
          0,
          0,
0,0,
0,0,
0,0,
0,0,
0,0,
0,0,
0,0,
0,0,
0,0,
0,0
        ],
        "Weights": [[0.5786206718432656, 0.3783318800240056, -0.06492650601068328, -0.12625790023462863, -0.4493724691678476, 0.08526186510240466, -0.4098797583058581, -0.25677847520201075, -0.2615924748369255, -1.838973222247195e-05, 0.114540324123627, -0.3669938256405035, -0.38414506724735903, -0.08008388755122803, 0.00015633456070567527, 0.4178867558985183, -0.45139847683758966, -0.3863776239722519, -0.7280655322122286, 0.27159062764825526, 0.5322734548686799, 0.4235103535509687, -0.4930968188875847, 0.4346389541486718, 0.23180622307592544, 0.21363661925192434, -0.06448933312823553, 0.1792937883947888, 0.5963965633655307, -0.4823188898004429, 0.28096789004334854, -0.20039437554709105, -0.3285181860604784, -0.0683073394784299, 0.681944980078619, 0.7157227255639713, 0.7622736690519221, -0.4362729832740073, -0.2652109523519818, 0.10675003899594047, -0.7727970502931331, -0.1701006134100863, 0.21922081353777487, -0.07596969912213838, 0.1471564129702651, -0.09405526073017267, 0.29563605387304326, -0.6143904835244143, 0.18088480058933837, 0.734032027255606], [0.08314052262954817, -0.2003272160118702, 0.0543715983799652, 0.2532578805642608, -0.17162454243575667, 0.5510329952608196, -0.24959720232290797, -0.8094035462354855, 0.3217849316507625, 0.043767253813983754, -0.26392500586931883, 0.1853315081835821, -0.04748569674265546, 0.18535617549970887, 0.5906561031957667, -0.12302716281896973, -0.03613298542192767, -0.2637592293593329, -0.09989732365607487, 0.6645588691549474, 0.4258111290879907, 0.3081816343363141, -0.13253100768595885, -0.5822780314954371, 0.9125779557607308, 0.06194662326676605, 0.30559584996328654, 0.05762273026570611, -0.4691594520234671, 0.040355690193961534, 0.046908852875317125, 0.69947260033498, 0.18444834378058397, 0.22714541841945268, 0.006138308643885313, -0.26782366144574105, -0.22539490039720975, 0.1222615049976008, -0.4519095961346715, 0.023002111762120976, 0.1401243397503328, -0.5312820834096827, 0.7241979159792183, 0.15713798928871572, 0.4556339328049722, -0.20820454600439342, -0.14951617023135344, 0.7160386740711897, -0.12630362872403117, -0.296790567597954], [-0.1442374792173974, 0.07938051627669453, 0.11211627156132059, -0.2507338280487854, 0.09668581913517962, 0.257154637092283, -0.20770641409770646, -0.08678781113941654, -0.7194694083923346, 0.1911875436987838, -0.37040983820179557, -0.29554481818683787, 0.39149248530502956, -0.47591289464015374, 0.5551484062220086, 0.22224122267098537, 0.12622389417850577, -0.11207135071893949, -0.24797438989373802, -0.45606906610927084, -0.42088494423851824, -0.34428253839164596, 0.19032887280967292, 0.17204980517577123, -0.09257332592695282, -1.0462591433597035, -0.3535368558568268, -0.45374862742172, 0.437104723913392, 0.0827456278975182, 0.22634065535521217, 0.6073500649663481, -0.10458976493233091, -0.03368846522329403, 0.5195511744800383, 0.08375204194101737, 0.35962021220948476, 0.0271511876016705, 0.4010447744101968, 0.19172366120794354, 0.5204940596795238, -0.990446588334203, 0.5601962651024796, 0.04960708555881673, 0.21141304528034244, 0.37565737904002766, 0.5268598710415306, 0.22526306719930952, 0.3615503796009477, 0.3379297951673966], [0.2601508833017143, -0.5114709633275784, 0.40708034298630014, 0.525669425341357, -0.20174332036452597, 0.09623157113043046, 0.41325431098848386, 0.03071607347915962, -0.21498700081372005, -0.1918430978842657, -0.40008761429518297, -0.20528371155419126, 0.3947795091633082, 0.3805691171462212, 0.4839646616104645, -0.6365993987442025, -0.5917331493105191, 0.2318612014059362, 0.48965841581681496, -0.2326314902311105, 0.05018938811185111, -0.3076441966917713, -0.025046415758036816, 0.5779082648356249, 0.016512678202189657, -0.010447881260085138, 0.5717577084602582, -0.06945622001775092, -0.11247962236523637, -0.09211950063117486, 0.38048285269920146, 0.1295466037128845, 0.5155483582301275, -0.47390263850805997, -0.010055207160672494, -0.40504286581947935, 0.4041368300802815, -0.20163509586673076, -0.4439748495799107, -0.537453082315469, 0.2122001312668629, -0.08156491221615898, 0.028433048949271948, 0.5771420619846271, -0.17049182727397588, 0.09128333481717879, -0.04134053062949986, -0.3380842277456096, 0.5527945288109096, -0.25514141480135755], [0.046469609470993885, -0.45272106097083037, -0.0055995478099807134, 0.04489023629325153, 0.2080979509556543, 0.13141769373151702, 0.3789828114563734, 1.2650399704901434, 0.03771490717564374, 0.30258757458839597, 0.9214759065900427, -0.039182129934234255, 0.04271800278635644, -0.19336304562132725, 0.5098876291981921, 0.008102134072804468, -0.19272847880292696, 0.1985144215973672, 0.09824591246734704, 0.3243691569874125, 0.0074563952434221325, -0.0637571448460893, -0.21797651301913576, 0.4692362775662556, -0.39341501084100644, 0.020894132145921764, 0.8391199116180739, -0.12287350623311064, 0.07632676638752892, -0.4468927161078545, 0.07094290630205491, 0.2303313139738541, 0.26000733948956756, 0.1370456927810107, 0.2593996993275467, -0.05320293278465576, 0.032283098003168156, 0.5146856399095633, 0.12910687711761512, 0.327461804249362, 0.23470625700178402, -0.21623009416826475, 0.042572872437734485, -0.7305959247307623, -0.06612771472658069, -0.0690350348719482, 0.5211396800468501, 0.024924536698618466, -0.4173561795421292, -0.3047206056006747], [0.7576186471730432, -0.15403616193697206, -0.14685766283799673, -0.21618280867598383, 0.5088626411184611, 0.5299977425587596, 0.43950804040583574, -0.1342522181458417, -0.03219578616500198, 0.026342390049413505, 0.045184862714711324, -0.17833563021322155, 0.2167627996721172, -0.5417705257072356, -0.0017498251625563048, 0.02993852874244233, -0.030786281396331636, 0.7996261725790565, 0.18868712900391563, -0.2185663509867277, -0.21554383756166356, -0.3450442094743577, -0.39284291193698573, 0.7677281818515967, 0.1858684502434727, 0.05161568473026739, -0.34823945581780597, -0.8605299554703416, -0.5360740232866265, 0.004074878346569918, -0.4772593561584448, -0.19358757527019976, -0.25309702549904894, -0.28695187830050783, -0.042933368572746884, -0.6061963010898789, 0.558314091117531, -0.13993113133968274, -0.2793051799573232, 0.9135031090657197, -0.003378035375026677, 0.0833843501389, -0.347693554008221, -0.09324456210097463, -0.12427897700033512, 0.043208953105082534, -0.20660293058904355, 0.19396364925020976, -0.2871170522133482, -0.4936082045637305], [-0.5847622267832397, 0.17956948403823092, 0.09930591617294215, 0.16234164083816494, -0.5655354514363135, -0.0022635716857582295, -0.34052302717820054, -0.4387570700346137, -0.2585299044593291, 0.38617748731687074, -0.1664458370691921, 0.43999061161606245, 0.02773766428543961, 0.4714899332867316, -0.14559698184734635, -0.29528905644791836, -0.07226993937430401, 0.12285797202931874, 0.12182966766506269, -0.4822606022880997, -0.0404355189292112, -0.5822344447786508, -0.6155816118278197, -0.5111048759274937, -0.10491662928961205, -0.18153164774534633, -0.5751060410951631, -0.15721197952070473, -0.29746859095772965, -0.5442076663156774, 0.7475740977285491, -0.7170914068094905, -0.7322064747646827, 0.35746785637543466, 0.13303447320902173, 0.27306076775866506, 0.13596417091748292, 0.08164866382411713, -0.3593629406852155, -0.3538962129164679, -0.06442054604738742, -0.008277230862384, 0.18543104474825506, 0.2427018888106174, 0.2796481262180681, 0.6265872374264663, -0.31155723580469685, 0.3425099682264934, -0.22456914308880285, -0.32941082386269066]],
        "ActivatorType": "LeakyReLU",
        "GradientAdjustmentParameters": {
          "LearningRate": 0.001,
          "Momentum": 0.1,
          "Type": "Momentum"
        },
        "Type": "Standard"
      }
    },
    {
      "Type": "L2Penalty",
      "PenaltyCoefficient": 0.5,
      "UnderlyingSerializedLayer": {
        "Bias": [
          0,
          0,
          0,
          0,
          0,
          0,
          0,
          0,
          0,
          0,
          0,
          0,
          0,
          0,
          0,
          0,
          0,
          0,
          0,
          0,
          0,
          0,
          0,
          0,
          0,
          0,
          0,
          0,
          0,
          0,
0,0,
0,0,
0,0,
0,0,
0,0,
0,0,
0,0,
0,0,
0,0,
0,0
        ],
        "Weights": [[0.10808060586480582, 0.2271784308734331, -0.0310807949761977, 0.027284253814703254, 0.17357333515964518, 0.014524157262167494, -0.25353057844025095, 0.26923485551123433, 0.06639408383407439, 0.36438007676148576, -0.025154290392325092, -0.10011769951454834, -0.09750571024479678, -0.15945437216147257, 0.02163517860793722, -0.13067599915240366, -0.030660304313463737, 0.0032939614159262975, 0.00032258014254143703, 0.2124675175575777, -0.021538785959512894, -0.1753823449264277, 0.10701409715063834, 0.1516286804569194, -0.08548281558012155, 0.09514087934753963, 0.09793812042901287, -0.1128689454117305, -0.19247190066011094, 0.0982134772825997, -0.006804486237469774, -0.04906238027115579, 0.25637442929546767, -0.039672191278136155, -0.03139533782040122, -0.030872024504592022, -0.20871813574137146, -0.052393133214532914, -0.16761305137327026, 0.0846538382370021, -0.04008183931815394, 0.11119759350503401, -0.214412667640864, -0.053708530886619615, 0.10036528924171216, 0.020448036615765917, 0.004634518422239506, -0.13985335978491417, -0.04812094308564223, 0.12997647507145288], [-0.06041067570574744, 0.0043809594997755745, 0.04680713031065482, -0.04308304908896532, 0.0455233348829599, 0.021468004166389592, 0.05401146405405897, -0.15965676705289755, 0.016018152944684397, 0.04377949654071015, -0.028347682661445106, 0.10442644764001262, -0.26388362067582594, 0.2763170516013806, -0.06654669632719752, -0.19562202712233545, -0.124467938817867, 0.0970168109477816, -0.17978959262978672, -0.04679749820982238, -0.24489448616050952, 0.11975824787810631, 0.07306743043074228, 0.09564544876030678, -0.07961495916472022, -0.07620593389223934, -0.11754133799329927, 0.0851344630122856, 0.04285198877046724, -0.06298098116397896, 0.11334195436910964, 0.19388753607218284, -0.1805374444812493, 0.08313493601471077, -0.119631658435876, 0.13642131332825388, 0.10891203166901774, 0.07828368034154556, -0.13219187341057137, -0.008194502907649092, -0.07007664465573646, 0.08294276838328989, 0.05284062069779428, -0.03635684472286775, -0.17369201662822364, -0.27601039071803873, 0.005161455699624655, 0.2072189949929158, -0.062181430343560794, 0.1365720046256065], [0.2778317832606302, -0.043839634760122155, -0.02384666160099648, 9.612654148742586e-05, 0.0482152927393535, 0.11073794298448071, -0.15487311880652072, 0.11807714472852515, 0.05045000631154125, 0.000577658341957886, 0.05140888855657916, -0.024089777687838054, -0.22014610574578847, -0.35038991027216965, -0.05671307820082349, 0.20254816304946816, 0.12225059647935892, -0.07397518133768057, -0.011580992101885474, 0.19897772809163455, -0.16039542616904717, 0.05634411567510984, 0.06707708934565677, -0.10504838588803148, -0.18873425101330218, 0.06133729341386622, 0.0493515545613916, -0.17199846241405067, -0.26903650664064804, 0.013823194333459477, -0.2230302781678928, 0.11410248874162188, -0.07822741030417306, -0.2565809268197709, 0.004703437122497851, 0.06954252045729963, -0.030480134199660287, -0.1522407864107029, -0.11058553871158137, -0.04551608547231633, 0.2174053061145928, -0.15565685184357628, -0.16179431617297027, -0.12580466315585515, 0.0997927542832956, 0.016389160216161974, 0.08236734607094408, -0.08391639136551306, -0.11928702152006702, 0.1957351212030935], [0.10138601858068709, -0.10488997183517722, 0.12900127323177132, 0.1017781872149947, -0.15679661867892944, 0.01841193248147355, 0.14540952025898563, -0.2169724389844492, -0.02382680574207236, 0.16841243479447182, -0.13503687637963652, -0.1411695320528747, -0.055354119889328916, -0.031348405220206696, 0.040926803161555246, 0.11304356232996007, 0.00911694196009934, 0.11091633592125157, -0.18799276054301642, -0.16775022777422594, 0.14801314249280517, 0.1283204122893746, 0.009997791679659326, -0.025648583237161956, -0.07124273099284154, 0.003628274609608834, 0.03880480002807512, 0.03845104465152381, 0.2010310676465477, 0.05199271796774455, 0.11856355633768519, -0.08286839221965409, -0.05947764171033416, -0.05447209568236295, -0.21839412410341832, -0.292907179781235, -0.023869608668741802, 0.02321001246546845, 0.0426340034632777, -0.27746674546101535, -0.015436338461133865, 0.02048206836062646, 0.25180530337218304, 0.19062606421085743, -0.12944309417015334, 0.013020110153548243, 0.09882674009250492, 0.044676950637275975, -0.18214606279424883, -0.20797434831914624], [0.03953076461484643, 0.13125376938539537, -0.16331932794048223, -0.2438632866119993, 0.02266097484671507, -0.08721284053428649, -0.08613841784104245, -0.07987763765174577, 0.22475925291474527, 0.2798623228836326, -0.056640476591115055, 0.0642965498576262, 0.16879752709018514, 0.09923419160524011, -0.21132272321723405, 0.060105333205157235, 0.04946170579922251, -0.09267267495866813, 0.4295083278116915, -0.1926509947160533, -0.19113490120998008, -0.10877658443734974, 0.18237625731679283, -0.007951516324736447, -0.1471773386350334, -0.07333005276310393, 0.02256794545322771, 0.18666929159380793, -0.10279499896749372, 0.15760922324905705, 0.09226423857263216, -0.46561274593018476, 0.21878813993403934, -0.04766851781085816, -0.11749382959700715, 0.13211810131942373, 0.1905028754967648, -0.03822449097285848, 0.3053714579394713, 0.06450337656940754, -0.03681632529835171, 0.2568741609935695, 0.01877169250505196, -0.07367109414954277, -0.13862467841994713, 0.022252380189710735, -0.21188244280160948, 0.027411599302528736, 0.2217594020870886, -0.11136477767637956], [-0.10189119749956224, 0.017140719997873498, -0.01942419647316736, 0.12942726044906291, -0.06787157739042837, 0.04282419708822703, -0.2373711803919352, -0.02011024620175632, 0.00787207317501319, 0.040884049757166856, 0.0008479339237039759, 0.1846108292577038, 0.24883597675217944, -0.07167658141572164, 0.004760409146206113, -0.12330196565048555, -0.026747645793252388, 0.027986318921928793, -0.11414542256307096, -0.007455622389529913, -0.3830819320248331, 0.07150867321163613, 0.12682386625479217, 0.10352079143985311, 0.2035461638772291, 0.009221587503549546, -0.10529822400178786, 0.25803378525926857, -0.10054841247070208, -0.05310439601853812, 0.05077953303512268, 0.18333933074389266, -0.024550175353204175, -0.15773979508138028, -0.10194209745979713, 0.022797643765698407, -0.19800484300762747, -0.04529211035934328, 0.24541751443270585, -0.07845540013111042, 0.14743957284298279, -0.24738366655452498, 0.05124949174603879, 0.10030806804731378, 0.08522192698355983, -0.27128371690210673, 0.048922068647551255, -0.38209174672237456, 0.1537751872687714, 0.16037114667961172], [0.15194894757462335, -0.36969942291583, -0.1494143912778259, -0.06640914925034197, -0.05267362947121854, 0.07251778767702213, 0.20947104342795733, -0.30309800437256806, 0.0002521528528957644, 0.20131178177777048, -0.24424954866399276, 0.1366192769795365, 0.018817655826454758, -0.18383737094405483, -0.05524371145316313, 0.15904661167208647, 0.007826381515811078, 0.08757658223562408, -0.0010828794048547564, -0.21947635883532654, 0.027033602994372543, 0.2545275607660194, -0.1733002000042748, 0.09083597099262096, -0.023054227215640346, -0.1469798897911289, -0.010731174266211082, 0.09600962759160137, -0.19608117071412307, -0.059584364337584114, 0.003032748763133117, 0.03854397624991577, 0.4037745793462508, 0.11343316799579467, 0.0730327634916775, 0.09894428981767553, 0.3685816529849993, 0.20904006182504714, -0.05841676116581454, 0.2531353594490168, -0.06621227448085547, -0.18064287472524876, 0.011759488788475414, -0.226843841553628, -0.03909404089139725, -0.16375696974979306, -0.10299433833845767, -0.14939734047645895, -0.4483173161984618, -0.23686192128658087], [0.12241294429090341, -0.04122483171126116, -0.08679470695629264, 0.10129990947759401, 0.11080547306489034, -0.316941296791631, 0.034850173574817546, -0.08774451996296438, -0.2806543181043479, 0.087408830142866, 0.15703863306855578, -0.04933897118254195, 0.16634897283687375, -0.18378619353774642, 0.12974976742582345, 0.020840835476958624, 0.044140013019004484, 0.21798833597640457, 0.11811248617855244, 0.07983040632335843, 0.044351945218270745, -0.15239520483844818, -0.21091482406265127, -0.06999226131130425, -0.02746013356183403, 0.083569034258803, -0.18117947815059332, 0.1858001604909245, -0.04393248032639954, -0.10554729880640966, -0.12057290150856191, 0.042866564493153916, -0.08585016041231223, -0.14791037433428805, -0.24689480765828256, -0.06717612672451022, 0.04035111523171268, 0.05205892469803791, -0.13997132141056728, -0.19285044358456907, 0.06749198649042988, -0.07160526485866905, -0.08830439942540276, -0.11384563529437788, 0.2031142289856782, 0.03395629600299212, -0.032099643119434355, -0.18637815385894926, 0.15846157741217193, 0.134984510849086], [-0.018106267063800946, -0.14362723214261647, 0.21793504016107315, -0.004409623838937553, 0.008964830455012184, 0.06501288231967575, 0.20401478154853078, 0.031914666719474516, -0.012507635449573935, 0.21761903466652596, -0.013400952976953708, -0.2217109191347535, 0.04712656455612345, 0.041188409302959056, 0.009024464879622964, -0.045991670807463886, -0.15426941754081294, 0.12325804658963559, -0.07705753543060943, 0.0159963353234119, -0.0379786183039016, -0.028038794771623913, -0.03042365483370333, 0.12031369559142237, 0.33578253491651466, 0.03562397834106726, 0.10249836917936565, -0.02333403461180814, -0.1896006363106602, 0.059230829442335396, 0.03029084810246914, -0.10954454658246968, -0.013911820891328568, -0.022389674916512538, 0.010291407725352286, -0.25650840636152406, 0.007601234980377712, -0.0556053828696931, -0.11155475061344662, -0.24296146965432955, 0.043971597053331674, -0.19806669180808378, 0.1136958420899197, 0.11007592728950079, 0.0768015400084791, -0.0015907420294389882, 0.2754136334730321, 0.26915664867784195, -0.09232859691120114, 0.0925619050384431], [-0.02108624077627536, -0.310354399358936, 0.006031770082548977, -0.04506492929152572, -0.002851889745801891, 0.010428196924077975, -0.05995322111996432, -0.10085145839981716, -0.1338615613113366, -0.18043469555580835, 0.06672778944751165, -0.29139779666415, 0.11125920931684775, -0.1479102723769345, -0.06996305540968466, 0.03800637744077806, 0.18514149584778902, -0.14314469934304405, 0.18786417879006545, -0.16188838983513226, -0.16295309518764434, -0.030326052004332853, -0.13463145536476026, 0.11125992291012032, 0.0936295326380842, -0.06488497317309273, 0.2643208105143264, -0.10014366769019925, -0.058255906155390294, 0.04360708147983534, 0.07024711806379759, 0.07170464745646883, 0.10721583061191163, -0.18165795295061996, -0.056582126855613965, -0.07707633090274585, -0.27139184296858954, 0.08105356631404785, -0.005280123043075892, 0.1306430941191201, 0.20527883935527905, 0.16803654466997078, -0.08934258905625589, -0.11159973366671343, 0.18319723470137045, -0.14539637993474536, -0.007467488288850462, 0.00260064793587817, -0.0015829628638253355, 0.06165700413051282], [0.14145776762084422, -0.01478284846945064, 0.08515889262762119, 0.004235601901727677, -0.06342881193208995, -0.0032461158175084415, 0.2362161257309129, -0.010383670956037764, -0.08064215523361783, 0.08546023690587418, 0.05604834265299955, 0.1078561091391334, -0.034814139410943364, 0.191864218140512, 0.0613243055949454, 0.28792669373117186, 0.026810369368037653, 0.08227595284774558, -0.07726495588022225, -0.12274724728792544, -0.07632120091850228, 0.18858857870908632, -0.12134081448881041, -0.00995909395450858, 0.09654663392627084, 0.06665459097721849, -0.05072375510663499, 0.3060967894281143, -0.4272725964813477, -0.15710492892327022, 0.10111626119812635, -0.15907768977364867, -0.07682779320099282, -0.13912064189386827, 0.2367384874217753, -0.20989086958167272, -0.18025672983307772, -0.1464087291609096, -0.040310639042956654, 0.08339206674521162, 0.04279197199780324, 0.08315749338923824, 0.1888163961898302, 0.01812263495177423, -0.1710157575468109, -0.24238830819439064, 0.010267168010212099, -0.04057961225793841, -0.13393460937939347, 0.21273581630278418], [-0.22938089265733239, 0.33087505770924486, -0.10659050538650298, 0.19252315676345855, -0.042368391300347315, -0.044652076218057626, -0.23626551190983733, 0.22334542141500618, -0.08125031498177802, 0.010623146803260328, -0.0570156819112743, -0.01759300491066129, 0.10398367705106018, 0.06477716814202683, 0.22162474307678875, -0.15583950657110032, 0.18149054749329316, 0.0728368369458498, 0.009899758291667834, 0.22792365713419904, 0.024864628624873705, 0.021181331965303734, -0.08913498588978246, -0.0861278273863538, 0.22394980494059993, -0.006256760326567072, 0.039802868092264104, 0.053040611360084054, -0.0914204388617497, 0.1537088377331285, -0.012916247402180196, 0.029577083901304677, 0.3171686494796597, 0.23358744810970006, -0.1445506814928059, -0.27452440606227185, 0.08207903420646635, -0.055016814079215444, 0.09319156254373039, 0.04933201229413262, -0.046050613661056894, 0.052331235971496234, -0.12645584737602628, -0.16001511908438582, 0.1670105260566157, -0.1842504645427691, -0.014408488538937165, 0.15678945733783192, -0.010390858244754999, -0.17171572143282493], [-0.30359834443794337, -0.2297143643455805, 0.05213247281245041, -0.01585340923956323, -0.09516704530542097, 0.1453959903738355, 0.2061814043970437, 0.015718204483209756, -0.04416582839284982, -0.05199368547340673, -0.005294992545798413, 0.2536372349825666, 0.04036645067872096, 0.34729441255720084, 0.06586761640240084, 0.30195962578721547, -0.12311245325461515, -0.19286987050461607, -0.16823371881797713, 0.029979009099584657, -0.3023269042177332, -0.07235636089925017, -0.20895995748545781, 0.06584746995366153, -0.19100874588514902, -0.10389445743890992, 0.3515040316329046, -0.06801510200138079, -0.095235258822059, 0.16701151208806492, 0.014532848161047609, 0.07917439422141828, -0.0997198174178737, -0.07280658646343424, 0.07830441592246501, -0.1142834026313523, -0.02212793677242815, -0.09702085234904372, 0.07010934337480339, 0.17274081315071008, -0.010120580810944777, 0.04337316984337076, -0.16094695842668041, 0.4028315001552119, -0.038285174659273544, 0.20995975103865172, 0.30345831154473346, 0.0675969067234403, -0.17689554190131032, 0.08002478152713444], [-0.11970535471979346, 0.19469799187677073, 0.05800338613418862, -0.15945683855544837, -0.09869885781495472, 0.07661182234660924, -0.11680896659899852, 0.2486839288822195, -0.011773743490130953, -0.1989580681983708, 0.1360561525404283, 0.02561885851602689, -0.08034939741256068, -0.057928558412902835, 0.15879583449226994, 0.20667508948451138, -0.23028820234181563, -0.0521046882672807, 0.0328728872803362, -0.10154189403792453, -0.07371942961471378, -0.08894621411066919, 8.194419903576263e-05, -0.001997206859307345, -0.1667948727659451, 0.0275712469781092, 0.08531982154138884, 0.06330308564505936, 0.017113524312042074, 0.14135013070219876, 0.00654493765952459, -0.026749449621600904, 0.01793192626485974, 0.03336419415736106, 0.08052885792838418, -0.19322289181411995, 0.0539383894991491, -0.22077502508843108, -0.09052208372880706, -0.028322880683362726, -0.07515010842297447, -0.06570276867363353, -0.13280627836330325, -0.061499152920489325, 0.1606402875304106, 0.10232475271299095, -0.07720357540079262, -0.2983543728193072, -0.17783579659424176, -0.02989676115874639], [0.08234087770256787, 0.1205358389327499, 0.05782606331185982, -0.0451923899861848, 0.0977218793225654, -0.00877180220503027, 0.010275593651184087, -0.17885049982810525, 0.25165242956248235, 0.19427222215333265, 0.05359415549769606, 0.041803224446269945, -0.08124952970935438, 0.23021823941477088, -0.00868617650640087, -0.047591838114980474, 0.04986600709525165, -0.0008709732305027889, -0.1242640921318854, 0.09893782434388401, 0.09248921648562188, 0.07654587804956076, -0.1525996175630583, 0.13822173258020168, 0.02531124797304755, -0.07526964683092684, -0.24016302587862334, -0.16170081939601424, -0.09631817697428988, -0.0444334269764551, 0.03784255959191525, 0.011148827607855585, -0.36740558329536976, 0.0960482212027221, -0.024787438450016346, -0.03421604014839415, 0.01788884354257701, -0.30743733328739514, -0.08778872327244858, 0.09635469513469248, 0.0740183699425524, -0.271060369926239, 0.27302659948021163, 0.16895067278075784, -0.29770374429836416, -0.044533228658993666, 0.12448448261304126, 0.13597393687858297, 0.020017358074113697, 0.2656287089094692], [-0.06921182323156314, 0.18272306123313933, 0.22014652112030242, 0.058098925127877225, 0.0005493098046788739, 0.06998887716439005, -0.15996067151726362, 0.16898631098158734, 0.06487853227223925, -0.26459205028605237, -0.012018508151560447, 0.021354292212325866, 0.09731427059402865, -0.19499389358117777, -0.256504321477001, -0.11529408192207026, -0.04241753813895022, -0.009255220022763038, 0.07658959234670594, 0.05046924192737353, -0.28500668117941713, 0.003139440932078507, -0.06250369746160903, -0.07315575231352987, 0.1490633562519447, -0.1504620230358205, -0.09538791254600781, -0.220060349603747, -0.03562169839193929, 0.06706466202261464, -0.08903685220765722, 0.013161935373393599, -0.011961276204694095, -0.2111170587563361, -0.01938370612442411, -0.09817169576922588, 0.09924905672597263, -0.304867426639897, -0.19668434473286214, -0.008532465235052354, 0.25886670299239795, -0.1757767746563664, -0.22530333119030813, -0.05491346310476112, 0.023396862239228326, -0.3765963618944799, 0.3126330292116468, 0.08441498495658661, -0.17356091570619672, 0.04747377366101858], [-0.013071511051229914, -0.0068522582788762155, 0.21509785080159, 0.06625353062124528, 0.12695877324550928, 0.10671594619777768, 0.004578711776387313, -0.10328087404257853, 0.1376099100347193, -0.18111130704736195, -0.09676116719470237, -0.068385625136353, 0.15309693446549658, -0.1759589390164091, -0.04085499329736237, 0.056506947039804384, -0.026836937207683032, 0.07632630046451461, 0.13987455078840536, 0.00025558763622549383, -0.023200550733582688, -0.2783266217403127, 0.12218674175025526, -0.005347971197437531, 0.12374535386874634, 0.08918212689360631, 0.07528746314088805, 0.06638547479208952, 0.32406007346673554, -0.01022167617664502, -0.06744025461656451, 0.03467596383069129, -0.052026884174813125, -0.03673092278577572, -0.026504932094194772, 0.13087363382043804, -0.12584582798147026, -0.014836441576467302, 0.03883074997275156, 0.20468828128717792, -0.26016898528318805, -0.06262215384225508, -0.1901585126549309, 0.17709407275002098, -0.013913936406351118, -0.19992862383080534, -0.18521858179607617, -0.19749874946945992, -0.3091545955983223, 0.042237299724784606], [-0.18878498237617136, 0.09662461165457636, 0.057617926404260805, -0.07054066504551938, 0.07012011373172403, 0.14327726607084176, -0.20605751233815545, -0.1219072275925554, 0.015351197047998973, -0.07266102348486296, -0.37087399798051784, 0.22240631477009587, 0.19892019530635782, -0.15769709505643878, 0.16205050214708086, -0.07464650724221372, 0.02011687293071459, -0.26463119832880144, -0.1904958273163509, 0.3169368679607253, 0.1975059733174081, -0.054579628496500325, 0.2032471192419983, -0.20514433239182261, -0.17956768697832726, 0.01554540979262267, 0.00013635880307568982, 0.001132867527168387, -0.24799440633951778, 0.15740708487380506, -0.10640552773500969, -0.05583176539961681, 0.04797758416868468, 0.19087500689873046, -0.0007943675761005005, -0.24789845833932941, 0.16689878781419146, -0.0098383608412404, -0.07873957956299632, 0.14245445385607067, 0.0472092256691317, -0.22067726986656677, -0.15944726311929927, -0.048791494945594226, 0.06754912400384488, -0.17683614515918294, -0.006359403513110907, -0.041387833474838216, -0.0291249125878864, 0.0031541901934454275], [-0.23019016524912164, 0.04867915050712344, -0.19439273205950316, 0.15489288515184454, -0.23651934200139083, 0.013899743690874811, 0.13097914353846307, -0.07771113226075184, -0.039913356858691434, 0.09707110275433073, -0.1282590405637317, 0.20239115880605416, -0.09054387772337699, -0.07733555046917885, -0.09572062673087427, -0.008933841415752498, -0.042406241506397754, 0.015294056541297852, -0.045965614053407294, -0.18639232071110545, 0.06351975232453552, 0.10963847971392827, 0.08503087921792284, 0.08128072009277151, -0.2825905251332825, -0.11487602154331801, -0.08560281948005788, -0.11762505678163007, 0.05692162355204828, -0.21290716114578906, -0.011797090225749061, -0.11707276707125107, 0.09758575679407636, -0.03158888057788749, -0.06925504088981434, 0.12832345852404742, -0.05198516704194671, -0.025713706401832633, -0.003193815704997308, -0.050522559248271405, 0.0038602136358466626, -0.06726037027642807, 0.11586785160321085, 0.20441231637991228, -0.18477777024933417, -0.018489777830195366, 0.054996528540132754, 0.038625016123439854, -0.04591514518723788, -0.043716005929389415], [0.23061841090528715, -0.04133240234302959, 0.060479348572701506, -0.020100710808997262, 0.045337386273404265, -0.13914436962575968, -0.03737559795485898, 0.11987577820586973, 0.03044568641300703, -0.18969489653886826, 0.2214331886899039, -0.21061241519804152, 0.01042909348869364, -0.07556267928277163, 0.22294481669333852, 0.24344014343268974, 0.1294426323867794, 0.07000417140800541, -0.2730973333101274, -0.03423124007263775, -0.04036864641356589, -0.022535477235161944, 0.029910105382629205, 0.10660255418582384, 0.13381971873247941, -0.08666460442201156, 0.34046420182604104, -0.14807276572321804, 0.10593284481291806, 0.0026007235419778633, 0.06322673294622397, 0.052041176086545786, 0.0353812135631728, 0.011769786430392537, 0.1445701550971414, 0.04344823056598047, -0.09969881032848572, -0.012180680349350763, 0.08172058155685666, 0.14234780235613323, -0.11625105076819651, -0.06907459704440481, 0.030197268085355982, 0.37673298367341035, -0.240310265939464, 0.055387632980376, 0.0706011782688487, -0.056171704953690234, 0.127872467169596, 0.022997619248764218], [-0.20145964815338316, 0.1640453402817936, -0.30171663618363004, 0.19659357683497083, -0.24991828628291968, -0.1589980183163872, -0.11227992678203284, 0.04797347494780653, 0.06803630907777719, -0.16550242790765143, -0.024587793769986075, -0.19050668937132953, -0.02624030886313861, -0.0641350950102347, 0.05927995441111105, -0.09171364580872315, -0.0787409354140709, 0.06034715198085183, 0.04316077007501754, -0.03610621605429856, -0.07171228101380116, 0.1594046675263495, 0.024965520856570087, -0.08281361966527809, -0.020392725608308557, 0.07227709454095867, 0.02169283486595849, 0.05733772448871711, 0.008674172702832056, -0.09382530563846074, 0.1357095974402676, -0.04389032402575332, 0.3338288225006066, -0.08978254955070958, 0.11014490846666587, 0.26620674747726786, 0.0954872040944573, 0.0482996525986342, -0.010031545510735616, -0.19741082158361775, -0.12667690318504418, -0.006592442525012967, 0.08999542249084283, -0.12382968768622798, -0.03545897149667613, -0.1158707773943909, -0.06794319613361634, 0.19003762992535297, 0.12765718445382873, 0.07681159298184796], [-0.17888095824424502, -0.18209988859334542, 0.10627596599536872, -0.06268131552487358, 0.14009636910021858, -0.06054026883902432, 0.023667788204428122, -0.07760604782805092, -0.003997066489718515, 0.04965551093268169, -0.0023091421611640614, 0.0503186038073081, -0.08824594557851724, -0.019729769513304917, 0.2727647547058596, 0.05690630211903573, -0.024231697783858863, -0.10388696587812879, 0.18261241032165992, 0.10625721693644562, 0.061407652274911184, 0.2017491910907432, -0.09812953281091577, 0.12641298973660423, 0.14100142597297316, -0.07090279611877855, -0.17098634623698858, -0.00936406846155729, 0.01648438695034075, -0.014911464087061942, 0.20349906363411974, -0.16041753423784091, 0.08382882874091495, -0.09056290430089252, -0.192752156285886, 0.08323998038241892, 0.07448429915144479, 0.050496359486691095, 0.24267282501711304, -0.36022146940404065, 0.050168519430581635, -0.2280184189197903, -0.04341646760156229, 0.1654634251251019, -0.09168228472080008, -0.02053077282196087, -0.03133328955225974, -0.2607702342089036, -0.003963183243196167, 0.14347286980676896], [-0.09541314041960365, -0.02104954826250604, -0.13156284893481737, -0.05519480451751552, -0.012864066185080361, -0.0212398300777224, 0.08318811525802089, -0.26531571619063926, 0.11918942657842695, 0.22207140241043644, 0.17513725248111423, 0.10350611023678169, 0.08202017153220494, -0.03234560975360925, -0.12263564699834585, 0.028128309643514367, -0.021685085786417816, 0.16052640321461192, -0.17701261337383714, -0.021732300168591866, 0.26834787153954204, 0.014758287205820215, -0.13045496505444795, 0.015597084855456368, -0.2199022070496394, 0.08431978296826544, 0.045280768550672666, 0.1058438292836671, 0.04505731699131664, 0.08993627567927595, -0.1668101981132779, -0.295860168478425, -0.11020049339318405, 0.0582624498069593, -0.08014603116271342, -0.3003922714253762, -0.30420595194482236, -0.24058805999355837, 0.1687431834313141, -0.06943545112512849, 0.0709514927988201, 0.00024362112831672925, -0.08977757284523175, -0.015649178678540827, -0.061511918813057606, -0.14193620442515162, 0.22417498675228284, 0.1243478737750418, 0.1367509148974917, 0.06236632053884751], [0.10825573781526415, -0.0572448769751815, -0.08031512675904186, 0.1984831241901518, 0.17839085506146554, -0.03245127565351058, -0.13115850159107553, 0.15307831820492634, -0.04587568596954517, -0.20213650018534265, -0.28867867310101863, -0.06034824385504089, -0.1317870428917006, -0.07222386385057558, -0.1941497715002097, -0.06838598680620966, 0.21197178046695056, 0.1752650335397668, -0.19817081539498002, -0.06978135780513423, 0.06959061103099425, 0.12706708123444047, 0.01641134515171639, -0.010255141303373417, 0.06211426278197721, -0.09881952454409429, 0.030291298311618003, -0.06531257677432006, 0.18930666915000233, -0.1269669440755037, -0.396929499774339, 0.1151643690833737, -0.10438042231974927, 0.07768834206538149, 0.027870951663905245, 0.19901529109054142, -0.2859970801972911, 0.13946656636073088, -0.14686416940539518, -0.12862588035109726, 0.18930322888878223, -0.030574877992117326, 0.03595167408579048, 0.14541737336370178, -0.17343776452791065, 0.11850864346899664, 0.14917028003012792, -0.04264884395762822, -0.021072958278038185, -0.12033707480491657], [0.09093281394132144, -0.07059299455451104, -0.3048248394649381, -0.1994184462854546, -0.15972749264639893, -0.23558145999062252, 0.2415178156521374, 0.03761525003663831, -0.11319966942086135, -0.03135819125527568, -0.16333803880278605, -0.11217573635131194, 0.23975044960488168, -0.13239741556617882, 0.001955207747530093, 0.051803544725763456, -0.01628477199983247, 0.10756750204393245, -0.3057316818235546, 0.02515885064996105, 0.09264902040778127, 0.281049455328709, -0.1161815922121311, 0.10726719026772101, 0.07242728159670833, 0.0715398614637143, 0.08938419741214117, -0.06861301236911906, 0.050954158150753937, -0.111855341625427, 0.10289350465702463, 0.2970796359804836, 0.06144821723894589, -0.0881939848288027, -0.07174502870273126, -0.007278041309824562, -0.09526582460859287, 0.20229761578411737, 0.14486929150245442, 0.13731610822288526, 0.02231292226533262, -0.14455764053520456, -0.014126411245440337, 0.012264032064625405, 0.03606305994387628, -0.10503260912041439, -0.08372888272368485, -0.07428864772258315, 0.09581618001381441, -0.03143883691174513], [0.10683231136284596, 0.15373198039808897, -0.14235817630320566, -0.08486736494558121, -0.4081910836703693, 0.025686214771953497, 0.22539043977653622, 0.045593321342599635, -0.08322632211342701, -0.1720722042767362, -0.14281790135252767, 0.20194317636427603, 0.36887004775832855, -0.003579757221405694, 0.1783029047420396, 0.18105267593983349, -0.14769607307325827, -0.01341736065842527, 0.08721312336366842, -0.2038874428209094, 0.07146459436167536, 0.08933380365075962, -0.19501085607094812, -0.003999670938399843, -0.0037991518753480646, 0.04990336598030529, 0.1731552234477794, -0.0798914278032343, -0.25939531061872895, 0.12722984956150057, -0.17639294308257536, -0.1279947672882527, 0.02537363484094411, -0.2055829718461864, -0.10050389096500384, 0.12046651492252586, 0.1410533326378028, -0.15595652210563044, -0.0024563295134418027, 0.0860001300641045, 0.2282785507458916, 0.17026133227593315, -0.2116646327666315, 0.14822831508185877, -0.1689302693790323, -0.10045223393706976, -0.0005125837683273908, 0.20517588025367542, 0.01452011569920406, -0.17167737278612566], [-0.015892589889580498, 0.06433022288579687, -0.24278256498387366, 0.05847202231096049, 0.13171716237844483, -0.07857767585134963, -0.03924192119718392, -0.06962637928612024, 0.11667278372794553, -0.5233040943666837, -0.15723669293771708, 0.26864968727933325, -0.044041292090200086, -0.08138176020302454, -0.08239519206075603, 0.0916411234127374, 0.28271946207344445, -0.0708316100116314, 0.22866440487580195, -0.18287536136780932, 0.024363585221301894, 0.010286462126815327, 0.1108824866327408, 0.1494097775560431, -0.06420482711316504, 0.004207219962125305, 0.03347592740767963, 0.14403287239367826, 0.13006113463394672, 0.03838033996262227, -0.03683036583054745, 0.07272896278152872, 0.05277484547972416, 0.20226643470016792, 0.04387189697607011, -0.06821522217335933, -0.05019929151209468, 0.062042540561303906, 0.000469467191486127, 0.021768422147914926, 0.13849728481128099, -0.19445615396188226, -0.0697916799605216, 0.08272684306502963, -0.06861311479669911, -0.022298194759812498, 0.043555138566006756, -0.14262574895077804, -0.05042914463407603, -0.03401356035385448], [0.18786778365685736, -0.17601582390050705, 0.060002643024152924, -0.05677917742697086, -0.03329013910730791, -0.21830608456392653, -0.0025614113205175704, -0.07183289075434311, -0.012334840776417045, 0.14132597619661688, -0.017649528499727042, 0.030719322489286167, 0.08615099524299284, 0.18823390587886155, -0.014220579246239318, -0.05456822371361949, -0.060363399244262365, 0.03200705418047107, -0.13458677597403296, 0.1389001040543595, 0.0767182868376745, -0.024971236306165892, -0.04101505149727824, -0.10112063579127081, 0.023484673928790948, -0.14499146867234053, -0.17047602411964552, -0.23572181226216582, -0.041694295676372374, 0.01978304440953453, 0.01276948503950575, -0.014848972188053014, -0.18427718352728084, -0.20224399946599586, 0.33338743831422185, -0.1985921283045082, -0.3565931886684023, -0.03868313917445219, 0.09133291354831433, -0.27778929222751503, 0.31517276850339737, 0.27812991397116776, 0.20846593651532888, 0.16536966981455206, 0.0882027912132388, 0.117563414290887, -0.16384774226406346, 0.07360620327829206, -0.24241620145873352, 0.09146449980272775], [0.10618757326233182, -0.10468295779080296, 0.04069838515694823, -0.1427672423164344, -0.3299581511046187, -0.01718858317223403, 0.17677311988188923, -0.07113018983290788, 0.055136937961940455, -0.03958412873934418, 0.09481776545402751, 0.057965665864576806, -0.022252164498298345, 0.31611804538933397, -0.06478779971828227, 0.10645751111514282, 0.06007710597576946, 0.17491012765114775, 0.05349932663410905, -0.05425321221512671, -0.29909513816185423, -0.07739115950025173, -0.12260658519496584, 0.1903610047076376, 0.009999407574810762, -0.22617421713624514, 0.04592036204034736, 0.05154082291413389, -0.14211571687570973, -0.08386679082206282, 0.0041767913361733, 0.012442361728783635, 0.027257134054060935, -0.02255556023812368, 0.11723536970613842, -0.13425931772209918, -0.08837532361207631, 0.11496338740760798, -0.08755480993235706, 0.06305734820866053, -0.15043805675987276, -0.10648662062676656, -0.14337993717880995, 0.28562973459596863, 0.05544503021262805, 0.01009563023913074, 0.12204685659158697, 0.00201436007085104, 0.023978406863824162, -0.14211082209373022], [0.2862506054764521, 0.1446090512096211, 0.1240554837936942, 0.00012326615922145055, 0.18718893674566248, 0.2393907768347213, -0.044935939024052, -0.09057725619039272, -0.0669787242014177, -0.08070283254928114, 0.2660742655535408, 0.03241818384091913, 0.21041754254689893, -0.22373283985932604, -0.1398274225112415, 0.06627550550288977, 0.20363077581001537, 0.04057377408304725, 0.1492244087257537, -0.22082123376437832, 0.19045004392823606, -0.07628933057138877, -0.14727306402415583, -0.01766458857856345, -0.10416039840004036, -0.21809553434958712, -0.016201885525067336, 0.044670010028405815, 0.019124335281757127, 0.15582569199243726, -0.07437474013092506, 0.05965323153369112, 0.3520800789089981, 0.2897768269019245, 0.0980350418001731, 0.16639674141165178, 0.09173769970622953, 0.2293275423074629, 0.20600468455494308, -0.03763301152422292, 0.13066944888543347, -0.04027685284583939, -0.0689388102414002, 0.17416250455522078, 0.017093226005649102, 0.03985163464962864, -0.005806048195410872, -0.027344319092476223, -0.21383981518111275, 0.128711444208642], [-0.13115806774569638, 0.007778717442754472, 0.11836919904874794, 0.035012455943343554, 0.093803853571007, 0.09083216683322774, -0.07438185195689237, -0.022926562208106054, 0.09708039366096219, -0.14913805431469454, -0.1374812041740546, 0.10749187051873912, 0.08796628736237203, -0.034966059733595574, -0.06321555107866281, 0.19665870361388346, 0.16001437301556556, -0.12382967772512907, 0.36464493147012916, -0.052630718055754915, 0.024252346658319022, -0.17076370467787486, 0.09521436871967674, 0.29091858340759136, 0.10821733925660347, -0.18242634687889353, -0.08073060345256569, -0.0750743175998191, 0.025541425881333825, -0.08437519066141964, -0.1613262016727203, 0.046209351908951014, 0.04114289899149257, -0.02314591039347177, 0.03054905543223533, -0.07849954183996559, 0.21005084335786076, 0.041860202350161455, -0.08887270358402531, -0.09631977879693597, 0.016706286615503496, 0.259179182836572, -0.018360420021864762, 0.07896515742495758, -0.14855731765481148, 0.145407248766269, -0.05219809526321636, -0.19453243092373457, -0.14723485092304248, -0.25460338684011097], [-0.0953814772617668, -0.16893601733938524, 0.07408400839166249, -0.06918964322483702, -0.10173997610558604, -0.20399859223091663, 0.1863119918125467, -0.019945882279450954, 0.2690377690311563, 0.09498593915033443, 0.27362712399949995, 0.042914008533738224, -0.051870048277159575, -0.023472114675393518, -0.018957983253159418, 0.3542693185487843, -0.170501442869332, -0.025791984061729365, -0.0053705571060877425, -0.11636798109119519, -0.06955709476719182, 0.15345734875152417, 0.10384622110127603, -0.023916501592439767, -0.06598699077236574, -0.1251131166645324, 0.22688326398852332, -0.07828197810945015, -0.23631123492498915, 0.0419205002221741, -0.029855617045184375, -0.008980804149748906, 0.07038626437595866, 0.020439930259692218, -0.11809821377915324, 0.06501108747439895, -0.09765484709849459, -0.0927960162126293, 0.11727099016355773, -0.1727058258388, 0.06227580744436176, -0.04546683107822182, 0.10620903873491933, 0.02074855209392902, 0.15105743924887782, 0.36430833261349804, -0.2182426139041122, 0.10984304739488719, 0.4064584458685196, -0.16366487891402887], [-0.058720910005359686, -0.02025488411032582, 0.0313362800940612, -0.016721305743329886, 0.16418594432387468, -0.06359739396407507, 0.03433383465446088, 0.13499736472382237, 0.10888156189852155, 0.12030665397958007, -0.28864631866635887, 0.08688334999296837, 0.12667984456400772, 0.194024242602043, -0.27969192197697107, 0.04764460648037042, 0.07369685116878899, -0.057219993596999974, -0.14741285190553835, 0.027871790519487998, -0.030917846038921455, 0.12627640330703474, -0.27509372795247516, -0.06773055659295991, -0.061510193750452864, -0.10533341908288653, -0.11563238799433653, 0.045007721925244125, 0.01227518467474354, -0.06686370880349743, 0.18674456346497398, -0.12168006397444177, 0.18519618558231518, -0.1736133883374141, 0.021047076946793114, 0.06324065647997691, 0.10052693626808726, 0.18218649891541447, -0.04822540638744159, -0.18874759433227692, -0.044755041728468184, 0.23349051092022266, -0.07455365955409239, 0.06520292961606562, -0.04160470305509793, -0.09918874007877242, -0.13390167268842465, 0.007848183462716625, -0.05366285051159407, -0.17268523420227855], [-0.01871348589623212, -0.10361675659858956, -0.05911833824283504, -0.04240335252629883, 0.034632113961537585, 0.2239255293283953, -0.11808216401908471, 0.04255198095432619, -0.04873206494540004, -0.2079190885981841, -0.22139690030937115, -0.18642394514634972, 0.10832610449806919, -0.05524052048408242, -0.019591241852605724, 0.30821890176087596, -0.0833566907775908, 0.14439135882861592, -1.3867200631380963e-05, -0.06680349514619996, -0.224849579757901, -0.3355640134723345, -0.08799039300625655, -0.14300133686475483, -0.07506352838940793, 0.01306781424816676, -0.08806041937042462, -0.07552705022355205, -0.07424354879028877, -0.1008408974288476, 0.06645184828698766, 0.1227507285988509, 0.08826325253911184, 0.09868076196695315, -0.04902125216975426, 0.03421703063168631, -0.13791732607636376, 0.19249258931819094, -0.20727994275517064, 0.07453789123640489, 0.17442273985382806, -0.024151234223360733, 0.1233185679640263, 0.14997140873010784, -0.10303694634442435, 0.1654281447533865, -0.06043104315151596, -0.1824794610692536, 0.2269031874194677, 0.19519060037610222], [-0.3298401614375565, 0.1707667167651341, 0.08653641133234895, -0.1251941860881948, 0.07797450137693682, 0.0865328713330741, -0.0006088730243040771, 0.04672685275805622, 0.0983073459758057, -0.23000816197994733, 0.07914607012483424, 0.24618606516067215, 0.1588843080640601, 0.1955441520669651, 0.1347594365227354, -0.09919683802588694, 0.006906317926328239, -0.03565658041166853, 0.08469465500745293, -0.08422572908605463, 0.05792595648957251, -0.11843737276735859, -0.057294311834955966, 0.01562115337901079, 0.03130306183927474, -0.09305949974714968, 0.1095628113996729, 0.3643286365892557, -0.04397377461851311, -0.044039195050629476, 0.07233420168543127, -0.18891285069770453, 0.07177321646644454, 0.008892307738877735, 0.44829651098145845, 0.11751447534950381, -0.013520157860308076, 0.22808151674783048, -0.010314230828939008, -0.06896280069063937, -0.0939919232185259, 0.03530692641277089, 0.05004941064889824, 0.020473441210189187, -0.08111702340952899, -0.23117670677967825, 0.03949527829416026, -0.1649337848781477, -0.015086467190346021, -0.040777121425858494], [-0.06302413302824533, -0.03469574923028848, -0.1717076337925936, -0.059721934408387405, -0.04839112726736321, -0.051895983525402, -0.40263339783587543, 0.07525120292026526, 0.3597788517205333, 0.03607815183034839, 0.011804042149692322, 0.20573842802179051, 0.37458331850918714, -0.020775419777696962, -0.08262523283247294, -0.2160757969323274, -0.2839402812411698, -0.039425223130153106, 0.21392902536510694, -0.27438625995309424, 0.14828679521403032, -0.1807433574376777, 0.21646108941742664, 0.1715981070644934, -0.03876264166635027, -0.1834653044006107, -0.3125231473429277, 0.1350241523592319, 0.4050958389524035, 0.32801786825144075, -0.0780125002925617, 0.05719988273380223, 0.0443262321532328, -0.11832391809911667, -0.10203894222994615, -0.05578102844975864, 0.0965035801490438, -0.12230832640335043, -0.11017839050638985, 0.40396585336637475, -0.0401917993892242, -0.14044720591881357, -0.20134362261787467, 0.2617730560779963, 0.04348071054716133, 0.18024297721782315, 0.12120208889544526, 0.0001965026937776896, 0.08879198519067596, 0.18231092228949713], [0.16856053012723177, 0.13166618517504794, 0.08853663071721182, 0.005664360772908141, -0.22663776942763872, -0.1601962496096703, 0.012019919751521719, 0.07989207385277208, 0.06373311232298311, 0.044318861418788325, -0.06430162218757107, 0.1777961572899588, -0.0066587877377700675, 0.26943011421421076, -0.10165609452608097, -0.06495018766660855, -0.01716377489123586, 0.09464619197376976, -0.09451791335730457, -0.3091835422939722, -0.3216747257211403, 0.30237600929053116, -0.07589369327278339, -0.062452654579919484, 0.12150427627839258, -0.05914244487931744, -0.26973626941794293, -0.07991387043433718, 0.004050235278312065, 0.00875495009541573, 0.05509861407219071, 0.08305959018886287, -0.19181803834373182, -0.16635572745309157, -0.02524927980565936, 0.24179413021099042, 0.20390848436035924, -0.10997646707718715, 0.15405977968923998, 0.08637553248599533, -0.22444682732385698, 0.03562938244071741, -0.06493349666304404, 0.08336534718183666, 0.07835295184732376, 0.19252101292856907, 0.17098713095396825, 0.012702168416992338, 0.10863917073479337, 0.034850669630113296], [0.015285276111693249, -0.06924112217822537, -0.26075089700978016, 0.07476354185335653, -0.0600312980642051, 0.07778370585446454, 0.0717448177047099, -0.07046841660572226, -0.04250887074631335, -0.080341118303576, -0.03992697629448463, -0.008789746437153951, -0.20163149374937261, -0.17826561601720042, 0.15116640554702143, 0.17309309778475415, 0.0717371163115071, 0.011642684718855914, 0.05504154386515252, -0.003360915189927191, 0.13044020743354465, 0.03181621189777707, -0.10887880107910103, 0.009560004469205338, -0.25369380857164336, -0.037221526525883675, 0.04073300204214737, 0.09139266965601879, -0.050995409322255644, -0.33933670695119417, -0.22634525984727133, -0.09298199307072953, -0.03878801285485129, -0.060822580086483696, 0.014202793124764586, 0.05735233873649839, 0.09090266654756383, -0.15895137248684937, 0.029425697408554673, -0.08798739957265612, -0.028497221973218526, -0.09343176682571008, -0.13902026764964773, -0.15733640519862216, 0.05614428648689672, 0.006726700376475531, 0.03114267708132956, -0.029158097860711867, -0.03255583833569807, -0.07109512770655602], [-0.04804284815040463, -0.22008156389506076, 0.023142505696212595, -0.1492900084514437, 0.13517679318220854, 0.254728677652193, -0.15854661204544418, -0.13546523695771054, 0.07874637844788164, 0.016658811151794746, 0.08476684323964005, -0.19318272968759212, 0.08243261192857099, -0.13041359591547852, 0.09245720569320778, -0.14067047384064674, 0.1175495877110808, -0.10784777761357975, -0.14382701617181565, -0.07975607854807902, -0.06921257828033085, 0.08963221000006691, 0.030032497958519495, -0.23503516133701846, 0.19506392326021554, -0.0676749142794015, -0.026018414895322226, -0.07769547537481634, -0.27996797557023156, 0.10597102456311346, -0.08773836180657874, -0.05654754036669714, -0.06303985301996032, 0.17624921394809487, -0.4109931538570109, 0.04785554152316535, 0.018431376882082313, -0.3254659370886507, -0.06269653751424242, 0.10560710174327936, 0.012019987831207791, -0.31500329076163364, 0.06973642792533129, 0.24144421253916473, 0.017087334276561787, -0.0024219429934964247, -0.17769146269837766, -0.015253376011631414, 0.0240874660916909, -0.0621446224217634], [0.0832450991251363, -0.2007805166314565, 0.07444896906576012, -0.10034687306062498, 0.2527017341612566, 0.11689807449207576, 0.1829844863537819, -0.15931519058259022, -0.11954576902155843, -0.02755548091314595, 0.07682215804676591, -0.1280872584444957, -0.11583945082111793, 0.04438853397025925, 0.17476543343206324, -0.14229414951342192, 0.10792669308839167, 0.06634785579206838, 0.03747441222851467, 0.08128104749217321, 0.007696667535778022, 0.017842249522930686, -0.16332821110847398, 0.057624022781632825, -0.08416716039675509, -0.0007781072950333893, 0.09936885660023409, -0.05948124032012981, -0.09247336741819345, 0.2761745328845311, 0.05982145365052592, -0.1459237649766249, -0.20481367052129018, -0.18205505425660812, 0.17689529929028497, 0.14641274874559648, 0.02295439845893972, 0.0797050674633136, 0.05973187763621579, -0.012313032170214675, 0.026149280014424774, -0.14634106726510107, -0.09965156307037236, -0.20215995654186877, 0.007396965987368536, 0.029845712284558647, 0.05856969249116828, -0.0591463655046316, -0.028103642108357533, -0.010371427977410069], [-0.11070191053044544, -0.031898798046861236, 0.11974942447698368, -0.020663398949080522, 0.10625307241191118, -0.06461367553783541, -0.10507791832126367, -0.02358646627741106, -0.25389790954497543, -0.2062020426034095, 0.15671544244838576, -0.062064212880131864, -0.20386102396031064, 0.06950637966033821, 0.03807521265167407, -0.03760370069978413, -0.004347332979950618, 0.10944204098091091, -0.03719575291540311, -0.1869169803360376, -0.010307238161201838, -0.14445872596433912, -0.019551148742199, 0.03504813789706569, -0.03997580782591894, -0.15187989824956913, -0.2405219741765875, -0.15296904634646036, 0.14992879752610871, -0.06086825115996581, 0.1132936515341495, -0.03700786051686747, -0.046216328596389536, -0.07162909674949074, 0.02796995248522797, -0.18389905602078646, 0.1266464509799938, -0.07223275392747837, -0.344016202708751, 0.11114648987401861, -0.2839879970642975, 0.08710568447193735, 0.0019142456216967411, 0.006578924041006522, -0.14691535751321855, 0.013700532118208103, 0.15472256525106204, -0.019528190932794207, 0.2093084261941908, 0.06472245355033801], [-0.2381875473706165, 0.08178057009645924, 0.08469669937562997, 0.25264530176634703, 0.031332973908299644, -0.02633629148615585, 0.0791950330597362, 0.09647691505857445, -0.07045051380115079, -0.11359261294929884, -0.1132095659496649, 0.05078632415189952, -0.16445741124950977, -0.12873059086953553, -0.06386470127045177, 0.023255011786792214, -0.022040189532198197, -0.09074345056953521, 0.35931328016249814, -0.11240631828777828, 0.14702015827150258, 0.14216197532014577, -0.06780366954561518, 0.080060378440821, -0.1467675872708542, -0.19052805450147725, -0.07184076108192818, 0.1931862715667588, -0.14533800599555247, 0.183323495999032, -0.08705336716944104, 0.03352762366472854, 0.05953768293848911, 0.047742673936332546, 0.1425194626032273, 0.014208825194378157, -0.22828175944204723, 0.07992680946113707, -0.029992322533811188, -0.21196022981431767, 0.08364697580277944, -0.037237939462629974, -0.15950615289593342, -0.20936690802586416, -0.09329328368832156, -0.01572703357497178, 0.02637064826355874, 0.017071478291008604, 0.10902414663335629, 0.0943355140872585], [0.014881150681449747, 0.16272250628578125, 0.16454800763926825, 0.24935251944425949, -0.030777906970494734, 0.019098207985313677, 0.08233064845587895, -0.20160438458489396, -0.10988339100710244, 0.2525108674377691, -0.05723836829255898, -0.17021896268459072, -0.290214446917088, -0.07207625957432531, 0.03286627662020936, 0.153582319093079, 0.27837321051784714, 0.04964817444891267, 0.051094365448432294, 0.0014956683231050014, -0.2250347866428312, -0.2206115937739977, 0.24382260051254256, -0.0584371328759606, -0.026790044672292422, -0.050561202680312764, -0.05132461648603302, -0.06001644421535266, -0.07884990036014884, -0.09196045905987953, 0.025298699998202816, -0.04462823234344961, -0.142916735243212, -0.08123066589450442, -0.01255077796069919, -0.21791036812790765, -0.14297392176489856, 0.022838834435736356, -0.13396463619624197, 0.2835339761785521, -0.0811149057483577, -0.1357690814085639, 0.15128946471630386, 0.0039039629538401223, -0.1439393605754414, 0.37576644056879704, -0.06446582502682735, -0.21767866942477243, 0.011377761752767251, -0.05146595985863221], [0.024342727141337776, 0.14345221143025805, -0.10220140271026078, 0.15460426806370986, -0.21064268382547666, 0.20174098785957503, -0.11090903657978442, 0.1433873513145567, -0.27228655702883486, 0.02366582732296201, 0.17980825949567938, 0.04750130288243176, 0.12314712171826242, 0.05118306150604474, 0.02964727881734917, 0.18813466441934415, -0.40735664487588663, 0.1921431299840302, -0.22678397571711453, 0.055752439266464504, -0.011568818204295969, -0.2401660474028395, 0.07939091517203421, -0.010280419049385692, 0.0654320299483887, -0.09210148067492399, 0.05282962439175572, 0.13004567101971995, -0.1947881475466254, 0.04689217663262441, -0.04948008126280193, 0.00806852653294011, 0.0098546835772517, 0.27155242513035016, 0.08031891974270598, -0.11920382354948746, 0.06939267552306366, 0.1600083386745466, -0.028189136853921055, -0.018270692585008873, -0.07435637072489788, 0.19882641121778877, 0.07024691827750036, -0.07949064976290943, 0.093348238141957, -0.08275137913873576, 0.08387731369741756, -0.09410543578245537, 0.17618685524265898, -0.06383395762624926], [-0.03049067986541171, -0.09117244244718316, 0.10579152242182123, 0.18813828482172645, -0.2246525414639605, 0.06457911142485319, -0.019135969805598965, 0.23131831163981983, 0.28548586655208547, -0.3414578893011857, -0.08577147694019338, 0.039025034133135926, -0.28022038888390843, 0.017909651927090254, 0.24465736104022487, 0.024034721583961784, -0.03405770433510362, -0.11833336500130384, 0.0031685713439789046, 0.19692779865670493, 0.14562776567295627, -0.05294835539416618, -0.04321345291446967, 0.1271348555927015, 0.08167390834275023, -0.026143574708052827, 0.013180785457684247, -0.17787951467515328, 0.06726609418175165, -0.0929632418291307, -0.18892535927454213, -0.17543680677296586, 0.12336133910906621, 0.003953649750907385, 0.09111642699272259, -0.16571533297759994, 0.21561247524807298, 0.06697420451721921, -0.18167653133019876, -0.012365284789854214, 0.06146068972682329, -0.0262636148908912, -0.03137880665872957, 0.016637120401952837, -0.09662492687213163, 0.08459069281280383, 0.04339496236172572, 0.12219407744060465, -0.16799970509091874, 0.007896882988756319], [0.18557177583720647, -0.13488123644996183, -0.04901218843212898, -0.022808674103181152, 0.09584783181526793, 0.172656050379846, 0.001284953005995619, 0.18565284447011268, 0.07053496296363182, -0.0895714605901446, -0.04234386875127894, -0.03673916278523222, -0.1750031464658664, -0.15801504327844385, 0.07280180919679816, -0.030629259746926808, -0.3036815290709728, 0.0209901927360505, 0.2182868637513881, -0.15447374997010999, 0.04810989258531557, 0.07122006954330479, -0.037726492079258135, -0.07355496660272473, -0.11446639532005644, 0.16332391592024617, -0.10337023864289746, -0.05444968379490348, -0.012225202228867074, -0.002857757865794047, 0.08982122552815971, -0.09011462506125026, 0.0007864996835019096, -0.2155663509019084, 0.007968567687477602, -0.23380891820494507, -0.02905067662824159, 0.13599933274723583, -0.08495581513932927, 0.01881277790832636, -0.18601354410913185, -0.011428772291703216, -0.06936074554859199, -0.0922945328200046, 0.15454257927211035, 0.02534133062077882, 0.07857642627594741, 0.03160620446693221, -0.0009547785464895479, -0.1631673635771892], [-0.29544363419207814, -0.08174184060302295, 0.05348709065910108, 0.1451769791239798, 0.059204670564033585, -0.06872686542350895, 0.00921545953345494, -0.11355590793620367, -0.0010403262707985373, 0.040948766671009565, 0.013503678336593694, -0.09779617375526055, 0.32979367599679865, -0.11320434130579737, -0.0008254507659134672, -0.0050555877549504575, 0.14822299840396874, 0.3787985866241405, 0.14975197455151426, -0.059120963003263374, 0.1429391548958334, 0.011716618325913388, -0.017625407846099228, 0.02623875935903128, 0.14230045107926972, 0.006297522587101492, -0.21429070500655034, -0.042168520549217686, 0.10867963566904192, 0.16507218217838518, -0.0395634284938594, 0.11289566029398856, 0.03633771095026038, -0.005463958436725254, 0.06857500315170446, -0.17662742606912957, 0.011432091096844267, 0.09532753189282418, -0.044984849862010116, 0.033473460687073714, -0.09108061763422065, 0.17975973877903156, -0.28942874495776394, -0.04638374706958597, -0.013388946094456766, -0.020393220115893552, 0.08233371691044297, 0.24560430756839124, 0.1590879107059283, 0.10930027098098907], [0.19726215444581868, -0.12120037223748296, -0.0748026980698624, -0.19531375298956208, 0.05980382914418459, 0.008763764829275308, -0.06539615302477977, -0.10896514573594934, 0.003822668268338017, -0.026436021849864336, 0.27717112331551724, 0.07863920958180012, 0.057807691058331015, 0.104538574100061, 0.079243189242861, 0.0013351560044747748, -0.20566119957134887, -0.009495122082689381, -0.26524038209956197, -0.1336820355810223, 0.10013465256055866, -0.044781774971348845, -0.12660180764811402, -0.11017913246801464, -0.1486042383934537, 0.037722863619207236, 0.06274882484750179, -0.04860483537093682, 0.05867316469149462, 0.2107065626042464, 0.03776159334712258, -0.01575539674549175, -0.0771464953481105, -0.002919519680546467, 0.17996305297125212, 0.08323949418287122, -0.18001036360655467, -0.28914019386508466, 0.2954613428903488, 0.1081897506804278, 0.11268245235271147, 0.3268066333976873, 0.19050186428567115, 0.011909753221148133, 0.016680947215702114, 0.0791705131867112, 0.17856944061644942, -0.08756871823242927, -0.05219471658387152, 0.10057261107962547], [0.31485032460155227, 0.15909518284123833, 0.11014308479455673, -0.09980864126812636, 0.03572643400073809, 0.1326847172824638, -0.040755840528037365, -0.06595850734897728, -0.05269852486568, 0.22240870288733547, 0.16020615666621818, 0.011405097657473776, 0.1500838873317706, -0.057475260259977456, 0.04692241685931809, -0.29767398817992824, -0.1290221833844642, -0.017994974570439675, -0.1915764144012314, -0.1487627251481672, 0.06125554596360451, 0.008098391964162475, -0.16876281726832318, 0.102240189045614, -0.16385486418938025, 0.00633784570312911, -0.10020380216184031, -0.02180411946344935, 0.02387244133712299, 0.2526597123382244, 0.017042257027970145, -0.041136038244753266, 0.034363133539596524, 0.14696041833907936, 0.09888238787863489, 0.013008870677820994, -0.19932163768816552, 0.01869445529348524, -0.24519103860656385, 0.15475384737953432, -0.10954530333508379, -0.11409167111961972, -0.05214486592046754, 0.031341645661755776, 0.20890414734860416, -0.1561680615745112, 0.34989240411965106, -0.026177221599094278, -0.1448601837811495, -0.10198212128729704], [-0.07082395224425768, -0.4033843224340556, -0.014389957721114913, 0.19402983811531355, -0.07054973989819585, -0.017979375854392306, 0.18815063818353106, 0.024597260814318074, -0.06745089832854234, 0.10828568113763748, 0.06317633778015114, -0.06480168843556272, 0.09446700276956518, -0.04792412506233707, -0.04388615359986118, -0.3280283711787802, 0.2580668856056059, -0.24585636570071615, 0.08011967780450514, 0.002734925774878166, -0.008472734299711342, 0.056131774190814915, 0.14603090425317328, 0.18698281959378435, 0.18500145725447126, 0.0027356138415779345, -0.1867818558991774, 0.060875865504375, 0.010535913138878328, -0.13731834100013904, -0.01727896949904212, -0.18194828644985123, 0.19612174972337293, -0.21799862592287325, -0.08240416826999136, -0.010325153641503547, -0.16193232963826826, 0.19887893027002976, 0.07204586797252534, -0.08422261372913455, 0.08652423392418555, 0.13062206336600765, -0.06133090856117899, -0.10838833970463788, 0.10854404586771978, 0.028799819102358803, -0.0775588845505921, 0.18560800055860163, -0.02822642335526333, -0.11229128757993759]],
        "ActivatorType": "LeakyReLU",
        "GradientAdjustmentParameters": {
          "LearningRate": 0.001,
          "Momentum": 0.1,
          "Type": "Momentum"
        },
        "Type": "Standard"
      }
    },
    {
      "Type": "L2Penalty",
      "PenaltyCoefficient": 0.5,
      "UnderlyingSerializedLayer": {
        "Bias": [
          0,
          0,
          0,
          0,
          0,
          0,
          0,
          0,
          0,
          0,
          0,
          0,
          0,
          0,
          0,
          0,
          0,
          0,
          0,
          0,
          0,
          0,
          0,
          0,
          0,
          0,
          0,
          0,
          0,
          0,
0,0,
0,0,
0,0,
0,0,
0,0,
0,0,
0,0,
0,0,
0,0,
0,0
        ],
        "Weights": [[0.0061330917272524104, 0.07153306587864453, -0.13080311930712932, -0.04151841374772388, -0.015924354545033458, -0.07616954731956285, -0.09047868048701785, 0.25373256510427894, 0.2487961273003239, -0.036612603816374, 0.00032203631888652926, -0.18810998648964322, 0.28044571878864594, 0.03717050839903521, -0.4007858395739117, -0.05548843343584832, 0.03906150645234027, 0.14657305773288642, -0.019017559555235056, -0.19942641312343534, 0.12712070500887948, 0.08304988608586869, 0.2566961519526407, 0.18633291262551588, 0.08048300829014528, -0.04898721456904277, 0.0729749652049129, -0.011082355341167445, -0.16634288173569367, 0.09694534034661267, 0.05463889947738073, 0.10004737220346357, 0.09981672869001716, 0.1504752600394522, -0.11858361238453587, 0.022222831120079833, 0.08835998867870462, 0.019472486812287495, -0.15227679154066923, 0.06788912631516691, 0.17469326627323875, 0.03327049743662291, 0.027544368398920552, 0.007632386770389873, -0.07965561353809168, 0.13235297078606412, 0.052739998895522194, 0.01935818837027918, -0.10913533992894017, 0.11299898639903676], [-0.34736387301232297, 0.020596283473983002, -0.0033162423377960585, -0.028946855364956663, 0.04692742910433007, 0.07839885518232512, -0.06889464289364627, -0.1132430592336931, 0.013972917576940452, -0.005654842188858208, -0.052006454355107805, -0.04253265379874575, -0.08444854883730737, -0.04359768934311472, -0.04003990655832627, 0.03926468607766339, 0.08569649812083881, 0.03290394047167433, 0.22467613784504328, 0.006662943211347554, 0.1744640833049224, -0.045574277083802545, 0.10511152368007376, -0.2363059912963638, 0.11524618589842495, -0.0400725193653029, 0.10047182911877893, 0.022316111471797056, -0.039388340870333306, 0.052248124368250264, -0.21405426197315472, -0.01795052758593675, -0.18976681346794355, 0.006831606089161307, 0.03819274963369403, -0.05102922439210317, -0.2880514389089751, -0.08914015073686037, -0.019228790208599487, -0.0700694103243931, -0.10416809399858702, 0.04185697630724981, -0.12581616550090555, -0.012519899793346577, 0.20595833488154972, -0.1467386877096543, 0.1789339841294909, -0.05594504006069522, 0.09247219274215703, 0.07132902453985003], [0.19495174632094356, 0.3033387212207178, -0.19105077224479963, -0.025182944958277612, 0.014136879554631842, 0.17939854714137698, -0.0379538999344455, 0.25692972761282956, -0.04442646407831638, 0.04153122064951165, -0.10661752864648569, 0.23275897792480718, 0.32484873653971996, 0.21399377381987175, -0.04822657636318157, 0.20275939946872373, -0.12154019511710791, -0.010076798517902016, 0.03952118268259364, -0.08775416079595896, 0.22549433706303096, -3.0996647135010346e-05, -0.05145387825896597, 0.2371227720194399, 0.02781146739844996, 0.0052026016711900665, -0.15362327635702897, -0.12434708293091229, -0.04890670797328659, 0.23299019519887157, -0.2154119836146153, 0.14494426168561836, -0.1536789237970368, -0.05377202566207924, 0.10255684236881235, 0.07513379113093688, 0.08391070318066925, 0.14690928863603292, -0.05013132912250909, -0.08873940946515364, 0.11087514502327922, -0.12597634600780855, 0.17985774888774494, -0.05569517121841548, 0.022931045889695006, -0.06547350731777905, -0.06614146011295712, -0.08697454302768368, -0.04534612697910056, 0.3918049205477313], [0.2505334304019012, 0.22621852876519716, 0.09146006481465764, -0.0050994892193208415, -0.08226342316593427, 0.11073599092080683, -0.0011522607243483868, -0.08251199595146286, -0.12136289572621255, -0.06188957516422111, -0.23389172201401695, 0.0661326289097078, -0.13193949040305725, 0.42451433671032773, 0.06747303917041736, 0.12549466670426965, -0.08472260222824639, -0.2437803347768423, 0.04362898092411755, -0.1851640867186742, -0.11055845719176628, -0.0864746933743365, -0.021769811888202924, 0.021679949446737942, 0.3588924731290599, 0.01710233699463264, 0.07293859286548857, 0.030091188887688688, 0.13148076794621802, -0.2825883328558472, -0.17731467945277554, -0.13594392554079734, 0.12861641913311, -0.18119686297304607, -0.09102056528366714, -0.04113808617518461, -0.0013626649585282136, -0.004133201813550154, 0.09099504013469063, -0.1193043181063596, -0.07848947285188697, -0.07260921888142706, -0.26371267767221246, 0.07750517778861694, -0.07870968000102611, -0.2620099110229008, -0.08068760943820935, 0.010505322544316648, -0.11344132349163799, -0.04774104165994049], [0.007207449675444166, 0.006603142351890763, -0.05692102791703559, 0.2478669445776893, -0.09367146580018615, -0.010315305770217323, 0.045672708916556025, -0.04431478460846642, -0.08740519243058803, 0.12038144676645199, -0.16110635258882539, -0.03754570120435834, -0.03931656720089308, -0.2425854713398688, -0.06654078723847133, 0.0934109900901225, -0.1301243999478847, 0.155380921638965, -0.08914201479704731, -0.1304285940581087, -0.1445743897731824, 0.2055862553415379, 0.0024755677659315674, -0.005053661963513628, -0.20492831386789795, 0.2013873636466692, -0.01120208691396691, 0.06544392241540514, 0.16275650843281186, -0.1586864368053231, 0.07304108430463535, -0.08357084062007214, -0.2829028843129396, 0.05846820468168489, -0.032827194083902236, 0.040565497826458324, 0.13243097051333147, -0.06563214955983224, -0.09434562841373992, -0.0010249519988955865, -0.05392733107899553, -0.06725003068017713, -0.2659046334437196, -0.06712445951383184, 0.08652370732844927, -0.4063479265201925, 0.1301064357738814, 0.23742419209295243, -0.1679105838626598, 0.15109282229466667], [-0.07491551723892959, 0.11251983962494384, -0.057679963020022235, -0.06506703949236368, -0.15541729878213675, -0.09424482967732657, 0.18043399346981592, 0.11596953286816003, -0.16571729827004117, 0.056587135165352534, -0.3121782162118757, -0.24904880036015176, 0.10724663965851812, 0.059691399311111185, 0.14512518308950376, -0.012970250127282819, 0.09117394354183021, 0.1540257109994523, 0.020977809662273677, -0.1318795338667317, -0.04642516053675078, 0.022811859392013537, -0.01690035177713348, -0.2845007773181768, 0.00048682934774688065, -0.04193070428001985, -0.045282657776002086, -0.2437047975690291, -0.23622269913859517, 0.06830357800988708, 0.10216920392758612, -0.11575803158344951, 0.2422419567151223, 0.05134180613536185, 0.14855586415079042, -0.17848634232809804, 0.028510703137656995, -0.06126791576042342, 0.3566051197296236, 0.06997272716675544, -0.09297047530434054, 0.03163200169964412, 0.17206574974332658, -0.09542301317585614, 0.3156284533564592, -0.08420522410280563, 0.2853499737700983, 0.10682913137500516, -0.058140183744876915, -0.007408829866969672], [0.039661031971990515, -0.007424715316100223, -0.005437556808586241, 0.014404818633444803, 0.1684847064115327, 0.24518705228921164, 0.07906053386419722, 0.08215546950368, 0.0104249883922743, 0.1369702944319477, -0.1810716664907443, -0.12328926505564339, -0.05761031467418422, 0.025634682929655584, -0.19541525863021872, 0.06596700825279447, 0.07091886055685707, 0.05429023366245187, 0.20897533620541967, 0.06066206323788933, -0.021204270201967378, -0.20940128136896358, -0.11606426665663329, 0.07047310081728705, -0.10085436695535337, 0.150554632374137, 0.16143909901964404, -0.2850994447593143, -0.032826199899838836, -0.16038871006365335, -0.04209115313687496, 0.28452450789145, 0.08852119212449823, -0.1139630118140132, 0.13054873527650904, -0.32413487443020617, -0.09001506335474185, 0.11662246279208187, -0.419775162615015, -0.08075245784950626, -0.11885429038560347, 0.0564949978124476, -0.051254698495461694, -0.01832809200783638, 0.02074715907751549, -0.18434406456278427, 0.1909047297818425, 0.20682632094370665, -0.06297682752783326, -0.16743374542077738], [-0.1253798843075664, 0.041529805177001576, -0.2547125376114391, -0.023229678783926892, -0.10013904620389365, -0.13246415833256162, -0.07750270453724216, 0.26157413691436426, 0.1785231325157267, -0.03601614486104494, -0.028786667759803597, 0.09735210704401184, -0.27922422417616505, 0.0309248053866125, 0.08903418867733569, 0.0987792273859441, -0.20616630042387946, -0.1611013172253726, -0.16998260587538044, 0.11724102289293105, -0.021171592705924593, 0.08299790469341271, 0.03055399407568929, -0.1418687036402959, 0.1482070739965857, 0.08255608839204161, -0.2550556381938572, -0.11754464978303213, 0.06861736580522834, -0.15982490564390203, 0.07345075616740063, 0.1328560018716264, 0.03723975171698066, 0.23072626906995447, 0.0018563760669407135, -0.09766025308306603, -0.13210090817681827, 0.11257853299919854, -0.16564838836647464, 0.053750416885637683, 0.06214035411028672, 0.03374624991068438, -0.0648091127572208, -0.244003786476551, 0.05436483485204258, -0.09669579348472195, 0.19906341081850093, 0.15047921784185567, -0.15810044004116466, 0.10620702969544178], [0.014820129825906659, 0.408347332921148, 0.008076152154950413, 0.0939462087708748, 0.19609688055616645, -0.02864709759636884, 0.1880496667807483, -0.11940010668180367, 0.17861617945413927, -0.17428918131177526, 0.24823014849538894, -0.20618456679068098, -0.13823276265021278, -0.03273079385079802, -0.03231959937680667, -0.08293228482683283, 0.21909032395417616, 0.044395434428305854, -0.056598678969571825, 0.08575777433898991, 0.045470953461481146, -0.15220248344952478, 0.09734207641035471, -0.38674519107446964, 0.12872247417866262, 0.2978005076046075, -0.108297609439297, 0.06953319574776506, -0.07317494579914052, 0.06673043557329256, -0.10022902729163277, 0.058722304998380624, 0.10044193745982469, 0.09067102081797607, -0.07677272092206217, 0.15245992442245412, -0.04051031359338821, 0.09792042407964116, 0.038629962801397626, -0.10328268067319749, -0.00020349318980460347, 0.030074652446823506, -0.13265822998738097, 0.2710947813981032, -0.021068242582590335, -0.011698530384484694, -0.174902071715514, -0.09822154972831099, 0.01685378234932902, 0.17884050260065715], [0.25153234371133765, -0.05788333157868598, 0.269749679839651, 0.09708848775209387, 0.11288130080562575, 0.16056059603805103, -0.14320434910484114, -0.21742718055327317, -0.16206379826945067, -0.17502344692096122, 0.011654298582490601, 0.0707862161642131, -0.3941044214564698, -0.2983398548434277, 0.11392586201627425, -0.14213482757346227, -0.06185886865971628, 0.03741022362449187, -0.018595609582120764, 0.1846002493376441, -0.035264595081941005, -0.062499545569454994, -0.08297281219510141, -0.01625078568599815, -0.05589108099002137, -0.10397360883420517, -0.16939200917320918, -0.15496785487807516, 0.05621768123669042, 0.09141043010027228, -0.4030949100433197, 0.20029549615183925, -0.1435518608836335, 0.1532129938932684, -0.09883095971961833, 0.007995244063732272, 0.2143700494968359, -0.25958850790566707, 0.04825082682764172, -0.40541932861795155, -0.016246238126668817, 0.10642546642364538, 0.21290548342691262, -0.06146043792568035, 0.13627595635359133, 0.2493151668554283, 0.0646391274737948, 0.15909336696316298, -0.22509520524736767, -0.17305292057138918], [-0.08485414806674002, 0.0074349960230993516, 0.11114599963537074, -0.05482821295706542, -0.20396736587611747, -0.05646579515181252, -0.15434204249897657, -0.12285586288192994, 0.16433255110582687, -0.03751398576733231, 0.13983298661011767, 0.051494235977965916, -0.3099752982997956, -0.003082925295636901, 0.14685655023846714, 0.024057973792639752, -0.3684608244567287, -0.060367349846404836, -0.13025756797745536, -0.03586400430766998, -0.13191695642335957, -0.16970865753365832, 0.06566765191298977, 0.14532361440961414, 0.12128728073400043, -0.07809275335093403, 0.0013527447758596202, 0.19694043727811011, 0.021027486631003078, 0.27893845191795946, 0.11226697418780374, 0.07926824289278192, -0.02552090616917723, 0.17874995265263208, -0.019616087489763866, 0.030628155908209567, 0.06027190213841281, -0.07370215827576179, -0.11152613440534848, 0.032635968514046376, -0.34228748270954273, -0.2373440309138563, -0.1502747016339661, -0.18499802510535043, 0.09501230753937437, 0.12545241452838815, -0.23211297821049887, 0.3762749621376274, -0.18026128687384663, 0.25504634378414437], [0.2386535672395623, -0.009681889615547633, 0.2467518059911976, -0.16171410082601725, 0.20262318330304008, 0.10032926710275923, -0.037550058215131875, 0.19065099155016946, -7.96887904717403e-05, 0.06676515082593755, -0.006162369391308418, -0.04811851426211148, 0.11451061076539805, 0.24844531688708069, 0.2456337311392131, 0.08473759854195284, 0.12230163718106005, -0.20542570259623752, -0.05420462214922592, -0.09683310811962546, -0.027028041601916807, -0.22746568278193136, -0.009613120193666731, -0.11309206252057755, -0.11200810566920627, -0.1803171941445626, -0.19281873235462382, 0.045751984495171906, 0.11225177602076512, -0.044022448873309875, -0.11565220783307067, -0.02396991674918971, 0.19454535757319802, 0.023347118768858567, -0.10273906886596623, 0.033191904222128324, -0.10673993567160558, 0.31508251411244914, 0.026805156733878236, 0.14636311555157577, -0.15632547977532368, -0.05636049761077734, -0.09799091893313192, 0.04557598261409481, -0.04252240827140217, 0.0315091357789407, 0.21396267892456033, -0.2600005792855396, 0.002892007615053388, 0.007409005057012013], [-0.031993625787748774, 0.2035895369470222, 0.3228949748607192, -0.23472859272731794, 0.05747634698934206, 0.10673390284682396, -0.1253536741345381, -0.11570613707150201, 0.07708485455010722, -0.1090249557828272, 0.06766934957433673, 0.09847280508827098, -0.025797347998992855, 0.1528063168534559, 0.2916273228937223, -0.10330600860546826, 0.021908105453453168, -0.13350109203518998, 0.04809711526426717, 0.024586413968965215, -0.08743097192065266, 0.1740881926042278, -0.23307396296480853, 0.21615546429015287, 0.12897014009885596, 0.38078807764678235, -0.20889533479304234, 0.15065941693093277, -0.20294223496880587, -0.028861040493527182, 0.06631278564782737, 0.17882475939613987, 0.14407402348996343, -0.07520503523505863, -0.030345056191145452, 0.018891476428730014, -0.1350992995461433, -0.17497221446685482, 0.04704282777435569, 0.14454599603036627, -0.16824378117992367, 0.13760998595555535, 0.32856201706669996, -0.14873545549603728, -0.06223697867923391, -0.16811428590901634, -0.1289321324243123, 0.14607066970496552, -0.17946047486070765, -0.03567582900667161], [-0.12930202770520788, -0.2849745399531019, 0.11037241032537115, -0.010623452820609568, 0.26588367222977183, 0.08596615744480515, 0.019443656712361243, -0.044900031786828956, -0.18274180115906746, -0.01842525803481876, -0.10048453691604269, -0.1652822971808039, 0.19661350954129955, 0.08614782177706949, 0.1524478432945733, 0.21085958724556603, 0.06252830002411783, -0.01144316973335488, -0.23873999074282015, -0.23008257049338, 0.16642156317623805, -0.01276832477547589, 0.12335005497977844, 0.023427483501976834, -0.1938038720766928, -0.09604873272428345, -0.13426117351756514, -0.061036693302815304, -0.014566788682379594, 0.10308306032051025, -0.07236342608929064, -0.09838017864481491, 0.04161371410013004, 0.26076532273205844, -0.15669673418861815, -0.12036280899829142, 0.011150235470303011, 0.15208872186906452, 0.042389348116579746, -0.11364394376903779, 0.052453083258804975, -0.024631091971972788, -0.010292306139597977, -0.03973116772443954, -0.15957938871836935, 0.13680173998252831, 0.39217707725382445, 0.004355350403785577, 0.218721075516425, 0.06343721217171958], [0.15663387250755822, -0.23355112782789014, 0.0617332214650264, 0.13628243560471698, 0.18446151609809885, 0.1585753814836892, 0.10793878859191568, -0.3078848569412029, 0.2164334849065925, -0.0637142818511844, 0.0072745504793999775, -0.05046691172592714, 0.09351055706428324, -0.2501954971170267, 0.0035062362723739995, 0.0011487583877025677, -0.2576855224306789, 0.18801391094684022, -0.004009097853131746, 0.14433903688992822, 0.008979983458062096, -0.028231010453924208, 0.06063754527995993, -0.05386932009568402, -0.08399752567692874, -0.01923613518600334, -0.15077103292934782, 0.045330565795279866, -0.20116188341859578, -0.2941212128681517, 0.14003166209020487, -0.10381862017678671, -0.023474324714621058, -0.021764890066314133, -0.17035038212224207, -0.024808751485209165, 0.1644894496206148, -0.1276893551018413, 0.03100856231031273, 0.07410852912357309, 0.15551092887855514, -0.13543172650795998, 0.27995310406839424, 0.09935865754019152, 0.17014935289969507, -0.04819633833403248, 0.15815221475121718, 0.1890624095462932, 0.010045826029125115, 0.0658196176097032], [0.136938461127903, 0.002992116036682939, 0.04111066244393824, 0.09457122862053438, -0.05262874799004418, 0.17309166347468088, 0.1631525295319749, -0.07262016995524369, -0.23601502201488336, -0.12028461228035987, 0.08614176620817086, 0.0499721333038322, 0.04975819200237945, 0.024955439145222063, 0.0005556342740265455, 0.1783331134142396, -0.12927981539062597, -0.1560316074746842, 0.0801110679644254, -0.15600904224216042, -0.11549683136606041, 0.2560383019014156, -0.040337614478637464, -0.058251933878570326, 0.04708670659911003, -0.05841039450849288, 0.09891240461039781, -0.23409815524033425, 0.21128620390713818, 0.013453857543080719, -0.0872078429131026, 0.05228012377616545, -0.010932757697329877, 0.15658097146546338, -0.06750927791101607, -0.1238062287126866, -0.23768094295224454, -0.07557079731252116, 0.07637628920680888, -0.03170685665955298, -0.07023134958190984, 0.03544805670658643, 0.11640055308102608, 0.15018429908951333, 0.015067496620800326, -0.1700653483487351, -0.08318793574837424, -0.24648560511989628, -0.11239656098885858, -0.07653250378753215], [-0.2814743348464513, 0.30352754708330865, 0.09507168637133528, -0.01300008827385353, 0.07622269042624759, -0.13439499726445414, 0.022170416469431665, 0.3393039195408199, 0.16445549641921658, -0.10983066426687998, 0.06489656810992123, -0.0816936480157015, -0.19316343934300104, 0.13485457886786983, -0.22038754089050103, -0.036274972420803415, -0.19627699472423837, 0.1280256049732054, -0.002052343319064654, -0.07503141453537512, -0.08666589241718528, -0.27364882870610197, -0.013890330179610017, -0.3315384308635183, 0.23334593819427732, -0.04091666665478985, -0.4418424008946981, 0.04379612710987068, 0.052442662149169914, 0.06993508546069195, -0.24501937994778675, 0.15211429259240825, 0.059514157566475545, 0.17830689168261485, -0.15640538512918262, 0.004845132136964298, 0.029034666720457816, -0.31173224848044545, -0.16137922457920795, -0.20558602123897546, 0.038902145999584796, 0.017465850081808898, -0.09085504021345976, -0.06889974655354157, 0.013252954388950446, 0.04474724926259807, -0.06602917162674862, -0.025441216386188514, 0.1015518559926009, -0.016754088958770744], [0.14070001255670028, -0.07725978893418416, -0.08707764905248964, 0.15290332435907136, -0.16739050927976343, -0.12244698669318707, 0.04198701518369484, -0.03153898622732863, -0.04446459761206098, -0.3205250762211259, 0.0991455612502782, -0.06679900810218771, -0.254294201905768, -0.15045953950906066, -0.06461904034242365, -0.020312979961123624, 0.06104321474337475, 0.05930462072404138, -0.04422713871352746, 0.008941871364102018, -0.021263798931420348, 0.040419091938000445, 0.1312190510445255, 0.17452193290344725, 0.11856437800053304, 0.013708117722593617, -0.03938787570619845, 0.04703508862028145, 0.18130108507087875, -0.06023193806209806, 0.23329125918633256, -0.18891622521176674, 0.2400518800949574, -0.21767565538627018, 0.12172481737364818, 0.04498987342859289, 0.17297191865143483, 0.006787447242603583, 0.16187913133394874, 0.08791729486848777, -0.0271346039706617, 0.031350325349148646, -0.05051682511213196, 0.08484442337551697, -0.10306776675842866, 0.060567939396092806, -0.051014602346602, -0.056019171772743175, 0.027189721263959406, 0.11316433262152734], [-0.06711277519484762, 0.023284731479431907, 0.2124820605056801, -0.03497425119831638, 0.06724711376885945, 0.05103352430780292, 0.02639794919042436, -0.0506406343596439, 0.07872426257489717, 0.08378094494131906, -0.30183158287773176, 0.22266117960769358, 0.13564297842512765, 0.06880566800398838, 0.11856680923785166, -0.014048685456853723, -0.09898406034422097, 0.05197367802902617, 0.10826921276284265, 0.007696269519458678, 0.16831061748696635, 0.12711771130558788, -0.045325394699457046, -0.1443861256362068, 0.37860916456265714, 0.046232061430554125, -0.1249479214716182, -0.12115443793329647, -0.2068987495273363, -0.3494215263056461, -0.21117792395053336, -0.0446898684578126, -0.08028487101797309, -0.30397422025875453, 0.23265795315632917, -0.09007697495897665, 0.053986214538514946, 0.2771466457432018, -0.09623952940397625, 0.1466397859699024, -0.26104259978962174, 0.06767071141844311, -0.045856495277902115, -0.20531667335623555, 0.005953301645423501, -0.029505011704984284, -0.14021976297204458, 0.18074773597726732, -0.15494045797658287, -0.23056922038284097], [0.08121326627231425, -0.16993579259943375, -0.06641548306970706, 0.0352255020783267, 0.2222505864848959, -0.042691347244014, 0.09707813591370079, -0.23593863917867924, 0.17042684283639978, 0.11139078157183742, 0.11294944832077371, 0.006944987104484828, 0.09247764423513909, 0.2101653008314865, 0.3036113588787075, 0.0962324817553491, -0.22915447805770564, -0.06390345948550528, -0.13265594072172074, -0.11052839428437591, 0.15520373415010752, 0.019219237301822883, -0.07430533059618354, 0.05017518231345275, -0.06803877031084682, 0.006233106558229489, 0.09131032568682913, 0.12724881583174713, 0.09709448678451717, -0.1621536858485243, 0.10532358726358884, 0.2579340436263604, 0.16661709504018138, 0.06604655383474622, 0.1615270170082453, 0.04507402869464706, -0.07481739236357315, -0.09098968812166328, 0.08993679889111753, -0.0024929709357369447, 0.037612651509090274, -0.19265363798934743, 0.15550497461355567, -0.07420303061219014, 0.28966426948037444, -0.16870021466487048, 0.07335820384301948, 0.30300211997944315, -0.11153305114504354, -0.02030135848690575], [-0.10383432936022094, 0.12046401306414545, -0.05648349088700983, -0.26954169457029203, 0.03648917149642114, -0.003674557704934223, 0.3776387532223527, -0.08663993932517902, 0.29205550788698376, -0.03913173532875133, 0.14385699126673523, -0.015816745149911028, 0.050586482339791676, 0.1146378232389681, 0.122929889853571, -0.12270932946673475, -0.054928328277980394, -0.12272271837445502, -0.022416578354127078, -0.0837131679540937, 0.03662905147594066, 0.00900194977020386, 0.031222998562387395, -0.2253871273174448, -0.2155115344683204, -0.2893056401647214, 0.12293698675851288, -0.13324068963503538, -0.0409072386185867, -0.1585485317619619, -0.03908876602124768, 0.26371069642768863, -0.2883324788062413, 0.11719794262081022, -0.017222110308885836, -0.13319058071351078, -0.03688692171207006, 0.05103274351423756, 0.23682162193007064, 0.17383271763214841, -0.04992374142868535, 0.2962425456695128, -0.16525581967206066, -0.039665066438677114, 0.02193336869474546, 0.26130678491617726, 0.011023433187902583, 0.2782398574869808, 0.09872626078950912, -0.1865637120238929], [0.1943500734024507, -0.011201981962953191, 0.027623391451685478, 0.11824884476186379, 0.14180246114357312, 0.16392558350793635, -0.07967555994488072, 0.2592627607607178, 0.15269782627424108, -0.1198166284200936, -0.03256434624768404, -0.0037814120046206347, 0.01028925983846023, -0.13466875753991453, -0.1712778310735544, -0.07517941287313903, 0.06869093037565664, -0.09231807085417529, 0.25089607614971327, 0.056643214035904395, -0.1988594730507776, -0.10755479825428271, -0.07005070619254622, 0.012445885879238831, 0.17777842856689938, -0.09728604912205766, 0.10028107621786772, -0.011519365186987868, 0.18386992954588444, 0.02338761633377323, -0.18680839349134676, 0.08703807518685547, 0.0625043260990168, 0.05506789052502525, -0.03630859770904144, -0.1100839002891213, 0.037829358515952594, 0.1521992390098433, -0.06026300996466026, 0.19425886880693138, -0.07734443081089216, -0.10441430551991991, 0.03259984661048728, 0.07598485490856091, -0.015551299922492533, -0.07308305637543894, -0.13397953128904197, -0.18395470418317075, 0.19111115525266917, 0.07675291559090942], [-0.21011929544684807, -0.10974810083644158, 0.03356425212688936, -0.003249336298595451, 0.06402993053562146, 0.04656081979299995, 0.05245637232437116, 0.11097401565876294, -0.09318084390485706, 0.02048095604463968, 0.007273773433186964, 0.16123192499785796, -0.04743768862378079, -0.017131273037169603, 0.12762620554982387, -0.0554191728776789, 0.2830585369445617, -0.31393830447657395, -0.03813055700482431, 0.18743926321864146, 0.23836439107900947, -0.2781340547526128, 0.13829031011152332, -0.12872157168142856, 0.12358561840764543, -0.050740277927014854, -0.12793728822007178, 0.299665880747041, 0.06096846279380948, -0.02975153933118089, -0.15933212060485838, -0.08280901948276118, -0.20464534960986494, -0.07121519587640625, 0.024825535787918566, 0.198009645060877, 0.24983182651897498, 0.12016749305231625, 0.0917514205175101, -0.16407349466932028, 0.028793097411643702, 0.17593440216603728, 0.01924704908139248, 0.0033569213060280073, -0.12030557118567699, 0.12113349983293287, -0.055997403146705683, 0.04986720542052802, -0.04237957817652063, -0.047329813670185794], [-0.027462854675375663, 0.049381515845255415, 0.012231956381194713, -0.008364381478372249, -0.04809198155589569, 0.03177962936246993, 0.2674310110542957, -0.07814350549182332, 0.10253664092424462, -0.1438174375257528, 0.08477250487391862, 0.13498392100354203, 0.05897296956825085, -0.028567838946952237, -0.09507462967629611, -0.04712178601501889, -0.06918672012361239, 0.14481224214423022, 0.19039390411247434, 0.018819331246249328, -0.009244832471650368, -0.09721023205255357, -0.07607301281188796, 0.10627364712274522, -0.11125308534326794, -0.027157007840070756, 0.05904713282005238, -0.029695493276179374, 0.00319642451648164, 0.0664322314476717, -0.009936435355026585, -0.19088477023882608, 0.05465285329033936, 0.045625194960471835, -0.11991377155653403, -0.2678260931540245, -0.09761708368316976, -0.19321079147584544, 0.016222741555531627, -0.028429286019425674, 0.02077272016554874, -0.05833722932702828, 0.2750054838031603, 0.22933044785531362, -0.11242296699862747, 0.11779529061765877, -0.11504707853472325, -0.009306795776839297, -0.04433715721286629, -0.0621929812205457], [-0.01562000301339869, -0.009814938981050571, 0.15028567962997938, 0.03948828089827446, -0.0404420420757009, 0.2853539255791699, 0.1059588293454139, 0.06699221061851333, -0.0021032327141499033, 0.21059654532779218, 0.0917621406581238, 0.18130673916611353, 0.2093816195377934, 0.0955249379830805, 0.10468487998457535, 0.24592312392015617, 0.04269035989438758, -0.05641882307732613, 0.08583997406454313, -0.09351090761984969, 0.26908226901967475, -0.11507557845867365, 0.006918427036184465, -0.16148016988787525, -0.2018643013802455, -0.19705582246213285, 0.21237280982538828, 0.11134440784416409, -0.13537893055518518, -0.012890595847075506, -0.03821673681341985, -0.034066160015308926, 0.1509610140808462, -0.10333827095963069, -0.008611975313896885, 0.16251410281801124, -0.08638699194378838, 0.02455931374171414, 0.15137517340127002, -0.1236487595920224, 0.042770927535390246, 0.1519315895200775, -0.03166733574649573, -0.06058766485540808, -0.019707097806405796, 0.12691174722834922, -0.07791111007989124, -0.24843070727683214, -0.17624131067518678, -0.1979723820093576], [-0.014470415977569425, -0.0029236595860993027, 0.11717142509697424, 0.14142793277423407, -0.007477159025557654, -0.04170631216934324, -0.11694320486906586, -0.19872562899393625, 0.05908988149883423, 0.1445483946298633, 0.048674367344265605, -0.01425830044062461, -0.22549099973972375, 0.0008121819752629441, -0.12524092366850073, -0.06964435014616863, -0.26098914686312885, 0.1989070951608787, 0.028606306077439927, -0.02161702283313441, -0.1879710014195898, 0.19052769868933037, -0.02304593690747586, -0.006700650849620399, -0.2089777561364792, 0.12207772171892847, -0.19581692805028952, -0.23169854707831167, 0.11014883824374772, 0.030799784738907345, -0.1401509143757546, 0.22760319756138314, 0.09259787689126296, 0.06768995243933015, 0.12630357643681828, -0.06622155472249734, -0.33026508890245543, 0.12503252503640902, 0.21069623352812206, -0.18607187928735858, -0.02203087405125443, 0.006074496480236778, -0.12290115769633402, -0.055191236822110246, 0.030663683159712067, 0.001184407915016639, 0.14033041891160855, -0.05427196317092647, -0.03272383846125745, -0.06687534274758979], [0.12612268883505004, -0.06506304644031542, -0.029665836723811078, -0.04533462905058498, -0.030340796659414204, 0.004891523154950797, -0.04245394972546444, 0.015412374834706323, 0.03126084505967626, 0.053669999046765886, 0.16253918593943828, 0.15272689977027004, 0.16108343431510114, -0.052686551465941193, -0.15917257994487338, 0.2554203094203877, -0.27034487662672757, 0.03839822289964531, -0.011330281933288408, 0.23042095608687738, -0.22455767597588958, 0.2946188129170234, 0.13672370214309307, 0.07206204536892705, 0.06026246209029587, -0.14262103846957866, 0.1295388056291148, -0.0009079441753021978, -0.11317358930301048, 0.1991935667471464, 0.0885478865631756, 0.22714217367206477, 0.03317948456378691, 0.12524511311439057, 0.028151118914439846, 0.16040039188719118, -0.16678270599082015, -0.09302966765468053, -0.21541318508521035, 0.09625750189459768, 0.12414941797580037, 0.14599025604270213, -0.134339521886463, 0.021800109207175525, 0.1386811549900094, -0.004487266220616906, 0.015885037066250024, -0.04816405575042446, -0.02154606141545977, -0.06771827099760577], [0.03808656669493307, 0.14144522002444965, -0.12866189149537838, 0.05189315081945925, -0.10703817902956671, 0.09863691631751703, -0.15576078789239364, 0.02380749390973234, -0.016009576260094294, 0.021860289193381965, 0.028961521969475913, -0.18647257645475962, 0.07226316696376642, 0.08405235475794312, -0.14859743147476548, 0.09499631244318461, -0.06973462393348195, 0.11253873453214537, -0.1184573443286713, -0.07966619017292643, 0.06352612002096693, 0.013775772940711969, 0.19661461358867705, 0.08562686181805396, 0.10381469558672922, -0.11025638959500794, -0.02076792825926512, 0.12527090443181318, -0.04647200835172155, 0.1014017956347628, 0.26726984757975536, -0.041726706875959654, -0.24583112001167803, -0.15674486515758582, -0.23660688111262854, -0.2842838498565593, 0.1134949283269377, -0.006179960020042809, 0.2885529487572552, -0.0018551840496632396, -0.0797993078093464, 0.125118285201268, -0.033431615349794004, 0.012929723825972364, 0.03187191574085791, 0.1056707970386841, -0.3968523902632239, 0.035537602585303536, 0.03043090836036951, 0.07745104669189487], [-0.155098399496968, -0.05908038086521785, 0.05145836371205411, -0.11769913244871603, 0.007451425135500662, -0.23037835998910922, -0.16130390872653771, 0.13704136702046935, 0.022281114664871243, -0.00158275269765316, -0.0657989730154147, -0.13049696483975196, 0.016954841778562664, -0.2245730710686344, -0.014807439958284463, 0.025840217712565092, -0.14339442717386397, 0.17953780106074962, 0.12072679325820253, 0.26738494999933166, 0.10944175442148553, 0.07302004409844198, -0.0020220576091757466, 0.20719667816238405, -0.20423730421561437, -0.01635818813468953, 0.13187803778988988, 0.08593491698350054, 0.09020627524202426, -0.04289003855681252, -0.0055771163441143265, 0.11712011185945252, -0.05712135398782061, -0.18751710002124863, 0.028888144715821074, 0.13042472536021596, -0.18043131720112782, 0.1797437120105863, -0.05219647993727531, 0.3165025319367043, 0.044690402935113775, -0.15774299468726877, 0.051567348427594355, 0.025836606916162477, 0.06817566888355252, -0.07679070746060623, -0.07667615634374697, 0.14277887201187398, 0.004383528769098164, -0.11860503593367286], [0.06006463178033423, -0.10426109650077593, -0.05482521987102581, 0.06669490474423953, -0.17778795209090992, -0.1633435406588767, -0.06653426136734596, 0.005073012738766907, 0.11976227952409955, -0.006645279955026767, -0.08822672785946482, -0.15863439440962035, 0.16937072588525376, -0.03563103400567044, -0.030058704253003526, 0.14454550477001363, 0.24950980278192186, 0.02489812862137327, -0.09039673004618404, -0.18492305523122296, 0.07300955962354591, 0.09378655009999297, 0.04188001607771286, 0.13629173269462866, 0.16698513970397516, -0.07058275048705365, 0.08098663908563382, 0.0729491411149142, -0.2013478570289235, -0.17085366838970992, -0.17296767461422807, -0.14928523856219317, -0.035511701198003176, -0.09801811366856186, -0.06061448454633654, -0.04211567274313165, -0.3586474768862318, 0.13418679923854754, 0.042561052194978966, -0.03666925256246273, 0.17667600289648366, -0.07258043652079003, -0.004520708116453183, -0.14177607655973817, -0.03180217915131337, -0.04141074356904077, 0.17401854346226922, 0.09827579770380211, 0.2447690604268409, -0.07161639064226961], [-0.133415631563171, 0.09387792210361384, -0.19587717770324192, 0.05526028412866561, 0.026278246638093413, 0.09768117895624893, -0.006439281705227452, 0.021114784756666307, -0.0675690940350761, 0.1982416167332122, -0.028364296914693575, 0.07438866935808372, 0.0325376133493323, -0.14923518831253524, -0.16184866911651596, -0.2530588500566072, -0.005211649187654581, 0.01626208525531877, 0.024286919079139456, 0.23990743117202068, -0.1138698415458839, -0.03218732678658121, -0.019294981001159815, 0.029711933749008136, -0.1522689651593378, 0.07539974498695229, -0.1416147175575154, -0.20217236767074823, -0.1182914104011418, -0.08241548075158617, -0.17044232251947397, -0.18667423470910613, -0.040898085922125876, 0.05442919247997071, -0.035353070345491094, 0.18175228282064188, -0.15798885385219896, 0.04167304588198197, 0.009760123172138445, 0.3065985346194666, 0.09333615459530416, 0.27152805219602183, -0.1784575930890237, 0.27339182791684025, 0.014718589048822166, -0.04473932816945694, -0.14538045921024426, 0.33992776863126395, -0.18907129567431324, 0.04417868671120312], [0.054586643233257015, 0.27484660662788585, 0.20196258973299186, -0.16894338435686376, -0.08867115530533402, 0.0524284449664618, -0.25321091061847123, -0.22031772458917973, 0.21758733480161055, -0.14343342841973558, 0.17218741780163277, -0.08635766082988527, -0.11982213358158299, -0.18489612415309506, 0.2282300692887732, 0.01118395270898489, -0.012228429074511745, -0.08581889579845281, 0.09858480670490341, -0.048748989596587425, -0.08034843731456606, -0.03063409395285141, -0.06492818952635308, 0.048060678518140026, -0.11009848061050125, -0.07229319053203428, -0.0728236809240748, -0.18843828741374424, -0.10472610031725232, 0.23373197603438164, 0.042240838830719316, -0.3318465894481907, -0.05956556020808461, 0.07036011895764462, -0.08472977073687644, -0.06896837893304632, 0.08633681617312455, 0.203605764304176, 0.07622999499214304, -0.06626291626246426, 0.42959848305114057, -0.2719347497828456, 0.14934119301421075, 0.09676683088593929, -0.19436648074565913, -0.39902977363222764, 0.14867175639503907, 0.17467489479046622, 0.08351042826754614, 0.08493266152945142], [0.044013633817914635, -0.05546812701823775, 0.0851490659341888, -0.10466204477846806, -0.05936702974301292, -0.18442476047313283, -0.01628331997188182, -0.135088630537723, -0.1213572459209836, 0.07689244050936321, -0.06360312739244307, -0.14421264422525457, 0.03452572144366393, -0.0934584860188879, 0.11331596639790824, 0.08131691011874698, -0.09335415100242847, 0.03319094774546923, -0.0978683540759352, -0.11642158640410685, 0.020183091044185857, -0.06867407499691731, 0.16965761408466343, 0.01867783151040894, -0.14931740876413052, 0.13336226702583695, -0.10874749664888507, -0.11315440477457106, -0.054035817389704185, -0.11005781507196646, 0.04049290245597215, 0.2629497016517414, -0.031151676678121448, -0.07127805076250272, 0.1534138894168476, -0.06617567109124754, -0.05679477753571225, -0.000710835397946203, 0.016828904483777853, -0.09382091295466705, -0.10588263548785208, 0.022091385906407544, 0.1730642496603897, -0.0528854944854793, -0.04035196950635892, 0.08323148922047925, -0.19313820032394766, -0.16965075829262402, -0.03846366135319712, -0.12562093514244824], [-0.1777796085393257, -0.032794709197249014, -0.1766074429917339, 0.14275331563131427, 0.12290630665136155, -0.1377230430091734, -0.17754061916252584, -0.013353235398786318, 0.1594801559161143, 0.013385296053074308, 0.15426387415739126, -0.02282059870975434, -0.22433845424974624, 0.144105685019808, 0.04619816631046266, -0.06399369535397528, -0.05424194033124131, 0.22981524249238033, -0.20702151116219022, -0.13832378426803144, -0.014762110665625095, 0.11270148923473532, -0.04002351407157122, 0.03636209536770255, 0.19069978264241458, -0.2643526477494988, -0.061500061225496554, -0.0280277032506929, -0.21566833052129622, -0.0840434025471465, 0.12493439448310079, 0.003284520212536612, 0.12256888503874099, -0.1295810746669547, 0.05220246286446471, 0.2435750912347523, -0.03299828820467782, -0.032715807218058716, 0.06548734005805222, 