{
  "BatchSize": 1,
  "SerializedLayers": [
    {
      "Bias": [
        0,
        0,
        0,
        0,
        0,
        0,
        0,
        0,
        0,
        0
      ],
      "Weights": [
        [
          0.13945873486478147,
          -0.16301892615570276,
          0.4956828228814641,
          0.14589602701512414,
          -0.5434297282923423,
          -0.19322750917942833,
          -0.3762388776239898,
          -0.6642804971891269,
          0.03973113772281554,
          -0.1961093959056566
        ],
        [
          -0.15182499470153193,
          0.871921422529117,
          -0.20913585064489046,
          0.4116620926132277,
          -0.353502977783418,
          0.2555129977854519,
          -0.17220476664765544,
          0.26348363746315057,
          -0.5294776765999193,
          -0.9947673761424084
        ],
        [
          -0.20522396593667128,
          0.7370167403467899,
          0.16939259518379204,
          -0.3641706496025313,
          -0.724432065672306,
          0.7427276535158622,
          0.2475287268030806,
          -0.1150337979858376,
          -0.4869691627600194,
          0.3015770371507321
        ],
        [
          0.3255701494921524,
          -0.04662427744480853,
          -0.31238796935647956,
          0.33524487646712287,
          0.5837964779993347,
          -0.05155946785325645,
          -0.8768395354782578,
          -0.1252857501751395,
          -0.23923636447429683,
          0.10510962136584502
        ],
        [
          -0.04003230754611072,
          -0.31037171247828976,
          -0.40648496759160907,
          -0.27316744428867973,
          -0.20335010066908835,
          0.297220584528386,
          -0.5434657456921954,
          0.3454557625559898,
          -0.3560995889254393,
          -0.15689700656020966
        ],
        [
          -0.13269971994933202,
          0.19247860949094525,
          -0.17774613093528846,
          0.23169519469099023,
          0.5493372783772889,
          -0.24231640056109088,
          -0.361541576334459,
          0.13889322018026176,
          -0.006273580060049441,
          -0.17980463736837254
        ],
        [
          -0.03738087041798044,
          0.2626410274781954,
          -0.13958213073375886,
          0.2585259011629975,
          0.014860805726342232,
          -0.5128206537418541,
          -0.29419426837867985,
          0.67588402630075,
          0.07131934238666968,
          0.7643527657380208
        ]
      ],
      "ActivatorType": "LeakyReLU",
      "GradientAdjustmentParameters": {
        "LearningRate": 1,
        "Type": "FixedLearningRate"
      },
      "Type": "Standard"
    },
    {
      "Bias": [
        0,
        0,
        0,
        0,
        0,
        0,
        0,
        0,
        0,
        0
      ],
      "Weights": [
        [
          0.14539081373139864,
          0.05176960146006587,
          0.1875097599462963,
          0.45854780640819176,
          0.5494664533893661,
          -0.04458909751958683,
          -0.3366250794986425,
          -0.07797494584919076,
          0.31185380094073706,
          -0.5727424914891448
        ],
        [
          -0.26444615042281616,
          -0.0007428345580353821,
          -0.365580049239472,
          0.2775907225443033,
          0.1957896394977776,
          0.30008848876646754,
          -0.3801328838840025,
          -0.00695405266886534,
          0.0035629577473656783,
          -0.20037866080713487
        ],
        [
          -0.4119259614812299,
          0.10322232194042781,
          -0.417829221988625,
          -0.21899567334921374,
          0.17317276113966548,
          -0.021326046937484324,
          -0.09242519760160799,
          -0.10356446477805968,
          -0.1312937347496718,
          -0.10155656597042492
        ],
        [
          -0.6924578889552578,
          -0.26161559678799245,
          -0.3581274882448243,
          0.13788789812389782,
          -0.5182792463059979,
          0.12325764446423934,
          0.00462035743164034,
          0.5344403054030198,
          -0.4523616322764168,
          0.6972048939307741
        ],
        [
          0.6246844820009579,
          -0.04192460242367067,
          0.2868536100506839,
          -0.43602237840749647,
          -0.07551136044352913,
          0.05921891847781623,
          -0.04247057403218761,
          0.43784402661104144,
          -0.40326403373529185,
          0.20534363643263454
        ],
        [
          -0.04693605312234818,
          0.007551964512709537,
          -0.2965027026219771,
          0.04022940304838442,
          0.008067516476800115,
          0.048304057439736064,
          -0.05354130011046053,
          -0.18715970323234296,
          0.3522409419874003,
          -0.16631952505620873
        ],
        [
          0.5673238114275934,
          -0.2452269673835217,
          -0.015933051201131497,
          -0.24826484752813963,
          -0.46111349823172126,
          -0.22500462683626385,
          -0.3526429739041806,
          -0.1419315774225018,
          0.11187644787153846,
          -0.20385876244014672
        ],
        [
          0.1027430671368905,
          0.10830022547103144,
          0.2900154416569053,
          0.46039927313675855,
          -0.17084743961650106,
          0.307845910990665,
          -0.10657887323118999,
          0.17991256450594223,
          0.3738645077381152,
          -0.18209001581763354
        ],
        [
          -0.014285863466743959,
          -0.14425374979992386,
          0.2551130388456085,
          -0.3100855832835003,
          -0.4242429061185861,
          -0.3291669455039602,
          -0.28868691700226334,
          0.3227985338693017,
          0.5957370618109261,
          -0.27510524357269506
        ],
        [
          0.29031496419463626,
          -0.1259235534407704,
          -0.5092747908713753,
          0.2737158193516886,
          -0.3379561462879194,
          0.08575996024584975,
          0.13656380329983478,
          0.07947239580548725,
          0.03299863133654961,
          0.4813666544845067
        ]
      ],
      "ActivatorType": "LeakyReLU",
      "GradientAdjustmentParameters": {
        "LearningRate": 1,
        "Type": "FixedLearningRate"
      },
      "Type": "Standard"
    },
    {
      "Bias": [
        0
      ],
      "Weights": [
        [
          0.33703229014859215
        ],
        [
          0.07042447681312708
        ],
        [
          -0.29323338784669284
        ],
        [
          0.6549509257630627
        ],
        [
          -0.09744723232642327
        ],
        [
          0.01647699465688769
        ],
        [
          0.5013081243233198
        ],
        [
          0.2689085220203335
        ],
        [
          0.04536784875817473
        ],
        [
          0.1799275439025995
        ]
      ],
      "ActivatorType": "LeakyReLU",
      "GradientAdjustmentParameters": {
        "LearningRate": 1,
        "Type": "FixedLearningRate"
      },
      "Type": "Standard"
    }
  ]
}