{"BatchSize":16,"SerializedLayers":[{"Type":"L2Penalty","UnderlyingSerializedLayer":{"Bias":[-0.017557310659619716,-1.5771350622188767,-0.018227270934015591,0.022383655723042177,-0.024319340917122609,0.42204020388416613,0.0027674114887206742,0.0065738098990582652,-2.9966796719123483,-0.975020545110152,-0.0082687369832075332,0.026070705645036153,-0.036705335906270592,-0.82945759482286929,0.001070793816938885,0.021733001866054182,-0.012086021250796993,-16.660558850341744,-3.856173250549662,0.00053040788208156837,-0.0017241141736386908,0.000564576739052002,-1.6351793484821791,-0.012404389402492172,-0.058717001913573222,-0.0074488891311927808,-1.1540168913561906,3.4234863127802839,-0.059408974526644669,-8.5911915839735542],"Weights":[[-1.0939324008988227,0.010201743725471548,-0.99112061847073762,-2.5673122249244535,-0.19796645134027857,-1.3046066512081052,-0.67951320328439346,-0.70396797186077908,1.6286569267068147,0.43841290306003355,-1.1320830554123365,-0.418677881414723,-0.21305247018639137,2.0910159788240241,-0.031698622856551111,0.16428397848366605,-0.68913841017595479,0.16992895664893418,2.4778126694624967,0.24571907822863284,-0.44671838683571696,-0.57964816564178567,0.0676182877084277,-0.58177583915987063,-1.4527643442192748,-2.0536788378062294,0.69559357060409588,-0.32306819829463157,0.28933792374803108,0.36970298686958369],[0.46041177971820912,-0.98355178018923728,0.34473133595837246,0.15446545522029229,-0.7023190446963038,-0.45980629414142893,-0.089216948525100023,-0.37955319037793589,-1.7997700473657514,-0.01202566256285446,-0.68796173298080943,-0.45682364056546576,0.1543798504527554,0.62292398879057864,-0.022448975013048728,0.0475114169641651,0.40871865895855031,-1.64003246995454,1.7530631656827194,0.071758541574465234,0.65985719908865637,0.13348451211984616,3.2353206391082656,-0.35595539374300905,0.28681718558935287,0.33490506417333632,-1.9782526328244598,0.24242392541638161,0.0663438172554164,0.5278039195200549],[-1.0068640722542614,-1.07191132826181,-1.3265523503040861,-2.2808764925463212,0.10024846970884255,-0.61950136389678012,0.024161601025030732,-0.41140417831601994,-0.912165240750316,-0.95546174031413,-0.75853165790932053,-0.058235303183662532,-0.8982579505581656,-1.9771026845414939,0.0086916636588825636,-0.18090218989079468,-1.1357726689636465,-0.074768475304212142,-2.1476457538859397,-0.3849830016548354,-0.22522512651348584,-0.46884626957842451,-0.059033119868983866,-0.38297330888464559,-1.7034275204093647,-1.6470598791422779,-0.92264534428939415,0.28333939083280446,-0.748861263664687,-0.39415041145855384],[0.33459558101539083,3.1027316205008297,0.30897910554703023,0.1340964070384994,0.52783198646541973,-1.7970603876460471,-0.06828492839455147,-0.20977371671734277,10.106331643779338,0.92207962350215478,-0.23764969406321948,-0.1328969406192631,-0.11365675314146864,2.1560498907937253,-0.5516740145982989,-0.0530428542716425,0.581789243515193,35.959595771322441,4.96962084766676,-0.16099846260211587,-0.030537526947487053,-0.14879151100785681,12.820106653014145,0.42127179257744191,-0.60096826946739013,-0.55178003450224766,1.8873139957217289,1.0351187374768818,0.23743867812454106,31.661374510956751],[-0.53233752590327654,15.986018589362118,-0.20034352201155431,0.28400631241574331,0.670337227711954,-5.8608946585650861,0.018929533632575716,-0.1328767098931575,8.8067854257593581,7.4307243925854216,0.23760237125094244,-0.4361750801585913,0.34339883827844025,-0.35401744277076574,0.24580611968903843,0.25946189188417706,-0.21173433456334612,4.0906394231848688,4.3140725222084191,0.15512401831723921,-0.15116010308683059,-0.42311610598561267,-7.4412325366322012,-0.012160860653565125,0.50567183018183137,-0.21172180786184625,7.90995826765972,-5.91032959269062,-0.29120697847943711,38.940571799503431],[0.53039809128032644,0.2663163943899195,0.12931004235518787,-0.69632475301031882,-0.23749653143469879,-0.32574012335111691,0.29426675184183704,-0.50774528522862017,0.01399120076115426,-0.0084765610879836469,-0.20897151597892033,-0.11269124261637487,0.53272394220556851,0.23279998487560366,-0.53579676440584778,-0.13320971344230267,0.20902198650619114,0.22052715844776266,-0.14665371272614194,-0.030833878572476041,0.42594674166390506,-0.3253246499589485,0.36579482130681112,-0.22233759847679793,0.33234094107724177,-0.19411669999192907,0.011765381121242558,0.0953677196788195,0.31374181275512164,-0.2856628000127342],[0.36158539640766379,4.3729960470816387,-0.044129046897999791,-0.1644038860961243,-0.23662407706604405,-2.1339131690635122,-0.75382734906185633,-0.53955064167458433,13.847239609736848,1.3848673773152025,0.0036312401840829793,-0.0972955011498821,-0.017134309355791175,2.2483385622131342,0.18882667369907652,0.17836763480158718,-0.27713303899843861,47.715183033241821,6.6396425098702609,-0.2425259214249931,-0.19715441634467854,-0.252162402274752,17.686272164070296,0.23847106933635964,0.69025401342136439,0.040832740949618584,2.3720266040522771,3.8338595649324962,0.46222234832479386,42.459353569518143]],"ActivatorType":"LeakyReLU","GradientAdjustmentParameters":{"Type":"Momentum","LearningRate":0.001,"Momentum":0.1},"Type":"Standard"},"PenaltyCoefficient":0.5},{"Type":"L2Penalty","UnderlyingSerializedLayer":{"Bias":[-1.7603068997805429,-0.015180636915558803,-6.2086703671740571,-0.013298849571141764,-0.007705543502720966,0.038452060248802079,1.0059857208447023,-5.1374201019661578,0.013503116309456513,0.0064718038512942937,-0.19076373064570878,-0.58797152633935457,-0.11894871520047129,-0.05679929625196329,-0.0060690448959276029,-0.001972198992661745,0.024059005696298031,0.18837435693485094,1.8591675785820772,-0.7574121320640933,1.7603288889659616,0.082373081422894234,-2.3899948158838793,0.15053007302357382,-0.0058646863915640772,0.0078912185147046211,-0.050202397102782931,-0.18090063655101388,-2.7855223862861509,-0.065596475878959851],"Weights":[[-0.3903715429306932,0.025782727013206771,-0.01257084589393718,-0.6321799248707558,-0.16470699462543106,-0.019910148081367346,0.3163642552649848,0.012384437320526749,-0.056449535283496929,-0.23916517096718784,0.063701109098262251,-0.2278459535265962,-0.10772425419979555,0.036035529897573991,-0.077664220559470934,-0.023431810259644508,-0.17198695532937272,0.61712443602917133,-0.67149743693705743,0.25255089201256692,-0.257177407594886,-0.89833743140921218,-0.2767040656918488,-0.10754091073494589,-0.46990290208660462,0.13389644952461516,0.21536029151342687,-0.34878143014960772,0.26057504421207267,0.034192324166623121],[0.29374250974949273,0.049009891815449881,1.4131468455917142,-0.801761801746262,-0.1054681658181042,-0.0541779830598892,1.0898695537697896,1.1874827530867271,-0.54296354573580663,-0.093502852699713077,-1.506524975271994,0.3405910280589291,0.11750856579371519,0.11234629321044973,-0.35797546552157988,-0.15967210807639057,-0.2428012568245955,-0.56230369842100347,-1.9882496245516397,-0.030579174663139398,1.2965587272695354,1.9409670250783828,1.4710035512172941,-0.43428643091838826,-0.0872974366120782,-0.032088577315391109,-0.39357542894157543,0.053995782838055513,0.55427594839363414,0.21614628339596656],[-0.20872524861227482,-0.10208196629551194,-0.18820569754336308,0.0650394406417327,0.11044875345702206,-0.36309999480663319,0.34907773952788179,0.15421116066333176,0.25607050985705737,0.13671338892343754,0.2245886994171398,0.079657199552682856,0.0204317179918307,-0.17998768443303237,-0.2470127854762556,-0.038801774620613058,-0.0039013849208910855,1.1172986524968216,-0.47824608924404433,0.30193286943297032,-0.21446057696663615,-1.068288001909848,0.020686277345287486,-0.30316205346292907,-0.049743392549299867,-0.36049676283084064,0.16803933075534985,0.11111647404450249,0.24518098756607729,0.21400742003246429],[-0.28076706505502569,-0.1920116170934322,-0.70683427167261681,-0.28741241358269959,0.0012840821262968486,-0.34160789548139459,0.74241363519356873,-0.27488803785434957,-0.022495647723580241,-0.1771126990062448,0.71859232375565651,0.32273401367397692,0.43391355859506692,0.13361872776057374,-0.39976652859257,0.1467891505073029,-0.10530783640883772,1.6921475208860617,-1.2232390602382186,0.59840257430270027,0.019129318744735297,-2.0002993404021567,-0.71211628363963475,-0.5129070281346545,-0.302789441451168,0.03488450017861628,0.06038263063297674,-0.079318192024016965,0.16771014301768686,0.21928074538727044],[0.15217641228522114,0.10502383682166161,0.17076750588790135,-0.079226248924904208,-0.26860598999181778,0.10437548061452405,0.066824529931393817,0.056275945064114472,-0.12060202232887914,-0.22421658197124117,0.19110562832103886,0.15872264471498196,0.21468945735261738,-0.21536991891288421,-0.1973675727956799,-0.106238173289562,-0.24382498979861098,-0.28681808415746679,0.092263402172659964,0.033929018775106692,0.0068306623072805972,-0.10148939453945431,0.10744815379556445,0.059060285772296578,0.088475513979270753,0.16622327919792074,0.055901840543450154,-0.070100777980634021,-0.063728860213540656,-0.022475720765295554],[-0.268197711425152,-0.0048003558490176792,-0.73562995218180061,-0.56305511179836343,0.20123292640614762,-0.22411647616085556,0.43395521895912587,-1.0867148060954983,-0.19617004703892871,-0.037146583265761257,0.48274897513891468,-0.52816029117966434,-0.43107595062200732,-0.097353327113438429,-0.43912304839332245,-0.1350574735871124,-0.45040974515643117,0.8694117834695827,0.4730983850913893,0.21691022687754996,-0.43271729774327194,-1.8047720001431535,-0.93868820216852378,-0.19360648367517919,-0.078460367417053,-0.11306927670848305,-0.080232094359155584,-0.42264583827670543,-0.37589001956707069,-0.026976969155752352],[-0.052630325334000076,-0.371605776907942,0.09548091742193765,-0.24232789918925365,0.17477901384732442,-0.093892479202707227,0.13068157560601407,-0.22565880303520852,-0.16219806853992627,-0.51110886532833744,0.30872037934824309,0.30052590842595034,-0.049365965937340613,0.07920776699228313,-0.083454065344528566,0.048647407452974654,0.31270802555372612,0.28210991673433772,0.12397313611140369,0.05946484739081026,0.061166942690829493,-0.59317723796107624,-0.23776847499888765,-0.10553592120007505,-0.093448651674014047,-0.49819031793061797,-0.087348159586277244,0.29164624558503155,-0.181230083403864,0.26128676043869392],[0.018946865495612246,0.16512491760137776,-0.16545493994540111,-0.25778803398062983,0.040253970068477668,-0.0876107175301521,0.39047357597259963,-0.12645849043593868,-0.088086186105807665,0.13798488433303618,0.14577940758366367,-0.11051255278823621,-0.15360203349271692,-0.23716171160414221,-0.035134036779447909,-0.12516432001693051,-0.016959125474473556,0.36543369840307627,-0.15446140978273384,0.086520621409366338,-0.21981792744124942,-0.77515941222617935,-0.081458278559081512,0.11338874216871482,-0.42981576557912043,-0.35018477923106445,0.11218868185696319,0.3504057603499024,-0.1441139552012653,0.13397168705139795],[-0.044084175375794739,-0.20482918435693551,0.89405826968252522,-0.47304449097997819,0.032534831673176119,0.35004503894487338,-0.79344888333302743,0.19900290661981235,-0.47021691861089565,-0.11002263733480075,0.38577413751742495,-0.40606086023388654,0.3148827431175118,-0.14941696739772231,-0.16560514016505315,0.013030934700903035,-0.515953690057856,-0.36443502501220437,1.202173246941203,-0.75788882719407491,0.30759976930029648,0.22437744564037812,-0.41430690365981343,-0.47302583782881252,-0.38304007410873858,0.23144835443632289,-0.91508917151628422,-0.25702170724571227,0.26437560896803891,-0.10662642917550216],[-0.032389535261082382,-0.029597319975599688,0.75195651191128066,-0.24096925743300121,0.10019674652253896,-0.20038858691022304,0.31376351652488937,0.77182881864996211,-0.21111613392579928,-0.11370794952715563,-0.70755863793646012,0.19902629278773407,0.23800479975364919,0.093510012849037413,-0.16751089271131373,0.022006614460256486,-0.1139729656616376,-0.066302389272675968,-0.93868607531218,-0.04309329785153556,0.33969046577846967,0.1555515788092508,0.62373432571912146,-0.19867003029993977,-0.092732978927201143,0.15597571330262655,0.19068390808919844,-0.19757168874027067,0.46130408446118404,0.079867830464392456],[0.0613560152373776,0.34915691875245036,-0.0015186934499074683,-0.1388448959739865,-0.056629316103340079,-0.32186842909778768,0.44312041696640664,-0.2879033055253612,-0.24648186696365343,-0.17846521593287157,0.33491934533444506,-0.15295654730148042,0.071419285415796938,-0.0014131416374068681,-0.057512823799458108,-0.072898349731129589,0.077203073956947352,0.46597746227299863,-0.6058101826686435,0.3838686817727186,-0.15050527442768052,-0.8271526436974157,-0.34608494961705566,0.30619859313413572,0.33038947604604185,-0.096244321420568282,0.42858950606665241,-0.04401939465050865,0.19243043097210461,0.24018901422956218],[-0.12822073372727069,0.034169945019833607,-0.29961055888400495,-1.5320934277672658,-0.051801157479198778,0.12921008305383375,-0.30983410106361281,-0.042180050020704261,-1.1745841059733495,-0.47871593044826244,-0.17080727704843904,-0.37735530481298263,0.010143295841495261,-0.12393380466045062,-0.59062425477633851,-0.094212156027647251,-0.75830609200490284,0.42198119532800266,0.0076748302549203007,0.16573444317550276,0.24137366436830435,-0.50305935313117123,-0.10253279676157197,-0.43568802674773183,0.11638764058712636,-0.14911121535249594,0.0061839312138403544,0.10621991075902791,-0.26747288576875972,0.55000412840009794],[0.099911174972951572,-0.055803480585334374,0.24456646265990609,-0.19460740740955013,0.24911234172846197,0.10988224427539374,0.21119143752744429,0.0636551885154739,-0.096011665683595107,0.25437555287386926,0.13738734317358758,0.13437716913156517,-0.062952018198255355,-0.06632938000909544,0.031953843190382504,-0.22020661225415708,0.016312986527054433,0.56383068984299867,-0.15078594049552788,0.12712891664604981,-0.3197148171253435,-0.64344997264617732,0.18547019260252273,-0.0625943587360488,-0.036584632931475736,0.21949963099056527,-0.1801049319551242,-0.27446521454420542,0.0691063145440304,0.13025679146891003],[0.63449385116772361,-0.019384074586779647,-0.15455083366378006,-1.3355848066102645,-0.021669859958899376,-0.18199453619678771,-0.32964444511855984,-0.60301999809968043,-0.35537827208535633,0.0038987517876123536,0.74516274094811552,0.1448981185009009,0.32434229106888829,-0.34337188274227232,-0.3212834587124242,-0.09990144484573589,-0.5395041070220874,0.044474611394605131,-0.84158842403198775,-0.19069288091718267,-0.577125846741228,-0.086720169014807946,0.98281394977229874,-0.13310286180457268,-0.16590035591964381,-0.2445011486963278,-0.51215618526413553,-0.30111927087403051,-0.26459212862792014,0.23118504100456561],[-0.13854195423194177,0.144081480408002,-0.010237309214380746,-0.059286326005150047,-0.080595925803035151,0.045738637320012349,-0.0635520064397547,-0.10938945040547612,-0.084451021181502134,-0.20759447931624908,0.066049098309466633,0.058005180254545451,-0.49460858630905524,0.17798562014739383,0.011457816597544586,0.0035522341153281602,-0.024607477786095084,-0.38194369406792378,0.225215609333349,0.25936212434131556,0.13378001378546231,0.34005766547429095,0.016430483639815106,-0.0776796731791121,-0.35601798028649917,-0.23090040176984467,-0.0646927229192939,-0.11944032097423206,0.11581038954702698,-0.01577830330627715],[-0.13653218473401965,0.31870218686612728,0.18246246526041493,-0.25829851961332423,0.1573428656832484,0.17948992125951588,0.018431216088906764,-0.028857992357177436,-0.036743373827984337,-0.012586470715514572,-0.07150957692143739,-0.045226803334806449,-0.33486938597650112,0.11404295186975896,0.14922401816461337,-0.13601203958389088,0.0023804744690418245,0.13709851772648485,0.38790451396044834,-0.12389975691204022,0.39622192202324069,0.097210586568491908,0.03037854213568713,0.29919616810673288,-0.070544451910607,-0.15237489861185483,0.16340271307041168,0.1934157136007944,-0.1581930254726579,-0.22318626352757653],[0.055116669874575523,0.080253116865343227,-0.25284133732575415,-0.45680834111197488,0.34979304484031726,-0.12048863684697689,0.19573541220282029,0.00924217046820914,-0.36984931851234609,0.10402226132700915,0.33323567687843814,-0.096840913990787661,0.19751129996215086,0.26365392378394803,-0.127835965717303,0.13022192946606559,-0.34843634702082832,0.57578813984967436,-0.46829299274406661,0.71090417801261607,-0.078807384765999786,-0.58426637645492374,-0.13796008035692112,-0.42808591929711981,-0.128926202180873,-0.10597574171308005,0.12165736949222321,-0.026862745685771017,0.18438700258805577,-0.12273247116610347],[-1.1136102765511473,0.01098602676312422,1.24987494028033,-0.37463409928636454,-0.48704489055924072,-0.84146129675442594,-0.36238696748192417,1.4840220546438987,-0.505398028619818,-0.33583939714251687,1.1335993710838672,0.87767894933127766,0.42878001714168557,0.01498496826361711,-0.22042410471335391,0.01667315979866834,-0.62617398187460316,2.7767624447991461,0.40774770874535177,0.58963736153138246,-2.3904191532727395,0.91264242148775609,0.30677121992027406,-0.421527640905918,-0.22987939343462011,-0.32842519593614972,0.62534579736257512,1.0016488562128916,0.85955940165126932,-0.26529245180704236],[1.2713830871144354,-0.44247378701459444,0.86350017084958153,-0.0970463971932332,0.30352665337876306,-0.037555038923407,0.088867287408366469,-0.59387333208840754,-0.24982508491910171,0.15611290420740462,0.047203460017922472,0.57280993309916872,1.52588705950345,0.11242414422239148,-0.278443211483534,-0.17178204787071261,-0.12221980768322172,-0.086723297023474061,-0.20194356413708317,0.47616560984452455,-0.21419776813505206,-0.50127227630929772,-0.13336555849995616,-0.12424637238549445,-0.03424105534456507,0.67769233981707244,-0.58195223814435093,-0.39059345389532713,0.18505561205574689,0.33720862265190177],[-0.10677578567994858,-0.09313711566792128,-0.14343084536466749,-1.0933731438986831,-0.024795383292377828,-0.11933972875822095,0.19203942596807089,0.19643728379256972,-0.65417761193359825,-0.026338361413017944,-0.04660027198729054,-0.2085032903378235,-0.098859467637336551,-0.050500810395722406,-0.50486728734149189,-0.11016521832682773,-0.10182978640114641,0.038301081638091275,-0.075960890688077778,0.22155142548283441,-0.39633701650900527,-0.10174530948778214,-0.15753371832143445,0.0736118809311359,0.11972433018779455,-0.11696403047902206,-0.38211261745250458,-0.13889383845477321,-0.22176522770550863,0.41056795444226551],[0.12046713188459211,-0.1318444004821043,-0.017585331689486432,-0.31416621293443958,-0.054143056978887244,-0.072186199495817463,0.20768456217147369,0.080456348109049211,-0.33268614918035527,-0.035910859049930667,0.27490484821337358,-0.097585980224972016,-0.1036823632790146,-0.11824837171103074,-0.11861101406167847,-0.083142543125679189,0.042896012859580286,0.1120961681000299,-0.012961296929661383,0.11970715195119838,-0.040154073540666843,-0.36330162378721892,-0.22491509835627024,0.032624750012408173,0.1098585114712332,0.10026209240816247,0.031532131789236161,-0.32289287845813541,-0.22013577914533725,-0.00965375413912222],[0.0028451742430715778,-0.167711010583187,0.14771332931212747,0.074436123356070527,0.049179086982628004,0.088123824317817151,0.23090618466578025,-0.058146725259454704,0.50848950578776353,0.0724115640629425,0.38174375703509167,-0.1265032754913393,0.29698444046936862,0.096045898057836,0.068353647676222429,-0.17556218474467913,-0.29100506166469259,0.72713247459140673,0.16037754121659778,0.26683403481784185,0.088113968966255327,-0.44022511982133039,-0.26940453612107784,-0.03040873719264597,-0.02072715262130901,0.14825613134085983,0.14361013875954171,-0.020017940430888795,-0.11286538616376075,-0.19788341004275492],[1.4789021971517729,0.05032188179185388,-1.2099537413107062,-0.84388647266364714,0.20510184015882019,-0.44633420821737735,-1.613569466068459,-0.37644051079798596,-0.89718418479509976,-0.26835578174344121,1.3245670138258281,-0.048799632950978292,-0.531201190403939,-0.32790771601898816,-0.69952975847000221,-0.30866974496994243,-0.61939126201018857,0.93471316879996313,-0.62526454267420017,0.022868965973176524,-1.6141963228278105,0.55493253581011193,0.93429815924067006,0.41631951030200359,-0.19511190107612877,-0.51557816080026142,-0.39474539263624131,-1.2801823957083716,0.49008876193260381,0.054789092124751013],[0.024773933705719398,0.011711893073773586,0.130178301304416,0.21467247387127009,-0.26380507665159958,-0.28337786563111733,0.15699592819683916,0.16543166434313436,0.23762440978918156,-0.1396996427949618,0.076883535956263072,-0.054679409770414314,-0.18294426664297925,0.10613986337526662,-0.16922804797380078,-0.099875694255423045,0.23533745982957272,0.41443378209506693,-0.19043445041149273,-0.28688156114860891,0.13834592929586229,-0.5965016051153883,-0.21116426309494957,-0.047893307168682966,-0.029258422016666365,-0.20936491721470393,-0.099888678093632138,-0.099291124748831741,0.089124775961435546,0.10449594138530717],[0.18295401587090285,0.098295047308998754,0.080877322270543422,-0.34527506560968246,0.07208744870679791,-0.017916791707412703,0.53309621793070083,-0.10957924843931567,-0.21099038243092355,0.25292577946124267,0.60501723050976486,-0.099708649079580838,0.31817765684658378,-0.25845804576972803,-0.12299821523956092,-0.21576310465011203,0.20876111509218845,0.88663999306007535,-1.1776294815216111,0.73050505918647046,0.21324450881297877,-1.1874329124287344,-0.11558557719196023,0.0862131206938694,0.26413696443697549,0.18697922261109523,0.012410853204865596,0.055025067773199272,0.67771660229786479,0.37690567175093048],[-0.27331117756805545,-0.095601963927459732,-0.46046603661286917,-1.0097693174016069,-0.28249288350176704,-0.028644983382013611,0.79300533768920578,-0.15076049554704241,-0.22744603672735483,-0.12164264559474161,0.29109360691476693,0.1674090980665025,0.63140353732882848,-0.31667143593834945,-0.7020381016269901,0.15584444902804262,0.046789309903782529,1.1297771352857788,-0.80396304881568781,0.48135264980464576,-0.32846137102383122,-1.7044629627655359,-0.53875914954059068,-0.1717206692957845,-0.139880825892027,0.090015568094120715,0.16437695443781655,-0.44647396720298527,0.48700363504214589,0.19006861105566145],[0.13390456104983733,-0.23418770778527831,1.2669266879308736,-0.35966862956760681,0.0039616797342364174,0.09260229508234892,0.17888113406380596,0.81282885401261429,-0.76792822021205376,-0.020149659744796128,-0.42426270023553653,0.21336651497257109,0.10215448926302315,0.046740948955299878,-0.4097129531675191,-0.1053649222388957,-0.15507124179111409,-0.39097830586506105,-0.49907897214433128,-0.0032790233578933732,0.39801826839472232,1.3097748098825386,0.80207755161253913,-0.01536870512711659,-0.032540270585285525,0.0984718543942907,0.11876810040056979,0.067745561212522579,0.18562011018995506,0.020323122771146954],[-0.23130860222372063,-0.014660780186585388,-0.18161460568646207,-1.0132077218150049,-0.31690338593243478,-0.42633677040317591,-1.4473032983160952,-0.7292296976356667,-0.3865527891478277,0.08618627750672897,0.67016283307064051,-0.43673180257956679,-0.31785989659147712,-0.14222860765516279,-0.61839379406215023,-0.29500447530439089,-0.60015424901288472,0.11682481613731287,0.18456108971150961,-1.5678758155758765,-0.59771192434459008,0.28460022026202081,-0.063217478630226184,0.0030016645447945695,-0.17882746673279196,-0.669916209824686,0.43441821664511132,-0.031882244192818356,0.70622509351763774,-0.17455664837020693],[0.18472698011666092,-0.064991102304948214,0.17931302388169793,0.26352282725649884,-0.24816249216159778,-0.30191755148574939,-0.067943397396404856,0.57394754223013378,-0.140893882766465,-0.37949220412883417,0.37499310631817317,0.21460272089553967,0.16539413330823483,-0.45763030632674884,-0.013822560384056971,0.080312742263157225,-0.033195179421409468,0.3720102749742798,0.00091045582795967934,0.35550697938463288,-0.14696162786886857,0.12766952382880065,0.18592545642029018,0.32816055342751094,0.15693895151399265,-0.19391776438018729,-0.15381517061975872,-0.16938625352185266,0.43977801286140378,-0.026249113723185176],[0.3287715014071389,-0.3119852899307875,0.23163201747194409,-0.60762659950559572,-0.23661233241421925,-0.21938327088953324,1.5345121776869861,0.50597149929245633,-0.64686267719583024,-0.089173819868010637,-2.0820202466448179,-0.20593834662826291,-0.69146354333150506,-0.048357787147802381,-0.361713206856181,-0.48629826331425435,-0.44619428898420616,-0.31177852063253675,-1.6645803006947715,0.196701727336359,0.83390418144108591,0.803819671152017,0.74695237375631729,-0.34506283354597539,-0.12690600185684406,-0.56153457996609135,0.40654450161926536,0.484119424982103,-0.11724843251923195,-0.16947912548532218]],"ActivatorType":"LeakyReLU","GradientAdjustmentParameters":{"Type":"Momentum","LearningRate":0.001,"Momentum":0.1},"Type":"Standard"},"PenaltyCoefficient":0.5},{"Type":"L2Penalty","UnderlyingSerializedLayer":{"Bias":[-0.7971244885607558,-1.2027800612009258,-1.3114666551043106,-0.011495596616826214,0.23121363020042132,0.022693680648483896,-1.0675975166890717,-0.673787148463414,0.022346804924484803,-0.3356786699128968,-0.94605523234445654,-0.0027669195713321006,0.34988460275976979,-0.060050809353459592,-0.0054426389808266114,0.0021000668803568046,-0.33792515902704895,0.0058515095608762321,-0.0014460368231978371,-0.006005099554472342,0.54844481639956311,-0.0062819053333843661,-0.71843783046325238,-0.0085018932299437567,-0.4848647334588459,-0.357757532481478,-0.333331533259021,-0.015601257581705205,-0.14390604262665169,-0.6589032965927164],"Weights":[[0.75016568737774691,-0.38487506326564669,0.32629582212602615,-0.11067699898727862,0.40222464468886071,-0.079586060665511965,0.61096435235342816,0.32883881947619581,0.12170433625365412,-0.081202740309904625,0.30143386525630639,-0.0759854293857158,-0.8970415064457391,0.17915925706165545,-0.16008226444809565,-0.01333891800967379,0.081071912860915182,-0.084282853919801046,0.010889678801941711,0.4646812614683406,-1.0647220582260135,-0.12234677476332698,0.48667530405454812,0.14413571693424512,-0.81009080369678987,0.12434388165427349,0.21509491321654842,-0.34819379666599742,-0.15486378480687671,0.6576406076353849],[0.017008709705906573,0.194456136413465,0.31607534067248971,-0.059230589831032431,-0.059006534873396084,0.017150613855908711,0.37413000681093733,-0.31880001549089682,-0.20040239795883189,0.22964942738033015,-0.069266080225049556,0.04107231545202663,0.023205518403949341,-0.10454951476463244,0.025509701042859555,-0.2435011028186963,0.072903602461701453,0.17184365685435876,0.047470173884989648,-0.051376638113568282,0.2063639871177724,-0.22947045359286702,-0.091622330290677831,0.02006455380815652,-0.030908113869581373,-0.13912405550245752,0.14567106479338599,-0.15544212184290479,-0.15294034824723862,-0.18675270218601822],[0.62732254435101809,0.14455993834432393,1.3544489841883292,0.14214644146241967,0.046525603098612416,-0.19195533399490203,1.2586492586938962,-0.023113849886253392,-0.017743290749691866,-0.83007653793081337,0.7069030883683789,-0.19923364612037714,-1.2730704294630011,0.12336603726990805,-0.038199054629423974,-0.19372777189495893,0.5442750917573006,-0.18381986716215493,-0.094097823621259777,0.061851718331662184,-1.1632723077482785,-0.338923655500961,0.38088095285761753,-0.33044156518924966,0.94370003890430088,0.38990953711353593,0.036447374604846643,-0.715570392802619,0.31792426833881904,0.80283314133833117],[-0.57296321054126065,-0.87408633184411377,0.033770946202748876,0.040008174537781396,-0.24181855624930757,-0.33354617149743127,0.51723325904616269,-0.21520734285932569,-0.32533068167853091,0.68171820165839958,-0.68526696852991542,-0.13113311817404166,-0.27498559066529554,-0.073101724658393943,-0.54727858360273507,0.19939922525452544,0.310167411393979,-0.29402471987037537,-0.089687084196554481,-0.96866803108475585,-0.38462183082553375,-0.1076750724662242,-0.42687035125226663,0.0034423771263928666,-0.088926281751138384,-0.60596545758505949,-1.0944343417330924,-1.301406145184379,0.26478735739859344,-0.22648490216185677],[0.0086372849581897639,0.30410063863673564,-0.15096186362871278,-0.15651225149263634,0.13956163960952212,0.039773702978369421,-0.17635852757494541,-0.26703082835961195,-0.15620559291209671,-0.52395643952542192,-0.066183625105518534,0.0756427421736562,-0.071463435477122528,-0.35563656095289703,-0.07638159442918456,-0.15599870460283377,-0.0835054146807267,0.25897789918458014,-0.21392348189943281,-0.09087265071108952,0.13661529482824802,-0.28094439570261642,-0.39127928220294772,0.061678137145490967,0.32738496310724796,-0.095286628298871454,0.065701416212170571,-0.14683723514145314,-0.38202315914367785,0.11988152905489774],[0.18293921433130006,0.053701912761604235,0.12970905577293757,0.12462206950905856,-0.21951552542237274,-0.011336662114524528,-0.06522288689056506,0.29775300909246605,0.11737698799201612,0.093293839519560967,0.16463977893364734,0.04905352490672478,-0.096871011131914778,0.34230619083274549,-0.13233936089194084,0.38015635228648054,-0.056606966344594674,-0.19021296702746574,-0.039156948009924995,-0.039301942440359242,0.11405901355334917,-0.017545521718624,0.38317931784663972,-0.037096027077160962,0.40994977122012788,0.17978049675397939,-0.055535220618440267,0.019634030891357804,-0.18643357848704897,0.11019055315325288],[-0.19611843518705122,-0.71601721505006555,-0.64024225584605376,-0.13893999594550277,-0.19067360526323279,-0.12036432833488917,-0.3358438668563411,-0.41793702843606623,0.17899306040534149,-0.0062292829381314285,-0.78090473982702024,-0.32789959129183016,0.031868809200415481,0.17197704334867489,0.013046770971994449,-0.079087470383588584,-0.49686227246846959,0.17795852419272598,-0.30976178802985804,0.101550341619852,0.17426874013079677,0.23546718993594684,-0.28889397791577826,0.010779216805116515,0.13879187226659778,-0.074055481618230654,-0.350403542379013,0.056598338340253268,-0.4377709916730198,-0.36099212929877472],[0.27617947648502278,1.5440592035015104,0.93850001266390282,-0.34378948046402219,-0.2657797957809499,-0.27448261807604124,0.46319611398784483,0.28083851506887775,-0.5709832584067438,0.27960931959722124,0.57979613801184215,-0.055907991720559422,0.11205216047863047,-0.097969043699351929,-0.14644771071233165,0.241828186271546,0.84059802315475673,-0.17130009591210144,0.019639191964934993,0.060457755140373354,-0.39794822141003017,-0.18859024907596708,-0.077628230038753,-0.15041946506329484,0.22991980860775343,-0.25104362161770249,0.21117377648450508,0.20443568997694919,-0.28870285471209928,0.18511936259922546],[-0.23345370199303436,-0.84377039439098234,-0.15136561709646584,-0.2458510764057732,0.022527783561816162,-0.15902208413494487,-0.14765038792579049,-0.10793720801290108,-0.14855352286196985,0.1484330606294515,-0.47257721417386056,-0.10101285626367412,0.034710048816861926,-0.093514011814188752,-0.78593559082644293,-0.20317678710314624,0.3868380129263071,-0.077671921033453648,-0.025348733727713211,-0.88179445499263776,-0.15480333189140688,-0.13091401988789228,-0.34449934210521616,-0.10343886426871901,0.013309216250119388,-0.7925471673878216,-0.50108442561400635,-0.93965231370864211,0.1219176214001515,-0.18554370917592586],[-0.0031956352829078309,-0.3356771843576401,0.032758228194478572,0.011594616590664016,0.22567074714665164,-0.25569580309530576,-0.15123268259299738,-0.074786854734526342,0.017110834451512597,0.37371779660764265,0.23481758624505306,0.339042754361782,0.043771637542857678,0.01148358285138181,-0.11973940887672714,0.1887259473454822,0.30667684709814041,0.0813923288937898,0.14046310406223472,0.20505083323446893,-0.047581603781355564,0.0065218100488264917,-0.0788680120416624,0.24134948634170964,0.05697284324517006,0.18262077715216579,-0.052461161872332594,0.076195956023952321,0.22077617292579271,-0.082611424086025079],[-0.940884350075931,-0.62507422897972786,-0.55243018769735974,-0.032639322607426809,0.39744377857925395,-0.10267969237012649,-0.75926395288679427,-0.65473640942139433,0.077914491826603274,-0.26463918284224652,-0.81784579818956871,-0.25058134726317194,0.14192530656256935,-0.30487516278171223,-0.13357948892411378,-0.10802135130205154,-0.26330062268897236,0.06432342190573398,-0.13329010926289558,0.27667365398883825,-0.019157558608612017,0.13246587351027203,-0.72450590186877528,0.11166026553755841,-0.62945555103043949,-0.29532034414014718,-0.30824763005426303,-0.2320811779532633,-0.28997533843105278,-0.54990694041133714],[0.055119696173683175,0.07602484829270563,0.1454338345969034,-0.051759407042628686,0.41212895933597532,-0.34411877874643626,0.21058569258314969,0.097766813541761546,-0.051818371832847529,0.036945193955809336,0.16702086826796542,0.3002917697539933,0.14735024163786237,-0.303468011234921,-0.31038207547492264,-0.23040819174794253,0.37795442673460233,-0.1116527979051135,-0.15917192550252915,0.0017688504617014128,0.17743148387070937,-0.025178931663207935,0.20800194820146603,0.18199562751236248,0.15330432621823856,-0.10693198294453231,0.0874256762426901,-0.20760700117025377,0.034567157601339028,-0.10992556510787632],[-0.310125860997627,-0.12399477754775053,-0.72545422388651526,-0.15193416621195793,0.0071728228734573938,-0.19062163634000814,-0.21517353777771611,0.01134748940113596,0.0675437471027433,0.15635157650645826,0.13297341453537545,0.024129731227276647,-0.054238354879066565,-0.13726064664467294,0.16342392538652734,-0.04151285925356675,0.52090431064012865,-0.049506902245694075,-0.15734425884907408,0.15064142402186981,0.11816514938558789,-0.38347442036149831,-0.033150401359369475,0.047562047045507143,0.19413753925891891,-0.21381152573255038,-0.29071221968645872,-0.93092466847960575,-0.2787827911194885,-0.340494742711162],[0.042270845516031982,0.069950690436542354,0.07358300595788092,-0.20738488260604771,0.224983849453841,0.00094454663434045722,-0.30273775663827263,0.22614210157513126,0.15245492752452675,0.11053555048685147,0.073082118109329713,0.062482855569054307,0.2078873581298632,0.0040049604161363668,0.20386833214910541,0.029316108418808624,-0.1146078756691024,-0.41060973332442346,-0.15812627205246493,0.038973440320430389,0.27094985487547107,0.030201576874805843,-0.018459230525642648,0.26771859123048647,-0.086359473416020169,-0.032002764279510119,-0.099095515093348324,-0.27016491053893821,-0.054904413598411334,-0.17840743521983821],[-0.14925848353041241,0.2554204675841612,-0.045498319343481544,-0.18155934423682235,-0.12690797649559951,-0.031141417721112848,0.18924202505066332,0.23902834299000761,-0.1065647528800002,-0.26268630850311064,-0.3921255412229846,-0.18740559010508251,0.18883379942903478,-0.17211931128974872,0.025182946490904547,-0.11127740274123504,0.035202343896382181,0.34900170059257707,-0.038619907474422642,-0.29140742450577495,-0.18615877859187416,-0.0614292287341389,-0.13006266401515368,-0.25030694457918995,-0.286256766722623,-0.046481118486820981,-0.1875161572110654,-0.33469815541279652,0.2484325095348793,-0.18461793657825096],[-0.30006452567365632,0.10064705586516806,-0.0037493157295779068,-0.12459313063875627,0.052652575384263364,0.21354114851350381,0.087124647418305459,0.10882207096228264,0.046871747316410257,-0.13330648993465982,-0.13986480289111639,-0.10975289565165143,-0.22869989116689105,-0.06437786039873386,-0.15065486869368491,0.196761481582535,0.31556703919656526,-0.034881260016120019,0.0035502300383238239,-0.22340972478013485,-0.21832914032700299,-0.031199265528260193,0.15443997038008786,-0.21545350860195511,-0.27373451730698889,-0.40922915483835953,0.051182543168018395,-0.23691835344069137,-0.35132783448751759,0.080041136460691734],[-0.51012384553761692,-1.0824152292836682,-0.083545936295107481,-0.11060194375277949,-0.0065995617841630785,0.10794317867954273,0.033533651027012182,-0.64036774277752107,-0.26920576653664652,0.46296782481556514,-0.31292363495753583,-0.16099097529230447,0.12595611436207985,-0.026208872653697205,-0.51543524931359952,-0.22324041543796958,0.091480041032431916,0.0067249313786730009,0.087515674863404752,-0.83539101487862666,-0.29733633664408277,0.14842157941339509,-0.45742759424941115,0.0039182412357038248,-0.15125629155640158,-0.57117725517359064,-0.68094614154818134,-1.0880780232964056,0.091502716202013848,-0.2431833470133605],[-0.6440789005406784,-1.1091966310040691,-0.51766405772287194,-0.035109313555287035,1.8960806838810769,0.22989925324334087,-0.38083911795357328,-0.47317929608919346,-0.042177195021330272,-0.43385568936072488,-0.952016743849634,0.15615484670086705,-0.32547975484521757,-0.066677337651179364,0.0031259378169533974,-0.16100426495630332,-0.16862035104837755,-0.05625641476551612,-0.1524676088405019,-0.19017950109451162,-0.14002047899779943,0.16210830346337571,-0.33551420641483876,0.011873860313264855,0.37269508337920493,-0.064733626586546245,-0.45091720605070174,-0.39167959761428972,-0.42286418076324422,-0.16344004163736903],[-1.0839795528500589,-0.39008407754376168,-0.64075805364024385,0.14568905694677847,0.16985447207163129,-0.32854159451334924,-0.21551744339724663,-0.059309599519665808,0.386883192487738,-0.34180178415299467,-0.8158593026836034,-0.10820234841827643,0.60624214003926158,-0.26266965554870131,-0.254177355822744,-0.20601682012914396,-1.3211577016987715,-0.08610829126439809,0.095406751387424368,0.27709445559798834,0.34642748170660431,-0.098025408980783768,-0.00028400537178568046,-0.15140731314314712,0.017234512755630777,-0.06040076300000153,-0.4337124029908721,-0.34307049012143126,-0.11327392926303517,-0.42894803681827165],[-0.33545007537189553,-0.76684812805879254,-0.40006127623741283,-0.24407648559817338,0.062067004961172123,-0.15138586530570394,-0.7446859172777861,-0.99446657078737943,-0.050809364405500948,-0.21049689175100644,0.0064483680597342292,0.3039143888272835,0.10743302971437319,0.10936455279613054,-0.080411854102571442,0.084844755556532342,0.24670066269931534,0.20828108611367158,0.0047432994135739679,-0.46531294250505312,-0.17452513413410417,0.20428305085251849,-0.72284450813269441,-0.047734521420198822,-0.40050759302979427,-0.35977754844431981,-0.42174551719618653,-0.59591577443541943,-0.065562948122436862,-0.5250758628560811],[-0.22534346036655689,-1.3262716762355107,-0.51327871785149681,0.010959388260877763,0.10905719727597141,0.013785286954743219,-0.0008278521168658833,-0.23841146845765285,1.2129773430434907,0.095220278204206518,-0.045875939494665487,0.03633151292543528,0.2045143318964254,0.14287930478021277,-0.079787840747529759,0.057500487125272205,-0.65633838554507462,-0.055497128310461975,-0.4043393840276972,0.073691597714392418,0.041720948337238377,-0.17776805162860185,-0.42826555808716205,0.22814943993022027,0.2157126470516581,-0.24029382159131937,0.090606941681396325,0.45820692893648257,-0.59238115475010511,-0.73426721222316416],[-0.32343447214005266,-0.3801780414670059,-0.89767579820219479,-0.10875287937888757,0.12884885613213656,0.0430995504799434,-0.5767661253938553,0.893285349852956,0.15698485035804649,0.20402197066879996,-0.510193048506261,-0.0926083595865229,0.30665505188029529,-0.10119295452843813,-0.26751206375964459,-0.2480247083154094,-1.2082810213331785,-0.196623772223034,-0.0889398055807966,0.70364572458861985,0.99076926186569592,-0.071270073215646351,1.0461722648134477,-0.28368892689367847,0.50945001253411548,0.81135215165880137,0.3980315694391367,1.2693767651272994,0.016466455411674897,-0.51224911072017154],[0.3682218318843587,0.712162581448951,-0.50491382174315191,-0.23473525845110319,-0.39278335261516895,-0.20358983660664004,0.089915657925544887,0.569896393160768,-0.78152811562916713,0.24399062966256951,0.38475392289646948,-0.18429329625935723,0.12971087599055792,-0.30783868955082211,0.039073310851413169,-0.0098471599929875232,0.20652619564839322,0.012475558083600001,-0.035976594017799852,0.50121311472224339,-0.7774321704678776,0.0048548774088164742,0.56202873758193117,-0.069181706667577919,-0.3482601746632662,0.250803966270086,0.019942862090980857,-0.10372944356386361,-0.12417164037739427,0.17051356655229558],[-0.077526707955102608,-0.15145171098654656,0.13448616210105577,-0.026426339105051964,0.00064422766495372352,-0.082474203285909362,-0.33716387527087616,0.609744400442867,0.040369117209102454,-0.01846319700744331,-0.058194234926136408,0.11264229342249012,0.29670699692035668,0.03616972916233354,0.036998487688033606,0.10118539534477782,-0.12793435038202006,0.14610671955334681,-0.010902804648811947,0.26810473160114562,0.40022858429057617,0.056671622554175974,0.459351576286512,-0.099702737357811835,-0.1168183680910424,0.18494874852355753,0.23806955743339467,0.21259549595688493,-0.0026080056369996532,-0.039411210621532577],[0.17186352219368653,0.053099376923727647,0.10027601261237538,0.22129676217359057,0.03660022734713194,0.062045692953304719,0.31237971320872171,0.30448672921981568,-0.15913726771713671,0.0085233000631010566,-0.23408661422238206,-0.056863003438094306,0.027937491302362939,0.33254647397181258,-0.32007555592098108,-0.33602374790512068,-0.024230636499548611,-0.078606178426245482,-0.44465800476784939,0.033408357811894641,-0.00487573456281437,-0.095471216697307237,-0.23693434042221379,0.14734552746627461,-0.031024220661290687,-0.036398401774231468,-0.11969192694155943,-0.24862229039784931,-0.10454627877441869,-0.058664955773539],[0.0072952281697329551,-0.377415278872722,-0.021807093654922685,-0.01130568165192321,0.031183828539397589,0.048660521461042147,-0.21190680713080434,-0.050370028641592221,0.17487418305357189,0.24488135078632919,0.38682001016467032,0.057803519613862493,-0.3193583253338162,0.25165264001354454,0.11059776792651514,0.064810476786724039,-0.15679272747825546,0.00078485868136617587,-0.28117038199625594,-0.41959998983752117,0.025911277145943643,-0.18481081292701418,-0.32916560372719411,-0.30436787539903859,-0.042163354585997612,-0.33142656463104914,-0.37362339157113794,-0.078363536734501457,0.023937770746958707,-0.03712168397693065],[-0.19730869006299398,-0.22162321050051442,-0.1115309137179703,0.20945637951123319,-0.21193551370110708,-0.15767427817928456,-0.44776350933417586,-0.15329183736284982,-0.012582512767809313,-0.28236482120740375,-0.46830535318532773,-0.11415417291969185,0.33576400591203764,0.27687690172236123,-0.13268753358749927,0.056303611577192346,-0.042565480050653012,0.077775941359347914,-0.51656058555123052,-0.63111375396645186,0.011494796832667709,-0.19080489336181497,-0.17698958384471317,-0.28926389467404207,-0.161784480796399,-0.32764899568161154,-0.056182112966356688,-0.35040251038137182,0.21287145859364379,0.017877297092222577],[-0.2236778434752342,0.040023345245235889,-0.64617997214999545,0.27755021329561608,0.41409643203709412,0.0051903898397528915,-0.70407064970390376,-0.010299254318120161,-0.38856611158033055,-0.87566839450518907,-0.15179738021832698,0.20285590980471852,0.560901984496466,0.023806145746484361,0.161694712783999,-0.10683259943551486,-0.14358643674877189,0.11782262918512666,-0.2561270710290659,0.076369385466563147,0.11395126326017964,0.13143903007598637,0.076045903509644214,-0.0020766400109190827,-0.10452353004192004,0.081178211032834832,0.4266051878841719,0.19991258385283584,-0.030889701347973138,-0.12660314595764388],[0.95054958083327712,0.31946725694022121,0.38729437269004247,0.0011866668838676918,-1.4081139601909756,0.23408932628832233,0.31558378821905908,0.135637577341783,-0.49246699470473959,-0.66183889859798184,0.082915780452617147,0.26072798155617138,-0.32470208554833796,-0.17093881225674712,-0.20155566619605139,-0.050417281206889507,-0.0491093469432943,0.45069082027548668,-0.23631034868883591,0.40523144870192274,-0.14967290084608659,-0.0042067535591781523,-0.070301565237008853,-0.022932170377473842,0.63069978081953215,-0.11946034200338454,0.22785051249546548,-0.54116180919749646,0.34785838912602068,-0.012596726431953281],[0.0098899030681465754,0.23041606785718116,-0.31176350592583574,-0.28154955966447376,0.16072436755955322,0.16385014806711243,0.23111331500048513,0.12386758905458543,0.26278127517611449,0.21737788221055668,0.04974473086062603,0.0699925635424849,-0.1182159093533255,-0.0059297201443353183,0.11311820743786839,-0.40866345209671073,-0.18613487605001472,0.0097634313306411476,-0.23587478816912541,-0.008233789301473218,0.094735840396890272,-0.0020807334243654438,0.21155587702535034,0.1080583636412177,0.24062911713842514,-0.17115828836727412,-0.13098092748411302,-0.12726713615144722,-0.15388973429223907,0.080281750596091092]],"ActivatorType":"LeakyReLU","GradientAdjustmentParameters":{"Type":"Momentum","LearningRate":0.001,"Momentum":0.1},"Type":"Standard"},"PenaltyCoefficient":0.5},{"Type":"L2Penalty","UnderlyingSerializedLayer":{"Bias":[0.10690216211921437,0.019690622732350373,0.08032906619527691,0.014282336018666157,0.025379048629062727,0.11710738469552133,0.033223859589954066,0.019268700586000588,0.14545286307821992,0.028798637496680109,0.1116684535182586,0.053753010438327357,0.0093719087678127751,0.10140789088000918,0.0032764503588038531,0.20419735826936167,0.045121914139399637,0.00900965376685413,0.037136203520183465,0.29423529684941174,-0.011195939601660685,0.014455353318840356,0.02728964638833048,0.033564357210121361,0.0029900276617641744,0.15824329143194882,0.096658152943251044,0.05011558120062358,0.022171462845895318,0.20159864887312018],"Weights":[[-0.24784471465092137,0.19532928642168582,-0.25964703976530207,-0.0607454104520606,-0.070056564143055,-0.14089582958723779,-0.1610443381561768,0.17013363309650562,0.011857718400416509,-0.0683637775629687,-0.21192284756771987,-0.27367272066057707,0.071019525141400169,-0.24200117630518367,-0.046128957749246073,-0.064067479410340133,-0.079049536074070947,-0.038676705071490035,-0.017221151627514392,0.060029718288663367,0.098327316137845858,-0.12864135480052832,-0.16403901323550338,-0.27160188049902029,0.099978126193449993,-0.0081503901071339636,-0.11697196730445918,-0.1077772244717489,-0.16079459390971052,-0.088681906684857537],[-0.22867771700853243,0.1743244718745387,-0.27182970626904651,0.070393418711044736,-0.17314223601297119,-0.36000643735235144,0.056652611327163538,0.047471618113233527,-0.81691610584929142,-0.38888446882111638,-0.065122200407687875,-0.066692763720522519,-0.085441798756937859,0.0023481557919204053,0.15177092075710361,-0.099442798554501124,0.092190416552082585,-0.17779698028068858,-0.068777244088912823,0.35559068601008181,-0.026253494577418723,-0.11148188487699727,-0.19639123314904541,-0.009689762807679,-0.32240600013125575,-0.021516791267911433,0.092897870023912463,0.22217559820326724,-0.05877920331558855,-0.40560004211204709],[0.29242115870182717,-0.17784978379918962,-0.038689807631923562,0.11395820300768246,-0.30461881456130557,-0.21422835536911938,0.21902078541550887,-0.045294101844034956,-0.64782486881875179,0.082456191785143892,-0.17213624456625917,-0.039812187747151839,0.044564497771202555,-0.2785448190353893,0.0602783586966382,-0.28757745407476165,-0.32740799532881221,-0.10711535863036814,0.15355918919130579,-0.29899248066415135,-0.20509779824350727,0.15099920665758598,-0.045667223574363418,-0.42879401031424991,0.10820268315827382,0.010803208336299087,-0.08681911692936467,0.054038578114732172,-0.35234686283424127,-0.582686998285064],[0.12017051509091965,-0.13445515781342324,-0.071695690999860021,0.19750416509019214,0.326824012827279,0.11387645439985859,0.011255354431244804,0.012978466735713378,0.049184807639218953,-0.0087438464686168255,-0.12647084291011462,-0.11620366053167265,0.0797113694916758,0.11246161413922352,0.10511793190135176,0.16218982770480853,0.069832316718552126,-0.032234906086410824,-0.14881507554525766,-0.029751231562645558,0.089186038049436811,-0.0038254553682317951,0.070163161095198032,0.19338583463208581,0.37738184182727991,0.13093281047114697,0.023413863331032025,0.37686457455591443,0.27789915798145776,0.24764540095207263],[-0.21234607396346711,0.030277566884982909,-0.23417209832310956,-0.051378733126513455,-0.048974168307317975,-0.051014807673598547,-0.112474715966337,-0.098823557869185855,-0.37840894736633979,0.019845826891832823,-0.28399101979260255,-0.25439128491636331,0.19056658940651519,-0.072124233051550579,0.1410634040908485,-0.3118841883938987,0.026751433313326002,-0.33075424508276852,-0.25112315053933837,-0.033166234739240352,-0.42578551346029864,-0.07702650886631876,-0.25981956678370888,-0.48193252158338079,-0.4071373730427183,-0.1442091152760368,0.26890634109951073,-0.29680899687288637,-0.39051472536425008,-0.25466629140660896],[-0.045214925494955809,-0.254594275983752,-0.31641196971288538,0.4105124906822617,0.0435108308200548,0.16202863060244008,-0.079451153029205024,0.13127789125074374,-0.14916592612541488,-0.10920209437767769,0.29103636720156345,-0.12714790071375012,-0.061634115454764909,-0.21492765911683834,-0.22082218045242361,-0.21892766931746086,-0.23210881209675605,0.049512828415726955,-0.13263795899489758,0.23799514601331923,0.18058583075394263,0.0012839714695314821,-0.35370814080459295,0.07286875313942201,-0.1924130034022645,-0.095893249263479766,0.25120819665427935,-0.032442428148122988,-0.050274394860588573,-0.12731236877643548],[-0.14668915057874743,0.020606199737279021,-0.021470043102204059,-0.26176986497003191,-0.23235825579245914,-0.24334235979388383,-0.16802884122721934,-0.29980250670899844,-0.34448889147643169,-0.31709173229415605,0.1247508084563644,0.032259951196834967,-0.15806328769008923,0.10606623769508215,-0.14585947110611031,-0.17746088700660237,-0.31509883297364438,0.14474818515558002,0.1389447436690254,0.15227280880923216,-0.18341500807668229,-0.062890442377201913,-0.18745754376302692,0.081448499167365213,-0.11655952648257047,-0.41648734705874418,-0.070059313306760629,-0.24071893876309833,0.2614281715456811,-0.45072935538685988],[-0.16810456582456135,-0.25916013076759287,0.0666276700086796,0.067960598520500987,-0.40834928805206094,-0.23052537653357563,-0.17193473103823276,-0.28338535036993667,0.37994635018298473,-0.058022071271044924,-0.48370762540813578,-0.651456617759434,0.052892295961639635,-0.27176012467500094,0.0482675259721697,-0.4932029317283313,-0.25522286525708338,-0.16864962003009135,0.069819698158721313,-0.40204369882001478,-0.22362530110831308,-0.17877817615305938,0.21806216560132535,-0.28225385349000082,-0.0082023935628035075,-0.168011877915622,0.090252041863715909,-0.15144413561714773,-0.017079385770988303,-0.27962651921583631],[0.0040866940072827847,-0.24739216191162053,-0.22482904828235176,0.17857241869918017,-0.42589356842618931,0.0061571825294000748,-0.21114601373129283,-0.13132064217826789,-0.726786331470264,-0.071389847387625271,-0.17512659089127639,-0.45531110308631667,0.046978961433187229,-0.26330444130630332,0.058527791304364474,-0.47601118300012918,-0.27165150052525122,0.074282376564675623,0.0085912978227879171,0.21291376327091494,0.22255474465825523,-0.51378527964409249,-0.31910975901929051,-0.337548930760037,-0.14708169531379414,-0.19286817004096676,0.012645832272484154,0.092365205094829511,-0.31372281989606238,-0.34805280783168563],[0.36218520163575529,-0.19294183811833762,0.15420371659029647,-0.26396730586443745,0.35046921976495471,0.32465488073023391,0.14022245285579951,0.10112698121577789,0.16256332963776443,0.10181666972296612,0.17779242328568334,0.31105226609425979,0.12008152456874618,0.24749720193024885,0.195004700497062,0.60903161519973492,0.35121201869215007,-0.12569961362546253,0.102311689478027,-0.26130642567313828,0.43359663955426758,0.22767372639407829,-0.011133333079613167,0.57161157457072165,0.17620479626797964,0.37512621195356755,-0.044904866593195217,0.064031744516287847,-0.047791826470165714,0.28339313333639715],[-0.18234995090454723,-0.35957613743613037,-0.24868914104412324,0.2788149562532215,0.37785636123704353,-0.32543210721102755,-0.22788385761382315,0.0389849783790591,-0.39025481793836464,0.037768883750779809,-0.033110919005395173,0.17308425373784941,0.050782746970560046,0.010060109978781349,0.14451724500833327,-0.35609267498071107,0.0846388726014103,-0.17589269734763688,0.09536263185014919,-0.040200487410040522,0.050751128507503587,0.024681919845938826,-0.13799270366882172,-0.21819178997030947,0.18256813229420318,-0.10452375312364942,0.13581743761311405,-0.069374677380252325,-0.1136327908037519,-0.20426829368617031],[-0.14396459677120127,0.12192249917581793,-0.315499828678108,0.303830904617592,-0.095399541390810555,-0.14851682704569877,0.10088290064545807,0.2736779717754585,-0.15564700528528011,0.17011197519024301,-0.18807806481703038,-0.20819732956408282,0.27436045480643562,-0.17461770968096591,0.12392554342286234,0.10713841681129942,-0.10632303627480287,-0.004225619099490532,-0.093560336184682291,-0.18605912023033489,-0.067741074771182366,-0.11180601067096047,-0.047702141021268046,0.09673324157949402,-0.085826820703590018,-0.10377829881261291,-0.035812147003236587,-0.20749481312938511,0.044368455952643021,-0.095211117442189311],[-0.27775248964774113,0.059922789329883978,-0.42325053720565819,0.014368542200675932,-0.13310798349774394,-0.15713693078569155,-0.26572338354801672,-0.26245514129314773,-0.2990255267728581,-0.13246523950525488,-0.30696072835237392,-0.34872090571254893,-0.14764691770551122,-0.21559297435653629,0.392425433937726,-0.22730270811967784,-0.1239409483910921,-0.0730251002057153,0.11583985895511217,-0.40400631196214737,-0.21793545823154209,-0.19718753026446709,0.034214905979813831,-0.017991565794824155,0.24375618076811198,-0.21176477176785555,-0.099605584398896635,-0.23231845600204024,-0.1932118436152715,-0.565510305193559],[-0.034712881500914394,-0.11182687768719059,-0.15455886882246245,0.094079802193503675,0.068745480654102131,-0.11127996447303161,-0.0084179572231013241,-0.038951029092418529,0.020770768490044,-0.0070723772248649361,-0.08310319746314003,-0.10462653912009493,-0.12069126470614301,-0.15122517527845469,0.044207443480140829,-0.30774375747860405,0.087624073233033936,0.15574207961049716,0.26863869149147374,-0.10296836843936495,0.099041486754120847,-0.40972084703327494,-0.0919997984597586,0.21901769874872015,0.084361714779139257,-0.13773161215652921,0.024582500418369332,-0.3188642795201424,-0.10898981649093388,-0.052907645793738516],[0.083293899146579128,0.215379678823872,0.00015897812194353513,0.036647060266379275,-0.23041269788104274,0.18686808971142466,0.091778598486856017,-0.14337994599376802,-0.26938327553435715,0.11846907925498722,-0.091894598466606012,0.31838255575952024,0.16114588641637936,0.017682712986862741,-0.36241543733340092,0.067446255788953149,0.24284574890415611,-0.00054153838603094,-0.25815279154279674,0.091959045516116181,-0.16916014525668832,0.077300105454673293,0.053805910868265826,-0.041600945505148743,0.019025655509805083,-0.19271841130661108,-0.023835214314479894,-0.17115934141020278,-0.065455611490736476,0.039551487909533695],[0.16333356460910231,0.12175154093751504,0.072966680920011309,0.0087229563083832916,-0.15791819924267911,-0.045304014729035731,-0.37156822431401693,-0.10272839139422532,0.064175233678707824,-0.13457968893005604,-0.011972212372223422,-0.0030154814400923991,-0.11597951571256109,0.098788854498785966,-0.17840641092178608,0.005559121725381303,0.05095116558658009,0.10109670488698622,0.289199050118019,-0.086433934675399365,-0.0047697055178709058,-0.035581367415690512,-0.2026250100997328,0.10668186950208551,-0.021554610644486008,0.00803718801973813,0.15153632560398136,0.2815479300646645,-0.33076719533096721,0.067937845856127735],[-0.31565961650442892,0.087130916302755462,-0.17689276613700036,-0.43238606381647388,-0.48891053603442436,-0.29444035232852317,-0.475478452238929,-0.77178601589811835,-0.66899456690071424,-0.2896381236660806,-0.38548991542019656,-0.38586831753541423,0.029461755141748161,-0.011569922041418197,-0.017741815945570883,-0.57224978157124562,-0.39403637074472708,-0.37367412828485569,-0.396594541212227,-0.11514599135079952,0.11074457850466728,-0.30165426792939459,-0.22361728426125815,-0.39592686543546213,0.057637157121851725,-0.42133705165405944,-0.33338244767559122,-0.45429623458356677,-0.017524886662214807,-0.61226329581148065],[-0.16602563417008689,0.38381240917189496,-0.12775070755063891,0.0087041676894759733,0.037631687934430481,-0.092618976398729638,-0.17832715453852371,0.13838586566610808,-0.14621104680230374,-0.10172730174367999,0.022037878719934283,0.075090711786491612,-0.18489995336951037,0.13128571547329845,-0.093090315943640645,-0.087360318891195485,-0.19252371606941471,-0.045395260179482685,0.033946327478102577,0.40110027253191965,-0.10505256443718378,-0.010234986650360944,0.24167785100722827,0.024886042458077639,0.32167219913029138,-0.055978659570270872,0.17075202081122703,-0.019606758469647864,0.23866107590761559,-0.08265823909064153],[-0.095622176979512308,-0.12741581002012076,0.0052365227085959124,0.3222228417254101,-0.25599853078900464,-0.03105681833335517,0.026631307217374143,0.026526342821122709,0.15609819119760107,0.1097617427820204,-0.021874214288190849,0.33318310632556253,-0.19889865488932307,0.062981737892154832,0.43646264762433618,0.30097093861992064,-0.28171617988655784,0.39623493326600984,-0.033039750154071727,0.11035599250692339,0.129113516723694,0.11920520033125498,-0.11680318238294826,-0.30855662661503713,0.16262277248467674,-0.11187364222724285,-0.02383830981424688,-0.377634952419936,-0.19744101603424649,0.21498443689943556],[-0.053076789483819505,-0.17379321472855208,-0.56067108845404967,-0.068005750850592059,-0.1740800725562045,-0.074622947244627466,-0.025086910046467063,-0.44414247709633631,-1.0040011267353892,0.0057868550148394973,0.13932123542849573,-0.14615907699178313,-0.14940286106379028,-0.18248996276937626,-0.033489752603949235,-0.016669215449158871,0.14515292754476097,-0.22656160118445273,-0.0768249689696469,0.037548953460177684,0.09083156424156906,-0.24600443448343076,-0.055651561577836385,-0.20771848234168236,0.036931238027966738,0.19373592273727264,-0.15062466903371513,0.058550476854945945,-0.1362668468541576,-0.56775639822528834],[-0.37828941513647818,0.010446987241652352,-0.20675995630433644,-0.10167497305964283,-0.14315533548451356,-0.14563402314313176,-0.28124851617776248,-0.0619377910958319,-0.0037646382237882673,0.0084655616650689634,-0.38331675800494031,-0.083089016501721152,-0.26851222353761917,-0.2531723332999643,-0.0038714665182689035,-0.15013328489645644,-0.033885811097943572,-0.18787416195038995,0.050066541030768304,-0.0992249090879754,-0.028241923554879454,0.12914246208369534,0.042721809179402596,-0.21405923978149677,0.17438370279971349,-0.25220718463318004,-0.27447717810796723,0.084261442651894974,0.074539103315160782,-0.17165928911718578],[-0.091158214841219068,-0.11059286673969457,-0.015446959847062725,0.105855146079684,0.056382654655548134,-0.37819570664237007,-0.46401211291586741,-0.18726106575994797,-0.051996370480297,-0.21548504079884198,0.063006426963985881,0.15640222401955742,-0.14882341939777832,0.34373369072273124,-0.12832943334922595,0.36577182778030681,0.11698590610725186,-0.044528442296821381,0.0654606997195905,-0.22534942619107068,-0.12459113320437683,0.069184599878437031,0.2308743239974656,-0.091020279827772638,-0.17440968842873603,-0.058093999727567076,-0.20638207626785743,0.06112683093515326,0.18080938821419884,0.044444740342524526],[-0.15639157657963196,0.1165741056215597,0.13756393497862021,-0.051180949378760277,-0.17625039410315369,-0.36169737563665555,-0.045148157403136546,-0.14905162069562383,0.049382951280152493,0.02255217436970627,-0.70731432468280941,-0.53521645886784663,-0.18286556838654625,-0.30520194911747667,-0.23032851611932037,-0.74464476356007026,-0.35268539778850005,0.018303020813042227,-0.27606365601724897,-0.051532252293695666,-0.0603226615375811,-0.00024326568700237881,-0.14812619077608871,-0.37845481553875276,-0.15361522427714258,-0.46301897627356131,0.014793481638821736,0.043776732859535553,-0.11326418645020572,-0.077615069158074618],[0.16911006694238939,0.18920293758569534,0.029014819459169054,0.076376992277072744,-0.13770030083115417,-0.10596181311407465,-0.04566602265493467,0.171157987244196,0.014552352187105851,0.19092619872920497,0.22646279758964227,0.21326191520380594,-0.438013724788452,0.12856641047247011,0.028036636382109036,0.053093135153336787,0.19822970127963069,-0.21054581225878236,-0.48858705562899984,-0.15187657270843316,-0.076164134401877442,-0.21736516645864956,-0.20506353240953934,-0.03950144436952243,0.15265207447653756,-0.13344254960520138,0.0753511510807961,-0.13847235626544982,0.037192291479871457,-0.095459272422928676],[-0.27326812545059037,0.17098486769443042,-0.3868940856685737,-0.30525075998350021,0.20127955855211835,-0.25872313035305278,-0.33722847726160621,-0.0012964554585212079,0.15840413621420924,0.024899604890924795,-0.40153215465806286,-0.13613376463648153,-0.18909316484221503,-0.19975801661983109,-0.033568824742776289,-0.13685698790003364,-0.20205868068909488,0.11552029053354797,-0.24733052407010919,-0.15460896230346644,-0.06816157652036621,-0.093139424394072551,-0.22792326685796371,0.20870994665888637,-0.013177203363209142,-0.42606063419303508,0.000990548445379684,-0.22944574226955364,-0.35841009812868918,-0.23862318710408503],[-0.18812008400093253,-0.26024801078287013,0.027473702556494894,0.11863504869824262,0.010719507570480081,-0.23703010904779917,0.044039263033428942,-0.047562142519111325,-0.046573240431785894,-0.21241261155806823,-0.17453381855841665,-0.34412693838526509,0.37612670430950595,-0.1395336031687712,0.10264336875100022,-0.28302339079308786,-0.21303307918499326,-0.0826845410936438,-0.0050035205784669055,-0.01644822888879938,-0.1081074674689386,-0.1880629276659751,-0.29320904782682294,-0.012449869415255379,-0.22402004414250373,-0.2272826089268622,-0.072334141757380829,-0.21421105716744343,0.011070394540349008,-0.4263425061025144],[-0.11342636754876628,0.040517734554679607,-0.629416742592281,-0.038704162710071939,-0.011823781529654185,0.30985114478185122,-0.24528813621765613,-0.089863066543141773,-1.3366798806910991,0.10326162979976325,0.4375065255095677,0.74354053673098985,-0.021655706785771479,0.084219609808213025,-0.17914618478869945,0.07707123642091078,0.2764348245654456,-0.0017809804431853941,-0.17897249174649443,-0.44298642879470368,0.083935510461832452,-0.13137804895362384,0.17452655176849996,0.18798085148703098,-0.03678627178839005,-0.06282096175701761,-0.36336138831325621,-0.11783372889283478,0.064307557604080592,-0.39697428154479963],[0.1971561257349336,0.03669019632226924,-0.43468077180220982,-0.196817002946516,0.057697220538360995,-0.11045367774272452,-0.065877766992427492,-0.16246358855549073,-0.93834338877251477,-0.047915108866546596,0.18427725456458188,0.20334139007670338,-0.14894088151574017,-0.069854512432257251,-0.12503588476094116,-0.057059121594533475,-0.0963450738679343,-0.0034193434223201416,0.20687946539188445,0.19597816608781887,-0.014522634180340045,0.050472292834924569,-0.34102513616788782,-0.34831963159346863,-0.31876642409317424,-0.040999645817549488,-0.067943647389216322,-0.14028601760237805,-0.13141257496733003,-0.39536597781611066],[-0.040126665559293749,-0.25829325686561611,0.16357855994254947,0.35757865461551691,-0.32994681004807325,-0.08514780238747667,0.034652248965660527,-0.20688734611971973,-0.2928927075777093,0.18503906985683202,-0.012132530958433418,-0.293310243459436,0.046751487348929088,0.054876597479310014,-0.25249199237070696,-0.21608787619767367,-0.071787690562663778,0.0822456115929071,0.30145283071306755,0.019880980634249042,-0.41611169028553407,-0.093685176097430836,-0.20179802974288405,0.104562988611399,0.15917879905766028,0.025797305895098783,0.0071623767334545547,-0.0254367417231226,-0.033368693682660204,-0.17985913225827274],[-0.21521383767631888,-0.21838797561608148,0.048027609112380833,-0.24419039049051475,0.066691615054749617,-0.0051878428463976193,0.093711867883516056,-0.21413055707720746,-0.024408164188246685,-0.020284828268763381,0.22273397568575867,-0.08418580038997539,-0.0014651972515857337,-0.1603111457120677,0.1376399214057942,-0.32756793583503108,-0.024364739359343787,-0.00019089135882978045,-0.13097859882923346,-0.38910617550065085,-0.025973916600169924,0.067609546358203654,0.073294508651906745,0.10364216007356214,-0.27938217081896066,-0.36084947473192958,0.0091534899662846052,-0.047870961780938193,0.055081203761469764,-0.031721105984914594]],"ActivatorType":"LeakyReLU","GradientAdjustmentParameters":{"Type":"Momentum","LearningRate":0.001,"Momentum":0.1},"Type":"Standard"},"PenaltyCoefficient":0.5},{"Type":"L2Penalty","UnderlyingSerializedLayer":{"Bias":[-10.813629737193764],"Weights":[[-0.39662886176200368],[-0.15709440368840447],[-0.53978650784805338],[-0.15972015366175868],[-0.31970912791202649],[-0.56092346644283364],[-0.30454719546752135],[-0.492221528916901],[-0.84187285470527573],[-0.14141288829777368],[-0.60177172266264578],[-0.649481338666595],[-0.12237896638240985],[-0.51129617465051747],[-0.068711597790809209],[-0.85403440404625763],[-0.39995471774677549],[-0.17929742900490853],[-0.17741967079966053],[-0.24672946229452289],[-0.1668056588807727],[-0.31316893705002585],[-0.30682337920029323],[-0.46277888388424876],[-0.23530427786702082],[-0.55305532382683675],[-0.078348812102436674],[-0.259980954448748],[-0.2691222961989031],[-0.94652512020353]],"ActivatorType":"LeakyReLU","GradientAdjustmentParameters":{"Type":"Momentum","LearningRate":0.001,"Momentum":0.1},"Type":"Standard"},"PenaltyCoefficient":0.5}]}