{"BatchSize":4,"SerializedLayers":[{"Type":"L2Penalty","UnderlyingSerializedLayer":{"Bias":[-0.028922520738437037,1.2158127726789647,-3.344051062702682,0.026357206621896657,0.0046546065909962636,-0.89785563693994774,0.54666978900835528,-0.021148864983525653,0.01506377298208858,0.070563642544412955],"Weights":[[0.40074969487925161,-1.556455004696941,0.31947475451317747,-0.16025863814268954,-1.2236646027039968,1.1488753645181928,-1.3260335857805798,-0.27632993365052161,0.1427423554445556,-0.8896072985612441],[-0.12357795007014363,3.310428614494191,-0.072760483386239291,0.36048901322871368,-0.58378404061620492,0.66376318164109149,-0.12217964484729701,0.29373941437754375,-0.44490769534464164,-1.1823368634919835],[-0.40598512453564023,0.77003328485771327,-0.25891710014508351,-0.29698670317995995,-1.063312415690771,-1.0158354391190072,0.38434051720356227,-0.0048037096781886716,-0.15505842474849416,0.44429750214361891],[0.41023840205187084,-0.28872084183555563,6.4467878687676716,0.2574957837221809,0.47123263894967138,1.4839351932394536,-1.7899828386651522,-0.063567615921667722,-0.24412350115014853,-0.023447180257857452],[0.10091050572581901,0.98409245041979,15.140272771920284,-0.41668799357739761,-0.39031204971374273,3.826142930939068,-6.8476251530519052,0.47781108356729485,-0.37210833442288432,-0.59203424512266611],[-0.13307195295472121,0.22602059638815672,-0.23439776574813928,0.2320224363939434,0.54863015723085118,-0.26263070388371496,-0.35047542985209218,0.13865022205508465,-0.0057746164902905987,-0.17793670827316124],[0.069999480837491634,-0.0077171617258965826,8.5257197043374937,0.15955777032804036,-0.13806690100557328,1.2918562879250632,-1.471799771465186,0.75581129017117377,0.06972503632851039,0.62297704560089551]],"ActivatorType":"LeakyReLU","GradientAdjustmentParameters":{"Type":"Momentum","LearningRate":0.0001,"Momentum":0.1},"Type":"Standard"},"PenaltyCoefficient":10.0},{"Type":"L2Penalty","UnderlyingSerializedLayer":{"Bias":[0.011180025852724805,-2.967516071151743,0.018152508601478871,0.29427916380246644,-3.2468832193662407,-4.1221093887499629,-0.0515567893755491,-0.006005282454958542,-2.1804777783909435,-0.0081553806313289911],"Weights":[[0.1457575521210038,0.15243192875839237,0.18857568393397062,0.45530371372558043,0.72156311356269909,0.11341081110975035,-0.32676591886494716,-0.078140457589446349,0.33895325813916194,-0.57337620151967916],[-0.27764695373686482,-0.049749315405691157,-0.48362279848557893,0.3229411408474015,-1.3845583390749272,-1.0935177457254397,-0.28611675221242266,-0.0091364556537522849,-0.13305147619577684,-0.24353855752922604],[-0.46717933195174854,-0.0022297599810149589,-0.68993625378596124,0.0025081844688918469,0.16456052598130588,0.11913029390804641,-0.056311680092752572,0.0082684935638920546,0.31034318627219121,0.0064516914320238653],[-0.69044302288863957,-0.20779120352742786,-0.35387209654561852,0.16268044504540871,-0.39786569733792077,0.15288115855231013,0.03711445899009725,0.5335277736319024,-0.48176667639932669,0.69520002079594223],[0.63361736961649384,-0.044490113955646386,0.32046155547251531,-0.61411434267170528,0.38634760972268062,0.0072036711661826614,0.12516917758609106,0.42939493782857413,-1.5179421287110884,0.19484596448282457],[-0.08662515419874163,-0.046782984511213668,-0.39788255691008473,-0.20385950315144855,0.0011227767993654833,-0.014373370445651408,-0.022143090653101362,-0.1546307755957842,0.34822500281351837,-0.21598912190680183],[0.40417380622443039,-1.364136603870634,-0.044688049910701265,-0.62771443281090766,-1.2936068489787325,-1.4119208019067226,-0.28626098907492814,-0.12017443610288289,-1.7169284406981868,-0.19298350418420024],[0.10548747984709064,0.13365362907054815,0.29783287117571233,0.43560412139057747,-0.02670106843593701,0.27786650128812113,-0.089998172962769588,0.17781467917251467,0.1801124913184792,-0.18428375729604374],[-0.012234044108085842,-0.0715961083187472,0.26163080889853069,-0.35487627039237646,-0.28533464820572008,-0.24714939617698514,-0.28390021684074895,0.32112586173889796,0.44777571623474222,-0.27750675552481208],[0.050654508159721556,-0.50805371212627215,-0.5596677781151489,-0.12120208863099841,-0.34603926403716967,-0.28665122969426271,0.1465484113513158,0.052847280183097346,-0.29556135411973944,0.43254495950000238]],"ActivatorType":"LeakyReLU","GradientAdjustmentParameters":{"Type":"Momentum","LearningRate":0.0001,"Momentum":0.1},"Type":"Standard"},"PenaltyCoefficient":10.0},{"Type":"L2Penalty","UnderlyingSerializedLayer":{"Bias":[-2.6758526911658835],"Weights":[[-0.20737455212415293],[0.97111506441493045],[-0.80127805405944486],[0.29978095552640627],[1.0039799480331435],[1.0967995197350653],[0.35492767509068013],[0.17484421192994487],[0.630951517223485],[0.062615038575922183]],"ActivatorType":"LeakyReLU","GradientAdjustmentParameters":{"Type":"Momentum","LearningRate":0.0001,"Momentum":0.1},"Type":"Standard"},"PenaltyCoefficient":10.0}]}