{"BatchSize":16,"SerializedLayers":[{"Type":"L2Penalty","UnderlyingSerializedLayer":{"Bias":[-0.22897116730212908,-0.94921563462953207,-3.44883504352037,0.0044422188116733392,0.0030374916827147812,0.0297686043126651,0.0025470613026966384,-0.0021289096714031718,0.0029949974893473822,-0.0029105006656922365,-0.0011232224817461479,0.0025975679619617545,-0.00075736261994548593,0.0021090201721780683,1.2029915529182023,-0.0018774696318572641,-0.0027551459124443012,-0.00071030979260461411,0.00443369804620833,-0.0082934246363651435,-0.0019787985253349916,0.006696137824002594,0.0049829382001160038,-0.24988060867843026,0.16522540005287403,0.0013197642234542757,-0.0040767905997121118,0.0025745542105607491,-0.0018093197062302119,0.00014167630979832922,-0.0010671454047471993,-0.0010141987506100598,0.0034087675604319813,-0.0033319758049618884,-0.0038367383184518969,-0.00066890495105812343,-0.0027700315923480405,-0.00034211330773052423,0.0011823311838251832,-0.00364598783103539,0.40747570692614221,0.0026172362774084671,0.31662499836447744,0.002445287104171251,-0.0014908817900791758,0.001900308106962285,-0.0030376759826309264,0.053189829830429636,0.0020036602789277303,-0.0015874283959461022],"Weights":[[1.2558689230458013,2.9391003156153492,0.61119650129739711,-0.16905348142226012,-0.4683342152517147,1.6400747701867557,-0.53125574736603876,-0.18585645784836602,-0.30375661117803354,-0.19946440572225843,0.16783805954415967,-0.50153417345043383,-0.66019070458096785,-0.16059866350390159,-0.87128185149811077,-0.084402429197490664,-0.50389560778550868,-0.41135659288281684,-0.8252021892160708,0.25706357598014434,0.38951419218945421,0.71264574943043013,-0.5758947293405432,0.49441296856389416,1.359777893658402,-0.014708431823205158,-0.051538216811537196,0.22305194235171397,-0.24412544289835661,-0.47664233584235272,-0.086926755211834239,-0.5612704344499001,-0.46753220613945756,-0.061565661289400657,-0.28091329790554909,0.19676219697789504,0.0386967438905438,-0.50295750812328666,-0.42821511192842004,-0.086767833736649314,-1.4964202110978329,-0.276700698618018,0.83489718392511758,-0.17840854200104925,-0.44478374269880877,-0.44361802005949114,-0.33022014034580249,-0.58115057790042735,-0.22812802653346453,-0.023907841406495055],[-0.18890818787346006,1.1103766050982042,-0.6346475729197133,0.25668487329254042,-0.17204585951368609,0.95596654540462889,-0.2495313132590245,-0.81145867898205237,0.32385526239282164,0.031646430300278063,-0.2630869718013642,0.1838475064379087,-0.060754414843249616,0.18559863401531487,3.6250870043988015,-0.1413311648762875,-0.038026776744806604,-0.26143846384845892,-0.095346467219714889,0.63608106051509827,0.41715447024606717,0.19036842354404446,-0.13339411594312,-0.44006316425546665,-0.46458387521742273,0.0583884342670214,0.30455557693032037,0.0625608428136587,-0.50963711286939628,0.0359189602847882,0.026597324958702494,0.67054224255467521,0.18273102495360422,0.20315183352202568,-0.039634101317769545,-0.30257815635002439,-0.26016809118927792,0.12045065589391647,-0.46055006122245673,0.0038845421884990388,0.4838000758903388,-0.53099358785269535,0.49153498816148639,0.15882651766194095,0.42838016038794979,-0.22088924585620973,-0.18007036819330716,0.9738945165924775,-0.14229356630194898,-0.33492684342638346],[-1.3307755425690337,-2.4836093339657568,-0.43058908983236904,-0.2631475989215471,0.10909277583990092,-0.737620824481692,-0.32186020096518381,-0.012275707951284735,-0.747524349459183,-0.097466206426265717,-0.30735094898259963,-0.42275164266296383,0.037894242563718483,-0.543068836931237,0.614454280078151,-0.44783351699985346,0.053014241407845476,-0.14190872961786108,-0.3208409898694331,-0.51490785358691094,-0.60293151785517507,-0.72919777463549984,0.16475413787499832,-0.7274622999750926,-1.3578573898013331,-1.2781495746513749,-0.35462969876343792,-0.38836173412561359,-0.68299526807196731,0.083359226822801,-0.2973228093981734,0.0746011267252735,-0.21819871521932965,-0.041866113799745752,-0.76015263971822478,-0.729611025922244,-0.66346327571338537,-0.029618442646755345,0.17347285210888125,-0.011453219715614416,1.2334062594502715,-1.0828773950555783,-0.83474416210007774,-0.026849704111717859,-0.574233315023386,-0.021702115261023298,-0.34989005119869027,0.42692077821105717,-0.14388880070304119,-0.67735772197030264],[0.620132995598107,0.93274423585751609,8.96267627301667,0.51633208989183466,-0.21007312183544369,0.98810883914364789,0.39830691250820283,0.037527646554822824,-0.22325928022164879,-0.19284672022470525,-0.391149343553817,-0.22158899214046049,0.38046212087414927,0.36833338007517319,0.3218170440871494,-0.64340322775917469,-0.59186834150249568,0.23150106430881068,0.47558324492167997,-0.22197463675246282,0.050571684794007081,-0.28665971264193674,-0.03975067757676938,1.0352167632489082,-0.39914441142647983,-0.031603955307087886,0.57916581458093808,-0.068138147219382314,-0.13493402726488729,-0.096124144334442219,0.37075206961693863,0.11758364307191398,0.49836942462019262,-0.46882735872410708,-0.026521925606568124,-0.41517534056188449,0.39306010081808468,-0.20812509765978213,-0.45001453187262846,-0.5374004376102044,-0.14439281659898609,-0.096923405981033217,0.483651777010645,0.57027243607432865,-0.18524770356939377,0.079497387938132116,-0.051061408340769526,-0.4170299477348508,0.53920671936692044,-0.27055567347961285],[2.0699941377383029,5.0967063551205758,30.994675596771252,-0.00032733314071928585,0.1742407564660832,0.96188676260614669,0.31863472966357342,1.2892751513910952,0.0073124488423573324,0.30050807932975565,0.945204096399042,-0.099835138887852323,-0.0084549004710676064,-0.23659272181868882,2.4969944548747804,-0.016844801640706116,-0.1789747093906931,0.19869678313742656,0.040032047716742812,0.37224961279977203,0.0072493505214999351,-0.26583363511302732,-0.27416063004491775,4.500232387089758,-4.1044252189175019,-0.05450542536378028,0.87196299076132244,-0.12572678670093704,-0.014130966288938328,-0.44810190544863993,0.026644138527200243,0.1815806995790091,0.19081375675626464,0.1559978892674731,0.19067379040563959,-0.089116799573215347,-0.011957624783226963,0.48891374570997653,0.1074470385735921,0.32930159137764908,-0.30896311780920643,-0.26361312247944046,-0.37353978343244632,-0.75589350886232953,-0.12786796849227089,-0.11687394431600806,0.48608133210157406,0.10038456494129647,-0.46895857788533568,-0.36693520346777425],[0.75302098698197906,-0.17854877132681229,-0.1957093547732876,-0.21610676295746681,0.50890158045858491,0.53804415194192368,0.43947927824976207,-0.13426936139408155,-0.032160433756632474,0.026240159563077819,0.045215886254158094,-0.17837185137609266,0.21663596429085158,-0.54179260992949407,0.031843669747312411,0.029835979136598263,-0.030878203894305525,0.79959675827366572,0.18872353781669121,-0.21875436760545716,-0.21560374277282851,-0.34450523445149633,-0.39278762296578584,0.76306587327633135,0.18920222075405149,0.051499760494691689,-0.34831587822001764,-0.860436422575527,-0.5362805470929991,0.0040551113785538629,-0.47736044674201533,-0.19370213279103699,-0.25311256187189413,-0.28701758364896968,-0.04315225662663523,-0.60628691026314563,0.55815639593077082,-0.13999046354653263,-0.27931159822130169,0.91339831092272306,0.0067997026653187327,0.0833545913205257,-0.33333056002965461,-0.093200514108705487,-0.12442093565761583,0.043201745967808396,-0.20676011701772792,0.19476208138775553,-0.28713856208344429,-0.49375078525083482],[-0.1251951777466804,1.8196547447534677,11.27074115573482,0.15022917317966048,-0.576187368538657,1.2179326081069759,-0.36104265891108883,-0.42950532500520211,-0.2694045834065566,0.38446919265978058,-0.15412571921987031,0.41765813461387291,0.00776677057596152,0.45486469639883448,-0.28041432341513317,-0.30481326350638677,-0.073084302627256542,0.12192535243772754,0.1029433619129721,-0.46820447138767252,-0.040174562396384374,-0.54442669775714492,-0.634705799066981,0.058682472781119759,-0.59552197771218818,-0.21093781308055537,-0.5655975918077002,-0.15492081447143022,-0.3280810607021295,-0.54943487214210318,0.73421922259829564,-0.73326952679492508,-0.75544141656606134,0.36451790490650443,0.11073259834978662,0.259918666905323,0.1208546597755642,0.072505798001624974,-0.36715923402398537,-0.35373938267833227,-0.45708093167155084,-0.029068406153591589,0.904777023332407,0.23386834123796205,0.2594371789143794,0.61128786622172893,-0.324784647534008,0.23781862170250939,-0.24242181456221615,-0.34986479504612528]],"ActivatorType":"LeakyReLU","GradientAdjustmentParameters":{"Type":"Momentum","LearningRate":0.001,"Momentum":0.1},"Type":"Standard"},"PenaltyCoefficient":0.0},{"Type":"L2Penalty","UnderlyingSerializedLayer":{"Bias":[-0.3715003527321375,-0.01004210798911236,-0.015424963390242666,-0.0028564910015779388,-0.23440407604285957,0.019020305609507172,-0.0030763624669801993,-0.0070858454654155294,-0.015766295070844059,0.096618449489734,-0.044815152863307353,-0.028648436282793493,0.017387949132301926,-0.046093660427116309,0.017034626269836768,-0.35793105131690395,-0.43865217394155237,-0.0061729530650284324,-0.0073035121763257195,-0.46655503786892988,-0.001143549511964424,0.00045078327736552108,-0.601941090915157,0.0031434273486389964,-0.0047912384566815847,-0.44782243199211,-0.60866841847392816,0.038436034384405793,-0.0048636420755215539,0.023504445229199471,0.019330907350574762,-0.55854854316662361,0.016638484943653203,-0.013351980697682691,-0.0036249844768372311,-0.58631692017654025,0.013063136270640022,-0.0050183264948730566,-0.0043364445204708462,-0.012899941176934167,-0.0029646284521355061,0.0010958190164508126,0.31256327031945941,-0.013020423505420672,0.0067414383076966,0.14031945176335908,-0.0084865393421611132,-0.006955058326705117,0.020428024720302845,-0.59103723150405585],"Weights":[[0.3499006792902396,-0.15321824787781452,-0.0987214373397256,-0.041322432830368391,0.203575965975599,-0.27643246464731036,-0.6047929666750298,-0.099633487361811324,-0.092306434155195086,0.63053154683138046,-0.1154350090152914,-0.0935273924655514,-0.16955032373023107,-0.16945048983652,0.05513300495274593,0.027103464898829623,-0.075103923779635345,-0.03603399978793808,-0.14783098729901059,0.29021877458735607,-0.017365060165691421,-0.2775295877036455,0.47909328547753294,0.086082915096717852,-0.11857177407385797,0.17285347144791038,0.13268670702085877,-0.15978529430192592,-0.19189008422001846,0.090385780774014879,0.042576615095013079,0.24573348430051761,0.59758564566328376,-0.0390867316457827,-0.081873262015795367,0.11176861588846586,-0.18689853708212986,-0.24895163354642511,-0.17398804501160092,-0.015239782257283846,-0.048585129144697585,0.11344605704260437,-0.035735774134819619,-0.2648376964665165,-0.43827004717871176,-0.044179829937977852,-0.032429195685956175,-0.52747452823405883,-0.12860410284856802,0.49154302646344572],[-0.034140663275905619,-0.87353668679170138,-0.11092989265384917,0.0019477823573987431,-0.19661162042255234,-0.49653183095700559,-0.78589906658488851,-1.0251600197558046,-0.28084565481598689,-0.050600591645091675,-0.2790812372229069,0.00028188866953875847,-0.14931028329476953,0.13746390969644584,-0.025260530235778022,0.12239286202351123,0.00035969989826450575,-0.573860663103743,-0.40798553286242756,0.051914295895659344,-0.23711968169900446,-0.1124746529648338,0.55781863136938858,0.0098318068333770551,-0.018817318845902039,0.10391469202745307,0.25494796122938879,0.040184017082880469,0.048078988499141252,-0.027413230544420655,0.025299397414336906,0.79822538440093993,-0.076705389419539055,0.082053732651478348,-0.1998418101122075,0.3514386107145035,0.35055835511724059,-0.351825556571297,-0.17692357658021193,-0.19343048837509658,-0.19205822106822193,0.14502775159648021,-0.73455960260143116,-0.36395777594727519,-1.4231482250475249,-0.34726341250886039,-0.07663644740179737,-0.69196491761320722,-0.29937887349388609,0.57497813165284339],[0.48463025363333367,-0.44914724822859636,-0.2479597124639687,-0.30966794364093653,0.85369125343892571,-0.53978625794748936,-0.49323317299779385,-0.19396614873176699,-0.13107775093403223,-1.1781133115489093,0.13960454493829844,-0.066202756318074221,-0.961033788224181,-0.4211846588999959,-0.67168017663094837,0.13444261810512725,1.3737882141257121,-0.4570955737284183,-0.13899114414651367,0.325797252697676,-0.15580551946342233,-0.5005355420650075,0.51294405840702628,-0.34599502154698547,-0.17945272528682038,0.30264830205616416,0.11672261418770517,-1.5676102950913926,-0.29530071234654931,1.156513837436504,-0.73865437119972444,0.073423308462522749,-1.3176262201314395,-0.27656298397219031,-0.062911596722895161,0.19341176355247064,-0.19040389961245144,-0.32389337215299824,-0.27644812751980147,-0.25123282506022243,0.16484059043367502,-0.20692962482434582,0.023504493696469737,-0.26335514863882914,-0.34526386215560745,-2.5773024415187473,-0.073092983996706329,-0.42551252878566737,0.17662789938585072,1.2481696728793681],[0.06895942447714945,-0.099370591742461017,0.13714178707896232,0.10047998563982354,-0.1901885271080796,0.014016576641442572,0.14861152643051451,-0.21383111780900424,-0.017036206610138441,0.16172079506890683,-0.15519427459089488,-0.13827778407420463,-0.063590511636305344,-0.025329646833105617,0.036606047483216407,0.13037954494798704,0.014909038442531017,0.11417342429494129,-0.18391362109246362,-0.15648987956251564,0.14796047107853572,0.13075081778293229,-0.038558779014836481,-0.02436821943576643,-0.0697815994506115,0.023129355220214132,0.0736642734221082,0.022093510458428573,0.20264942324949536,0.0636389272739361,0.11544533296013443,-0.069804254288007808,-0.070264926364536,-0.0554209605569545,-0.21599184745668806,-0.26157204249490734,-0.016676189565060159,0.025284075360384711,0.04500765319038217,-0.26974485454196578,-0.011144969058449968,0.0244772302793519,0.21401347379515556,0.19705941668429389,-0.12648140622413889,-0.01819535810146827,0.10418033812617131,0.048993217096690779,-0.19787983666382986,-0.25742816742075486],[-0.0036774578228751169,0.13570088579392,-0.15910979097316344,-0.24506170219034346,-0.010910752136823035,-0.088498626615966733,-0.083445846681397512,-0.077706628556613,0.22854717542835293,0.27211479093437141,-0.073206948371992486,0.0666131410674086,0.16354782580919353,0.10509253418964798,-0.21474836671775194,0.064811438970288612,0.037509886365141354,-0.0904550840830123,0.43240996227172163,-0.20178851089870897,-0.19117172226342935,-0.10726368903012333,0.096220432638544573,-0.0074908825173866968,-0.14654705904164314,-0.066996983041066008,0.035427329104919351,0.1780133663398536,-0.10211319076907084,0.16844883513941664,0.089392467849142079,-0.49286197960053979,0.21042907129516902,-0.047769135075807267,-0.11601278355739694,0.14203436851947798,0.18643032344481975,-0.036620160247267566,0.30702499572229247,0.068854073205132538,-0.03468278486900004,0.2546101531328025,-0.025427420619610622,-0.0698157347975592,-0.136038501733789,0.00056701271595365659,-0.20941548545959421,0.030603237388556668,0.20928100046796638,-0.20266210818146943],[0.087994509155449471,-0.059722158515054885,-0.14697865132691096,0.19148014113802506,0.069824983526652631,0.46448421498839154,-0.17083910268350885,-0.0064236971857530188,-0.25043771333691289,-0.060289063187479376,-0.051661936199264007,0.054318924163544259,0.58660748516691885,-0.27022457097274549,-0.040504244253866346,-0.10599047676094221,-0.45726418986521472,0.043038352949594461,-0.3382639238373964,0.26036520891982329,-0.38556541327337451,-0.096956166845941855,0.64326372696476064,-0.022933021330047269,0.10812356552960703,-0.20484421108359513,-0.31216216285652304,1.0155918191042614,-0.099402158146794081,-0.8578900474020561,0.01765652276875548,-0.26362954802748023,-0.16562931041640966,-0.11260686694300451,-0.18915089910821373,-0.24220078706392845,-0.20868957634516594,-0.059344207848869873,0.071610095640396193,-0.24623050631213825,0.070678768655496785,-0.24044158068090166,0.18932315395183796,-0.23642638115251369,0.45647806168222005,-0.49877784843658773,-0.059770037502389371,-0.349998777216585,-0.1749305653761975,0.68469110792599286],[0.090033388081135562,-0.36099035823761705,-0.13788623106540018,-0.069328587685850027,-0.10958773575129982,0.0648964397130404,0.21459524583902764,-0.29830402298545178,0.010191754989018805,0.18813959714226364,-0.27440620628507634,0.14207696661333305,0.0042630667758939813,-0.17262325063660958,-0.062460821579434937,0.18507330643689723,0.01582725448199588,0.093063146921034817,0.0052691559592001067,-0.20923098461340528,0.027029650930876344,0.25785542902629244,-0.27335505046316466,0.092482143274419643,-0.020688411569717562,-0.11437843016852069,0.04538742623508453,0.0680031835856069,-0.19381091126906661,-0.035128667180533611,-0.00249092881526812,0.050969093974118092,0.38581209410436562,0.11221169880905887,0.076581892820998379,0.14879622464142719,0.373601840901029,0.21238779509379444,-0.054003925043861735,0.26423389596772312,-0.060107223684598067,-0.17782129660992294,-0.068413606380353875,-0.2173375060113209,-0.035180348916551925,-0.22126591747753927,-0.095482597624919952,-0.14274558019114483,-0.47272029202508126,-0.34465031274026259],[0.15595627467659143,-0.037998490172490441,-0.080599851088684935,0.10124683278197197,0.13846660306166941,-0.31847906752936533,0.037392420723114508,-0.08467709193756344,-0.27483138970120763,0.075360119722686622,0.16083810913934882,-0.047255601798752427,0.16180056203790352,-0.18065185280212609,0.12414694888392042,0.051079236921633006,0.086051211846288458,0.22112309419388526,0.12091089351521449,0.11573560877024763,0.044368897559131475,-0.15124953216801879,-0.15019232640936753,-0.070461803941219939,-0.026423784248501538,0.12888752084829044,-0.12462859086829829,0.17524252995711503,-0.042320576004306144,-0.097770727758030654,-0.12456173281763483,0.10635734426766379,-0.10334853651859019,-0.14834896240793966,-0.24515507059778577,-0.010498044906166314,0.043600619164322438,0.05368872216301615,-0.1379367004144153,-0.18702558671818539,0.071571373129769619,-0.069480866338939989,-0.10359297358956816,-0.10882363839433171,0.20528606033658373,-0.0042913280428614007,-0.028155768640405608,-0.18268376205962789,0.16056327676741547,0.20623567761672737],[-0.13452805360714643,-0.12850179602623268,0.2409187501529492,-0.0056553364095230981,-0.10112074180776386,0.057224095853090164,0.21294756906106543,0.040475868787957878,0.0065980814450905343,0.20399126988070637,-0.0681046748111556,-0.21413575759473824,0.029532381303579484,0.058523948259279854,0.00019323869041386004,-0.010463635933964674,-0.15879689033999717,0.13243803103190524,-0.065523633807108184,0.024526166664478863,-0.038151263786472767,-0.019868385595939217,-0.22151920062707411,0.12505120884970111,0.34017457692446379,0.07193189642543657,0.17929030598057724,-0.058521337472514125,-0.18507218073424123,0.092160840934224691,0.02366897919338827,-0.10299979359823848,-0.036276582994210875,-0.024653669407454379,0.017080924494361292,-0.19016916577839171,0.026588016950059808,-0.049819244089911147,-0.10545336779203808,-0.22112653043387365,0.054012616668543761,-0.18681683723360004,-0.012682462239774983,0.12799687087360026,0.086340338795849791,-0.069018211974530091,0.29052322911530909,0.281090392874006,-0.13433619655108584,-0.10897386397267679],[-0.028805477811525773,-0.30848405217303376,-0.056360606342761119,-0.10242621686584585,-0.010265074143419132,0.066037849912733662,-0.013558129332748248,-0.089116540481019052,-0.27531219128952128,-0.17165052909582421,-0.026869816137811437,-0.28624147794911148,0.058850788875194349,-0.14874533318415653,-0.0728540881442284,0.048908185292166007,0.069821030036156681,-0.055209698297879015,0.0733203859713553,-0.15123423036302661,-0.16382157493393687,-0.12640225506411409,-0.143766426050622,0.046606848509223871,0.059228380837376075,-0.047463470939139565,0.28754407777654656,-0.12958704220217202,-0.056929867767866862,0.047432289640884313,0.06740280182744067,0.089823044483520534,0.099776023286949053,-0.18199906204004926,-0.10209391542684772,-0.055210977326845434,-0.26917200749334069,0.079563991494411276,-0.0050718460871257013,0.04392808946455555,0.206048203416931,0.168065202302643,-0.10624620631481767,-0.2910266644361007,0.1826004892041781,-0.18982903063239115,-0.042280953627453585,0.025605654142846389,-0.13279616727735819,0.057573046317190742],[0.16308971293323432,-0.011363328010066303,0.09343884142003811,0.0050032980387383422,-0.0514812189240209,-0.0049058284596744878,0.23865658862427827,-0.00726549676579777,-0.073641435942996325,0.078124786098147284,0.054101890229079873,0.1096607659372215,-0.038646475755228109,0.19482189015663662,0.05730553998259371,0.31654525232630137,0.063396293808634915,0.0855017522682257,-0.074028723616176392,-0.088071532762915239,-0.076355854639696685,0.19070570123243055,-0.071437502583863541,-0.0092390946766138776,0.098124619386331352,0.10590262983779222,0.00418081100566124,0.29628887875249654,-0.42514440936109388,-0.1496342121411382,0.098647210535814156,-0.0888701207609473,-0.09067525564920835,-0.13999052495272105,0.23892004066496753,-0.15543071769455516,-0.16762637319618121,-0.14473896025578434,-0.038395609702465604,0.090940713267719631,0.04663251790113785,0.090335000695451514,0.17079794839303653,0.024229323274676553,-0.16816852267481358,-0.2707479040858054,0.015864993660101481,-0.036743969972293067,-0.13615122815942748,0.27192815987500718],[-0.31476452488347356,0.34076601331837186,-0.093182051810777849,0.189413811503778,-0.12084932547197766,-0.053042125030412134,-0.23054939405063973,0.22853083591181289,-0.07005177901623226,9.1475204053339181E-05,-0.095731742211574489,-0.011743737111087119,0.088125729325557,0.077143848261972181,0.21504109667508412,-0.13408933028973652,0.17631554080556539,0.078805603767435964,0.017087237685358875,0.22946523993728563,0.024820536473000317,0.025689777754458531,-0.22781209819852522,-0.083613456584850782,0.22651983970026551,0.016686018991400566,0.087712301959828667,0.022863941662793569,-0.088900622090536466,0.17963807140350535,-0.017851203662130458,0.023619384223242636,0.30160444246898849,0.23209413638579923,-0.140470892389709,-0.23389906021258303,0.08912851208269193,-0.051336060528421185,0.097707790720912013,0.062188086258879512,-0.039261848487956628,0.056533325483320691,-0.21266852508087247,-0.14930633196929416,0.17173157531699199,-0.23893310559372749,-0.0056589454446109447,0.16416552716503838,-0.040218500052640438,-0.3218253088820589],[-0.35375649135732318,-0.22619766825369572,0.0017719805492268316,-0.061632886150361284,-0.13486040081903042,0.19432361700912776,0.2521588713140076,0.020301690238544359,-0.16372600143799598,-0.053800653577539111,-0.10199561984039042,0.26007064853860284,-0.00531661170168,0.3489304145600497,0.06077649259086005,0.30807565272091586,-0.23793684444179256,-0.11761042681084073,-0.25410870642537442,0.023059125549029162,-0.30301805695162154,-0.15363029502141565,-0.29896183299930534,0.011385404273816164,-0.21823300556687297,-0.0930136170329569,0.36934672369439209,-0.093467768498232934,-0.094447174584800328,0.179559819531464,0.009560281316699816,0.056647491712692559,-0.10928766148564213,-0.0730482511515581,0.040415888130251189,-0.10084608214331046,-0.028236180272626581,-0.0932043552480291,0.071636730116755948,0.1033812416266035,-0.0090423155517914411,0.038556014877926481,-0.20902572092424168,0.25826903177942123,-0.039310312228856906,0.15879220925680243,0.27432529938728961,0.092016612176182261,-0.29864252982344036,-0.015395475027543503],[-0.18498485272317528,0.20364585239639257,0.071640542724539014,-0.16089036294315187,-0.16349637661036182,0.069931948579184819,-0.11165196128246809,0.25368715124441188,-0.000476614300367719,-0.20619091439309473,0.1032309806427055,0.030401953709336557,-0.09261025167523522,-0.04772725370232702,0.15355890615417719,0.23049834062157595,-0.22748922899217691,-0.046512291557802336,0.039664029796537707,-0.090766696576334932,-0.0737919670051167,-0.084323360350575749,-0.10009996154351966,0.00091786370973015474,-0.16406150993397459,0.0514512737015732,0.13486276501272948,0.038181733634597849,0.019808948207963459,0.16097573926107278,0.0025815784054783837,-0.013618648131142528,0.0055252965604743673,0.031757260789163667,0.08452702427277993,-0.15032126169118126,0.066536394231600321,-0.21738040359512939,-0.086603818452369738,-0.01542891284370738,-0.068602570616456846,-0.058316029668345475,-0.20240316084039636,-0.05087157517583666,0.16541356158993484,0.056844023346779675,-0.068150342837869388,-0.29140633175193542,-0.20334347965622329,-0.13613980439250298],[-0.37154351832138954,0.04885826006591662,-0.16569804182204445,-0.48680707832848069,-0.1061045341631327,-0.18433598578967508,0.14453454019779019,-0.14221934211827478,-0.20916203021191185,0.14401454650958248,-0.14120616186249246,0.035282300184108287,-0.68447881213934858,0.19062522192870571,-0.14349114184489645,-0.699752654441602,-0.6134926202159986,0.021984722979720438,-0.503867407729583,-0.58483996617201517,0.06601425492583296,-0.24952646539883788,-0.60963318880821382,-0.093161240047591479,-0.1777571842989126,-0.924671786641848,-1.5620478912977067,-0.64238381210900486,-0.091951785175293357,-0.037607054302541208,-0.06478301442694813,-0.73791808308847329,-0.327388443297546,0.22046754427262574,-0.1727870643000578,-1.2706149799605715,0.013289197740681344,-0.32513943647246696,-0.091348699135980677,-0.19302630177462082,0.12684793503728492,-0.27037162785732827,1.2867920763921856,-0.41981760543934921,-0.36276372997704048,-0.24471161741936798,-0.019069561086652569,0.19436267293502366,-0.39127458305340029,-0.060553483046756694],[0.038095669014034182,-0.33234015128401245,0.07107575101477033,-0.08466271124503541,-0.084762293313723258,-0.24057989075537506,-0.58278235935095213,-0.32697195526758166,-0.29232323428893492,-0.094172084735631031,-0.24560333949662069,0.035499513594079463,-0.039529495649162104,-0.19806698133331063,-0.26051908072956281,-0.10478607709367659,-0.36384392936264059,0.22649951894453085,-0.22114098313228334,0.047928130066565808,-0.28138800252984225,-0.22985047448905954,-0.16295588822757856,-0.22852814006392555,0.069518964634293537,-0.14429354302252093,-0.063161238194092542,-0.27825691916238282,-0.033468036193980519,0.064883658530199367,-0.11112787013400782,0.13787333327515883,-0.017723254640590536,-0.20840851332097388,-0.12984007676294598,-0.14627170107065773,0.11028661872616698,-0.56089442530559341,-0.20355825381772702,-0.22193341841818687,0.25325416022656022,-0.17474016972369633,-0.28893434128325124,-0.50842393399273367,-0.71027077986299181,-0.45100370591230993,0.22939769175227681,-0.412649030525014,-0.51076179184152526,-0.0502571811826808],[-0.079350609820507317,-0.0025296441810516118,0.21832190328851034,0.064208691849645366,0.0755821696218786,0.10397966532586106,0.0070597706851347137,-0.10155461073342752,0.14060164507768888,-0.18624031996137874,-0.11636369929954857,-0.065709921625874024,0.14640160248580925,-0.16956342227970356,-0.043776644527777304,0.053758642013496755,-0.050005595177420911,0.078380969410662235,0.14260389977401416,-0.021799492557912269,-0.023213335339556,-0.27706138484290371,4.65707826785505E-06,-0.0046456006480492477,0.12445339326004243,0.084066435775560472,0.0760379918413444,0.055491314864279731,0.3243134976037248,0.002785328671865127,-0.07011897908069141,-0.012389454691812574,-0.056397554787415739,-0.036914138642072242,-0.025233434506021571,0.12717642037761315,-0.13220930181958684,-0.013320751173279997,0.040766930092341579,0.2081327128636046,-0.258503964880751,-0.065963467032735132,-0.2440454689893119,0.18024626764379018,-0.01199170755769864,-0.22152377809593424,-0.18332435397922584,-0.19481530388809146,-0.32435902726434385,-0.092681567040781593],[-0.23006393456695923,0.1031972984675457,0.066144601699073907,-0.0721962036739374,0.033424560244787835,0.13881375018506695,-0.20203145797416516,-0.11814258937265214,0.022870508519564847,-0.082415358920923137,-0.39096052021438382,0.22613939715951695,0.18944226276428161,-0.14990562258938697,0.15680468524338284,-0.056507406448198,0.02457164305738865,-0.26054573760377275,-0.18574077158867247,0.3240049026704111,0.19748459030732699,-0.051830735141349123,0.13187464669229645,-0.20397744933042941,-0.1780051820738828,0.0374661316800134,0.037156849683503024,-0.017460938915023733,-0.24640154648509943,0.17255439426416561,-0.11059740736204005,-0.054516474565390154,0.034991648255870089,0.19006952061086924,0.0018572236630570438,-0.21515527136937462,0.16838414689967673,-0.0072981546128846374,-0.075767602933688116,0.15073611242145488,0.052180392101924489,-0.21946128096529319,-0.21099867101916695,-0.041717972529687328,0.070862036873971856,-0.21682155948086906,-0.00092962986820180067,-0.036232905978253328,-0.044937292363816585,-0.0716052087298258],[-0.33462621706870505,0.062279890883013271,-0.17715253974640022,0.1512994745146509,-0.32974889058047829,0.00473468158493482,0.13901517983866729,-0.070448087836727943,-0.025085470036565211,0.079162930125163636,-0.17689061898930816,0.20992024303508711,-0.11000779066172244,-0.060965477923345029,-0.1058145298261914,0.021773277411982983,-0.047829855966138847,0.02319976927401585,-0.036316616257513062,-0.1823360311499935,0.0634423544545173,0.11526550491999829,-0.096212968438195781,0.083992560470408012,-0.27946687481932064,-0.080490279159933231,-0.020393280123633777,-0.1547435264182116,0.060066942893968626,-0.18141722235855839,-0.019842071363920855,-0.1334931178866047,0.073719609142968462,-0.0332289189189928,-0.063880253341781448,0.18397633334904989,-0.047770521551715565,-0.020654248173973277,0.0026595596742535338,-0.033768522408963032,0.013261362213177587,-0.06443293587279661,0.00463164449091531,0.2186019893504931,-0.1778977475347524,-0.093428583063797269,0.065998396085089409,0.048853003447154868,-0.08356814434590612,-0.23559306753927609],[0.20837375473659273,-0.037629919422635612,0.068424688278435161,-0.020494853685160939,0.018618905653309505,-0.1428010804605605,-0.035220093023355437,0.12235600618687871,0.036593180527651141,-0.19302814548439368,0.20624651002999989,-0.20845776181677708,0.0043007872092365815,-0.071639641475799945,0.21916468362255751,0.261780884301086,0.14453669586201398,0.072790912302581931,-0.26987664931009075,-0.019097570451912429,-0.040429095322731069,-0.020838084540973752,0.011129973088740178,0.10784798970696367,0.13558899320238202,-0.06578046417174592,0.37910966374394534,-0.16056837296345078,0.10778182863079895,0.014214109793595301,0.061321954072344219,0.094766840109167624,0.025462949385454986,0.010601088572382268,0.14669156056700189,0.0801119573302428,-0.084091106094817347,-0.010611916659509411,0.083842193317530039,0.14950396712445058,-0.11365702508166152,-0.0607270242126704,-0.0079650878227883019,0.38240286661827344,-0.2374990585213459,0.030835710436170411,0.076171942613980609,-0.052880249999164658,0.11479226525664697,0.0018471772989917036],[-0.20554662603859308,0.12410479166184288,-0.29657449788283607,0.19288916054519237,-0.27590811374779051,-0.201365111564788,-0.15642186957964616,0.0079723248801898423,0.067241067760117318,-0.14817949507980188,-0.040643496142625024,-0.18892363189213504,-0.034761684587377648,-0.061494237482500713,0.058098957260961322,-0.074805759986014159,-0.071416470558025663,0.068810947131752329,0.037253333387531569,-0.018602505025106481,-0.0712902374733627,0.15781780167884224,0.018193896332394145,-0.083580406032160826,-0.020116954921892694,0.088826805037428,0.056326862117463523,0.041001956642686105,0.010589555570033462,-0.08568487968855884,0.13563730849577796,0.012947374882808874,0.32925912046517669,-0.0906930237355271,0.11035946485107057,0.28405126667032909,0.11324869638764483,0.028576367795439053,-0.0089819627277267153,-0.19490885579093278,-0.12410921423376155,0.0031745866000911886,0.063733594335544333,-0.12953006548432203,-0.0963707112607421,-0.13200184580647117,-0.063603266748979759,0.14312085216112772,0.11027162003358762,0.0700274650058265],[-0.0059802102950295448,-0.18502113090384934,0.10646849816710928,-0.063939066792060781,0.17311976840874893,-0.06406310058987065,0.021722166417018272,-0.074259752464330572,-0.0055272199121368286,0.15466653171876207,0.039455081536866672,0.038408343440176219,-0.089550570945330171,-0.065778201455222549,0.562134618073795,0.13063272911661009,-0.10168534811105114,-0.10750910894331447,0.1762929114326143,0.11526710848206496,0.0663023064763609,0.35614697672522411,0.18422913098952318,0.16583855205303688,0.093273915182395237,-0.063635608822432327,-0.13799282658184289,-0.015162961745940637,0.016289493550333073,-0.013495725241860771,0.50197473373273882,0.0052082666783734664,0.254856975152893,-0.091261142137880752,-0.19450376670192004,0.046986175247790474,0.0731686517186151,0.047928453787557564,0.15299688703038808,-0.36114283123809682,0.0448937382065692,-0.21875031297386094,0.048725207650896087,0.15623151374237018,-0.092271950835763561,-0.011026579187439142,-0.026878615744849257,-0.26109103095966829,-0.062542306441060624,0.40207169951649407],[-0.16216306204080733,-0.016923499737576911,-0.12913627306032563,-0.056966505597851755,-0.064282258781960144,-0.022816454402121072,0.08543759230518333,-0.26394792594939664,0.12141363810126966,0.21720435688503725,0.15471978698800751,0.10585345469602171,0.07667795949457383,-0.025964393700682875,-0.12466622409409223,0.02194324988332132,-0.051549769889552122,0.16205960429653582,-0.17456249529971885,-0.047886899974449247,0.26832783604798982,0.016036548778738616,-0.26109268035005473,0.016299383128787519,-0.2195050473880705,0.074684035431424572,0.039014009919073257,0.09795913778835981,0.045191122454950987,0.10144874596750378,-0.16893519454227338,-0.35484471801536149,-0.11291320664805193,0.058379543683649227,-0.079072626256285708,-0.31048002497557059,-0.31219483411939952,-0.23927053479849045,0.17022383562029661,-0.066635922737283512,0.07197200100114394,-0.0041781525600079672,-0.14071823570336606,-0.013008945785842841,-0.059703824882651808,-0.15661464034852976,0.22541477552749109,0.1267104376016075,0.12181440209069022,-0.080492415690705935],[0.40459283008845731,-0.47559711720109843,-0.22693335950093757,0.06094541985351954,0.37812894566932159,-0.281945672476951,-0.46344216223117213,-0.23919197584088692,-0.37941533602545835,-0.17450378766732008,-0.44395594530060228,-0.048301015363341748,-0.26752551564626653,-0.0885691688440534,-0.21409113533060481,0.083050917828808982,0.18362778634683116,-0.11547791656227635,-0.48431048577529295,0.13995949272588915,0.07305510735683457,-0.10186848959869763,0.60790392535240911,-0.16701270337281116,-0.012079364062056605,0.115164614061857,0.29374184716001039,-0.14427891279631122,0.19157968654801291,-0.13377601326934901,-0.42199743909041276,0.52332344630002781,-0.15737256289872084,0.080111202588802569,-0.0786555894205259,0.39243938913844106,-0.22959652507633133,-0.070785658226606,-0.14895665149425272,-0.33688386110097529,0.16934454663066018,-0.026616408355952744,0.095440435078493271,-0.28233391527540652,-0.76763526095088674,-0.040340000226109396,0.068369081941736673,-0.43859451262100918,-0.28726122481674243,0.57867500853422427],[0.28453636232834306,-0.52941893638051385,-0.33556393816929653,-0.22558771195721772,-0.40055498024011826,-0.61549274913496221,-0.221860772145154,-0.42180283260133672,-0.18594262248773144,0.35503155147867549,-0.18140017049706672,-0.1149704437009743,0.21737814538884487,-0.17045462953915383,0.32293969046368504,0.25355893014551772,-0.39642236546007,-0.27948165308785694,-0.37863841060614278,0.28241223206468052,0.10155648640455557,0.42664950141465069,0.25010462686799456,0.173731456290329,0.025513819319216424,-0.017031290188230269,0.091966395491920955,-0.061171947612799565,0.048239659659823485,-0.12606395108946739,0.3729051437219546,0.65272028378795588,0.39982126905714627,-0.0900987276196663,-0.094375056633473,-0.016263634093061065,-0.14067384659670237,-0.02529650311232488,0.081805222564649185,0.090616282006075036,0.0023291797551139651,-0.13780407321116328,0.052835794714359938,-0.088223485416673478,-0.61245932883691234,1.3944473129851636,-0.10350248173402346,-0.55968766461639341,-0.017929058204103267,0.14118867343577674],[-0.0099933344746879,0.16896582670227892,-0.11701482183148877,-0.086649281193609942,-0.526930760194976,0.013716702003165026,0.23406846648688498,0.054271536981240424,-0.062604017512335283,-0.18270813334655398,-0.19945427699749696,0.21068048679519488,0.34765836074984474,0.015022279343700908,0.17024504365591991,0.2266318082456682,-0.13488412806143779,-0.0030455412302155642,0.099275061546104618,-0.1819004999642389,0.071373715670761173,0.09770663441183719,-0.36474798177781548,0.0018815755138250122,0.0018488717484474446,0.09826163708325128,0.27275126279948386,-0.12395935692052042,-0.254032983935021,0.16745053098436868,-0.18225974050886465,-0.075337312819614713,0.005178219054843944,-0.20862196179186968,-0.093267553977903678,0.20809255912061542,0.17133679069142863,-0.15001701818985891,0.0049632313449366177,0.10964487878512347,0.23854577794029677,0.18741989585535623,-0.35382335564340617,0.16751377651738911,-0.1606828233022285,-0.17840822087353028,0.016651712577833166,0.21721322475214752,-0.030737592447553704,-0.35624938619962182],[-0.017070610516909928,0.069543338164094554,-0.2330342095711132,0.057125938174225496,0.12405241811665949,-0.0837278429009988,-0.035752022139347646,-0.065661997542171183,0.12492413489826944,-0.53281060373063993,-0.16884747025810548,0.271776251615607,-0.0535832808751364,-0.076271867351858674,-0.088806218920709043,0.12186727964074214,0.31573298573165548,-0.066816945833067964,0.23291736449916159,-0.15138639475231558,0.024323558416271523,0.012564507654295861,0.12949996921827586,0.15001500890192698,-0.062490681497374689,0.044870431779104943,0.092769133656949138,0.12470194122213212,0.13223876735295453,0.052136737651196183,-0.040743655455982429,0.13490489586911195,0.035119160897076812,0.20108687786350923,0.046563364238073661,-0.010801109997531266,-0.038458647713932537,0.064353298043490034,0.0032653061255610125,0.030714328659661075,0.14368413565061836,-0.18783252392751004,-0.10184353864200336,0.090105890370052219,-0.065073404404167909,-0.066836009323712087,0.050086100330520578,-0.13764400693475,-0.060062400465535064,-0.011502851982024918],[0.15834836402465233,-0.17101252518140933,0.069350443182462113,-0.054916199144418053,-0.0652605938845559,-0.21820744532406713,0.00043038105631904125,-0.068664758274461363,-0.0046721604799230708,0.14012355864716977,-0.033309174634023248,0.032384158149421881,0.084425750342593545,0.19292635081859832,-0.015401546929078743,-0.041997927366962291,-0.060373440692355819,0.035048254503263827,-0.13040956343056245,0.14603374016527917,0.0766120262012424,-0.021132826370182049,-0.089719283759091481,-0.09860118992377391,0.025304657274698786,-0.1344760658773006,-0.1449888521033039,-0.241160439560339,-0.039730513601890644,0.026204109979801639,0.011780370908559493,-0.0028691208495213814,-0.18840487507057363,-0.2030601555671587,0.33600300140456452,-0.17613000765250458,-0.344094496803785,-0.036707345684245427,0.092789344919506675,-0.26906177198990955,0.31841057348420787,0.285554749815143,0.17365794912784438,0.17234530361620468,0.092499795532808987,0.10881778377108613,-0.15759304770399296,0.077894266319356059,-0.25410634002972737,0.043142505924295436],[0.075286320364030629,-0.267823345276189,-0.22566182519922534,-0.388476767372314,-0.41963784974310053,0.071397815996687888,0.19125158548889745,-0.18899875518968168,-0.54897330570293446,0.06206426483303551,-0.3103250027648265,0.0770417270598014,-0.24005130558285653,0.31356834834322067,-0.069987966465974771,0.1320175397438827,-0.47984548147908279,0.54741549333782225,-0.44845757940987613,-0.043459616607831958,-0.30096649111797158,-0.48546627397584963,-0.27866687102007148,-0.0819752099107008,-0.13457417901315494,-0.19298892603489984,0.10980922899959422,-0.059546256165397757,-0.13642644328417597,-0.07619145989470727,-0.0083958675031273553,0.070501123172322627,0.014940637227834015,-0.022482360548448568,-0.074612647300152726,-0.10683836322682164,-0.070719033282811553,0.019333965583585761,-0.090265167875375765,-0.30775024990048938,-0.15196308349952292,-0.10224572852278925,-0.24591360173032967,-0.48825788234935319,-0.18765172569864166,-0.12897172107186916,-0.0256090789621468,-0.089490837354480768,-0.54712825146826094,-0.28497028088094412],[0.20412023314968583,0.15026173351718095,0.12922413119779436,-0.000770868337817663,0.12231611846131338,0.23864634850910843,-0.041685552279627072,-0.088253637932385887,-0.06248803628076801,-0.084948583661819108,0.24064234383336819,0.0350187426174923,0.2054762712363194,-0.21621948469502106,-0.14197810612953479,0.060451791798060095,0.16755171011651843,0.042985597310920984,0.15292544250682033,-0.24997298920017924,0.19037152841873006,-0.073611287027820063,-0.30559521273770052,-0.016147698888354472,-0.10332429438681162,-0.23037827941045472,-0.022108115792988738,0.037007770078473584,0.019699675815164922,0.16733199809906685,-0.076658887673770756,-0.0085666883551716016,0.3491101768419666,0.28966269415741797,0.099903443895469388,0.15536368685616273,0.085976871855137527,0.23124946818439507,0.20766675128757753,-0.032232287512272466,0.1328439344805861,-0.042973040235922445,-0.12919730773303251,0.17874367959059029,0.020581400338452984,0.025533143565397723,-0.0027518483459465196,-0.023666388179865668,-0.23239067838089819,-0.0423724871997903],[-0.14494422803608661,0.010848761477607768,-0.01686747774456843,-0.0882192614108634,0.0768928920756237,0.20863348890133771,0.01917808081084342,0.0051810863346552745,-0.20346586192544339,-0.12232790229148423,-0.33294280591076442,0.11656049551949517,-0.019600874395223043,-0.037521575026226675,-0.066364725225337429,0.21432658256252427,-0.093376353434303144,0.061360608866334383,0.11430347902010996,-0.032691216916483939,0.022357940911309229,-0.37532285634154333,0.074451891361177483,0.15419664636645797,0.03458116181775063,-0.15697583439410742,-0.043901576675695594,-0.13419770865833958,0.028328207645392515,-0.0840434781598803,-0.16561201939538225,0.075756153383595815,0.03308164061821018,-0.023799614680693623,-0.065936206700105027,-0.044749659559142736,0.21890882981928178,0.034911532309799251,-0.089498221521039728,-0.28324860164087351,0.017316748013174336,0.26154338487046341,-0.042202960458800426,-0.30701811121538941,-0.14984043119970045,0.07042562405117761,-0.12683200485701249,-0.14959755242677353,-0.42568764375461693,-0.26165845419545986],[-0.14788545641688808,-0.16635909905130436,-0.10416768583963107,-0.22442490734718476,-0.14175170638902343,-0.04408127988952152,0.31416866379890396,0.0075960954482423605,-0.12562892701878733,0.12175921759535112,0.010005399874550059,0.053903573667741421,-0.18524909047772803,-0.030261163543574023,-0.023896117348293455,0.35558285294271313,-0.53370728158933867,0.21333205733142238,-0.31971862408235163,-0.12375959543226128,-0.0720290779895495,-0.11350193074025242,0.0041508099496627851,-0.20237956068836019,-0.16064767300669994,-0.11444882141003823,0.24072876503040927,-0.13899832664209216,-0.23419719802903127,0.0452101896955561,-0.036038242295711252,-0.034107942968601014,0.059681734992145907,0.020579746301937325,-0.24438031094994381,0.075646701196830882,-0.099357947882401126,-0.09744150090339776,0.11560481107802975,-0.41583022485193338,0.059777529174231042,-0.050470778446830372,0.061514544659443872,-0.47665984961446151,0.14888011586483116,0.28114679227730377,-0.31883127641266235,0.17034575507858685,0.0420983264003233,-0.2561979179857],[-0.11724950733931691,-0.013999386454589131,0.039042153138093963,-0.019853603657309333,0.11165422164111906,-0.070204086359345122,0.037850197676988676,0.13808801251704911,0.11530853804601059,0.11066172664778716,-0.31539683768024934,0.091078945011625181,0.11442743438969197,0.20270103906432838,-0.28542362737314425,0.063263319621110661,0.0724678054486081,-0.053460806001909729,-0.14302909249641321,0.02872033900268639,-0.03092781196138995,0.12816349503037,-0.36872754828482818,-0.066768975189478885,-0.059937630894359856,-0.085540773016556548,-0.078831677897042818,0.022869572809566242,0.013742750725161776,-0.046623467758763221,0.18259021863651234,-0.12174780359781319,0.17198683661928238,-0.17447541076925943,0.023457037377135174,0.09508868699050517,0.1037064416384034,0.18449207914061375,-0.044914920585669552,-0.18131677104011854,-0.040919051158142553,0.23487811375652018,-0.13999713043088183,0.071564077894104169,-0.039045517264609621,-0.14268568504631687,-0.12887245345243426,0.012312686883081384,-0.075078666846598446,-0.27561296312269368],[-0.023732528593225707,-0.10250634851058996,-0.057708247740375022,-0.043141753483096706,0.029856617639230042,0.22242954305942955,-0.11741308410385744,0.043239695609041263,-0.047488237884932949,-0.21106120838975484,-0.22576145771039466,-0.18573471788090099,0.10570432347534478,-0.054148021246445986,-0.02144188611155174,0.31313712997661369,-0.079169377580755942,0.14503903142353022,0.0007596301505202644,-0.062819180854480364,-0.22485588546577323,-0.33545773646221144,-0.09269183498824575,-0.14310374148302316,-0.074811798919189779,0.019878942022623827,-0.07804145220498783,-0.0802409659390084,-0.073989778829161482,-0.097517364937026979,0.065261869721457741,0.12930227409106479,0.083618352717711134,0.098422903466242342,-0.048590108488802068,0.044066864391381112,-0.13667614956687155,0.19292933046280572,-0.20665947093973858,0.075855642099561249,0.17533479245582589,-0.023645816895439518,0.1154688721169914,0.15117414512032865,-0.10242976846592115,0.154743246105365,-0.059500587429448186,-0.18160102757795862,0.22312371064897058,0.19055383328542505],[-0.25861069553096089,-0.31052915893889027,-0.22061815007371338,-0.41350425531663643,-0.03818002920835533,-0.0726934832265986,-0.28375818777493572,-0.39046111590940014,-0.61231950316106731,-0.038323717507476394,-0.3921332028168536,0.2695018176567967,-0.10553717530604548,0.18900959859218841,0.12515057761979986,-0.063428934553707073,-0.61525515242325091,0.41208996146310017,-0.50671057416049448,-0.062033342133067687,0.058940774425220131,-0.59323937789638248,-0.20343588026526738,-0.3017705757679,-0.13510678590568176,-0.05067004534168109,0.19446409174146034,0.2338350446485119,-0.038024843523113805,-0.043604248130611735,0.043950808209150434,-0.034208035051785234,0.051469435671719417,0.010485033216819558,0.22434960267865373,0.11799328610197964,0.0084945707249439815,-0.029067240795163846,-0.016965406652514149,-0.50116975980442346,-0.097415315335857539,0.039604180007553856,-0.055634802438594977,-0.88747315387871883,-0.77555927373758027,-0.40298841132246987,-0.13215418774524285,-0.5818171444139445,-0.6859661346763205,-0.16728930434737543],[-0.12059072657892371,-0.025440794230489481,-0.3213702387537013,-0.2048984443883636,-0.10848950909019235,0.0861210399875101,-0.29380571465976385,0.11657915282388288,0.014354756875854163,0.07097631650592906,-0.23071850456884743,0.21828032682232379,0.2448694169489363,-0.015785477707248745,-0.085401630362241965,-0.18774258375608913,-0.59195197036573022,0.18165978665577931,-0.083776796094272438,-0.25362177896834065,0.14591004556335629,-0.41574270624293835,0.11174000658285634,0.013921719567322603,-0.12541883167670404,-0.15088186464350117,-0.25219141868433748,0.05952890328117625,0.41056793571196015,0.33309320396651604,-0.082759614023931574,0.087842364579719279,0.034342240635485959,-0.11967394835492709,-0.21344754549906472,-0.0021467948004468161,0.11930082696585792,-0.13128423221659852,-0.10978753348796617,0.19086484092174724,-0.036721990165494177,-0.12979066063325739,-0.27512405678913737,-0.18902616825489194,0.047665290924752628,0.092035164137460282,0.040274544076309524,0.055086690187956734,-0.25018282100712658,0.092827891183500377],[0.23308160156041849,-0.21576948865906551,-0.19202591307184325,-0.25261221862385669,-0.29753187213801252,-0.21903208526358139,-0.15610879867215602,-0.22137650793926869,-0.573315702624026,0.20075625397033578,-0.4738659489881481,0.19675104583005318,-0.23556949257767659,0.26138863552740416,-0.10676108098279422,-0.037904600752874114,-0.57116265407410916,0.49262475240170561,-0.62817886131471035,-0.28589540445398448,-0.32169944075417534,-0.12509197369997147,-0.16126040684493506,-0.34756029854987269,-0.029041255275497235,-0.026886949979294347,-0.20732286940694164,-0.1899130292492566,0.0091366474008972576,0.0029578368960708258,0.036581477222993208,0.2055352539287201,-0.20309828665351984,-0.16509824545924326,-0.22639441710548608,0.24085488154841958,0.22418553798780247,-0.2962338955844866,0.14764003525898928,-0.30496490346557287,-0.2282692965600889,0.040357881246744068,-0.13027199843056161,-0.733668826331067,-0.423431668251889,0.059140712541337154,0.015690541185469413,-0.2718390750059122,-0.48227014053967815,-0.027892807234356533],[-0.014715551914838997,-0.064620333101798086,-0.25547384594834077,0.07162011533579582,-0.08508595531568694,0.072045476631517891,0.074567765401342745,-0.067894703855852917,-0.037789531478150847,-0.091206534251207338,-0.0560118463868481,-0.0054490985537358257,-0.21233247034672959,-0.17219849918882163,0.14474533274943194,0.18946736296463976,0.081085010433203611,0.014580512956379467,0.058224152834080931,0.0042024399876548482,0.13044493383875772,0.0325209536371298,-0.15415710873535374,0.0093338808009100546,-0.25275934708214176,-0.013492675099673375,0.07601911198476087,0.0722226022728436,-0.050031150291978688,-0.32392690330237123,-0.23090643296962862,-0.083636261205133886,-0.053781123898429629,-0.061467041774275678,0.015909558085158104,0.089470627139512246,0.08993961249436537,-0.1571519519960333,0.03217574696311698,-0.082845418979290625,-0.024874713849563346,-0.094163087733092565,-0.18159603133507885,-0.15274599108800482,0.057892899025039517,-0.037128612782304414,0.034464633094692283,-0.025639487819468454,-0.045774323012208219,-0.12022306445492219],[-0.082104193983755416,-0.2175057050191376,-0.042471297698508631,-0.2052601760252479,0.11200241780373768,0.32386795384200556,-0.10284435601933768,-0.12741069723655699,-0.0751068039728526,0.021596486798251512,-0.022056095362754241,-0.18715521218213671,0.032406755204205322,-0.13049027086932338,0.090709064509114493,-0.14154027660304497,-0.032835958430990936,-0.013123041662740448,-0.25872599400691915,-0.09139685497801564,-0.070178360777234258,-0.012587078816907944,-0.048678455177698636,-0.30415516020976596,0.15859023395990557,-0.065896970089494869,-0.023309783155043593,-0.093524499116379167,-0.27903322139692477,0.10849604969202802,-0.090682267790235319,-0.088370807447240088,-0.066908373840461652,0.17662814177006253,-0.46037097162045326,0.048340816191345955,0.012549558713688045,-0.322474840159193,-0.062999023470559121,0.014470982968867667,0.011477781720993752,-0.319323082881979,0.035784360496553577,0.053514282581172717,0.0174317511405871,-0.032802823312827106,-0.21544280485200809,0.01436695824992266,-0.11819350870575761,-0.139471370018872],[0.12514317662739405,-0.73641492471806469,-0.031588248037213017,-0.17685181563279778,0.18783977225165913,-0.27980079449397172,-0.30981108691634568,-0.69194077160257539,-0.32278170890561547,0.044735702871836633,-0.045028190520762942,-0.13248152563881666,-0.1932329535374693,0.030270477724223067,0.15701212255726726,-0.14708606048174788,-0.053479654302344908,-0.27925268814205728,-0.13211490659766095,0.045705280061712109,0.013123616243671981,-0.11915360289639478,-0.11620982547690031,-0.030348128343097327,-0.12492148736082123,-0.0073065795937386786,0.10130308071271096,-0.07934731822702959,-0.092550341319874649,0.26818727580876589,0.040678887618956737,-0.047096267109974679,-0.20863798141126264,-0.17849328819920321,0.10298211616351707,0.048742921379057377,0.042351024551870467,-0.18594877011231159,0.0527995642838363,-0.13606303975146752,-0.054777688120360636,-0.14515246365954432,-0.11724947792192898,-0.45373901966395558,-0.75031141149191538,-0.022278667204330003,-0.0063923016771974357,-0.60092789232185728,-0.20990478470516716,0.026246754384823868],[0.32000662774764038,0.015773430580743944,-0.0883438711772168,-0.25201058237253504,0.48759059469857757,-0.057626108605613263,-0.11748267013076792,-0.0704512783497286,-0.32611493270055575,-0.4172987794276023,0.23716857742790157,-0.05017961744653459,-0.38046175251227482,0.101389564951797,-0.14216875883722352,-0.33750266561678177,-0.14181947238628881,-0.15781379130225265,-0.11131520226681513,-0.6693603380893961,-0.032772123005291143,-0.19559380152387088,-0.45964614505704593,-0.13793203074167154,-0.19233234031121679,-0.24942454465878203,-0.67211044130359809,-0.040863662893835639,-0.023840591633919897,-0.29471822168268169,-0.081084065265877414,-0.57237289205595665,0.25490452759795007,0.13376818391574522,-0.03322516982032829,-0.58561939095282112,0.02583168288576199,-0.0898410425836735,-0.35472817389786154,-0.11109641478664213,-0.36676935473610217,0.00213864595256904,-0.35018486300995105,-0.18163393551408077,-0.25187565451273153,-0.20906443420877008,-0.029988206714443862,-0.098587093851161683,0.32557105781959661,-0.16194447977927279],[-0.383248289539749,0.1010589257625476,0.1143449836993531,0.25233242583307852,-0.10740696992308878,-0.035448719242735509,0.090556055033571253,0.10743564055558869,-0.045712789347660578,-0.12754854583029288,-0.17841059581335872,0.060529829599168139,-0.18477734322834263,-0.10625252114141878,-0.072444192303804417,0.068589747151490577,-0.025869613777454076,-0.078557372545992876,0.3741598090992283,-0.1006721841054614,0.14686033340477731,0.15336279752719945,-0.30965044384158047,0.087150177855688737,-0.14068755575930905,-0.14629932229207185,0.025086248185459712,0.15000554936248003,-0.13937114409643039,0.22455618754982684,-0.0942219912467777,0.044782484716178232,0.037574437872825966,0.044858812713910443,0.15123611481100183,0.097211200828627914,-0.20342340114113036,0.087346329954566371,-0.022103728811691592,-0.18379974589697051,0.096374340458832752,-0.022046546003841056,-0.32278875472937407,-0.18626001514798871,-0.081750511443294649,-0.0960820788066035,0.045922700519665939,0.032331913074678774,0.058934911612115275,-0.16221859259343244],[0.26150392514017917,-0.29494749334726744,-0.10003648134720897,0.030648379490001675,-0.037616252750787463,-0.19887075869483892,-0.22366311734602279,-0.62103796763488284,-0.67843251012976125,-0.10426320748885219,-0.29091602674286077,-0.16353734732142869,-0.44746981251076934,0.079496487696676263,-0.15326790372930024,-0.0096614614942614127,-0.082170733807343521,-0.22974563487978564,-0.43274500337091076,0.22346470531235832,-0.21703814615474429,-0.58949098006642187,0.53816606970607139,-0.33742760895683993,-0.15675194007163598,-0.10316499085775965,-0.45682502218172721,-0.052426058194248407,-0.081249929543924584,-0.11082692168703695,-0.16928187062083025,-0.13421004500898479,-0.087704131829787438,0.0024160576673802254,-0.19843951270456603,-0.31360430329769151,-0.16821836428380402,-0.219310676711896,-0.14548457746039939,-0.079749816349405617,-0.1040933368436618,-0.129365544461003,0.11375702980164999,-0.72594979095748147,-0.797504142472451,1.175822848463989,-0.21468736747468789,-0.630086988605095,-0.48740692883416026,0.25167508312371295],[0.097973827017645732,-0.24149174997916417,-0.093656564328675,0.15477886661768356,-0.2804829376823994,-0.13727205969086603,-0.50625007855373882,-0.2517545842779132,-0.27606587024482038,0.12404652101526045,0.16295886311401286,0.050963218322039504,0.1115493023323311,0.052841364044097144,0.027658234385918093,0.18295621121232553,-0.43538502220871789,0.2070958874603013,-0.22853828033627097,0.036800446530065714,-0.0072717002978794467,-0.23533947670847027,-0.01375910885178354,-0.0068979272239509315,0.07034861859361187,-0.11160902011919383,0.045618385821164183,0.13122257594823744,-0.19551291446441296,0.043231014779355655,-0.065042748758495764,0.052679355585395139,0.010584694238643408,0.27373775564911834,0.0823892108653829,-0.18238919725968675,0.067746743526075473,-0.026986350218855017,-0.032173460464596709,-0.012584249082867149,-0.076462410818203444,0.19645140482682644,0.043286923833496554,-0.079894479061005261,-0.45250349045270666,-0.084688913851952818,0.087204673580550868,-0.50281318259069308,0.15806634662172839,-0.16522631196954293],[-0.10451579596747782,-0.17226881325381613,0.0030860244141419717,0.082170140955820564,-0.32445620493128963,0.07943910425795972,-0.02961379300558746,0.16448899630582742,0.038494249608168246,-0.299684211509864,-0.28839584432057541,0.050824742716864393,-0.38330950380881451,0.024343782814917277,0.23615049701239191,0.050486943885985479,-0.26902088889658848,0.045064525061034678,-0.20325429368005854,0.20186844920352212,0.14498753317817373,-0.22250320716523392,-0.21603680973890527,0.013920108212900614,0.023065479672132936,0.0035253002198712613,0.074921716041352518,-0.24615905556347931,0.071418890371418187,-0.071682626752244363,-0.19896862001121005,-0.15325820483015273,0.10445307246361224,0.0029307348375409129,0.013295468930312127,-0.12770205109095217,0.22910105288658239,0.021595831626220474,-0.1798376299803528,-0.15928383048995382,0.065697992014811163,-0.021203285548652012,-0.13647041902106116,-0.30278566416599345,-0.22376125867868427,-0.014925957716411788,-0.012768142124417079,0.066227782147407738,-0.43404609605307976,-0.16672849938791345],[0.33957274108393937,-0.73751908701682778,-0.14167434832085393,-0.11368280875669233,0.017997932167943251,-0.26170194435905836,-0.54024106766028257,-0.41541863617854263,-0.17050324305629813,0.078506311428171924,-0.20529349533860625,-0.025274934688570332,-0.27100762781133692,-0.16159239030533953,0.065925883099354737,-0.019523238394746838,-0.52091225881482428,0.18559890492173298,0.027800670456498911,-0.15514727468429815,0.053412329064805281,-0.081213442966484181,-0.11775065197463423,-0.17583064196848017,-0.16311497533310376,0.16835162933443665,-0.076200851406606859,-0.086076682183502368,-0.011632830612025068,-0.010619236236688505,0.060348326218248281,0.034120919953700805,-0.0099064810861949435,-0.21211439830472209,-0.064201140364538278,-0.29009343035223212,-0.029092679663981831,-0.16125044943391184,-0.092217192042317389,-0.11722169929495206,-0.19026296633642784,-0.015968941222677967,-0.1106092262811446,-0.38885161991929817,-0.700547374298683,-0.03515597718598748,0.023817518156151078,-0.56799868435477274,-0.23135124791379524,-0.23880458323568715],[-0.27147951834278383,-0.28865549087977,-0.17407354950413792,-0.063283636580230437,0.0043802100296900038,-0.047719614300732537,-0.043204883460296592,-0.28403962250304077,-0.52209170051098341,0.14062564136216807,-0.32671971806940275,-0.08146255520772594,0.14225852057225011,-0.11857440790163361,-0.007161284822156601,0.018933219575871345,-0.30419249029793344,0.70004565323849077,-0.2778404539741629,-0.042093590091758865,0.14206089505153102,-0.3375496378974418,-0.10093886833285219,-0.20796892910675571,0.018323554762142286,0.040361572660489148,-0.15829852297511043,-0.13149645491647335,0.11294419824397609,0.16592609040616163,-0.053949619881697573,0.18873858533841939,0.020897843489406005,-0.004713522085684976,-0.097031843477707172,-0.15457746695697427,0.022141154563588328,-0.016612477945628812,-0.048727316590968739,-0.28456231845599195,-0.092951806751644009,0.18061023785914371,-0.35383559489844679,-0.7088240816010849,-0.31442495957624839,-0.14130570701469317,-0.045602248721728612,0.09955969633473577,-0.32395489366241637,0.043133179523017158],[0.0042441224703338104,-0.13715265246990585,-0.0747496982897381,-0.25244595437356254,-0.0533016212516523,-0.027381339423128398,-0.066481894159179725,-0.10732775248822757,0.0045953239866159488,-0.038312856412053807,0.23313518222574234,0.043717566733587468,-0.021329248961923151,0.064507062637648424,0.073656981254185627,-0.0090284152830351,-0.26488511354424571,-0.04203022974773727,-0.26417578990951068,-0.26519539988864732,0.085967183165530842,-0.044978761999187676,-0.35526370027286452,-0.11251352797418304,-0.17349716333880447,0.028938787668908342,0.063069758866665576,-0.13615612772787569,0.059183936954917249,0.12719801680780707,0.034373078614347331,-0.082018904460454123,-0.085638198262770235,0.014851931274824535,0.18081782241766883,0.081320861362878874,-0.18804110960935958,-0.28937846965444619,0.29671727013678828,0.10970289316272321,0.12771646122265445,0.32321422000670197,0.22370535091322447,0.012114127601084084,-0.040328510781950037,0.036742687951206818,0.17066025841766275,-0.085278602139743268,-0.081925174159442449,0.00045372375045157356],[0.42872625345820997,-0.36335229479809722,-0.037407570820349255,-0.23654221711390217,-0.048206223586755415,-0.18901843433148971,-0.4695894886312707,-0.57452377928192055,-0.40568974517042072,0.38972521895695034,-0.068953796162104619,0.023704876654171605,0.02049697798672083,-0.063631785556613932,0.043694879101809088,-0.29641188307399663,-0.45736147196559196,0.20917362015348931,-0.47878754065597567,-0.16005912614657711,0.0649500615239947,-0.22033784136879667,-0.275672540006611,-0.050296380778135349,-0.24161068663235072,-0.00094406552396614891,-0.089410651663037619,-0.068576855278086671,0.025020274057209517,0.24129036257311071,-0.0071192141509401558,0.052603263579105539,0.031992757167420748,0.15015961066120864,-0.010078654291471399,-0.053425318588721481,-0.19604971033488025,-0.24501140834047266,-0.25315641466375055,-0.054991469800025533,-0.11584895963390166,-0.11731207682477551,-0.095920850309814884,-0.411580922730804,-0.53344085977888522,-0.21663264811646912,0.26533735050443924,-0.52982709992539023,-0.472918385036668,-0.20415039882976102],[-0.035983296451129028,-0.79652462467220886,-0.26757907738078035,-0.042846382582095978,-0.18351898560541458,-0.14142214356976668,-0.042890839127538292,-0.33035382013469727,-0.65337613875174361,0.27244741457478622,-0.32792347052883508,-0.046023604977030091,-0.11903717709263646,-0.051825714638113939,-0.047807525517184993,-0.3096551834834399,-0.27872032276917696,0.12307695759327332,-0.41061050209707983,0.0035609328258103508,-0.0077274861108618939,-0.33436865113678621,-0.028533566491612435,-0.073750767381366822,0.047349893368015816,0.018158322889573114,-0.13774099455907923,-0.03884596823328814,0.015653928337101875,-0.14033111186646008,-0.037449275093845213,-0.089661425240723527,0.1884630430774136,-0.21641053210683425,-0.26692631452565407,-0.03345488138296019,-0.14235671866904193,-0.012326159054146718,0.0657182504601509,-0.44087600319963738,0.082789444453611541,0.13558834796209449,-0.15763658217800769,-0.85918246148524513,-0.45820660635627236,-0.0891267776483214,-0.21815588674271111,-0.15596764880922892,-0.58346451405093736,-0.27379151527072665]],"ActivatorType":"LeakyReLU","GradientAdjustmentParameters":{"Type":"Momentum","LearningRate":0.001,"Momentum":0.1},"Type":"Standard"},"PenaltyCoefficient":0.0},{"Type":"L2Penalty","UnderlyingSerializedLayer":{"Bias":[-0.02092082172913394,-0.26000664563790937,-0.013024824522278157,-0.01583392888664668,-0.0066414640682888031,0.20186289753131428,-0.054992193507661234,-0.020988720309609757,0.016465946433083752,0.0208438130241658,-0.32659408659057587,-0.003253963434333674,-0.01635716712432558,-0.43862311764949236,0.0037305898509932991,-0.15433381956211914,0.18770161573574945,-0.021833704832328986,-0.0030366715996570761,0.2374612720716934,-0.047267749599566727,-0.020513699630869731,-0.00820643824471826,-0.0016032738122958407,-0.0053426002728760909,-0.03975803605311113,-0.002343898861204969,-0.0045782734517615465,-0.035133021149225216,0.0027567765208855927,0.092852427304767074,-0.041134505511619672,-0.020681337592542023,0.016495762248324646,-0.018685966485621815,-0.13139334728546351,-0.021766714631300695,-0.22781564346263836,-0.021169753142296667,-0.0074332679872176552,0.10746452104502428,0.0053670066403786534,0.05749583317597573,0.002067155934896767,0.0032448476956050947,0.0887019581998086,-0.013744564096376239,0.009845123694486365,0.019881786538369337,-0.0099816794906627832],"Weights":[[0.1434972157341009,0.26005739427724794,-0.24820368149666969,-0.13894197284293078,-0.10414326027147887,-0.11302015863113797,-0.039221947236686851,0.42805590517077063,0.26359431316667187,-0.11206974560356234,0.34226540523708771,-0.192626621666354,0.18346893459900812,0.13576498811916357,-0.45385529437379785,-0.1520812880648473,0.11848050967665556,0.038425713367305304,-0.14995955929554075,-0.39539169479621622,0.05835174303359511,-0.13900381615706375,0.20563161584821146,0.20361768165680147,0.082992439827769146,-1.4033060692722408,0.071167503063625182,-0.069621589968964864,-0.104362982146233,0.017849148420538596,0.28257278269591474,0.016631091150066359,-0.354862181616551,0.27225966508707505,-0.054232377203416636,0.13947199042935654,0.0021929396872704798,0.18732479422832926,-0.26234822301414057,-0.10706141456567644,0.0063380863817230357,0.0066096578826779244,0.027225578051671452,0.023872976192877812,-0.12963985861095878,-0.020505358073981031,-0.30136267138317974,-0.075780805091538075,-0.13857062531509393,0.00034269453080014407],[-0.12546646279531559,0.031345124843529415,0.0047048386174087563,-0.02608553005459938,0.049779539494327868,0.051866466494128863,-0.0612825272379292,0.019171510598142563,0.015700683621175455,-0.0087550362290796935,-0.061242692420426161,-0.041439423635625056,-0.07318454899938906,-0.04784836733906464,-0.048585691647392709,0.027160812731157689,0.20508266174351786,0.065178345139906474,0.17833850717930663,-0.014407573150827493,0.16379385023493073,-0.12060876866161391,0.11058674527179255,-0.17736623248054254,0.12022155640486704,-0.63056398908641476,0.10360339202907494,0.01001380675344838,-0.070498707065674557,0.042087460850313271,-0.064113817898796333,-0.017022759523341164,-0.34957340173174317,-0.015523217916964252,0.11775585969135344,-0.089986114649148227,-0.27919293898477643,-0.10835545840581085,-0.03158809647891498,-0.13299582964519036,-0.14553222392819259,0.0384321719845671,-0.12985432118407039,-0.010907816681123049,0.19162804050960472,-0.1793661898238148,0.055618635210787075,-0.095864424491932734,0.097552307642250063,0.084925535169594168],[1.2180220834033957,-0.037007974968826518,-0.64429085025354838,-0.027236185957925291,0.018483259246941525,-0.57935894299146884,-0.04013516512534742,0.15114001092609009,-0.35685098646962871,0.044966389744090493,-0.027539754266740785,0.14538430351106538,-0.27345700946508378,0.060022532218363206,-0.31111588670211526,0.18296641683104783,-0.13267759291648168,0.022755977941224852,0.042075212948326508,-0.081122830299671184,0.51186284561765516,0.014378371484049902,-0.46963857779258644,0.22474882288885514,-0.46486258320927504,0.044152565244744056,-0.15218087952180245,-0.049020783723196334,-0.30969896639214894,0.25187484335494892,-0.22535852824781369,-0.012294261135314221,0.1907297964295295,-0.50379785782875708,0.097548714332572881,0.022037956987117333,-0.62886111830418978,0.043892382122752392,-0.069351515832529617,-0.080816068179361586,0.40963114431671094,-0.12728234787277956,0.21858088492170816,-1.0610723193505838,0.023689666418592135,-0.070911575459354212,0.53948916106943778,-0.086144620248488873,-0.045002883111222115,0.39060857551673916],[0.63826436155422062,0.12156278225336643,-0.085300498297546976,-0.0059550543619239947,-0.080150713876611532,-0.10682127556940933,-0.0024954487574908564,-0.12914638651095403,-0.24431464682983672,-0.060701252130808563,-0.31630530215971309,0.033287282836041855,-0.36585426014107131,0.244445876968846,-0.045670026043969941,-0.0011193634948920242,-0.033245423754665583,-0.23012063057786439,0.047005418946770343,-0.23344573678607497,0.0036467070880894332,-0.076486318577885321,-0.18469476177321653,0.015857146060664472,0.16597727834164053,0.057527151177312504,0.0742324235292126,0.032642707661740267,-0.19079160580667362,-0.27534005233162662,-0.17945766894100276,-0.19604449778838676,0.27174519695038307,-0.4539869798885447,-0.096249250847214446,-0.17212339183849681,-0.28055352781110637,-0.11813121518872589,0.15220677717150027,-0.11232455737972498,-0.0808192954747695,-0.0759805688412651,-0.24844073076579679,-0.31879586896601253,-0.07638681296107605,-0.41158189297968273,0.15947415685514865,0.01094506308053801,-0.13630571164384289,-0.046963022086931767],[-0.21621099145767761,-0.017426997731057402,-0.11745770331833892,0.11482954090136076,-0.12961493344186578,-0.1755290804028273,0.079813385764863326,-0.13280005111105989,-0.13320268891482628,0.11646413059742324,0.12207380263094904,-0.058245422124989968,-0.10635524622126845,-0.16349307511128766,-0.12394857266996005,-0.10990681479791971,-0.20765628866692534,0.055364473930891889,-0.10953566686262019,-0.33473073936961795,-0.1402198198504804,0.1690802493707467,-0.027883161533184993,-0.11873235736509465,-0.20963987570719547,0.15290365475236956,-0.022952097596029005,-0.028436983275982534,0.48477714657693893,-0.20256164938764262,0.29498955954099487,-0.20284693732532891,-0.34690927705194785,0.467413180938583,-0.12498465312570137,0.29587687649853106,0.086174130576161009,0.13535297792794399,-0.25492364480414881,-0.034956902935878692,0.052987888090520442,-0.099807971169826135,-0.61977685940818827,-0.0917540534176363,0.061972245391297476,-0.578082966758126,-0.044961283721447726,0.21149845397614983,-0.16274129911943236,0.040979953718645379],[1.5475457476817069,0.016094481102452162,-0.066171947621037328,-0.099080920361449415,-0.1549225526920876,-0.14281544688221276,0.15908153695408259,1.0074973493546238,-0.17334139737945162,0.079451372715590385,-0.357313900071438,-0.25301871518365815,0.11747668976666413,-0.0550589068024726,0.14729677901267388,-0.10575606640768386,0.8913997884480096,0.089685812129706763,-0.30036466569939879,-0.16583894728620149,-0.18920677991458362,-0.53586567254462292,-0.017660608198334055,0.20145002704544346,0.00036032306977222235,-4.1139611638593765,-0.028754452277198073,-0.26063551456041,-0.35801463820246704,0.067215417789495621,1.1408666662138187,-0.12190523843809374,-0.83623861618061646,0.020056523389454073,0.676266568276659,-0.26602675499503448,0.015961056663626391,-0.15900273925825786,0.18132688038014991,-0.38213556302719309,-0.10384324813651992,0.0042953095650387838,0.14667115914994774,-0.14858219549083127,0.18345807906336692,-0.22062014411510067,-0.48870602449840045,-0.036840246172790567,-0.05218031453961193,0.005495380991222102],[1.5984584938137243,0.00150207494758157,0.00054407194558024467,-0.0035292177779347998,0.17023059074082464,0.22976278761612173,0.077312815648414676,0.95841056811096448,0.012607697429252218,0.15856851417351889,-0.21174741102678027,-0.12488831792465793,-0.029765467066904812,-0.00589272559247227,-0.18220704081853895,0.054489732267133217,0.84535252719115062,0.014706441123524252,-0.10777670858516333,0.072576841905891,-0.15366607676279587,-0.73270695841599287,-0.10398140865798292,0.53302400452642407,-0.0868449931366264,-3.7072318022656261,0.17847659937992355,-0.287804790313077,-0.10781397686121767,-0.14954018042713663,1.0059965099796553,0.28521459629739782,-0.94062757899467986,-0.15989276544088671,0.643584727079124,-0.39354095560439917,-0.082756710113501844,0.10778093911734188,-0.46502547558656682,-0.50353895529655646,-0.11342871758515928,0.039079168295221116,-0.067402434047632229,-0.042160820496978876,-0.090732719946383822,-0.21988782157640835,-0.53325932718356284,0.0927016937068253,-0.051739532810331695,-0.15128879512867496],[0.42421056493864745,0.041711025086389276,-0.24597565626426798,-0.03248245481250666,-0.09695764877188,-0.1360346779546199,-0.083292956074582758,0.57120329856470176,0.18048229073068706,-0.027168650128885957,-0.062446875296420616,0.09788786070026971,-0.26262088879977386,0.0040473465520961477,0.09817044004109092,0.086428883153242916,0.0696776976423619,-0.17884040204229332,-0.27514093075733531,0.11632543956764624,-0.071115399901115053,-0.10455115092432998,0.038389135139722939,0.0238950838264525,0.1561321130787732,-1.2869048675078034,-0.24882468846148972,-0.11730121085519678,0.022686261248170282,-0.15493896401954646,0.44482825788100094,0.13571487816946812,-0.33220522968393329,0.21396049855379012,0.18280262149939056,-0.14667640103188395,-0.12168837574220717,0.10040863362592614,-0.18302642658355017,-0.094256521209103508,0.04434743105421568,0.025182209789928387,-0.074305845514593447,-0.24598348686384378,0.0074000934474828641,-0.11584971390302556,-0.072171823152306927,0.10295076209166684,-0.15331590396067982,0.11237325802100892],[0.784816870313388,0.12551290812272,-0.34795807929661765,0.094063680636722644,0.20052681934457109,-0.62888489357960875,0.18261402860151529,-0.22142094976801349,-0.068143322217003158,-0.17031281050219038,0.29432804836599807,-0.27202656682784682,-0.61251654729802463,-0.15929544289158434,-0.24662917076765548,-0.097266272346119065,0.19025756349487383,0.075514730074634676,-0.046954005278060859,0.091754314455950364,0.26929380532801661,-0.12797145094354712,-0.23577098925331755,-0.40470428483348425,-0.26239076715274651,0.41350000991447178,-0.10748781370661434,0.12768298043832585,-0.29543249892522216,0.086015318542283156,-0.1325907049214855,-0.067170019123270336,0.39955029816006543,-0.25542923848464716,-0.0906830613504178,0.10100827884891493,-0.59214981310178216,0.016811413153829505,0.018724696146198216,-0.086629053114799792,0.23014432922109679,0.03151871287673072,-0.098313773628092252,-0.51552560316824114,-0.018020374796615467,-0.017732860297706952,0.3152656032512729,-0.095002665959455335,0.017102019683791877,0.18622472159559589],[0.36239346997339333,-0.33883900740096756,0.18299439478615981,0.069129647638845729,0.072885583621712158,0.34193977204426917,-0.16414846001351036,-0.096285096488490748,-0.13249600984116433,-0.17494753436306357,-0.30039980972268993,0.071922402407208319,-0.41560700644717469,-0.7751514039534072,0.061891083787490933,-0.33139413680557217,0.083547588136317838,-0.0076536540004535263,-0.070197918584230648,0.29595192248264235,-0.068514991639607864,-0.16963786737899822,-0.10337200845966728,0.040306936876136679,-0.053005492789611287,-0.84568001445723462,-0.16754698555271685,-0.18270095478882298,-0.20044818232010186,0.044905724578931792,-0.27888679542332062,0.15971296119509609,-0.35151430184303151,0.086494177931320651,-0.056494964912150517,-0.31484052623095443,0.13578169690403119,-0.36098604090458419,-0.042987562964065903,-0.48366992832106237,-0.24163549613713453,0.13062808601983092,0.22449829608126362,-0.049085546897635488,0.096671974160894181,0.28767937383037895,-0.11534733901645534,0.059728670217484382,-0.23912838481118387,-0.21645825635471275],[0.092523421443859846,-0.082568369572397257,-0.039760777665623179,-0.060610925089855779,-0.20132012212714417,-0.21072636855717364,-0.13752085161391534,-0.20028380842892796,0.061802739728668329,-0.051315095609751678,0.21329856069864614,0.0021494843093933522,-0.509046107507889,0.11317915192678676,0.035828082673833667,-0.0070990397406106255,-0.37264732403653822,-0.043752133986979858,-0.13031076265247826,-0.0967545374361531,-0.051892482921038742,-0.167057576511644,-0.075155625437137691,0.040692344564515169,-0.042714563676789122,-0.042292950684719312,-0.0014440325745960019,0.18667726125818274,0.0242682493259581,0.28184143971871445,0.10747287200062963,0.0089519122472865812,0.042665676041277904,0.1596477253802519,-0.028082081746634742,0.14313396998420883,-0.17602549872959569,0.021203475900821625,-0.17431627215886658,0.019168837023387494,-0.11336516309449297,-0.25107827322103554,-0.14389830634353751,-0.51271650514815981,0.1096812350673478,0.061264296696087496,-0.064991806280070383,0.43402292510399976,-0.20864461025713219,0.18993062389787896],[0.83263455089559635,-0.19885710453501776,-0.019790284823272948,-0.16386936239063177,0.20524711208111329,-0.30425716328918828,-0.04399433983900413,0.13017920523295931,-0.18176493830862328,0.069489808617835908,0.056824359562971695,-0.097986812986284144,-0.23455550074305315,0.14913979416422624,0.082096476318707409,0.063299122662365634,0.12105650193211512,-0.19152455886432412,-0.055075694498881035,-0.0864416228850919,0.13288480601379657,-0.22312415707424124,-0.25363157399898972,-0.12106637961994558,-0.3989298733077532,-0.18662679803474208,-0.19240558933621194,0.079429466566543233,-0.018997740415170581,-0.0389336744140945,-0.11203320271419531,-0.11905398787271064,0.38956390747569392,-0.19112313839481979,-0.10783215071513556,0.041008071223930319,-0.52089970682554843,0.2599332426662842,0.022074921792296327,0.1468370337532538,0.026928129984024614,-0.059494888521463049,-0.077336846879208249,-0.53891352605933218,-0.036473902725299781,0.0021470539563428434,0.55680446097757874,-0.26322926886131243,0.011529962917149004,-0.00024856081042602749],[-0.0246487985254113,0.11088987224767305,0.30509374593520971,-0.23271781683666049,0.058694624775059059,0.158279572786991,-0.1291990508916131,-0.1473995613565651,0.061852929594919621,-0.10818604789559295,-0.17707327984401927,0.099730948643401263,-0.055241057139735816,-0.12588339774140331,0.26343737678729512,-0.35128288042366251,0.09514323317818138,-0.12317693382894479,0.053239962810847835,-0.061367064170151774,-0.078134812758149139,0.18285295628517756,-0.25552091000996613,0.21229368663378617,0.10262947264757334,0.43044688152964888,-0.20843797655631727,0.10624867718849577,-0.60198205468509169,-0.029614555943911332,-0.0008466123577652217,0.17213554571434966,0.18723984456628448,-0.27003128095275419,-0.035464922562057327,-0.23981795291833913,-0.15460864834545077,-0.37435288650786447,0.040026100575355758,0.15204327910467236,-0.33482242753463992,0.14210602024491972,0.33890667870771563,-0.19262457783252035,-0.058691461423543347,-0.406481450900689,-0.087527701816099826,0.14311969972700459,-0.22026520832740354,-0.022745128186416004],[0.5958267232777249,-0.51987416371413109,-0.22597113575259561,-0.021392671300011296,0.24585789550349035,-0.53991448982291224,0.042638327432021464,-0.11801436054550658,-0.41171554720731807,-0.068373013362208329,-0.0048273475867878024,-0.2293299224085279,-0.24413261701596381,0.045943724116503826,-0.053757437694566354,0.18195134335699448,-0.051320175250201626,0.050778677514110068,-0.23953201857312631,-0.18917511696622313,0.38413371277047825,-0.010788728845798229,-0.18592202346905376,-0.017460372251764507,-0.55640277812548877,-0.10307634591724979,-0.13404513712405569,-0.01914660446524246,-0.24533906593012486,0.10864518124677042,-0.10438535841743821,-0.23168536878220508,0.2670981936257929,-0.089338716474308771,-0.16896654656139412,-0.097843635490706279,-0.51670672028500142,0.12985328157559756,0.013765029265135105,-0.12121544280034662,0.29469128399268568,-0.02586658447917253,0.011736364954768663,-0.7779377552857033,-0.15637156670834726,0.13566950647214529,0.76300336857089812,-0.029457938665640865,0.20813394941482527,0.048067925615868541],[0.14409375882417658,-0.38616059671547814,0.064518915174160266,0.1375282760640866,0.17493704576272481,0.24962770486514921,0.091671797381338252,-0.30865437302797971,0.21725139033622679,-0.062383899654129348,-0.24198576145558903,-0.0493038696958008,0.097591188350053648,-0.53771260153845,0.0031383642311174028,-0.11538256788144795,-0.26828235332625211,0.18374560736711937,0.017715837783400568,0.12132089284588632,0.0072248289512815795,-0.028172200407416029,0.062610017290991027,-0.053376881570813967,-0.082430193863456652,-0.016026587430470963,-0.15068098373842159,0.044823418962893373,-0.40886330500665269,-0.29344067024182185,0.132735005639969,-0.10416087251327091,-0.02184245614916102,-0.06436058288374788,-0.17075188933257604,-0.23920297375092989,0.16672415381164246,-0.22735526403550327,0.033238278486802317,0.072609466692355157,0.00041871951772804383,-0.1288173469499044,0.33410482331784636,0.09952657432012034,0.17039997371653434,-0.04478152827922148,0.15794328465198626,0.17821948288947567,0.00925745693308092,0.067992607438025057],[0.042359821876405426,0.030343081753090969,0.039696730911653648,0.073699450525179872,-0.044034975607883171,0.014183783976293628,0.14509711323722282,-0.10203253342126036,-0.22056878163973073,-0.13962454365641366,0.13848850924178061,0.031476800801672977,0.037737634980653356,0.20096195902995187,-0.0046732602756632165,0.2633431056508741,-0.18848845307838114,-0.15698525140302194,0.073745851942706359,-0.19547046332973345,-0.1260061156479235,0.24014569215553336,-0.046274654276403766,-0.10432859555947179,0.047994724973399475,-0.048459264625723177,0.0982305631515267,-0.23965202759594281,0.24908273915155818,0.035344842924151042,-0.10619168056733584,0.035003265872846447,-0.051172530898632544,0.20714241310608977,-0.078943401257838233,-0.041508557388305896,-0.23417723089750736,0.085436325034906876,0.050963270475927962,-0.040406522287998035,-0.050061439506220572,0.012976282664325841,0.2080582440531506,0.16469081581317904,0.022469560173192422,-0.17606195066524535,-0.088807974040222656,-0.18129734975017728,-0.11755207318099332,-0.093962768359355964],[0.20718113997571871,0.17608898139276535,-0.16959376838248208,-0.033334773609530757,0.075245333932994221,-1.0387765911946907,-0.0055895230618829795,0.26132326981099313,-0.041430304780152194,-0.1124608285866998,0.2382535604231823,-0.13214885514241012,-0.54515095193176644,0.11874741281118109,-0.36999560407192061,-0.035122261129829392,-0.28168925688945506,0.13042201999032979,-0.018796495387528912,-0.0095455281551139245,0.061603072519337207,-0.26076435052588731,-0.2647453593188584,-0.34943975426053864,-0.052481374467671961,0.056498251378002594,-0.44532594337064885,0.16548002256167288,0.096333379173455067,0.067740768686741545,-0.1891449949255693,0.0355605250243062,0.25225344892453794,0.062184304299243445,-0.17778490327771299,0.090534113283895448,-0.38040313486485078,-0.258192028109985,-0.261749807210348,-0.1994425029395217,0.3213982430547897,0.012104907900505895,-0.44886121406508295,-0.64230994173730793,0.019742900340182484,0.055681602225083192,0.27929055751884535,0.098713404738917723,0.13456063902378393,-0.023436775810848069],[3.7528006799500169,-0.15494567680390081,-0.32795337526797,0.11814266951171921,-0.16468100886828524,-0.45406667338066409,0.035111582313901227,1.79744384420321,-0.14816205737273616,-0.27258093002622474,0.16850445304692344,-0.10763900526541487,-0.44614902045398619,-0.22606694247404172,-0.14843185852186955,-0.026278182115086889,1.6915615179166939,-0.047794519784856479,-0.74599465644662177,0.050085539930401352,-0.19300932792721659,-1.0830031027499871,-0.040436998416376428,1.1227403276926589,-0.053142636510568067,-8.2950245686169843,-0.00325588377236234,0.071073703576550143,-0.0056039666951902059,-0.086741394778932557,2.4328934733169758,-0.2594380310698039,-1.8365705638461392,-0.45296816014255031,1.1746786886280149,-0.026700419873700917,-0.15791978266499879,-0.027551135209745264,0.0049849050117725209,-0.83562480808033646,0.14796868092129278,-0.0064406336452489249,-0.095944895200010746,-0.3775502996483559,-0.31100347914880183,0.0035163888384880247,-1.3553536221277949,-0.269612110653009,0.051333735176528963,0.0775596146734398],[0.1783497956202954,-0.0785066971128915,0.0896519483054894,-0.033335345096312419,0.069845675546917882,-0.16306086437213022,0.025370140571355039,-0.10040994843713581,-0.0078952155153225578,0.084977919889596,-0.30186127191505041,0.19999292102226715,-0.029699843674286998,0.015295408912359998,0.043578719490655636,-0.023001375416158997,-0.12440750617155996,0.06521918914328477,0.11774197420222424,0.001803578660946449,0.2504959084059275,0.14578719618161432,-0.16173019361991792,-0.15816774287068919,0.24150247335473435,0.15695982607169304,-0.12474346228099432,-0.099816990966507937,-0.30598171330683821,-0.34131596757098465,-0.2419108154917046,-0.086825071773699677,0.043278132278017807,-0.43028219753654,0.22073261887084802,-0.12849854768477481,-0.13702303023192564,0.24344561836821446,-0.099767742848440089,0.16078020318427655,-0.19668779624937638,0.068507682260559921,-0.031664198334705955,-0.48005628703980385,0.0089624663202897362,-0.038317116714588186,0.046340794025446268,0.18435676375238833,-0.15564321837805395,-0.22608595423923944],[-0.031930431611111421,0.0017471598505175057,-0.098310711666127246,0.0021915601316151658,0.20214665543963326,-0.0665973239818057,0.081027104933631647,-0.20972542527410235,0.1602394218767412,0.092298766891862588,0.20798690608913809,0.0078832500680774409,0.054751243146100914,0.39866439996921393,0.27204279615647309,0.29119750027030006,-0.12850077887474329,-0.079001528354177508,-0.14478978243619931,-0.071491887141369115,0.12110254029345008,0.0095677083569230582,-0.092583833568975885,0.03679268372375525,-0.067657006569676187,0.00668411325303028,0.090102003175586073,0.11458882508043,0.17345768089991628,-0.170577737973421,0.059164853223186389,0.22701107945141466,0.1438352538319824,-0.011255459923740531,0.14320745806523166,0.24211708237198787,-0.08288507148855849,-0.018713678638443615,0.18723259024049718,-0.012756868186888285,0.071699899217926133,-0.18605539980358721,0.18485931651578755,-0.052247078809712862,0.29050754568007192,-0.011146660256740156,0.050267540790344685,0.25079186387216762,-0.1173655143691261,-0.031909704502892725],[-0.12399525074065516,0.12025305109253791,-0.04982327398210902,-0.26545763039410775,0.037208121982147055,0.0033039467632197052,0.37520382264289187,-0.089673876707889191,0.29570295277774633,-0.039114698850865659,0.12525240299980164,-0.014484300327142157,0.05871810092104552,0.10510523571543227,0.12699224716336588,-0.12874189607768927,-0.061083583027741438,-0.12104926951459306,-0.023761828834542226,-0.086571459638282264,0.033920975287703596,0.012785299340395351,0.036472308631483166,-0.22825894775842659,-0.20989901113554413,-0.26268510674194889,0.12297604482051555,-0.13312281129086137,-0.055622732288488394,-0.15554573076393835,-0.043467021863448918,0.26652555369317932,-0.28437715280520331,0.1164078041013689,-0.019865059053636194,-0.14732614194918861,-0.027632407611024163,0.048442761556206922,0.23914373184974827,0.17666166937450367,-0.068267785492034661,0.2964062379972715,-0.16427152764659331,-0.027973837516372044,0.023386079358916428,0.25759099874680186,0.01250434327025832,0.27684573872598517,0.098865922995543337,-0.1887777807556055],[0.43282956883973683,-0.24280999399695152,-0.10285254630210131,0.11547016740918115,0.12449192840469331,0.033698108170067187,-0.093672309198119072,0.21435079916402056,0.063450536105711233,-0.11781309072622628,-0.24353154136542435,-0.028513236742741265,-0.15721829904731544,-0.44281042816684174,-0.24951701358005582,-0.18218139296345445,0.052531632683886435,-0.085881394751385565,0.27820270622758203,0.045874534167947768,-0.11302898900416747,-0.094914221528677331,-0.1846440771555907,0.0032168153227835048,0.040703139492503822,-0.022689118760391223,0.10074036225972231,0.0141071593751911,-0.0904084127318921,0.028175552243027466,-0.21267723557802146,0.047822199250203992,0.17123699181282831,-0.11069003683621283,-0.043559199152179165,-0.31759924892413077,-0.16837572129092893,0.018994090447611394,-0.061403079652768276,0.20242782880015273,-0.12715649288907482,-0.10285196996677809,0.10414588241092515,-0.21001920185383557,-0.013671311006815748,-0.077605223995860256,0.038843112523247826,-0.19240460491062608,0.18704801732609172,0.0748772785879878],[-0.52294582117110844,0.26094344735668762,-0.068573495019292482,-0.10260104458521939,-0.099259176246708353,0.16363937972807557,0.063520474008575328,0.016716095167737397,-0.11130921318912411,-0.073880699705264022,0.5230209163476558,0.1248753571849843,-0.18006762611869659,0.31714487650660711,0.041923806741238683,0.14980310140129619,0.27094024380381848,-0.3830539825641483,-0.0746076283526269,0.057630840693993338,0.17901806918782645,-0.32276406000884028,0.085340604955612215,-0.19348869952778544,0.11167967999876238,-0.11367447263306088,-0.13864814011291027,0.14261382251909441,0.27900273481598026,-0.086448324025924284,-0.3877923105626348,-0.17312889781689125,-0.31901900107816134,-0.078087124514435682,-0.0872606296173595,0.49828411262789535,0.17412361684509478,0.24079183964091494,0.15636340766247006,-0.21210187740150938,0.18928632618514046,0.14242232024508009,-0.073518747078407345,-0.0033993888768825589,-0.11617978835781799,0.32464657152092224,-0.1402624010465067,-0.054433579824096051,-0.065483815782013816,-0.097695424879058357],[0.98172889027030852,-0.34151775384472044,-0.433135056424763,-0.010120425789650179,-0.047611011586307567,-0.666525718055044,0.2546915175008963,-0.18154552736232865,-0.20399107737301186,-0.13965036652480345,0.091310890206164272,0.051289788490167867,-0.5305432752171314,-0.27787324691529797,-0.35817988637487896,-0.10298193190272452,-0.080343765400463618,0.1773921969837802,0.20322246360707469,0.03460477559791706,0.26906382435925086,-0.08378227505586322,-0.48897684531037566,0.095102377869061241,-0.59684539687134641,0.004268486327429653,0.060310006873117335,0.045646935187082321,-0.30840935474345355,0.0873336395332635,-0.020515735834002007,-0.34718080845817079,0.39737851601983493,-0.36728157483901969,-0.12422581862134241,-0.37296500117544146,-0.793290793294371,-0.31504347438993047,-0.007251531611430515,-0.022223112598539131,0.27078380865202722,-0.056300064439299267,0.33539612224576282,-0.755677499748176,-0.11163253829557973,0.12004476676476113,0.47384530385189483,-0.00091175781111020734,-0.043777179183993362,-0.058973089492145934],[0.43098779149650679,-0.17594363508693178,-0.047643749347381088,0.0391850832356897,-0.039281271513634336,-0.027938349882377381,0.10017145058187763,0.01903798108359742,-0.13899865377193116,0.21250451314262686,0.0790866104444512,0.14582911852617292,-0.055357242865273389,-0.018837663630216363,-0.01711872521521458,0.2074289423167433,0.049994368114862318,-0.0392826757768489,0.085451635293078546,-0.10404308074607069,0.39052689837734217,-0.10717005950338454,-0.17971061305475858,-0.16714707811921847,-0.42039760483936939,-0.17321066636690777,0.21294622075527409,0.13631529082609731,-0.31140044327867833,-0.0015547093960247185,-0.052432963552717836,-0.10509428319615256,0.31268934750142391,-0.31343851322314042,-0.011761199730277153,0.093494395836334412,-0.38978801996277967,-0.051189019370974434,0.12923484382464268,-0.11927866839403313,0.14230541054823495,0.15294827632508959,-0.011085025422368184,-0.49708606497087227,-0.018521513062311871,0.09585616414750768,0.18954851937740849,-0.24737861584068993,-0.18025978938699064,-0.19094667893691056],[-0.071692761625292339,0.0790728570034469,0.1088556744253124,0.11315485743790187,-0.0171915276287686,-0.1585199984860749,-0.11962435090108234,-0.21642839421913857,0.057095855117689061,0.13437963610629214,0.17623321881441023,-0.018401127366306214,-0.23051810281844085,0.10993175838819133,-0.13378317351224195,-0.02370835631673061,-0.29597526962770282,0.19751533014584724,0.018891379425278469,-0.08349568270295657,-0.19091753362215316,0.18569400475258638,-0.031342156556093632,-0.01210877069706884,-0.20617323478550517,0.12239349494032153,-0.19695734483679167,-0.24082092642087832,0.0834291055286319,0.026092336466176667,-0.15104804887841855,0.20523004626301858,0.076347461206894826,0.070651604972066323,0.11169863661713574,0.066063280155244777,-0.32708547128847121,0.21257970853521394,0.22577865988200779,-0.19033391829880292,-0.060501043399813305,0.00055914501065989792,-0.22922278728711276,-0.033616278498748757,0.032365921666990073,-0.1046787055206667,0.12536038403833028,-0.071414751243682212,-0.054384477642227258,-0.068755760098797775],[0.099067726418881313,0.1589125170663187,-0.03110182809457598,-0.0569703781103258,-0.031947980079610923,-0.17030704004298453,-0.044266432981641013,0.0045416935380997048,0.022877468960051869,0.049536498593938806,0.572353990813256,0.15346188161592267,0.15812825764668276,0.35448149211129559,-0.15629594178187825,0.43235494949537651,-0.29924773782096653,0.035902951733596047,-0.026599094178073563,0.18685680460677084,-0.22199772140468196,0.29521937218262539,0.13348875425252033,0.070016179729132655,0.062685620226449953,-0.13261381106651685,0.12814693757499793,-0.0010088661225649009,0.14408338314937969,0.19508756946447228,0.070614801901947091,0.21372358954140425,0.027623672894697606,0.2428850338272856,0.020522479659924184,0.48024697744740291,-0.16130382914362182,0.10073901843852462,-0.21517912150038404,0.092249701337150936,0.17105241211959915,0.1423968124376522,-0.23122826939954239,0.043897300975991212,0.13957627770627945,-0.05240561664717882,0.012978896920387454,-0.086992492113806177,-0.030952779296283275,-0.06963982437194724],[-0.050332250828293734,-0.081624799836349543,-0.12744896199382422,0.050073381024756454,-0.10717889945511214,0.1064065397313488,-0.15451204448686268,-0.062082682576452913,-0.016065003792843223,0.021266247522629764,-0.37348678299852794,-0.18356655501131414,0.07430686696569419,-0.4014903837391281,-0.16614034260215133,-0.36580643719334244,-0.0041085741141648983,0.09490240355211349,-0.11731143029752662,-0.21674242767671953,0.038536203512795304,0.016434641701203092,0.1985262896675451,0.067906690494723435,0.10436407560194025,-0.088212060211927942,-0.022205107747691896,0.027082354763919469,-0.56156557642944283,0.066987503211449834,0.24171461026056787,-0.037007750186445587,-0.2368761659697067,-0.264914284803288,-0.24520638024618174,-0.56121790340457756,0.11315887784286811,-0.33374585103692372,0.22084111646200522,0.0018992519611688128,-0.35854904908126284,0.14602331370597554,-0.029142366227686348,0.0082699128857969,0.049812287413639779,-0.38530753949863294,-0.39381484974888947,0.012911202835286293,-0.021069003601545035,0.0754045889081933],[-0.17162768644564702,-0.061869894384510023,0.053264647285536849,-0.11674272680126435,0.007337032753542542,-0.2286679350994644,-0.16072053908425624,0.13594901404649457,0.023184852978582034,-0.0073973980544726273,-0.085150305004138629,-0.13006504698574267,0.019208422857543928,-0.22332065661237871,-0.013863936256046214,0.02436752734590367,-0.14716305220931292,0.17974946175354986,0.12151913692127089,0.25509167628736812,0.10935760109904799,0.073574392324659732,-0.00066028489867693877,0.19212561710095941,-0.2029672321262902,-0.0093628637882913358,0.13194463813671251,0.074578689160698014,0.0796656022080172,-0.0440380373607211,-0.0098991886924707471,0.1191076441034719,-0.064982503917540166,-0.18915549794097511,0.028598236060204136,0.11137360181372726,-0.17802001281026528,0.18110092792046051,-0.050802077166384595,0.31174422662657053,0.039429716232565241,-0.16091489959189445,0.055086131292391663,0.028405727691221204,0.070255437117233907,-0.076458091764015884,-0.0762981171766222,0.12207186328924145,0.00384430527725177,-0.12364333012642836],[0.057790547467476625,-0.30343063116207192,-0.047685756727255252,0.054224682060827589,-0.17847618196869497,-0.17022024499716124,-0.077046318793429214,-0.00084073770156625944,0.12055043909984654,-0.0098976156423407381,-0.53523197514692322,-0.1549479333146111,0.17291190293633124,-0.509010066004282,-0.02554588140298427,-0.22223093221465293,0.24363017157875661,0.0166012050471107,-0.086414969870480071,-0.22302259837894559,0.066676899022196659,0.090009569429468528,0.040838925835600066,0.13822190168927973,0.16919744983786864,-0.068176870022410463,0.082062675008832645,0.030259028679145459,-0.76309773970471528,-0.16711003008770564,-0.10727955440995987,-0.15094759028768665,-0.028162301261159244,-0.29236836819521128,-0.061288700754315771,-0.57681679220718518,-0.34710477478028939,-0.086114609440952186,0.0385980492658381,-0.032096859062358325,-0.18038863786320591,-0.072092906046725622,-0.0021109238221380623,-0.13446127233102972,-0.030700819487376897,-0.33080181519647717,0.1683856744542083,0.1163059873190439,0.24892720611678684,-0.064011859599427873],[-0.17750170883479885,-0.13579569059006924,-0.19331536521241838,0.051255431575898174,0.0046831343959758106,0.19672200253758887,-0.030301443339650656,0.017498327890308522,-0.066672507967397307,0.19074365315659914,-0.38415282388987076,0.074624080313918262,0.036169296322936396,-0.57690995773939757,-0.17074660362188124,-0.42421458475956891,-0.009344228406159066,0.00874089321568247,0.048437479666095226,0.20505253684147373,-0.11995569102946782,-0.037431975328639774,-0.017210172546130078,0.0074803179348256789,-0.15031021241783324,0.072257778198826811,-0.14162013696596462,-0.22355779239161247,-0.40031211625812546,-0.084571310462118035,-0.1777887128895625,-0.1927122838638361,-0.052331131842186573,-0.0020063891805837874,-0.037663068943534342,-0.14110399522557826,-0.15722634871471364,-0.100967852488845,0.0039909592054551838,0.29846132101730705,-0.12259984695415735,0.27099201872296835,-0.1238658835641943,0.27209435302022517,0.01691501423442833,-0.032475027040838024,-0.15928395640782991,0.27387071043724931,-0.19371555045804961,0.03917858940687987],[0.018015867326072924,0.18072419474239143,0.05874033941216579,-0.19907598109220057,-0.16207228145192931,0.0890382810903243,-0.26459395268480584,-0.15156879642141158,0.2557589941580059,-0.15555629899403115,0.34406579017328515,-0.09558839347135499,-0.21517159931032076,0.19777650570196689,0.11234334291983009,0.39691260046095844,-0.10532532055534519,-0.14026730679978608,0.036135821261987965,-0.019980822680151219,-0.13943132527029895,-0.12486218379014681,-0.10563668393630991,0.072149842598736039,-0.11403178887286611,-0.76787450517916922,-0.073008014678590416,-0.27744363256946153,0.21839186425620921,0.15509424888832687,-0.028569390790630169,-0.35957350324705389,-0.2711723349633926,0.19178556964990515,-0.066176594230548225,0.20974843601105214,-0.012309413207545318,0.44590143059518317,0.07982673545146339,-0.1569234003380357,0.24155828592054132,-0.28548775371222063,0.6278239977118607,0.14250628877951865,-0.2150560833218588,-0.31020132731111116,-0.035198537396429447,-0.0084886869541426369,-0.0012670723653603708,0.02135127830373194],[0.027446666297683241,-0.37415221929306353,0.091250103560149093,-0.099367541803400281,-0.064640666257700111,-0.02300362094942815,-0.029885505313238615,-0.14618292952814191,-0.11885089670740531,0.08234144647745488,-0.46698324455470258,-0.1433635571766195,0.042072039636693981,-0.615187028672071,0.1126072446162401,-0.12446905271467272,-0.15048359681037471,0.028324970489727853,-0.1074736007555443,-0.094058534363026483,0.014103776249512654,-0.068447319303039572,0.16908392871004871,0.017719674524077265,-0.14567155220480757,0.13895140709356341,-0.10939397696152382,-0.11351562502096259,-0.40851481435626186,-0.10972364547312855,0.031599797248297631,0.21811478438135537,-0.027370673460611783,-0.15169236113708284,0.15197463060036934,-0.50889011276507634,-0.049467298835455795,-0.16640368791862814,0.021306211977567952,-0.093149665225151654,-0.36683190898304718,0.066437661667882064,0.1830123273217647,-0.048011954112984472,-0.039690473285231682,0.13595391063225651,-0.19023861611531798,-0.19992428817637115,-0.039945542443253823,-0.12148249441307951],[-0.19953896903301263,-0.011577490790855094,-0.17327876921926783,0.14047181389187238,0.12255748407364533,-0.14462044683232811,-0.15688563733025676,-0.018030529227997374,0.16221542953699666,-0.0051499380807250453,0.12902127762320512,-0.021972716345519634,-0.21836010513715046,0.15500525586994687,0.045156531647240462,-0.075652754831169788,-0.088907216594537972,0.25308914117733045,-0.20549185875617479,-0.10044788477009124,-0.01255967720362506,0.11555925493747908,-0.036642774832564465,0.025021219933057153,0.19434661654958937,-0.2458305052159693,-0.062177303241042314,-0.029279549896306923,-0.27166181662893496,-0.081438686614875591,0.12512963691263573,-0.0034515920507699103,0.12090786719804175,-0.14818693222850005,0.044713260046448558,0.26375181676014131,-0.026888601557240308,0.0026594679604525868,0.065040420045438779,0.195418590139137,0.0680998618002228,-0.029739146335524519,0.089422180162796225,0.26842292104263316,-0.022401321214405766,0.129287422156845,0.17173043670214128,0.28674093180732063,0.1297697741414176,0.091886932338838948],[0.29818917227247926,0.12542826171165619,-0.1206556970307172,0.098161781090033776,0.020853716762796851,-0.264865900330863,0.19704415923472426,-0.048869013581718253,-0.0919589584451142,0.051169504710382556,-0.09994807398498,-0.16920883563278252,-0.23187943311441306,-0.26682840069999786,-0.17219654313425684,0.10176608536966861,-0.19660639904828567,-0.019894365633363945,0.18953278775564317,0.17778568488845215,0.16810927145164975,0.044934925102738693,-0.038091649240116141,0.0052453764982765367,-0.2288272660979648,-0.027879489450507371,-0.20145568961440077,0.16984208311988483,-0.14508285708860338,-0.11361414866011872,0.057764709001429958,-0.210542068773438,-0.085435299305116966,-0.04070310452573242,-0.025192594378508498,-0.044488518112939759,-0.14809727698475872,0.053780201693977563,0.011868829001581399,-0.015315158389262925,0.11983768972598259,0.05235175875585521,0.056931448472863008,-0.23698592942011776,-0.057634680687450285,-0.11151958197058864,0.19970779501100308,0.058105937619430427,-0.1459604693706614,-0.15974272959095112],[-0.095891903084211069,0.4746367892803246,-0.10669405183636806,-0.017087998324475502,-0.21003810802590658,-0.0065736868694288774,0.086092061344812232,0.074823615473037758,-0.29386825798471572,-0.084784550420300336,0.00061261874094619491,