{"BatchSize":4,"SerializedLayers":[{"Type":"L2Penalty","UnderlyingSerializedLayer":{"Bias":[0.01051963427164339,-0.0032040514232916551,0.0081401282553409376,-0.62437427582504657,0.007454701070255935,-0.91797563698366158,-0.0029442385601638646,-1.7847124925208666,1.0074198363487035,-0.39816223283945062,-0.0015794902991982025,0.69516292279779568,-0.00742173998680286,0.042995464422952004,0.0063509372020573284,-1.3042135243758604,0.17613236643277377,0.2171063840325749,-1.1126115014710793,0.0051961482359184144],"Weights":[[-0.45822074120814943,-0.11451533428231676,0.42757345459518348,0.11810908004804309,-0.081116879732174449,0.28582707055921819,0.22811485584266725,0.15916714316057623,0.041324315900214133,0.26717072976939304,0.82603304871313843,0.30013784864017812,0.096961612315270687,-0.77627739789534755,-0.86141165740445536,0.61525336660888352,-0.025676780676211479,-0.71936626663759551,1.5999630530278246,-0.0020638427471640591],[0.47411453202503068,-0.74131935393275794,0.8477779292605756,0.46225712566095373,-0.045351884647144847,-1.0304677439429857,0.3618531998328941,-0.48282526832566464,-0.42018072664577194,-0.18653227582715495,-0.42169795861707154,-0.95644569232586063,0.047008421639852388,0.23437695217608115,0.040112389469931606,-0.32566748181842875,0.99650343767154748,0.7596945503476551,-0.065299982722007335,-0.15713316404245806],[-0.11347978627798301,0.060971267365177224,-0.298553610966229,-0.038311050642083309,-1.5939924641356409,-0.12186436419071491,-0.79321276317750156,-0.10378757492323483,0.10303967147892199,-0.13110396418584405,-0.82319812788759827,-0.10037914431231503,-0.14319001619469976,0.51167315443973871,-0.13710206669787423,-0.34687707162670722,-0.061537362995192,0.54656580390987264,-1.2962317813234299,-0.9632373977564298],[-0.0039211529823860048,0.28116052481050169,0.46701110827496134,2.3879403021726109,-0.44421941780390617,2.2208357977570321,0.21518622192418488,3.3488754539533017,-2.3456132104902174,1.188878251412955,0.32581979229777,-1.8010389322423657,0.47364565969650191,-0.47513128278564504,-0.10079423366857992,2.3613852148511305,-0.25977542428781125,-0.60217384163311949,1.639109237478025,-0.23898001033471125],[-0.79632610614244526,-0.44704695111025133,-1.3588549071937615,5.2737441482925016,-0.093441186999981982,5.044018690884136,0.2498404834226361,11.281872064292379,-7.6545124206424253,1.5178170153083879,-0.00605498508592807,-6.7529808384648051,0.4480533896992086,-0.19369458129201805,-0.16856865539601224,5.4543469145550834,-0.25488914659730583,-0.55284022025006785,4.2580279810035195,-1.2106647036125486],[0.980506063983194,0.20576994676657234,0.087851869975576327,-0.16266125461858313,0.058328763120969969,0.30740725961052012,0.19924666809189962,0.7822446919555941,-0.58178854355865661,-0.089108881001204426,-0.31432954962774362,0.63724954892527552,-0.43053858818451574,0.4626584007558015,0.177319872753844,0.44174961819971564,-0.34879789905301745,0.68436307338016955,-0.61231862868425135,0.24910801970840749],[0.19037491031439913,0.53906976383350058,0.66290023349587213,2.4934450009209854,-0.004003973603626732,2.9268950656458079,-0.069284107572142331,4.6231666116144305,-2.5184062831900387,1.4088583721576682,-0.433505288152455,-1.8509027498451252,-0.17270249323769113,-0.58834797344919076,-0.18919519285672873,3.9510949304910614,-0.012906661584373484,-0.244929696315239,2.0012074177115391,-0.43683686422171303]],"ActivatorType":"LeakyReLU","GradientAdjustmentParameters":{"Type":"Momentum","LearningRate":0.0001,"Momentum":0.1},"Type":"Standard"},"PenaltyCoefficient":10.0},{"Type":"L2Penalty","UnderlyingSerializedLayer":{"Bias":[-0.75830656103123006,0.0946704648791348,0.00656942461572844,0.016158272268302989,0.2228874634549016,-2.4955198804918108,0.026537732483372971,0.52202500536152485,-0.072848223809045959,0.19718945914521194,0.00931404901149019,-0.016082021547437594,-0.0049954763818219209,0.50553050567624225,0.00014948253150300113,-0.00079875446008438329,0.016308032854998964,-0.65746119608382025,0.062296056086796447,-0.0017263465030993154],"Weights":[[0.046470028007640878,0.089626446077685537,-0.11651489026503241,-0.011857116781285043,-0.02963684726685361,-0.5284761934296599,0.4934807541065987,-0.11103442384563618,0.12719934344417672,0.13858502050210123,-0.1193162611451226,-0.17048925410411014,-0.022539383207981271,0.056248916429190082,0.071966459719964238,0.22771699094588196,0.030466904914812163,-0.19741688688926878,0.16583124793644807,-0.16276198255202237],[0.02042776005457652,-0.11021720776715668,0.0967983204907614,-0.24802676220244621,0.40515449128123954,0.17191291581608489,0.091129888091191144,0.19854214021779279,0.22514628933407749,-0.18620941486411718,0.092656014718044466,-0.07242739653090205,0.18313964622104295,0.1778776555542109,-0.076009736838064487,-0.049478355533898621,0.19408473617059743,0.17114940416721294,0.37521881000821466,0.065816588432235409],[-0.33077926686087256,0.32484471876166182,-0.20922740316729369,-0.14895944126503524,0.33775210956914165,0.017377759412349311,-0.058742245395135839,0.2933194788385256,-0.054812328513498966,0.040589544621176608,-0.086048211088190635,-0.36313476095607944,0.043268957551046767,0.027737644051519461,0.036143995357482431,-0.13738974379395871,-0.00256280014721097,0.26328252262316426,-0.3446586894177387,0.23355120305142771],[-0.047394264771288705,-0.11915774625203716,-0.39728944965733093,-0.086508891511628286,-0.58291826082699072,0.13977323110642498,-0.39663915129454697,-0.286412731912314,-0.50315333052437172,-0.17655669219425252,-0.32295478277612266,-0.31137213848200823,-0.050298770409069611,0.28295381782156492,-0.056423975150480928,0.061919237689343709,-0.17517015163732094,0.11114073674894419,-0.01744896705685366,-0.12318228136063396],[0.439293002094657,0.13237876727992029,-0.10754042980093966,-0.21495532499844144,-0.099448200061375877,-0.78368076490194638,-0.090991350200933976,-0.25413364038326386,0.032482787489189341,-0.30353323821788825,0.028922458941197958,0.12463902154137178,-0.014645341256224272,-0.22765282540283244,0.44939339087415953,-0.30368859865009951,0.13805661605382466,-0.13576008567990439,0.19295492401226791,0.29424780566270992],[0.089908541158432581,-0.29738716675705112,-0.098754337098860279,0.054019609705064295,-0.3292191313283514,0.25152117534856094,-0.31354021355634504,-0.19071378320748414,-0.023538494213278437,-0.03062102038634194,0.20391311777744509,-0.25228552497419721,-0.20303425748607967,0.10385018393924092,-0.63078260841606559,0.034069042167992489,-0.34145482978686187,-0.1244659088387064,0.08425841038927917,0.099716519035267764],[0.32111485876254092,0.147332944546182,-0.035062011747897429,-0.033892912282264889,-0.35462821314929305,-0.15089008695741416,0.34863246623799216,0.32191033312695477,0.22136493386422051,-0.073644879422280415,0.19710153186496479,-0.16168334306815543,0.34178167426398542,-0.15285644391807779,0.050793339818895632,-0.20123463239818126,-0.25043965247535727,0.45521404705176366,0.30813255391058303,0.13606074980797117],[0.345493632013373,-0.1361008763679874,-0.066057225840846959,0.028409926599591431,-1.0152299941481917,0.33093239314877104,-0.08088983073675822,-0.66991016037241069,0.18470455211772011,-0.20886449106635294,-0.21685125595123747,-0.25871354657680534,0.052903708651650776,0.31313829902847368,0.11127973801443529,-0.0511587631748446,-0.37103102996855758,-0.013637585618110043,0.54600875094786672,0.045167793874705438],[-0.34279694533050142,-0.098674994347154585,-0.54318216388267782,-0.27460772724744109,0.70626510336460435,-0.11147225311206956,-0.050570784312601785,0.563628737491888,-0.077408820342381848,0.30369755780239388,0.042322952591806927,-0.043484094916658639,-0.19759398560073765,-0.33353449011751712,0.050435606216106592,-0.089098410347760726,-0.47528807786460037,-0.33665592582928144,-0.45890995250875144,-0.33990455498443389],[-0.12221793025722454,0.074637315659339232,0.22599945547651923,-0.31612390772627841,-0.033900270908654627,0.13460531364975423,-0.37322299078740923,0.0050331390912231625,0.20358072553653203,0.087528750432935967,0.086785442686134667,-0.17910091349702051,0.15395383738869325,-0.032695915136038832,-0.17177877020064838,-0.18478783262076784,-0.054260011938253944,-0.03233221712324949,-0.1927978851546874,-0.36487687592345569],[0.31326283767671087,-0.11094777049977779,0.21205588439313713,-0.012561347246230287,0.09258991734532826,0.03086777524933881,0.11469917614066605,-0.0297729499795407,-0.35368285399710736,0.15443627854878445,-0.19277247156025518,-0.13995766946835189,-0.054177338896708678,-0.0757203473210325,-0.134589800380494,0.11639516281170208,-0.248255714536585,0.13577334448389128,0.13749073408512996,0.3832732191669585],[-0.083427131485337716,-0.21444118341843096,-0.13329744923225659,0.20790258509820447,0.85986135045872647,-0.00012752314030399031,-0.24142237781589687,0.67384722062502733,0.040832433149348576,0.31427076413367966,-0.26234737057523988,-0.31592283167317642,-0.13699998383035156,-0.42194144308996834,0.012100950774218014,-0.34442473087673076,-0.18646619935750031,-0.32139043462592315,-0.29150755917841176,-0.17668474731343295],[0.14529257901606804,-0.17070475873181926,-0.3150665700992038,-0.55274742153368084,-0.27931665163514158,0.2571148118273327,-0.10147636323145312,0.45225366969126851,-0.014305445408127828,-0.20224814598937663,0.18441217834915633,0.0010714873947080461,-0.075005993745459437,0.24216901701650323,-0.14996196775045875,-0.13603584658690662,-0.17552788903560398,-0.073878602512684091,0.14411198240475104,-0.31972000363163827],[-0.0020046887954825103,-0.22300034549125256,-0.2270768623815391,0.08393788697920973,-0.13555295926605482,-0.19020048488341351,-0.091077155778498925,-0.27648308552241885,0.016406230786116239,0.17903090308061934,0.18502179955517653,-0.11475349783150293,-0.10573590141948516,-0.15782591828662174,0.18607693078974663,-0.12798891230136231,0.091745114697337551,-0.21252523563998868,0.0080984384727070553,0.018172667165347121],[-0.12922111185645302,0.16299889403298065,0.43612305552599023,0.081896977196050852,0.090766429609108523,-0.46261788165751955,0.11256723258817947,-0.1329943145081619,0.020020602197221408,-0.2319214295918188,0.22034955262316203,0.2400092795547274,0.37937218817433743,-0.059209315635168534,0.23832615676675359,-0.18908451832214776,-0.35621541498759185,0.048900607868754338,-0.12817902556346578,-0.42799252954808686],[-0.078536601841372344,0.17902512344287633,-0.046373261631608022,-0.41084135031186925,-0.11502465580838527,0.32356246927654514,-0.0080590865274269563,0.020269305195196475,-0.025249079285691752,0.0828628088293943,0.077608570206830707,-0.23074780887057197,-0.053793830480233937,0.00609518301580703,0.1093244840226368,-0.36415194211596996,-0.36604514187381926,0.10143889687230381,-0.05163466170999443,0.018079878247325442],[-0.058330509226600116,0.049119451905893917,0.48727257726626216,0.16267559777545107,-0.059476809219078282,-0.027948942597441687,0.014053808892623162,0.3286138705955432,-0.039875597715199232,0.31821771623900236,-0.31305871055528967,0.23467127061292553,-0.23367141202407418,0.24255851855709734,0.068660252027601537,-0.37950611356900277,-0.060654949260220026,-0.20223200364606025,0.29916914808424783,-0.35277211744276693],[-0.17765307637976949,0.14540590332487188,0.05726224722687652,-0.044305790544216531,-0.30900551264245962,-0.1573536461785579,0.2526452075987678,-0.090500042699253061,-0.00060968029984078971,0.06257689870994404,-0.45756932462770189,0.43059386362722568,-0.45957234439036415,0.16330859665562564,-0.29051608160231462,-0.24120647737792733,-0.042135548414226745,-0.28267760910899881,-0.22262505635605986,-0.084718726555435053],[0.52132081735895919,-0.4163412759485709,-0.045952257968622977,-0.073052940729498292,0.16093194085656443,0.086787180409885617,-1.005893745742297,0.21618316583323777,-0.049293009807898656,-0.51583172657823584,-0.1676118423560059,-0.35431230216588649,-0.027403446684214461,-0.27382747500026133,0.18608262672686241,-0.0074394665488072328,-0.16611677357301347,0.53654050597213254,-0.032816915151373492,-0.21428218684437214],[-0.017117207610296843,-0.50038227381331035,-0.22293459242129851,-0.38474638742465728,0.063816109360487927,-0.66632796515534232,-0.35762427346144149,-0.35191475776487513,-0.027857624653609438,-0.83486710928018193,0.13604476873193708,-0.16586285376499022,-0.19881105770127541,-0.63906495506574457,-0.19339472114669831,0.37989476396593075,-0.18734401978415408,0.073067645455879446,-0.063932670611658887,-0.2130877432912702]],"ActivatorType":"LeakyReLU","GradientAdjustmentParameters":{"Type":"Momentum","LearningRate":0.0001,"Momentum":0.1},"Type":"Standard"},"PenaltyCoefficient":10.0},{"Type":"L2Penalty","UnderlyingSerializedLayer":{"Bias":[0.036411183815874326,0.1591605731665823,0.068044629804641085,-0.048128822173217171,-0.29238974992532807,0.0028621621043730811,0.21638651704292466,-1.2986240874432486,-0.16693070212776479,0.17789039139793722,-0.35213787694583354,-2.4860239782896265,-0.0087893072164596832,-1.3895756803215749,-0.0030822466389666503,-0.0044723170134488011,-0.092418970831793873,-0.0075870672723657075,-1.7628045826701322,0.0032964761553750674],"Weights":[[-0.3531762932754885,-0.2064962637696684,-0.1761486846508914,0.26944800680015862,-0.37553487552011061,-0.10653553673444854,-0.14424656060112462,-0.051884685615688653,-0.47669332574063439,-0.22106146763459228,0.49920274912680596,0.044212175510891877,-0.24456891431690667,0.058967385536884964,0.070995031970965128,-0.11222932658645494,-0.050642573246558464,0.19539130166124449,0.012945307541746642,-0.25243282977221992],[0.16090217598710524,-0.18093897296480502,-0.29348073266603192,0.28113153602258695,-0.23658189828264445,-0.36463909790561566,0.1008887915694217,0.055389764813907165,0.3069639630338083,0.070866162787243531,0.1322860456870629,-0.049662086272316754,-0.20394606983307742,0.28072989905992451,-0.0022187528410489809,0.0013510252295706995,-0.025123629386985081,-0.094169049699402263,-0.036068463449725176,-0.25074429379119428],[-0.19151939056731779,-0.17841338367628948,0.050727703193430181,0.61446448565612255,-0.143315162218104,0.078084321453697855,-0.10219153898928809,-0.38221181968113677,0.20599986180249519,-0.041920856900838188,0.052439129282868244,-0.094852782532017052,0.12351380708859507,-0.024401308592570947,-0.26801616985137333,-0.1588642464009371,-0.17271067834549583,0.10869907884942449,-0.16143764346840245,-0.024556597657636889],[0.0077447633555632689,0.10659051997702,-0.38306024746475614,0.12550521593416514,-0.061792221746164507,-0.19970207789710143,0.26750047935536114,-0.079971521488348379,-0.31663380102833227,-0.07498765263960129,-0.22117371419282039,-0.55022641855077348,0.068495511934239556,-0.064374114524342121,0.22393297161094422,0.41302815119629632,-0.31318024122185212,-0.0860948519149366,-0.18687416213517369,0.23872418875926935],[0.14257963841702778,0.079044149926721846,-0.33637019952270203,0.33091321333794649,0.19457259798880366,0.065438487449877472,0.094256893188528715,-0.42966892999955941,-0.46644434899534215,-0.31578183789608655,-0.0938793847842773,-0.29045523071353319,0.12492986449812132,-0.11386743203171758,0.12913670514197381,0.35818007722756534,0.26630171990305512,0.012628740099894214,-0.1712286961115172,0.036303751279963319],[-0.21184534741026595,-0.0051844229698008032,-0.23284793277152954,-0.22993662731500392,-0.33330240650939746,-0.14460531044599842,-0.31917874239847355,0.40497857007386662,0.096492429267659691,-0.15444876017434406,-0.084913125407478182,0.26953003106022716,-0.35863407614866294,0.28513428843469263,-0.12992450055322941,-0.30636046422986679,-0.16579802666367316,-0.35709699660720967,0.40728214842029403,-0.11799178286324237],[-0.22454176738617065,-0.24246675734751566,-0.25273634125320693,0.14950542258693636,0.11935782704039215,0.11478827475974344,0.34598148794991357,-0.2676794809393554,0.31731743902434123,-0.067632323673130448,0.19451761067590398,-0.50201241246225592,-0.23643672590826279,-0.57162023941982631,-0.067349961499883385,-0.456487209673493,-0.18443128139112147,-0.1602039109049816,-0.21356475809012335,0.027721013377927324],[0.068689915853444125,0.43207833914859595,-0.33716452009450321,0.13890740573235014,0.31429761703240172,-0.25261541249188108,0.042423739707209411,0.18866562253362768,-0.24503808647325573,-0.18966180772361521,0.34894150266688689,-0.26079907377468986,0.099229487711454872,-0.054867069576556335,0.0044153676905202754,-0.27824714828741526,0.063171869162157571,-0.37213783082332669,-0.42198072671745779,-0.27538687448485061],[0.019901936739291394,-0.2424809939156593,0.015270499990732869,0.32801717487916254,-0.056751593764832811,0.11281293067267069,0.29391331532181875,-0.17545320133394643,-0.056569029852567232,-0.40894194129621736,-0.035551969476230648,-0.010006515939307929,0.011222676334122734,0.18253506410207002,-0.48493070813365241,-0.034867161596640883,0.38634784748000528,-0.18851074955070421,0.087173329624054385,-0.15570504343162622],[-0.0031380365885819539,0.139301458805607,0.61384591823954426,0.24244632493658494,0.10627793807557788,-0.32386076762032207,0.15154105791914696,0.12755137912567838,0.015565494073959284,0.070148062682207357,-0.13157282371206278,-0.24866016403122407,-0.35428825684727278,-0.50686136801377313,-0.13721490546790005,-0.061424309287371352,-0.0059371147185949651,-0.071484920930571419,0.088603962633537009,-0.015416794342965003],[-0.034580033640676237,0.075132826694242066,0.10553624292284537,-0.13347096704289133,0.27145409629043377,0.11035515716218006,0.14500425822444135,-0.068724882986171937,-0.45083150684135526,0.40843462444713763,-0.015740844920189966,-0.3369763440294436,-0.076063018557895656,-0.036780775929554171,0.28395806645995914,-0.24082651134203145,-0.28370609231965033,-0.021611987188611109,0.025348860383094796,0.084657674780164865],[-0.021886571693621178,-0.092962905427380671,-0.034446799773493054,0.23295077300408329,0.027001649930739849,-0.32836940230783868,-0.066105289847799967,-0.25067771404469757,-0.017640568923897593,0.19392433731144346,-0.092686126569319779,-0.23572956120804628,-0.047881223736105892,-0.20597610793865026,-0.35041549681172612,0.093121987643158016,0.19627355812897632,-0.19906563198592886,-0.036277229697669312,0.30013194264864795],[0.2040492114625681,-0.55490821475178231,-0.14407746858392068,-0.17556661096690607,0.23151804111371466,-0.017055786832370117,-0.47278718348864035,0.061022433105382662,-0.018426742499002845,-0.20777423381077126,-0.28229318924795954,-0.19103669381475322,-0.062164650050882113,0.34797905756829534,0.12023645240805829,0.30228940157785983,-0.12074783022194094,-0.336895948514814,-0.012050552066917668,0.15329699031611369],[0.0019305888505782365,0.21064825589791228,0.064472160605178658,0.11392815537122961,-0.13887505315446777,-0.18722670404462363,0.25354193576869383,0.26402767433582841,0.3958130353656733,0.10411307171849606,-0.48306021447468639,-0.080310338421473074,0.032784681844956809,-0.337122035329938,0.013028039531019766,-0.037373459548166593,-0.18726948982084515,-0.083043522612902432,-0.014540825171443901,-0.28264173402427178],[-0.2980371155183254,0.24445189243622412,0.29279825048225011,-0.24033165822128827,0.25782212292706536,0.23191733905464718,-0.073187583465007922,0.058445786347850269,0.035386413031329236,-0.47241313059326107,-0.10942703605323076,-0.27175535175028676,0.11567347776369492,-0.10093094883312438,0.22465169040429342,0.095382124505536833,0.080010964965532963,-0.055535989911643588,0.18102132780570088,-0.17891589477582731],[0.10726274555125455,-0.27481507851284553,-0.025939348166438607,0.18544131797774985,0.28620096420128227,-0.10200085904203821,-0.11220351408107544,-0.29039851266096128,-0.16223876819755759,0.13162617296329085,-0.30830648401909405,0.086816437244465389,-0.13042099267766882,0.11228685137539293,0.01972579432901304,-0.36644681608332907,-0.071476037308804224,0.17042355002335152,-0.12395687534413408,0.24915093577040717],[0.10503078297880693,-0.0067281410656089818,0.05094488273629344,-0.13680918416435514,0.0029571800204432107,0.12175492052858339,-0.26101785473097378,-0.53068847699106525,-0.10066183927313725,-0.041482504643388839,-0.559015251744505,-0.223865346250644,-0.14733846435033712,-0.14712350451508566,0.0036373621143321469,-0.23155111668789641,-0.44629303055669511,-0.1488884870627242,-0.2576767649398749,0.25181646895526533],[-0.084805013358029785,0.056841156430593592,0.013104095859932342,0.48333245951053988,0.116573615966229,0.15990967267691472,0.25585935270119747,0.30127050469958105,-0.072403014250552428,0.13102440566284607,0.024923335913592845,-0.043148988677726596,-0.061648364713759805,-0.18430952342100693,-0.082332187394223072,0.19716405064932835,0.0023297796175986733,-0.10003626222171688,0.22766373037240814,0.36014408807959669],[-0.098582528900894459,0.24956453425865879,-0.54548717952441628,-0.099935300265904109,0.19248179581733288,-0.082780306701226478,-0.35119919695259638,-0.17338922700837051,-0.061322338206011524,0.0033644456228539487,-0.071418972346236953,-0.057272740825610173,-0.11494385320636684,-0.001881613919434783,0.030338931366583666,-0.031023169631273436,0.077519710944035966,-0.2533229545970711,-0.349093509499999,-0.0035225663769949934],[0.12209980940845691,-0.17152767624572574,0.035875727245651752,0.00983782071138185,-0.19451183620094756,-0.412257662707137,0.14225117349138575,0.25058091609358185,-0.10932017173600014,0.16196890758463617,-0.59481491974246947,-0.15081651316199182,-0.018124639661754913,0.50500205048687752,0.12510208726087468,-0.36841855650483585,-0.12177305059020976,0.051290195788919975,-0.18444023135818988,0.25278230215294351]],"ActivatorType":"LeakyReLU","GradientAdjustmentParameters":{"Type":"Momentum","LearningRate":0.0001,"Momentum":0.1},"Type":"Standard"},"PenaltyCoefficient":10.0},{"Type":"L2Penalty","UnderlyingSerializedLayer":{"Bias":[-2.1308873285986278],"Weights":[[0.1629695566929277],[0.18558374045888543],[0.13160789665996886],[0.13158405189724254],[-0.22016955942527605],[-0.17376615005433638],[0.27196074081799027],[0.50407727338775],[0.24208875730982435],[0.21615280571977613],[0.10063277425356004],[0.5795905388969167],[-0.36490174368256451],[0.3177993562400499],[0.04863992863824694],[-0.35822547127762566],[-0.11754148667720088],[0.041035458252721861],[0.50414204734461843],[-0.37528556678089153]],"ActivatorType":"LeakyReLU","GradientAdjustmentParameters":{"Type":"Momentum","LearningRate":0.0001,"Momentum":0.1},"Type":"Standard"},"PenaltyCoefficient":10.0}]}