{"BatchSize":16,"SerializedLayers":[{"Type":"L2Penalty","UnderlyingSerializedLayer":{"Bias":[-0.77301083058375342,-2.5124431366437414,-0.0024235515373125511,-0.73591732334016446,-0.0027920900865822181,-0.37224266694212216,0.002104801884723213,0.0022630625999223593,0.031587139407252815,-0.55331109612686946,0.005143663416224983,0.050275736226164373,-0.0022577014381432834,-1.3911740691231664,0.0011136141015168474,-0.028343965297546129,0.0036410481102695466,0.038530235647597305,0.029417617809685589,-0.84230252596818511,0.4304737999667167,0.029376565847045382,0.32398910704022871,-0.00081560329485261306,-0.0040140253273477739,-1.1453210378549958,0.00052899081523372267,1.3457916118286528,0.0011382924335843043,0.28382405947834816],"Weights":[[1.2689182852738317,0.38288140569525719,-0.047749314140404675,-0.13607621880295662,-0.23428444823257186,1.237205437890528,-0.50711803485010787,-0.37687867456059149,0.41403501662533104,0.68260806658870221,-0.60205232561229416,-0.041309293189793692,0.028577760303015339,1.2472707875933558,-0.20885434918528092,0.27308261592558453,0.25208867035912713,1.3226598784512385,0.3193320200426325,1.8268468748625064,-0.630234671087478,0.0020633912915458885,1.4470010756510232,-0.17759125152441072,-0.028284176235498185,0.061752718483115969,0.1970549377290351,-0.808841962068906,0.17026382710785695,-0.11973884920672939],[0.09887824686609685,-1.7689096701944898,0.39793874029505144,0.52209654997136257,-0.69508305063504738,-1.1798406925859466,-0.071922260893271861,-0.36221295727508479,0.135002542855372,0.06990868835156562,-0.66765452475541409,-0.44653952645820766,0.16695064782899605,-0.259081264274325,-0.018739517543728577,0.099580194007327372,0.48367990817972811,-0.51272252194913048,0.78229508445685059,0.79683440223793223,1.9898307148748702,0.38337752156241184,0.026110857087015854,-0.32907726963567918,0.35275651726018442,1.1846956565219111,-0.79011415850540889,-0.41015799728457303,0.072732453786029813,1.1243009381863183],[-0.77411949393512314,-0.24081942651265043,-0.51519056301095933,0.15964847107237995,0.12047269721994855,-0.73597637642642111,0.053338747095838884,-0.27265092043443584,-0.1697284567081466,-0.54793803244813988,-0.39288670148520627,-0.054636277793243281,-0.677473244925465,-0.64853307823012141,0.10063545397048553,-0.25063613613661018,-0.31401390994352746,-0.775323987313387,-0.624129191370313,-1.5635993192905102,0.552489740055461,-0.057904994534474064,-0.89716367797062024,-0.028922545153898884,-0.2137015214230017,-0.08827567949684656,-0.35984374566371097,1.006646093603059,-0.66814061766343136,0.034295193540770555],[2.5475150482718925,5.4781958840783487,0.44562185245282893,2.6592542836225221,0.49365402731073704,0.070066469837828257,0.0051481599745183231,-0.12574414135441753,0.3150380209309151,0.24437641051746742,-0.14844911821773557,-0.21567288328606121,-0.085458644684648463,4.1790701980888327,-0.61018484062091449,0.032372994639152115,0.70236449350556329,0.0327017929920883,-0.18811422959092722,1.1018960718796391,0.13197959244089569,0.014282634938949809,-0.95575840136631784,0.49723633839638415,-0.528534360569309,2.996155572398338,0.10137596199325921,-3.0842260576291856,0.13355215458342204,-0.50949632648074383],[5.0665052799942716,22.000865846080735,-0.13683404958940196,8.5665996250307153,0.64604952778426417,0.57742052113528586,0.03028204083489873,-0.13624208068115079,-0.023677199874033793,3.4865290541178457,0.19973704079075455,-2.2584025661369895,0.32950284649968326,11.508587391773668,0.21595085584956353,0.28979723369519123,-0.031137721974227605,-2.5204592541806377,-0.11792904902598762,4.9208899379438353,0.36715724571485742,-0.33846209988806192,-5.1548109768337378,0.032400392864855826,0.48451414035957968,12.991917284996786,0.12597898015835829,-9.0936952911638755,-0.34721815522378324,0.99911226815502652],[0.52317572212129537,0.25026218406655176,0.13138435708720492,-0.7005901771757912,-0.2370022846915264,-0.33743316562876213,0.29506346679348117,-0.50691469314137083,0.014496287927065388,-0.00070081708389557555,-0.20739518551112751,-0.11206368842977206,0.53433337502521994,0.23031823805021029,-0.53652199118664534,-0.13456689119481138,0.21052642866784907,0.44222440701912408,-0.049467093454581237,-0.052058687899866438,0.44088257117647561,-0.32287166976550841,0.31806463029595838,-0.22110880078493247,0.33517918150919057,-0.20380236645710279,0.03458933520168659,-0.013684294595817867,0.31480123176092073,-0.29266267064735],[3.2739913678325534,7.4453519499375433,0.15653165319580981,3.2314882172925188,-0.27826617963074196,0.29127282573639918,-0.64618339408962389,-0.41824387973718385,0.64296874800467763,0.52983580526868657,0.13888872676536773,-0.19713028806719521,0.034774961502520935,5.213825889519824,0.10291940331842796,0.27418965943575635,-0.11412479480494536,-0.32113536111700675,0.76821558516706734,1.2070860405338602,0.12710665100127994,-0.029407974203061824,-0.90231590068526935,0.35266277526628487,0.81101498123769367,4.7644018075459433,0.082285315185532171,-2.7810615533612291,0.32707785749674645,-0.81652956631272122]],"ActivatorType":"LeakyReLU","GradientAdjustmentParameters":{"Type":"Momentum","LearningRate":0.001,"Momentum":0.1},"Type":"Standard"},"PenaltyCoefficient":0.1},{"Type":"L2Penalty","UnderlyingSerializedLayer":{"Bias":[-0.0025128481037156817,0.00058427570701984391,-0.27885675864344511,-0.0063757768128251012,0.00059972805341387,0.0005894608430839401,-0.0012808887684283424,0.09020820661458967,-1.0788370017067692,-0.00068401648142328391,-0.022668385974397479,-0.47844079830357095,-0.0027932526337597682,-0.00096470310078749892,-0.00488005559561969,-0.0015973583641393184,0.4070612442769494,0.00087378097580792849,-0.25966428270119923,-0.018012607434220656,-0.019474148324717264,0.18346549181934255,-0.40000156444834117,0.0019183012450665539,-0.000838395844911117,-0.33591544219387004,-0.0011262372611885714,-0.052483780619300938,-0.00085551459935228724,0.037382121187472889],"Weights":[[-0.41085967603422213,0.022551845978062316,0.14418246819875913,-0.28685943209159703,-0.16347477205760291,-0.030975756242344384,-0.18380257380217491,0.10741409218713727,0.67302939449408894,-0.22251219455662061,-0.25418004918135007,0.015186245031905221,-0.298379426596474,0.069924426915782351,0.1037735319105976,-0.028868023157000967,-0.13143933130500168,-0.12588749427287491,0.083355140069849246,-0.040459047787580041,-0.39094725787654072,0.37563944134818628,0.016324616137329707,0.02396368527104973,-0.46438976835178408,0.12786564474065568,0.16131167895489057,-0.18222742479352805,0.040401288828888771,-0.36683489857136264],[-0.085333317978921464,0.044558743958708222,0.86266858791152434,-0.209988514802488,-0.089293476393152091,-0.065425444266515753,0.11314627161700495,-0.88980362606716779,2.2797219591664724,-0.090717433711817327,-0.11445931038718514,1.3784886455585668,-0.096106013087628173,0.10392143119250628,-0.12087637653235415,-0.15305763316871329,2.0639301507306329,-0.17982592710470446,0.59294609958258293,-0.28478331864661416,0.7850048190120158,0.52808976956021669,0.33014003852304619,-0.38756498048792443,-0.082166748007165807,0.61619161212578288,-0.35252397824103104,-0.66202719715012526,-0.11710733900789197,0.99988441667939565],[-0.214332226055568,-0.10600374905962202,0.035699399009274747,-0.035610362302582528,0.10048839870331995,-0.37364624903182059,-0.032707078950182621,0.1524354771779646,0.16548089684519143,0.15600954314092089,-0.09723683858221456,0.085904651411268212,-0.14709929955248036,-0.18505679598401195,-0.25683732283453725,-0.043771379370990543,0.04977989626910119,0.39071719063791516,0.039164611387416982,0.067636146809927022,-0.20975495461557039,-0.53310312212207289,0.10396692392637902,-0.25660981836679564,-0.05342451711129715,-0.37504775024530634,0.11346166592807874,0.1472253658977285,0.057720981274050231,0.22541874377539128],[-0.20971129016185724,-0.19878168974439792,-0.14784731055090566,0.14880401395848397,-0.019564678766333089,-0.35635591140035344,-0.22288296235663457,-0.10595095467707301,0.92651533186931179,-0.13675616108511987,0.023564084683938363,0.642735399250337,0.020458775189921383,0.13110970100197739,-0.13439735550221646,0.13322618594280553,0.917549337565291,0.13435667894547151,0.21559605123166609,-0.068845520091379883,-0.26224869961173358,0.58014205454614853,-0.21623663580134828,-0.36626083377945412,-0.30346683036343519,0.25552838503515968,-0.081294599796122635,-0.350216695592207,-0.21216206443851268,0.26839742669249239],[0.18644389572352402,0.10301531936673326,0.12588384140288916,-0.0805562691382542,-0.2686358491873303,0.10554397430052785,0.020305981223960552,0.043301507817279629,-0.069204331331602614,-0.22474202760197742,0.20120711599106159,0.16423524920975033,0.19442068980951466,-0.21688718025574857,-0.19783712581029236,-0.10646292012845394,-0.23285304564164583,-0.31603344809025957,0.17237651721023525,0.024960284697902707,-0.022959564230534728,-0.010639456174340131,0.13763124666407323,0.055575406819662512,0.088743227906727784,0.17112547878157991,0.028918801760980533,-0.0703634593342138,-0.0828257846474923,-0.02148285443228139],[0.034586127758759966,-0.010662057386640948,0.056689184324876053,-0.25837242608015631,0.20674650435776029,-0.21976682627677549,0.15880510670234924,-0.62293401433361029,-0.17984267644967236,-0.010451077345503514,-0.1047728225819789,-0.037603459595313138,-0.25179028198824244,-0.01725617956011426,-0.29468535857458722,-0.13878260143371707,-0.65634583777117661,-0.055201803389335766,-0.057968161440108093,-0.017488273932344072,0.19484045060880231,0.046256567010578176,0.065675836251714664,-0.081906158202833659,-0.0769878188006187,0.0050295433691610256,-0.15750099511387106,-0.090764374601812983,-0.18785295260243753,-0.099032141388786382],[0.051465046676236623,-0.37345080353289561,0.30097326054876788,-0.26971158612049717,0.17100716265557941,-0.086619584709648659,-0.02471559509612754,-0.0793182966817213,-0.2375264553058701,-0.50668571145421926,0.20927098076507014,0.30035292937204666,-0.084786903257950214,0.080109265522727846,-0.086417478345723289,0.046933292482013472,0.37071803891841887,0.046938711570531665,0.25625314384551573,-0.01422434745833741,4.5299585703858028E-05,-0.19312737367664387,-0.071265963510411479,-0.091205777233390128,-0.0941611358921941,-0.50460597155865361,-0.12695289893778475,0.3370539923627095,-0.15432577755283647,0.27628098528284706],[0.10194903813295844,0.16251559973853236,0.055119247547893768,-0.31275054980449279,0.034678830703616256,-0.086612375235111241,0.1592202339607888,-0.013278799099012197,-0.21740247395514425,0.14691454930474496,-0.016350889618928235,-0.12349453904572734,-0.23461365429511466,-0.23963467556130463,-0.041757588448688036,-0.12811122346082876,0.070618254142215148,-0.020406837254415524,0.10201209927198346,-0.034145518450796275,-0.29443765396407329,-0.26665168778461151,0.13762474953118059,0.13944816958990974,-0.43150459310023948,-0.36377638049671912,0.069076945420065455,0.40921516684031706,-0.18022995023206725,0.15396669423532886],[-0.097222241667405049,-0.18013531373842545,-0.057763128030050181,-0.0057860848845778714,0.10637204656981392,0.064222647148863152,0.33944200663927632,0.17619212076045271,0.016762965461957758,-0.11463288149589018,-0.10653550408884338,-0.27747087212561661,-0.10824057155312175,-0.14384547817428478,-0.073943638109997628,0.071714450160194038,-0.34995431290195672,-0.26612136748970977,-0.16064378237136323,0.20640241178476146,0.011633575514361944,0.15772829230419391,-0.15855005507907752,-0.0974365174553863,-0.38654132037765465,0.020907058659551007,0.015350830127545369,0.115911360561192,0.081300547576867346,-0.15820262866239371],[-0.18224869018273146,-0.03141270403769137,-0.0096184734164329842,-0.035280305399286373,0.10558171027303015,-0.20721322476280851,-0.2952094248261613,-0.032814771803791679,0.51214649982834137,-0.10902463205735133,-0.16880025547890318,0.31777223803568944,-0.030935505193639933,0.12974828736300464,-0.076543499022049447,0.016398765823559459,0.33969740302366291,-0.0068598543981619169,0.18376526694788581,-0.15337389372996796,-0.082394332521690525,-0.46061241805716024,0.22918608721286227,-0.17462085763682375,-0.095980607235079188,0.12318466633121776,0.23362135219601926,-0.2399264579389202,0.095549257472870658,0.22904929774569466],[0.14090919581975639,0.34487470262776676,0.22429552777984149,-0.23129884544218138,-0.065395537240588109,-0.32725838679464114,0.057474310586145196,-0.23463723844804357,-0.38285737166470923,-0.163534793341991,0.095896512613544968,-0.17039309538981928,-0.083155588960834387,-0.0073996230972976258,-0.0684391846029552,-0.077745786268730716,0.20492209065898598,-0.1621916174915084,-0.078881886497523757,0.18289462543228391,-0.26184448815645384,-0.082320376836498954,-0.083797044632874851,0.34823378584890968,0.32755461175126754,-0.11236751017685838,0.36427189374939634,0.029916600448219092,0.060798273993846866,0.2662571377121225],[-0.13901849757376431,0.031407287735421875,-0.35398495554117432,-0.26689446921740967,-0.046363770871858181,0.12550592348131598,-0.44766976669260383,-0.000911514283449672,-0.53412905866937521,-0.47758596892623456,-0.26559982648448005,-0.5594179496363425,-0.03299082256184617,-0.068975796102173109,-0.070199854048399041,-0.10065783114375383,-0.19104911470903435,0.2137245720192347,-0.11144040649544391,-0.012056308288237564,0.22083810177825641,-0.16097442408778542,-0.27109640423619086,-0.30001600954637841,0.11257132911106731,-0.36631237926141885,-0.022239546291265393,0.1693142847638591,-0.27573127798455888,0.15010612421685768],[0.0843304346738845,-0.0575739273334655,0.32650560597951184,-0.26081854331500715,0.2442638657644593,0.10309831674309396,-0.030707236608264361,0.026821927131392677,-0.15788938994163787,0.2651570929593588,-0.01573875741931776,0.11573138462409585,-0.17786965791599482,-0.072168146872425523,0.024642558236854302,-0.22323812507621893,0.098450804751317358,0.15926351731078392,0.18441615555589033,-0.0064961943972991418,-0.36933786386679657,-0.3489591942174492,0.26135961107491368,-0.034965786116193477,-0.038858440593994042,0.20749230163173987,-0.201104824266001,-0.23361599321520873,-0.039958411933148051,0.14394405930965573],[0.12848194081161371,-0.016310749910305993,0.22958976408183263,-0.69941221610405679,0.032745668962891279,-0.15126610342265082,-0.086337877712736377,-0.20093232852862497,1.287050132978909,0.011946353018008865,-0.075604383847932069,0.42462881499863742,0.033981003564502482,-0.28007989616742246,-0.0707267326683462,-0.10129735111890881,0.47001960687737476,0.02994025265082904,0.10760234452977564,-0.1401257429346208,0.00226194011560556,0.62932370671508242,0.0077937505169591616,-0.012581744868164685,-0.15934511110050714,0.21522937743616452,-0.40593642271286406,-0.19531745229358935,-0.1839854589032488,-0.098283541926212192],[-0.10240282286189341,0.14399435725263676,0.0375605781856804,-0.064177093764441542,-0.08108679782064164,0.049469675088194227,-0.096915954853642738,-0.058916740533106755,-0.10637901392481994,-0.20743021909610943,0.0697868513319544,0.052604851497184794,-0.4996150362616783,0.17751404181476735,0.010255798476421784,0.0032679386462655955,0.00390831516682995,-0.3999602303807685,0.25230254204125663,0.24969112849875394,0.096348596041969367,0.46394622318419887,0.09174993758119987,-0.076962977560861748,-0.356024682539906,-0.23242590720768749,-0.070952108766073191,-0.098772325766279478,0.14142095041792882,-0.010673143057068978],[-0.18353653793271585,0.31902102499647322,0.11792820829410074,-0.26825538088247147,0.15798483153427795,0.17614114902890468,0.013909291597253244,-0.081993528355458811,0.016663351451569105,-0.011871801523120288,-0.0606228745902083,-0.039713043364905769,-0.35597543452573843,0.12275080928072785,0.15301832557085146,-0.13598260005177676,-0.015878431705463547,0.13325906785619962,0.44313753095253233,-0.11889653806172898,0.38623624104204168,0.050629497037483012,0.0093909987168514959,0.32067273411951636,-0.070559247838279437,-0.15345611473686632,0.17124020839787973,0.19256393187266382,-0.18346793387749902,-0.2282151504455496],[0.045040155149707523,0.0774297105750878,-0.11612982698667225,-0.024765561145341716,0.34464722188083552,-0.13238214020570044,-0.17078505917900994,0.065297655373666177,0.083407437154804517,0.11931104610424789,0.12300727796652247,-0.055649505222621104,0.026630467694844947,0.30212940798593274,0.082230887524879559,0.1236557928665049,-0.26541189497143775,-0.0010218621629279005,0.012203271690106153,0.47286527434733217,-0.13417069606536133,0.25516191284272649,0.12294419836092835,-0.28723939716344032,-0.13242736032986019,-0.14364456146692153,0.078827138267106245,0.039467660274916674,0.028029726918124477,-0.20928586809703656],[-0.036943549043729658,-0.015570089028131829,0.036051820991354469,0.0229520044825178,-0.40943482776049561,-0.10172829803632699,0.0089519546852286289,0.29661879154932513,-0.51940484598493586,-0.34223391371576212,0.23911688071616469,-0.11311440281069919,0.1502279118102689,0.078117781854401838,-0.19911526031189267,0.0660571131849821,-1.0370473202894344,0.21798717526078706,-0.088219994416593187,-0.15597297917395311,0.041875163326551688,-0.047985757235495745,0.078155397040569133,0.027019016328211947,-0.25586500283961056,-0.079583739985366608,0.073775762924951041,0.21195566285742268,0.12098846551703135,-0.42546856380533088],[0.38140867922510013,-0.43730280253151027,0.20658888476600842,-0.02972838599170393,0.039801639661848784,-0.27149017755271848,0.22588132443348816,-0.31741161285098024,-0.38532185947311404,0.15951016236964119,0.52447736968179492,0.18633508618404615,0.096605788977140436,0.11889670072280843,-0.25781944623088293,-0.16655705766696677,0.0058206005009546471,-0.022649551287711522,-0.15724534875437279,0.43912817112073182,-0.10046751724753505,-0.0435482857366428,0.0070562762481973622,-0.17263598105692876,-0.044971948162157271,0.10433126878692529,-0.11341762026253671,0.079134278998169383,-0.030108673288705215,0.35608907460745981],[-0.15775943255705194,-0.092764890303617425,-0.16949400456413757,-0.3590263427617707,-0.018596668226646906,-0.12320316937296483,0.075854163921351275,0.036129233604246483,1.1275594940583205,-0.024230598156382486,-0.061825687774217312,-0.090483387317172162,-0.14772071267624115,0.016832689391752014,-0.19374761045637828,-0.10957931976987208,0.32906791051509393,-0.031495727504098688,0.027176788103645433,0.088997152836785817,-0.549107417171534,-0.2728243699941309,0.46564825419434364,0.23085185391527657,0.12212955066690966,0.040048885244359747,-0.37567634766797653,-0.11720405018581742,-0.21941631222712121,0.29298111468824212],[0.12036204574244183,-0.13135503581928815,-0.26566587025138055,-0.047768648825159417,-0.058965346057598428,-0.06998243007816328,0.029290969114535517,0.64988176052006752,-0.076167474693162124,-0.030277106838473494,0.16375888675934619,-0.245836935116609,-0.17177976765148609,-0.10427259747465011,-0.0040981995233817445,-0.088036955987883872,0.19820287009901669,-0.14051755345162986,0.099924147320111234,-0.024613462541782406,-0.66020274268700829,0.68223088487173755,-0.67543479540182016,0.13291884926758774,0.11313918954842522,-0.14868755439864348,0.0065908718990271,-0.21653739263350097,-0.25442610330285742,-0.15438959735079996],[0.040156320706886434,-0.16946843691600574,0.26798202963873796,0.036080397037749741,0.044246407011592465,0.088258498951877637,0.078016499480201645,0.094969224914762659,0.25651450560034184,0.080460644431007852,0.21266495410207778,-0.16649175619466169,0.24401555893032711,0.096155370745458824,0.0645911868502755,-0.17780306854525177,-0.25140895147323516,0.40249896821402553,0.27298866985306153,0.16320559997839795,0.072535196442015171,-0.11758945239210528,-0.24100856741717469,-0.005473138321476217,-0.022429534450074503,0.095469046202454791,0.11173051253182231,-0.006409845827912727,-0.15032193405355884,-0.19873275860860412],[-0.09262195547128968,0.079238378251119568,-0.48778300883558395,-0.0018326936277307268,0.10328073543199084,0.0069646486589256471,-0.15070001417498266,0.15460824571396595,-0.674917176680095,-0.268478492405404,-0.22649256480226951,-0.33796036005044555,0.023372087299586054,-0.20149711601386924,-0.42195528608871757,-0.292111084001558,-1.2169410716373075,-0.18887312872976003,0.23666311161889078,-0.0052960818080986585,-0.25904317487318529,-0.14282611023992115,0.1184989840020446,0.15944496188190854,-0.20153585444972075,-0.29791162022044704,-0.18269075588320494,0.10509639240271783,0.011010673562974886,-0.34271853770368826],[0.021975834376510486,0.0092870836173475531,0.1931581912593372,0.16788958876772586,-0.26794473781752903,-0.29072320913591093,-0.018305729471902312,0.11600579168910256,0.2367853060086309,-0.13122072826840381,-0.092992485934956362,-0.039121074187066007,-0.26140384321301774,0.10458024761005411,-0.1728624733876773,-0.10239141291274195,0.23584992820119966,0.037464345060342338,0.092272753686971035,-0.39673695489631589,0.15476308363338939,-0.29714069238503688,-0.20843868680079861,-0.022126228478693673,-0.030703747400730966,-0.21169964796374921,-0.13161084240587062,-0.093847191645616057,-0.024810717135235309,0.10673418161146114],[0.20059252349386453,0.09261238748801133,0.36748976166963609,-0.09849089720629095,0.060138337014238208,-0.031668009711890155,-0.11010882828815562,-0.091201348138480492,0.17993824520557972,0.27875346280140412,0.221847498838864,-0.039096154460768896,0.032555088518187107,-0.2229810544288916,0.031926307826310452,-0.22517347151568512,0.34491477870340559,-0.14408331705762348,-0.29161943400912971,0.34365706713349076,0.1186241080567486,0.14654468511806898,0.28267596018463031,0.25612775431718354,0.25937509151200622,0.14680875276815059,-0.074254481641101128,0.15927142489232052,0.424777543442988,0.32119606224462571],[-0.2218362973389659,-0.10191918275619019,0.087992347171715751,-0.31315963827222576,-0.29854806770054815,-0.0373360402267141,-0.061508818738161358,0.21623037997393535,1.4271128730705107,-0.092078823885568109,-0.26137965454780104,0.87133545363671483,0.29903092366175826,-0.26301464936105112,-0.34067844019510812,0.145956638624371,1.6487884404632509,-0.11658820502372481,0.412284675701988,-0.1174984744384273,-0.69430815790700706,0.78019565282158787,-0.06974260100869438,0.079840736963202388,-0.13454821478490966,0.37848956993990807,0.053285600825455727,-0.67496880286310357,0.21054356186020629,0.20389954373274866],[-0.024001670249909596,-0.2378316055034945,0.0526532345459913,0.033693063927784546,0.013412991275821851,0.068299554248918815,-0.28312926578207592,-0.01347116842205744,-0.36775038433489765,-0.021576058481626317,0.29936976849037972,0.27530630630009645,0.12012408448954896,0.080275668609931516,-0.254544717839888,-0.10528108692666865,0.037562924197107626,-0.21575483377564339,0.20014858805641439,-0.022264121424184831,-0.038513559412577308,-0.22932549529106089,-0.27166815831568003,0.06877478416559489,-0.040365220676054664,-0.0099996142572858337,0.17465100569995559,-0.085363013169770352,-0.060776330988376974,-0.016872105523555007],[-0.025949736709164652,-0.071610639954599639,-0.25949231734474487,-0.0316834265529893,-0.19329981383742961,-0.067173075496072529,-0.26536876328976489,-0.35047646621437362,-1.3284423268687586,0.025179953569942796,0.03507628504642666,-0.66518471240708632,-0.20240760457732832,-0.051608190308489656,-0.50202818596934817,-0.26042570105340834,-1.3631192111342549,-0.06227527739327593,-0.50580072051094482,0.070014447829089332,0.51293092907660531,0.17505897044168003,-1.4383688551534193,-0.1643156133321535,-0.16593118777318625,-0.59286938618494045,-0.15938835815120664,0.47602627652830565,0.010162307961857296,-0.36096322447657042],[0.11589015225979432,-0.06515739187981319,0.17138622395805309,0.22739010328652565,-0.24967681601695163,-0.31366275831798779,-0.158104612780618,0.48793628133052519,-0.2492292900510969,-0.37402839218645972,0.33438035799556076,0.17885210894584855,0.10622149780690804,-0.46225388644351767,-0.019527154590128718,0.079037568552102935,0.045973963875603631,0.23049014643607729,0.16210003765781453,0.30793485902894191,-0.18215594638291582,0.081209299646106459,0.20444818749600666,0.33901777548112494,0.15549841183583529,-0.20509477082510283,-0.14298900609273138,-0.1623958240610236,0.34674034491850469,-0.014427775193884848],[0.17735305559885722,-0.2540208723338539,-0.22719122139360379,-0.10560139154711487,-0.22272009254264225,0.03932043277205631,0.2680655611721145,0.43800018390168732,-0.32763400502934642,-0.13509021560807422,-0.21033261786185331,0.28232264238965321,-0.057885546261153373,0.084178659528151858,-0.30987749998572844,-0.44630763808102542,0.35652357233162496,-0.3115434529256968,-0.40318949503970714,0.0886362200388069,0.087798674839375354,0.2480592156733801,-0.2219034702772418,-0.11483772396245894,-0.1417059231091285,-0.22954224378884028,0.06492096683926582,-0.078805888238894492,0.08695890481409306,0.05506047080883391]],"ActivatorType":"LeakyReLU","GradientAdjustmentParameters":{"Type":"Momentum","LearningRate":0.001,"Momentum":0.1},"Type":"Standard"},"PenaltyCoefficient":0.1},{"Type":"L2Penalty","UnderlyingSerializedLayer":{"Bias":[-0.19721311761510807,-0.0037568083552278649,-0.0018467357902217511,-0.021069008013725504,0.018299986388256615,0.0030971828618852936,0.0671633684937174,-0.21301840056886107,-0.0012198407132308813,0.10803957180943831,0.0037246746010970466,0.00088340630594751883,-0.087068226340311666,-0.032487945048313038,-0.0023299651539024028,-0.0003001378296114619,-0.35113544176744749,-0.0012612301614818844,0.0021762865312298478,-0.010470109058116808,0.096118736873144636,-0.00018679487460572977,-0.093713522265853291,-0.0020999449066602519,0.077362926971898824,0.029587645354530786,-0.13239312842077469,-0.015379590538477452,-0.023902643028282454,-0.0014707489878228227],"Weights":[[0.27690251263210275,-0.14005689438332941,-0.032486671528350441,-0.078669669757894162,0.32054966370200549,-0.08125420447978722,0.0049034904319777192,0.042378276467380731,0.27148733170547673,0.15735781408890828,0.0150834309132439,-0.10372924857905316,-0.16353169629744685,0.14814070935517873,-0.16550118141615725,-0.0084586148850891666,0.21414775302233921,-0.1563288928974568,0.025863412927029004,0.021790805677444493,0.0475508825394588,-0.13093985553879878,-0.013128888476377762,0.27885783430815997,-0.5160815416457819,-0.20428880394624724,0.18891958509502821,0.16365036908821773,-0.027461001915192827,0.30492305463985292],[0.049961990139086185,0.21407385478462279,0.33202565918664784,-0.06142991691199895,-0.028453999418201814,0.016170393888199998,0.39996445525864283,-0.23441716506776286,-0.18706697406838635,0.21955050330929826,-0.043584797269720109,0.041416676765367214,0.069439795785956743,-0.10339712284910659,0.024424323933236014,-0.24327417566967347,0.078174774844340086,0.17317724016117794,0.046325097170142708,0.0267874032615854,0.23577926691699319,-0.22926742103640899,0.027452195671525677,0.018939996064403313,0.012959176107366055,-0.070735744834906925,0.18254756547843284,-0.10252607224107514,-0.14945746871208329,-0.17063914995910215],[0.55378286228494045,-0.052784717591234383,0.140663149371753,0.45540416335118727,0.54631622066731922,-0.072741827930421429,-0.04980478433324375,0.093789555473444863,0.18081471229193696,-0.026863521088041496,0.21652045202716505,-0.22248077658168067,-0.26146171954132619,0.264795015914506,-0.10349327269105181,-0.20664738749955666,0.22902334463672375,-0.0353727189920384,-0.051233170430896605,-0.25365615013400666,-0.22119229433293436,-0.32771782766697455,-0.02826837636626699,-0.24986335182113439,0.19629792188604861,0.063557484005798734,-0.078283850012210415,-0.13396847922294375,0.077565081675981529,0.07115360473217662],[0.10456889438737681,-0.073001033179659,-0.13840741890006672,0.091203990974747032,-0.23276792998809986,-0.2485470932376958,0.22048170611305029,0.10788452409264163,-0.32427147534016793,0.23636227063240417,0.00678248239996149,-0.13728840838321449,-0.28352649074908087,-0.053307604764462717,-0.029482143762931838,0.19944675104714849,0.12176178558085649,-0.28087721232774909,-0.089476534272797267,0.14880580909654056,-0.298794256462335,-0.11127031146292822,-0.099336739591240383,0.04378293007620674,-0.0426641448910344,-0.008838320278983635,0.11665191737454568,-0.055435092725037244,-0.22985058627328125,0.057086545863355168],[0.10435141929110511,0.33441151760938065,-0.047801541216669755,-0.15653567781413863,0.15811466202610064,0.040024340107586404,-0.059108611018071751,-0.15882413012329946,-0.20711662330559102,-0.514286180721438,-0.0040327859911895685,0.0759067251807406,-0.11117119718698533,-0.355186633528697,-0.076935494881841371,-0.1558912337316925,0.0353030267329074,0.25808206396325029,-0.215027913770057,0.012244572198393472,0.12973534473549561,-0.28152394957440691,-0.2423012973868913,0.061688870649245442,0.35133178066123888,0.0041922969226582483,0.13949628911684067,-0.069634998506585541,-0.373127773503022,0.169157709253113],[-0.035861444442948968,0.071774917394568663,-0.014843568316935904,0.0988073336984073,-0.3042296923384466,-0.012679815825534839,-0.15972914223815896,0.074190752937810078,0.015905062525198441,0.095529956468305532,0.0097240561975665413,0.047796398675893421,-0.06795255784029991,0.32267537507359112,-0.13466891411420243,0.38115772033120587,-0.049036605820969616,-0.18867708316283269,-0.039554488215356683,-0.14012716744435586,0.25289723163372529,-0.017530545424513867,0.12527595850042675,-0.040111299216294354,0.30098907602063785,0.044021865224934037,-0.17598034059581788,-0.06555546674983137,-0.16476773919278662,-0.024408247581183536],[0.0387930802776412,0.16214652797260637,0.044493935052059022,-0.11386216273768639,-0.095152300369651832,-0.082060740948711713,-0.14330382362254004,-0.17303281885026692,0.1248869834405707,0.00602973365788163,-0.27653197967758125,-0.33249565037850148,-0.11616241600370394,0.11540997216118561,-0.066800392352696109,-0.075084714247483753,-0.21064127434035224,0.14627129351897428,-0.30997814231880588,-0.18436237307053308,0.21584800825788275,0.23486839538646442,-0.14502047693774503,0.03518751059467063,-0.13443929817682074,-0.11714744132589847,-0.17619672235997955,-0.26953632548794332,-0.11645003286694911,-0.15119044379725871],[0.614215643937436,0.26561530896386443,0.11772310028259728,-0.19013955911242836,-0.049439938774258993,-0.07859782912597392,0.35591336034036658,0.78448161251073845,-0.0052863421701110237,0.55729877601473021,-0.058982881405823591,-0.064644247557908777,0.22345905699042504,0.068226463486133024,-0.15685615189107949,0.23373436997226071,0.31951290234472213,-0.13057644245914674,0.092660333690517432,-0.097982546984406782,0.3489812148046717,-0.17968272110532255,0.19956120522289278,-0.13997873688426316,0.17930749538075677,-0.0743009085294428,0.084591448994679713,0.0011688669696762711,-0.38243165480796765,-0.020331092207600047],[0.96842429913637917,-0.17019943432337448,-0.13365042639304045,-0.27794638995542076,-0.21885315445303252,-0.12364760747684901,-0.43674032686892572,0.88258113687169437,-0.15959412876851209,-0.603294492440959,-0.2408474368915759,-0.091934606139374514,0.40149398850244833,-0.0698676869397323,-0.38819092063401484,-0.20446867136533323,0.92629960534413436,-0.079175202798579022,-0.012158546229594393,0.15772689623179839,-0.63719197361174051,-0.13690872235097432,0.41341375376417711,-0.19435472997100531,-0.4111995251228851,-0.46598994400272881,0.65141678743601927,-0.033664435436519771,-0.0408093281649874,-0.13393452868227046],[0.026604487829849276,-0.31004743189566752,0.052532739175675656,0.013127826064331633,0.21186298470880688,-0.25676745544742369,-0.12210791792535025,-0.047746239427471977,0.011149397374285179,0.37045849511308743,0.2637056049634498,0.33927459961769874,0.030778025114668178,0.012989068640493245,-0.12382627676925866,0.18887103384910778,0.30857684478654007,0.081120646922746634,0.13959071955045263,0.22231512477508467,-0.05562565867714666,0.0062245483465253968,-0.033912591037535134,0.24095193430038761,0.067060991860065963,0.20851227532965194,-0.038294861520379933,0.083981367268398416,0.22264522315694954,-0.06491945754399929],[-0.22207303360498998,-0.022386097545755906,0.31545590396633189,0.0036986867112816578,-0.017155506938207617,-0.14326915942816643,-0.032170927923372609,-0.059907561276772936,0.061101439086143162,-0.089738401855728137,-0.16824083843837745,-0.2404348912776742,0.24311688408259422,-0.15785123220211375,-0.13623435629387118,-0.10843698974884027,0.050331070770594337,0.080377702451798552,-0.1352215269069732,0.24993067520495227,0.13191296736726449,0.1524051318510401,-0.020994007346993627,0.17992664706252071,-0.2445994096982311,0.055977635515184504,0.25453212939523523,0.22471305719284615,0.028352146502283331,-0.040539634751351854],[0.075429932230646063,-0.11575881741086011,0.048150622979877655,0.0075483624198010848,0.74951807585269647,-0.31512954151013139,0.036948419640700364,0.47269006846033568,0.032830571986768857,-0.013883236580862681,0.356312123659649,0.30174925399327213,0.22898160003675244,-0.249171776641344,-0.320078262062968,-0.23155398076130415,0.54983242711050517,-0.07998890600105496,-0.15216172552604054,-0.22115320961139526,0.18342676397942229,-0.023480732764931896,0.26324737895125949,0.23989476031980159,0.0085163212678206982,-0.14287864417845625,0.14027534410005571,0.03641854166126049,0.13473179807704314,-0.03893071133211741],[-0.17764920399801898,-0.0614753186426171,-0.081153163258504968,-0.032860877648611363,0.036937355435521256,-0.18293706127196058,-0.21738628882065408,0.33084898104785737,0.24134102135963842,0.22332589612923276,0.20238853652940872,0.022847769775590984,-0.057541707993708127,-0.067482651219193612,0.15512466443039641,-0.043285660830114363,0.14853321381733911,-0.050166085155094013,-0.15602244441471266,0.12051154326047278,0.14072291267736095,-0.38112372148379664,0.085783542871335078,0.0597281379080874,-0.043818257242972024,-0.031876999321425785,-0.26512239262980591,-0.074048199489261793,-0.032748151066897872,0.017150546208442013],[-0.049636729461951468,-0.0056352030783510445,0.025052773873379702,-0.16870645055054623,0.23133025124481876,0.057364993513084071,-0.33670442422350483,0.26092323452616217,0.11128774197813657,0.14743224892270498,-0.01461767637315637,0.062290177377548883,0.21016552999600477,0.015017290446847414,0.19526067677122913,0.027838994907791615,-0.06636429896084664,-0.36955868746676351,-0.158615809037822,0.026931531556915578,0.33448254603619354,0.02953550022681416,-0.053932241090591325,0.29379772469727117,-0.094431308671411848,-0.019954228285890229,-0.13805356427464285,-0.24363077655690266,-0.037311123146267069,-0.1765545909722136],[0.0926735167754184,0.29235718503785868,-0.14488674674302979,-0.17157016845053519,-0.12191501695658891,-0.0013804996997293392,0.11531544381620085,0.48454461353703426,-0.10134439247321249,-0.31532088926471219,-0.25455181913788077,-0.18600019966942716,0.19691926725222672,-0.1632551663620852,0.017907361430319218,-0.11156032630861636,0.022946675475212331,0.35261768433404383,-0.0429641781743809,-0.10290001608572541,-0.14183636359185012,-0.063291861013188552,0.033359446355762039,-0.23732757479460834,-0.22706047064079821,0.069816290683979473,0.02499813735126025,-0.16059233603293407,0.062782341182853529,-0.10271964691403407],[-0.24684465363987684,0.13018911535521804,0.013834641943440487,-0.12863431429676678,0.058040866973148905,0.21312886222418886,0.12027351231224404,0.17973230449232183,0.052564492903407957,-0.14113832545636312,-0.10249814511735517,-0.10943629109289663,-0.21794595078310566,-0.064441443549559066,-0.15295420010312386,0.19701522824236356,0.32334638300184859,-0.03476744966592997,0.001750376579593847,-0.16505669874804047,-0.20934071917512676,-0.03155480602905552,0.25823424448934096,-0.21692782135128411,-0.239660880541947,-0.35101526339990774,0.090273227839552231,-0.19594466290484955,-0.34037119108737823,0.10218592086925428],[-0.6307967699195679,-0.23165033176640809,0.0088997342576384152,-0.10672112870895115,0.52102714592233879,0.12189135756026483,0.24836227999821706,-1.0373392672407544,-0.26739623073647417,0.7426562322943342,0.487711485672888,-0.16917520248229642,-0.021169723521999674,-0.11843992881166836,0.00981267529550207,-0.2212472596182814,-1.0547523731764483,-0.0016667016992193853,0.1055606789617987,0.014873937154897552,-0.054968106533448753,0.14717620986023111,-0.27741827000791214,0.0085353871096284662,0.14651160219280698,0.12678536041272739,0.077178229269447465,-0.08370798913766872,-0.052057693362151741,-0.030550058378156275],[-0.02124891401518356,-0.122788018550426,-0.071050961340111463,-0.031529278597957178,0.36471326271045817,0.26298536847341231,0.021938998418731346,-0.29628057619926446,0.048472518884956892,0.016231281009310837,0.096185681028124054,0.20231239664540107,-0.25673170072718593,-0.031079270558567049,0.0016270450911279575,-0.16084184645387523,0.22465175850474661,-0.0014767573686032879,-0.15187543113016666,-0.30124281605183606,-0.021445376199046396,0.16422386177198364,-0.19973012990873965,0.016750725470613837,0.37988734773219313,-0.061528327134600089,-0.12654476232851869,0.023677394840645037,-0.10234412444194442,0.067483839528154246],[0.00995974867074877,0.072033010830068883,-0.39927092235753914,0.11492460283604881,-0.076224523072867117,-0.25748262231161506,-0.0048570542572664369,0.21297953605447509,-0.11706330821012177,-0.15675135593858833,-0.022768923297914058,-0.11390354446277014,0.059826128859887133,-0.12604950328354625,-0.25579077322975308,-0.20569522703951759,0.50288740081911132,-0.050904564176055177,0.09415695677479792,-0.030241849321853968,-0.0061469453283769133,-0.082887050201342169,0.078012713716419671,-0.11175962577659404,0.063466486168838931,-0.24125003682703292,0.044754809005271685,-0.031389825160835313,-0.14949506598995865,-0.088904511588559568],[0.043068943265110946,-0.11976163533053869,-0.020183411717557418,-0.19179338543586105,-0.07371214471947786,-0.08767344521546494,-0.28820105323542855,-0.36056572880733861,0.014108838876309253,-0.1099282899586691,0.37082559635015749,0.3052041911542015,-0.14869551101625503,0.14516783153516719,-0.057542658665809918,0.08430931222556734,0.20564741859063881,0.14580322613664951,0.0035938863902146,-0.201389176661055,-0.042356961465206337,0.20130225390440151,-0.0833736008493993,-0.010218155988142207,-0.040912000937405865,0.0332108525043535,-0.036011457509819621,-0.22165546579216425,-0.05329123193322962,-0.27562552226622133],[0.5018885917236845,-0.14719456331248745,0.0075014181802417791,-0.021075118196379129,0.198304857411859,-0.0034170307504278936,-0.14868326699178044,0.458874456792456,0.24383786111463887,0.31327542630957317,0.010591020053135955,0.036170611224791739,0.39041626399188833,0.04756698878171637,-0.081578285206571857,0.065775651314040035,-0.22345368961654322,-0.15200631970878051,-0.40404618851606511,-0.1345342078398637,0.07968858666629966,-0.17555605805075589,0.11945206954650581,0.21487266371639566,0.20100128273119491,-0.045133505923279651,0.35455180025972421,0.0702274983945482,-0.16561236800353288,-0.37922727569107878],[0.61633828297295512,-0.2095559835665424,-0.089252234384747609,0.076479708594538759,-0.51034703508450263,-0.013335547501876672,0.2308395390510668,0.85275234912309494,-0.084353299422646244,0.635060445694097,-0.36730120160131935,-0.050669036791780406,-0.12533156374854368,0.068404151696947413,-0.28034078932916373,-0.23635025204346449,-1.0586036911898302,-0.039970409778753081,0.019848848578973559,-0.0085695642361600013,0.46014223338489263,-0.063583747568841442,0.52177732965666523,-0.20536889424549859,0.24341693805906994,0.33888143898567658,-0.21380789172995887,0.06101629807095145,0.16779796012301779,-0.1893039917730838],[0.37751692391053476,-0.14620996063305328,-0.22296859868780486,-0.07491337820036538,-0.183243568473085,-0.026332617790652116,-0.091228120203329363,0.56224954007291239,-0.31570323617848878,0.045725599474865729,-0.14633098752632584,-0.19873692906729992,0.11244972690164776,-0.17540138928239532,0.025006067806073885,-0.00918269993470737,0.28038869823355822,0.026387079007138412,0.035677471332111542,0.093793270545497409,-0.2582020434957612,0.025305428284771586,0.315378254728426,-7.0408738631247766E-05,-0.074195417764377353,-0.16293377575651333,-0.050312436539851117,-0.064844505284491,-0.019570328550412231,0.169253236871366],[-0.10890911608120578,-0.13139455258127653,0.18871392507514731,0.018516136416902872,-0.32316667431503865,-0.027922315316569232,-0.3415285455370492,0.378729825740952,0.031721757126259548,0.066458162706732049,-0.069948445774121279,0.11163624670551686,0.071681295783305982,0.057444458227703041,0.027763778647718486,0.098533518244982868,-0.028911950877823635,0.22003965977116985,-0.011779226886111159,-0.042420997208313729,0.27088806532277188,0.054021088970046247,0.13875281618255728,-0.065712193805219879,-0.25911977465089553,-0.05900394197879013,0.024320122128297362,-0.0019095981377505213,-0.0058081895076881858,-0.040801083488598747],[0.20991316086129611,0.086540036619892152,0.12434340195517168,0.2182554400789796,0.047973634473619117,0.061413793921135135,0.35025901811833288,0.35845484727462928,-0.15011908947452057,-0.0070082853068169472,-0.19076368443710079,-0.05665710781768489,0.028779646779877578,0.33425972265892573,-0.32293478461360314,-0.33566931303702591,-0.02147704761457923,-0.0788885844832328,-0.44674576319635156,0.090266339074627083,-0.0016308339910396481,-0.095878833341839262,-0.13983477839820452,0.14592595326541472,0.0029195245114678426,0.021489981790486053,-0.083868043699884959,-0.21062603257697501,-0.092478923915546823,-0.033457995617834725],[0.27545914587847192,-0.032657517511663674,0.17853101519835149,0.023195760054288302,0.1904796667228788,0.044979342656830755,-0.133379540357355,0.24980254241304542,0.16384634672971704,0.088928885081577633,0.62536446232976994,0.054005075726500443,-0.26017489280335404,0.27506165515695308,0.10406704617787155,0.064443514385458936,0.37926016229351173,-0.0010264335947316112,-0.28163674423939344,-0.2825383598666501,0.061867438664215957,-0.18568439616759735,-0.043032788933170772,-0.29167052328631193,0.049442009878166014,-0.18794208318013275,-0.19215702192229475,0.0159099682529617,0.11880344694292239,0.0765125077102906],[-0.020120758825205216,-0.047199971561616934,-0.093182094830566456,0.21545152272916329,-0.028867878930487444,-0.13853606128082333,-0.086088933948343882,0.1767908710540487,-0.034772895328459834,-0.10788244497206941,-0.24066033584182467,-0.098689518994797318,0.13099350158384812,0.29441185520389135,-0.1361038311711408,0.056311319527170091,-0.039935743526052586,0.080043708526131616,-0.51766852479615211,-0.36645436384297325,-0.089256153453094914,-0.19251879807005828,0.2123723981377561,-0.28953529419613966,-0.035048387814386829,-0.050807919456910128,0.09236215041557537,-0.14777351539724154,0.15190046785691039,0.14819108933952419],[-0.404461611621407,0.13291529004227723,-0.059284774124992591,0.38687365599878776,0.0055101654522162462,0.11425212797136215,-0.20746166178605183,-0.32819793782126644,-0.20085503349111436,-0.48204950089561627,0.14276592837809229,0.23243400592230445,0.032847393825534449,0.21714859529408778,0.15797610045308114,-0.10454725870278181,-0.013959109893035478,0.12648191939112705,-0.2533032775538247,-0.088787176918378827,-0.14420189726150848,0.13234469887691205,-0.15060346495085206,0.00022066102641655816,-0.22033142349948923,0.092381957591580535,0.28601833926222736,0.10738863898814013,0.24366776271050253,-0.200294436293869],[0.44936599490397156,-0.22340928485635858,0.10625853300390134,0.042698648980830249,-0.33248344647018013,0.32667662401578684,0.091731481675764087,-0.052957036404177669,-0.040755271175812131,-0.21169520918035495,0.23288891835957123,0.26231656770840195,0.049809492118126658,-0.061412431554811728,-0.2082241481810268,-0.04874499490239053,-0.31213216654909925,0.54868126776992587,-0.22480477303304636,0.13268224907306192,0.05762985643769572,-0.0065226399940652236,-0.15823963222148954,0.018772095745842012,0.026175584052978592,-0.20825021080837949,0.014178471591275308,-0.10195883389769013,0.14756571255900294,0.095176501730829935],[-0.59334424301086841,0.046478387425505328,-0.43990641471360115,-0.22784381936775844,0.43610015287445347,0.20231955862095261,0.06379519095717745,-0.58521342080442929,0.14622456074997656,0.057594309668146812,-0.14422414080914991,0.055887574457073992,-0.24033551247523743,0.014998735767289677,0.0899507394720471,-0.41017941128444108,-0.52782844394227146,-0.03291316899395718,-0.2316493020057028,-0.054053804164974524,0.092066918522190608,-0.0057495431628305062,-0.25349608448650274,0.024308261767003226,0.0015515746069076275,-0.21316100604866578,-0.44502024081258745,-0.17129783507644228,-0.16235339907880469,-0.19280601759971244]],"ActivatorType":"LeakyReLU","GradientAdjustmentParameters":{"Type":"Momentum","LearningRate":0.001,"Momentum":0.1},"Type":"Standard"},"PenaltyCoefficient":0.1},{"Type":"L2Penalty","UnderlyingSerializedLayer":{"Bias":[0.029779873238444415,0.0094011977476927359,0.055891234195731762,0.019213790463554654,0.013422375096459162,0.0059068350696091345,0.011559119518732442,0.0091558033748426783,-0.0032781175036967897,0.017368996473920182,0.025631510053006432,0.017296674835102079,0.0052357707402323561,0.048032412262481478,0.006563903768863716,0.040755254133207471,0.010704756731146979,0.000687215007816253,-0.0020088298224682807,0.029045549215968823,0.0054556051147933854,0.114730453619643,-0.0028648872128654115,0.00980196813470122,0.0048560700486352023,0.028923511214349919,0.020701546168909551,0.011339462310177463,0.006636401753451036,0.025129128363711995],"Weights":[[-0.4392743618686481,-0.087077058368446023,-0.60509438494969792,-0.18535345875309697,-0.047638163534854935,0.0891007077925732,-0.15755578255470057,0.29168635166139928,0.16940903714553912,-0.31581216636893666,-0.22036005073744572,-0.16291805948206314,-0.051367767050969723,-0.55084579848019355,-0.078262232073730564,-0.29660033701234523,0.0036340002268451122,0.026718579314236109,0.067381002396881814,-0.21550138947806552,0.13337680409892835,-0.058018271418084875,-0.315814898141276,-0.20133728414058444,-0.081484050129874683,-0.26985928650887259,-0.1428537145044684,-0.17120543354276785,-0.22211932296182774,-0.17335818311445714],[-0.16534049613661686,0.547330349461544,-0.44453267470499269,0.098427902152511029,-0.091861473748559477,-0.27995079199565137,0.11560747228126897,0.18989177994093581,-0.048186466743841222,-0.41890942838107381,0.18386356521620878,-0.048211558065582354,-0.0926855361718733,-0.022679362612768136,0.20652718932318107,0.14082396614567974,0.1329357194968015,-0.094926410314324833,-0.084026093742038468,-0.10204731103804443,-0.19525545897570062,-0.12258910782770666,-0.20000091047662921,0.19666158067032064,-0.33616605453024956,0.10465604873106314,0.20400074979097654,0.22314204384822833,-0.071918889848466491,-0.17554002103091476],[0.35464253581603772,-0.048860913301534359,0.036939227512465943,0.12904293999982011,-0.29308946476120018,-0.12422109317794172,0.21966434475731309,0.040152410877836012,-0.12361854864200447,0.00758479361076952,0.0013911778794035697,-0.021584550047738814,0.03062949545437756,-0.22386459601082595,0.081833634456285539,-0.10899783178251819,-0.28992818531484887,-0.0751004842045816,0.13923108996069125,-0.33224522813928603,-0.32709195738588714,0.21171970868117573,-0.045813651219853438,-0.30288339290091515,0.17147864696695536,0.11030181327714576,-0.013807642523911397,0.055829867174130132,-0.35983781058923564,-0.333884729288603],[0.13072472653019041,-0.12070046159465731,-0.050264681418377838,0.20699984053951692,0.36765011445691453,0.077549598524312591,0.071024064559746178,0.027542978548784364,0.0044714956012509265,0.033817954239541648,-0.098400146093951452,-0.10523619260417567,0.087639549403307121,0.13073060336114278,0.12073260932396771,0.16780377047227493,0.0625985560618885,-0.0029111960407165109,-0.15298288792728393,-0.023845191261612733,0.0925172119583561,-0.16224558520964516,0.065560672887261112,0.18576215173914487,0.372224986335906,0.13752672754178771,0.01407281088381976,0.37457020601442359,0.27357062991433617,0.24257505822608425],[0.25508825182769512,0.14996493253952423,0.29669970360648967,0.13350477354631934,0.051011349796566866,0.15649672007178059,0.058497225050109153,0.14169587788432117,-0.17740373263815762,0.21037196425012433,0.053331503676240045,0.11993696032068278,0.32988209009659564,0.45589126313016431,0.034353640894434968,0.35483850029208208,0.21178680894148791,-0.27848150616151424,-0.20621069772895959,0.15604926909305594,-0.37876987738044593,-0.036745069135738648,-0.19261254055609031,-0.30939861321527845,-0.18808484842232826,0.33409721533895231,0.27118243689579224,-0.17230417418248398,-0.28284105633175016,0.30605007362513065],[-0.064729853135081977,-0.25291668225552727,-0.28552506142723089,0.41975373520193143,0.086965703047283377,0.19001737909760569,-0.014115260010674339,0.15599352835641564,-0.1543132198044882,-0.0719263846722912,0.32906433546985348,-0.094883590709816917,-0.062358923318798283,-0.18960278606284936,-0.19700928601960541,-0.16959182544276394,-0.20375853392101179,0.085090186511381644,-0.12323202992806588,0.235951149948104,0.16030571560908527,0.014610248030120281,-0.33359008543461727,0.042000557239918031,-0.21450345759138445,-0.076364926358486893,0.26415778430741355,-0.015865527665121729,-0.04247047180126505,-0.071152648517932973],[-0.21963520569359862,0.075938283834178735,-0.16418257141276541,-0.3170210650887359,-0.22881184052420586,-0.21752597541258131,-0.18235125571338429,-0.14563040801906471,-0.035507737540667245,-0.45936415487422033,0.32472458693905648,0.11534582008052004,-0.20203484150693285,0.051095203211273393,-0.150370110540677,-0.13844714403368447,-0.34369908173305397,0.19176394736538374,0.1158806921728391,-0.029197510122695339,-0.31769434693513671,0.10984204522974293,-0.16930180212213361,0.25935226359710739,-0.078217905339834637,-0.46084781512591472,-0.029194620711877017,-0.28646108426437183,0.30491927042225475,-0.40313358211680828],[-0.24300564000685482,-0.40135120886440995,-0.53951601248105174,-0.056230529295021883,-0.22595611570550978,-0.10054922393395771,-0.023112875011477775,-0.3027030996629243,-0.155419899528633,-0.099882341473201575,-0.24139742346642867,-0.19101849501556456,-0.023459050053480746,-0.50188066019580857,-0.0074655024975433595,-0.428577691284573,-0.20231035274451809,-0.057457472586333984,0.071094572699812564,-0.32989238797692183,-0.25823709138523004,-0.13664693425583621,0.27467028612443534,-0.14736841141365981,-0.18918039301504172,-0.26180683291918216,-0.15234345412066003,-0.006863687725795,0.00936446720167459,-0.45780440142042084],[0.22437916298646629,-0.2005005322899886,-0.032087768069018481,0.25479860044765218,-0.325593443572031,0.23920918837191141,-0.10078192727400791,0.078775325276182279,-0.44479794144762025,-0.00921340971671241,-0.00402867560380811,-0.14927694064894725,0.1134244242951987,-0.0519600553923076,0.14975404923723973,-0.15870767978377823,-0.098182576236342425,0.14002291906726519,0.071289890740787384,0.32865529821663464,0.30654792023818139,-0.4300948661136379,-0.21999340298846912,-0.17966823484743386,0.0706981903580289,0.029265784533698692,0.12901335986855986,0.18411847205740911,-0.23141767453059553,-0.00086984269989946815],[-0.13065417525986817,-0.31515369352672967,-0.38184174482126287,-0.40881844137727463,0.17107669411820853,0.11933038156844049,-0.009979180231282192,-0.13732309262456494,-0.27983650291843531,-0.065537045673710076,-0.29853736691723604,0.013940821651978198,0.031952794566664881,-0.23800745339633844,0.12501346793829646,-0.1122255663418186,0.12918462205476725,-0.18186459674537758,-0.055254059108845205,-0.294005192813271,0.31887535194298355,0.343170533061804,-0.13925920967750105,0.1881851164295372,-0.052244109773927232,-0.18664778324255951,-0.2491452084044965,-0.088220410488368012,-0.19054769430844126,-0.34388336093305871],[0.019590608772986136,-0.43517718070264344,0.18493610566392271,0.30716833015362133,0.37332175355217007,-0.0592937159104391,-0.23133906032749182,0.19293040053969388,0.023176932197974818,-0.039048307751635793,0.17508532061264676,0.24695594326621395,0.058851859857223958,0.28522576070405092,0.22215799224913282,-0.024428922344247161,0.15435430215336762,-0.18234314423653167,0.15338004964768917,0.12285669750390152,-0.039804307533778463,0.029978465064907405,-0.12827823283839385,-0.081367704346100578,0.36165373692944897,0.13588951021511575,0.40918460173048532,-0.058718229404467318,-0.019735136953170154,0.24185414244580208],[-0.15783311913151779,0.11640581086736793,-0.32696509227059367,0.30128236951843168,-0.10023133048604342,-0.16895377419351465,0.094950850416905222,0.26995676480890379,-0.183629840817337,0.16570385573808744,-0.20597836145406295,-0.21787220867123147,0.27285037616457508,-0.18703722827808753,0.11997762787749479,0.079012675842114549,-0.11543803594130342,-0.0067418633500354718,-0.096017470577760652,-0.18322715703067963,-0.071047943441135589,-0.11645011638003998,-0.05231532732838174,0.089032146819101279,-0.083760727351508926,-0.12510344007090302,-0.045685457979506183,-0.21054606307676124,0.039407804834320811,-0.12506052401721218],[-0.091812473961888075,0.11666192725596297,-0.28203222632306957,0.0473457422456368,-0.064982903411536744,0.22042108596214963,-0.15868008515324467,-0.1494073659389599,-0.026156176007250988,-0.051452396490185404,-0.06357545461330795,-0.13763003273007982,-0.13890148236159763,-0.049620871090748413,0.31845847570657687,0.10923828036117673,0.07034938225086905,-0.015097009209639706,0.20430415329965299,-0.3640753895723064,-0.17851122068500153,-0.12463493857261752,0.10454473397812261,0.095602723752490265,0.29075419787623913,0.04321969981678369,-0.047525768555382319,-0.13870364767650012,-0.1366165844798945,-0.22480226903523118],[0.043101957315361768,-0.087049806474204128,-0.08442436522824906,0.12381508466499007,0.092059633367144,0.072292065030606784,0.016095834514150375,-0.0010532508684034099,0.14011805256713347,0.0048403040449240585,-0.047091386032633305,-0.003680285069687934,-0.10203319447347702,-0.068896487267179979,0.085308964876541465,-0.17895954408114431,0.17291269025781508,0.16229057208647674,0.24898813737937256,-0.03077006451263541,0.1060592449465205,-0.4032752021938783,-0.073473255425139841,0.25980179798396469,0.095997365596877632,-0.029513993977449443,0.12729136856001458,-0.30241133717756413,-0.082344112092393451,0.10326144859182977],[0.10767384465194504,0.32243267209657783,-0.008074813361800685,0.038949508970698231,-0.23916191405308876,0.15413868285816612,0.0707817353441207,-0.15402026134656194,0.054556222379572285,0.11275889486846304,-0.07532313436139508,0.21591911316729415,0.15844755758331733,-0.0042437622640332535,-0.36220526673782327,0.12407514585552995,0.21893909259536037,-0.0046437020816229363,-0.26303173798481055,0.021020217556745779,-0.17567471529880629,0.031970583730345919,0.04538158807239287,-0.028846430478752631,-0.0039653120828791657,-0.1501019068265573,-0.039646001856708579,-0.17658618451658337,-0.082655882368835434,0.14056653506218464],[0.15680516046567075,0.12046292761772079,0.069996954914965881,0.0083852734794474509,-0.16146856185334776,-0.063216374483257745,-0.37694756464966866,-0.10700395523416523,0.046303048334904631,-0.13663145438088831,-0.022081234041699878,-0.0086388460386904887,-0.11689162747041078,0.093293192442766182,-0.17573091802482008,-0.011251123488116027,0.042525305556340647,0.097702461732758955,0.28925297866421279,-0.0701134076937756,-0.0085925228519728915,-0.037862830356394511,-0.20800737842581804,0.10260453882619051,-0.019132441938984147,-0.0030925478269955408,0.1495799281865661,0.27784386607262229,-0.33374622454384861,0.048153196693958782],[-0.14845734992420032,0.22966215524257846,-0.20068520255381298,-0.35729644575632541,-0.21587237016388391,0.10750075076614254,-0.13612846653223079,-0.46467084768515682,-0.26107603604397894,-0.12778281594520127,-0.062455364881384187,-0.0878633695595915,0.081021389028063079,0.035470141365553168,0.10159774172253085,-0.26295367025801569,-0.15326022169576961,-0.17064358498525906,-0.32246177592681519,-0.21553901172323717,0.20484568709768361,-0.13660653464862457,-0.11542210216396527,-0.24575992739682298,0.052658571781885363,-0.19638079816830706,-0.29897603094211272,-0.30706341573067736,-0.026072488280114443,-0.20988038571254852],[-0.15487843544104993,0.39159493445639831,-0.11598133075147282,0.01041473951956094,0.06489220259482506,-0.076699142963654543,-0.13657005978251305,0.13969334238517833,-0.24568435690787832,-0.074179119742916313,0.033851018260679648,0.0808150721661446,-0.18258028850802627,0.13010569075658091,-0.062496768560686734,-0.0706996608032459,-0.19095635886619722,-0.025835901176183878,0.0341180308828072,0.40373236852293209,-0.10783634348204182,-0.012426847354872239,0.25774397404119875,0.007162159469381286,0.293521287272988,-0.042339974526223213,0.17655855518031979,-0.017555702065941054,0.23222312790442226,-0.0655324285437883],[-0.11210717752233772,-0.13651105195072019,-0.014084362681492085,0.31659035897363641,-0.263534064517707,-0.040705727081530273,0.0189591621680247,0.019712906496498376,0.142163643153416,0.1025410339054775,-0.036917172727592651,0.32660712753683063,-0.2016863820827971,0.043372117814739319,0.43299937062345278,0.27229081698927721,-0.29247644216892527,0.39328970128005752,-0.036927952393305881,0.095449159127167324,0.12599048515948561,0.14041891980390436,-0.12316328461910348,-0.31821230645255422,0.15821315718012793,-0.13193074852040229,-0.035537025614029077,-0.38259378880844197,-0.20243226526744645,0.19020415996786452],[0.09126081262887871,-0.043101678570224788,-0.11149497749288637,-0.030037934578501607,-0.0842345916160113,-0.093207888985040191,0.06369079774287785,-0.37969754140257789,0.06464843039129653,0.1184239732363865,0.23869301967092702,-0.15066608321528649,-0.0633259530523191,-0.0499247758054708,-0.045870651126595052,0.24027702700162507,0.14379007355363829,-0.17397674997077217,-0.02931850828914492,0.024811257350450318,0.26977515322189577,-0.12632832816716974,0.047477964661946662,0.002432977211138272,0.2967895483247443,0.37536331925879934,-0.065927381450412936,0.22245557847571681,0.017713567803467969,0.021281962234795341],[-0.32189315973348759,0.15146270468612552,-0.34212467984843725,-0.12731449555670846,-0.081104446927064575,0.054384430054320212,-0.16785148105442865,-0.094218166581459553,-0.064923204474580387,0.11618032329965256,-0.36639848830251026,-0.020622550101450594,-0.2852529802956878,-0.31544013892524225,-0.02115782590141144,-0.0971324688342501,0.013828948863844717,-0.14485230276409142,-0.024349913340015506,-0.15893377260761696,-0.03280185026856966,-0.044090490171455006,0.085336506398649856,-0.31153497779594053,0.22733516225794948,-0.16083159122852356,-0.38022404915298919,0.15893716824885076,0.047529674252670996,-0.061398671907457528],[-0.10492834885727644,-0.11390417054409405,-0.023720537800990281,0.10379245972324275,0.050818277138856505,-0.39944043646605232,-0.4710673356148069,-0.19724404264135209,-0.0804712299147698,-0.21556967237595776,0.05248774047219168,0.15022272360186798,-0.15011168147563042,0.3314687983260679,-0.13616361153137571,0.33644671192889147,0.108523141193748,-0.048505996366115557,0.0567308790852915,-0.21628043216748863,-0.12878562059839943,0.061271373184112771,0.22529767131181994,-0.1010717802046178,-0.17540653240136056,-0.079442031183728667,-0.2051068394309066,0.051758245996125218,0.17862802436042283,0.01234222900000966],[-0.11014875138224907,0.12809692032796111,-0.18429854168813811,-0.13903147976790348,-0.11224071781252461,-0.10076603561505997,-0.038084176591258935,-0.054283388420832822,-0.043746100358009923,-0.0628772510471169,-0.33731227185735352,-0.14799048374465171,-0.26615402743074734,-0.30880134006303661,-0.25043686038334129,-0.41793580139463327,-0.2130506302015677,0.027710854280964925,-0.28469951674794713,0.091645060218319085,-0.036486709728948977,0.024071184106465231,-0.064071408553573669,-0.089650293717155022,-0.099690095799871259,-0.34890518179098368,0.004899893860112161,0.16642048397447898,0.0489836168671152,0.020683664593043046],[0.18728567081041916,0.1944758508680472,0.026700150808540036,0.0830669750309463,-0.08424754287175816,-0.12267565400298792,0.0324139730873176,0.17461027758876629,-0.078340841277588308,0.23015501655122087,0.18016438289018111,0.20777652355914283,-0.43369545713713653,0.11858541402452663,0.058251828317776928,0.038584078365621624,0.18780802886070577,-0.17080472244468317,-0.49053704174656243,-0.15244298957255198,-0.093796962424966962,-0.2216020550511692,-0.20491130744280092,-0.068540219973450375,0.071706743650770885,-0.14363290380163,0.0700744058324963,-0.14170618120347325,0.027428736638465588,-0.12521466525074759],[-0.22461386821368395,0.3140906008708883,-0.43757422748555719,-0.3413544540641314,0.26712890694607677,-0.17640967704910918,-0.35574418147425296,0.16297262593205558,0.14200793225137051,-0.028421207002513285,-0.20358898148878449,0.11075946125764073,-0.17607045840285024,-0.11319957506846062,-0.2553348664664884,0.069894987436800615,-0.11284328390204212,0.14416917312375246,-0.23406538091814558,0.0027136763254181633,-0.18613397940498813,0.022100936931408736,-0.15511234262480933,0.37374344893464911,0.072717324566948446,-0.33674747259998267,-0.14057079836409242,-0.1649941409423675,-0.320825367891142,-0.10998007222632467],[-0.14477214819401318,-0.11761283155520097,-0.1675757871593028,0.0632749503692581,0.022479914856848367,-0.024893297747047186,-0.022207460273129215,0.056307296049487761,0.18390911267327934,-0.26961311003338112,-0.040990557838324108,-0.22399487814807381,0.36412670682935683,-0.17552736584486139,0.038953644217103761,-0.089434710165025189,-0.11911642669587763,-0.10092406250763319,-0.063901960648012221,0.018527982486305196,-0.03328596074638223,-0.27253070840106153,-0.22337713056825928,0.14613811245881958,-0.18456779966296588,-0.10948625230652105,-0.13639861710071341,-0.12071411517081788,0.049261369972879436,-0.26401373525737826],[-0.13994895165853094,-0.029469299025063584,-0.26458932337876689,-0.13536904485398363,-0.046140742982200812,-0.36858204888351243,-0.2889579513726252,-0.17222162480663147,0.14030006664703368,-0.067747286039735344,0.0676232922802594,0.15943556087487554,-0.0980103960617597,-0.0776841419855912,-0.17517412859584861,-0.01884830580254367,-0.099458994262593567,0.07100080450120301,-0.12746651508774673,-0.338837691812749,-0.06829511290573094,-0.10750759476865245,0.084119318889502623,0.30390791111178694,-0.16778501292373796,-0.15835395281826117,-0.36346970322480321,-0.077896681804282011,0.05136910185118599,0.048198794522840246],[0.38658542011687824,0.25203802008143422,-0.297449259439384,-0.2385677441759877,0.0772526634898651,0.10069137101270703,-0.13615006526926271,-0.14007652868633133,0.018351013046671454,-0.010224186735699874,0.25363254135644714,0.18923461143622392,-0.12632958497117666,-0.025424251752201567,-0.13416007311999753,0.25038283849045034,-0.0044163601929987691,-0.029704774159641664,0.2461501227843958,-0.00971753950903941,0.012179013581894585,-5.9686971649866812E-05,-0.26419777248236365,-0.29946943898795586,-0.28809023724539279,0.24245183467626075,-0.17021621651252178,-0.01919275063529546,-0.074941969398440625,0.14817504433090392],[-0.031417284382948232,-0.11097969823143757,0.039446493719106836,0.37603062834122242,-0.28574119082384697,0.040535117228821277,0.081350855221143464,-0.1048878786573087,-0.27157498630049703,0.21736003637510296,0.12781178749743868,-0.19348975249189557,0.051296723800640029,0.048513983556380334,-0.24115826213131694,-0.16278938637794774,-0.0337209987213627,0.10755993849849418,0.26685759080665816,0.0087974286197383955,-0.39875378652342547,-0.279935894789402,-0.17064243181230085,0.18162366979686367,0.12925516349867514,0.057313955207024585,0.0074974802271372,0.030623189635403687,-0.022070438614381113,-0.18206281717893361],[-0.1365480391343748,-0.30174636959586865,0.14854854499723394,-0.25701668747332052,0.063315262218308646,0.072546691986822232,0.13398638614272412,-0.063222137986491317,-0.0038689439524898493,-0.085129859636651442,0.43496104906701882,0.060345245541708011,-0.0096286884716697985,-0.033626684178665517,0.12867970192977951,-0.13197050778713934,-0.031548461897391772,-0.019147835355447004,-0.12718613299972187,0.015114470308609945,0.12343915927057672,0.10171038486620512,0.075667520196025156,0.1628354085457277,-0.25275740625971543,-0.23040204962645861,-0.0072720718653401066,-0.086169197374749276,0.15456398851868841,0.0940560028690311]],"ActivatorType":"LeakyReLU","GradientAdjustmentParameters":{"Type":"Momentum","LearningRate":0.001,"Momentum":0.1},"Type":"Standard"},"PenaltyCoefficient":0.1},{"Type":"L2Penalty","UnderlyingSerializedLayer":{"Bias":[-4.6420143507887763],"Weights":[[-0.5388631702164457],[-0.24830382369163809],[-0.93041021879413255],[-0.29267310429808796],[-0.2320098379498923],[-0.072121469919988981],[-0.23471597868300717],[-0.16903117533560905],[-0.027234366232433839],[-0.32012124407428366],[-0.42494379027558526],[-0.26407028570905505],[-0.15585736425823052],[-0.79221055783705363],[-0.12050547413901605],[-0.63699950903645552],[-0.22582977566186019],[-0.021837313197807306],[0.0010757211863197669],[-0.47851868298029132],[-0.093802989063068817],[0.073496735801729274],[-0.033419355384600037],[-0.16520559053958608],[-0.19656189177789907],[-0.533317034656016],[-0.32971751470830046],[-0.14209300126437996],[-0.12842021099597292],[-0.47683022232773292]],"ActivatorType":"LeakyReLU","GradientAdjustmentParameters":{"Type":"Momentum","LearningRate":0.001,"Momentum":0.1},"Type":"Standard"},"PenaltyCoefficient":0.1}]}