{"BatchSize":16,"SerializedLayers":[{"Type":"L2Penalty","UnderlyingSerializedLayer":{"Bias":[-1.4966889903272349,-3.9639171750236581,-0.0030734879631232255,-1.2537087055033849,-0.0041317228907536956,-0.587202918227344,0.0041819777184002619,0.0043907782221739152,-0.060005063848935329,-0.67374136699567122,0.0087924145564658631,0.0557769140623693,-0.0018330198179324494,-2.5199466394581274,0.0037837555167704352,-0.076922404123109911,0.045709017617516993,-0.041599425279537125,0.032801522894758559,-1.2308024692440975,0.84975149547220918,0.090254156097053742,0.422258932091727,-0.001304528656420965,-0.004656406120400758,-1.7426132232150868,0.0023634259425171365,2.0645209194949303,0.0034262513384532879,0.71061412831451665],"Weights":[[1.0841874957929849,0.48417945394959366,-0.12813808515586639,-0.12961151679877975,-0.23289111728741735,0.908338332982284,-0.5593115344080587,-0.44410416152581667,0.45245695234601879,0.52638600639801458,-0.65274815606209524,-0.067878395152690479,-0.038547327908685196,1.1100908098403537,-0.19976092131942388,0.35071341842404263,0.3096134233187971,1.0764577881278719,0.31675458701634684,2.1751345701326179,-0.60249215356695718,0.026201079867924526,1.3805982783905426,-0.20905965321562023,-0.029686987699042655,0.0032717025510749613,0.16394585985156365,-0.62706195132911591,0.16666183167114371,-0.13672281521719754],[-0.17298975594314894,-1.997880035136425,0.39652050989777948,0.52785910969255212,-0.69542263094645684,-1.5910380981697336,-0.073525453642524191,-0.36324700966441426,0.03039073757209889,0.27591088035375827,-0.66830652013922021,-0.44756630968191241,0.16723636275769135,-0.92425539771315413,-0.016977558374332995,0.19622876516400781,0.57914868080618376,-0.53675964291076406,0.80022339739441362,1.2530382182281139,2.6769768756815768,0.43313603669262657,0.037160253392088519,-0.32964249330942752,0.3520033980218491,1.7293029862084273,-0.79066418966483065,-1.0476404062974396,0.076280241587876246,1.5636694790814236],[-0.55685060147090648,-0.22217780094887582,-0.62950293931445478,0.13444687655967019,0.11777840821160633,-0.47919551191178161,-0.014637830459506264,-0.36363355429095356,-0.23277613391948812,-0.40436513339110569,-0.45370869916477391,-0.083733453731787463,-0.76875110545627856,-0.65170052259417166,0.0974240431321003,-0.29517218995435673,-0.37712680614880034,-0.61070414670087481,-0.62892570907215428,-1.8142362558774892,0.56397270736515348,-0.0756689111906131,-0.84247702021275017,-0.073244690785595756,-0.21440600767206861,-0.09704206542860036,-0.4022949961184033,0.93932846527185332,-0.67231788993006,0.099080814497092912],[5.6404147214167235,9.9568277897858781,0.43442389218596561,5.0018457277455779,0.4976558181589833,0.441295009082169,-0.0093835719342954954,-0.14207755638404149,1.1509479414740114,0.27692370636136893,-0.16692414628734786,-0.23650561218305713,-0.096928787235722944,8.5297137298141656,-0.60155218981311565,0.17686081935102593,0.77968585019622194,0.30395991606822059,-0.19912136555927809,1.9295101132637946,0.84433840445691088,0.10146239176639085,-1.1844817884235324,0.49291803620227848,-0.5269904493262727,6.0868397547861761,0.090439056310750748,-4.7164867054127351,0.1310148842279773,-1.0931131167049308],[4.9325405992581555,24.996412454931523,-0.14085508479003278,9.6910013625475031,0.645681085432003,0.40211937564725825,0.030378249092396316,-0.1405766680107208,-0.32312679780787884,3.9003537218019719,0.19868303772733809,-2.2626854123462525,0.32743013045240155,12.325865017115888,0.22332869750626927,0.24877454093151175,-0.094150511488595462,-3.1714209697340703,-0.11418757460597473,5.1394116247175043,0.46622454419331066,-0.37768383848147119,-6.08425991847044,0.03242569558707193,0.48830040049526341,14.705840868664982,0.12448407842903465,-10.178063492287402,-0.3471883771165124,1.4034663030531367],[0.52186613019032391,0.2347737046020629,0.13126171184989591,-0.70020599575589892,-0.23702180164422948,-0.34186928987673409,0.29502377653314876,-0.506974036393827,0.018059585155442221,-0.0060941863655760977,-0.20741177260698415,-0.11202898875814427,0.5342483453098994,0.22546407758802947,-0.53633176027192619,-0.1353893530331868,0.21204860425806033,0.44191807225113883,-0.049399177778217382,-0.062252160121358861,0.46120590443297693,-0.32015616270765251,0.32036072305319219,-0.22116453126633417,0.33516937593689294,-0.20132756021126505,0.034570131498232612,0.0021648450486075159,0.31485862272655712,-0.28214447248898433],[7.3014686230219734,13.33803405216902,0.1401484925621031,6.3536745193472726,-0.27324923465634826,0.78517553038544219,-0.66559583610725392,-0.4405700947574609,1.773530476395548,0.53543441649983969,0.11452263248679721,-0.22401962437451115,0.018480619702765006,10.950370539896444,0.11583983971287178,0.43794408148331926,-0.028543109001150896,0.015320513946298396,0.75367756687488174,2.1401349763916229,1.2232964983666048,0.071650087893805156,-1.2027581762745003,0.34637380436176723,0.8131087609511396,8.8454981046820613,0.0677165701205188,-4.6697075162860724,0.3238941043010049,-1.4909113200191395]],"ActivatorType":"LeakyReLU","GradientAdjustmentParameters":{"Type":"Momentum","LearningRate":0.001,"Momentum":0.1},"Type":"Standard"},"PenaltyCoefficient":0.1},{"Type":"L2Penalty","UnderlyingSerializedLayer":{"Bias":[0.0025400995816715435,0.0014399338216672985,-0.3931080283537437,-0.0063288855443867139,0.00074172022602410435,0.0009346335022145,-0.00085055896118978506,0.28645234307322792,-1.7664694033972292,-0.00071234610552696877,-0.046055253016518034,-0.70273952669735706,-0.0031696611305330538,-0.00095167430710783743,-0.0060134874153543695,-0.0021859770363572444,0.747679851511089,0.0016888289091607858,-0.38711052492739906,-0.01951317570118016,-0.063021210485282933,0.23376131810821471,-0.49477813537096677,0.0027331338437580283,-0.00087093165413418337,-0.47238203783478167,-0.00211801610932666,-0.1235095507782446,-0.0010823267504980855,0.092357410505111079],"Weights":[[-0.39526183677118965,0.023182021063797627,0.1240495873051517,-0.28457587483813818,-0.16798184636330471,-0.02928770836983579,-0.18826747363958751,0.24666100530655988,0.77828179442866219,-0.22065477876164574,-0.29747940663762051,0.024211959689113063,-0.29892608223503436,0.072674330204649612,0.10949843027350879,-0.029172613210047167,-0.609160419168773,-0.13302241379920707,0.099940256086470725,-0.046946850535057753,-0.3100996416774558,0.543829610216681,0.16183372107127514,-0.010682648173284565,-0.46061867051043776,0.11804947939495036,0.16216318602556995,0.066743187438667639,0.042547504116284565,-0.826845528375319],[-0.13497840456340229,0.04625342180687235,0.96158129416330751,-0.20746390673580417,-0.093561088127834882,-0.063747786527285341,0.11075213989935027,-1.1384402414208736,1.838446826566684,-0.089992420723286864,-0.030185534892912948,1.4318520545719766,-0.10279303986179607,0.10556359807610621,-0.11674516537197963,-0.15347471446494573,2.143175792433226,-0.18367434210223632,0.45174592168065808,-0.28815274992093221,0.65476931289418971,0.74237188473360993,0.211691607761876,-0.38584964110214476,-0.076507230019443817,0.61753994578853677,-0.34944332259075594,-0.744343649642772,-0.11583656235392399,1.6145038288399773],[-0.21576925017977272,-0.10618755602879069,0.037793634906790143,-0.035732630070930013,0.10069269611275146,-0.37381692929353633,-0.032539545117798004,0.15413627028907351,0.17191904909478226,0.15591386750039424,-0.090762837550785347,0.08094863442515253,-0.14716094044328804,-0.18519104522085605,-0.25699695863085953,-0.043634767095142628,0.062931695454701717,0.39090991675269915,0.044570029549597039,0.068525641337649323,-0.24079029788891102,-0.62255541080992449,0.11136100844733697,-0.25601512054980768,-0.053720766143481646,-0.3706254091182975,0.11344584351843735,0.16246204940805331,0.057607508505668446,0.24166677165075171],[-0.20512659703191266,-0.19754530775226223,-0.16325063336770013,0.15042703377050712,-0.022138829468232653,-0.35468145724898809,-0.22720830448661533,-0.38137657349495552,0.88745716877620817,-0.13580723487969212,0.036578553584924713,0.60673759651159365,0.013570379135231989,0.13239936866678256,-0.13092466806303046,0.13252887027520582,0.8289129075684909,0.13159757892668772,0.20534841127115383,-0.080679787396673849,-0.36163875802735207,0.49237168882875831,-0.16716591653278476,-0.36651956730046253,-0.29949913718795734,0.2660790070857314,-0.081033722248505441,-0.40892837021372896,-0.21088864345475872,0.18538949764429497],[0.18608000381531914,0.10299328916636602,0.12731006369856893,-0.080572388308608384,-0.26861630610307669,0.10552680182670933,0.020338091343643255,0.038618035240159464,-0.0672794595524648,-0.224753017319721,0.20281663666350205,0.16520864847463168,0.19442279117248457,-0.21690161431265237,-0.19785909280259792,-0.10645410234819218,-0.23056694233378711,-0.31600841409207608,0.17260927059766057,0.025037345935635318,-0.024381298749320674,-0.020018994617896271,0.13767751585945023,0.055670351658191113,0.0887166404957056,0.17177792940515521,0.028936610995948939,-0.0687601804949459,-0.082839252830466767,-0.016744926593261888],[0.036815400272185633,-0.010840740456135763,0.19540330165760228,-0.25792817365630816,0.20465039143313768,-0.2192443319395338,0.15672538156344731,-0.80935603202602635,-0.22233024489648073,-0.00926011242029437,-0.11503740191651649,0.069848501166269769,-0.25048497638127482,-0.015384525645804937,-0.2921522830493995,-0.13946125335333176,-0.63539202307858467,-0.058784423453864643,-0.11822708524705759,-0.019914867122486787,0.43731836974368765,0.12278351578219834,0.033345378784201019,-0.10679660788368357,-0.075351267595206162,0.053320896114849164,-0.15669235801906745,-0.014796160883134023,-0.18683688527793757,0.17814602918733188],[0.050435887073429657,-0.37356731210991373,0.29926880230313246,-0.26981485883916945,0.1711803180055157,-0.086737494787400546,-0.024567576546997212,-0.0836283083245445,-0.26133048365504957,-0.50675866746243114,0.21380352591051186,0.28691534111218986,-0.084852807611259809,0.080003241913395876,-0.086587615411529789,0.047006154609595265,0.39410790415536784,0.0471295412239149,0.25524202733611145,-0.013690329812635042,-0.021699551896720223,-0.27100727196040014,-0.070363236935430659,-0.090851824048858165,-0.094389428289763738,-0.50629730712350762,-0.12699167880658102,0.34590488744103909,-0.1544181486267999,0.29539248175872379],[0.10017907886226384,0.16231661749625567,0.054439467415567967,-0.31290700554073175,0.034936426047043806,-0.086804429796965871,0.15944904792150569,-0.018809346942448395,-0.23907992092171096,0.14680046807038602,-0.0088529787572096882,-0.13927064955302215,-0.23469195996976391,-0.23979877102963004,-0.041998152908565574,-0.12798221107503338,0.097992805164141564,-0.02013840473575107,0.1029630869116977,-0.033189239016208356,-0.32745750065350976,-0.38349667429517603,0.14138833139215604,0.140011935097291,-0.43186313975153112,-0.36389423252108566,0.069038525696003092,0.4258651893597068,-0.18037021835388212,0.17953105674801179],[-0.08533841535478684,-0.17953320694031411,-0.073046409931363715,-0.0046475906625996124,0.10449638740893937,0.064940945196324332,0.33730819972300635,0.34743627814941125,0.12488212340654409,-0.11381666619460672,-0.1315521265979453,-0.23991987406123341,-0.10809009077836428,-0.14267606881018552,-0.071461940779221689,0.071763533924928,-0.49760965077224667,-0.26904705464733458,-0.13618980826467697,0.19821614013101471,-0.024252356157600078,0.21016353800585133,-0.081858350581560713,-0.11453238920843208,-0.38487204705309475,0.036246182277962037,0.015407749347033114,0.24928959057713956,0.082260283616561222,-0.42996942816979877],[-0.18171355207386272,-0.031345225942611722,-0.005613064761696109,-0.035201788629617412,0.10546013962531349,-0.20697476963388548,-0.29590094024065777,-0.1447138308930894,0.43311667265482423,-0.10886503892892645,-0.17032354432582225,0.32013273062292952,-0.031119143865052705,0.13000680496587186,-0.075765244188535516,0.016400994454728937,0.67379218426813525,-0.0074653416617093864,0.1765783254427642,-0.153619934972305,-0.22584672072576267,-0.48748931243985666,0.17433506984522978,-0.17684594330021991,-0.095431146842352571,0.13230080054802443,0.23376167668616568,-0.28872410949444532,0.095952572479018325,0.4842349270833024],[0.1384694641083202,0.34460659159667167,0.22606132966060097,-0.23149863225644804,-0.065070612747828563,-0.32751192469118395,0.057767529502290568,-0.24193317865912897,-0.39418388412909877,-0.16368314873851267,0.106054841999802,-0.18405570421125531,-0.083240648984797563,-0.0076105065632135413,-0.068729301431866757,-0.077567164169279737,0.23488885613275864,-0.16185818232143995,-0.07499265738885047,0.18423907518123192,-0.30444150455023139,-0.22522731792093959,-0.076812032288237866,0.34911681561833552,0.327099343752949,-0.10955100929249881,0.36424855046537413,0.051626845021500882,0.06061753363121003,0.29865529547573411],[-0.13965922509635281,0.031344488286677567,-0.35681572991751986,-0.26693476951021927,-0.046287250589164143,0.12544518920252432,-0.44758268945913743,-0.0034177150723341517,-0.54779802065179017,-0.47762951911549356,-0.26268433086387633,-0.57087554902680115,-0.033011888320193333,-0.0690451277127889,-0.070293147628570321,-0.10061793904932177,-0.19093376955826261,0.21380425230584996,-0.11239195033839318,-0.01177347647446367,0.20874949944199939,-0.20659892524274731,-0.27006219811001553,-0.29996719332426852,0.11244004423628171,-0.36895996530855285,-0.02226157852329292,0.17902185435367438,-0.27577384899296886,0.14907242108678886],[0.0825436252671766,-0.057796678677774133,0.32783620755407039,-0.26098085878132,0.2445281515618222,0.1028880742420755,-0.030487440849905494,0.026188425647107882,-0.16502247907569798,0.26504004322287045,-0.0079938896699939047,0.10538015062951184,-0.17794540767151917,-0.07233310465064588,0.024421169464898,-0.2230833918321759,0.12307719312437256,0.159521355398603,0.18844285422052889,-0.0053924057936681029,-0.40545610532398457,-0.46579030817894107,0.26793093621478142,-0.034320904009559054,-0.039233692567535804,0.21065515754703265,-0.20113579178189547,-0.21547416151045909,-0.040102753102165031,0.16917681051369005],[0.11921956083896471,-0.015413062335200565,0.26254999650011,-0.69653486821612864,0.027188036549776997,-0.14921500451541214,-0.090864432200192219,-0.34117175413273676,1.3696438719205974,0.013989574806113014,-0.10153891147985056,0.51368075970547322,0.030059173512904602,-0.27675140917676505,-0.063342301882499868,-0.10161161766444583,0.027780723977902624,0.021766896101966932,0.10365190897399508,-0.15217459813399464,0.0987017031670952,0.670492416192174,0.1377989119603853,-0.049525524909001112,-0.15373992767236874,0.2443709406502585,-0.40359519105958497,0.062043489246077548,-0.18143995463675156,-0.28027350779534915],[-0.10257096962774037,0.14397699733936667,0.0365862274528436,-0.0641997898524203,-0.081047938262983177,0.0494485689762187,-0.096883738239020231,-0.060659046465611224,-0.1184941532847828,-0.20744462706302894,0.070733979788195456,0.047573319767367006,-0.49963393917844207,0.17749159148333424,0.010209737728760437,0.003275358454064692,0.012848212070927675,-0.39991073851360376,0.25080758498381328,0.24976330473110656,0.091917593115824828,0.4455942411979455,0.090539228544286116,-0.07691805049658948,-0.35607046043544216,-0.23395619861149616,-0.070967624767908591,-0.097728383084309242,0.14140052877933568,-0.0047745614049328018],[-0.18363247038107747,0.31904432645332015,0.10713738216869914,-0.26804934203137787,0.15782295902743451,0.17627109877638444,0.013804945693171915,-0.074092179233222574,0.026406544310659256,-0.011911829243628632,-0.06046467058620595,-0.088677005555491767,-0.35595155013533875,0.12260336555703649,0.15319044021358497,-0.13593335067308149,0.032159066061125667,0.13295353670670843,0.44924990740101273,-0.11883238729524417,0.36811942707637446,0.04547706427777469,0.060446728023431907,0.32084532708137875,-0.0705370186446701,-0.16248802562408346,0.17122601237934448,0.20877973953566908,-0.18327876178457098,-0.25691847930431416],[0.045233303002584435,0.077476445646954217,-0.11282877216882688,-0.024525814486709121,0.34429584306925309,-0.13230641760044487,-0.17106121851033523,0.15759676111993434,0.26567978521941515,0.11941042501709324,0.12388541759629439,0.0066749001539824762,0.026780321061016035,0.30220100431893071,0.082614119207345155,0.12379315484687477,-0.39045424858238525,-0.0013674878541932063,0.0440295308561648,0.47276491897236317,-0.14005818907504328,0.37002463842296457,0.18654108093516519,-0.27834294464522336,-0.13214538660713071,-0.11065825058288165,0.079018168870180136,0.042250533168986082,0.028081533799752086,-0.25436871092042795],[-0.033874011866518706,-0.015618233279204025,0.10571754210310301,0.023643414453414339,-0.41153736839613964,-0.10101078524212985,0.0065628652532682148,0.13590561990715333,-0.34752692635867394,-0.3411963476301772,0.22512032182587941,-0.051493401813204692,0.15145925327778434,0.079729762578543265,-0.19589527575761637,0.065584745354972024,-1.0906093837856787,0.21364429231250806,-0.075469742920417832,-0.15899112205174959,-0.043934401828680192,0.050315590063433044,0.11807426265885565,-0.0076764704328070761,-0.25395351663512022,-0.046741651368576158,0.074649341945374911,0.34546944434761057,0.12238586194318625,-0.44894516584036048],[0.38076319367849643,-0.43741396155659329,0.20865915242770666,-0.029800452685788188,0.039918427668222504,-0.2715933182494833,0.22595667176971504,-0.31686645343211561,-0.3767935051311761,0.15945914653888035,0.52777678646204185,0.18616480311669645,0.096573077142253078,0.11882574425848952,-0.25789657129129484,-0.16647107586076276,0.013120659822384872,-0.022551397756706917,-0.15303589186129959,0.43972116447418114,-0.11948139159470747,-0.0927257823811716,0.012961645893029268,-0.17252472296505295,-0.045144238319653557,0.10839566958165851,-0.1134334879561363,0.0883068118589204,-0.030169832367373417,0.36235594280092259],[-0.15807776843667845,-0.092992306759618976,-0.22202693275090751,-0.35773701481292325,-0.018867283632675477,-0.12275212950264793,0.074595292138851729,-0.029754342768618578,1.2623548201603363,-0.024705683170800415,-0.062378553906802463,-0.40063153301165516,-0.14783804886367882,0.015512354514301644,-0.19188963665259989,-0.10860423540911023,0.657512735157673,-0.033580192524838737,0.11948332720129502,0.089506228806398191,-0.788261179453572,-0.662837734667215,0.61943138058166591,0.22656175219352662,0.12241626526169958,0.019829705039141613,-0.37574151080618806,-0.035888749072214142,-0.21790314212228512,0.085395225308965039],[0.18669073974892123,-0.12808828245194842,-0.39434583037167653,-0.0453754092434412,-0.061495395230208937,-0.067444794013338721,0.019595131311610035,0.9254504676838019,0.0087643209554343765,-0.028528349805048786,0.10831131367274847,-0.24125042226197091,-0.17912232054179647,-0.10243090664989137,3.2874072963691259E-05,-0.088886079610175889,0.24438765853242916,-0.14315200028357494,0.15261816475324744,-0.05089640002425197,-0.96557658312648131,0.62345742440943175,-0.62396332579327363,0.12977775910574488,0.11820989237382859,-0.10126929662838774,0.0030583624300604085,-0.27063656320968138,-0.25239509098776758,-0.58457413030955641],[0.040549368430823129,-0.169270331214642,0.265116728619132,0.03631158290782098,0.043986807807708521,0.088359603463022462,0.077364074632422453,0.18920513713740708,0.31440537028862081,0.080555121183328471,0.21282992720577734,-0.13470802584548125,0.24382270856975374,0.096166217909108051,0.064707572859075857,-0.17773047670260669,-0.30560561651116386,0.40236838964511312,0.28711183462690076,0.16300272244044339,0.068096189925143991,-0.024231497180210049,-0.20615312195879035,-0.0012178339005810297,-0.022192317713364464,0.11288425665346581,0.11125741887980663,-0.0052500878824044929,-0.15030661302604126,-0.18884495785162742],[-0.090348178450855937,0.079465455140069516,-0.45718553104796594,-0.00087785028807094753,0.10118101520561376,0.0077492149832339343,-0.15308209690699762,0.12307834024834558,-0.46263947537601374,-0.26760651226071569,-0.22812695856891915,-0.36310130284872855,0.024520958154244817,-0.20017234993881664,-0.41860267354415132,-0.2923660793776437,-1.2513643708154467,-0.19341918805356292,0.26978275920242534,-0.0080303456104332763,-0.49473751301379293,0.00412985429470893,0.12980965650444193,0.12259141978225269,-0.19952864061536535,-0.28719551559401696,-0.18212079351718152,0.23511804082601465,0.012531932046609816,-0.54636930003210837],[0.021450694219332146,0.0092398321776694641,0.19588939573731837,0.16786965626868858,-0.2679127655759358,-0.29076090310225911,-0.018266298357358286,0.11479246635086533,0.25361876595046418,-0.13124266100893142,-0.091014393702971291,-0.03456444619910027,-0.26140138512254163,0.10455170366613628,-0.17287760761079657,-0.10235377601536863,0.23132340829244202,0.037490150995161106,0.0956895039268161,-0.39650949094796795,0.14917137697904925,-0.30841250115231161,-0.204958628443717,-0.021881072537438078,-0.0307562939603406,-0.20837271345870023,-0.13158618807842223,-0.090006949955526591,-0.024833113848273223,0.10821232276753121],[0.20022435651278209,0.092557356378628122,0.36920634137750241,-0.098526931968008241,0.060196666132989005,-0.031719279530785467,-0.11006902128306445,-0.089147048110755647,0.18771680651176551,0.278727480165086,0.22357876451900863,-0.037365280889933329,0.032538102280288105,-0.22301568078466874,0.031890185999776638,-0.22512912262261109,0.34938682106778923,-0.14403046106784079,-0.28897193056051307,0.34396092748263474,0.10913696506178747,0.12516451398076531,0.2854386371385913,0.25637474794768161,0.25929489501929004,0.14950010109071951,-0.074254551580741221,0.16266984419998493,0.42474458929892528,0.32723649835600893],[-0.20913248804965987,-0.10158718783336776,0.076160407409998632,-0.31258501178481274,-0.30007534129862773,-0.036227813780259063,-0.067935263542666866,-0.011943078709847772,1.3479569594619407,-0.090971149478737051,-0.27054103312395811,0.89756260037226332,0.28866768384971508,-0.26140115884851334,-0.336837055840284,0.1454893427205898,1.7519183841126202,-0.1190170438145416,0.43530686740775965,-0.12249705904046497,-0.8471315561250099,0.59083388109567248,0.0081432143666869423,0.08790035347299481,-0.13134001269080808,0.43923524270677777,0.052307646294047765,-0.81408160860488332,0.21162919191144555,0.35819634062931482],[-0.024944771155526214,-0.23792206050695225,0.0546090569299915,0.033636559302010045,0.013497708177919843,0.068221895233649937,-0.28303566149205239,-0.017089813331194349,-0.3627396518587212,-0.021618670376488902,0.30271858249041361,0.27442467041467339,0.12012344754380173,0.080217137938915634,-0.25461522961763761,-0.10522363561418396,0.040423739559711069,-0.21567836462508266,0.20236885342214045,-0.021812997918101523,-0.047844444399445456,-0.26820843019039026,-0.26863514863705173,0.068993550364381831,-0.04049912417565317,-0.0079241998689243646,0.17466527360041784,-0.07680555303639959,-0.060826198635680277,-0.0092230768034441378],[0.0046165164178348017,-0.066564908772990317,-0.28659128101095033,-0.027446068434680757,-0.19870821597177699,-0.063144592254855442,-0.26972251753750653,-0.66009091021376554,-1.3901340243078351,0.027228767677799567,0.069995327862832427,-0.62537608948954015,-0.20011149273754464,-0.049616527001527341,-0.49847067098502168,-0.26274934959769863,-1.53995361738293,-0.066221928770935218,-0.62472865508507813,0.021061160230266395,0.71249087775280739,0.34234050289044782,-1.6500677296980062,-0.18650330019877798,-0.15841739622456433,-0.590215962168497,-0.15821475849231109,0.62074251404709535,0.013298105402615739,-0.5057874783196542],[0.11454958663906992,-0.065327216647892386,0.17331061565709402,0.22728001458235203,-0.24949752016224094,-0.31381877102407635,-0.15795269647546817,0.48895495941450134,-0.24295281494615995,-0.37411394166273082,0.34030108879149956,0.17443224419052805,0.10618158842489599,-0.46237531806104554,-0.019668976322613593,0.079160527520219987,0.055520266712810108,0.23065440443939136,0.16693814277884317,0.30882456808255193,-0.20911077946825077,0.00026084865397212482,0.21117600523570007,0.33951474760877165,0.15522810803014239,-0.20120406996829585,-0.14299827728014322,-0.14717272410770993,0.34664042832954711,-0.0013668703335222771],[0.21018509446424946,-0.2537450789869487,-0.22277407693094625,-0.10564590403144694,-0.22278143861627595,0.039596540690294724,0.26348603074543442,0.620040913609377,-0.18670131657630523,-0.13431502128007661,-0.22946278557267658,0.37663585912161818,-0.061291979086223726,0.085121718764231635,-0.30821189376382552,-0.44624353633052494,0.72302819635214322,-0.31198128686158105,-0.33452569758365153,0.085417950851345709,-0.21739867251315104,0.059260615590615164,-0.27098406101857708,-0.11028419000832924,-0.14061062761943396,-0.092480602148833357,0.063151748499915547,-0.23116385537840947,0.08758744510017849,0.23164020018311329]],"ActivatorType":"LeakyReLU","GradientAdjustmentParameters":{"Type":"Momentum","LearningRate":0.001,"Momentum":0.1},"Type":"Standard"},"PenaltyCoefficient":0.1},{"Type":"L2Penalty","UnderlyingSerializedLayer":{"Bias":[-0.28680223423278139,-0.00395663639072871,-0.0017453052882247502,-0.054914034016592977,0.047957468777819187,0.0061428007952675509,0.17454900588589034,-0.3153766177488988,-0.001653979146156997,0.21455841495424771,-0.010278633036962801,0.0057772618463286908,-0.13985870414768045,-0.043437650048812435,-0.0022316687850061482,-0.00031570615984918951,-0.46523737812814664,-0.0012511909293845987,0.0044755430567026177,-0.0040682250134485756,0.16828600125929283,-9.76236571507067E-05,-0.1487220717656991,-0.0022297177093670612,0.14105631904197677,0.052713459058904795,-0.20765849691843233,-0.021248196250466561,-0.068907827430222252,-0.0013866394730848741],"Weights":[[0.3011106430651514,-0.14006134076561977,-0.032300826598524672,-0.095008487522817681,0.32226506891119233,-0.075058200405314551,0.040708105015154442,0.069584941741042142,0.27116393672797379,0.19097358002213835,0.015579086179133759,-0.0940876378783684,-0.16700736252786486,0.13209603076240847,-0.16549271179869407,-0.0084857014509899156,0.21270183786871202,-0.15634258007699564,0.026841834255029746,0.020087695980369743,0.063502000432113848,-0.13082822113764053,0.0011266678942229657,0.27873499158893134,-0.4975015155324074,-0.21133834044720259,0.19061268888659938,0.16109217899698802,-0.043676840314427159,0.30495913054148394],[0.045151306453254561,0.21406019694063325,0.33200225633611741,-0.060656040562419335,-0.027556399846437877,0.015992862940417244,0.39827480167768331,-0.23947236177057005,-0.18705357747823628,0.21721078338025757,-0.043757665422513373,0.041072002490352456,0.06869063004495,-0.10295816601594879,0.024432955267660129,-0.24327030481375558,0.076628106441990376,0.17319257409422287,0.04661523057690304,0.0274272519614692,0.2339961197022212,-0.22927653242088206,0.024695713140748723,0.018953678940828004,0.011644088267908576,-0.071911209717002086,0.18126704245478958,-0.10228712729676176,-0.14991746903542677,-0.17064090471398627],[0.50094400643118464,-0.052303975107083109,0.14176895768100198,0.451028976371216,0.77880721628987215,-0.072677113457807821,0.046088687690331059,0.031115032838819175,0.18014083464436964,0.2233954476439296,0.17162568825908534,-0.225152367759086,-0.27974381182500224,0.26591969797908549,-0.10385764317335963,-0.2067971116646011,-0.068785960877632765,-0.035706634330892641,-0.022432213602165293,-0.304128316537891,-0.27165766047501677,-0.32760817906974754,-0.051923590427410564,-0.25064851133616156,0.20776516885891708,0.0416459836799723,-0.10481301823536955,-0.13813627971748521,0.025119893236892843,0.071341830722943617],[0.087714861677273312,-0.073052904312822714,-0.13848519005024368,0.092696723356170824,-0.22854539525130177,-0.24855994767261289,0.21979972152991306,0.089836985498224123,-0.32424537881336735,0.22990944965089857,0.00782060744320167,-0.13747365087199667,-0.28768655395781795,-0.05332579620948423,-0.02945065682768238,0.199459877588286,0.11743379185723363,-0.28084105345771188,-0.090788777681171634,0.14734499388855965,-0.30184622043021891,-0.11127809664543496,-0.10952997936161861,0.0438293509853086,-0.043925197119165579,-0.010345622267407133,0.110612504642921,-0.054936736774146906,-0.23127975766639006,0.057080331763715055],[0.0970224519903613,0.33438985649009834,-0.0478365018407099,-0.15581043927946367,0.15928503519985818,0.039834299762420346,-0.061326183348120331,-0.16657300593386321,-0.20709833418795898,-0.51802794545925945,-0.0040571834785683627,0.075504712497748469,-0.1125377740199317,-0.35496138741105004,-0.076922150632604575,-0.15588527659520141,0.033790504008415559,0.25810453017509138,-0.21485948840490685,0.0127339867064552,0.12716274810106973,-0.28153569710891674,-0.24656801699175185,0.061709022835974875,0.34959957088804722,0.0024867299163591635,0.13730872259365953,-0.0693170939762592,-0.37375402293949922,0.16915522274555708],[-0.043644498610429544,0.071750763331024092,-0.014879717492488762,0.099224720576255046,-0.30263224590714888,-0.012734996989169727,-0.16091284781210258,0.065916906115820684,0.015919214470228021,0.092150445074403162,0.010007150486163626,0.047636055680117993,-0.069728196935375575,0.32261228814440374,-0.13465416693027757,0.38116382969327134,-0.050709723192659192,-0.18865670399045811,-0.039821796033426886,-0.14016534802334182,0.25110257081189014,-0.017538132819169654,0.1206704897322585,-0.040090077781463777,0.29990501916461665,0.042793145836762955,-0.17869062437368669,-0.065302121793570769,-0.16537286976875698,-0.024410902264295053],[0.034388127921672694,0.16213211107139985,0.044473729532065007,-0.1134971648193456,-0.093836231316152333,-0.082214879342692879,-0.1448816419765008,-0.17766048955213612,0.1248975777881442,0.0030677490636733511,-0.27621904504636269,-0.33282055432713159,-0.1168976929946791,0.11525539939446768,-0.066791900578774641,-0.075081177117033521,-0.21095738992393212,0.14628904292496683,-0.31003066889713643,-0.1843935261371818,0.21430879834787242,0.2348606510543747,-0.14755149359858008,0.035198768283766252,-0.13556443126686688,-0.11828422865548557,-0.17753312179788111,-0.26936337560743429,-0.11655423373402135,-0.15119161888351634],[0.8407092206953235,0.26527210155906483,0.11936693488074494,-0.25334362526847887,-0.10559116785166331,-0.077716788723546329,0.59738315459878044,0.986250486509844,-0.0077286411039351145,0.96104586476865139,-0.077800389068932108,-0.064221724046448436,0.23278692057006,-0.078098864431032755,-0.15692529183731568,0.23345370729067211,0.38885731898119386,-0.13085535336405157,0.16209349974615434,-0.078193955428539547,0.39142005210606318,-0.17934662861709128,0.32901580027282423,-0.14155838662010808,0.27483327380932554,-0.097075648055400351,0.11588606458053805,-0.0055768275159621527,-0.4690442584536611,-0.019699111791758751],[0.99064454940960145,-0.16434093308894782,-0.12435083594291549,-0.41876832903283084,-0.32744978641186939,-0.11549571666452337,-0.6003437461446568,0.89810127758763192,-0.16208513291632992,-0.84997088621256,-0.31856288777511821,-0.097437351292277319,0.42264019072076064,-0.073950521406624892,-0.39193545562369836,-0.20577857679374023,1.0433713860820932,-0.08249520731932046,0.024322105088113732,0.25369261405718452,-0.83609608095892529,-0.13594119274623454,0.46689678786768407,-0.20001079091946133,-0.54999691183453669,-0.587883345884599,0.63229284683683284,-0.059271089324342427,-0.044200098634501243,-0.13316328722344134],[0.018161521893156497,-0.31007289335513322,0.052494762007276978,0.013647831323054686,0.21380834986394603,-0.25687671313587823,-0.12208104198530694,-0.056765081093020552,0.011160314690210598,0.36765554115750465,0.26444599141529135,0.33896691904616877,0.028606516846393332,0.013090554465437165,-0.12381077503424463,0.18887769048839215,0.30625390204425507,0.081140094546985814,0.13871909982875222,0.2210166368438736,-0.057793142571565675,0.0062200496065804413,-0.039054820323019275,0.24097439090655479,0.066458884494832282,0.20750491610788072,-0.041527861871766936,0.084260818801274284,0.22176598733484013,-0.064922455542161472],[-0.24166302174183985,-0.022399348575299592,0.31547909521257478,0.010476187028871483,-0.016083479732700093,-0.13120717440798904,-0.031173805849285176,-0.080540953198125029,0.060929275396826424,-0.0960928053985823,-0.16781929051213154,-0.22306449662419425,0.22585463426791003,-0.16551963615237053,-0.13621183573733109,-0.10843378875055494,0.048513535988150426,0.080146136278407082,-0.14359352216170931,0.23832989983201466,0.12668458167242627,0.15261167263141828,-0.034035939267055892,0.17992217505930863,-0.24478191000397623,0.047607790689632543,0.24713931524652191,0.22408348116547094,0.020387484249536712,-0.040536256660085576],[0.12123282244580527,-0.11331090650469394,0.052147224159159164,0.01251071709408128,1.0742288520272794,-0.31284701010207472,0.021089240679914543,0.52289740402277507,0.031864627150474396,-0.026574847782514538,0.363603471561527,0.29394839848370596,0.27311188355113175,-0.23699747576117086,-0.32169376600725741,-0.23208883140744638,0.49132034464403151,-0.081387860040587554,-0.26367092008171827,-0.47456310852840394,0.075184534752315,-0.022661820008745184,0.29799841256455561,0.23750672298921827,-0.047693750267636781,-0.15674504499517275,0.17608509073450163,0.022053996994786513,0.13590266718623179,-0.038632607690805378],[-0.1844944876179741,-0.061494307624709033,-0.081188529384507671,-0.032038084983085406,0.039209961933268922,-0.18311859964269289,-0.21935411679449496,0.32369234351042458,0.24136562525789951,0.218673066710262,0.20266064107561985,0.022435996139211632,-0.0586714046250003,-0.067227689572091909,0.15513637294616361,-0.043279285514436008,0.14793156540670871,-0.050142135971686631,-0.15683279090459698,0.12004291840978694,0.13903903539235862,-0.38113451934070647,0.081791413466945961,0.05975006665403388,-0.045146649072910758,-0.032403853633521572,-0.26711586417239552,-0.073809730882278,-0.032458789090926608,0.017146583099905119],[-0.054176583038915226,-0.00564940147031862,0.025031846195152641,-0.16809176345074689,0.2323720059059376,0.057245165834596483,-0.33688160308380777,0.2561005512025864,0.11129535573962555,0.1456649636256856,-0.014102374567741452,0.062021955711104242,0.20911985645230521,0.015237866927695326,0.19526922226897991,0.027842554725645809,-0.067711630547660884,-0.36954643064697423,-0.15892742015887032,0.026408499465330772,0.33316462118788936,0.029531615099066384,-0.056638387826402313,0.29380997438953016,-0.094932931727360212,-0.020665710568005084,-0.13969553782125976,-0.24344848541387587,-0.037845248118510248,-0.17655619481099885],[0.077079039707816821,0.29231042613139535,-0.14496111210941265,-0.17048058580927075,-0.11892501504891824,-0.0018078310067723576,0.11119344786172369,0.468049955245732,-0.10130375059464664,-0.32307543601129624,-0.25458050924161918,-0.18691933751226789,0.19387232816649294,-0.16305750347210024,0.017935538021057174,-0.11154748809718236,0.020330791450052996,0.35266674969061562,-0.043626668695201126,-0.10298810743871774,-0.1466661383514313,-0.063314209974032323,0.024225721671176887,-0.23728440994355146,-0.23017740045628141,0.066918137320411811,0.019923755827817666,-0.15998107496670205,0.061917383120147669,-0.10272542147054468],[-0.25447160046212225,0.13016700283916921,0.013795460118701282,-0.127905949639452,0.0595890758696135,0.21287691007969309,0.11790308635183866,0.17168716387679225,0.052591015709138343,-0.14534535758932057,-0.10266572770258854,-0.10996763779060451,-0.21927989127682415,-0.0641436155422646,-0.15294101661870915,0.19702205107556156,0.322211975491671,-0.0347418816149917,0.0011390407102536816,-0.16524479755656607,-0.21164135078335788,-0.03156724542528315,0.25376389646917863,-0.21690473000461655,-0.2411949002677565,-0.35197258596072589,0.087964588450407888,-0.19563195912913373,-0.340457279785779,0.10218231459487286],[-0.52484857317587019,-0.22990396781067624,0.012027972306319594,-0.086705681054986522,0.42909972702180482,0.12281207154769637,0.40588870313207381,-0.88531761450306978,-0.26754365767341526,0.93690565863457687,0.521615851858246,-0.16826591961534521,0.013077544617209235,-0.11969741726837786,0.008466956222838478,-0.22159654479372423,-0.81584720283132672,-0.0026281555728936757,-0.02100882085632462,-0.060802564772282346,-0.0013395215657462573,0.14847154587987924,-0.20944119338640002,0.0068493716722065681,0.30580406791134124,0.23774510738365168,0.10093352637135132,-0.084896809371533863,0.057038473833317609,-0.030440695135777851],[-0.027864663584995161,-0.12280678262218966,-0.071083508918275376,-0.030627818937807111,0.36569932960066365,0.26283125999065521,0.020234855804046378,-0.30329160930127713,0.048490168117403983,0.012945677139591371,0.09623093786860637,0.20198259058394488,-0.25798190870773752,-0.030673143314541761,0.0016386859167305313,-0.16083631423145489,0.22313314210318858,-0.0014584175081567544,-0.15199817309763847,-0.30105522719432104,-0.02357277229387738,0.16421493259589029,-0.20363329845744602,0.016770087972524422,0.37857608626720779,-0.0625724980523024,-0.12849285101933566,0.023973119710894938,-0.10276479118273658,0.067481033381289024],[-0.026103471677569413,0.072931297476068052,-0.39801960217098681,0.11364466597177438,-0.062005390076698128,-0.25686181576516987,-0.0359848631674336,0.18414943408669593,-0.11721803085596347,-0.29304798620878392,-0.093558693289186576,-0.11296760407499361,0.063000890218677871,-0.12531554000877085,-0.25636623761707672,-0.20582127494761179,0.58451641606175164,-0.051352858215681293,0.097749459865625082,-0.021629515758375406,0.01550438679259329,-0.082838549496779074,0.069702603700505128,-0.11251714249762383,0.066799178547336732,-0.22951421961648846,0.040020912905104858,-0.04025320285610326,-0.12476352419933613,-0.088839553758557219],[0.038566275644122891,-0.11977833207900245,-0.020206600606372239,-0.19227274377436698,-0.0733297691544677,-0.087217514782872554,-0.28845997002448365,-0.365394028498123,0.014115128747084824,-0.11166949423221133,0.37113496479258712,0.30587047490434655,-0.14984263400214906,0.14467718562816614,-0.057532543818992754,0.084313321854287179,0.20505735813611759,0.14578318459032366,0.0036254175579585484,-0.20116848479734631,-0.042975582844816805,0.20130209134705313,-0.086077961220648508,-0.010205230181695718,-0.041075409250041439,0.0325532924063519,-0.037150291906375553,-0.22157132745129726,-0.053893112418114633,-0.27562662244619379],[0.51740942794963385,-0.14681577903491869,0.0073613571729147951,0.064381372809629217,-0.048785318045264259,-0.040810003075161409,-0.35367315725604476,0.48565134693208534,0.24348158023188343,0.36994348685256068,0.054226005597660019,-0.036114731510149038,0.43467194974130918,0.078634489723173148,-0.081678941211649841,0.0657856760485592,-0.17479045329897741,-0.15237895561219658,-0.41677716491939137,-0.132310425705143,-0.23872264899625328,-0.17556628898164792,0.13114430741955449,0.2151752590233729,-0.0055081547946655412,-0.16007298139084045,0.42060975825843239,0.089383713212065008,-0.09971128027112823,-0.37938360057628046],[0.67795131463408453,-0.20415596362572488,-0.080855129487192867,0.073212581621486278,-0.48464382081749163,-0.0092735358851164847,0.23542175271580104,0.84402459898825677,-0.0893920219829133,0.83758117658030373,-0.42717353232878175,-0.024426519304686763,-0.10314787749808416,0.015458278780160879,-0.28348128788342175,-0.23773403970355311,-1.1254843591778871,-0.04611401883475378,0.067243284121366986,-0.039873028376577968,0.4949942423851118,-0.060057168279025915,0.52055738336063351,-0.20989661277649352,0.23114810050124243,0.4547668185448005,-0.181792348241961,0.028779880472983188,0.2052925315838314,-0.18875499181775088],[0.30679310766860318,-0.14622106769459059,-0.22298922864753629,-0.071447584685929238,-0.43339365504755822,-0.027608359314176194,-0.1066290215833535,0.48491714752594017,-0.31563898254415251,0.14515833292025515,-0.10426904851606822,-0.20121129778035246,0.095674297885508436,-0.17378861901560666,0.024996458614181396,-0.0091699254288122971,0.24725087629249609,0.026454767881503954,0.04441947659672655,0.19962170890846975,-0.26867342849392317,0.025241220111827629,0.27652918260493242,-7.7568021512064211E-05,-0.0837370736641892,-0.16905738720356986,-0.077565600329397424,-0.0637119612567393,-0.022762393534323185,0.16924827335337392],[-0.10756090034457119,-0.13140263613377212,0.18869836940602114,0.018795740645415858,-0.32362442177174261,-0.027879150572312,-0.33912029291210416,0.38034798796194724,0.03173841835010982,0.06387200006006076,-0.069760868486251543,0.11170377711138363,0.072618086478199409,0.057047439579646829,0.027768065873235985,0.0985359386170628,-0.024443744443470777,0.22005201371566946,-0.012505325133592201,-0.043077803546194546,0.26895413954336589,0.054012562057389864,0.13973854891058124,-0.065703565135499492,-0.26078598676545928,-0.060380899070815772,0.025642916057441581,-0.0016066084976105377,-0.0060479497438604641,-0.040802727671368812],[0.19377149349338824,0.0864924655458161,0.12427073497849275,0.21967772500211127,0.05115554814879248,0.0612061633684226,0.34908661863211909,0.34126884893612136,-0.15009144659392951,-0.014657516352490328,-0.18938454748629655,-0.057215603082903514,0.025058989648509927,0.33430994131389496,-0.32290604757051955,-0.3356566273655982,-0.024642073201041979,-0.078847787630381236,-0.44811772857400967,0.088699363453790009,-0.0056988607231167783,-0.095889600950198481,-0.14953130394036465,0.14596912900948306,0.0012218911923001646,0.019514892193153228,-0.089563133161294259,-0.21008697215931746,-0.093695444489125826,-0.03346410796026178],[0.25715415446513884,-0.031726046678940682,0.1798341986820855,0.021591404929486465,0.32195673464218816,0.045500511233569969,-0.17206399889810664,0.23994220684156395,0.1636874171071373,0.0037515218893039949,0.583171823127556,0.052827692891073127,-0.25247822217470711,0.27608887965772844,0.10345274937425995,0.064307098641873534,0.37984060625282939,-0.0014998960648549985,-0.30480535186891405,-0.3527054336383475,0.060772457146928277,-0.18563396541711955,-0.041838693377362991,-0.29246621686156743,0.058817030112076077,-0.19098853814557648,-0.1903279356012729,0.0062227855744934561,0.12876724378176652,0.076586470058661288],[-0.028055906233683349,-0.047232215683788596,-0.093216001007681751,0.21587105676937535,-0.026782473570012968,-0.1385385634707352,-0.085915501452508841,0.1682114474286853,-0.034768494444529181,-0.1100510957353089,-0.24105424238615136,-0.098755186930322647,0.12860980010568696,0.2940119355199835,-0.13608601854958666,0.056316784658382607,-0.041152689956138841,0.08006679963110179,-0.51786544040438243,-0.36667162223045585,-0.090143300078322858,-0.19252454795846014,0.20761446170770961,-0.289518553313599,-0.035376142496620841,-0.051930730602256711,0.088781178532707269,-0.14750920276925902,0.1517416641320668,0.14819122895818523],[-0.5292154424925366,0.13278586125353678,-0.059464573593853154,0.36041333692739663,0.0063765144838149913,0.15990727680320527,-0.2113008406674684,-0.46167133647396286,-0.20094916564160639,-0.48942909760951742,0.14320712583915082,0.3190541594642089,-0.046179662568701034,0.21182308377476364,0.15809978118203794,-0.10450743052168805,-0.082314206289673453,0.12514970255714919,-0.23396186011935571,-0.024097071107291722,-0.12322713359723224,0.13280455847684231,-0.22732980945417239,0.00035501299711198638,-0.19605719249256645,0.09710924608650004,0.24434083097467527,0.10233070504342953,0.22135367687223823,-0.20029211412448386],[0.44432571079587546,-0.22342397013868548,0.1062327198421984,0.04314157825481877,-0.3308463809741477,0.32663468795144524,0.08993393034557251,-0.058270709489914044,-0.040740484049766469,-0.21464856373933108,0.23310147698042794,0.26222145094248045,0.048893397116005453,-0.06133157619667659,-0.20821502562795222,-0.048740716667818443,-0.31306086514476189,0.54869557165721872,-0.2249932652774877,0.13283316357425806,0.056505092897619486,-0.0065298152944941517,-0.16116365762140053,0.01878779473922745,0.025092908641299195,-0.2088653946231219,0.012724718867192073,-0.10179660157463431,0.14754122979784076,0.0951740729350403],[-0.80052203665102373,0.046078097300895841,-0.43953522865609346,-0.22516225396678335,0.47335147025803487,0.20120963564376,0.28597922568486311,-0.8113969287192716,0.14532675524566882,0.35676560571544358,-0.10876692154047174,0.05314254053162791,-0.3267091464494829,0.015545113911721847,0.090058830477452556,-0.41020187145781106,-0.83164175089871706,-0.032814673967117292,-0.22298553682142033,-0.062862521503728716,0.13956754847103853,-0.0055952464768518912,-0.37567861333150815,0.023917932742693222,0.095408203456782623,-0.230749473403099,-0.56776476870001868,-0.16952148038783449,-0.27654612529135547,-0.19258715160412065]],"ActivatorType":"LeakyReLU","GradientAdjustmentParameters":{"Type":"Momentum","LearningRate":0.001,"Momentum":0.1},"Type":"Standard"},"PenaltyCoefficient":0.1},{"Type":"L2Penalty","UnderlyingSerializedLayer":{"Bias":[0.045126012081168593,0.017117802916422814,0.082413739920340248,0.027139287188964058,0.01961616008514554,0.0076871668151918893,0.018407824916587649,0.01342727516879264,-0.0012438574157653752,0.026194170203982545,0.037983971972438753,0.024651364881555553,0.0093487741331278375,0.070121287151219791,0.010373695107870048,0.058754754936176844,0.016958304916202215,0.0015899750706523631,-0.0016356745153432372,0.0424561098597523,0.00455576446111544,0.21149694071968142,-0.00064658291191399672,0.013585002029143633,0.010712039919761022,0.044067021806619207,0.029512946678115198,0.015660361830012764,0.010881247309824879,0.038880326670931088],"Weights":[[-0.42997205390216825,-0.10952834057117224,-0.58874106073903,-0.17877120937769056,-0.0068285914370275645,0.082811886987899472,-0.16539968290645821,0.32609286944348792,0.15321603658751731,-0.31392995947500923,-0.22287832444596903,-0.13637255622574673,-0.049663669835024078,-0.52137614413969791,-0.084821556207472323,-0.27419553577411448,0.007938251375727982,0.0097115441959916785,0.055298982283684309,-0.19453688439965172,0.1063205265423865,-0.010436621117423004,-0.34979484386263071,-0.21131792846888328,-0.095365992311926953,-0.27032521951119032,-0.11216255208724618,-0.17850582022469891,-0.23166889679610539,-0.16747977614877974],[-0.160445737377125,0.54984639605667629,-0.43611033939038735,0.10095285297569683,-0.089837593504134991,-0.27922048791109327,0.11786165391722733,0.19130667358209935,-0.047428181086057071,-0.41605469981964061,0.18779884845228234,-0.045953355396740336,-0.0912170679844918,-0.015754675032772565,0.20777069633549922,0.14654129494215998,0.13514071087147359,-0.094522475356652286,-0.083807755872920053,-0.097830624709339148,-0.19381746722787674,-0.12191689707557413,-0.1991479456092258,0.19877028884745868,-0.3342379496719064,0.10953395495822989,0.20670286847331285,0.2246089066875622,-0.070550282094026667,-0.17114334020880592],[0.35653694160414356,-0.047861862468062046,0.040201715279193813,0.13001128225693279,-0.29231284665099189,-0.12393154851725406,0.22052907876574254,0.040691302298351273,-0.1233154293316243,0.0086858646441527621,0.0029251345167180909,-0.020714004293466041,0.031224134216622339,-0.22117151257541956,0.082324593439751528,-0.10678786508975743,-0.28906250240412007,-0.074950068599703351,0.1392941413052062,-0.33062510088658509,-0.32648417872924151,0.21109422196407515,-0.045476873481426705,-0.30214727338326153,0.17223211604995833,0.11219350061223017,-0.012774576126284014,0.056381946286405762,-0.3593056637261291,-0.33217811607790471],[0.13313717572251319,-0.11872549268864088,-0.04578295959656762,0.2085178700641675,0.36798561413978631,0.073597079993423353,0.071565604048891007,0.02802400301672249,0.00511385063716288,0.034822228348194248,-0.095676221232390085,-0.10410906806033378,0.088595095596357143,0.13484737408183234,0.12135069864731291,0.17022476913379453,0.063381388396852228,-0.0023825978722172318,-0.15303453228828129,-0.022297153807484923,0.08630905952550344,-0.25872501336914061,0.066256901255293321,0.18555528551128692,0.37278318184496434,0.14002092009579986,0.015822069237395875,0.37387560270933262,0.27424386506092974,0.24532256704325098],[0.1943049956225282,0.11772889987680547,0.19344214404542615,0.10223867863417917,0.0061839116745417621,0.14076479938917424,0.033466773114064471,0.099974568750966747,-0.18407355260881833,0.17436934415334821,0.0046895274215032045,0.0904373490713307,0.27914684486153363,0.36707170637397935,0.019073580140327985,0.28183808415514122,0.15423027553938212,-0.27779747364125673,-0.19802437878818011,0.10693495208831762,-0.39571197467320818,0.15105102855864408,-0.20025172689776749,-0.32576379056082616,-0.21003203369835533,0.27223143742107214,0.23725543402185778,-0.18683970143884524,-0.29550191885520477,0.24886657326056239],[-0.068245897638533212,-0.25465462929992772,-0.29157116868485372,0.41794233683020776,0.085543092313248151,0.18927559045398368,-0.015723627322202859,0.15502412360269771,-0.15490406490686806,-0.0739629097353362,0.32623952507196352,-0.096566123908051318,-0.063255483931128842,-0.19458074811752796,-0.197888164683144,-0.17373443726487051,-0.20519592525243055,0.084747029620956565,-0.12355892646189363,0.23287225574340253,0.159322469865659,0.01440867510769127,-0.3341730344227446,0.040649907945953162,-0.21586871509651229,-0.07984132373385136,0.26218181468006524,-0.01696801862182442,-0.043465953822391004,-0.0742990655763742],[-0.27048354527928997,0.052651444035931867,-0.251376627627684,-0.34261183884829133,-0.25440112005310322,-0.22866137845030421,-0.20639639583769937,-0.16122892049184429,-0.04105449365760544,-0.48971527183782659,0.2862486360335782,0.090919021531783162,-0.21571692477378415,-0.020665569143435994,-0.16280389930373368,-0.19902417701999345,-0.36610135058922855,0.19038256959989749,0.11527988745105439,-0.074990939315459956,-0.29949185718275506,0.28395815056819956,-0.17507643522128469,0.21495689064794116,-0.098164739919074553,-0.51068748396375974,-0.057957141714003492,-0.30292224768591069,0.29148638668600113,-0.44712612042768518],[-0.22894388296348092,-0.41959744883624966,-0.51457722000708417,-0.047659512207765653,-0.17756747511516197,-0.10996363402079065,-0.032592052545238261,-0.25878942688428197,-0.17164604067413714,-0.096530991198646929,-0.23832357746262084,-0.15967302265412664,-0.01102086524032196,-0.46102823292226125,-0.012788826089753161,-0.39923734779651043,-0.18854599062634531,-0.07687795452020231,0.048411585013755344,-0.30668983344587214,-0.28822463004096827,-0.050956143356319879,0.23897246075964479,-0.15906780296827464,-0.2031112020156973,-0.25762260156345212,-0.11770312861155122,-0.017888083284835446,-0.00059113819846551914,-0.44542138221504074],[0.22716363716454505,-0.19905524657285117,-0.027296246943110929,0.25622827016663369,-0.32441866789769752,0.23962937751496363,-0.09951151711225184,0.079583478838677432,-0.44436500501341969,-0.0075926613449142253,-0.0017839717537323234,-0.14798825958531797,0.11427896253216512,-0.048005570532516605,0.15046647605613064,-0.15545238987314652,-0.09690995558541024,0.14024546264897664,0.071355053364535848,0.33104241978272597,0.30726417988458782,-0.43049152365409488,-0.21951233707950432,-0.17843364147319607,0.071794733197858382,0.032042291845522673,0.1305458267173164,0.18493679449694983,-0.23064417274157131,0.001637757072067831],[-0.1268691113635691,-0.29817774353637888,-0.36932158018147931,-0.40653642273008711,0.14230590662774006,0.097865877268397392,-0.017325037954911617,-0.15471319083499363,-0.27412338851915996,-0.070137241882913884,-0.28277914221154254,0.017113877574140703,0.021654556231708613,-0.21901866309381432,0.12812791000171508,-0.111395970900241,0.10783767075247858,-0.18188324982039292,-0.064128810566789041,-0.29486235976161107,0.36824066691267959,0.37158210092710481,-0.13599179038305079,0.0728535503639665,-0.051649288398496584,-0.18276092788378476,-0.24529923718161226,-0.1014830280476423,-0.18507843833559648,-0.33422466505186005],[-0.02522964351375424,-0.4577881841914816,0.10823193862136249,0.28419234626851114,0.34475440941815005,-0.06754520907004409,-0.25071911145504389,0.16800803900347311,0.017419457863149097,-0.0652446504546891,0.13943712718576332,0.22526576922441338,0.032849021664032321,0.22047002926098053,0.21077908145851421,-0.077565514736125579,0.12186393271558459,-0.18406284065938411,0.15436154536271213,0.085095348510399488,-0.051504893365934959,-0.082745352265303218,-0.13435271410187308,-0.0951246958833547,0.34495755083675045,0.091007860673153793,0.38370475716481145,-0.070621448266659281,-0.030500569370383424,0.2008159554914507],[-0.169130196714343,0.1106474170532608,-0.34642677587239468,0.29546499957517691,-0.1046540498907803,-0.17095065611937396,0.089786112154558617,0.26695309566729247,-0.18546449883838806,0.15916580534136623,-0.2151265682035883,-0.22318649054624259,0.2698704814890257,-0.20306632620887302,0.11712270913365523,0.065774646403432266,-0.12008911531781273,-0.0077927992730938188,-0.0969332276003369,-0.1930394652418006,-0.074449296870847143,-0.11591249617365042,-0.054272955947003217,0.08497213381774596,-0.088194478316683145,-0.13631149625237443,-0.0519628584252947,-0.21399448236741508,0.036179021461828269,-0.1351963255861974],[-0.093361945307377958,0.10402648349660541,-0.28530703164966592,0.048230920810637123,-0.05914078691397176,0.22065526604719052,-0.15922417374212056,-0.14267442777455244,-0.03002514532125344,-0.051886750931711474,-0.070491847724866039,-0.13351571118530345,-0.14579269213398891,-0.05188670123584492,0.31464813711457623,0.11017891784906667,0.065471677332865019,-0.017928065073599765,0.21420464138959194,-0.35897972198854494,-0.18359499509202681,-0.19754745480380231,0.09484598125708521,0.099521925911821574,0.28573070422822794,0.038732568653499742,-0.04062832866412238,-0.1369365097308482,-0.139923964468204,-0.22895656396751526],[0.045857063505052892,-0.0852800488970007,-0.079527826194697865,0.12532700008787728,0.092886020760844457,0.0704333825087292,0.017104603092167277,-0.00038722569019765309,0.14074501391969618,0.006244266743140302,-0.044511654066846762,-0.002384657690237592,-0.10113643508078338,-0.064673250124279533,0.086056948839177069,-0.17589917941684402,0.17399328368842404,0.16268018585013772,0.24866749951363532,-0.028646359864235155,0.1047895517025506,-0.38628765346497845,-0.072822835020135854,0.26044301611883047,0.096920974025702655,-0.026730612342289642,0.12897774606561585,-0.3022413850219744,-0.081551845888903282,0.10600923953088857],[0.11613929333403247,0.32682027776332734,0.006511168494494928,0.04331281537711091,-0.23577430828588927,0.15536369667550676,0.074668940627028071,-0.151679139749365,0.055865403597001137,0.11768243116175466,-0.068490382965264815,0.21982026152249631,0.16090749161218595,0.0077634544990910076,-0.36004764856884658,0.13394904311498709,0.22264077476429511,-0.00395941638931622,-0.26267106563327197,0.028315053565203155,-0.17313827689964464,0.029197474383537578,0.046858833654165363,-0.025576317648624766,-0.00062142715802869031,-0.14166803824957658,-0.034973875369707,-0.17407558160095596,-0.080269259068144055,0.14817094193656466],[0.16303397005231107,0.12368785807526382,0.08071720368918095,0.011595294386556987,-0.15887718318492089,-0.062262260819844539,-0.37408896585445567,-0.10517475056851551,0.047263232044002026,-0.1330016914678516,-0.017062210318042725,-0.0057668938016045843,-0.11495703033434668,0.10211932762837649,-0.17414346976130746,-0.00397640816135318,0.045379051601893892,0.098199115401030768,0.28947780231614195,-0.064760150502368483,-0.0067695886097983984,-0.039171808283614613,-0.20691862805862427,0.10521002583198667,-0.016677130210120562,0.0031196529515865267,0.15301148291349345,0.27969512220246462,-0.33200658642881647,0.053757781932457116],[-0.12721668716851761,0.21197156249237409,-0.16909842714524481,-0.33636532805971558,-0.18216520107571474,0.1115580389422,-0.12286612207938877,-0.42355963647359968,-0.25647204733042583,-0.11132165830668186,-0.058337239619832795,-0.071912137835358492,0.090859585736150827,0.05612994350938779,0.0973011241363569,-0.2334537561797885,-0.12971468195990496,-0.15889621807745874,-0.28117905680089389,-0.18787224773741112,0.19404097173030246,0.0060489763041010787,-0.12460393342311,-0.21133779259460464,0.0500019159854968,-0.17752163180863262,-0.26998491255533746,-0.28998953324144466,-0.029317422631132663,-0.1927656349905145],[-0.1530455072604148,0.39254705169445314,-0.11282314490962279,0.011359146372832795,0.065630679211498955,-0.076442864848758313,-0.13573008628320782,0.14020664028365892,-0.24540154793998845,-0.073113861581134,0.035332090872735158,0.081660493133395032,-0.18203781281836165,0.132707023514507,-0.062029241912249691,-0.068561449462738636,-0.19014689874802931,-0.02568866095826515,0.034193249660797141,0.40530994374030049,-0.10729050936740539,-0.013493352832837403,0.25806472161207522,0.0078556182516767,0.29424456895448242,-0.040513555226213568,0.17756990943439471,-0.017020253685383416,0.23273942001803727,-0.06388425529209682],[-0.081206206975596759,-0.12019581746111423,0.039329894984812284,0.33247814026413047,-0.25149226229634519,-0.036705265937767136,0.032783271888469606,0.028042768023187978,0.14626866256954438,0.12017408066259087,-0.011605547923837382,0.34112669674659252,-0.19318474405133684,0.0876458942709597,0.44086724506022867,0.30833696172104275,-0.27972150679740337,0.39502709586231755,-0.036092848999524647,0.12206775749002533,0.1385258538778745,0.19347839795523275,-0.11773311029002997,-0.31071939354382588,0.17020979827843794,-0.10130579248231574,-0.018277683710426384,-0.37384241038060012,-0.19350012153810312,0.21815301494938752],[0.15297109013486515,-0.011952349751102048,-0.0050741598428965685,0.0018560571386704349,-0.059188544640494854,-0.084722742713143423,0.091874046418144673,-0.36213069487453653,0.0724773234716161,0.15414737768704687,0.28824019332644363,-0.12153519749018929,-0.046491823832859526,0.037835738194561423,-0.03048767783939357,0.31257849004502336,0.1696935874248528,-0.16994720625944695,-0.02759738224143695,0.0786358928614141,0.28740736862228877,-0.13554821451647647,0.057497512167331004,0.025068471917576145,0.32062487355815678,0.43636800065012676,-0.031174972090343339,0.24074213687048018,0.035125918057254,0.076540097093687462],[-0.32917594892835172,0.1533950167486606,-0.35296328709119817,-0.12968788344970988,-0.088767961604169068,0.042462948497947385,-0.17497226451295153,-0.098565913340694519,-0.063108908191652421,0.10927162404325538,-0.3665099626610081,-0.023997556715732015,-0.28565717978374827,-0.32147994350038128,-0.022592900904093514,-0.107793382631173,0.0088105457098733714,-0.14224812928167105,-0.027071988513155714,-0.16902071013421713,-0.021053403426794254,-0.13404020137522352,0.086907250947400413,-0.34037327210353524,0.22291437808161274,-0.16725864060342072,-0.38298718189965553,0.15041328462072084,0.046247526632194558,-0.064033415927014142],[-0.10245075218773524,-0.11259768748149764,-0.019443104903276016,0.10506617463341732,0.051754118586362648,-0.39911210941513359,-0.46993391752564245,-0.19659520794278476,-0.080086478356029639,-0.21413516882822645,0.054501380959513783,0.1513604153943556,-0.14940879962257733,0.33499486611780382,-0.13552682118120163,0.33932974275547795,0.10956966737811687,-0.048312548798209912,0.056837497491137728,-0.21414738001754613,-0.12800550535908223,0.059604760791804268,0.22573763970741978,-0.1003191875965066,-0.17442183786070253,-0.076973396125976118,-0.20374500032932735,0.052475040817086781,0.17933711247079015,0.014569896148631623],[-0.12033265256028307,0.1116862054564406,-0.2001673472684958,-0.14413044013257786,-0.10283902216268162,-0.111701941548849,-0.051751377998773974,-0.0434942757381473,-0.054712241928714163,-0.072418602354013775,-0.34824331203264042,-0.139782804377082,-0.271169868364043,-0.31042737382127494,-0.2570327509939288,-0.4239416272476057,-0.22240327000687218,0.015443185202737011,-0.29599835944059427,0.089005017196505831,-0.0494155278930425,-0.028400768787912613,-0.085426895263279,-0.12854938390898166,-0.11330999688311484,-0.36457806233003803,0.013170993045912419,0.1538673163320603,0.04042744154381113,0.011259799377882355],[0.19105967710664507,0.19643388650269647,0.033203787840459048,0.085009396616257712,-0.082757517523843416,-0.1221194496938344,0.034148396487814169,0.17563838273252294,-0.077746813493574263,0.23235047005082798,0.18320902377637305,0.20951499040402544,-0.43261252023139973,0.12393949059279356,0.059215905969293568,0.042986663998389421,0.18943995796919064,-0.17049941666210308,-0.49036565853579622,-0.14918725849712919,-0.092717757759957053,-0.22353496542245224,-0.20425489933156979,-0.067119575631027523,0.073201487384943031,-0.13987341305962539,0.072154539011691013,-0.14058596504439616,0.028494638743397877,-0.12182710383738458],[-0.22793793557651726,0.31466542402150527,-0.4425921126146895,-0.342308468610176,0.26317256349928886,-0.18008836211875062,-0.35877866883040826,0.16097962983812925,0.14284850639445057,-0.031442905369477109,-0.20377275231205427,0.10915028469523024,-0.17642327675755734,-0.11625728193385738,-0.25602341046722293,0.065037276054833754,-0.11514746662787058,0.14550889770672856,-0.23382416420387997,-0.0017513014947788943,-0.16178636114422715,-0.018158633249994133,-0.15431877788253479,0.35041453401635897,0.0707566048881767,-0.33961871757934808,-0.14181857436208217,-0.16839118526561808,-0.32139798824758192,-0.11125986649930371],[-0.16403848025301179,-0.12278489372999649,-0.19933119390966197,0.054546106603276731,0.010988463375446638,-0.037635596037770974,-0.034228861818513125,0.04922692386603475,0.18302490794935475,-0.28296483487679669,-0.051796700585673351,-0.23296092616228478,0.36030402704910652,-0.19917617246248554,0.034352279510879283,-0.11373828764611955,-0.12874466328971881,-0.099924746381176155,-0.066592771805353751,-0.0012676401355409838,-0.026010314909303035,-0.45855273526746243,-0.22456160160384545,0.10530996993741587,-0.19345266409559228,-0.12792367417572953,-0.14592464639188602,-0.13184450832020409,0.044347067993595356,-0.27805743588439447],[-0.12484456513702726,-0.039999648277640722,-0.23957406781566082,-0.12504203792406113,-0.029927941421341243,-0.36605890686504622,-0.28146981559373013,-0.15959631916209122,0.13752717412377816,-0.058326454718515157,0.071336615026410977,0.17384576784260672,-0.10583300980136824,-0.056899166153043038,-0.17652620070451996,0.0029189497261247325,-0.1011193754510849,0.069190061043104364,-0.10906499835131141,-0.31573080779660578,-0.079409162721617924,-0.274409194830619,0.072990609913476709,0.31451542688084455,-0.16839115474240785,-0.14796080752536495,-0.34336078152913518,-0.069705234579225825,0.051679516053338551,0.0573518314752362],[0.37729045711672216,0.24830680770917141,-0.31316732161857314,-0.24325606071351516,0.072792530104535347,0.096617536616643726,-0.14092891257322143,-0.14303132760031598,0.017133150903313358,-0.016008727651716025,0.24706233145936468,0.18489423228752083,-0.12860932914833564,-0.037977628415735279,-0.13638273560026076,0.239255378510325,-0.0085538534534806369,-0.0301666805724729,0.24337898329201593,-0.018370968378350439,0.0025585823934450337,-0.019237245747867997,-0.26520011060290333,-0.30331455195960549,-0.29185976838102579,0.23333896887753555,-0.17538475841719595,-0.02308740825470975,-0.077356777900150164,0.1404189680321391],[-0.06618604665308557,-0.12579747965887231,-0.019306578587040837,0.35692989791180896,-0.30218110751887761,0.029231319201473104,0.06211322126710693,-0.11524361986623877,-0.2766692132140981,0.19524875610871362,0.10239616318504734,-0.20767464061641416,0.041846444841800549,0.0038729879488147586,-0.249165366894513,-0.20308200875766497,-0.0507606922303796,0.10329948075008118,0.25841200265762193,-0.022470224397154598,-0.41717173798045115,-0.41242538261980655,-0.17774060693921223,0.13830393481070388,0.11479209147069128,0.022275113725819203,-0.011304556525200913,0.015250821316816807,-0.03170607644346967,-0.21185287810779016],[-0.13319494648191241,-0.30004477343790542,0.15431538733681227,-0.25528299793357223,0.0646977240652314,0.073069808448127535,0.13554130269290762,-0.062257799027640483,-0.0033495455924509835,-0.08316874767726691,0.43764213159294268,0.061890571988415966,-0.0086479767702008683,-0.028895305965398195,0.1295268341465218,-0.12805353594008451,-0.030055919144235475,-0.018868664277859395,-0.12696617502376248,0.018017073866950478,0.12442984387358663,0.10123909638630683,0.076242263785748263,0.16423705599464777,-0.25143652041134679,-0.22706311931487291,-0.0054135909084305992,-0.085144056402723475,0.15550012921514914,0.0970574379418505]],"ActivatorType":"LeakyReLU","GradientAdjustmentParameters":{"Type":"Momentum","LearningRate":0.001,"Momentum":0.1},"Type":"Standard"},"PenaltyCoefficient":0.1},{"Type":"L2Penalty","UnderlyingSerializedLayer":{"Bias":[-6.3538154854489335],"Weights":[[-0.52261044643741328],[-0.2864692359136447],[-0.90320877175547876],[-0.26480945172586734],[-0.18525392088043363],[-0.066557856096707127],[-0.23850855711235403],[-0.1175944959463235],[-0.10461260579665983],[-0.30116262861664739],[-0.44180347974937451],[-0.24370306752487261],[-0.13891630972704352],[-0.73950337749698958],[-0.13362826741843314],[-0.61102156108887551],[-0.2142308546590499],[-0.072647346060642978],[-0.057449879820892349],[-0.4461077047031462],[-0.15572407191189924],[0.056267730047420153],[-0.11741089787290825],[-0.20496337378444648],[-0.2126354557480627],[-0.5232634299769765],[-0.27448535048993306],[-0.15543243548563113],[-0.15923187155683266],[-0.47542496949370439]],"ActivatorType":"LeakyReLU","GradientAdjustmentParameters":{"Type":"Momentum","LearningRate":0.001,"Momentum":0.1},"Type":"Standard"},"PenaltyCoefficient":0.1}]}