{"BatchSize":16,"SerializedLayers":[{"Type":"L2Penalty","UnderlyingSerializedLayer":{"Bias":[-5.12908280029878,-7.4090367314406071,0.14457868358817955,-3.0388501115400932,0.061481301277894106,-0.82678190235179649,0.20133833172579288,0.23684872952994407,-0.83121471939345559,-0.606079833754242,0.20076645481067909,0.2050471946401026,0.12178843759558443,-7.831859586820519,0.019243197237270644,-0.30781395224915548,-0.010698096655962245,-0.19336529093106739,0.027414998603401894,-1.9363117357867978,2.2464819968813843,0.1603608863178391,0.625075289398161,0.039275114572554538,-0.033346885717432238,-3.9338657678760858,0.080688394298482832,3.7439591933553422,0.025625400833259076,2.1663755238106215],"Weights":[[-0.78581091117556612,-0.43507599844641709,-0.065433473674093023,-1.0015884668398329,-0.52963470764014819,1.267814653694705,-1.052020553762872,-0.647031623143128,0.4720982670094207,0.1076650838554243,-0.59598154235624623,-0.31087300899233622,0.053491505512852422,-1.6184408697690804,-0.12453869455074564,1.5522152996513579,0.70014277647569867,0.41699570125381297,0.79479518602616728,2.321445842822587,-1.1401395519015956,-0.12215086663882011,0.29948023615245306,-0.42918802824514318,0.366918975815925,-1.3356445806159207,-0.054384092628003478,-5.3248416729979953,0.69520561581447338,-0.89238314678318231],[-0.9438711733257793,-3.8647092378841355,-0.37250552921211039,-0.52631288245082919,-1.1392005613162508,-1.7252105995420122,-1.2656923303155416,-1.6972666975878996,-0.0031080484912557075,-0.52914368977408666,-1.8616119853930091,-1.0134895866972948,-0.57987615070619924,-2.130442277873811,-0.088065602669859411,0.42207703378806277,0.26455512483029486,-0.98889380378146086,0.50248166007906281,0.77726649533028347,3.1943766328336607,0.22444646479210748,-0.22791073083900146,-0.64745424840537968,0.29576021565813809,-0.46472063931845536,-1.3477177825764195,-5.5118321081325394,0.023922757568166676,1.1407046877514453],[-0.19601326122700247,-1.3001520885684978,-0.34448514357601667,0.069386103226990167,0.25875330803715846,-1.2514543166943597,0.10626951893978941,-0.2960575717464099,-0.66993697516793416,-0.51022188645655586,-0.16542728351556191,-0.20984662098971255,-0.49697162789626331,-0.1492545274680335,-0.0068754440339093871,-1.6994277879464661,-0.81789443178107835,-0.56953223638969885,-0.97020187003720537,-2.8054698252134731,0.33735083850478054,0.016821724562111177,-1.3709402428974744,0.20511052083476775,-0.46361997886622863,-0.10953804117393012,-0.19539712129586287,-0.14204862472140495,-0.768237775519591,-0.363937796704371],[19.959351585720004,21.534203802114732,-1.4708451564459486,12.359881178589417,0.051264836430865643,1.1207729382345946,-2.7749871985026324,-3.280234417177335,5.6513908741362027,-1.9143121389233639,-2.8841704240286727,-1.3609697611718647,-2.1371549209016214,27.664689432564558,-0.97259090061555864,1.342116128179099,1.5766309588970102,1.4761201408768452,-0.29974095649384414,3.3527566748967814,3.9886899146618173,0.5989547102576066,-2.8702327869335242,-0.048499445829961393,-0.58182691386799323,14.638079027484917,-1.0928010952342333,-16.669110163312943,0.048790875733511666,-5.2430332250820353],[6.1706656284834631,25.087253784512829,0.40595822381144792,7.1479111180775092,1.7939710628107106,-0.085787833203383512,1.1138646302117385,0.87981588825227841,-3.2151767424432069,7.0988862104820187,1.2720543817391743,-2.5594717492784236,1.2248951565420403,16.855822917111791,0.53389813576074063,1.6559836513103328,-0.90751315873374183,-9.4711865964254649,-0.28179618164858766,5.3224515420745853,3.02314358089228,-0.90630537747240947,-8.59051937889928,0.31930174782056103,0.720282570133135,13.278406635886517,0.56932584997134161,-11.385061460174878,-0.49032240354208234,6.1712064413299776],[0.5174841045170212,0.22805630342518035,0.12151478273203413,-0.698265752630218,-0.2374247136441919,-0.34398141929483389,0.28008092601505347,-0.52404032592306982,0.026546677793788366,-0.017951774082129869,-0.22172427033215508,-0.11725579087845446,0.52251215013108177,0.21106360860292728,-0.53889149224633348,-0.13803686518446917,0.21461464478525552,0.441996398778329,-0.05061075680994101,-0.07581091380968176,0.53242965284071553,-0.31422141253954489,0.30848694411456234,-0.22318231926040594,0.33477248287612393,-0.20012972106086246,0.028347914249969752,-0.038552769253576188,0.31487727627207829,-0.2707975987266803],[25.845023359246493,28.793797176821602,-2.312174435346098,16.038273546955885,-0.77945422793336772,1.6373338965886941,-4.2121254083751589,-4.4795374629715958,7.4936538118952365,-2.2137563466303227,-3.3631400638456017,-1.7150840840708417,-2.6080877899027577,36.031077746573629,-0.38221134896781211,1.7226223496745947,0.9305579767910771,1.3988279690508441,0.57889199485762732,3.8071020157289577,5.6112544389556467,0.70778719250012245,-3.5925582341161526,-0.30792660965925445,0.73908357647309253,20.166998700235673,-1.4404810254546889,-19.948586875716913,0.18761380918920342,-6.75863748177019]],"ActivatorType":"LeakyReLU","GradientAdjustmentParameters":{"Type":"Momentum","LearningRate":0.001,"Momentum":0.1},"Type":"Standard"},"PenaltyCoefficient":0.1},{"Type":"L2Penalty","UnderlyingSerializedLayer":{"Bias":[0.088393189565212679,0.029154525936254436,-2.0823947911229554,1.0269802231150003,0.14461547145343545,-0.3214077576079592,-0.18589009270942905,-1.2778450181094241,-6.2449416418589445,0.2367138663865595,1.1833235166489482,-3.3659760617653847,-0.0707940467294727,-0.02156230492432,-0.6476681604815766,0.60194677604724689,1.6001178790281838,0.23779940295955407,-0.15683785220287133,0.4589302483404511,1.1535375638672532,-6.1032252982936441,-2.6973207108193771,1.0178094094946,-0.81252582208642976,-6.0770413360525666,0.43406013874410776,2.2293143644372062,-0.25460360420612249,-1.1256455267943748],"Weights":[[0.60222671274541284,-0.44091502563711849,-0.015243285933669774,-0.42860033296062672,0.15542834107994089,0.19122722603019218,-0.20640711510054641,2.6079250705488297,1.7444411015141388,-0.84660668161470864,-1.6079861033788554,0.42526669273271939,0.80913792626663639,0.016726190063582592,1.0371873235857521,-0.19224144020012279,-3.4669868753251314,-0.22286781625985197,-0.34887625608919137,-0.81178634516080839,-1.3391555658487617,4.7816114900262878,1.9287954653706398,-1.181210112022157,0.91696977729172036,2.183340213420808,-0.12380175599009297,-0.34935599537389878,0.040562573815067393,-2.3911091646881362],[1.0553027890141269,0.37999509756771249,1.4095480727127276,-0.072737892250581318,0.1657375950614679,0.295308567535834,0.19638479506816811,2.4346253008142007,3.262137749962073,0.32814667854933671,-0.68712757193808927,1.6972687511765057,0.30168876111249288,0.22734799758505095,0.57847392240776263,-0.008563442973351201,4.0534610279519558,0.0081676120682349345,0.72892962208015577,-0.7735956200241777,0.28648389459481682,5.5814011647662491,1.1431444736367007,-1.4477035066693051,1.0300014915198907,1.9231225084996004,-0.2776756982033336,-5.5542825666092543,-0.18381149224588245,1.9676898156662337],[-0.36710700243744043,0.073151059290021525,0.090890404675384409,0.11764547035682342,0.28526684603437996,-0.26588539642744835,0.13036191260052304,0.18934876543052892,0.01637577008177387,0.2008061799683605,-0.14882184702738593,0.040004531759005722,-0.15563483461792435,-0.085523154850537159,-0.14857214236195776,0.082395055957286828,0.43728392790381837,0.40864209609654112,0.20356343819257372,0.11869782543468917,-0.28912212130918458,-1.2541868911921212,0.45447277969946831,-0.10771135190258829,-0.069855487888570086,-0.39335262208239091,0.17355994636945676,0.19724811232993531,0.072567315841972055,0.45409569283073281],[0.1663672397010606,-0.497631261741923,-0.032589920732115862,0.16061946868851115,0.10633154947472295,-0.20522171229536673,-0.21634466516339448,0.63881907616071254,1.6504710903720155,-0.27304674610345181,-0.50924300998151273,0.79236149205391437,0.37856931942881927,0.2006191036227582,0.43746226954869133,0.22026244535329642,-0.25432147890992313,0.035422503840579829,0.28954595280454454,-0.39509970790509014,-0.71522049114344932,3.6419224497598224,0.68466787110820748,-0.84592706705912557,0.067235386222955815,1.2992124141269046,-0.060125216218465657,-1.0991361006442935,-0.17332451987443123,-0.62423275875860651],[0.33019897065951803,0.061827116552844258,0.0039272223068478633,0.0731709002381456,-0.4124076827566065,0.027417647458861116,0.028390695582648954,-0.22349707976749167,-0.17797712799146898,-0.20107444154584356,0.3540014501917787,0.18737730846464049,0.33852471477657731,-0.20459644593031531,-0.30159980421638249,-0.032467909058636675,0.43017276657074521,-0.34543721374184433,0.094323930940302059,0.14193252141286997,0.01943259906735376,-0.56388870659300938,-0.34651043780991175,-0.06438521023679,-0.15854114333106448,0.48931718340612196,0.065367142217665361,-0.70621106415131718,-0.076516041857879136,-0.027207776686192026],[0.45089059091357492,0.31947741437862537,0.019868974844975653,-0.23834574046928175,0.20147770676606253,-0.15457995655033741,0.257339082232766,0.00080650429581140791,0.018016792395970021,0.150037413509568,-0.15850701907892587,-0.03781866858654559,-0.25459598384287729,0.00053332723900949936,-0.068136186719857647,-0.082455530186245823,-0.737658401218563,0.1091689062175322,-0.20401937807622245,-0.0077914553868713441,0.86368130474686466,0.15449043241486413,-0.0194268827534293,-0.0864799016189087,0.5205206641068485,0.18910811080662826,-0.12410672133568611,0.57739057126593585,-0.18159020029677347,0.74432718358136829],[-0.14234399787721991,-0.30765434430175165,0.3674400136482609,-0.052260891286619149,0.3164309782807716,-0.061149949409882262,0.11192229967532766,-0.2703723333326985,-0.45441616989825118,-0.43993378342646555,0.33267132396564758,0.19081817460646774,-0.14213888738417271,0.16250078661242409,-0.087691533103354466,0.22213911804888023,1.2098373820271664,0.01952676881610417,0.39145769253285173,0.0922309360772509,0.067463659812284277,-1.4036702470481477,-0.1365553237579584,0.066604731857616464,-0.42248577271842647,-0.55351539215794177,-0.037789522207767962,-0.14385792824113089,-0.12683248895787627,0.43367487923694464],[-0.046549479696436746,0.38194328103008746,0.13407501011176676,-0.053654808578040648,0.24367686398748328,-0.019607369614465433,0.35307501638362948,-0.03968943903645903,-0.51756028102279072,0.252327074976482,0.10771075052641266,-0.23073762016144003,-0.31045308255064735,-0.13071056139850459,0.018879835372254874,0.080950414367529866,1.0528802613390784,0.011862810190665844,0.26381002024279537,0.10087052447342861,-0.1969340514550309,-1.769477838934884,0.15305898861642986,0.36891061597506869,-0.60433821606901461,-0.50010364289929732,0.18572090384305334,0.17038486151247959,-0.15197560636445337,0.56147098515486793],[0.30936820606066395,-0.032513609443417864,-0.28099192133977768,-0.15683084683723131,0.041502282301634205,0.2012267843492587,0.39583156042645112,1.1204953605708437,0.17203507838231932,-0.30407329486881174,-0.530236531198036,-0.21954471810605883,0.10799264605958558,-0.1224794848608929,0.426890034209983,0.0012045631294833831,-2.5339930303612985,-0.14644164930233428,-0.32343699192038949,0.08149886836083714,-0.47705473210414145,2.1128309007754638,0.9527882198759301,-0.057281590651935624,0.57731338262599374,-0.064214119882469764,-0.02798429732426902,2.1424307767771888,0.12197632782742611,-0.67183266068131331],[-0.10341878750734551,0.25643508173227897,0.17496691195503603,-0.0017275755977782614,0.07251654342147755,-0.17437947696441458,-0.25360537527771809,-0.14333106424577832,0.18386586228275956,0.23163736777084262,0.064049312622615484,0.44834421206961272,-0.2412255004129461,0.17366343583198818,-0.35093994338762757,-0.045645710517794529,2.7996620384597821,0.047759348592597041,0.19667605570019456,-0.023637292206484209,-0.076481767945487389,-1.1218347788068981,-0.11393663265264636,-0.11091940425415313,-0.05403824531549168,-0.54525414261661143,0.35208173064341686,-2.5283708568980305,0.064123834061168908,1.4279937852177087],[0.0059702592027821438,0.47138930501376369,0.32005060116537665,0.01549574751951548,0.1389811695242236,-0.28236959961068953,0.22393530466994119,-0.2341590182543932,-0.47629615920068791,-0.092827844917096392,0.19524097971819426,-0.24411256483382071,-0.1418185293428163,0.0886183210281516,0.0057301735372214477,0.14544997597906648,1.0980980387924542,-0.14730452496189675,0.092883053142182759,0.29183340975576044,-0.16786796859530317,-1.4774799090093513,-0.17259724186169076,0.5104602843946191,0.064884728916359616,-0.044077182659423973,0.47299982000357,-0.11620072830735555,0.087435782682025731,0.55942156971992674],[-0.19061585207858153,0.055778785132008755,-0.38201703704307516,-0.19473250570073591,0.060284392916535409,0.15266041193815949,-0.36568553386667396,0.02241631198974121,-0.61606022077561251,-0.55969981767806942,-0.30033700178817113,-0.56433160300885532,-0.00765952502862881,-0.026931100347800038,0.089953945856518738,-0.0003984552922365411,-0.57005761091484219,0.22271694736879086,-0.083739131354656826,0.020412260510551082,0.25396890826224044,-0.44917580774013477,-0.17668529822137993,-0.18246485289191594,0.13897758822615108,-0.20375162906456307,0.024448707562507745,0.98603380289889864,-0.23669400853098951,0.079029693116879851],[-0.044510000426936147,0.19884779200029051,0.3742728963896646,-0.11219153153818341,0.4243653582991454,0.1842607567605645,0.12452290443985872,0.0052781898829556686,-0.36170099018187452,0.37486271385395165,0.031631184340367519,0.022044204144146765,-0.255865298233567,0.011166031819761314,0.0375212841318908,-0.11834899267097378,0.82186055496293831,0.21372324714193763,0.34281953830886286,0.097157117756462685,-0.37976034066491982,-1.5453466872403421,0.45617739327927775,0.17236048480304014,-0.067974851579919365,-0.053557111163522512,-0.13357519026158676,-0.21015481898160973,-0.031202624935317967,0.58195645283134179],[1.2401100245499337,-0.68184972974890756,0.2184152088754433,-0.70177480249862567,0.96354756254788543,0.15263272804965633,-0.042068262454223543,2.2948688418271068,2.5501350936065221,-0.19042991777990714,-1.3842518362750809,0.87368757782047923,0.956286993595936,-0.1426494589242191,1.1701341923302495,0.034189251685461219,-1.5897480840956839,-0.19867645343655632,0.95331286717319419,-0.91396258342589243,-1.0057249327631357,7.7663327997541609,1.5846841726180565,-1.8043234537773563,1.4008102211151119,2.8805087233299247,-0.4571894762997129,-2.9269182530288558,-0.11691744267446802,-1.5017379181262733],[-0.066981349981783053,0.20954719319912751,0.050505769427801196,-0.020169386122113303,-0.06348318981332933,0.039079639092199775,-0.087269996402613764,-0.025842061519473419,-0.14028132377460895,-0.14184641936773557,0.14136515194809324,0.04565252315583037,-0.524196957650864,0.18270368049653069,-0.024765374913378123,0.025010803625004727,0.26557632790581104,-0.37226768699544105,0.26735283809630489,0.27247631281540879,0.11534393032402965,0.055957112388403035,0.04996582138360172,-0.053546518957792569,-0.35544631795757664,-0.32833190484229291,-0.056554818372403184,-0.2449743043748201,0.12491393129969837,0.11786801535574171],[0.12489015413499212,0.69280799061799714,-0.04951507372875355,-0.19193861260018225,-0.063768032294249974,0.1705969156285469,0.026927647896077694,0.52650010813471493,-0.3855917963381813,0.25599410062896882,-0.10110850775565726,0.12254821221826734,-0.20215622421604271,0.0054734877211254579,-0.023137024723171907,-0.532211650590061,-0.068642093022927161,0.45926088530136849,0.89292804579759111,-0.44638053924429993,-0.41951455381014829,-0.124350643860326,0.14833234105572621,-0.28946648573067646,0.46866323669842719,0.085750465988439786,-0.21180945926376907,-0.15689158704549602,-0.27395997891489193,0.27706595642419657],[0.11807238519188985,0.38145847878464878,-0.16092466345162074,-0.0858010872893967,0.42066201807923592,-0.058638041535491965,-0.11732288401812806,0.44253830802908056,0.15556987795129937,0.16088259670608765,0.09727329407671946,0.066076668859147022,0.0019209742997156206,0.31790997690731426,0.12371678025812644,0.047372927051440208,-0.72243615629674418,0.12207020144158766,0.073822643295275728,0.51611402522048255,-0.23610588377057304,0.270446831941107,0.68461075823926276,-0.12667571614335402,0.31078459107244377,-0.51188696934897127,0.073528585106696562,0.73921623574665374,0.025668397728034243,0.09973882368476597],[-0.0081908012859803047,0.088191931641036628,-0.043195611895361086,-0.03383162520583622,-0.95437776463038837,0.052097027437516673,0.10280094128845441,0.51280117943614745,-0.39032285281935031,-0.62537029584659787,0.11784145905061395,-0.10413530828133753,0.31009521628307324,0.11626637622992447,0.36635812219221781,0.14292877794472081,-3.296667060017981,0.278099628271462,-0.58517281207746019,-0.1610408001377166,-0.18847361452892769,0.58865358113181177,0.65544369541207292,0.48514635769965364,0.31940536621400406,-0.03587912094911451,0.1348722690865983,3.99263504168084,0.21028255528088957,-0.81902370409778469],[0.47255501279705681,-0.10551210226728668,0.12832505454992371,-0.064735080854297966,0.1445748881118776,-0.17940986840311773,0.34560482967930672,0.025314801009601151,-0.40517310749830138,0.19205800144698623,0.47382691356903756,0.13929462786856711,0.10935812806908772,0.13485059591094972,-0.19263921538605444,-0.2338529330831417,-0.3151210459829728,0.065571572711602383,-0.1147712654583766,0.40234965572873288,-0.26273721256240512,-0.075870877708326373,0.51051088549846924,-0.15716186840883642,0.49533004885335724,-0.044095567809773938,-0.13000999148087863,0.37426876645778656,-0.0363371743640548,0.58385631740107158],[0.24760454566812903,0.93294151826509031,-0.01401425533887291,-0.54609049653277408,0.13682479548261,0.17148567027724559,0.20741591390821626,1.0186205775090964,0.57742338603211585,0.39232775708132056,-0.2882839941141076,-0.25737289072101316,-0.1814130284288791,0.047698407217451472,-0.006735314975472282,-0.45435339755450044,1.4428398641983926,0.21359472016737846,0.45214783828548694,0.052552634422047315,-1.274955215257042,0.083165047848540188,2.2414966618745851,0.24582995345580111,1.3101466490669873,-1.0451367132233058,-0.45313087353867754,-0.96311614459038719,-0.28585219941389639,1.5903674888171704],[-0.034868330124236555,-0.55473339380832876,-0.47381594517991071,0.32288089566349443,-0.43980145019834826,-0.24545953595793721,-0.13874266789703507,0.039846479673355452,0.003708713343224551,-0.09104878106606247,-0.08953443082218368,-0.6604793948273685,-0.26188287940340582,-0.16654589385077873,-0.459169687911797,0.047006158585380126,-0.0027517463743591095,0.12659275328383376,0.34009508134335975,-0.80506178299152975,-2.402074278434156,-0.016528092033197102,0.056451023602789634,-1.7452671185345723,-0.010068569747368479,-0.13729663230832645,-0.32422415889014367,-1.8829843354361215,-0.37759225411350628,-1.9763665789838671],[-0.096291817492949669,-0.22601544910047888,0.2286999733754235,0.016540944169215539,0.0706262482326099,0.0957762622350646,0.097509396710198745,0.15102946453459762,0.31426684380702374,0.0011262871702035775,0.16654994900249362,-0.066065923026548345,0.25822946619709253,0.10588681199065735,0.035347908434217472,-0.18174612888147146,-0.60035162209408643,0.37772965852616086,0.30468531430205481,0.16865118713602709,-0.012030992173179154,-0.00693535494841298,0.0021409097827445548,0.058794321197485969,-0.16312838551653247,0.053733234254857827,0.0971775547001752,0.41384865830529732,-0.1331836497379032,-0.31675404638836951],[-0.27080794310592049,0.50480573654765559,-0.64325399237530734,0.018517695603172471,0.38119179212450871,0.14899633925715994,0.058742563156744816,-0.010615140529329837,-1.1220106144061057,-0.39865184139910187,-0.14173630059131634,-0.58542413979006058,0.0298166940093335,-0.11116524160896711,-0.10885587485090341,-0.25653296686283961,-2.4820207055390271,-0.047291848218622416,0.21654527154928441,0.12214306852701851,-0.72769793688357876,-1.0975730410983051,0.85481656303855047,0.61549306985192132,0.4548277601226775,-1.0007228866630085,-0.1100554677056516,3.262449428220124,0.085635571060941662,-0.3939494422386568],[-0.090196677936309366,-0.093302370970505213,0.22600864097230722,0.24402886146002584,-0.21536516479226273,-0.27336396624798359,0.023378919510681627,0.05619800867228715,0.26668707691408888,-0.20042431370942015,-0.1279138130731089,-0.023758082493986248,-0.23894696665689336,0.13230827640259024,-0.095833877438514584,-0.0051761333084047352,0.27625417805530833,-0.0044539376358266308,0.14736979781659962,-0.391227791305338,0.15901328145186519,-0.31875783389231654,-0.27634635509196404,-0.0038110838716503546,-0.22439696932570297,0.037507318310556842,-0.0980992551323409,0.022267017096862164,-0.0032524309649643673,-0.060235755561798061],[0.17879412885349705,0.25949171639964969,0.35540626434513256,-0.11583656539289863,0.096505605373535835,0.000154504488647209,-0.093550952548720437,-0.08750448416864065,0.084998205340033134,0.32656044958398639,0.21073744167066272,0.0040695434284956471,0.038255302237837782,-0.21159689194325218,0.022203542820428683,-0.24619066815089685,0.5051309018722302,-0.16366841279787492,-0.22036872152550296,0.32712793623102893,0.068004923748408691,-0.0089646634884722864,0.45810014245330055,0.26327175755898741,0.33004357409721236,0.044332491525861939,-0.079367690599770488,0.020893766621972482,0.41140533353111591,0.4694771282221698],[0.31095899529327242,-0.31389924735506708,0.35137779761793647,-0.23794473215302475,-0.11960320372047792,0.18037686895511793,-0.037751923053859458,1.3001636108769179,2.3127804222475516,-0.081006706843806,-0.90681805373365376,1.0898300099758858,0.691163672445159,-0.15590873620405221,0.10268109136032512,0.23572703450640239,1.5687738883127658,-0.20853433497733925,0.6844177939064362,-0.50926984719097945,-1.448766584475589,3.754405206249869,1.1898630824268033,-0.528666487232331,0.12715588814009884,1.4684407710878331,0.081099055780167614,-2.8502288112557017,0.19851150727714781,-0.2663364502669211],[0.042639069903617627,-0.11390720916517712,0.097834292128425024,0.12451656610325967,0.099626151322790957,0.10854025855983902,-0.19803947896576563,0.19464384262268364,-0.38156295336111229,0.027381028662680287,0.32239363653465941,0.17936790798414951,0.08598610219250119,0.11933900590421043,-0.15967521788709155,-0.018544011583040844,0.43290362810195954,-0.15633563217480218,0.23927181669079184,0.040256397689239,0.052661676097099236,-0.55245249399955743,-0.29190602717218345,0.15748878561387145,0.0055037034621001867,-0.045761202792096965,0.22936006825016728,-0.04862511926116226,-0.042234890176176515,0.27010697481782348],[-1.3125148438432754,-0.09524530622633294,-0.72963607792302565,0.36657144740969894,-0.14937017713102418,-0.18579844088109254,0.14446959043145793,-3.2441740084284012,-3.2508149362353778,-0.11426204634371291,1.100478210958793,-1.2719314836148519,-0.55755101060684864,0.093028145136384771,-0.67302861909955813,0.14521819530878716,-0.93351294921325889,-0.279884404059752,-0.46329955983283372,0.58756322338881228,1.5033178882052014,-5.5529925502903952,-2.3684991995601092,1.1101305081763178,-1.4218289456214817,-1.9726838499201802,0.16603595818964173,3.4540595605197311,0.31113428558813427,-0.90968270656014771],[0.12682853185330029,0.098998379656977456,0.087152502617183422,0.18677982057573883,-0.14873765153926105,-0.23953122998760509,-0.10441950539427261,0.56820733602408269,-0.29421797723591403,-0.31773483681819392,0.24608403120760186,0.071026877957547377,0.13688108040849104,-0.43582220611683192,0.088266008993802172,0.0529755625021151,-0.19691415925378838,0.28152315211642126,0.28040316347341432,0.28478445641800704,-0.2721175413901667,-0.10793659168499162,0.49955761028654977,0.37686142039847448,0.45463604799618357,-0.2655931378991101,-0.15167304301809678,0.4766677123804175,0.39397580547617372,0.14146063476232218],[-0.16351350318010591,0.16988266021777179,-0.17730051304120928,0.15193348316275435,-0.19516727495718481,0.063358467808894273,0.41068666703177048,-0.79211446811496178,-0.88752450462433063,0.27929568895973877,0.13416119857318656,0.12978484800267895,-0.20500273723942789,0.10701751674485685,-0.86945715838962823,-0.582839285040695,2.1313640512498875,-0.20210312386069199,-0.045696257998217554,0.3160451137249794,-0.0045531960960536293,-1.4843466550301963,-0.877659147404664,0.41324243431090735,-0.28118801026952939,-1.8453510283964345,0.17051100310371781,-2.4334620921381345,-0.084432353397537241,0.4456440216429986]],"ActivatorType":"LeakyReLU","GradientAdjustmentParameters":{"Type":"Momentum","LearningRate":0.001,"Momentum":0.1},"Type":"Standard"},"PenaltyCoefficient":0.1},{"Type":"L2Penalty","UnderlyingSerializedLayer":{"Bias":[-1.5139171498317903,0.0064812670502936475,-0.087438885397458477,-0.0941503962091674,0.033948841780673346,-0.017476778738266467,0.41268090338109359,-1.2096678969953991,-0.12398392669757058,-0.34513632248121667,-0.21508870660849752,-0.12740851258737454,-0.52357558806550286,-0.41173983870732711,-0.0020220851134385791,-0.032266465851276946,-0.6321021733556984,-0.0025027081758025966,-0.43355109206131515,-0.025647732170323997,-0.024550150071510533,-0.031808569877222984,-0.3243305342064044,0.51383870404215681,0.29682324067531429,-0.077697096141764455,0.046956481973904951,-0.084553909725560553,-0.14435447590446962,-0.064018182563422441],"Weights":[[-0.59183955909792174,-0.27692914603258284,-0.093216519027338629,-0.15951121372747307,0.60664648985046254,-0.14273646132377285,0.362497380801396,-0.32164549336680109,0.43872339230556368,-0.27259777256257772,-0.068208527679809977,-0.17372023088779676,-0.586235497167308,-0.35948693801939513,-0.16872673804874078,-0.040807035057095452,0.019487961184767498,-0.16609093622839993,-0.50733709865235033,0.020971179105035202,-0.10679346993665369,-0.12583556240038143,-0.42957857545415856,0.80248268824415314,-0.57986887697729006,0.0233345250204873,0.34099263115180839,0.0788055869391083,-0.14404989347430072,0.29498487623146413],[-0.44200163550592725,0.43257942609500183,0.27233042808375085,-0.061091501683510289,0.29248398092942662,0.0010240154807706692,0.85727982604734465,-0.66844743181157873,-0.0072986983081983923,0.42109180909081173,-0.12615219031347916,0.1943946775707105,0.082629077991923372,-0.15393200051336764,0.020204479970019819,-0.2579976403937968,0.1584568747059748,0.16980392317229265,0.22063780279184955,0.01318157094792621,0.063269524731586146,-0.10866102389118035,-0.083276500803987963,0.6331058524718074,0.046193950744969355,-0.18817499572627996,0.466407706196245,-0.016248902121881931,-0.25738119577116958,-0.17339080600931989],[0.56434334629651972,0.070897182072445886,0.14596163366215834,0.45281336623704949,1.0649906096603579,-0.022499253134453449,0.46519132838639859,-0.11089628653687969,0.31202694482360077,0.52043020053452538,-0.30555233920952846,-0.011303578175444584,-0.20561309201110273,0.40978858246128547,-0.10367185066064528,-0.20407350732751814,0.18461989084876268,-0.034482644957670547,-0.065477178111831735,-0.47294352435846326,-0.2106607213751627,-0.21783855077202294,0.14102537584523386,-3.8741826153310565E-05,0.49942354718301257,0.12482128419399022,0.056129956789524,0.0011355648143291689,0.22375219441564126,0.068876282089597576],[-0.4067719187236607,-0.26181751442980039,-0.22420224206643322,0.076958144380247853,-0.249622689150145,-0.25167225696462225,0.1252534619014426,-0.23102723638147549,-0.280696061720892,-0.51935413040301071,-0.087850856632226554,-0.032451514288509738,-0.42060283485804878,-0.54748767596300507,-0.033613452910417313,0.10978421674909351,-0.036426937735224561,-0.28352635914051877,-0.67437434043225508,0.13840820910961529,-0.56538909837447682,-0.063593840614858538,-0.18231201896171667,0.53543942841113989,-0.28995979398171745,0.022260532509723038,0.32521605590810382,-0.099247503593989483,-0.1998785899787173,0.097510325059539507],[0.092577787933305011,0.32097321868897072,-0.047358523096815118,-0.161598181436948,0.17825065932203946,-0.086573836705690965,0.24802830698775985,-0.071828230848046626,-0.19074099142937956,-0.55181333451187486,0.006093903850633877,0.015201046320540923,-0.4148698384524187,-0.36504737982211249,-0.0771107431887943,-0.15622989545601357,0.10413788245748187,0.25859207782957278,-0.085769298060114782,3.3707024397714786E-05,0.12139487209877845,-0.28196175675631385,-0.44416537977677262,0.10267618495895546,0.78357367181429616,-0.034627794840277462,0.1390762651768073,-0.1225838117108102,-0.36571957627753959,0.16786957164578725],[-0.0072704856046596749,0.056301608925681111,-0.0012231180214081305,0.098058243173775664,-0.26910923419033278,-0.015033492523174931,-0.016024081241980639,0.12777652456115168,0.082329891235179545,0.064236101984106384,-0.022099393636046346,0.02739294207250392,-0.093153233278709613,0.35176230318998553,-0.13497582887857315,0.36436071719940571,0.05884992318611254,-0.18893811660025822,0.0053859888767286285,-0.14032775665418498,0.230290439809398,-0.019061925978679253,0.12336344328503419,0.14972445667003537,0.322591374646098,0.062709405172072755,-0.11721675882461603,-0.080953616481140037,-0.15294377746327573,-0.041528051310290685],[0.087331669193740372,0.16068750007981511,0.050612625855539384,-0.11230053316840472,-0.12437953160465509,-0.085200048391702574,-0.42629173612170446,-0.26530107117280582,0.15546272699961092,-0.15339311373475342,-0.30256320410074089,-0.3416443497889422,-0.11343247010020796,0.082396895164480927,-0.067382316175124191,-0.084363389538543485,-0.28966902270031203,0.14660210537062288,-0.086925649374119965,-0.18635821899787439,0.13318472623828506,0.23151866490837791,-0.15420686614986143,0.02804953908865173,-0.23054680184479343,-0.1062020388437015,-0.207373847581227,-0.26787622329697292,-0.12182438179909932,-0.15477891912211611],[-1.011184397146595,0.51689579644683692,0.011632136732072635,-0.28799813436177468,0.35950909191853381,-0.15924781459309922,0.56298766473066209,0.04096148701744215,0.29953238956839595,0.27436486524640374,-0.35289249646033016,-0.27576141811237381,-0.14444010250616637,-0.90024243192117948,-0.1568976193365903,0.08171878436844833,1.1216744468830227,-0.13194087854242242,-0.019914053175626823,0.067563273231589255,0.12746204685720178,-0.30084999331919715,-0.41335825286221423,-0.029288327897022872,0.47345082730800225,-0.044256337654224369,-0.24781805636543877,-0.17549984935195351,-1.0641283708243403,-0.049573594992192681],[1.0093529320740562,0.03399103609482599,-0.15269460400595963,-0.510256550372902,-0.069871122342691341,0.16270652928258081,-0.74477109513647866,1.1612588051446524,0.044908944633108128,0.466779201385578,-0.43232450909200432,0.52825585163247346,1.1368882042846598,0.12165067498352872,-0.39880507536361953,-0.18390635218612586,2.0881328256069911,-0.0882703101613826,0.02979455521483455,0.35032916685262205,-0.80865344344461809,0.1010184489516512,0.92238167791837611,0.18659910425112392,-0.43075323445258495,-0.28103976263299907,1.0337131457446165,0.095702235225286952,0.526601688424593,-0.14057643114164478],[-0.56268346257147328,-0.31240969695967336,-0.057129803521898781,-0.0029194713684099912,0.26054326038358178,-0.29830277238715169,-0.35081497990517685,-0.58279636898017317,-0.012327656856044589,0.38357674797184205,0.40167724716247555,0.46151003177358169,-0.0906942206770785,-0.4014707702666665,-0.12942191569266789,0.18792388692527806,-0.065899104086762569,0.075491097371742116,0.023382698466910629,0.19062403328454264,-0.19730859111955085,0.08948720188750442,-0.088707225240159518,0.71397385741411568,-0.0528824363762466,0.22902931275418026,0.22532334486358902,0.17635951288795523,0.24659975160427355,-0.0588837348212398],[-0.82542520746348136,-0.11516098636734873,0.17984703272056579,-0.040235859763454347,-0.088718312508821645,-0.23344145766469168,-0.30869588951242116,-0.72847353342464927,-0.042466921671784418,-0.18038989545626885,-0.092898284465421574,-0.018747318236800252,0.21018270904116723,-0.530480160513899,-0.15261013880521118,-0.12675003458006451,-0.26203169585051145,0.047251107813268717,-0.26739680883287964,0.20734395711393638,-0.096393837736241175,0.2641230670016097,-0.20407752396815113,0.50598515964379787,-0.66654622708388223,0.026167725254020162,0.5571118300452027,0.31888433924779697,-0.00812977672754344,-0.033928049432547458],[0.3555064112016717,-0.026193452119721638,0.0456552196543265,-0.0064277412904699691,1.3673654893383906,-0.32392989056866761,0.56842255552484466,0.84060694023812732,0.2155210284829896,-0.11718127736146727,0.25205885007627266,0.31266553403579356,0.435542027580184,-0.094447037378655771,-0.32322837530317566,-0.22711623978109369,1.1079667167845029,-0.0823093826384535,-0.32955055828987828,-0.71423022660094,0.32977835007473816,-0.011322831179614776,0.37849914632987453,0.39596660886829238,0.27645660437484432,0.16270129250802853,0.12795874725899636,0.064750906755452822,0.25800605252909309,-0.041278182950088879],[0.01524208048548986,-0.45357261956569722,-0.0674263332899289,-0.036996056633446482,0.043800504487520854,-0.18413373505601655,-0.10756449884233345,0.64939814906692128,0.25577698577562796,-0.3623381833677301,0.1500962779433625,-0.088645251546807163,-0.1295764589737452,-0.16117115639406804,0.15439755704907368,-0.072655952636735188,0.17212286407719549,-0.050095641299744462,-0.13736334879331272,0.11138131450179338,0.18736574011249826,-0.500060319986481,0.040122698726365293,0.079863135305103042,-0.13686839810932297,0.13033156107210034,-0.27818504771047547,-0.096963758873106487,-0.020453640688296651,0.0065321709057480576],[-0.11393100974059732,-0.027645798916735395,0.0089159701080870971,-0.16732448643777195,0.22923425568435732,0.050963910659402888,-0.34974847370331463,0.23719759656557124,0.11164967299940413,0.058691474729227935,-0.059736201954209256,0.054590473770465858,0.19620067580778178,-0.0799198515360369,0.19566960662076977,0.025223707852077431,-0.033817715458013486,-0.37065322945081586,-0.18924976104436578,0.013764645724927395,0.27139631042860962,0.027717969974833515,-0.051344625230663285,0.4083632237061961,-0.076799800009741362,-0.041181407691792564,-0.096601817485945277,-0.24514003842841145,-0.051277412334807426,-0.18558651181821231],[0.071685076876334783,-0.053073684399438312,-0.18290431652358252,-0.168491920928557,-0.0236829750562809,-0.0050151275034012238,0.49295515393421252,0.59320661718007872,-0.09208591640288423,-0.65260881620667988,-0.40768125046704529,-0.2460487922136522,0.19862825466541006,-0.39738992953953972,0.018435764139766279,-0.12958965328628891,0.28922518924554874,0.34819030898225078,-0.20232650161921012,-0.12219902227955987,-0.20130297663451266,-0.11940665678910141,8.8929556312554889E-05,-0.1590436182935234,-0.093572499130326864,0.10012486865607986,-0.038224908283276779,-0.17682025278934446,0.045898066568534381,-0.11135836396546291],[-0.30404161529336321,-0.25272359973536335,-0.00443515960137128,-0.12787212768108658,0.13857856774560315,0.21287844638061787,0.16920541964716954,0.26353790323306259,0.044425246316872752,-0.71138137430055315,-0.016288175906665595,-0.10919439451163489,-0.31846001324377332,-0.19772462152877496,-0.15522289306198306,0.18308034239209625,0.28759447278736205,-0.037350585141213907,-0.20189336483950568,-0.2196306157109082,-0.44836275549857868,-0.088124066248412333,0.18746862525806504,-0.151920621973353,-0.45286435559709,-0.21393270600518008,0.14640927142112306,-0.2387609072799288,-0.30078943261033403,0.098620998383051231],[-2.6518244418624239,0.5033661187534475,-0.12077959856924443,-0.10764373995549653,0.44051591351399522,0.062028671345249309,-1.6544934119476613,-2.3247486363920173,0.094572510607754345,0.91682877043833055,1.4930127141328127,-0.11416137438056837,0.0046915655064190438,-0.18841790998443614,0.0022770571475848136,-0.24523217700321548,-0.5872771365063183,0.00091244768371764808,0.58568821266928373,-0.18360014546638512,-1.1269524753141129,0.55765338180364032,-0.2243765485751392,0.68198369269284176,-0.16689876691944083,-0.44025994451226935,1.0082413615060777,0.022167379696313435,0.1165598655266377,-0.15587782049205964],[-0.40719399012330687,-0.15299628230922938,-0.14283972063346195,-0.0361582375657088,0.25163986606584748,0.260165860894768,0.071662601388943814,-0.49362130910375318,0.028672562123653569,-0.029619456566314078,-0.056783816260339834,0.20016183980897886,-0.27536124681743462,-0.2654225578890651,-0.00058818621502307864,-0.18497060360677764,-0.10739700053483607,0.00048308104589993853,-0.54532503658484432,-0.24495175754725679,0.28482123079247179,0.20262917295272317,-0.25408444011677234,0.32163030310076224,0.38492353612103158,0.0897316434942751,-0.064740441192006851,-0.0136839665736136,-0.10634768135412621,0.097352485660554489],[-0.6920988519935678,0.0371321228136967,-0.35996519869654925,0.069735981796065064,-0.28066138159353621,-0.42121662763331574,-0.5296278988556532,-0.72382483748801452,-0.03259821162487489,-0.72516252596025921,-0.037434820289641083,-0.36095619200995216,-0.194496525479879,0.026319359423686722,-0.25789523790581759,-0.23412580764432969,0.29094144266979971,-0.051076698780984753,0.48149796248683446,0.24452989198382266,-0.0848018660735438,-0.031272204263760858,-0.2887112356010143,-0.48957579389102951,0.15737379070085036,-0.26768682470904887,-0.17436782318448235,-0.17315117788996134,-0.27715867607548672,-0.013085250702191919],[-0.17216286243109336,-0.03972130475421011,-0.05323899576621597,-0.19247149410106962,-0.057101898115662839,-0.0916855900939839,-0.0087742462149787964,-0.71075426274485931,-0.043054319607619837,-0.066250449926923013,0.33809425370954455,0.51711194999359478,-0.12538157998589389,-0.025815867297923352,-0.062814768514570324,0.082010121265160579,0.030638234845350779,0.14213745514214454,-0.069007144057182265,-0.22223530857897542,-0.17998867272632643,0.32812761671933754,-0.132591683264421,0.19043154529859049,-0.12261164995507148,-0.062251405356462362,-0.048440424836268842,-0.16011335252373263,-0.05111299618744667,-0.27768089667394091],[-0.33690190223237637,-0.894733190550446,-0.24701651411466519,0.020106613730861138,-0.27780182986358387,-0.26525944236853577,-0.369433070691322,-0.43604146945267835,0.092594840448425461,-0.43476021447288549,0.10652951380178374,-0.191668153931713,0.28260883755993316,-0.56176048822690672,-0.089131589480828929,0.12027739466335233,0.0369037965740999,-0.17565432427443198,-0.56557606956804229,-0.1950177607060862,-1.6011959047006796,-0.042499918691664862,-0.028394321078880531,0.54956945445314653,-0.77951724308850656,-0.82484349962770764,0.35635411696612196,0.23884681670382793,-0.0416816931359044,-0.38755294877427515],[0.90693242950771391,-0.53425994519082576,0.2807747411096661,-0.039608980008359773,-0.09494777160793294,-0.066507455123442222,1.2847770761481541,1.8924870882207625,0.26399382215727346,0.57421511696649485,0.26502923744452528,-0.10205355331790339,-0.377219941777587,1.1875605925456199,-0.29565866959732839,-0.34304871954679861,-0.2818556020316591,-0.097837985242136022,0.33886024808595555,-0.3502908392762949,1.175674310767475,-0.31021062764428037,-0.41079863056365395,-0.081998999203085066,1.0705569348313297,2.0592537104583166,0.016858478839783749,0.066848900966326688,0.25500201687852248,-0.21885651992137495],[0.95323051042956508,0.37048711687837338,-0.11192633549727604,-0.0671140290706994,-0.34303555290121462,0.010763720314182896,0.43031778335152726,0.98402412572971076,-0.12868875039189032,0.38721848919788132,0.22618268142940917,0.062325564154181459,0.082878387471010131,0.26557411207900372,0.02495774690757005,-0.01589531393818527,0.48598124024020672,0.029136386017524763,0.78006517869139536,0.35181840315628909,0.71969668564598632,-0.023479456064707225,0.35296515480977714,0.093766596270638741,0.31120683648680159,0.14467028767372706,-0.025297902240289924,0.13380458286849248,-0.024820544685483517,0.17000308481052193],[-0.76621569213589613,0.033325397913881005,0.094215515072489667,0.0183708233339295,-0.29194415694379527,-0.049386650414770146,0.033899040002625717,-0.80285093237910843,-0.094259709312305789,-0.41274129059841674,-0.3011187340991055,0.45361175471969745,0.069237389163292182,-0.19192498161626845,0.019526044460502413,0.090855981570676911,-0.34102386262596557,0.20738650915713541,-0.066811158994662112,-0.085984048960557724,-0.14698824328612956,0.23468135134223978,-0.16687776405975771,0.25150599833745585,-0.608224469391859,-0.58473248619555818,-0.18124234299154082,0.17084066730774666,-0.25951105929378132,-0.045840649839655058],[-0.19291689408710544,0.28236085208979922,0.058017840683970576,0.2136780267474917,0.43793264133576665,0.018602794565264369,1.1037781231142481,-0.070211677626112468,0.014312594069845178,-0.22473171565499775,-0.365035545423128,0.057723167502849081,-0.0038343323411174478,0.0048090026124141668,-0.32295147818515363,-0.37261058380981626,0.20166719362267821,-0.080845100780950557,-0.18340893614320927,0.12958706784330717,-0.14926760953326385,-0.1333558918717232,-0.46213038631173931,0.46232596594948927,0.024395063532247435,-0.39728414451127592,-0.12202649748511268,-0.1963511724266909,-0.25719067504651788,-0.082981265341582774],[0.795619412967761,-0.0059228224527555356,0.27163035725747886,0.014518496039651746,0.62296014927975829,0.046252064501198613,1.2554728680962817,0.99288185747437863,0.2377522857631191,0.64283621911333444,0.63258423929356511,0.2517600348908941,-0.40493514904626654,0.581726930247535,0.10308805939453727,0.15477453360231808,0.49339074256977,-0.00117373790025576,-0.27536672680535368,-0.41153640345903597,0.42652408286787452,-0.097966696148933385,-0.17550255432121811,-0.45085167748947053,0.33737430160235393,-0.22884133177216506,-0.46279560023312072,0.0094333009005616187,0.25868542009662415,0.0751750262730425],[-0.30634100760112737,-0.22223332271781685,-0.18007267857986059,0.21606714178632311,0.024307933889176767,-0.15277094145096329,-0.0761014492625327,-0.054345974554624442,-0.057718217939410184,-0.24151765150590757,-0.17586912918874703,-0.0036465651608151638,0.044582998671098058,-0.0023745213509376245,-0.13917272042721426,0.054224323320278857,0.067519822716402209,0.072885785028947284,-0.677597177612713,-0.37507809837788686,-0.38115339797003828,-0.18481622071907491,0.18498610998636067,0.008888043159620107,-0.0808917804218249,-0.077323038068755734,0.27896871937702733,-0.17801434319664336,0.14333373689404247,0.13308636553011885],[-2.6071507357603325,-0.46539331210666257,-0.29569949558603936,-0.017534398838644459,-1.2327484302887941,-0.0904979012298399,-1.5077330142246703,-2.3796712458984577,-1.1057303400404961,-2.8715235662267777,-0.60558190850873739,0.24250694176978019,-0.64611494376233047,-0.11841568090613087,0.12140219690045596,-0.22764174627627448,-2.0439271854538075,0.004328582840670986,-0.41070586107904955,0.061735828183576348,-0.65109950039185738,0.063233682550198428,-1.1290360451355157,-1.0391372121511229,-0.9395758318724261,-0.78811706195192455,-0.7145486158242399,0.21566727200353594,-0.52555133256690068,-0.20527724845986803],[0.37610194562311644,-0.24992608295203916,0.069200436169865959,0.043878534973840477,-0.34365631223056486,0.32251606991261583,0.045278002483952876,-0.0743464967264122,-0.072212319696815769,-0.371951761111459,0.2453309370181839,0.24279981383098498,0.098026245312889768,-0.17289162336019048,-0.20877308066773118,-0.049362115868749536,-0.32706784641057679,0.54848060217699957,-0.22820305288971732,0.12048400133332426,-0.015323362559987886,-0.0077109429740912245,-0.16635184070120043,0.053937587005103073,-0.053376662305653029,-0.27491932478824416,-0.020403288081081713,-0.10160784758842731,0.13480083180633562,0.094160445159550688],[-1.3768388764102202,0.758096175567732,-0.5158127744290697,-0.22615488394643168,0.62410379672369531,0.1556752249012249,0.53083963286142655,-1.4940981174810575,0.39432214592776027,1.5737748214604215,-0.38184778154754562,0.54305296580482776,-0.26725320379628259,-0.38545523771384671,0.081179542387841738,-0.40545113850422376,-1.2684919863702093,-0.034223837927672036,-0.14336462525471608,-0.14224718679075121,-0.029708668187169492,0.6454051702048057,-0.36644285244252128,0.86393279460853245,-0.085223080957888844,-0.66956888497554146,-0.2965796682830622,0.11807514569709919,-0.2437552456659832,-0.20066125100931284]],"ActivatorType":"LeakyReLU","GradientAdjustmentParameters":{"Type":"Momentum","LearningRate":0.001,"Momentum":0.1},"Type":"Standard"},"PenaltyCoefficient":0.1},{"Type":"L2Penalty","UnderlyingSerializedLayer":{"Bias":[-0.037435483103910171,-0.033007610329541241,-0.018218501336790354,-0.087966862576208019,-0.0065317850936292485,-0.0035814054301976268,-0.0085194047354015534,-0.020137621804960169,-0.024217479229094275,-0.028577610519561668,-0.025417479823894317,-0.038785988041336449,-0.0090265619453513638,-0.0078131864940245346,-0.35972779622336382,-0.026690397220001234,-0.020726535733460005,-0.088575014559060458,-0.3044910034332749,-0.0030653585011151487,-0.036097552209294628,-0.0012315219849832922,-0.027175690463913271,-0.1067905257550464,-0.018845298043090524,-0.019224713251094819,-0.0019675215023352418,-0.013117752089572049,-0.028111122926078008,-0.038205434194420941],"Weights":[[-0.85149726124117853,-0.25316824060140453,-1.3408843398115811,-0.98687618292661328,-0.1940997375342215,0.03636233604958005,-0.34992927109592614,0.1246551345290431,-0.0039653677676685815,-0.60899080246447879,-0.50954743794556356,-0.3507875966444336,-0.17088862195084376,-1.0567172455054337,-0.21651073255531511,-0.71862641769058966,-0.23030374737548875,-0.46480191952882771,1.0198798419217394,-0.52449342277617506,-0.0939581675102176,-2.0415047244413036,-0.53604091595995507,-0.86249048980073417,-0.28027543659343979,-0.74155916994052939,-0.28674700848888152,-0.3745146905810835,-0.34554640847129436,-0.67090427447692491],[-0.39896485140607374,0.35311997570479869,-0.85188499335630918,-0.39985493516462634,-0.20550014502653094,-0.32488066668525611,0.0073059699378004942,0.05677099637930412,-0.12397043586906413,-0.58738925917134188,0.001307432802317347,-0.20913597481943408,-0.16587044013676225,-0.32037783911619994,-0.30683476908850621,-0.097245263641442078,0.00749171629949317,-0.34295786256865785,-0.18513507586913325,-0.29106602611064863,-0.29971944221326535,-0.90293626607058863,-0.30667249089438775,-0.13461318183529711,-0.43255999026305259,-0.14248003918648269,0.075529317621605571,0.11032764869139321,-0.14467636249990451,-0.44672780085965785],[0.32355205852877655,-0.0720364364293841,-0.0078633404356909589,-0.01620870782428711,-0.30397071006990012,-0.12774509183235636,0.207590315853812,0.00065353707202161007,-0.12997542675230653,-0.014837146736043718,-0.044065426011662974,-0.045375280225349361,0.022957760145208624,-0.2567582865135275,0.0762459500733275,-0.14315224470986271,-0.3036640898562411,-0.13581324806692552,0.25440413217850971,-0.35157210881978845,-0.35359326383321515,0.13795690702808694,-0.055734746519662787,-0.37510109743690878,0.16113433039262728,0.081851198174258843,-0.024839532276180357,0.044121471398012244,-0.37809155377390996,-0.36208585981867814],[0.12418842012265957,-0.13340104029933636,-0.05972179015924331,0.019724160499843303,0.36413024893983481,0.072172823617264029,0.067472801934557611,-0.018646496466665077,0.0039458397597399077,0.022265757170963175,-0.11004781276494496,-0.10762034664520707,0.071034907457315569,0.12328341456298295,0.10892533220568736,0.15521219969173566,0.060685271375750922,-0.002755544769983177,-0.15697721797920083,-0.030138306192147909,0.046749514149091412,-0.26801878390660411,0.0656886204275138,0.15452484678941,0.36539449644107985,0.13165463714477754,0.012416161102580625,0.37130050306061091,0.28045028560316793,0.239119087471379],[-0.086521938684770955,-0.046361234751829038,-0.27585371672402309,-0.29780002980693238,-0.12299518507898381,0.06533590355738382,-0.088072864741052415,-0.0199989082545489,-0.26922183030077773,-0.041565355162602818,-0.21083672014653804,-0.0933290038304717,0.13467269527857956,-0.017596736291321979,-0.23936280039690525,-0.0043166338257398856,-0.078193643253890874,-0.5505887991106011,0.028943305668603855,-0.11071529864814475,-0.53047523608861458,-1.3166992164183795,-0.31121329199472431,-0.69538883499675985,-0.3215194947963762,-0.013377393313080282,0.062542783729075041,-0.30913586154448297,-0.38385378992151353,-0.060858674072965552],[-0.1127276085441101,-0.29554576866917165,-0.37255993195243375,0.094210989095667025,0.084745157234831212,0.18213014980229456,-0.035428785057699343,0.0694670599829859,-0.1662350595728041,-0.11197499162172507,0.27822179769233135,-0.12247925016660706,-0.10078364346577237,-0.26023467874127509,-0.16066481335495067,-0.23312696134123309,-0.22405763381634242,0.0810171458693837,-0.14094709938075636,0.19409267300727734,0.14241085821691743,-0.020720849217495743,-0.3465299456024582,-0.013629529969035714,-0.23761275732514192,-0.12636306970096203,0.23751854662200811,-0.030360525481504995,-0.073795752837737691,-0.11600547923016466],[-0.56793922344160452,-0.21880340687910954,-0.76841393700661753,-0.874671946360587,-0.390319539275795,-0.30400961174875807,-0.34014551577425423,-0.30599660401057321,-0.11241721020250606,-0.69262479805097232,0.0018302886796031375,-0.22553279061824841,-0.3279926314861582,-0.40816176653292185,-0.43120029586885555,-0.52783657596305589,-0.52339750775226546,-0.16775178186073672,0.4670277804294517,-0.30975345347197192,-0.38875475016129629,-1.2951484961718236,-0.29188579538444082,-0.29907699655133552,-0.21449863305659597,-0.82165854568686669,-0.20814139788743877,-0.42704271234890756,0.20429661378905778,-0.77403100504761124],[-0.62689073884994972,-0.5584710581659964,-1.2188220375093344,-0.817171165673458,-0.34607484862115645,-0.11999316274207059,-0.20571196236374892,-0.44631402888642424,-0.32064357286341005,-0.36766418444862209,-0.54187412631551035,-0.39779158012506832,-0.1155809763453013,-0.96150018942450377,-0.50470509583987244,-0.820710184519261,-0.40053153774068861,-0.649771469402243,0.66222381455743284,-0.61505165307694376,-0.521979329164427,-1.8783791556580456,0.06064393373784794,-0.912903777148342,-0.37910476722292097,-0.69454197829273223,-0.27333593003357753,-0.20171380987297027,-0.12699123064452955,-0.90723596711673737],[0.039216043089492426,-0.28286670282280962,-0.32400548157166381,-0.028872124815562551,-0.38541031114861013,0.2284172387506235,-0.17827985751036915,0.0023409327206925152,-0.500531001034014,-0.13147741107778235,-0.13038510697092534,-0.25772597415852283,0.061668650852145832,-0.26303108949318937,0.046886111835768018,-0.33340848834435283,-0.18583310137651876,-0.058592773744675496,0.044034311055167509,0.19193364234043991,0.21228927682453325,-0.98978235102240975,-0.29430405885671518,-0.436663177321631,0.0043810803019430616,-0.14823581790461618,0.037796763429966969,0.10283193245803377,-0.29125367345661163,-0.1957847505709687],[-0.44108706542112813,-0.50701607741173149,-0.82364256397568925,-1.1903656124874189,-0.047772392465021775,-0.0035992178793934192,-0.15440235054252985,-0.36889801515152815,-0.3623780455740922,-0.33987631389833589,-0.46255762062592376,-0.3616055866387588,-0.1505215720836485,-0.58089850965615342,1.1481293257873995,-0.42920993695616949,-0.20619162591805404,-1.0055114939486063,-0.58495595470266792,-0.49746502118798752,0.04902523465348179,-2.2581726184274595,-0.25029097655487847,-1.0233735465985956,-0.16021489037239128,-0.49083881074366653,-0.39080177293388851,-0.26088444248066522,-0.29821282691308676,-0.66813725291770831],[0.12132063562277645,-0.38505440322233447,0.36307236748407068,0.30640019552173964,0.39384846808259322,-0.064429252392068148,-0.18515962239906161,0.1742754807303829,0.048860148846666243,0.02598200722840607,0.22992905007180847,0.25214250006709521,0.057826407942949215,0.36515721010664348,0.97099177710253826,0.0784376539766235,0.13026696690601158,-0.08140947248857007,0.47685008954905983,0.20590736139586949,-0.0534929709007206,-0.15333231617462059,-0.078404366509226942,0.049714993857978888,0.36648281227291168,0.24137979527523995,0.42718467893147338,-0.010826331249900591,-0.040753957014894135,0.35273065250109437],[-0.2754417291966334,-0.078801659523261472,-0.36661564113896167,-0.22151049652555957,-0.10854979817673874,-0.1790386951677316,0.083354253569085365,0.099172894142690149,-0.18367970095737185,0.044320537933772594,-0.30790893775778,-0.27564144722181516,0.21857702538086962,-0.26116324288406856,-0.6602214711404516,-0.15340340605818909,-0.14956529468158941,0.012789117422824342,-0.28915972129070783,-0.20465109690532124,-0.084813150437865609,0.10239098810942564,-0.047010109421931311,-0.013721309327772656,-0.10114959774187191,-0.15353735061431614,-0.054528256581611992,-0.21298023751762871,-0.042050588423080279,-0.15722833048242405],[-0.261918359742454,0.030687728823697587,-0.54938990737391913,-0.19845751221773908,-0.12056939027854616,0.19898659765264409,-0.21775203444038113,-0.19909388525205796,-0.077703298864490108,-0.1422000304495642,-0.19428486276870571,-0.22755925382204215,-0.19536287243018877,-0.263737636683806,0.19912198594518007,-0.056520522338607423,-0.026897788204775116,-0.12361083395319766,0.17414676766668319,-0.4742958214946591,-0.25320457948665143,-0.80714381134471691,0.030029535740644729,-0.032256550529800684,0.21797161617315719,-0.11470574456412948,-0.11572446432136067,-0.19223175062028905,-0.19127479126726885,-0.39405469803537768],[-0.020168023532198973,-0.11965997735998372,-0.19578797925562994,-0.21299737870126922,0.059870293200126989,0.0617605400146995,-0.015021332136085778,-0.088874109752515279,0.12143079302349437,-0.054264620438708951,-0.10691149395903273,-0.036219202030008175,-0.14560838889029332,-0.14862731019201991,0.46857160881227222,-0.25671428787168965,0.13704382707363819,0.047437711474231876,1.5202904889004685,-0.081106657484421918,0.012626041630840414,-0.56552072039473411,-0.096394422012616568,0.0349805759118707,0.067848667482652558,-0.10392113518343937,0.10661642874945486,-0.33310807964238726,-0.1217175172408442,0.030433385060865757],[0.13037447812491168,0.33391019736241306,0.03165736916560194,0.0069185586870126282,-0.22991153001365447,0.15737929999312583,0.08079847467940697,-0.16200092058168408,0.059984086803612134,0.12553329938528912,-0.0569844928403461,0.22795330921637605,0.16508653470204696,0.0274967769200715,-0.35502972706287339,0.14868350446003917,0.22923761891020145,0.00084093385182943715,-0.26135827701244363,0.040204216569570378,-0.16799511370797698,0.050981092688036286,0.051445928368714686,-0.017306325436900503,0.0059112593723859826,-0.12722378661362921,-0.027850619564619747,-0.16934514109980905,-0.0758757603333465,0.16222849285077662],[0.19720421670169733,0.13940934169155619,0.16831776542925106,0.086665529472374561,-0.13812704582074403,-0.053741397302572137,-0.35076851270792236,-0.084324107071606022,0.061503906848899767,-0.097442995084053352,0.012788600402382166,0.013546997504276841,-0.0987272985984751,0.16430951520708889,-0.19741446169857224,0.045856693703035765,0.069096723724114767,0.14668282413375119,0.31498247724478051,-0.023313902640298798,0.013279590085651889,0.10347768342698636,-0.18535982047561539,0.17128192146785598,0.00342601014537812,0.055745299409681426,0.17995901137881451,0.30304338576883888,-0.3038204115039001,0.10609594494795362],[-0.47830652320064976,-0.27048166725282952,-0.77283779151611109,-0.86167400553343443,-0.36881399031306761,0.021641094055702893,-0.26677006448871349,-0.539068282226724,-0.3707695653837782,-0.36890242302327908,-0.34770437359997208,-0.35129725113383053,-0.0048924710618655515,-0.41352412589463111,0.073537747877864809,-0.57885777810954875,-0.31248061863506144,-0.305096187717063,-0.46983172367300141,-0.45542646022036876,0.0022078940895142048,-0.89697642429624846,-0.27067998785709224,-0.44837547937507111,-0.1337729758820039,-0.53668880200242852,-0.43942173395624967,-0.42897910175205717,-0.099231392230535287,-0.5830587643822297],[-0.15929803179801583,0.37020661126647081,-0.10796632020727411,-0.016363754851508868,0.066918794496617209,-0.07630403090288472,-0.13453274954251432,0.12826234847588902,-0.24433660833085738,-0.086998743104217638,0.030046622274207894,0.077778685152919122,-0.18310794221311366,0.12967789182165579,-0.087392131153479158,-0.089805151150246287,-0.19127907554774185,-0.023963646060012771,0.032122935563124011,0.40761999636607454,-0.10608502222712105,-0.011280615246191957,0.25906854217154168,0.0012460552889612547,0.29474220598118372,-0.0376924859550616,0.17895806040316806,-0.015982592269879262,0.22744901192811354,-0.061007297258125572],[0.029387149117849006,-0.076726463494560651,0.2249866143853155,0.47626691976491314,-0.21321049318082225,-0.038063837666936953,0.081002256111253487,0.069060979562255362,0.17355128334132247,0.19241475468275784,0.071780999990486052,0.38086651864112797,-0.16172234403935679,0.22584245603306677,1.3510248658159783,0.4254133682686902,-0.23018869220654181,0.48144143099736036,0.010998367041162815,0.2092775031681505,0.18561888557509323,0.4807131367587531,-0.075425072451412889,-0.19160819259964806,0.1989880684325554,0.00955579141728424,0.037821013757466236,-0.32917875511943806,-0.15745268718651026,0.33518452749060484],[0.21631654346517798,0.0056271147411355305,0.11129130281323325,3.9522805829201949E-05,-0.052036778624943818,-0.074750392038863328,0.12360331494540178,-0.35328161250294526,0.08739144840411546,0.18982699794178734,0.31691245757989123,-0.093459940191626775,-0.034229788741669279,0.1255392584096518,0.24327713268932683,0.37727888718415115,0.19992371514736987,-0.12078479865757594,-0.11486356056457976,0.13529035801817976,0.31188927638802488,-0.08012196476165491,0.0805061577322761,0.086246527141699739,0.33270592211741723,0.505389776463851,0.0048334343340481626,0.2678948339831167,0.078567018650467432,0.14718603983286954],[-0.46469645832888662,0.01857926210155093,-0.57798584456737556,-0.60874173946485166,-0.16664724118453353,0.03050548467474036,-0.24403735330815485,-0.21861226941463441,-0.1030523937357891,-0.026842330706239679,-0.45968577936991573,-0.12151581343649015,-0.3908784190799825,-0.47267521320047351,-0.583918070145252,-0.269428287456331,-0.073876453669023831,-0.47037841539041592,0.73808438559738854,-0.27026062673673557,-0.16264911149151062,-0.86715045337446472,0.039284285596740375,-0.90213733880436031,0.16592795376894995,-0.32532260677663039,-0.42008660177796731,0.0734135211512642,-0.041192850522731229,-0.22589316989425678],[-0.17403419093019953,-0.15464940682565256,-0.11453573188995482,-0.0910149364421458,0.018804005376144517,-0.40850009580224822,-0.49566176852879945,-0.25218661080943805,-0.099337067480307711,-0.26451502713480329,-0.000809288367503209,0.11007465452199752,-0.17236582474756587,0.25964019011594619,-0.92343644792751911,0.22670388527992644,0.073350918870695156,-0.11057692646067308,0.036796593782392924,-0.25896031774693934,-0.15145893359444052,-0.13810600166763834,0.20078977849862462,-0.1879348339675653,-0.19916646900707929,-0.13672356710504088,-0.23353224902094513,0.025635138861232573,0.12891314930955961,-0.057692203369522591],[-0.11851672027462179,0.13599268282929372,-0.22733823009039628,-0.21647790086643709,-0.13087383552303566,-0.11281353127367826,-0.052632337318868787,-0.051704168816191512,-0.079543327426181171,-0.072551514854094223,-0.3509037598916499,-0.15471613889493541,-0.27998226830169193,-0.31874627321246057,-0.24454401261374606,-0.427127834770757,-0.24791988979641147,0.085139469888972072,-0.26816045412594652,0.08053152901525619,-0.036506578278064604,-0.67797994464005829,-0.099421032801640163,-0.0085980629383718855,-0.12953134882042575,-0.37880685363899297,0.028301213695061975,0.14294871400823694,0.035576770855410673,-0.0058787041327216351],[-0.21797402700556057,-0.13333615842947114,-0.37831286399603653,-0.502946634269002,-0.15655102809559254,-0.12513855834626508,-0.073938973047052728,-0.019875745061799645,-0.16367336111021158,-0.10408652562347738,-0.19196967612624577,-0.14392835687303654,-0.50321540540273579,-0.28470005589870762,-0.34289987780931114,-0.38884393188717409,-0.012245143180149293,-0.42425512827131739,-0.56157713489735084,-0.33998257855627778,-0.2335443829195068,-1.0099207279804285,-0.30230466693234448,-0.47048861843884321,-0.043826476904623025,-0.38923126792265339,-0.094762021189656348,-0.24923034897476867,-0.048968962458417538,-0.4112401963706328],[-0.42006619411813556,0.19282227070482685,-0.77790355492606678,-0.69800186407163822,0.22453202706328476,-0.21408149928777792,-0.445201326186977,0.0696486693825513,0.095403708174412585,-0.17062019150652105,-0.33264683064371148,-0.039399642836376675,-0.24527768289060503,-0.36405352964786442,-0.095735897296099021,-0.13758749215693941,-0.2199547874968458,-0.029341917496065448,0.01648537914387178,-0.15464138419349405,-0.2305780146754817,-1.0536127662822672,-0.23269187045103151,-0.045926228143024474,-0.017797004749654895,-0.54693357125685271,-0.2437431326228528,-0.25607587041702595,-0.38851924891591355,-0.333086644919318],[-0.38076781940469934,-0.2505438802745224,-0.570143973659073,-0.70043831010953894,0.00056153479625136241,-0.077267937289606278,-0.1412613401327591,-0.1450050680824716,0.093366132405027086,-0.47575971178866566,-0.18839074540778428,-0.34704621735932584,0.22251733494812359,-0.45338801417232677,0.47964466050776333,-0.35652026934105613,-0.24891195568504049,-0.43942743409668422,0.50746236707457415,-0.17201525273322907,-0.15489865282552426,-1.3479445241112213,-0.308192034323034,-0.51313718035107325,-0.28589163449084742,-0.37375374919928978,-0.22710164730714072,-0.24345616261798575,-0.058274124084878594,-0.53364724509065853],[-0.36256334895280862,-0.19100862801271176,-0.41961022788821395,-0.6400191646693365,-0.078442517778155571,-0.38902145907834468,-0.32374399895947314,-0.30574547633584542,0.068066404904536318,-0.22300851152318435,-0.16095681037476492,-0.071635059563857864,-0.14558430844677514,-0.21494936505174839,0.11254847397805312,-0.21672208583074287,-0.1793089120114324,-0.0068789127667512173,-0.304745012782674,-0.39090672596869536,-0.17854746306615416,-0.82507005842305381,0.01930904289608908,0.10188681984635785,-0.2385548771756206,-0.26865337162707292,-0.39161747164720156,-0.12153395006803489,-0.0073476154191444527,-0.10142158529342259],[0.28506302991384236,0.16058153416830298,-0.24533456061578424,-0.36010343456379612,0.082804212905385824,0.10085332062958026,-0.1237451274234425,-0.18303319824982667,0.023175546083778656,-0.036459127537387191,0.19231442822222922,0.11537637754763849,-0.13380447443709825,-0.011434980411209194,-0.39990016918423171,0.12891662769549406,-0.012717557762293693,0.0097653670526451838,0.15753222742564188,0.014550191649436639,-0.063628889736114441,0.078680031858464158,-0.24300908678804284,-0.29893023818812919,-0.28032380811894242,0.26650746393689057,-0.14610274113185598,-0.0030536150685688515,-0.1233117038187867,0.15767605214174343],[-0.082703654067023624,-0.12595579442235674,-0.064650210145296691,0.0031112066613482614,-0.31125872012604011,0.024009559484679779,0.052195590227932145,-0.20319909249228915,-0.29084275182910979,0.16672903857806218,0.083918347140419527,-0.21757080286682956,-0.0044595904545131774,-0.029337585892365008,-0.18113593227301703,-0.24065747553215369,-0.070600455504953044,0.24369012228288106,0.2951135098748115,-0.042673311766754957,-0.47210065494974784,-0.64594090251795044,-0.182367366762344,0.16690637226427527,0.097271932763095675,-0.0075728392770745192,-0.0054378153383812782,0.0066151314170631165,-0.056117280488421961,-0.23464678808227166],[-0.10682086002110092,-0.28765060161610845,0.19751402693059222,-0.21560004338718963,0.060664670055029228,0.07714629437497364,0.14694891399418067,-0.050694728948771875,0.0024379544934128522,-0.065200193632771936,0.4399701220192101,0.072580488630735226,-0.00060109860146030376,0.002841146434603307,0.1828042629944743,-0.10010752461198215,-0.017686741997778047,0.00726128263542144,-0.16647148123793373,0.038378447883330551,0.137280224113185,0.17262663854782373,0.086450361935527242,0.1997438570956214,-0.24866678440065859,-0.20087167262193595,0.0077063804136323988,-0.074057155809498509,0.20880976635299653,0.12508759193557245]],"ActivatorType":"LeakyReLU","GradientAdjustmentParameters":{"Type":"Momentum","LearningRate":0.001,"Momentum":0.1},"Type":"Standard"},"PenaltyCoefficient":0.1},{"Type":"L2Penalty","UnderlyingSerializedLayer":{"Bias":[0.073743329097965993],"Weights":[[-1.5148771798273892],[-0.62492554445315207],[-2.6394154243417276],[-2.4872586535032579],[-0.6463820563441427],[-0.27179901210443685],[-0.71585916032474961],[-0.66037783978037545],[-0.55544304701996339],[-1.1310802882087083],[-1.0432214091641343],[-0.77137476717539033],[-0.46836997204459446],[-1.7922136023467146],[-0.26471000617110346],[-1.4918536272010248],[-0.69350106024285663],[-1.7288610976227057],[-0.41934179853207809],[-1.238449538801895],[-0.67480046885830014],[-4.8301537880635994],[-0.718775496713657],[-2.217187400179133],[-0.62783881897796268],[-1.5976039133184203],[-0.80403737491343885],[-0.74554563775202121],[-0.570711781530304],[-1.787126579082041]],"ActivatorType":"LeakyReLU","GradientAdjustmentParameters":{"Type":"Momentum","LearningRate":0.001,"Momentum":0.1},"Type":"Standard"},"PenaltyCoefficient":0.1}]}